~o
<STREAMINFO> 1 39
<VECSIZE> 39<NULLD><MFCC_D_A_0><DIAGC>
~s "silst"
<MEAN> 39
 -1.969965e+001 4.024160e+000 7.281002e-001 5.109021e+000 4.447008e+000 6.007173e+000 6.431458e+000 6.695966e+000 6.970060e+000 5.633996e+000 6.249996e+000 5.491554e+000 5.694048e+001 7.362180e-002 -2.867024e-002 -2.242285e-001 -1.486320e-001 -4.967681e-002 1.749191e-001 1.508022e-001 -9.680928e-002 -3.309369e-002 -4.119487e-002 -6.397402e-002 -5.496960e-002 6.640856e-002 6.211969e-002 3.608751e-002 1.897448e-002 3.929305e-002 4.166134e-002 -3.977402e-002 -5.688585e-003 -8.231010e-002 7.933155e-002 4.349862e-002 -7.480089e-002 -8.481798e-002 4.207922e-002
<VARIANCE> 39
 7.076837e-001 7.603551e-001 1.355148e+000 1.200155e+000 1.923851e+000 3.168239e+000 5.245516e+000 2.009057e+000 2.081579e+000 3.840261e+000 3.599577e+000 9.669411e+000 5.072046e-001 5.469255e-002 6.620883e-002 1.461540e-001 2.104248e-001 2.570498e-001 2.367488e-001 7.998189e-001 4.754088e-001 3.372827e-001 2.956003e-001 3.937826e-001 8.707793e-001 2.038435e-002 6.341258e-003 1.553117e-002 3.655257e-002 4.814376e-002 5.837049e-002 5.301088e-002 1.417907e-001 5.966354e-002 5.316870e-002 7.440994e-002 9.783649e-002 1.684870e-001 3.877476e-003
<GCONST> 1.920904e+001
~h "b"
<BEGINHMM>
<NUMSTATES> 5
<STATE> 2
<MEAN> 39
 -2.296067e+001 -6.034615e+000 1.164319e+001 -2.445929e+000 1.294169e+000 -8.372108e-001 1.313038e+001 -1.713558e+000 -9.815449e-001 9.688784e+000 9.093288e+000 -8.412979e-001 6.924038e+001 1.497882e+000 5.345752e-001 -5.650920e-001 3.321877e-001 4.011900e-002 -7.920100e-001 -6.672972e-001 -2.496065e-001 -1.303935e+000 -6.647628e-001 -7.371699e-001 8.036085e-002 4.599852e-001 4.912539e-001 4.494630e-001 -4.729250e-001 3.191513e-001 2.489285e-001 5.791830e-002 -5.484553e-001 1.359251e-001 3.991253e-002 -3.196863e-001 -3.688084e-001 8.609705e-002 -2.467244e-001
<VARIANCE> 39
 8.113378e+001 1.765194e+001 6.041259e+001 3.032628e+001 2.146637e+001 2.100536e+001 5.132016e+001 2.193911e+001 4.050285e+001 6.903421e+001 2.723069e+001 9.000197e+000 1.173900e+001 1.032720e+001 3.412012e+000 5.711752e+000 4.674102e+000 2.696783e+000 1.246435e+000 6.746972e+000 2.309211e+000 2.742483e+000 6.090155e+000 3.906775e+000 8.353926e-001 6.116316e-001 9.313280e-001 4.035107e-001 4.286675e-001 5.544474e-001 8.632070e-001 5.379477e-001 4.885972e-001 5.877147e-001 7.102814e-001 1.184111e+000 5.012091e-001 1.796624e-001 2.282985e-001
<GCONST> 1.213192e+002
<STATE> 3
<MEAN> 39
 -1.121275e+000 2.684641e+000 -4.137381e+000 5.364392e+000 4.684805e+000 -9.673901e+000 -2.652273e+000 9.396588e-001 -7.887427e+000 -4.314922e+000 1.676489e+000 1.096320e+000 7.227509e+001 1.707017e+000 1.189014e+000 -1.708895e+000 1.137424e+000 2.732038e+000 1.801536e-001 -3.454102e+000 2.312457e-001 2.138479e+000 -1.427444e+000 -2.638483e+000 -1.025283e+000 4.652871e-002 -1.596491e+000 -2.075361e-001 1.090750e+000 -4.084145e-001 1.609100e-001 1.307886e+000 8.316310e-001 -3.814159e-001 1.269293e+000 1.297971e+000 -1.559844e-001 -6.289324e-001 -5.642591e-001
<VARIANCE> 39
 8.475890e+000 8.833982e+000 4.411205e+001 5.290117e+001 5.156140e+000 7.898723e+000 3.152757e+001 2.006480e+001 5.816673e+001 1.627882e+001 2.368685e+001 6.135566e+000 9.901174e+000 4.216823e+000 9.807414e-001 2.212251e+000 9.579240e-001 1.615834e+000 3.868673e+000 5.722867e+000 1.532177e+000 6.398834e+000 2.916204e+000 2.031816e+000 2.436044e+000 3.507383e-001 3.283638e-001 4.775172e-001 1.780795e-001 3.977382e-001 2.660133e-001 1.801981e-001 6.071776e-001 3.993925e-001 1.333209e+000 2.699990e-001 8.209755e-001 2.627663e-001 7.999523e-002
<GCONST> 1.036461e+002
<STATE> 4
<MEAN> 39
 -2.045442e+000 3.404779e+000 -2.065238e+000 1.019558e+001 1.459529e+001 -3.612744e+000 -1.071367e+001 -4.796697e+000 3.595362e+000 -3.732925e+000 -5.550088e+000 -6.888165e+000 7.092421e+001 -2.689073e-001 -2.616377e-001 6.179168e-001 8.710021e-001 7.486514e-001 3.612266e-001 -4.265117e-001 -4.954026e-001 7.919360e-001 -1.829464e-001 -5.848256e-001 -3.206571e-001 3.436154e-003 -1.423537e-001 -1.119660e-001 1.346176e-001 -1.079341e-001 -2.876767e-001 -3.044195e-002 4.006127e-001 -8.967827e-002 -4.340141e-001 1.057658e-001 3.302471e-001 2.189067e-001 -4.676655e-004
<VARIANCE> 39
 4.404553e+000 4.393581e+001 2.092960e+001 5.193134e+001 2.718142e+001 2.110693e+001 4.392871e+001 2.756799e+001 1.643115e+001 4.414562e+001 1.843185e+001 1.591173e+001 1.751386e+001 4.315491e-001 5.168375e+000 8.045588e-001 3.320113e+000 3.089910e+000 3.997102e+000 4.142818e+000 1.046495e+000 2.377108e+000 6.236279e+000 4.181632e+000 3.327271e+000 1.854390e+000 1.723935e-001 1.114770e+000 3.060057e-001 8.994218e-001 7.819938e-001 9.459829e-001 1.277686e+000 2.430631e-001 7.951735e-001 1.327245e+000 7.826642e-001 2.878820e-001 4.109169e-001
<GCONST> 1.174917e+002
<TRANSP> 5
 0.000000e+000 1.000000e+000 0.000000e+000 0.000000e+000 0.000000e+000
 0.000000e+000 8.197765e-001 1.802235e-001 0.000000e+000 0.000000e+000
 0.000000e+000 0.000000e+000 4.296499e-001 5.703501e-001 0.000000e+000
 0.000000e+000 0.000000e+000 0.000000e+000 7.965984e-001 2.034016e-001
 0.000000e+000 0.000000e+000 0.000000e+000 0.000000e+000 0.000000e+000
<ENDHMM>
~h "d"
<BEGINHMM>
<NUMSTATES> 5
<STATE> 2
<MEAN> 39
 -3.238781e+000 4.852046e+000 -6.514123e+000 -4.048244e-001 -2.448076e+000 -6.935012e+000 3.895527e+000 3.054688e+000 8.278918e-001 -3.268223e+000 -1.269372e+000 6.800278e-001 6.936014e+001 -3.734524e+000 2.635517e+000 2.815031e+000 -4.313601e-001 7.037240e-001 3.005088e+000 8.865979e-002 1.721512e-001 1.248617e+000 1.348362e+000 2.851714e-001 2.091093e-002 -3.552589e+000 -1.973047e-001 -5.309463e-001 -2.681616e-001 -8.804394e-002 -2.274519e-001 1.185409e-001 1.332923e-001 4.029493e-001 5.123942e-001 6.564767e-001 5.473021e-001 3.426397e-001 -7.825460e-002
<VARIANCE> 39
 4.130643e+001 2.578548e+001 3.002401e+001 1.770853e+001 3.221825e+001 6.378637e+001 8.868217e+000 1.923317e+001 3.392688e+001 2.068229e+001 1.633172e+001 4.310717e+001 3.244678e+001 1.471380e+000 1.229187e+000 4.871893e-001 1.481819e+000 1.379859e+000 7.059963e-001 9.741827e-001 1.758469e+000 3.524355e+000 2.847140e+000 1.938411e+000 1.350415e+000 1.223673e+000 6.430190e-001 3.672261e-001 3.200374e-001 2.091702e-001 1.226764e-001 6.387873e-001 1.627048e-001 1.507409e-001 4.079394e-001 3.477435e-001 1.684755e-001 1.365021e-001 4.500068e-001
<GCONST> 1.016047e+002
<STATE> 3
<MEAN> 39
 -1.238908e+001 7.937532e+000 2.135515e-001 2.290072e+000 1.530887e+000 3.096489e+000 4.140958e+000 4.455573e+000 4.811223e+000 1.996160e+000 1.177048e+000 -9.778010e-001 6.084064e+001 -1.477084e+000 -2.987895e-001 6.038328e-001 6.629059e-001 5.276854e-001 9.841367e-001 2.291271e-001 2.431947e-001 4.828215e-001 8.955691e-001 1.041107e+000 8.993244e-001 -1.046608e+000 3.236061e-001 -3.574393e-001 -3.524807e-001 1.414487e-002 -2.292437e-002 -3.827101e-001 7.524396e-002 2.341575e-002 -1.369533e-001 -1.530104e-001 -4.102193e-003 1.312270e-001 3.821181e-001
<VARIANCE> 39
 9.497739e+000 8.500969e+000 1.699199e+001 3.332589e+001 3.638873e+001 2.080470e+001 3.476886e+000 4.856518e+000 1.429400e+001 1.828052e+001 2.968191e+001 5.723347e+001 3.685884e+000 7.772055e-001 4.639199e-001 7.881370e-001 9.296622e-001 8.109962e-001 1.186228e+000 4.587136e-001 7.092168e-001 7.400149e-001 1.770937e+000 9.213729e-001 1.095985e+000 5.503362e-001 2.192598e-001 1.322422e-001 1.334537e-001 2.174632e-001 2.434865e-001 2.089631e-001 7.942237e-002 1.682410e-001 2.198454e-001 3.351941e-001 2.127235e-001 2.316965e-001 1.664666e-001
<GCONST> 8.157660e+001
<STATE> 4
<MEAN> 39
 -1.930367e+001 4.322324e+000 5.927998e-001 5.725749e+000 4.205194e+000 5.649521e+000 6.044691e+000 5.582113e+000 7.107843e+000 5.713870e+000 6.197044e+000 4.950531e+000 5.769925e+001 -1.546946e-001 -3.046367e-001 -6.104736e-002 7.846002e-002 6.702822e-002 -2.213699e-002 3.746758e-002 -8.069183e-002 3.262920e-002 9.902170e-002 2.007703e-001 2.006716e-001 3.440261e-002 1.824410e-001 -1.211525e-002 -3.815417e-002 9.267006e-003 -2.258323e-003 -1.378075e-001 -5.967353e-002 -7.627755e-002 -1.328447e-001 -1.740931e-001 -8.366472e-002 -9.023044e-002 1.612291e-001
<VARIANCE> 39
 3.041887e+000 8.689063e+000 1.287556e+001 5.854856e+000 1.096554e+001 6.032631e+000 5.767077e+000 1.147052e+001 7.935052e+000 5.536105e+000 7.527654e+000 8.282186e+000 4.251643e+000 5.264665e-001 1.510966e+000 2.074725e+000 6.423289e-001 1.128413e+000 6.923184e-001 6.942869e-001 1.564795e+000 1.265165e+000 8.631650e-001 7.745303e-001 1.266068e+000 1.059149e+000 1.620919e-001 3.047028e-001 4.330134e-001 9.160766e-002 1.907629e-001 1.897440e-001 1.310027e-001 3.611511e-001 3.170759e-001 2.882859e-001 1.964075e-001 1.968151e-001 2.787192e-001
<GCONST> 7.751302e+001
<TRANSP> 5
 0.000000e+000 1.000000e+000 0.000000e+000 0.000000e+000 0.000000e+000
 0.000000e+000 5.224192e-001 4.775809e-001 0.000000e+000 0.000000e+000
 0.000000e+000 0.000000e+000 7.952110e-001 2.047891e-001 0.000000e+000
 0.000000e+000 0.000000e+000 0.000000e+000 8.918715e-001 1.081285e-001
 0.000000e+000 0.000000e+000 0.000000e+000 0.000000e+000 0.000000e+000
<ENDHMM>
~h "g"
<BEGINHMM>
<NUMSTATES> 5
<STATE> 2
<MEAN> 39
 2.680961e+000 7.397419e-001 -5.441146e+000 2.460065e+000 -8.276882e+000 -2.033012e+001 -4.343297e+000 1.359454e+001 5.387174e-001 -1.039811e+001 2.472891e-001 -3.182778e+000 7.583366e+001 1.306534e-001 -7.772658e-001 -8.761386e-001 -1.610160e-001 -4.450924e-001 -1.876660e-001 3.158053e-001 2.187901e-001 6.198842e-002 3.257687e-001 4.383327e-001 7.771905e-001 1.917450e-001 -5.574639e-002 1.018673e-002 2.104298e-002 8.941006e-003 9.677749e-002 1.773890e-001 6.924459e-002 -8.430597e-002 -8.256666e-002 3.181233e-002 4.542619e-002 3.509222e-002 -5.840484e-002
<VARIANCE> 39
 1.866668e+000 4.353188e+001 2.781717e+001 9.858843e+000 4.151683e+001 2.943504e+001 4.356132e+001 3.385997e+001 1.844515e+001 3.586399e+001 1.651863e+001 1.981252e+001 6.950857e+000 1.489639e-001 6.234927e-001 4.519694e-001 3.613141e-001 3.426873e-001 7.510477e-001 1.091411e+000 5.532585e-001 8.368831e-001 9.544505e-001 6.173706e-001 1.498758e+000 3.095227e-001 2.160932e-002 1.180717e-001 8.826105e-002 7.235887e-002 5.650018e-002 9.566622e-002 1.218938e-001 9.362381e-002 1.434240e-001 1.804118e-001 1.134027e-001 1.383133e-001 3.379701e-002
<GCONST> 7.087737e+001
<STATE> 3
<MEAN> 39
 7.181630e-001 -6.975660e-002 -1.105345e+001 -1.390846e-001 -5.690550e+000 -1.390589e+001 -5.411527e-001 7.334666e+000 1.902949e+000 -3.805075e+000 2.398771e+000 3.551359e+000 7.267282e+001 -1.118678e+000 5.798932e-001 5.146406e-001 -5.574788e-001 3.426296e-001 1.544658e+000 8.110366e-001 -5.383986e-001 -1.432331e-001 1.286658e+000 5.497439e-001 1.240451e-001 -1.097186e+000 -3.862546e-001 1.919205e-001 2.487879e-001 1.608883e-003 1.951738e-001 3.859115e-001 8.788367e-002 5.571572e-002 3.684503e-001 1.988192e-001 -3.185949e-002 -7.843776e-002 -2.738286e-001
<VARIANCE> 39
 5.159090e+000 2.385715e+001 7.871130e+000 1.083022e+001 5.529094e+001 2.234655e+001 4.720013e+001 5.064431e+001 5.557677e+000 3.576981e+001 1.844452e+001 1.702667e+001 7.925157e+000 4.196766e-001 1.023043e+000 5.143880e-001 7.128295e-001 5.772040e-001 8.149194e-001 4.531101e-001 6.986312e-001 6.590029e-001 9.520499e-001 4.222471e-001 9.152239e-001 3.004217e-001 7.366656e-002 1.725641e-001 1.708656e-001 2.518589e-001 2.657898e-001 1.756514e-001 1.877077e-001 1.238980e-001 1.575829e-001 1.455090e-001 1.142905e-001 4.069760e-001 5.433987e-002
<GCONST> 7.848095e+001
<STATE> 4
<MEAN> 39
 -9.149812e+000 3.355672e+000 -5.827648e+000 -1.059369e+000 -4.175444e+000 -4.184742e+000 5.181392e+000 7.886014e+000 5.867319e+000 2.022889e+000 4.508270e+000 4.725500e+000 6.471115e+001 -2.537363e+000 1.075498e+000 1.387550e+000 3.590576e-002 1.196284e+000 2.681425e+000 3.829185e-001 -3.117389e-001 1.327358e+000 1.722922e+000 5.191070e-001 8.624923e-001 -2.170095e+000 8.041535e-002 -2.503020e-001 1.176234e-002 3.038991e-001 8.053423e-004 -2.933772e-001 -2.147022e-001 2.042395e-001 -1.884055e-001 -2.280158e-001 6.335331e-002 -9.119241e-004 1.048207e-001
<VARIANCE> 39
 2.879593e+001 1.007688e+001 1.444419e+001 1.492429e+001 2.873291e+001 3.742147e+001 1.244343e+001 3.481282e+001 1.506945e+001 3.088013e+001 1.546843e+001 2.507934e+001 1.625846e+001 1.343678e+000 1.101146e+000 1.904071e+000 2.728444e+000 2.642458e+000 1.650812e+000 3.303636e+000 2.022453e+000 1.124776e+000 2.264725e+000 1.472336e+000 8.319010e-001 5.017264e-001 2.261549e-001 1.766271e-001 3.254364e-001 3.359931e-001 2.328084e-001 3.562284e-001 3.403298e-001 1.625539e-001 1.912242e-001 4.304969e-001 2.866516e-001 2.144199e-001 1.130583e-001
<GCONST> 9.824052e+001
<TRANSP> 5
 0.000000e+000 1.000000e+000 0.000000e+000 0.000000e+000 0.000000e+000
 0.000000e+000 9.183762e-001 8.162378e-002 0.000000e+000 0.000000e+000
 0.000000e+000 0.000000e+000 8.050373e-001 1.949627e-001 0.000000e+000
 0.000000e+000 0.000000e+000 0.000000e+000 7.757930e-001 2.242070e-001
 0.000000e+000 0.000000e+000 0.000000e+000 0.000000e+000 0.000000e+000
<ENDHMM>
~h "l"
<BEGINHMM>
<NUMSTATES> 5
<STATE> 2
<MEAN> 39
 -1.378276e+001 3.084260e+000 -9.822602e-001 4.762908e+000 2.949619e+000 3.251290e-001 5.028018e+000 4.962361e+000 3.326372e+000 1.709314e+000 4.232503e+000 3.043294e+000 6.252779e+001 8.254866e-001 -8.180737e-002 6.833961e-002 3.318745e-001 1.869141e-001 -5.723889e-001 -8.021312e-001 -2.810935e-001 -8.651087e-001 -1.072509e+000 -2.086593e-001 -3.004625e-001 6.541690e-001 1.088128e-001 6.756565e-002 5.204594e-002 1.040443e-001 1.111657e-001 -3.435559e-002 -2.084179e-001 4.480886e-002 -8.171540e-003 -1.163250e-001 -1.162413e-001 -1.220262e-001 4.204758e-002
<VARIANCE> 39
 7.028700e+001 1.635858e+001 2.090980e+001 1.692372e+001 2.395372e+001 9.046886e+001 3.417871e+001 2.775028e+001 4.555383e+001 5.105275e+001 1.448300e+001 2.438228e+001 4.463976e+001 3.847323e+000 2.243728e+000 1.703145e+000 1.413825e+000 1.588938e+000 4.907544e+000 4.126095e+000 2.712073e+000 3.894246e+000 5.930616e+000 2.862565e+000 3.131339e+000 2.759242e+000 3.943794e-001 3.703001e-001 2.799381e-001 2.297748e-001 2.570218e-001 6.409274e-001 6.303878e-001 4.533319e-001 5.485007e-001 7.418796e-001 3.084227e-001 4.867528e-001 3.214073e-001
<GCONST> 1.187434e+002
<STATE> 3
<MEAN> 39
 -2.244791e+000 2.133067e+000 -3.128732e+000 9.566914e+000 7.412421e+000 -7.463218e+000 -5.271470e+000 5.506947e+000 -5.013878e-001 -8.373763e+000 -1.650541e+000 -4.033180e+000 7.045982e+001 -8.576229e-001 5.753754e-001 8.637086e-001 7.806888e-001 9.259152e-001 9.531553e-001 -5.547889e-001 -7.523831e-001 6.855802e-001 7.853194e-001 -2.311145e-001 -3.388039e-001 -7.942266e-001 -4.234686e-001 1.237757e-001 2.159536e-001 -1.686611e-001 -1.894944e-001 2.834183e-001 4.437546e-001 -1.794952e-001 1.833997e-001 4.934133e-001 1.856085e-001 2.090326e-001 -2.866047e-001
<VARIANCE> 39
 1.861152e+001 1.311481e+001 1.609966e+001 4.587007e+001 6.795173e+001 3.140192e+001 2.590148e+001 4.224673e+001 7.760066e+001 8.434825e+001 4.462569e+001 6.090318e+001 1.425955e+001 1.623167e+000 1.887301e+000 1.770744e+000 2.457574e+000 2.859444e+000 2.249779e+000 2.470582e+000 1.519184e+000 1.284160e+000 4.405953e+000 3.165450e+000 2.770464e+000 1.442297e+000 2.152571e-001 3.652842e-001 2.540258e-001 3.813034e-001 4.798186e-001 4.273740e-001 3.036001e-001 3.251784e-001 3.615009e-001 6.894139e-001 5.729348e-001 4.361214e-001 1.770742e-001
<GCONST> 1.145545e+002
<STATE> 4
<MEAN> 39
 -7.647195e+000 1.052562e+000 2.111582e+000 1.205010e+001 7.780286e+000 -3.899278e+000 -4.651851e+000 4.874133e-001 -1.607338e+000 -6.174330e+000 3.497899e-001 -1.212888e+000 6.816969e+001 -4.941265e-001 3.509116e-001 2.091118e-001 -3.782724e-001 -4.032455e-001 5.921078e-001 7.674572e-001 2.932610e-001 3.306856e-001 3.214418e-001 -9.822112e-002 5.957684e-002 -4.957758e-001 3.327619e-002 -1.512413e-001 -1.784359e-001 -4.110516e-002 4.149427e-002 -2.783302e-002 7.625452e-002 1.191572e-001 -1.587004e-002 -6.121672e-002 7.758096e-002 6.082605e-002 7.262225e-002
<VARIANCE> 39
 4.390955e+001 7.070945e+001 5.654059e+001 4.334986e+001 5.544715e+001 5.867038e+001 5.973663e+001 4.566705e+001 5.351057e+001 5.846180e+001 2.512123e+001 1.051752e+001 3.174480e+001 3.636585e+000 6.140136e+000 4.091038e+000 1.983468e+000 2.402511e+000 3.383300e+000 4.009387e+000 3.522726e+000 3.546421e+000 4.163975e+000 2.196846e+000 1.396102e+000 2.175962e+000 4.104178e-001 1.218611e+000 5.373292e-001 3.342033e-001 3.895011e-001 5.279911e-001 7.343596e-001 7.219167e-001 6.089673e-001 6.938110e-001 4.259030e-001 2.286909e-001 2.847464e-001
<GCONST> 1.260641e+002
<TRANSP> 5
 0.000000e+000 1.000000e+000 0.000000e+000 0.000000e+000 0.000000e+000
 0.000000e+000 7.522249e-001 2.477751e-001 0.000000e+000 0.000000e+000
 0.000000e+000 0.000000e+000 7.378908e-001 2.621092e-001 0.000000e+000
 0.000000e+000 0.000000e+000 0.000000e+000 8.719212e-001 1.280788e-001
 0.000000e+000 0.000000e+000 0.000000e+000 0.000000e+000 0.000000e+000
<ENDHMM>
~h "m"
<BEGINHMM>
<NUMSTATES> 5
<STATE> 2
<MEAN> 39
 -1.745529e+001 1.462649e+000 -1.256907e-001 2.316442e+000 2.280342e+000 4.093853e+000 5.699045e+000 3.380037e+000 7.468604e+000 5.388322e+000 4.983489e+000 4.885832e+000 6.101086e+001 4.029939e-001 -3.576463e-001 5.842051e-001 4.470614e-001 3.407192e-001 -6.156785e-001 -7.409818e-001 -9.198486e-001 -4.343449e-001 -6.060337e-001 -3.279905e-001 -5.861982e-001 8.645205e-001 2.890227e-001 -4.599463e-002 1.676045e-001 3.597435e-001 2.126960e-001 -3.877481e-001 -2.376229e-001 6.636271e-002 -3.284389e-001 -3.177094e-001 -6.817404e-002 -2.517072e-001 2.610458e-001
<VARIANCE> 39
 2.698689e+001 1.973077e+001 1.707800e+001 1.480210e+001 2.438384e+001 2.821349e+001 1.225168e+001 3.221511e+001 1.149889e+001 1.258820e+001 1.395465e+001 1.043578e+001 2.839950e+001 2.616037e+000 2.452258e+000 1.672057e+000 3.849648e+000 2.581855e+000 3.518140e+000 1.710868e+000 2.162290e+000 3.108314e+000 2.272361e+000 2.176653e+000 1.453184e+000 2.600955e+000 4.754111e-001 4.891945e-001 3.198328e-001 8.122506e-001 4.814146e-001 5.331376e-001 3.485722e-001 6.505148e-001 5.518093e-001 3.714217e-001 3.879479e-001 2.378036e-001 4.648611e-001
<GCONST> 1.102146e+002
<STATE> 3
<MEAN> 39
 -9.496027e+000 2.769513e-001 4.428941e+000 1.651221e+001 1.058329e+001 -8.584529e+000 -4.126636e+000 8.485610e-001 4.394121e-002 -4.909139e+000 5.534835e-002 -9.169293e-001 6.853014e+001 6.312113e-001 -1.168771e-001 -3.132586e-001 -2.223613e-002 1.618479e-001 -5.225577e-001 -5.588405e-001 -4.195234e-001 -6.689687e-001 -4.476079e-001 3.670355e-001 -2.954196e-002 5.768676e-001 -4.561701e-002 2.660980e-002 -1.734589e-001 -3.183768e-001 -2.467040e-001 1.017174e-001 1.826373e-001 6.318937e-002 8.016033e-002 1.507649e-001 1.606827e-001 1.583058e-001 -6.157680e-002
<VARIANCE> 39
 3.089641e+001 3.445872e+001 3.728045e+001 7.950442e+001 4.378834e+001 6.950605e+001 5.683728e+001 3.859534e+001 5.299917e+001 3.768451e+001 1.730249e+001 2.242552e+001 4.195424e+001 4.518386e+000 4.593117e+000 2.988282e+000 6.345778e+000 3.908316e+000 8.638646e+000 5.780510e+000 3.527041e+000 4.424929e+000 3.619834e+000 2.226391e+000 2.114276e+000 5.359182e+000 5.273013e-001 6.618899e-001 3.027798e-001 6.139587e-001 5.584569e-001 1.077589e+000 9.846892e-001 6.194365e-001 7.620791e-001 5.865602e-001 3.412302e-001 3.553385e-001 6.585419e-001
<GCONST> 1.310940e+002
<STATE> 4
<MEAN> 39
 -3.326262e+000 -7.585573e-001 -8.559562e+000 1.309286e+000 -2.173050e+000 -9.013247e+000 9.378033e-001 4.777421e+000 -3.151323e-001 -1.014636e+000 7.142209e+000 4.300924e+000 7.101753e+001 -9.288073e-001 5.617898e-001 2.549288e-001 -7.195059e-001 -4.383571e-001 8.616686e-001 9.473590e-001 9.035406e-001 9.075605e-001 1.141992e+000 1.841280e-001 1.755745e-001 -9.894838e-001 -1.430081e-001 -9.172228e-002 9.301487e-002 1.642422e-001 1.460558e-001 9.250806e-002 2.332174e-002 -4.276815e-002 1.735830e-001 9.074111e-002 -1.408418e-001 -2.255667e-002 -6.181692e-002
<VARIANCE> 39
 6.351033e+001 3.309209e+001 3.617296e+001 3.031831e+001 4.881428e+001 7.153516e+001 5.061049e+001 9.184549e+001 5.515203e+001 5.273857e+001 2.411914e+001 2.117264e+001 4.522898e+001 4.444120e+000 1.702884e+000 3.297695e+000 2.109425e+000 2.987820e+000 3.790611e+000 2.899451e+000 3.174199e+000 3.202320e+000 3.876252e+000 2.607435e+000 1.737534e+000 2.799142e+000 4.556603e-001 2.002580e-001 3.683223e-001 2.911174e-001 3.014805e-001 5.210363e-001 5.715554e-001 3.803971e-001 5.501100e-001 5.908381e-001 3.662072e-001 2.816254e-001 2.280382e-001
<GCONST> 1.217445e+002
<TRANSP> 5
 0.000000e+000 1.000000e+000 0.000000e+000 0.000000e+000 0.000000e+000
 0.000000e+000 7.277558e-001 2.722442e-001 0.000000e+000 0.000000e+000
 0.000000e+000 0.000000e+000 8.245086e-001 1.754914e-001 0.000000e+000
 0.000000e+000 0.000000e+000 0.000000e+000 7.911876e-001 2.088124e-001
 0.000000e+000 0.000000e+000 0.000000e+000 0.000000e+000 0.000000e+000
<ENDHMM>
~h "n"
<BEGINHMM>
<NUMSTATES> 5
<STATE> 2
<MEAN> 39
 -1.644589e+001 4.106337e+000 4.204118e+000 6.213056e+000 5.644516e+000 4.313981e+000 5.471738e+000 2.329268e+000 3.332469e+000 3.175031e+000 4.021205e+000 1.882996e+000 6.177683e+001 1.582678e+000 4.081640e-002 7.403968e-002 6.005681e-001 4.469672e-001 -9.834090e-001 -1.143496e+000 -1.133919e+000 -1.138569e+000 -1.339411e+000 -6.868843e-001 -7.612478e-001 1.377988e+000 2.953744e-001 -2.031731e-001 -1.679863e-001 7.631911e-002 1.112739e-001 -3.573412e-001 -3.241643e-001 -2.464491e-002 -1.938224e-001 -2.978673e-001 -1.152473e-001 6.054083e-003 3.010456e-001
<VARIANCE> 39
 4.088372e+001 3.281123e+001 3.368481e+001 3.029878e+001 1.005462e+001 1.975415e+001 2.597703e+001 2.508297e+001 2.193360e+001 1.757900e+001 1.729576e+001 1.867663e+001 2.654101e+001 3.692069e+000 3.780153e+000 2.420951e+000 2.877034e+000 1.194591e+000 3.451547e+000 3.437937e+000 3.276289e+000 2.795262e+000 2.906106e+000 2.484662e+000 2.640152e+000 2.983081e+000 4.059519e-001 6.290503e-001 4.279954e-001 4.671865e-001 1.911907e-001 6.057239e-001 3.568105e-001 7.316833e-001 5.026196e-001 4.406377e-001 4.405522e-001 4.609874e-001 4.419811e-001
<GCONST> 1.156810e+002
<STATE> 3
<MEAN> 39
 -2.878183e+000 1.216480e+000 -1.627266e-001 1.267828e+001 1.093365e+001 -6.758659e+000 -7.268602e+000 -3.117114e-001 -2.771725e+000 -8.539578e+000 -2.151492e+000 -4.289082e+000 7.197338e+001 8.021928e-001 -2.026204e-001 -7.864785e-001 -4.650473e-001 -2.202089e-001 -3.689641e-001 -4.227697e-001 1.981760e-001 -8.264460e-002 -3.683633e-001 -4.446906e-001 -3.624580e-001 5.635619e-001 -1.842867e-001 -3.987805e-003 -1.159387e-001 -2.880957e-001 -2.925560e-001 8.500630e-002 3.421482e-001 1.732499e-001 2.112658e-001 2.686505e-001 2.833327e-001 2.483013e-001 -1.374686e-001
<VARIANCE> 39
 1.406965e+001 2.874291e+001 2.284347e+001 5.130904e+001 2.901754e+001 5.233522e+001 4.494244e+001 4.460003e+001 4.858800e+001 5.662819e+001 2.620844e+001 4.781041e+001 1.920154e+001 1.271683e+000 2.837008e+000 1.701389e+000 3.381602e+000 2.465306e+000 6.065682e+000 4.154778e+000 4.206933e+000 4.146279e+000 5.552076e+000 1.954415e+000 2.061532e+000 1.961310e+000 2.069683e-001 5.206743e-001 3.201715e-001 4.748395e-001 4.164017e-001 9.925052e-001 6.116426e-001 1.027415e+000 8.190126e-001 9.180617e-001 4.822165e-001 6.269603e-001 2.521588e-001
<GCONST> 1.231666e+002
<STATE> 4
<MEAN> 39
 -7.899502e-002 -2.149157e-001 -1.019749e+001 1.684070e-001 -1.095866e+000 -8.034434e+000 1.522111e+000 7.399354e+000 -1.777649e+000 -4.205737e+000 3.690826e+000 1.388140e+000 7.310846e+001 -3.667713e-001 -2.345029e-001 -1.629519e-001 -4.186727e-001 -6.682760e-001 -9.641643e-002 9.669348e-001 8.015636e-001 4.329057e-001 5.930629e-001 6.396492e-001 6.519286e-001 -2.090305e-001 -1.889982e-001 6.471056e-002 1.835201e-001 1.674369e-001 1.484177e-001 1.904740e-001 5.978139e-002 -3.122026e-002 2.672702e-002 7.264373e-002 -5.657617e-002 -7.623537e-002 -1.875328e-001
<VARIANCE> 39
 3.175952e+001 4.042270e+001 3.951002e+001 3.100404e+001 4.460534e+001 6.617735e+001 4.024976e+001 7.271770e+001 4.119310e+001 3.252269e+001 4.153794e+001 2.650376e+001 3.666435e+001 2.028735e+000 2.078881e+000 2.713067e+000 2.118128e+000 2.634472e+000 4.974035e+000 1.470763e+000 4.270422e+000 2.185979e+000 2.088614e+000 3.130189e+000 3.437431e+000 2.048064e+000 8.769217e-002 2.522558e-001 2.508000e-001 2.704995e-001 3.442556e-001 4.399495e-001 3.167116e-001 5.423042e-001 2.726430e-001 3.057159e-001 5.487831e-001 5.664543e-001 1.105865e-001
<GCONST> 1.159267e+002
<TRANSP> 5
 0.000000e+000 1.000000e+000 0.000000e+000 0.000000e+000 0.000000e+000
 0.000000e+000 8.207561e-001 1.792439e-001 0.000000e+000 0.000000e+000
 0.000000e+000 0.000000e+000 8.669365e-001 1.330635e-001 0.000000e+000
 0.000000e+000 0.000000e+000 0.000000e+000 8.540478e-001 1.459523e-001
 0.000000e+000 0.000000e+000 0.000000e+000 0.000000e+000 0.000000e+000
<ENDHMM>
~h "p"
<BEGINHMM>
<NUMSTATES> 5
<STATE> 2
<MEAN> 39
 -1.590590e+001 4.603696e+000 -2.808648e+000 4.494592e-001 2.782986e-001 3.363752e+000 6.280946e+000 5.793844e+000 7.756441e+000 7.355115e+000 6.592331e+000 6.555809e+000 5.932137e+001 -1.047485e+000 1.394869e-001 8.346105e-001 6.792828e-001 5.086179e-001 4.084372e-001 1.335953e-001 9.765927e-002 -9.069465e-002 -3.426288e-001 -1.846657e-001 1.512336e-001 -7.172304e-001 3.463555e-001 -9.517517e-002 -1.611094e-001 3.662286e-002 1.381476e-001 -1.475807e-001 -9.961053e-002 6.134778e-002 -1.491831e-001 -3.747104e-001 -6.791204e-002 -2.648948e-001 2.869127e-001
<VARIANCE> 39
 1.259421e+001 1.115129e+000 1.132768e+001 1.462447e+001 6.627093e+000 4.991587e+000 3.708486e+000 8.698750e+000 7.499228e+000 1.037963e+001 9.875550e+000 1.361178e+001 4.551030e+000 8.941649e-001 1.930434e-001 6.225688e-001 7.575082e-001 7.353271e-001 7.230224e-001 1.455075e+000 7.588845e-001 1.267167e+000 6.540740e-001 9.276194e-001 1.074203e+000 4.464411e-001 1.471848e-001 3.394481e-002 1.804074e-001 1.904580e-001 1.133883e-001 2.923628e-001 2.604706e-001 1.047791e-001 2.948501e-001 1.876695e-001 8.008024e-002 1.696132e-001 7.475288e-002
<GCONST> 6.766968e+001
<STATE> 3
<MEAN> 39
 -1.878076e+001 4.379181e+000 -1.866922e-003 2.840179e+000 3.764953e+000 5.857254e+000 6.550852e+000 5.663069e+000 7.204288e+000 6.340788e+000 6.182554e+000 5.531223e+000 5.752174e+001 -4.568328e-001 -1.338799e-001 4.736072e-001 5.071949e-001 4.754865e-001 3.943256e-001 1.040914e-001 1.663878e-001 -1.289687e-002 -2.660682e-001 -3.139103e-001 -2.482680e-001 -2.475778e-001 1.149906e-001 -6.211279e-003 -1.207472e-001 -1.173292e-001 -1.626773e-001 -2.014250e-001 -7.681551e-002 5.953614e-002 -2.416401e-002 1.242777e-002 6.765731e-002 -5.951738e-004 5.702264e-002
<VARIANCE> 39
 1.547202e+000 8.111720e-001 3.330034e+000 9.826205e+000 2.382951e+000 1.994863e+000 5.612059e+000 5.319651e+000 5.215037e+000 1.084070e+001 4.296758e+000 6.134929e+000 5.072046e-001 1.136285e-001 9.997644e-002 2.290721e-001 4.955560e-001 4.206736e-001 6.795732e-001 4.816579e-001 9.115124e-001 5.447026e-001 1.213276e+000 4.014356e-001 9.708536e-001 4.686505e-002 1.459531e-002 2.074688e-002 2.542118e-002 1.009381e-001 6.019823e-002 6.683376e-002 1.204727e-001 1.525395e-001 7.419299e-002 2.364484e-001 9.181608e-002 1.226906e-001 4.483313e-003
<GCONST> 3.631304e+001
<STATE> 4
<MEAN> 39
 -1.986049e+001 4.258407e+000 1.133752e+000 5.072601e+000 4.344912e+000 6.275934e+000 6.687487e+000 6.845440e+000 7.250058e+000 6.319605e+000 6.291884e+000 5.204994e+000 5.679969e+001 -1.144628e-004 1.512991e-002 1.195701e-002 5.962216e-003 8.410005e-003 -5.438949e-003 1.074829e-002 -9.620897e-003 -1.541072e-003 4.177636e-003 -4.312877e-003 -4.434663e-002 -4.305299e-003 3.584864e-003 2.971492e-003 -1.006434e-002 -1.029558e-002 4.316294e-004 -6.370777e-004 -5.767163e-003 -1.347710e-002 -4.868704e-004 1.486276e-002 6.454918e-003 6.567698e-003 3.256129e-003
<VARIANCE> 39
 7.076837e-001 6.845775e-001 1.410786e+000 2.028803e+000 2.814740e+000 3.552708e+000 3.986833e+000 3.728293e+000 4.186729e+000 4.791909e+000 4.179032e+000 4.207605e+000 5.072046e-001 2.885854e-002 8.762460e-002 1.548017e-001 2.538399e-001 3.346781e-001 3.805417e-001 4.601591e-001 4.955210e-001 4.410709e-001 4.592061e-001 4.306606e-001 4.637371e-001 1.169577e-002 5.812170e-003 1.819353e-002 3.301886e-002 5.251224e-002 7.717165e-002 8.185218e-002 9.856296e-002 1.024422e-001 8.585850e-002 9.555016e-002 9.560390e-002 9.878372e-002 1.405454e-003
<GCONST> 2.057572e+001
<TRANSP> 5
 0.000000e+000 1.000000e+000 0.000000e+000 0.000000e+000 0.000000e+000
 0.000000e+000 6.357020e-001 3.642980e-001 0.000000e+000 0.000000e+000
 0.000000e+000 0.000000e+000 6.205078e-001 3.794922e-001 0.000000e+000
 0.000000e+000 0.000000e+000 0.000000e+000 9.640340e-001 3.596609e-002
 0.000000e+000 0.000000e+000 0.000000e+000 0.000000e+000 0.000000e+000
<ENDHMM>
~h "s"
<BEGINHMM>
<NUMSTATES> 5
<STATE> 2
<MEAN> 39
 -7.554979e-001 -1.686613e+000 -9.205619e+000 1.681130e+000 -8.898826e+000 -1.395213e+001 2.151475e+000 1.165415e+001 4.091181e-001 -4.231539e+000 5.023223e+000 2.655525e+000 7.237755e+001 -2.077781e-001 1.284631e-001 2.056335e-001 1.770894e-001 1.466894e-001 4.017036e-001 -1.465116e-001 -2.402248e-001 -7.355171e-002 6.463026e-002 -2.098100e-002 -1.625117e-001 -2.779035e-001 -1.175322e-001 7.721596e-002 6.625594e-002 1.286855e-002 1.600323e-001 1.640648e-001 -9.696758e-002 -5.892414e-002 4.832363e-002 -1.940985e-002 -4.862685e-003 3.979016e-002 -1.112148e-001
<VARIANCE> 39
 6.379204e+001 4.950119e+001 3.757882e+001 1.421744e+001 2.138418e+001 6.747716e+001 1.422539e+001 2.283547e+001 4.328833e+001 5.176609e+001 2.151736e+001 1.601603e+001 5.918222e+001 6.276283e+000 3.109227e+000 2.796704e+000 6.294338e-001 3.091187e+000 7.803412e+000 1.313940e+000 2.687341e+000 2.101239e+000 5.106570e+000 2.825941e+000 2.058183e+000 5.063977e+000 9.402601e-001 4.815741e-001 4.055084e-001 1.265162e-001 4.819410e-001 1.425027e+000 2.486260e-001 4.651219e-001 2.691307e-001 7.766060e-001 6.399338e-001 4.939524e-001 7.024724e-001
<GCONST> 1.210829e+002
<STATE> 3
<MEAN> 39
 -3.531652e+000 2.146057e+000 -8.140889e+000 -1.434784e+000 -4.097616e+000 -8.321030e+000 9.802668e-002 4.872927e+000 6.722000e+000 5.193036e-001 1.915575e+000 2.236112e+000 6.867934e+001 -1.102335e+000 9.715725e-001 7.949993e-001 -2.144806e-001 5.193322e-001 1.565005e+000 -1.343076e-001 -5.504915e-001 3.408623e-001 5.745511e-001 1.614735e-001 2.460774e-001 -1.167909e+000 -3.976379e-002 -1.208896e-001 -2.118979e-002 6.942654e-002 2.349872e-001 2.656150e-002 1.358795e-001 3.618484e-002 2.575438e-002 5.378681e-002 -4.874393e-004 -1.031248e-002 7.908815e-002
<VARIANCE> 39
 5.592471e+001 3.002721e+001 3.533584e+001 1.488831e+001 1.290190e+001 4.976549e+001 1.728835e+001 2.327085e+001 3.491034e+001 2.338936e+001 1.456134e+001 1.861315e+001 4.085179e+001 8.220442e+000 2.695509e+000 3.948936e+000 1.707622e+000 2.132214e+000 7.469101e+000 3.213685e+000 2.328605e+000 3.798045e+000 1.949336e+000 1.714909e+000 3.484020e+000 6.507178e+000 1.104342e+000 3.945031e-001 5.416546e-001 3.911428e-001 3.634881e-001 1.458736e+000 6.766801e-001 4.728709e-001 4.617848e-001 2.822068e-001 3.601355e-001 8.281232e-001 7.227350e-001
<GCONST> 1.215688e+002
<STATE> 4
<MEAN> 39
 -6.080361e+000 6.246968e+000 -1.612912e+000 4.284066e+000 1.701315e+000 -4.148723e+000 -2.473220e+000 3.467253e+000 1.921672e+000 -1.668452e+000 6.033776e-001 -2.059712e+000 6.587245e+001 -1.532780e+000 3.762943e-001 8.871516e-001 4.182844e-001 9.932969e-001 1.812128e+000 9.500275e-001 -2.380594e-001 4.336405e-001 7.022202e-001 7.951359e-002 1.902004e-001 -1.176893e+000 -7.821622e-002 -2.319463e-001 -1.383923e-001 -2.834231e-002 -1.224611e-001 -1.768759e-002 2.710609e-001 2.003543e-001 9.918430e-003 7.860006e-002 2.272612e-001 2.230584e-001 1.639073e-002
<VARIANCE> 39
 1.877378e+001 2.966843e+001 2.111480e+001 2.781492e+001 5.121888e+001 4.060165e+001 1.345967e+001 3.386785e+001 2.247601e+001 2.921720e+001 1.141760e+001 1.495283e+001 1.491862e+001 8.598247e-001 1.267487e+000 2.033715e+000 1.303854e+000 1.125663e+000 1.883483e+000 1.310849e+000 9.968650e-001 8.691735e-001 1.321156e+000 1.356150e+000 2.343424e+000 4.027211e-001 1.793802e-001 1.778836e-001 3.959622e-001 1.639158e-001 1.734078e-001 2.128396e-001 1.295443e-001 1.111086e-001 1.604691e-001 1.757535e-001 1.624662e-001 2.556029e-001 9.633287e-002
<GCONST> 9.212286e+001
<TRANSP> 5
 0.000000e+000 1.000000e+000 0.000000e+000 0.000000e+000 0.000000e+000
 0.000000e+000 8.685485e-001 1.314515e-001 0.000000e+000 0.000000e+000
 0.000000e+000 0.000000e+000 7.183148e-001 2.816852e-001 0.000000e+000
 0.000000e+000 0.000000e+000 0.000000e+000 8.251610e-001 1.748390e-001
 0.000000e+000 0.000000e+000 0.000000e+000 0.000000e+000 0.000000e+000
<ENDHMM>
~h "t"
<BEGINHMM>
<NUMSTATES> 5
<STATE> 2
<MEAN> 39
 -2.021087e+001 1.599746e+000 3.880469e+000 3.039391e+000 4.999626e+000 5.693561e+000 6.240951e+000 3.659212e+000 6.363554e+000 5.091163e+000 5.996391e+000 3.468102e+000 6.092909e+001 3.967351e-001 -1.702909e-001 2.854898e-001 -2.581876e-001 1.286260e-001 -3.070322e-001 -1.421553e-001 -5.536019e-001 -3.813237e-001 -4.555958e-001 -2.708521e-001 -5.079722e-001 9.115579e-001 3.297768e-001 -1.011263e-002 -2.115393e-001 3.664900e-002 -3.544601e-002 -2.326620e-001 -1.016226e-001 -5.228227e-002 -1.132861e-001 -2.051267e-001 -1.392481e-001 -1.085964e-001 2.009475e-001
<VARIANCE> 39
 1.818290e+001 3.244574e+001 2.278111e+001 3.274612e+001 1.368579e+001 1.392144e+001 1.617972e+001 2.080831e+001 2.326723e+001 1.087271e+001 1.388343e+001 1.132764e+001 2.202156e+001 3.073456e+000 2.210068e+000 2.830348e+000 2.080914e+000 1.702235e+000 1.752482e+000 2.063514e+000 1.859037e+000 3.101267e+000 1.488970e+000 2.050179e+000 1.553961e+000 1.382739e+000 6.111341e-001 3.914554e-001 6.204922e-001 3.682097e-001 3.904060e-001 3.946293e-001 4.281406e-001 4.106462e-001 6.316928e-001 3.057917e-001 4.057423e-001 3.030538e-001 2.566711e-001
<GCONST> 1.069479e+002
<STATE> 3
<MEAN> 39
 -1.216541e+001 2.250943e+000 9.787278e-001 2.676419e+000 5.988374e+000 2.607415e-001 2.794708e+000 -1.233006e+000 1.923391e+000 -2.333980e-001 2.242044e+000 -9.530920e-002 6.768717e+001 4.542800e+000 -9.493569e-002 -3.001372e+000 6.840969e-001 -1.584060e-001 -2.937035e+000 -1.606871e+000 -2.061771e-001 -1.773327e+000 -2.997186e+000 -1.815691e+000 -6.617985e-001 2.354130e+000 2.929728e-001 -1.559809e-001 -2.382319e-001 8.665226e-002 -2.533204e-001 -3.086039e-001 8.179696e-002 8.118990e-001 -1.527589e-002 -1.923395e-001 -5.285680e-002 5.066746e-002 -4.471295e-003
<VARIANCE> 39
 5.100604e+001 3.759469e+001 5.121210e+001 7.035846e+001 3.216820e+001 3.543339e+001 5.013226e+001 1.961254e+001 2.312597e+001 2.234641e+001 3.116642e+001 1.378108e+001 2.614172e+001 2.401575e+000 3.707867e+000 4.090707e+000 2.151630e+000 3.490016e+000 3.565065e+000 3.579068e+000 4.559520e+000 5.784930e+000 3.183689e+000 2.868931e+000 2.876899e+000 2.677838e+000 8.313519e-001 5.651025e-001 1.078600e+000 4.785899e-001 6.958317e-001 7.113867e-001 7.356810e-001 5.041834e-001 5.723546e-001 5.733634e-001 3.995140e-001 1.114523e-001 4.628703e-001
<GCONST> 1.245049e+002
<STATE> 4
<MEAN> 39
 -3.477178e+000 6.885543e+000 -1.126348e+000 7.419869e+000 5.001206e+000 -3.156981e+000 4.083963e-001 2.772334e+000 -1.600478e+000 -5.797640e+000 -4.156818e+000 -7.746395e+000 6.869700e+001 9.764167e-001 1.660229e-001 -2.162558e-001 -2.284624e-001 -7.614193e-001 -1.061342e+000 -3.010111e-001 6.311881e-001 -7.780285e-002 -6.183673e-001 -2.274020e-001 -2.037742e-001 4.865324e-001 -5.529737e-001 -1.508041e-001 1.963173e-001 -6.668205e-002 -6.034629e-002 2.157296e-001 1.061246e-001 5.807183e-002 3.921553e-001 4.881858e-001 3.832878e-001 3.612435e-001 -2.979526e-001
<VARIANCE> 39
 1.314656e+001 1.770011e+001 2.276087e+001 1.565585e+001 1.788479e+001 3.696144e+001 4.854001e+001 1.624249e+001 4.540629e+001 3.779712e+001 3.711134e+001 3.760704e+001 1.327460e+001 6.802211e+000 1.600583e+000 4.107112e+000 9.264911e-001 2.170353e+000 3.687763e+000 2.186069e+000 3.152407e+000 2.563149e+000 3.946167e+000 2.723957e+000 4.073487e+000 2.512432e+000 2.835765e-001 4.863508e-001 4.729658e-001 2.265563e-001 2.595094e-001 2.639762e-001 3.227918e-001 3.135487e-001 4.715699e-001 6.690654e-001 5.828514e-001 4.528828e-001 3.137002e-001
<GCONST> 1.139867e+002
<TRANSP> 5
 0.000000e+000 1.000000e+000 0.000000e+000 0.000000e+000 0.000000e+000
 0.000000e+000 8.530782e-001 1.469218e-001 0.000000e+000 0.000000e+000
 0.000000e+000 0.000000e+000 4.987105e-001 5.012895e-001 0.000000e+000
 0.000000e+000 0.000000e+000 0.000000e+000 7.198070e-001 2.801929e-001
 0.000000e+000 0.000000e+000 0.000000e+000 0.000000e+000 0.000000e+000
<ENDHMM>
~h "w"
<BEGINHMM>
<NUMSTATES> 5
<STATE> 2
<MEAN> 39
 -1.334102e+000 6.187895e+000 4.443116e-001 9.988226e+000 -3.531013e+000 -1.822301e+001 -2.944366e+000 6.662557e+000 -6.904075e+000 -1.060663e+001 -8.776174e-001 -4.943824e+000 6.981447e+001 -4.966369e-001 7.498899e-001 8.768560e-001 -2.063863e-002 -8.168296e-001 -1.630638e-001 -1.912979e-001 2.906486e-001 6.096253e-001 8.083114e-001 -2.749487e-001 9.220909e-002 -7.662814e-001 -3.109250e-001 -1.084031e-001 3.165221e-002 -7.921615e-002 1.140296e-001 3.537315e-001 1.084403e-001 -2.785536e-001 1.171062e-001 1.287601e-001 1.834441e-001 2.961660e-001 -1.190987e-001
<VARIANCE> 39
 2.063336e+000 1.067240e+001 1.581474e+001 9.441391e+000 3.055009e+001 7.117182e+001 6.101437e+000 5.094400e+001 4.523268e+001 8.518785e+000 5.322135e+000 6.136478e+000 1.986276e+000 2.404765e-001 6.084695e-001 5.572095e-001 3.397020e-001 6.495464e-001 1.038922e+000 1.568758e+000 6.029217e-001 7.795042e-001 1.330002e+000 1.740898e-001 6.018152e-001 2.247038e-001 1.076296e-001 1.471855e-001 7.471121e-002 7.859398e-002 7.956978e-002 3.388284e-001 1.385509e-001 1.840998e-001 1.801273e-001 3.844348e-001 1.137492e-001 1.633270e-001 5.173135e-002
<GCONST> 6.939474e+001
<STATE> 3
<MEAN> 39
 -5.504771e+000 1.157210e+001 4.079088e+000 5.170718e+000 -5.393223e+000 -1.185429e+001 -3.471293e+000 2.551252e+000 -7.785883e-002 -3.715770e+000 -2.633283e+000 -4.222272e+000 6.486663e+001 -1.881413e+000 9.586737e-001 1.049545e+000 -6.755401e-001 4.126933e-001 2.063692e+000 2.571199e-002 -1.199710e+000 1.044021e+000 1.798385e+000 2.688900e-001 3.053928e-001 -1.506890e+000 -3.071018e-001 -4.168478e-001 -3.273631e-001 1.652967e-002 6.601722e-001 6.153410e-001 2.443343e-001 1.930441e-002 -9.199630e-002 -3.104627e-002 3.037248e-001 3.208210e-001 -7.171901e-002
<VARIANCE> 39
 7.386579e+000 5.186280e+000 3.800994e+000 5.352562e+000 1.147613e+001 3.441664e+001 4.595459e+000 2.748189e+001 3.794313e+001 2.956471e+001 5.873456e+000 6.469379e+000 3.771005e+000 5.448496e-001 3.298644e-001 4.033247e-001 5.732404e-001 2.038543e+000 4.723095e+000 2.742056e-001 6.510773e-001 1.346035e+000 6.937911e-001 6.132006e-001 9.398556e-001 2.406452e-001 5.619223e-002 1.010089e-001 5.921604e-002 4.286736e-002 7.029332e-002 3.404591e-001 7.228495e-002 2.770382e-001 2.835274e-001 3.510973e-001 8.525246e-002 1.040646e-001 2.812626e-002
<GCONST> 6.706359e+001
<STATE> 4
<MEAN> 39
 -1.555352e+001 7.486754e+000 2.539036e+000 5.390316e+000 2.496148e+000 7.161976e-001 -3.245849e-001 1.428614e+000 3.347566e+000 2.021629e+000 2.199135e+000 6.044760e-001 5.919981e+001 -1.388819e+000 -1.275913e+000 -1.046792e+000 -1.031685e-001 1.053390e+000 1.869054e+000 1.058876e+000 9.449524e-001 1.893768e+000 1.575941e+000 9.887191e-001 7.571349e-001 -6.490691e-001 3.270516e-001 -8.022846e-002 -1.214029e-001 -4.636112e-003 -3.459927e-001 -4.410935e-001 1.684754e-001 3.432906e-001 3.015041e-003 -1.096789e-001 -2.834967e-002 -4.071157e-002 2.215308e-001
<VARIANCE> 39
 9.084763e+000 2.022957e+001 1.203702e+001 1.282959e+001 1.652768e+001 1.479136e+001 1.593456e+001 1.474008e+001 3.318505e+001 1.663208e+001 4.059694e+000 1.294924e+001 1.839863e+000 1.109651e+000 8.044594e-001 6.308617e-001 8.693954e-001 1.191318e+000 2.131432e+000 1.885804e+000 2.189240e+000 2.480249e+000 1.874674e+000 9.248555e-001 1.738010e+000 5.182572e-001 6.076605e-002 3.041551e-001 2.960129e-001 2.284300e-001 2.894406e-001 2.959340e-001 4.116053e-001 4.779430e-001 6.369853e-001 2.203747e-001 1.776295e-001 3.314038e-001 6.697114e-002
<GCONST> 8.849622e+001
<TRANSP> 5
 0.000000e+000 1.000000e+000 0.000000e+000 0.000000e+000 0.000000e+000
 0.000000e+000 8.055138e-001 1.944862e-001 0.000000e+000 0.000000e+000
 0.000000e+000 0.000000e+000 7.333952e-001 2.666049e-001 0.000000e+000
 0.000000e+000 0.000000e+000 0.000000e+000 8.021401e-001 1.978598e-001
 0.000000e+000 0.000000e+000 0.000000e+000 0.000000e+000 0.000000e+000
<ENDHMM>
~h "ah"
<BEGINHMM>
<NUMSTATES> 5
<STATE> 2
<MEAN> 39
 -1.622173e+001 5.330920e+000 -2.251575e-001 2.781149e+000 2.506165e+000 4.438380e+000 6.568114e+000 6.726346e+000 6.787103e+000 5.106157e+000 5.050459e+000 3.753119e+000 5.896280e+001 -8.868152e-001 -3.389648e-001 1.350280e-001 2.548412e-001 3.974757e-001 4.720968e-001 2.363385e-001 1.956087e-001 3.014782e-001 4.212357e-001 4.697221e-001 4.024287e-001 -5.493211e-001 2.015572e-001 -1.556198e-003 -5.717419e-002 7.794749e-003 -8.303726e-002 -2.078739e-001 -1.678271e-001 -1.144034e-001 -1.320600e-001 -1.430876e-001 -8.208015e-002 -8.189445e-002 1.528247e-001
<VARIANCE> 39
 1.046559e+001 5.675940e+000 9.916102e+000 1.486225e+001 1.430978e+001 1.369629e+001 1.524066e+001 1.124019e+001 1.097382e+001 1.611776e+001 1.414377e+001 1.365115e+001 4.235443e+000 9.068611e-001 4.911817e-001 9.340176e-001 1.099764e+000 1.145072e+000 1.274646e+000 1.624877e+000 1.128277e+000 1.254676e+000 1.311569e+000 1.151411e+000 1.301967e+000 4.643488e-001 1.590169e-001 8.501194e-002 1.787916e-001 1.633262e-001 1.861843e-001 3.227110e-001 3.677510e-001 2.113039e-001 2.797053e-001 3.064120e-001 2.267876e-001 2.316645e-001 8.705607e-002
<GCONST> 8.234800e+001
<STATE> 3
<MEAN> 39
 -1.920058e+001 4.337988e+000 7.719326e-001 4.385623e+000 4.201649e+000 5.818319e+000 6.578062e+000 6.230777e+000 7.095663e+000 5.751590e+000 6.011459e+000 4.795705e+000 5.726882e+001 -1.973999e-001 -6.561127e-002 7.234404e-002 1.281113e-001 1.257548e-001 1.415581e-001 1.565987e-002 -5.576812e-002 2.665641e-004 1.423732e-001 1.615694e-001 1.188333e-001 -1.224539e-001 6.015001e-002 2.890747e-002 1.015482e-002 6.080006e-003 -1.628961e-002 -4.384822e-002 -1.459562e-002 -7.359566e-003 -3.177639e-002 -2.723047e-002 -7.245293e-002 -7.636455e-002 3.707464e-002
<VARIANCE> 39
 1.658659e+000 1.436584e+000 3.257154e+000 4.888492e+000 5.920142e+000 5.718752e+000 5.192351e+000 6.968186e+000 6.417579e+000 6.094377e+000 6.123587e+000 7.182920e+000 5.948554e-001 1.995249e-001 1.771454e-001 4.770800e-001 6.681764e-001 6.029449e-001 6.455222e-001 8.490502e-001 8.020229e-001 9.810627e-001 7.944619e-001 6.981015e-001 8.329787e-001 9.209646e-002 4.904790e-002 3.365911e-002 1.061264e-001 1.320361e-001 1.131540e-001 1.038129e-001 1.627480e-001 1.740228e-001 1.980774e-001 1.354277e-001 1.300497e-001 1.571789e-001 2.328634e-002
<GCONST> 5.041362e+001
<STATE> 4
<MEAN> 39
 -1.982181e+001 4.227362e+000 1.175583e+000 5.240929e+000 4.593958e+000 6.230892e+000 6.601936e+000 6.466777e+000 6.802907e+000 6.170157e+000 6.116908e+000 4.827953e+000 5.682434e+001 -4.430661e-003 -7.103498e-003 1.733253e-003 6.427820e-003 8.261615e-003 -1.009885e-002 6.690784e-003 1.726002e-004 -1.799336e-002 -1.129417e-002 -9.584433e-003 -1.345902e-002 2.141368e-003 2.848046e-002 2.757909e-003 -8.265025e-003 -1.154684e-002 -5.387036e-003 -6.594369e-003 -5.806915e-003 -1.737957e-002 -1.427213e-002 -2.354142e-002 -9.454272e-003 -1.663819e-003 2.379773e-002
<VARIANCE> 39
 7.076837e-001 6.835213e-001 1.308943e+000 1.992901e+000 2.843687e+000 3.752115e+000 3.826833e+000 4.352557e+000 4.927362e+000 4.914743e+000 4.815779e+000 4.388084e+000 5.072046e-001 3.845041e-002 7.889883e-002 1.434412e-001 2.282851e-001 3.141264e-001 3.982366e-001 4.289169e-001 4.878160e-001 5.697845e-001 5.583571e-001 5.036801e-001 4.701998e-001 1.243901e-002 1.349610e-002 1.947767e-002 3.505622e-002 5.009119e-002 6.452022e-002 8.755601e-002 9.102460e-002 1.093651e-001 1.267679e-001 1.142368e-001 1.058789e-001 9.872577e-002 6.307272e-003
<GCONST> 2.458015e+001
<TRANSP> 5
 0.000000e+000 1.000000e+000 0.000000e+000 0.000000e+000 0.000000e+000
 0.000000e+000 7.073358e-001 2.926643e-001 0.000000e+000 0.000000e+000
 0.000000e+000 0.000000e+000 7.859735e-001 2.140265e-001 0.000000e+000
 0.000000e+000 0.000000e+000 0.000000e+000 9.390448e-001 6.095517e-002
 0.000000e+000 0.000000e+000 0.000000e+000 0.000000e+000 0.000000e+000
<ENDHMM>
~h "hh"
<BEGINHMM>
<NUMSTATES> 5
<STATE> 2
<MEAN> 39
 2.587255e+000 -1.034740e+000 -1.300366e+001 -3.163939e+000 -4.049631e+000 -1.006723e+001 3.847883e+000 1.080535e+001 -3.406335e-001 -2.595633e+000 1.550878e+000 -9.139875e-001 7.420660e+001 -6.314549e-001 7.316450e-001 6.570570e-001 8.555368e-001 1.192199e+000 6.549748e-001 -1.248518e+000 -5.792724e-001 1.489613e+000 1.127107e+000 -1.656654e+000 -1.376966e+000 -9.898788e-001 -3.067264e-001 1.137965e-001 3.821357e-001 4.576386e-001 3.778327e-001 4.886018e-001 1.715634e-001 -6.241272e-002 -2.333247e-001 -2.352439e-001 -1.259340e-002 -3.060323e-001 -1.900488e-001
<VARIANCE> 39
 1.627798e+000 4.561326e+000 8.307440e+000 2.658718e+001 4.397828e+001 1.324352e+001 2.276748e+001 1.213579e+001 1.037883e+001 7.167494e+000 1.653432e+001 1.528642e+001 3.054792e+000 2.982308e-001 3.044229e-001 3.959631e-001 1.100798e+000 4.150540e+000 7.373111e-001 1.868615e+000 8.757609e-001 2.164917e-001 1.194986e+000 6.026221e-001 6.577666e-001 4.929088e-002 1.839389e-002 1.434631e-001 1.582434e-001 7.442800e-002 2.584938e-001 1.428505e-001 3.851912e-001 1.479730e-001 7.702454e-002 3.758560e-001 1.728649e-001 1.545310e-001 4.125146e-002
<GCONST> 6.822533e+001
<STATE> 3
<MEAN> 39
 3.602770e-002 -1.357526e+000 -9.740898e+000 5.083252e+000 2.430450e+000 -8.590217e+000 1.462621e+000 1.249760e+001 2.847293e+000 -3.433152e+000 -2.669876e+000 -9.138979e+000 7.194508e+001 -8.700304e-001 7.589759e-001 1.123945e+000 9.793977e-001 4.810762e-001 1.458833e+000 2.584113e-001 -5.726413e-001 3.061136e-001 2.212100e-001 -1.695014e-001 -1.256184e+000 -9.267198e-001 -1.269848e-001 2.610868e-001 2.413018e-001 -1.035513e-001 -1.388650e-001 2.937033e-001 1.130981e-001 -2.997097e-001 -2.381035e-001 -6.097445e-002 2.789435e-001 2.181868e-001 -1.285157e-001
<VARIANCE> 39
 2.057209e+000 5.334361e+000 7.756181e+000 8.273021e+001 5.111732e+000 6.054683e+000 4.464006e+000 2.191739e+001 3.945700e+000 1.659381e+001 2.599797e+000 2.687965e+001 1.681855e+000 1.939455e-001 1.709576e+000 1.245545e+000 9.873708e-001 2.835519e+000 1.011929e+000 5.214853e-001 1.209405e+000 1.657475e-001 5.589700e-001 1.744713e+000 1.641862e+000 6.711943e-001 9.398153e-002 9.604593e-002 1.945357e-001 2.641761e-001 5.047006e-001 3.057371e-001 1.081084e-001 9.284313e-002 5.759232e-002 1.397475e-001 1.978987e-001 2.147960e-001 8.817425e-002
<GCONST> 7.091679e+001
<STATE> 4
<MEAN> 39
 -3.663021e+000 2.762103e+000 -6.854418e+000 3.845173e+000 2.593252e+000 -9.802559e-001 3.163065e+000 7.290501e+000 2.466302e+000 -1.471025e+000 -2.687165e+000 -7.816509e+000 6.786836e+001 -1.514712e+000 1.461391e+000 1.915382e+000 7.631236e-001 8.751166e-001 1.920035e+000 1.766687e-001 -9.549396e-001 -2.258691e-001 1.969427e-001 -2.661642e-001 -5.753568e-001 -1.511534e+000 -2.144072e-001 -1.633411e-002 1.502977e-001 -2.678840e-002 3.781161e-002 4.955055e-003 1.495464e-001 8.040437e-002 -8.508942e-002 -5.305262e-002 1.105673e-001 2.783456e-001 -6.243261e-002
<VARIANCE> 39
 4.813328e+000 1.165299e+001 9.208525e+000 2.972784e+001 9.521664e+000 1.760884e+001 8.411017e+000 1.387506e+001 7.387228e+000 7.992743e+000 4.978760e+000 9.785906e+000 2.339439e+000 4.170297e-001 1.247325e+000 1.774176e+000 1.605346e+000 1.021419e+000 3.550463e+000 3.714637e-001 1.094900e+000 6.777762e-001 5.325187e-001 1.016477e+000 2.497238e+000 6.605323e-001 7.382935e-002 1.603862e-001 8.600561e-002 1.196181e-001 3.913450e-001 4.821287e-001 1.040613e-001 1.340150e-001 1.562813e-001 2.825628e-001 2.993407e-001 9.682734e-002 6.948181e-002
<GCONST> 7.601087e+001
<TRANSP> 5
 0.000000e+000 1.000000e+000 0.000000e+000 0.000000e+000 0.000000e+000
 0.000000e+000 6.664170e-001 3.335830e-001 0.000000e+000 0.000000e+000
 0.000000e+000 0.000000e+000 6.002641e-001 3.997359e-001 0.000000e+000
 0.000000e+000 0.000000e+000 0.000000e+000 6.919311e-001 3.080689e-001
 0.000000e+000 0.000000e+000 0.000000e+000 0.000000e+000 0.000000e+000
<ENDHMM>
~h "ih"
<BEGINHMM>
<NUMSTATES> 5
<STATE> 2
<MEAN> 39
 -1.250833e+001 5.545840e+000 1.427099e+000 5.367467e+000 2.929689e+000 -8.685558e-002 2.575663e+000 4.324947e+000 5.603977e+000 -1.946602e-001 9.725804e-001 -8.327739e-001 6.301542e+001 2.358770e+000 -8.659678e-001 -1.379019e+000 -1.194988e+000 -2.187001e+000 -3.085418e+000 -8.658196e-001 3.695599e-001 3.328792e-001 -1.511967e+000 -4.751494e-001 -6.920175e-002 2.425773e+000 1.135985e+000 -3.651167e-001 -8.544379e-001 -2.660404e-001 -5.565209e-001 -1.210766e+000 -4.419828e-001 4.447605e-001 3.047470e-001 -1.312707e-001 -3.151835e-001 -4.291506e-001 8.754851e-001
<VARIANCE> 39
 5.715455e+001 9.299752e+000 3.181915e+000 6.623487e+000 2.477671e+001 5.952879e+001 3.389101e+001 2.114713e+001 4.446608e+001 5.631098e+001 9.341279e+000 1.929471e+001 4.650950e+001 8.287628e+000 1.676558e+000 4.732120e+000 1.071524e+000 4.379588e+000 1.119128e+001 2.565111e+000 3.910724e+000 1.817918e+000 2.070266e+000 1.818864e+000 2.914109e+000 6.302033e+000 8.997537e-001 2.142452e-001 3.397364e-001 2.420522e-001 7.000378e-001 1.415280e+000 6.423110e-001 8.430892e-001 6.105281e-001 9.101566e-001 3.265388e-001 3.386908e-001 8.419515e-001
<GCONST> 1.192898e+002
<STATE> 3
<MEAN> 39
 2.797483e+000 2.813064e-001 -9.058369e+000 6.638533e-001 -5.550907e+000 -1.754889e+001 -3.104998e+000 1.121542e+001 7.282771e+000 -6.389665e+000 -2.024226e+000 -2.868311e+000 7.551484e+001 2.182815e+000 -1.329653e+000 -2.509306e+000 -8.375427e-001 -1.652514e+000 -1.899882e+000 3.193319e-001 1.334634e+000 7.339752e-001 -6.805186e-003 -3.139109e-001 -1.864777e-001 1.494878e+000 -1.019309e+000 2.997533e-001 5.310112e-001 3.401904e-001 7.242581e-001 1.399758e+000 5.494779e-001 -6.707553e-001 -3.960876e-001 5.340756e-001 2.493673e-001 2.841767e-001 -8.800312e-001
<VARIANCE> 39
 1.014280e+001 3.433386e+001 6.712774e+001 1.987347e+001 6.062249e+001 3.756394e+001 2.806367e+001 3.797370e+001 8.165599e+001 4.393287e+001 2.055820e+001 1.200944e+001 6.734430e+000 5.712363e+000 3.094870e+000 5.824228e+000 1.838425e+000 3.720075e+000 8.117176e+000 1.449269e+000 4.944220e+000 3.799311e+000 2.157021e+000 1.210633e+000 7.651758e-001 3.161450e+000 6.824971e-001 3.330115e-001 9.077496e-001 1.219188e-001 3.861548e-001 1.229199e+000 3.833491e-001 3.688427e-001 6.530327e-001 2.970315e-001 2.718597e-001 8.040908e-002 4.399069e-001
<GCONST> 1.161595e+002
<STATE> 4
<MEAN> 39
 3.049823e+000 -3.533164e+000 -1.439323e+001 -9.482353e-001 -9.855807e+000 -1.462344e+001 4.175674e+000 1.245911e+001 3.940797e+000 -2.459011e+000 1.046761e-001 -1.337706e+000 7.533816e+001 -5.603718e-001 4.897833e-001 3.780330e-001 -2.248869e-001 1.887089e-001 6.684728e-001 3.312874e-001 -7.811419e-001 -4.858613e-001 3.591190e-001 4.586402e-002 7.308950e-001 -5.550166e-001 -2.797801e-001 2.250393e-001 3.595550e-001 1.239102e-001 1.558011e-001 6.903213e-002 -2.128145e-001 -1.647658e-001 -5.532586e-002 -1.231504e-001 7.610737e-002 1.453013e-001 -2.099199e-001
<VARIANCE> 39
 1.260753e+001 3.416647e+001 3.790084e+001 2.909852e+001 3.881552e+001 3.229597e+001 2.300511e+001 4.604956e+001 3.188856e+001 2.695911e+001 1.366607e+001 1.777052e+001 1.403173e+001 5.287210e-001 5.041422e-001 1.337304e+000 4.614069e-001 8.242118e-001 1.643293e+000 8.455963e-001 1.019664e+000 2.065017e+000 5.785495e-001 6.154990e-001 6.422060e-001 4.170153e-001 1.386383e-001 1.636855e-001 2.463133e-001 1.023942e-001 1.759569e-001 2.357453e-001 1.181623e-001 1.959148e-001 2.128441e-001 2.462160e-001 1.651276e-001 1.590077e-001 9.069229e-002
<GCONST> 8.706026e+001
<TRANSP> 5
 0.000000e+000 1.000000e+000 0.000000e+000 0.000000e+000 0.000000e+000
 0.000000e+000 6.355582e-001 3.644417e-001 0.000000e+000 0.000000e+000
 0.000000e+000 0.000000e+000 5.805562e-001 4.194439e-001 0.000000e+000
 0.000000e+000 0.000000e+000 0.000000e+000 7.646802e-001 2.353198e-001
 0.000000e+000 0.000000e+000 0.000000e+000 0.000000e+000 0.000000e+000
<ENDHMM>
~h "iy"
<BEGINHMM>
<NUMSTATES> 5
<STATE> 2
<MEAN> 39
 -5.250044e+000 6.496415e+000 2.394268e+000 1.218628e+001 1.119182e+001 -2.918594e+000 -7.595201e+000 -2.908103e+000 -8.190508e-001 -3.778975e+000 -4.273899e+000 -8.473751e+000 6.815697e+001 -1.246505e-001 -6.049501e-001 7.308496e-002 3.726641e-001 4.995378e-001 -8.109071e-001 -9.150012e-002 -4.540256e-001 -1.172867e+000 -4.196026e-001 1.116037e+000 4.442374e-001 4.928681e-001 1.058480e-001 -2.739270e-002 -1.789581e-001 -8.236948e-002 -2.442441e-001 -2.083394e-001 3.020426e-002 3.224051e-002 -3.010896e-001 -1.455013e-001 2.920584e-001 2.156806e-001 9.097157e-002
<VARIANCE> 39
 4.079038e+000 6.199412e+001 2.120146e+001 4.861793e+001 2.642636e+001 4.025856e+001 3.717411e+001 1.469283e+001 1.918516e+001 1.360594e+001 2.622784e+001 2.363412e+001 2.348078e+001 1.564377e-001 3.251068e+000 7.155315e-001 3.215974e+000 1.369767e+000 5.013251e+000 1.902765e+000 2.120793e-001 1.428291e+000 1.647850e+000 1.382999e+000 9.759086e-001 1.356941e+000 2.841035e-002 5.988435e-001 1.090419e-001 5.837166e-001 2.797786e-001 9.377372e-001 5.137425e-001 6.220656e-002 2.487127e-001 1.024015e-001 2.789621e-001 2.260746e-001 2.566950e-001
<GCONST> 9.580550e+001
<STATE> 3
<MEAN> 39
 -2.259883e+000 -8.088451e-001 -2.392457e+000 1.260419e+001 1.020602e+001 -9.482788e+000 -6.104644e+000 -3.665824e+000 -9.314786e+000 -1.091887e+001 1.184113e+000 -1.117193e-001 7.371812e+001 6.365123e-001 -6.992996e-002 -1.054104e+000 -9.742257e-001 -1.210369e+000 -5.453495e-001 6.391448e-001 7.791412e-001 -7.278664e-001 -7.163920e-001 3.668663e-002 7.968847e-001 2.504182e-001 5.258839e-002 -4.790753e-002 -7.670357e-002 -1.598149e-002 -6.268805e-002 -1.835976e-001 -2.602479e-001 2.704421e-001 5.712253e-001 3.358735e-002 2.744893e-002 1.806156e-002 2.415396e-002
<VARIANCE> 39
 4.348563e+000 8.180505e+000 1.153061e+001 4.245978e+001 3.728260e+001 2.414367e+001 2.482618e+001 4.006880e+001 2.937231e+001 4.170731e+001 5.995123e+001 1.055534e+001 3.231878e+000 3.668008e-001 1.945198e+000 1.038917e+000 2.798882e+000 1.482256e+000 6.741112e+000 3.622917e+000 3.268082e+000 3.620123e+000 1.360403e+000 3.688480e+000 9.174971e-001 1.011886e+000 6.764878e-002 2.800983e-001 1.620870e-001 4.961624e-001 1.954534e-001 1.388462e+000 5.233310e-001 6.980290e-001 2.885032e-001 3.536557e-001 7.419543e-001 2.359202e-001 1.978607e-001
<GCONST> 1.037665e+002
<STATE> 4
<MEAN> 39
 1.567690e+000 -4.227341e+000 -1.075999e+001 3.225894e+000 -1.211152e-001 -1.433084e+001 -2.400242e+000 3.723789e+000 -4.168093e+000 -7.572510e+000 6.019254e+000 7.651642e+000 7.624969e+001 -1.376828e-001 1.412458e-001 -1.574311e-001 -5.416272e-001 -9.269627e-001 3.932750e-001 7.811070e-001 2.834278e-001 4.436752e-001 1.081750e+000 6.690890e-001 1.792656e-001 -3.770133e-001 -2.101032e-001 2.082066e-001 3.860496e-001 2.705407e-001 2.341073e-001 4.219204e-001 -2.746606e-002 -2.026716e-001 -9.395435e-002 -6.614229e-002 -2.475614e-001 -3.339748e-001 -2.441699e-001
<VARIANCE> 39
 1.386480e+000 1.482147e+001 1.495256e+001 3.351868e+001 3.595228e+001 2.200006e+001 3.777828e+001 3.565552e+001 1.621380e+001 4.264006e+001 6.685611e+001 1.466861e+001 4.379491e+000 3.884822e-001 1.044905e+000 1.705825e+000 2.933063e+000 2.824219e+000 2.368631e+000 4.165926e+000 2.961760e+000 1.142289e+000 2.211865e+000 4.612164e+000 3.280760e+000 6.999464e-001 1.626185e-002 6.279830e-002 1.058729e-001 3.845320e-001 4.552407e-001 4.235314e-001 8.681554e-001 4.808095e-001 2.179521e-001 6.312048e-001 7.835883e-001 3.485244e-001 2.500417e-002
<GCONST> 9.853045e+001
<TRANSP> 5
 0.000000e+000 1.000000e+000 0.000000e+000 0.000000e+000 0.000000e+000
 0.000000e+000 7.818447e-001 2.181553e-001 0.000000e+000 0.000000e+000
 0.000000e+000 0.000000e+000 8.177122e-001 1.822878e-001 0.000000e+000
 0.000000e+000 0.000000e+000 0.000000e+000 8.668724e-001 1.331276e-001
 0.000000e+000 0.000000e+000 0.000000e+000 0.000000e+000 0.000000e+000
<ENDHMM>
~h "jh"
<BEGINHMM>
<NUMSTATES> 5
<STATE> 2
<MEAN> 39
 -2.530526e-001 1.279573e+000 -4.541569e+000 1.183816e+001 8.487075e+000 -6.452867e+000 -6.673862e+000 -2.530905e+000 -2.237825e+000 -1.893783e+000 -2.192393e+000 -5.580240e+000 7.152281e+001 2.163427e-001 -3.406933e-001 -2.771516e-001 -3.625766e-001 -1.015114e-001 -1.826425e-001 1.706102e-001 2.415719e-001 -4.311104e-001 -1.890863e-001 2.505076e-002 -4.263870e-003 3.239288e-001 1.868813e-003 -7.347947e-003 -1.943221e-001 -4.480083e-001 -2.162108e-001 -3.463421e-002 4.171322e-001 2.665330e-001 -2.963759e-001 -2.058229e-001 2.248285e-001 2.546191e-001 8.654032e-002
<VARIANCE> 39
 7.076837e-001 3.599691e+000 2.575985e+000 5.654435e+000 4.748057e+001 4.693552e+000 3.786753e+001 2.772616e+001 1.954744e+001 2.685850e+001 2.197313e+001 5.608871e+000 1.171207e+000 3.306990e-001 4.573113e-001 7.109169e-001 6.360007e-001 1.235424e+000 1.249825e+000 8.115354e-001 2.130318e+000 5.765882e-001 5.209985e-001 1.772954e+000 1.667854e-001 1.994356e-001 3.286463e-002 5.503077e-002 1.078220e-001 1.359154e-001 2.255639e-001 2.253718e-001 1.577915e-001 1.444594e-001 1.006266e-001 1.226560e-001 3.503367e-001 1.702671e-001 5.337575e-002
<GCONST> 6.571249e+001
<STATE> 3
<MEAN> 39
 5.448725e-001 -7.271744e-001 -7.851034e+000 4.646952e+000 4.753944e+000 -8.939894e+000 -4.631385e-001 1.227010e+000 -7.186975e+000 -4.862565e+000 2.511399e+000 -3.735074e+000 7.483682e+001 8.238538e-001 -1.072646e+000 -2.367316e+000 -3.273047e+000 -2.589118e+000 -2.092842e+000 3.044375e+000 3.077069e+000 -1.678704e+000 -2.002693e-001 3.081321e+000 2.288991e+000 1.634392e+000 1.866402e-002 -7.585419e-002 -1.475017e-001 -5.262353e-003 -4.585204e-002 9.590554e-002 -1.624491e-002 3.137576e-001 5.787563e-001 -9.171910e-002 -1.692524e-001 3.911192e-001 -4.660266e-002
<VARIANCE> 39
 1.789651e+000 1.660842e+001 7.316983e+000 2.769759e+001 6.523735e+001 1.905924e+001 4.006689e+001 4.030507e+001 1.590657e+001 3.418697e+001 9.881128e+001 1.428128e+001 8.045799e+000 3.640840e-001 9.341326e-001 2.685462e-001 2.685749e+000 2.500560e+000 4.171242e-001 2.326950e-001 4.220371e+000 3.513446e-001 7.841392e-001 3.043454e+000 6.398744e-001 1.380579e-001 8.716808e-002 1.254124e-001 2.670980e-001 4.740693e-001 5.282873e-001 6.883082e-001 3.188588e-001 5.379447e-001 2.065982e-001 1.415168e-001 1.182390e+000 2.654161e-001 1.331891e-001
<GCONST> 9.048075e+001
<STATE> 4
<MEAN> 39
 3.067076e+000 -4.566449e+000 -1.299064e+001 7.852435e-001 -6.181143e+000 -1.151688e+001 5.995034e+000 1.075519e+001 -9.704474e+000 -7.645317e+000 1.151817e+001 3.120017e+000 7.739637e+001 3.330053e-001 -2.899673e-001 -6.203380e-001 -8.854032e-001 -9.603690e-001 8.115364e-002 1.314655e+000 1.166216e+000 5.100551e-001 -4.058096e-001 -4.842415e-001 3.484753e-001 3.962422e-002 -1.701104e-001 2.935287e-001 3.885673e-001 2.549111e-001 3.017665e-001 2.455593e-001 -3.539309e-001 -4.443890e-001 3.980333e-001 4.881829e-002 -5.197038e-001 -3.766180e-001 -2.686686e-001
<VARIANCE> 39
 1.067056e+000 7.346547e+000 4.604712e+000 2.692988e+001 3.856010e+001 1.617380e+001 1.851731e+001 7.866410e+000 1.065901e+001 1.196427e+001 2.092758e+001 5.173853e+000 1.206502e+000 1.374957e-001 5.857676e-001 8.696844e-001 1.205572e+000 5.891624e-001 7.769360e-001 8.330324e-001 1.843343e+000 6.706516e-001 9.318282e-001 1.738248e+000 1.680732e+000 3.382851e-001 3.432231e-002 7.436872e-002 4.917445e-002 2.303666e-001 1.971623e-001 3.216472e-001 1.325616e-001 3.627427e-001 3.345063e-001 2.117110e-001 5.494403e-001 1.389689e-001 5.968986e-002
<GCONST> 7.210568e+001
<TRANSP> 5
 0.000000e+000 1.000000e+000 0.000000e+000 0.000000e+000 0.000000e+000
 0.000000e+000 8.399975e-001 1.600026e-001 0.000000e+000 0.000000e+000
 0.000000e+000 0.000000e+000 5.529794e-001 4.470206e-001 0.000000e+000
 0.000000e+000 0.000000e+000 0.000000e+000 7.155881e-001 2.844119e-001
 0.000000e+000 0.000000e+000 0.000000e+000 0.000000e+000 0.000000e+000
<ENDHMM>
~h "ow"
<BEGINHMM>
<NUMSTATES> 5
<STATE> 2
<MEAN> 39
 1.364237e-001 1.830427e+000 -5.277223e+000 4.360013e+000 3.344633e+000 -9.758001e+000 -2.858190e+000 2.112793e-001 -2.304077e+000 -8.462617e+000 -4.791266e-001 8.113398e-001 7.473391e+001 1.944085e+000 -1.662394e+000 -2.975028e+000 -2.501872e+000 -2.944167e+000 -4.245941e+000 2.639493e+000 3.218956e+000 -9.955959e-001 -2.352428e+000 2.790472e+000 3.280720e+000 2.261150e+000 -1.727820e-001 4.040865e-001 1.350963e-001 2.623876e-002 -3.439343e-001 -1.199371e-001 9.850346e-002 9.306905e-001 5.576872e-001 4.862235e-001 -1.625709e-002 -4.710718e-001 -4.901469e-001
<VARIANCE> 39
 7.699579e+000 1.730469e+001 3.936065e+001 1.944143e+001 5.681798e+001 3.628645e+001 4.117630e+001 3.811613e+001 3.914873e+001 2.604615e+001 4.054809e+001 3.942260e+001 1.056097e+001 6.200461e-001 9.148408e-001 6.706345e-001 3.267989e-001 7.500938e-001 2.478748e+000 5.754755e-001 5.703646e+000 4.339606e+000 3.680658e+000 2.951970e+000 3.363203e+000 6.872600e-001 1.893793e-001 1.604368e-001 3.979392e-001 1.349086e-001 2.863210e-001 7.598814e-001 4.651810e-001 6.083038e-001 6.902926e-001 6.539630e-001 9.052892e-001 1.281488e+000 3.453143e-001
<GCONST> 1.083594e+002
<STATE> 3
<MEAN> 39
 3.924996e+000 7.362394e-001 -1.158111e+001 -1.327900e+000 -4.544237e+000 -1.868007e+001 2.630733e+000 1.166270e+001 -1.351906e+000 -1.194352e+001 4.309663e+000 3.584165e+000 7.797890e+001 7.583250e-001 1.379128e-001 -7.884038e-001 -1.093430e+000 -2.133436e+000 -1.697477e+000 1.241302e-001 2.698454e+000 1.322394e+000 1.163862e+000 2.671846e-001 -1.127565e+000 2.503966e-001 -3.958029e-001 3.123476e-001 7.506269e-001 5.851992e-001 5.005208e-001 7.266302e-001 -9.935524e-001 -5.887673e-001 1.717990e-001 9.553090e-001 -5.681075e-001 -7.387232e-001 -4.811939e-001
<VARIANCE> 39
 1.173634e+000 1.384123e+001 4.303785e+000 2.345832e+001 3.457112e+001 1.157753e+001 9.398847e+000 6.457023e+000 3.544039e+001 1.373395e+001 2.605981e+001 2.507459e+001 1.053615e+000 3.308603e-001 2.121748e-001 1.454734e+000 4.772229e-001 1.151151e+000 1.002926e+000 3.930834e+000 1.244440e+000 1.267531e+000 2.542472e+000 1.081265e+000 3.916473e+000 1.795912e-001 4.906703e-002 1.461436e-001 1.350981e-001 3.517457e-002 4.183216e-002 5.322582e-001 1.418443e-001 3.936268e-001 5.349531e-001 2.987142e-001 2.907025e-001 8.154884e-001 5.979970e-002
<GCONST> 7.843903e+001
<STATE> 4
<MEAN> 39
 4.021094e+000 1.219476e+000 -7.127037e+000 1.752976e+000 -1.165360e+001 -2.556007e+001 -4.098350e+000 1.836269e+001 1.623270e+000 -5.236061e+000 3.946942e+000 -4.000954e-001 7.565233e+001 -1.823308e-001 3.521142e-001 4.478767e-001 2.163420e-001 -3.462022e-001 -2.783665e-001 -4.176155e-001 -1.270538e-002 2.723433e-001 3.429265e-001 -3.147810e-001 -5.629238e-002 -4.628806e-001 -1.102561e-001 1.203408e-001 8.948120e-002 -1.653366e-002 1.127930e-001 2.427595e-001 8.315399e-002 -2.815569e-001 -6.939103e-002 -8.509618e-002 -1.692685e-002 5.164408e-002 -8.566390e-002
<VARIANCE> 39
 2.238381e+000 6.765346e+000 1.938983e+001 2.849137e+001 1.934369e+001 2.722236e+001 2.854822e+001 1.370636e+001 2.184180e+001 1.564588e+001 1.641058e+001 7.313334e+000 3.610539e+000 1.280374e-001 5.990665e-001 5.120190e-001 4.629446e-001 7.218434e-001 1.257878e+000 1.282517e+000 1.268645e+000 4.074456e-001 1.806606e+000 6.718978e-001 7.240151e-001 1.515889e-001 1.366757e-002 3.825977e-002 8.072177e-002 6.543469e-002 3.631673e-002 8.241183e-002 1.860590e-001 9.205925e-002 6.720754e-002 1.971870e-001 1.263478e-001 1.914452e-001 1.011902e-002
<GCONST> 6.300298e+001
<TRANSP> 5
 0.000000e+000 1.000000e+000 0.000000e+000 0.000000e+000 0.000000e+000
 0.000000e+000 5.988504e-001 4.011496e-001 0.000000e+000 0.000000e+000
 0.000000e+000 0.000000e+000 6.365417e-001 3.634582e-001 0.000000e+000
 0.000000e+000 0.000000e+000 0.000000e+000 9.182948e-001 8.170517e-002
 0.000000e+000 0.000000e+000 0.000000e+000 0.000000e+000 0.000000e+000
<ENDHMM>
~h "sp"
<BEGINHMM>
<NUMSTATES> 5
<STATE> 2
~s "silst"
<STATE> 3
<MEAN> 39
 -1.964306e+001 4.224531e+000 8.408689e-001 5.011397e+000 4.830282e+000 6.145368e+000 6.951197e+000 5.701727e+000 7.139583e+000 6.492245e+000 6.088840e+000 4.595460e+000 5.697247e+001 7.005399e-002 1.435955e-002 -4.096438e-002 1.542572e-002 1.671951e-001 -5.184814e-002 4.222780e-002 -3.463269e-001 1.080244e-001 2.509844e-001 -1.066804e-003 -2.354688e-001 1.344163e-001 1.885074e-001 6.464083e-002 1.232786e-001 2.175877e-001 1.006203e-001 -1.637856e-001 -2.263905e-001 -1.897713e-001 -6.565386e-002 -1.111422e-001 -9.408046e-002 -1.460114e-001 1.355348e-001
<VARIANCE> 39
 8.668805e-001 6.341488e-001 1.698632e+000 1.670048e+000 4.095193e+000 2.206604e+000 5.399984e+000 3.170172e+000 2.787025e+000 2.890908e+000 2.706706e+000 1.098804e+001 5.072046e-001 8.429394e-002 4.088638e-002 2.944607e-001 1.385868e-001 3.810153e-001 3.971437e-001 8.857810e-001 6.251662e-001 7.829741e-001 1.761740e-001 1.450198e-001 7.708606e-001 3.984425e-002 6.097297e-002 5.488580e-002 7.648270e-002 1.005089e-001 9.515211e-002 5.673302e-002 1.579979e-001 5.928010e-002 2.826039e-001 1.390732e-001 1.045248e-001 2.637374e-001 2.455134e-002
<GCONST> 3.222480e+001
<STATE> 4
<MEAN> 39
 -1.940997e+001 3.980444e+000 4.782157e-001 5.108464e+000 5.562786e+000 6.758839e+000 6.709618e+000 5.916574e+000 7.358741e+000 6.002768e+000 4.768368e+000 4.367640e+000 5.716114e+001 5.397835e-001 4.663450e-001 6.939513e-001 7.810873e-001 4.558973e-001 -2.950864e-001 -1.063655e-001 -3.582588e-001 -4.287421e-001 -5.916183e-001 -5.616258e-001 -8.126934e-001 3.585946e-001 5.553335e-001 2.129520e-001 1.911585e-001 2.348495e-001 9.144524e-002 -2.686606e-001 -6.246361e-001 -1.770521e-001 -3.073181e-001 -3.221233e-001 -3.631773e-001 -4.553587e-001 3.755611e-001
<VARIANCE> 39
 9.508356e-001 4.636592e-001 1.434718e+000 1.017674e+000 6.000767e+000 2.754389e+000 6.412381e+000 9.354379e+000 5.493351e+000 1.907320e+000 5.904084e+000 5.605838e+000 5.164707e-001 5.704700e-001 8.001292e-001 5.652442e-001 8.323392e-001 5.905924e-001 4.611663e-001 9.164029e-001 8.538651e-001 1.650503e+000 1.201900e+000 1.274343e+000 1.033629e+000 2.637984e-001 2.526819e-001 1.103596e-001 4.974440e-002 7.101256e-002 9.543593e-002 1.704172e-001 2.933607e-001 5.286443e-002 3.650955e-001 1.809251e-001 2.591859e-001 3.389618e-001 1.262090e-001
<GCONST> 5.513779e+001
<TRANSP> 5
 0.000000e+000 7.000000e-001 3.000000e-001 0.000000e+000 0.000000e+000
 0.000000e+000 7.581326e-001 2.418675e-001 0.000000e+000 0.000000e+000
 0.000000e+000 0.000000e+000 5.583163e-001 4.416837e-001 0.000000e+000
 0.000000e+000 0.000000e+000 0.000000e+000 1.134596e-001 8.865404e-001
 0.000000e+000 0.000000e+000 0.000000e+000 0.000000e+000 0.000000e+000
<ENDHMM>
~h "uh"
<BEGINHMM>
<NUMSTATES> 5
<STATE> 2
<MEAN> 39
 -5.529046e+000 -1.527483e+000 -6.951910e+000 2.394911e+000 6.731320e-001 -6.914053e+000 3.833896e+000 2.580085e+000 -8.202613e-001 -2.540685e+000 5.128375e+000 4.179165e+000 7.104533e+001 3.084974e+000 -1.053459e+000 -1.491457e+000 9.148950e-001 -2.681313e-001 -2.584700e+000 -6.766571e-001 -6.552818e-001 -2.022596e+000 -2.799782e+000 -8.586538e-001 -6.475313e-001 2.563247e+000 -2.001632e-001 4.631761e-001 4.457558e-001 5.690058e-002 2.022299e-002 1.752336e-001 -3.046496e-001 1.525532e-001 1.251848e-001 1.049672e-001 -2.398308e-001 -4.782439e-001 -3.483815e-001
<VARIANCE> 39
 6.204139e+001 2.544141e+001 3.883443e+001 3.621989e+001 5.119781e+001 5.029234e+001 4.663705e+001 5.026283e+001 5.370223e+001 5.117453e+001 2.310271e+001 1.147612e+001 4.513277e+001 3.966432e+000 2.679355e+000 3.248298e+000 3.068134e+000 3.180403e+000 4.408340e+000 3.250362e+000 5.749893e+000 7.570116e+000 5.946696e+000 1.745071e+000 2.205863e+000 2.729420e+000 1.235828e+000 7.605482e-001 5.330293e-001 5.158121e-001 4.217173e-001 1.257844e+000 6.325515e-001 9.312409e-001 1.059595e+000 1.259985e+000 6.493411e-001 2.653641e-001 5.493842e-001
<GCONST> 1.310173e+002
<STATE> 3
<MEAN> 39
 9.073457e-001 -9.144343e-001 -9.107008e+000 3.447318e+000 2.397707e+000 -9.297660e+000 -9.665193e-002 1.814307e+000 -4.165705e+000 -7.982141e+000 1.299524e+000 1.730374e+000 7.454745e+001 1.199015e+000 2.325619e-001 -1.685874e-001 5.101975e-001 -4.026223e-001 -3.671349e-001 -7.429596e-001 1.520121e-001 1.985372e-001 4.219387e-002 -1.252933e+000 -1.618998e+000 3.282964e-001 -8.535932e-001 2.566353e-001 5.707969e-001 -1.021684e-001 -1.484746e-002 4.208181e-001 3.445752e-003 1.181577e-001 7.129630e-001 9.540547e-001 1.697795e-001 -2.380539e-001 -6.555175e-001
<VARIANCE> 39
 1.257797e+001 2.454342e+001 3.277885e+001 4.754406e+001 9.502699e+001 3.391158e+001 5.966980e+001 7.773611e+001 3.311876e+001 2.601828e+001 2.346002e+001 1.917117e+001 1.455047e+001 2.090950e+000 5.363169e+000 4.550310e+000 1.577527e+000 1.970654e+000 6.730256e+000 2.646903e+000 2.668892e+000 3.868726e+000 5.424851e+000 5.171318e+000 4.073328e+000 1.486349e+000 7.098309e-001 2.613658e-001 5.512203e-001 2.241443e-001 6.113301e-001 1.243723e+000 3.621799e-001 1.055007e+000 6.954017e-001 7.347482e-001 4.825294e-001 4.661705e-001 3.037989e-001
<GCONST> 1.238759e+002
<STATE> 4
<MEAN> 39
 2.862459e+000 -2.609230e+000 -1.145871e+001 2.151893e+000 -1.613711e+000 -1.236224e+001 1.119579e+000 2.585595e+000 -3.891791e+000 -5.883863e+000 2.106502e+000 7.897627e-001 7.643617e+001 5.976621e-002 5.760165e-001 1.774696e-001 2.468138e-001 -1.574998e-001 -5.011606e-001 -5.275794e-001 1.845168e-001 7.270557e-002 -1.510762e-001 -2.944877e-001 -3.529566e-001 -3.353179e-001 -6.727027e-001 5.083213e-001 6.037062e-001 -1.241639e-001 1.364685e-001 4.751114e-001 8.520577e-005 -1.064751e-001 9.799816e-002 2.835324e-001 1.679881e-002 6.427068e-002 -5.621285e-001
<VARIANCE> 39
 9.779258e+000 2.152949e+001 3.715245e+001 3.740650e+001 7.840483e+001 1.976966e+001 5.606625e+001 6.973843e+001 6.612160e+001 3.227885e+001 1.992201e+001 1.899957e+001 1.207639e+001 7.958366e-001 1.784065e+000 1.639938e+000 5.888794e-001 1.327281e+000 1.522413e+000 8.707266e-001 1.951326e+000 1.842838e+000 1.842374e+000 2.172248e+000 1.396090e+000 5.410275e-001 3.292863e-001 3.654137e-001 4.149800e-001 1.715182e-001 2.756094e-001 4.111962e-001 2.751302e-001 4.603129e-001 4.768523e-001 5.071977e-001 2.052937e-001 2.969552e-001 2.110440e-001
<GCONST> 1.044646e+002
<TRANSP> 5
 0.000000e+000 1.000000e+000 0.000000e+000 0.000000e+000 0.000000e+000
 0.000000e+000 3.429638e-001 6.570362e-001 0.000000e+000 0.000000e+000
 0.000000e+000 0.000000e+000 2.068866e-001 7.931134e-001 0.000000e+000
 0.000000e+000 0.000000e+000 0.000000e+000 5.429716e-001 4.570284e-001
 0.000000e+000 0.000000e+000 0.000000e+000 0.000000e+000 0.000000e+000
<ENDHMM>
~h "sil"
<BEGINHMM>
<NUMSTATES> 5
<STATE> 2
<MEAN> 39
 -1.910370e+001 4.828282e+000 1.705008e+000 6.244576e+000 5.315034e+000 6.006909e+000 5.915897e+000 6.861880e+000 7.426260e+000 6.632961e+000 6.147398e+000 4.658050e+000 5.711761e+001 -3.999409e-001 -2.707876e-001 7.832542e-003 -2.059924e-002 1.542041e-002 -1.148226e-001 -4.929361e-002 2.113234e-001 2.439274e-001 6.297452e-001 4.297544e-001 3.895016e-001 -2.126415e-001 1.017394e-001 5.404778e-002 -4.876195e-002 -8.862308e-002 -1.244841e-001 6.369269e-003 3.701844e-002 -1.287023e-001 -1.374665e-001 -2.806104e-001 -2.055379e-001 -4.909365e-002 6.201467e-002
<VARIANCE> 39
 1.501127e+000 2.262628e+000 2.455310e+000 3.400215e+000 3.694643e+000 3.451869e+000 3.464610e+000 5.985171e+000 5.756482e+000 7.518767e+000 5.282080e+000 4.665103e+000 5.072046e-001 1.542071e-001 1.988889e-001 3.848891e-001 3.714026e-001 5.410844e-001 3.053189e-001 3.636778e-001 4.613332e-001 1.005238e+000 1.319964e+000 6.445976e-001 2.420641e-001 3.393586e-002 8.609368e-003 9.424477e-003 3.065134e-002 3.513958e-002 9.330115e-002 6.381912e-002 6.364431e-002 1.150403e-001 8.975337e-002 1.365379e-001 1.157124e-001 4.340950e-002 3.074858e-003
<GCONST> 3.114600e+001
<STATE> 3
~s "silst"
<STATE> 4
<MEAN> 39
 -1.950550e+001 4.025420e+000 4.693790e-001 4.933490e+000 5.273208e+000 6.373722e+000 6.580753e+000 5.524044e+000 7.610051e+000 6.702217e+000 5.503391e+000 4.732028e+000 5.712111e+001 3.265225e-001 2.968627e-001 5.157440e-001 5.691488e-001 4.822041e-001 -2.146639e-001 5.617327e-002 -4.630044e-001 -4.680190e-002 -3.604380e-001 -3.549149e-001 -5.964862e-001 3.100379e-001 5.373842e-001 2.140367e-001 2.795875e-001 3.835125e-001 1.457269e-001 -2.526656e-001 -5.613058e-001 -2.144472e-001 -4.395726e-001 -3.988785e-001 -3.850164e-001 -5.280524e-001 3.653502e-001
<VARIANCE> 39
 1.488852e+000 4.400773e-001 1.993381e+000 1.717504e+000 5.397336e+000 2.870428e+000 7.069725e+000 7.938489e+000 4.830966e+000 2.584556e+000 6.217606e+000 7.124460e+000 5.072046e-001 4.681587e-001 5.897427e-001 6.271392e-001 6.290678e-001 5.640569e-001 5.346778e-001 7.508180e-001 8.554890e-001 1.851893e+000 9.431805e-001 9.602927e-001 9.331525e-001 1.956793e-001 1.844830e-001 1.122226e-001 6.304087e-002 1.010917e-001 1.079276e-001 1.510877e-001 2.335081e-001 5.863510e-002 3.956012e-001 1.460590e-001 1.937715e-001 2.909352e-001 8.878014e-002
<GCONST> 5.435922e+001
<TRANSP> 5
 0.000000e+000 1.000000e+000 0.000000e+000 0.000000e+000 0.000000e+000
 0.000000e+000 5.560548e-001 2.774659e-001 1.664793e-001 0.000000e+000
 0.000000e+000 0.000000e+000 7.997446e-001 2.002554e-001 0.000000e+000
 0.000000e+000 2.781913e-010 0.000000e+000 4.288630e-001 5.711370e-001
 0.000000e+000 0.000000e+000 0.000000e+000 0.000000e+000 0.000000e+000
<ENDHMM>
