~o
<STREAMINFO> 1 39
<VECSIZE> 39<NULLD><MFCC_D_A_0><DIAGC>
~t "T_b"
<TRANSP> 5
 0.000000e+000 1.000000e+000 0.000000e+000 0.000000e+000 0.000000e+000
 0.000000e+000 8.262884e-001 1.737115e-001 0.000000e+000 0.000000e+000
 0.000000e+000 0.000000e+000 4.287671e-001 5.712329e-001 0.000000e+000
 0.000000e+000 0.000000e+000 0.000000e+000 7.717536e-001 2.282463e-001
 0.000000e+000 0.000000e+000 0.000000e+000 0.000000e+000 0.000000e+000
~t "T_d"
<TRANSP> 5
 0.000000e+000 1.000000e+000 0.000000e+000 0.000000e+000 0.000000e+000
 0.000000e+000 5.788094e-001 4.211906e-001 0.000000e+000 0.000000e+000
 0.000000e+000 0.000000e+000 7.938856e-001 2.061143e-001 0.000000e+000
 0.000000e+000 0.000000e+000 0.000000e+000 8.851644e-001 1.148356e-001
 0.000000e+000 0.000000e+000 0.000000e+000 0.000000e+000 0.000000e+000
~t "T_g"
<TRANSP> 5
 0.000000e+000 1.000000e+000 0.000000e+000 0.000000e+000 0.000000e+000
 0.000000e+000 9.054902e-001 9.450979e-002 0.000000e+000 0.000000e+000
 0.000000e+000 0.000000e+000 8.176634e-001 1.823365e-001 0.000000e+000
 0.000000e+000 0.000000e+000 0.000000e+000 7.659247e-001 2.340753e-001
 0.000000e+000 0.000000e+000 0.000000e+000 0.000000e+000 0.000000e+000
~t "T_l"
<TRANSP> 5
 0.000000e+000 1.000000e+000 0.000000e+000 0.000000e+000 0.000000e+000
 0.000000e+000 7.309918e-001 2.690081e-001 0.000000e+000 0.000000e+000
 0.000000e+000 0.000000e+000 7.486653e-001 2.513347e-001 0.000000e+000
 0.000000e+000 0.000000e+000 0.000000e+000 8.693233e-001 1.306767e-001
 0.000000e+000 0.000000e+000 0.000000e+000 0.000000e+000 0.000000e+000
~t "T_m"
<TRANSP> 5
 0.000000e+000 1.000000e+000 0.000000e+000 0.000000e+000 0.000000e+000
 0.000000e+000 7.260798e-001 2.739202e-001 0.000000e+000 0.000000e+000
 0.000000e+000 0.000000e+000 8.272979e-001 1.727020e-001 0.000000e+000
 0.000000e+000 0.000000e+000 0.000000e+000 7.807645e-001 2.192356e-001
 0.000000e+000 0.000000e+000 0.000000e+000 0.000000e+000 0.000000e+000
~t "T_n"
<TRANSP> 5
 0.000000e+000 1.000000e+000 0.000000e+000 0.000000e+000 0.000000e+000
 0.000000e+000 8.103882e-001 1.896118e-001 0.000000e+000 0.000000e+000
 0.000000e+000 0.000000e+000 8.835270e-001 1.164730e-001 0.000000e+000
 0.000000e+000 0.000000e+000 0.000000e+000 8.491494e-001 1.508506e-001
 0.000000e+000 0.000000e+000 0.000000e+000 0.000000e+000 0.000000e+000
~t "T_p"
<TRANSP> 5
 0.000000e+000 1.000000e+000 0.000000e+000 0.000000e+000 0.000000e+000
 0.000000e+000 6.665872e-001 3.334128e-001 0.000000e+000 0.000000e+000
 0.000000e+000 0.000000e+000 6.544901e-001 3.455099e-001 0.000000e+000
 0.000000e+000 0.000000e+000 0.000000e+000 9.618386e-001 3.816139e-002
 0.000000e+000 0.000000e+000 0.000000e+000 0.000000e+000 0.000000e+000
~t "T_s"
<TRANSP> 5
 0.000000e+000 1.000000e+000 0.000000e+000 0.000000e+000 0.000000e+000
 0.000000e+000 8.581352e-001 1.418648e-001 0.000000e+000 0.000000e+000
 0.000000e+000 0.000000e+000 7.229042e-001 2.770959e-001 0.000000e+000
 0.000000e+000 0.000000e+000 0.000000e+000 8.228043e-001 1.771957e-001
 0.000000e+000 0.000000e+000 0.000000e+000 0.000000e+000 0.000000e+000
~t "T_t"
<TRANSP> 5
 0.000000e+000 1.000000e+000 0.000000e+000 0.000000e+000 0.000000e+000
 0.000000e+000 8.431712e-001 1.568289e-001 0.000000e+000 0.000000e+000
 0.000000e+000 0.000000e+000 5.727162e-001 4.272838e-001 0.000000e+000
 0.000000e+000 0.000000e+000 0.000000e+000 7.273164e-001 2.726835e-001
 0.000000e+000 0.000000e+000 0.000000e+000 0.000000e+000 0.000000e+000
~t "T_w"
<TRANSP> 5
 0.000000e+000 1.000000e+000 0.000000e+000 0.000000e+000 0.000000e+000
 0.000000e+000 7.895288e-001 2.104711e-001 0.000000e+000 0.000000e+000
 0.000000e+000 0.000000e+000 7.334135e-001 2.665865e-001 0.000000e+000
 0.000000e+000 0.000000e+000 0.000000e+000 8.018786e-001 1.981214e-001
 0.000000e+000 0.000000e+000 0.000000e+000 0.000000e+000 0.000000e+000
~t "T_ah"
<TRANSP> 5
 0.000000e+000 1.000000e+000 0.000000e+000 0.000000e+000 0.000000e+000
 0.000000e+000 7.162391e-001 2.837609e-001 0.000000e+000 0.000000e+000
 0.000000e+000 0.000000e+000 7.957736e-001 2.042265e-001 0.000000e+000
 0.000000e+000 0.000000e+000 0.000000e+000 9.385498e-001 6.145018e-002
 0.000000e+000 0.000000e+000 0.000000e+000 0.000000e+000 0.000000e+000
~t "T_hh"
<TRANSP> 5
 0.000000e+000 1.000000e+000 0.000000e+000 0.000000e+000 0.000000e+000
 0.000000e+000 6.361628e-001 3.638372e-001 0.000000e+000 0.000000e+000
 0.000000e+000 0.000000e+000 6.002977e-001 3.997023e-001 0.000000e+000
 0.000000e+000 0.000000e+000 0.000000e+000 6.917626e-001 3.082374e-001
 0.000000e+000 0.000000e+000 0.000000e+000 0.000000e+000 0.000000e+000
~t "T_ih"
<TRANSP> 5
 0.000000e+000 1.000000e+000 0.000000e+000 0.000000e+000 0.000000e+000
 0.000000e+000 6.839100e-001 3.160899e-001 0.000000e+000 0.000000e+000
 0.000000e+000 0.000000e+000 5.808858e-001 4.191142e-001 0.000000e+000
 0.000000e+000 0.000000e+000 0.000000e+000 7.985368e-001 2.014632e-001
 0.000000e+000 0.000000e+000 0.000000e+000 0.000000e+000 0.000000e+000
~t "T_iy"
<TRANSP> 5
 0.000000e+000 1.000000e+000 0.000000e+000 0.000000e+000 0.000000e+000
 0.000000e+000 8.040091e-001 1.959908e-001 0.000000e+000 0.000000e+000
 0.000000e+000 0.000000e+000 8.424370e-001 1.575630e-001 0.000000e+000
 0.000000e+000 0.000000e+000 0.000000e+000 8.502961e-001 1.497039e-001
 0.000000e+000 0.000000e+000 0.000000e+000 0.000000e+000 0.000000e+000
~t "T_jh"
<TRANSP> 5
 0.000000e+000 1.000000e+000 0.000000e+000 0.000000e+000 0.000000e+000
 0.000000e+000 8.399949e-001 1.600051e-001 0.000000e+000 0.000000e+000
 0.000000e+000 0.000000e+000 5.000747e-001 4.999253e-001 0.000000e+000
 0.000000e+000 0.000000e+000 0.000000e+000 7.350236e-001 2.649765e-001
 0.000000e+000 0.000000e+000 0.000000e+000 0.000000e+000 0.000000e+000
~t "T_ow"
<TRANSP> 5
 0.000000e+000 1.000000e+000 0.000000e+000 0.000000e+000 0.000000e+000
 0.000000e+000 4.998349e-001 5.001652e-001 0.000000e+000 0.000000e+000
 0.000000e+000 0.000000e+000 6.366046e-001 3.633954e-001 0.000000e+000
 0.000000e+000 0.000000e+000 0.000000e+000 9.165534e-001 8.344658e-002
 0.000000e+000 0.000000e+000 0.000000e+000 0.000000e+000 0.000000e+000
~t "T_uh"
<TRANSP> 5
 0.000000e+000 1.000000e+000 0.000000e+000 0.000000e+000 0.000000e+000
 0.000000e+000 4.073299e-001 5.926701e-001 0.000000e+000 0.000000e+000
 0.000000e+000 0.000000e+000 2.738530e-001 7.261471e-001 0.000000e+000
 0.000000e+000 0.000000e+000 0.000000e+000 5.663316e-001 4.336684e-001
 0.000000e+000 0.000000e+000 0.000000e+000 0.000000e+000 0.000000e+000
~s "ST_s_2_1"
<MEAN> 39
 -1.195967e+000 -1.267753e+000 -8.882054e+000 1.622392e+000 -8.831859e+000 -1.340971e+001 2.049965e+000 1.139381e+001 8.464031e-001 -3.992234e+000 5.084887e+000 2.625871e+000 7.191241e+001 -2.608130e-001 1.462530e-001 2.339283e-001 1.735308e-001 2.836267e-001 4.996050e-001 -2.137705e-001 -3.220188e-001 -1.099262e-001 8.478485e-003 7.680815e-002 -7.371965e-002 -2.896374e-001 -9.832969e-002 2.465181e-002 3.322527e-002 -7.667752e-003 1.528070e-001 1.559462e-001 -5.248350e-002 -1.197164e-002 2.490468e-002 1.752364e-003 1.688994e-002 4.422621e-002 -7.802704e-002
<VARIANCE> 39
 6.588591e+001 5.002274e+001 3.818858e+001 1.387602e+001 2.145088e+001 6.806716e+001 1.552171e+001 2.290708e+001 4.174086e+001 5.402206e+001 2.218352e+001 1.685632e+001 6.050537e+001 6.757669e+000 3.354245e+000 2.988108e+000 6.633231e-001 3.010547e+000 8.258705e+000 1.315775e+000 2.795028e+000 2.177500e+000 5.460145e+000 2.919416e+000 2.120367e+000 5.479324e+000 1.006646e+000 4.788574e-001 4.171416e-001 1.271071e-001 5.051295e-001 1.527592e+000 2.206843e-001 4.721825e-001 2.670218e-001 8.213765e-001 6.674918e-001 5.159324e-001 7.401103e-001
<GCONST> 1.222066e+002
~s "ST_s_3_1"
<MEAN> 39
 -3.618629e+000 2.206421e+000 -8.100911e+000 -1.459835e+000 -4.084477e+000 -8.288401e+000 1.023723e-001 4.831432e+000 6.723197e+000 6.532727e-001 2.012001e+000 2.332672e+000 6.860378e+001 -1.090895e+000 9.596159e-001 8.224664e-001 -1.539291e-001 5.104096e-001 1.526109e+000 -1.583953e-001 -5.577094e-001 3.356745e-001 5.628304e-001 1.170697e-001 1.895927e-001 -1.159044e+000 -2.122077e-002 -1.281660e-001 -2.851424e-002 6.591439e-002 2.234083e-001 1.533302e-002 1.374020e-001 4.752608e-002 1.651129e-002 3.295683e-002 -2.840585e-002 -3.567326e-002 9.280373e-002
<VARIANCE> 39
 5.619048e+001 2.875740e+001 3.470303e+001 1.475331e+001 1.325048e+001 5.118768e+001 1.666928e+001 2.396486e+001 3.428588e+001 2.385700e+001 1.515540e+001 1.952388e+001 4.072769e+001 8.064696e+000 2.660103e+000 3.923129e+000 1.796528e+000 2.136535e+000 7.330739e+000 3.178899e+000 2.274631e+000 3.752757e+000 1.929951e+000 1.753671e+000 3.508497e+000 6.384221e+000 1.089571e+000 3.886629e-001 5.355632e-001 3.868321e-001 3.504618e-001 1.432422e+000 6.665446e-001 4.684030e-001 4.889420e-001 2.888679e-001 3.621919e-001 8.409753e-001 7.123851e-001
<GCONST> 1.215436e+002
~s "ST_s_4_1"
<MEAN> 39
 -5.725221e+000 6.344269e+000 -1.642965e+000 4.226133e+000 1.544382e+000 -4.469431e+000 -2.651869e+000 3.657884e+000 1.954369e+000 -1.656340e+000 5.611069e-001 -2.258127e+000 6.609285e+001 -1.473195e+000 4.258732e-001 8.873369e-001 3.618194e-001 9.171499e-001 1.760825e+000 9.604146e-001 -1.901240e-001 4.665366e-001 6.544819e-001 1.336513e-002 1.471626e-001 -1.150344e+000 -1.017733e-001 -2.311216e-001 -1.380489e-001 -3.847262e-002 -1.054850e-001 2.563456e-002 2.849529e-001 1.830439e-001 1.219895e-002 8.040355e-002 2.415158e-001 2.543803e-001 -1.273248e-003
<VARIANCE> 39
 1.643782e+001 3.085629e+001 2.056320e+001 2.926081e+001 5.470535e+001 4.228889e+001 1.317137e+001 3.451036e+001 2.320700e+001 3.017761e+001 1.103080e+001 1.344779e+001 1.357756e+001 7.547594e-001 1.198450e+000 2.033306e+000 1.275266e+000 1.043027e+000 1.776194e+000 1.278039e+000 9.933347e-001 8.425922e-001 1.284587e+000 1.215008e+000 2.207078e+000 3.823523e-001 1.668730e-001 1.780618e-001 3.999250e-001 1.573224e-001 1.893051e-001 1.978267e-001 1.216383e-001 1.132366e-001 1.484425e-001 1.760843e-001 1.481360e-001 2.186332e-001 8.904523e-002
<GCONST> 9.079829e+001
~s "ST_uh_2_1"
<MEAN> 39
 -6.893203e+000 -9.115247e-001 -6.384124e+000 2.092499e+000 7.690195e-001 -5.784087e+000 4.018930e+000 2.975703e+000 2.481079e-001 -1.271773e+000 5.622343e+000 4.515085e+000 6.962982e+001 2.940973e+000 -1.245447e+000 -1.536047e+000 7.317344e-001 -3.107293e-001 -2.501060e+000 -4.882561e-001 -7.964482e-001 -2.069202e+000 -2.680542e+000 -7.270430e-001 -5.987496e-001 2.640322e+000 -3.990544e-002 3.748129e-001 3.657221e-001 1.295979e-001 4.841805e-003 5.722106e-002 -3.132167e-001 3.120783e-002 -6.306730e-002 -1.221466e-001 -2.746116e-001 -4.675137e-001 -1.765372e-001
<VARIANCE> 39
 7.009062e+001 2.680809e+001 3.962469e+001 3.383917e+001 4.707007e+001 5.692222e+001 4.261111e+001 4.706421e+001 5.259222e+001 5.344003e+001 2.235374e+001 1.091986e+001 5.703640e+001 3.829201e+000 2.426095e+000 2.771767e+000 2.451925e+000 2.889355e+000 3.937158e+000 3.209507e+000 5.652515e+000 6.665236e+000 5.346527e+000 1.772789e+000 1.958778e+000 2.378229e+000 1.358686e+000 7.552041e-001 5.686283e-001 5.828466e-001 4.100279e-001 1.343736e+000 6.310888e-001 9.857582e-001 1.214792e+000 1.444455e+000 5.976771e-001 2.532415e-001 7.627595e-001
<GCONST> 1.308098e+002
~s "ST_uh_3_1"
<MEAN> 39
 8.318927e-001 -6.102085e-001 -8.940576e+000 3.496535e+000 2.187179e+000 -9.357180e+000 2.801147e-001 2.042035e+000 -4.823058e+000 -8.247524e+000 1.396254e+000 1.734314e+000 7.434917e+001 1.211527e+000 2.750019e-001 -8.639555e-002 7.003486e-001 -3.368323e-001 -4.525355e-001 -8.925330e-001 1.567415e-001 2.054247e-001 -8.378719e-002 -1.237125e+000 -1.691165e+000 3.251792e-001 -8.934391e-001 2.558498e-001 6.138959e-001 -5.644859e-002 -2.725226e-003 4.306430e-001 -2.405863e-002 1.062443e-001 8.035531e-001 1.021597e+000 1.609605e-001 -2.407759e-001 -6.929650e-001
<VARIANCE> 39
 1.167213e+001 2.379422e+001 3.148948e+001 4.665269e+001 8.885689e+001 3.199954e+001 5.742641e+001 7.315569e+001 3.547878e+001 2.659016e+001 2.345298e+001 1.821180e+001 1.383501e+001 2.043347e+000 5.082583e+000 4.248713e+000 2.336200e+000 1.994573e+000 6.874017e+000 2.708091e+000 2.800127e+000 3.612290e+000 5.509115e+000 4.920424e+000 3.766277e+000 1.411509e+000 6.695945e-001 2.435091e-001 5.451103e-001 3.368206e-001 6.285191e-001 1.165267e+000 3.823138e-001 1.014163e+000 7.403448e-001 7.353209e-001 4.826817e-001 4.355195e-001 2.946902e-001
<GCONST> 1.238033e+002
~s "ST_uh_4_1"
<MEAN> 39
 2.753923e+000 -2.465679e+000 -1.142686e+001 1.993462e+000 -1.284235e+000 -1.217725e+001 9.823976e-001 2.830554e+000 -4.131183e+000 -6.066539e+000 2.049455e+000 7.959720e-001 7.633523e+001 1.709225e-002 5.905122e-001 1.894612e-001 2.300207e-001 -2.288498e-001 -4.044607e-001 -3.973570e-001 1.508408e-001 1.188824e-001 -2.089927e-002 -3.063733e-001 -3.759614e-001 -3.867323e-001 -6.454300e-001 4.933018e-001 5.972272e-001 -1.036821e-001 1.208256e-001 4.466423e-001 2.172918e-002 -1.354472e-001 6.420321e-002 2.901196e-001 1.685889e-002 5.264556e-002 -5.396715e-001
<VARIANCE> 39
 9.557336e+000 2.099334e+001 3.672423e+001 4.003447e+001 7.674268e+001 1.982020e+001 5.558274e+001 7.063786e+001 6.725433e+001 3.135232e+001 1.938558e+001 1.986242e+001 1.184963e+001 7.137730e-001 1.697351e+000 1.614676e+000 5.713446e-001 1.405029e+000 1.428845e+000 9.984975e-001 1.856851e+000 1.843264e+000 1.873220e+000 1.992819e+000 1.305510e+000 5.511053e-001 3.145030e-001 3.548041e-001 3.916167e-001 1.629447e-001 2.582940e-001 4.155777e-001 2.708355e-001 4.467629e-001 4.280398e-001 4.779693e-001 2.040059e-001 3.117365e-001 2.008846e-001
<GCONST> 1.037435e+002
~s "ST_l_2_1"
<MEAN> 39
 -1.484372e+001 3.341903e+000 -9.870874e-001 4.345877e+000 2.640616e+000 1.213417e+000 5.902954e+000 5.440696e+000 4.753028e+000 2.912770e+000 4.371542e+000 3.391240e+000 6.159287e+001 4.687223e-001 -1.200954e-001 1.805544e-001 1.924708e-001 7.760220e-002 -3.004065e-001 -4.499541e-001 -5.483650e-001 -6.513838e-001 -7.249173e-001 -1.381098e-001 -1.677786e-001 5.168117e-001 1.948438e-001 9.178443e-002 6.215265e-002 1.149861e-001 1.559156e-001 -6.010644e-002 -2.670344e-001 -1.739075e-002 -1.402009e-001 -2.005206e-001 -1.621523e-001 -1.923452e-001 1.044924e-001
<VARIANCE> 39
 6.246034e+001 1.606556e+001 2.203866e+001 1.443479e+001 2.501922e+001 9.132021e+001 2.938029e+001 2.484736e+001 2.459036e+001 3.429491e+001 1.437986e+001 2.337085e+001 3.929188e+001 3.478335e+000 2.361573e+000 1.714210e+000 1.046512e+000 1.441980e+000 4.764834e+000 3.128592e+000 2.027137e+000 3.477756e+000 4.919259e+000 2.858007e+000 3.296214e+000 2.908756e+000 3.360311e-001 3.584860e-001 2.632122e-001 2.193805e-001 2.204739e-001 6.775230e-001 5.985070e-001 4.063516e-001 3.917013e-001 6.976010e-001 2.657700e-001 4.075878e-001 3.045841e-001
<GCONST> 1.145265e+002
~s "ST_l_3_1"
<MEAN> 39
 -1.919982e+000 1.751622e+000 -3.052015e+000 9.753578e+000 7.470061e+000 -7.658064e+000 -5.190125e+000 5.146056e+000 -1.943884e+000 -9.144008e+000 -1.226659e+000 -3.787421e+000 7.094643e+001 -3.065559e-001 4.686234e-001 6.101063e-001 8.998349e-001 1.028118e+000 5.008898e-001 -1.007299e+000 -4.329333e-001 3.788699e-001 2.506620e-001 -3.132627e-001 -4.847713e-001 -4.584477e-001 -4.944040e-001 1.220775e-001 2.208295e-001 -1.693371e-001 -2.145874e-001 2.842071e-001 4.262383e-001 -1.389197e-001 3.132409e-001 5.637097e-001 2.060837e-001 2.474264e-001 -3.434815e-001
<VARIANCE> 39
 1.654370e+001 1.128082e+001 1.667740e+001 4.083301e+001 6.138902e+001 2.965314e+001 2.304598e+001 4.306296e+001 7.785985e+001 7.670490e+001 4.281273e+001 5.645194e+001 1.116911e+001 2.963145e+000 1.757081e+000 1.835311e+000 2.635724e+000 2.665440e+000 3.140432e+000 3.192059e+000 2.376185e+000 2.508012e+000 6.542692e+000 2.982982e+000 2.523153e+000 1.698088e+000 2.001426e-001 3.528845e-001 2.636172e-001 3.765540e-001 4.688373e-001 4.083978e-001 3.377255e-001 3.946014e-001 4.338075e-001 6.245550e-001 5.683436e-001 4.623035e-001 1.598888e-001
<GCONST> 1.163536e+002
~s "ST_l_4_1"
<MEAN> 39
 -7.468273e+000 9.210445e-001 2.073340e+000 1.218994e+001 7.751481e+000 -4.287562e+000 -4.952401e+000 6.150240e-001 -1.601798e+000 -6.344009e+000 2.922117e-001 -1.332311e+000 6.839639e+001 -5.186531e-001 4.611890e-001 3.091728e-001 -3.797994e-001 -4.310872e-001 6.152439e-001 7.383065e-001 2.376934e-001 3.122687e-001 3.613713e-001 -1.395162e-001 2.579935e-003 -5.429126e-001 2.650173e-002 -1.551235e-001 -1.766561e-001 -4.180267e-002 4.098718e-002 -1.382882e-002 1.027194e-001 1.288940e-001 -1.983463e-002 -4.636865e-002 9.391512e-002 7.939844e-002 6.683648e-002
<VARIANCE> 39
 4.397852e+001 7.110415e+001 5.786579e+001 4.507880e+001 5.730337e+001 5.715741e+001 5.782936e+001 4.788189e+001 5.705776e+001 5.894449e+001 2.660886e+001 1.418030e+001 3.060385e+001 3.823987e+000 6.305525e+000 4.253921e+000 2.005750e+000 2.450362e+000 3.542824e+000 4.103794e+000 3.638047e+000 3.619581e+000 4.355287e+000 2.272569e+000 1.389531e+000 2.337548e+000 4.061695e-001 1.244502e+000 5.444551e-001 3.465356e-001 4.029693e-001 5.294081e-001 7.462276e-001 7.362339e-001 6.265822e-001 7.105183e-001 4.323140e-001 2.463443e-001 2.839879e-001
<GCONST> 1.272332e+002
~s "ST_b_2_1"
<MEAN> 39
 -2.312451e+001 -6.117205e+000 1.161652e+001 -2.624201e+000 1.497140e+000 -9.235241e-001 1.301939e+001 -1.528402e+000 -4.955277e-001 9.212123e+000 9.094973e+000 -7.482689e-001 6.930916e+001 1.381577e+000 4.459519e-001 -5.222790e-001 2.182510e-001 6.753964e-002 -7.931565e-001 -6.087111e-001 -3.464363e-001 -1.258538e+000 -7.221025e-001 -6.290208e-001 1.063402e-001 5.603125e-001 4.880265e-001 4.555764e-001 -4.768370e-001 3.600786e-001 2.403210e-001 7.023553e-002 -5.402034e-001 1.323355e-001 2.231891e-002 -2.699274e-001 -3.515486e-001 8.213838e-002 -2.721083e-001
<VARIANCE> 39
 7.899895e+001 1.716745e+001 5.825776e+001 3.013119e+001 2.179645e+001 2.045984e+001 4.985390e+001 2.206528e+001 4.535275e+001 7.265636e+001 2.628143e+001 8.925206e+000 1.145042e+001 1.030945e+001 3.494276e+000 5.557682e+000 4.852783e+000 2.619234e+000 1.200724e+000 6.591525e+000 2.468625e+000 2.698019e+000 5.956079e+000 4.077609e+000 8.219009e-001 8.590453e-001 8.987157e-001 3.893894e-001 4.135860e-001 5.808247e-001 8.340914e-001 5.225726e-001 4.735358e-001 5.670275e-001 6.928419e-001 1.208438e+000 4.910173e-001 1.737479e-001 2.373031e-001
<GCONST> 1.214091e+002
~s "ST_b_3_1"
<MEAN> 39
 -1.116320e+000 2.683054e+000 -4.145136e+000 5.357576e+000 4.682188e+000 -9.683470e+000 -2.645569e+000 9.354865e-001 -7.902143e+000 -4.308715e+000 1.680178e+000 1.099216e+000 7.228068e+001 1.705401e+000 1.190189e+000 -1.710748e+000 1.136316e+000 2.734687e+000 1.857995e-001 -3.453920e+000 2.316655e-001 2.141347e+000 -1.425522e+000 -2.637523e+000 -1.023625e+000 4.427885e-002 -1.597311e+000 -2.068583e-001 1.092778e+000 -4.081667e-001 1.617780e-001 1.308253e+000 8.314819e-001 -3.802679e-001 1.270134e+000 1.297518e+000 -1.565145e-001 -6.304739e-001 -5.646103e-001
<VARIANCE> 39
 8.471309e+000 8.842617e+000 4.414078e+001 5.295060e+001 5.158589e+000 7.848468e+000 3.154429e+001 2.008372e+001 5.810843e+001 1.627407e+001 2.371287e+001 6.139403e+000 9.894254e+000 4.221333e+000 9.806162e-001 2.212949e+000 9.584742e-001 1.613251e+000 3.854069e+000 5.731640e+000 1.532962e+000 6.402764e+000 2.916802e+000 2.034384e+000 2.437892e+000 3.480351e-001 3.283641e-001 4.778664e-001 1.756429e-001 3.982680e-001 2.659146e-001 1.800998e-001 6.079611e-001 3.991183e-001 1.334735e+000 2.700967e-001 8.219702e-001 2.615725e-001 7.993603e-002
<GCONST> 1.036224e+002
~s "ST_b_4_1"
<MEAN> 39
 -1.799977e+000 2.711151e+000 -2.434150e+000 1.017003e+001 1.524822e+001 -4.068961e+000 -1.093481e+001 -5.274965e+000 3.679984e+000 -3.737753e+000 -5.300687e+000 -6.794281e+000 7.148835e+001 -2.206787e-001 -3.619925e-001 5.943688e-001 9.428667e-001 7.494203e-001 2.269989e-001 -5.117757e-001 -4.788702e-001 8.560085e-001 -2.480127e-001 -5.675631e-001 -2.123185e-001 8.595970e-002 -1.500270e-001 4.968992e-003 1.469677e-001 -1.975639e-001 -3.438546e-001 9.787943e-002 4.359092e-001 -1.132877e-001 -3.386509e-001 1.816685e-001 2.080952e-001 1.682560e-001 -6.810219e-002
<VARIANCE> 39
 4.328993e+000 4.485537e+001 2.204416e+001 5.820761e+001 2.632851e+001 2.174373e+001 4.861966e+001 2.886486e+001 1.759836e+001 4.948868e+001 1.979531e+001 1.754390e+001 1.671555e+001 4.507007e-001 5.483295e+000 8.899059e-001 3.505406e+000 3.456516e+000 4.171984e+000 4.569479e+000 1.169256e+000 2.459417e+000 6.836798e+000 4.364371e+000 3.473718e+000 1.978675e+000 1.887953e-001 1.093307e+000 3.405397e-001 9.107656e-001 8.245881e-001 8.844435e-001 1.408810e+000 2.571305e-001 8.057139e-001 1.416036e+000 7.394399e-001 2.968840e-001 4.118951e-001
<GCONST> 1.193948e+002
~s "ST_hh_2_1"
<MEAN> 39
 2.669264e+000 -1.103440e+000 -1.273980e+001 -2.539285e+000 -4.873054e+000 -1.024509e+001 3.777908e+000 1.034913e+001 -1.918993e-001 -2.167671e+000 1.740342e+000 -1.659581e+000 7.402634e+001 -6.943274e-001 7.591920e-001 7.675652e-001 9.384636e-001 1.316863e+000 6.508433e-001 -1.369366e+000 -5.543767e-001 1.487142e+000 1.157615e+000 -1.708084e+000 -1.381772e+000 -1.030965e+000 -3.198558e-001 7.915448e-002 3.601153e-001 4.710991e-001 4.550470e-001 5.518788e-001 1.519702e-001 -3.469549e-002 -2.102152e-001 -3.737723e-001 -4.623333e-003 -2.459840e-001 -1.781789e-001
<VARIANCE> 39
 1.698208e+000 4.926561e+000 8.221364e+000 2.432134e+001 3.971270e+001 1.408315e+001 2.474538e+001 1.069272e+001 1.103115e+001 5.592188e+000 1.754898e+001 9.943357e+000 2.937030e+000 2.776904e-001 3.219124e-001 2.847365e-001 1.118438e+000 4.340581e+000 8.053612e-001 1.863759e+000 9.476206e-001 2.357990e-001 1.290692e+000 6.261746e-001 7.170715e-001 3.330785e-002 1.802689e-002 1.421459e-001 1.665997e-001 7.913575e-002 2.105724e-001 1.074577e-001 4.143245e-001 1.521804e-001 7.714647e-002 1.790448e-001 1.876816e-001 1.240399e-001 4.330098e-002
<GCONST> 6.620502e+001
~s "ST_ow_2_1"
<MEAN> 39
 3.477346e-001 1.639138e+000 -5.019311e+000 4.110647e+000 2.047350e+000 -1.070201e+001 -1.932341e+000 9.817315e-001 -3.831393e+000 -1.020112e+001 1.141469e+000 2.641919e+000 7.504896e+001 1.787003e+000 -1.620996e+000 -2.848285e+000 -2.447630e+000 -2.969188e+000 -3.967127e+000 2.524436e+000 2.951356e+000 -1.166323e+000 -1.996817e+000 3.180661e+000 3.351824e+000 2.220235e+000 -1.180064e-001 4.458571e-001 1.410755e-001 1.041743e-001 -2.548807e-001 -2.349896e-002 -4.975852e-002 8.221236e-001 5.487686e-001 6.559960e-001 -2.925201e-001 -8.417943e-001 -4.708132e-001
<VARIANCE> 39
 9.311682e+000 1.971111e+001 4.871704e+001 1.835941e+001 4.859168e+001 4.066416e+001 2.993541e+001 4.013278e+001 3.701471e+001 1.699772e+001 3.696161e+001 3.101651e+001 9.413051e+000 3.456293e-001 1.099968e+000 5.587898e-001 2.261688e-001 4.629247e-001 1.267499e+000 3.440899e-001 5.908133e+000 5.157106e+000 3.144003e+000 2.842466e+000 2.695195e+000 8.173604e-001 1.810099e-001 1.171334e-001 4.933093e-001 1.217652e-001 2.455579e-001 8.626469e-001 4.388320e-001 6.965573e-001 8.201841e-001 6.190637e-001 7.300728e-001 9.027331e-001 2.343871e-001
<GCONST> 1.039092e+002
~s "ST_hh_3_1"
<MEAN> 39
 3.696625e-002 -1.356956e+000 -9.742669e+000 5.079652e+000 2.429698e+000 -8.590966e+000 1.462983e+000 1.249633e+001 2.848176e+000 -3.431992e+000 -2.670521e+000 -9.137308e+000 7.194571e+001 -8.699895e-001 7.592670e-001 1.124056e+000 9.795210e-001 4.805745e-001 1.458614e+000 2.582086e-001 -5.725456e-001 3.062904e-001 2.212812e-001 -1.693228e-001 -1.256521e+000 -9.268386e-001 -1.269878e-001 2.610647e-001 2.413425e-001 -1.034052e-001 -1.387617e-001 2.938375e-001 1.130356e-001 -2.998481e-001 -2.380303e-001 -6.102041e-002 2.790124e-001 2.180012e-001 -1.285216e-001
<VARIANCE> 39
 2.056750e+000 5.334008e+000 7.756251e+000 8.275922e+001 5.110874e+000 6.054234e+000 4.464046e+000 2.192764e+001 3.948266e+000 1.659973e+001 2.598033e+000 2.687901e+001 1.681503e+000 1.939224e-001 1.710209e+000 1.245573e+000 9.868304e-001 2.836398e+000 1.011904e+000 5.215585e-001 1.209233e+000 1.655761e-001 5.589337e-001 1.744475e+000 1.641292e+000 6.712722e-001 9.397053e-002 9.602962e-002 1.945422e-001 2.643141e-001 5.047504e-001 3.057978e-001 1.081321e-001 9.283377e-002 5.761668e-002 1.397313e-001 1.978411e-001 2.148972e-001 8.816475e-002
<GCONST> 7.091676e+001
~s "ST_ow_3_1"
<MEAN> 39
 3.925166e+000 7.355053e-001 -1.158115e+001 -1.327499e+000 -4.544048e+000 -1.868130e+001 2.630511e+000 1.166262e+001 -1.350401e+000 -1.194344e+001 4.308512e+000 3.584706e+000 7.797892e+001 7.582093e-001 1.380265e-001 -7.882435e-001 -1.093215e+000 -2.133323e+000 -1.697356e+000 1.240843e-001 2.697963e+000 1.322392e+000 1.164038e+000 2.671414e-001 -1.127532e+000 2.502477e-001 -3.957400e-001 3.123342e-001 7.504761e-001 5.851571e-001 5.005006e-001 7.265576e-001 -9.935117e-001 -5.887282e-001 1.717305e-001 9.551345e-001 -5.680001e-001 -7.385746e-001 -4.811533e-001
<VARIANCE> 39
 1.173594e+000 1.384188e+001 4.303052e+000 2.345515e+001 3.456515e+001 1.158421e+001 9.397410e+000 6.455938e+000 3.544688e+001 1.373125e+001 2.606310e+001 2.507074e+001 1.053429e+000 3.308318e-001 2.122118e-001 1.454579e+000 4.773502e-001 1.151006e+000 1.002703e+000 3.930137e+000 1.245402e+000 1.267311e+000 2.542128e+000 1.081069e+000 3.915764e+000 1.796804e-001 4.907595e-002 1.461177e-001 1.351973e-001 3.517810e-002 4.182698e-002 5.321810e-001 1.418262e-001 3.935675e-001 5.348806e-001 2.988357e-001 2.907193e-001 8.154705e-001 5.979270e-002
<GCONST> 7.843940e+001
~s "ST_hh_4_1"
<MEAN> 39
 -3.665075e+000 2.756298e+000 -6.855370e+000 3.854995e+000 2.596963e+000 -9.793173e-001 3.170021e+000 7.300794e+000 2.460454e+000 -1.477171e+000 -2.686601e+000 -7.818654e+000 6.786883e+001 -1.514410e+000 1.460837e+000 1.914235e+000 7.618692e-001 8.737853e-001 1.918809e+000 1.766068e-001 -9.558925e-001 -2.270201e-001 1.976938e-001 -2.648189e-001 -5.730528e-001 -1.511117e+000 -2.146713e-001 -1.578430e-002 1.507598e-001 -2.677900e-002 3.750819e-002 5.260252e-003 1.486830e-001 7.954846e-002 -8.459697e-002 -5.232625e-002 1.109233e-001 2.782573e-001 -6.288240e-002
<VARIANCE> 39
 4.815452e+000 1.162770e+001 9.212104e+000 2.970181e+001 9.524185e+000 1.761928e+001 8.364159e+000 1.379936e+001 7.366200e+000 7.969233e+000 4.983548e+000 9.797026e+000 2.341767e+000 4.172577e-001 1.247393e+000 1.773220e+000 1.605205e+000 1.020011e+000 3.549976e+000 3.716659e-001 1.094640e+000 6.773460e-001 5.326569e-001 1.015529e+000 2.497052e+000 6.605721e-001 7.388254e-002 1.601116e-001 8.579646e-002 1.197012e-001 3.914076e-001 4.823610e-001 1.034320e-001 1.333321e-001 1.563214e-001 2.824008e-001 2.993312e-001 9.688260e-002 6.938569e-002
<GCONST> 7.597873e+001
~s "ST_ow_4_1"
<MEAN> 39
 4.022863e+000 1.130068e+000 -7.082503e+000 1.880588e+000 -1.171216e+001 -2.573239e+001 -4.077827e+000 1.846104e+001 1.495980e+000 -5.358545e+000 4.002462e+000 -3.773087e-001 7.569811e+001 -1.651255e-001 3.129139e-001 4.265911e-001 2.339964e-001 -3.651575e-001 -3.090146e-001 -4.051879e-001 3.328680e-002 2.893920e-001 3.255018e-001 -3.346091e-001 -4.237264e-002 -4.481411e-001 -1.089198e-001 1.212826e-001 8.372130e-002 -1.705018e-002 1.170612e-001 2.448089e-001 8.741561e-002 -2.833385e-001 -7.119064e-002 -8.506639e-002 -1.665095e-002 4.733351e-002 -8.567914e-002
<VARIANCE> 39
 2.263498e+000 6.521127e+000 1.958700e+001 2.802076e+001 1.957151e+001 2.607787e+001 2.912226e+001 1.353188e+001 2.144601e+001 1.509115e+001 1.656026e+001 7.410333e+000 3.571667e+000 1.161736e-001 5.341894e-001 4.891591e-001 4.571276e-001 7.189232e-001 1.233603e+000 1.286157e+000 1.192995e+000 3.974890e-001 1.826786e+000 6.556985e-001 7.295711e-001 1.443823e-001 1.361859e-002 3.900526e-002 8.081681e-002 6.671642e-002 3.616634e-002 8.389716e-002 1.891249e-001 9.353746e-002 6.838136e-002 2.013502e-001 1.283280e-001 1.945028e-001 1.033228e-002
<GCONST> 6.264502e+001
~s "ST_jh_2_1"
<MEAN> 39
 -2.530965e-001 1.279542e+000 -4.541365e+000 1.183832e+001 8.486449e+000 -6.452834e+000 -6.673347e+000 -2.530691e+000 -2.238070e+000 -1.893924e+000 -2.192071e+000 -5.580173e+000 7.152276e+001 2.163311e-001 -3.406347e-001 -2.771131e-001 -3.624998e-001 -1.014125e-001 -1.826500e-001 1.704617e-001 2.415220e-001 -4.310158e-001 -1.890538e-001 2.498887e-002 -4.290413e-003 3.238910e-001 1.858404e-003 -7.319194e-003 -1.943078e-001 -4.479835e-001 -2.161724e-001 -3.461027e-002 4.171019e-001 2.665056e-001 -2.963802e-001 -2.058126e-001 2.247925e-001 2.545833e-001 8.651762e-002
<VARIANCE> 39
 7.076837e-001 3.599914e+000 2.575327e+000 5.654031e+000 4.747387e+001 4.693707e+000 3.786457e+001 2.772661e+001 1.954653e+001 2.685991e+001 2.197042e+001 5.608702e+000 1.171196e+000 3.306879e-001 4.572636e-001 7.108966e-001 6.359016e-001 1.235238e+000 1.249781e+000 8.110957e-001 2.130218e+000 5.764354e-001 5.209792e-001 1.772870e+000 1.667794e-001 1.994158e-001 3.286400e-002 5.501487e-002 1.078222e-001 1.359095e-001 2.255356e-001 2.253552e-001 1.577819e-001 1.444539e-001 1.006280e-001 1.226602e-001 3.502927e-001 1.702443e-001 5.336468e-002
<GCONST> 6.570925e+001
~s "ST_jh_3_1"
<MEAN> 39
 1.765960e-001 -9.443578e-002 -7.246884e+000 4.441008e+000 5.728715e+000 -8.252795e+000 -6.938422e-001 5.414747e-001 -6.681653e+000 -3.857404e+000 3.923906e-001 -4.304863e+000 7.449767e+001 7.722181e-001 -1.105178e+000 -2.347922e+000 -3.590590e+000 -2.410335e+000 -2.149196e+000 3.134114e+000 3.335729e+000 -1.796170e+000 -2.868871e-001 2.953468e+000 2.295391e+000 1.715951e+000 6.911222e-002 -1.050475e-001 -2.414898e-001 -7.033186e-002 -1.560901e-001 3.591529e-002 4.646171e-002 3.391307e-001 5.386640e-001 -1.128424e-001 2.648047e-002 4.962247e-001 -9.036713e-003
<VARIANCE> 39
 7.212144e-001 1.480072e+001 4.736899e+000 3.057690e+001 6.406454e+001 1.686414e+001 4.434878e+001 4.065851e+001 1.540255e+001 2.871045e+001 6.820535e+001 1.291432e+001 7.915951e+000 3.821495e-001 1.034707e+000 2.972313e-001 2.051330e+000 2.495213e+000 4.371190e-001 1.843271e-001 4.087755e+000 2.629153e-001 8.063748e-001 3.250690e+000 7.156548e-001 9.154180e-002 7.349722e-002 1.322964e-001 2.154364e-001 4.905023e-001 4.765588e-001 7.360096e-001 3.197899e-001 5.956061e-001 2.160372e-001 1.540617e-001 9.616518e-001 1.927909e-001 1.357560e-001
<GCONST> 8.705660e+001
~s "ST_jh_4_1"
<MEAN> 39
 3.091024e+000 -4.627876e+000 -1.298297e+001 1.084508e+000 -5.955059e+000 -1.171830e+001 5.731218e+000 1.054681e+001 -9.822658e+000 -7.969182e+000 1.201151e+001 2.994264e+000 7.740953e+001 3.913071e-001 -3.278493e-001 -7.430396e-001 -8.624347e-001 -1.150357e+000 -1.813976e-002 1.361983e+000 1.148837e+000 4.454666e-001 -3.560651e-001 -1.925729e-001 4.782910e-001 9.635027e-002 -1.840933e-001 2.849568e-001 4.041604e-001 2.781902e-001 3.373648e-001 2.721615e-001 -3.688657e-001 -4.167105e-001 4.335750e-001 4.939932e-002 -6.007860e-001 -3.860184e-001 -2.759684e-001
<VARIANCE> 39
 1.042946e+000 7.158709e+000 4.295900e+000 2.746161e+001 3.695342e+001 1.569219e+001 1.854917e+001 8.309419e+000 1.012198e+001 1.329136e+001 2.491066e+001 5.069407e+000 1.135802e+000 1.786734e-001 5.666031e-001 1.026080e+000 1.131730e+000 1.139765e+000 9.046777e-001 8.688700e-001 1.722051e+000 7.322468e-001 9.365101e-001 2.888011e+000 1.798351e+000 3.634766e-001 3.543594e-002 7.032119e-002 4.975089e-002 2.244394e-001 2.038777e-001 3.098673e-001 1.270222e-001 3.641638e-001 3.293047e-001 1.981934e-001 6.115530e-001 1.310534e-001 5.649070e-002
<GCONST> 7.382549e+001
~s "ST_n_2_1"
<MEAN> 39
 -1.720045e+001 4.075584e+000 4.224078e+000 5.856734e+000 5.369162e+000 4.907948e+000 5.898021e+000 3.114233e+000 3.842154e+000 3.796092e+000 4.198648e+000 2.446046e+000 6.100715e+001 1.404555e+000 2.077007e-001 2.002027e-001 5.729436e-001 3.956360e-001 -7.293032e-001 -9.608040e-001 -1.019842e+000 -1.023101e+000 -1.199030e+000 -7.013599e-001 -7.903426e-001 1.150949e+000 3.393885e-001 -1.733528e-001 -1.328024e-001 8.955406e-002 1.155678e-001 -4.085565e-001 -3.332042e-001 -1.221253e-001 -2.250826e-001 -3.387339e-001 -1.455953e-001 -7.790585e-002 3.691492e-001
<VARIANCE> 39
 3.746117e+001 3.295363e+001 3.494737e+001 2.808561e+001 8.869768e+000 1.464636e+001 2.299243e+001 1.918745e+001 1.878430e+001 1.255963e+001 1.577391e+001 1.599180e+001 2.128813e+001 3.402761e+000 3.368319e+000 2.393904e+000 2.804247e+000 1.125566e+000 2.959283e+000 3.067133e+000 2.711667e+000 2.596721e+000 2.508604e+000 2.528072e+000 2.563218e+000 2.539039e+000 3.997803e-001 6.628156e-001 4.280616e-001 4.689790e-001 1.902148e-001 4.854121e-001 3.546811e-001 6.500642e-001 4.346826e-001 4.243733e-001 4.421188e-001 4.276584e-001 3.494118e-001
<GCONST> 1.118414e+002
~s "ST_n_3_1"
<MEAN> 39
 -3.011297e+000 1.581669e+000 -5.206923e-001 1.196348e+001 1.056954e+001 -6.086375e+000 -6.716260e+000 -9.598912e-001 -2.721637e+000 -7.987848e+000 -2.042788e+000 -4.356827e+000 7.185239e+001 9.785821e-001 -3.096491e-001 -8.702999e-001 -4.889731e-001 -2.835023e-001 -6.967022e-001 -4.982074e-001 1.752009e-001 -2.093621e-001 -5.449911e-001 -3.550904e-001 -2.069324e-001 7.807546e-001 -1.720477e-001 -4.851632e-002 -1.272773e-001 -2.608614e-001 -2.830201e-001 3.270996e-002 3.303939e-001 2.732472e-001 1.932343e-001 2.326295e-001 3.206891e-001 3.182715e-001 -1.395191e-001
<VARIANCE> 39
 1.582363e+001 2.786172e+001 2.528732e+001 5.224295e+001 2.904641e+001 5.206630e+001 4.622319e+001 4.523628e+001 4.797504e+001 5.502885e+001 2.692245e+001 4.782859e+001 1.919739e+001 1.703542e+000 3.000692e+000 1.709088e+000 3.594636e+000 2.663642e+000 6.445785e+000 4.315158e+000 4.658440e+000 4.236176e+000 5.647588e+000 2.224197e+000 2.833139e+000 2.450182e+000 2.005784e-001 4.890299e-001 3.184504e-001 4.603076e-001 4.157370e-001 1.031525e+000 6.137500e-001 1.033753e+000 7.990870e-001 8.599245e-001 4.944250e-001 6.401598e-001 2.809636e-001
<GCONST> 1.247768e+002
~s "ST_n_4_1"
<MEAN> 39
 1.908500e-001 -8.413121e-001 -1.053509e+001 -4.033509e-002 -2.093501e+000 -9.270511e+000 2.047186e+000 8.701043e+000 -1.733187e+000 -4.263037e+000 4.267558e+000 1.977258e+000 7.343664e+001 -4.164888e-001 -2.132582e-001 -8.422802e-002 -3.002121e-001 -6.331197e-001 -3.606603e-003 1.047006e+000 7.872404e-001 4.651630e-001 6.293157e-001 5.216603e-001 4.878085e-001 -2.852901e-001 -2.134222e-001 1.378371e-001 2.206410e-001 1.877187e-001 1.905345e-001 2.759534e-001 -8.309957e-003 -1.193364e-001 5.686252e-002 6.922973e-002 -1.474654e-001 -1.444153e-001 -2.356545e-001
<VARIANCE> 39
 3.235941e+001 4.156295e+001 4.034568e+001 3.029754e+001 4.126593e+001 6.634037e+001 3.638636e+001 6.048438e+001 3.951525e+001 3.188908e+001 3.820556e+001 1.746960e+001 3.824218e+001 1.864890e+000 2.019521e+000 2.666724e+000 1.823400e+000 2.537470e+000 4.793855e+000 1.512926e+000 4.514377e+000 2.001603e+000 2.141449e+000 3.072808e+000 3.101993e+000 1.828073e+000 8.888339e-002 2.508484e-001 2.381092e-001 2.493914e-001 3.048564e-001 3.280537e-001 2.927533e-001 4.579955e-001 2.752383e-001 2.949101e-001 4.808488e-001 4.802766e-001 1.136552e-001
<GCONST> 1.134381e+002
~s "ST_d_2_1"
<MEAN> 39
 -4.266254e+000 5.044678e+000 -6.431551e+000 -1.076731e+000 -3.043446e+000 -6.860047e+000 3.914131e+000 3.319010e+000 1.795726e+000 -2.450053e+000 -6.087343e-001 1.259730e+000 6.853632e+001 -3.612571e+000 2.412429e+000 2.692352e+000 -4.540008e-001 5.413724e-001 3.015081e+000 9.973627e-002 3.178386e-001 1.303427e+000 1.583291e+000 4.898666e-001 1.942716e-001 -3.499046e+000 -4.848441e-002 -5.959214e-001 -2.949955e-001 1.012081e-002 -1.407277e-001 8.949669e-002 1.172767e-001 3.510635e-001 3.950493e-001 5.195214e-001 4.671518e-001 2.976326e-001 5.614442e-002
<VARIANCE> 39
 4.464743e+001 2.311752e+001 2.697577e+001 1.927162e+001 3.108447e+001 5.647057e+001 8.949026e+000 1.757387e+001 3.732620e+001 2.385243e+001 1.764113e+001 4.094127e+001 3.353500e+001 1.673129e+000 1.552348e+000 5.500208e-001 1.421963e+000 1.457876e+000 7.772662e-001 9.131795e-001 1.773792e+000 3.169718e+000 2.982687e+000 2.100326e+000 1.450510e+000 1.114422e+000 7.401350e-001 3.559372e-001 2.899475e-001 2.629072e-001 1.765850e-001 5.772007e-001 1.737725e-001 2.029063e-001 4.980386e-001 4.564617e-001 2.133176e-001 1.420079e-001 5.298930e-001
<GCONST> 1.039202e+002
~s "ST_d_3_1"
<MEAN> 39
 -1.264723e+001 7.984739e+000 6.126376e-001 2.892909e+000 2.018678e+000 3.732304e+000 4.220325e+000 4.592501e+000 4.739674e+000 2.002322e+000 1.085286e+000 -1.237785e+000 6.061366e+001 -1.376000e+000 -3.801937e-001 4.819050e-001 7.153087e-001 6.612284e-001 8.981851e-001 2.362605e-001 1.708094e-001 4.339895e-001 7.447539e-001 9.139863e-001 8.881937e-001 -8.999293e-001 2.637049e-001 -2.767687e-001 -3.089899e-001 -4.278186e-002 -2.796659e-002 -3.545866e-001 5.962208e-002 2.470396e-002 -9.875701e-002 -1.154335e-001 -2.909551e-002 1.164580e-001 3.130766e-001
<VARIANCE> 39
 1.029587e+001 8.421568e+000 1.459510e+001 2.913304e+001 3.312914e+001 1.545277e+001 3.410450e+000 5.280131e+000 1.406864e+001 1.826013e+001 2.976919e+001 5.623621e+001 3.846069e+000 5.764019e-001 3.665266e-001 7.580588e-001 8.585552e-001 7.492108e-001 7.935817e-001 4.606332e-001 6.180750e-001 6.858203e-001 1.426136e+000 9.432538e-001 1.120990e+000 2.974510e-001 1.750182e-001 1.015404e-001 1.410455e-001 1.794561e-001 2.191440e-001 1.853503e-001 6.133832e-002 1.438412e-001 1.740788e-001 2.941164e-001 2.399114e-001 2.392200e-001 1.292987e-001
<GCONST> 7.718468e+001
~s "ST_d_4_1"
<MEAN> 39
 -1.941832e+001 4.252865e+000 6.197490e-001 5.936576e+000 4.443775e+000 5.791821e+000 6.128631e+000 5.518059e+000 7.060736e+000 5.673917e+000 6.107794e+000 4.888061e+000 5.767656e+001 -1.791186e-001 -2.132456e-001 -3.595769e-002 4.526427e-002 2.359215e-002 4.584202e-003 2.105484e-002 -5.623183e-003 6.559765e-002 1.411678e-001 2.280815e-001 2.124145e-001 -5.216699e-002 1.403800e-001 -1.180405e-002 -3.249547e-002 1.456150e-003 -1.025048e-002 -1.149747e-001 -4.474666e-002 -4.548093e-002 -8.375371e-002 -1.136701e-001 -4.220053e-002 -7.165174e-002 1.247835e-001
<VARIANCE> 39
 2.932665e+000 8.862619e+000 1.360654e+001 4.889651e+000 9.700408e+000 5.797001e+000 5.989226e+000 1.166677e+001 8.096151e+000 5.503380e+000 7.412233e+000 8.466252e+000 4.485507e+000 4.864097e-001 1.420688e+000 2.189653e+000 5.071232e-001 1.080552e+000 5.301741e-001 5.651705e-001 1.322196e+000 1.165067e+000 7.589946e-001 7.685778e-001 1.211220e+000 7.993574e-001 1.211528e-001 3.249070e-001 4.573718e-001 8.187452e-002 1.959037e-001 1.754820e-001 1.247189e-001 3.287310e-001 2.629227e-001 2.040214e-001 1.754522e-001 2.024574e-001 2.524603e-001
<GCONST> 7.459007e+001
~s "ST_g_2_1"
<MEAN> 39
 2.719121e+000 -3.847675e-001 -5.704725e+000 2.796910e+000 -9.412656e+000 -2.158506e+001 -3.932932e+000 1.456232e+001 -2.101491e-001 -1.091795e+001 6.934305e-001 -2.935372e+000 7.628497e+001 1.293427e-001 -9.167977e-001 -9.438472e-001 -1.291312e-001 -4.092032e-001 -1.041076e-001 3.798466e-001 2.940629e-001 -3.068477e-002 3.052132e-001 4.796440e-001 8.029482e-001 2.257630e-001 -6.732057e-002 1.940316e-002 2.871463e-002 -1.956060e-003 1.007017e-001 1.738444e-001 8.041899e-002 -7.750812e-002 -3.991349e-002 7.972780e-002 7.524272e-002 2.660699e-002 -5.926555e-002
<VARIANCE> 39
 1.845130e+000 3.794371e+001 2.317946e+001 9.748515e+000 3.845359e+001 2.071824e+001 4.904750e+001 2.997070e+001 1.556715e+001 3.848804e+001 1.499295e+001 1.995856e+001 5.983385e+000 1.508645e-001 5.745345e-001 4.411420e-001 3.823070e-001 3.154449e-001 7.586562e-001 9.114131e-001 5.676794e-001 7.097287e-001 1.010072e+000 6.249985e-001 1.303969e+000 3.355399e-001 2.191961e-002 1.165138e-001 6.012844e-002 6.591272e-002 5.320456e-002 1.072259e-001 1.367254e-001 1.024522e-001 1.193130e-001 1.550340e-001 1.060641e-001 1.170172e-001 2.915517e-002
<GCONST> 6.841180e+001
~s "ST_g_3_1"
<MEAN> 39
 9.867812e-001 -3.887844e-002 -1.135220e+001 -6.264112e-002 -5.385442e+000 -1.391076e+001 -9.450696e-001 7.541277e+000 1.912389e+000 -4.097034e+000 2.498652e+000 3.478882e+000 7.292274e+001 -1.062201e+000 5.495483e-001 3.986944e-001 -5.067062e-001 3.327680e-001 1.467117e+000 8.239333e-001 -5.730866e-001 -1.111807e-001 1.287516e+000 6.007139e-001 2.269022e-001 -1.042337e+000 -3.663003e-001 2.089167e-001 2.696284e-001 -2.580287e-002 1.818216e-001 3.733390e-001 8.834612e-002 2.220015e-002 3.477003e-001 2.042281e-001 -6.946613e-002 -1.025983e-001 -2.773594e-001
<VARIANCE> 39
 5.707104e+000 2.245629e+001 8.861648e+000 1.023925e+001 5.263983e+001 2.064512e+001 4.592542e+001 4.765570e+001 5.206828e+000 3.436621e+001 1.772466e+001 1.595619e+001 8.089839e+000 4.285014e-001 9.671422e-001 6.544379e-001 7.004094e-001 5.406242e-001 8.393912e-001 4.283418e-001 6.757045e-001 6.287060e-001 8.804998e-001 4.381936e-001 1.005061e+000 3.193320e-001 7.442388e-002 1.658703e-001 1.665698e-001 2.460428e-001 2.490127e-001 1.665105e-001 1.747299e-001 1.302500e-001 1.524577e-001 1.354804e-001 1.265163e-001 3.871656e-001 5.088239e-002
<GCONST> 7.796987e+001
~s "ST_g_4_1"
<MEAN> 39
 -8.783569e+000 3.270256e+000 -5.973468e+000 -1.052064e+000 -4.186865e+000 -4.336559e+000 5.311757e+000 7.976961e+000 5.709944e+000 1.630993e+000 4.268973e+000 4.528801e+000 6.500601e+001 -2.553910e+000 1.136830e+000 1.392461e+000 -4.262204e-002 1.196369e+000 2.778817e+000 4.465334e-001 -3.111196e-001 1.359279e+000 1.735957e+000 4.794789e-001 8.627017e-001 -2.199168e+000 6.885795e-002 -2.509930e-001 -1.247224e-002 2.810311e-001 -2.757700e-002 -2.916373e-001 -2.473866e-001 2.174222e-001 -1.825133e-001 -1.915725e-001 8.160712e-002 1.453100e-002 8.112749e-002
<VARIANCE> 39
 2.770902e+001 1.036027e+001 1.469828e+001 1.547462e+001 3.020880e+001 3.829995e+001 1.269172e+001 3.614023e+001 1.527919e+001 2.885736e+001 1.508335e+001 2.488261e+001 1.531108e+001 1.384569e+000 1.064427e+000 1.974000e+000 2.724832e+000 2.758815e+000 1.498924e+000 3.370663e+000 2.098676e+000 1.151407e+000 2.356993e+000 1.486951e+000 8.673704e-001 5.014217e-001 2.340779e-001 1.838229e-001 3.096970e-001 3.351690e-001 2.184764e-001 3.711080e-001 3.283433e-001 1.652897e-001 2.022791e-001 4.106736e-001 2.920995e-001 2.197134e-001 1.071264e-001
<GCONST> 9.839462e+001
~s "ST_t_2_1"
<MEAN> 39
 -2.067393e+001 1.048255e+000 3.428460e+000 2.713570e+000 4.642475e+000 5.645669e+000 6.393180e+000 4.112580e+000 7.037263e+000 5.574782e+000 6.402082e+000 4.005201e+000 6.067664e+001 1.830147e-001 -2.358326e-001 3.974233e-001 -2.813386e-001 1.100577e-001 -2.713438e-001 -5.947164e-002 -4.826471e-001 -2.739889e-001 -2.722828e-001 -1.411244e-001 -4.117800e-001 8.152927e-001 3.213821e-001 4.880722e-002 -1.358610e-001 5.549768e-002 -7.077607e-003 -1.912972e-001 -7.756971e-002 -9.990484e-002 -1.826991e-001 -2.212738e-001 -1.346436e-001 -1.466698e-001 1.980278e-001
<VARIANCE> 39
 1.419045e+001 2.537375e+001 2.221262e+001 2.827254e+001 1.233098e+001 1.251062e+001 1.511006e+001 1.887026e+001 2.005523e+001 9.694978e+000 1.144991e+001 9.230700e+000 2.154426e+001 2.513754e+000 2.167593e+000 2.550819e+000 2.122176e+000 1.662510e+000 1.612877e+000 1.888816e+000 1.765392e+000 2.811760e+000 1.138195e+000 1.648645e+000 1.289765e+000 1.246990e+000 6.167704e-001 3.524471e-001 6.071718e-001 3.726897e-001 3.957788e-001 3.546179e-001 4.392801e-001 4.055113e-001 6.126397e-001 3.276928e-001 3.602211e-001 2.957396e-001 2.647312e-001
<GCONST> 1.035368e+002
~s "ST_t_3_1"
<MEAN> 39
 -1.491373e+001 3.483671e+000 3.728405e+000 3.137896e+000 6.261901e+000 2.687777e+000 4.185083e+000 -7.597888e-001 2.402864e+000 1.467691e+000 3.234677e+000 3.014458e-001 6.539664e+001 4.110044e+000 2.552094e-001 -2.613702e+000 6.793188e-001 1.068877e-002 -2.294436e+000 -1.610552e+000 -7.975001e-001 -1.476475e+000 -2.435186e+000 -1.707085e+000 -7.920241e-001 2.063478e+000 5.822321e-001 -3.155164e-001 -6.112937e-001 5.659634e-002 -1.983466e-001 -5.386887e-001 -1.368875e-001 6.534241e-001 1.242408e-002 -3.366267e-001 -2.151776e-001 5.879463e-002 2.374203e-001
<VARIANCE> 39
 3.688368e+001 4.902733e+001 4.279171e+001 6.878090e+001 2.243357e+001 3.956010e+001 3.150182e+001 2.098024e+001 9.795310e+000 1.124111e+001 2.397814e+001 1.005620e+001 3.459068e+001 3.371927e+000 3.269110e+000 4.759090e+000 2.009094e+000 3.354474e+000 4.302951e+000 3.376289e+000 3.534405e+000 4.947569e+000 3.014286e+000 3.123112e+000 3.040062e+000 2.637850e+000 5.854965e-001 4.636733e-001 6.626773e-001 3.756788e-001 5.174033e-001 6.373701e-001 5.507967e-001 4.863163e-001 5.028633e-001 4.238266e-001 5.000007e-001 1.790572e-001 3.288799e-001
<GCONST> 1.197146e+002
~s "ST_t_4_1"
<MEAN> 39
 -3.497379e+000 6.185549e+000 -1.544745e+000 7.607447e+000 5.716228e+000 -2.927383e+000 1.375809e-001 2.643489e+000 -2.163898e+000 -6.590362e+000 -4.228848e+000 -7.327731e+000 6.900032e+001 1.395000e+000 1.189504e-001 -3.127787e-001 -2.930275e-001 -7.724818e-001 -1.398480e+000 -3.330584e-001 7.929082e-001 -4.122598e-001 -1.076972e+000 -5.465072e-001 -4.834877e-001 8.365220e-001 -6.110188e-001 -3.894066e-002 2.860672e-001 -9.763418e-002 -1.632494e-001 2.521700e-001 1.883075e-001 1.052344e-001 4.372642e-001 5.940043e-001 4.476406e-001 3.543885e-001 -3.872690e-001
<VARIANCE> 39
 1.015593e+001 1.900796e+001 2.108768e+001 1.860487e+001 2.287098e+001 3.057081e+001 4.849412e+001 2.222214e+001 4.191314e+001 3.857486e+001 3.688678e+001 3.789523e+001 1.250967e+001 6.709958e+000 1.714779e+000 4.433527e+000 1.011034e+000 2.338541e+000 4.090525e+000 2.458667e+000 3.378416e+000 3.806895e+000 4.926849e+000 2.865554e+000 3.535517e+000 2.778834e+000 2.117300e-001 5.426443e-001 4.845040e-001 2.228401e-001 3.195240e-001 2.554232e-001 3.671518e-001 4.320647e-001 5.399542e-001 5.553960e-001 5.038900e-001 4.071856e-001 2.652303e-001
<GCONST> 1.153375e+002
~s "silst"
<MEAN> 39
 -1.969889e+001 3.989277e+000 6.945312e-001 5.073088e+000 4.432882e+000 5.907226e+000 6.324721e+000 6.767389e+000 7.061870e+000 5.665395e+000 6.300529e+000 5.570966e+000 5.693031e+001 6.812219e-002 -1.458007e-002 -2.175475e-001 -1.573332e-001 -4.854970e-002 1.671367e-001 1.519396e-001 -9.129686e-002 -7.147302e-002 -7.334454e-002 -6.978630e-002 -3.898208e-002 6.048954e-002 6.122261e-002 3.794443e-002 1.834412e-002 4.292662e-002 4.698712e-002 -2.689131e-002 1.259139e-002 -8.858893e-002 7.650666e-002 4.630874e-002 -7.048107e-002 -9.118915e-002 4.358026e-002
<VARIANCE> 39
 7.076837e-001 7.613273e-001 1.352315e+000 1.143718e+000 1.857055e+000 3.611529e+000 5.704086e+000 2.079349e+000 2.303095e+000 4.081437e+000 3.705128e+000 9.715309e+000 5.072046e-001 5.449748e-002 6.739555e-002 1.422243e-001 2.030484e-001 2.520352e-001 2.308791e-001 7.729542e-001 4.635873e-001 3.930773e-001 3.144166e-001 3.852563e-001 8.486571e-001 2.100037e-002 6.033122e-003 1.514651e-002 3.552106e-002 4.771081e-002 5.405570e-002 5.578425e-002 1.480311e-001 5.800816e-002 5.198304e-002 7.091036e-002 9.682909e-002 1.663534e-001 3.770242e-003
<GCONST> 1.936832e+001
~s "ST_iy_2_1"
<MEAN> 39
 -5.119431e+000 6.798694e+000 2.241909e+000 1.198355e+001 1.095583e+001 -2.563450e+000 -7.702366e+000 -2.694493e+000 -4.114993e-001 -3.747941e+000 -4.654400e+000 -8.389056e+000 6.793999e+001 -1.822122e-001 -4.854691e-001 1.521937e-001 3.731000e-001 5.272709e-001 -5.778370e-001 -5.747741e-002 -4.735247e-001 -1.021941e+000 -3.312947e-001 9.207891e-001 2.659450e-001 3.700837e-001 8.613986e-002 -1.391468e-001 -1.561322e-001 -7.194163e-003 -1.959232e-001 -3.063220e-001 3.289578e-002 3.863528e-002 -3.963677e-001 -1.852205e-001 4.041790e-001 2.572932e-001 1.427909e-001
<VARIANCE> 39
 3.852324e+000 5.603334e+001 1.941080e+001 4.394424e+001 2.397673e+001 3.665690e+001 3.348452e+001 1.358582e+001 1.914477e+001 1.211519e+001 2.457660e+001 2.151407e+001 2.125760e+001 1.780479e-001 3.240534e+000 6.995764e-001 3.008479e+000 1.243753e+000 5.110633e+000 1.729590e+000 1.962659e-001 1.628419e+000 1.628566e+000 1.837913e+000 1.256065e+000 1.381659e+000 3.222347e-002 6.649657e-001 1.033352e-001 5.923486e-001 2.819609e-001 9.240178e-001 4.643273e-001 6.511284e-002 3.044133e-001 1.222974e-001 3.494979e-001 2.209417e-001 2.534006e-001
<GCONST> 9.586665e+001
~s "ST_iy_3_1"
<MEAN> 39
 -1.823208e+000 -1.084667e+000 -3.010127e+000 1.214870e+001 9.909623e+000 -1.025225e+001 -6.436010e+000 -3.063187e+000 -8.749642e+000 -1.151201e+001 8.594957e-001 2.071877e-001 7.404190e+001 6.338066e-001 -1.916642e-001 -1.161955e+000 -1.012891e+000 -1.220438e+000 -6.341633e-001 4.387634e-001 8.986055e-001 -3.813778e-001 -5.780895e-001 2.176374e-001 9.711740e-001 3.075016e-001 1.608264e-002 -2.753215e-002 -3.085158e-002 -1.003366e-001 -1.152432e-001 -4.257916e-002 -1.221127e-001 1.784839e-001 4.837765e-001 1.674483e-001 1.080310e-001 8.677414e-002 -4.002645e-003
<VARIANCE> 39
 5.395785e+000 8.937441e+000 1.374410e+001 3.833923e+001 3.861433e+001 2.507607e+001 2.501160e+001 3.723927e+001 2.962285e+001 3.942187e+001 7.500792e+001 1.179529e+001 3.776191e+000 3.373354e-001 1.808482e+000 1.066441e+000 2.606986e+000 1.446314e+000 6.054497e+000 3.514615e+000 3.355042e+000 3.994892e+000 1.527795e+000 3.577402e+000 1.116118e+000 9.279799e-001 7.177036e-002 2.497118e-001 1.609709e-001 4.901382e-001 2.419831e-001 1.370570e+000 6.694378e-001 8.200696e-001 3.250450e-001 4.615207e-001 9.088523e-001 2.496702e-001 1.775942e-001
<GCONST> 1.056203e+002
~s "ST_iy_4_1"
<MEAN> 39
 1.620007e+000 -4.397812e+000 -1.121808e+001 2.479914e+000 -1.127050e+000 -1.421581e+001 -1.624154e+000 4.095084e+000 -4.039170e+000 -6.571366e+000 6.948170e+000 8.300878e+000 7.625687e+001 -2.366188e-001 2.858445e-001 6.370790e-002 -4.512972e-001 -8.760493e-001 6.004048e-001 9.880953e-001 1.028045e-001 2.625233e-001 1.170982e+000 5.794867e-001 -6.391134e-002 -5.114074e-001 -2.082362e-001 2.237724e-001 4.002047e-001 3.850183e-001 3.179899e-001 3.699749e-001 -1.256243e-001 -1.756972e-001 -9.692401e-002 -2.057351e-001 -3.612691e-001 -4.406501e-001 -2.536821e-001
<VARIANCE> 39
 1.289715e+000 1.509407e+001 1.393563e+001 3.265314e+001 2.651707e+001 2.424344e+001 3.510388e+001 3.887426e+001 1.600898e+001 3.834053e+001 4.617745e+001 1.105163e+001 4.673355e+000 3.383188e-001 9.664828e-001 1.420070e+000 3.071543e+000 3.008077e+000 2.127379e+000 4.186384e+000 2.639423e+000 9.146307e-001 2.216846e+000 4.949604e+000 3.050469e+000 6.002431e-001 1.411558e-002 6.509405e-002 1.111830e-001 2.993745e-001 4.004842e-001 4.110490e-001 8.057147e-001 3.813207e-001 2.201760e-001 4.994091e-001 5.568912e-001 2.744651e-001 2.705601e-002
<GCONST> 9.509702e+001
~s "ST_w_2_1"
<MEAN> 39
 -1.432266e+000 6.656656e+000 9.403409e-001 1.009973e+001 -4.125049e+000 -1.882688e+001 -2.810074e+000 7.090059e+000 -6.382080e+000 -1.036921e+001 -9.833165e-001 -5.080713e+000 6.957954e+001 -5.130276e-001 6.897051e-001 8.713528e-001 -1.210586e-002 -7.117090e-001 -2.109371e-001 -3.265447e-001 2.708709e-001 6.197822e-001 7.274279e-001 -2.213472e-001 1.921168e-001 -7.314472e-001 -2.870070e-001 -1.247624e-001 -6.553882e-003 -7.693677e-002 1.425451e-001 3.693152e-001 7.757805e-002 -2.578632e-001 1.103274e-001 9.315023e-002 1.651499e-001 2.891679e-001 -1.003259e-001
<VARIANCE> 39
 2.080428e+000 8.305343e+000 1.358337e+001 9.718599e+000 2.645885e+001 7.058517e+001 4.648582e+000 5.185756e+001 4.267557e+001 7.989441e+000 4.156199e+000 6.025425e+000 1.280441e+000 2.489799e-001 6.045374e-001 5.556713e-001 3.482687e-001 5.371696e-001 7.880803e-001 1.306621e+000 5.264911e-001 7.512980e-001 1.320383e+000 1.413274e-001 4.771950e-001 1.990284e-001 9.873242e-002 1.524321e-001 5.987763e-002 8.420590e-002 6.015297e-002 3.384932e-001 1.253562e-001 1.863417e-001 1.888502e-001 3.418805e-001 8.717834e-002 1.747253e-001 4.795272e-002
<GCONST> 6.553886e+001
~s "ST_w_3_1"
<MEAN> 39
 -5.504480e+000 1.157203e+001 4.079068e+000 5.171032e+000 -5.393577e+000 -1.185513e+001 -3.471214e+000 2.551975e+000 -7.775466e-002 -3.716126e+000 -2.633148e+000 -4.222276e+000 6.486684e+001 -1.881345e+000 9.586976e-001 1.049499e+000 -6.756343e-001 4.126575e-001 2.063769e+000 2.571224e-002 -1.199708e+000 1.044055e+000 1.798425e+000 2.688315e-001 3.053499e-001 -1.506860e+000 -3.071338e-001 -4.168232e-001 -3.273433e-001 1.651401e-002 6.601956e-001 6.154091e-001 2.443336e-001 1.923924e-002 -9.199996e-002 -3.099100e-002 3.037090e-001 3.208177e-001 -7.174208e-002
<VARIANCE> 39
 7.387093e+000 5.186016e+000 3.801037e+000 5.353962e+000 1.147670e+001 3.442341e+001 4.595367e+000 2.748741e+001 3.793973e+001 2.956536e+001 5.873372e+000 6.468873e+000 3.771289e+000 5.448728e-001 3.298484e-001 4.033350e-001 5.733796e-001 2.038487e+000 4.723139e+000 2.742012e-001 6.510394e-001 1.345938e+000 6.937629e-001 6.131967e-001 9.398135e-001 2.406363e-001 5.620157e-002 1.010148e-001 5.921792e-002 4.286902e-002 7.029662e-002 3.405144e-001 7.228269e-002 2.770756e-001 2.835017e-001 3.511246e-001 8.525138e-002 1.040635e-001 2.813202e-002
<GCONST> 6.706496e+001
~s "ST_w_4_1"
<MEAN> 39
 -1.555441e+001 7.488771e+000 2.544211e+000 5.394794e+000 2.497819e+000 7.165333e-001 -3.264273e-001 1.431181e+000 3.337742e+000 2.015925e+000 2.199549e+000 6.084464e-001 5.919934e+001 -1.391658e+000 -1.277105e+000 -1.047660e+000 -1.020297e-001 1.055962e+000 1.871441e+000 1.058342e+000 9.445480e-001 1.892493e+000 1.577107e+000 9.911562e-001 7.596726e-001 -6.505181e-001 3.276346e-001 -8.044960e-002 -1.222958e-001 -4.475745e-003 -3.464926e-001 -4.412057e-001 1.687031e-001 3.430609e-001 4.402912e-003 -1.082050e-001 -2.867944e-002 -4.114615e-002 2.219170e-001
<VARIANCE> 39
 9.100032e+000 2.025351e+001 1.203859e+001 1.283133e+001 1.654757e+001 1.481856e+001 1.596079e+001 1.478905e+001 3.316491e+001 1.663949e+001 4.074626e+000 1.296938e+001 1.843571e+000 1.107385e+000 8.052906e-001 6.317474e-001 8.697554e-001 1.188586e+000 2.131040e+000 1.888634e+000 2.193425e+000 2.482418e+000 1.876190e+000 9.235889e-001 1.738106e+000 5.179573e-001 6.089627e-002 3.047064e-001 2.958348e-001 2.287463e-001 2.897060e-001 2.965974e-001 4.124548e-001 4.794201e-001 6.365889e-001 2.200944e-001 1.779887e-001 3.319082e-001 6.701834e-002
<GCONST> 8.853134e+001
~s "ST_m_2_1"
<MEAN> 39
 -1.753994e+001 1.640395e+000 -3.394461e-001 2.217112e+000 2.302114e+000 4.272638e+000 5.901134e+000 3.614410e+000 7.497883e+000 5.664950e+000 5.180076e+000 4.987903e+000 6.077802e+001 3.638069e-001 -2.689841e-001 4.654420e-001 3.318598e-001 2.317597e-001 -5.134964e-001 -7.061602e-001 -9.492862e-001 -3.559453e-001 -4.824857e-001 -3.286576e-001 -5.299644e-001 7.638391e-001 2.754536e-001 -4.314256e-002 1.816231e-001 3.459606e-001 1.837123e-001 -3.775003e-001 -2.530674e-001 3.774647e-002 -3.055757e-001 -2.954639e-001 -7.106557e-002 -2.524358e-001 2.544759e-001
<VARIANCE> 39
 2.734805e+001 1.932510e+001 1.588018e+001 1.369196e+001 2.377105e+001 2.831757e+001 1.143177e+001 3.195382e+001 1.178106e+001 1.227562e+001 1.312797e+001 8.985331e+000 2.860595e+001 2.324719e+000 2.221277e+000 1.589855e+000 2.722825e+000 2.363962e+000 3.041491e+000 1.423528e+000 2.065975e+000 2.850956e+000 2.090550e+000 2.082446e+000 1.391574e+000 2.346297e+000 4.555325e-001 4.690883e-001 3.140841e-001 7.705619e-001 4.748129e-001 5.138428e-001 3.323496e-001 6.006117e-001 5.481862e-001 3.780941e-001 3.755653e-001 2.209324e-001 4.515923e-001
<GCONST> 1.078582e+002
~s "ST_m_3_1"
<MEAN> 39
 -9.578096e+000 3.292804e-001 4.396521e+000 1.648976e+001 1.051006e+001 -8.371205e+000 -4.060223e+000 8.635770e-001 1.740622e-001 -4.822412e+000 -2.529573e-003 -8.697763e-001 6.840137e+001 6.537424e-001 -1.744613e-001 -2.851529e-001 7.412313e-002 2.080250e-001 -5.684870e-001 -5.841044e-001 -3.847855e-001 -6.943205e-001 -4.650226e-001 3.506900e-001 -5.135921e-002 5.948052e-001 -5.270790e-002 1.614409e-002 -1.592176e-001 -3.063693e-001 -2.298517e-001 9.377721e-002 1.797366e-001 7.562866e-002 7.147513e-002 1.474285e-001 1.747825e-001 1.684220e-001 -6.036138e-002
<VARIANCE> 39
 3.030853e+001 3.401281e+001 3.654739e+001 7.627282e+001 4.408623e+001 7.123531e+001 5.601719e+001 3.866423e+001 5.289174e+001 3.696797e+001 1.657352e+001 2.264250e+001 4.240596e+001 4.533680e+000 4.577074e+000 3.028698e+000 6.784070e+000 4.008366e+000 8.791678e+000 5.831980e+000 3.492815e+000 4.493720e+000 3.712194e+000 2.230976e+000 2.165827e+000 5.327344e+000 4.989088e-001 6.639141e-001 2.898302e-001 6.371416e-001 5.709556e-001 1.068167e+000 9.674396e-001 6.468475e-001 7.492393e-001 5.576487e-001 3.230248e-001 3.442048e-001 6.453052e-001
<GCONST> 1.309635e+002
~s "ST_m_4_1"
<MEAN> 39
 -2.735180e+000 -1.038973e+000 -8.860338e+000 1.522894e+000 -2.263197e+000 -9.594329e+000 6.177390e-001 4.581339e+000 -8.508314e-001 -1.566174e+000 6.950923e+000 4.028514e+000 7.148558e+001 -9.100762e-001 5.629643e-001 2.514442e-001 -7.603977e-001 -4.727988e-001 8.549229e-001 1.012927e+000 9.804002e-001 8.716387e-001 1.076922e+000 2.094435e-001 1.334677e-001 -9.610320e-001 -1.925501e-001 -7.544076e-002 1.238696e-001 1.453391e-001 1.747405e-001 1.537168e-001 3.998909e-002 -5.643336e-002 2.415814e-001 1.508014e-001 -1.344803e-001 -2.424517e-002 -8.764073e-002
<VARIANCE> 39
 5.911745e+001 3.275247e+001 3.557972e+001 2.909528e+001 4.926774e+001 6.782858e+001 5.027390e+001 9.493830e+001 5.094361e+001 4.828489e+001 2.382440e+001 2.024814e+001 4.268926e+001 3.984976e+000 1.839018e+000 3.156176e+000 2.097786e+000 3.055521e+000 3.723298e+000 2.595110e+000 3.074354e+000 3.052717e+000 3.804648e+000 2.445700e+000 1.544816e+000 2.717587e+000 4.347711e-001 2.032976e-001 3.524217e-001 2.646488e-001 2.799024e-001 4.610519e-001 5.664941e-001 3.989826e-001 4.950861e-001 5.277464e-001 3.719674e-001 2.862815e-001 2.107441e-001
<GCONST> 1.202131e+002
~s "ST_ah_2_1"
<MEAN> 39
 -1.597370e+001 5.381800e+000 -2.668252e-001 2.693748e+000 2.397650e+000 4.166704e+000 6.366716e+000 6.435590e+000 6.573103e+000 4.714963e+000 4.639153e+000 3.411474e+000 5.911430e+001 -9.349723e-001 -3.629686e-001 1.165880e-001 2.220639e-001 4.161521e-001 4.963616e-001 2.719772e-001 2.142758e-001 2.973943e-001 4.327305e-001 4.997570e-001 4.436320e-001 -5.791140e-001 1.928904e-001 -7.429679e-003 -4.445303e-002 4.048946e-002 -5.953557e-002 -2.070145e-001 -1.649292e-001 -1.071795e-001 -1.319917e-001 -1.433222e-001 -6.734926e-002 -6.887425e-002 1.522714e-001
<VARIANCE> 39
 1.131232e+001 6.069360e+000 9.972005e+000 1.507659e+001 1.556458e+001 1.335787e+001 1.627761e+001 1.242037e+001 1.120117e+001 1.519257e+001 1.478324e+001 1.427568e+001 4.617841e+000 9.693974e-001 5.008057e-001 9.235903e-001 1.077419e+000 1.166098e+000 1.356683e+000 1.636165e+000 1.117993e+000 1.306067e+000 1.422174e+000 1.166898e+000 1.303617e+000 4.937722e-001 1.629687e-001 9.171291e-002 1.751460e-001 1.578314e-001 1.820910e-001 3.234896e-001 3.604320e-001 1.991970e-001 2.768251e-001 3.071495e-001 2.201956e-001 2.312846e-001 8.970478e-002
<GCONST> 8.314164e+001
~s "ST_ah_3_1"
<MEAN> 39
 -1.923409e+001 4.342198e+000 8.315496e-001 4.513476e+000 4.292910e+000 5.953117e+000 6.657530e+000 6.288582e+000 7.108590e+000 5.881980e+000 6.122154e+000 4.907938e+000 5.724771e+001 -1.971795e-001 -6.193059e-002 9.137682e-002 1.563766e-001 1.433911e-001 1.638436e-001 1.492929e-002 -5.304373e-002 3.300489e-002 1.578427e-001 1.430399e-001 1.048996e-001 -1.196573e-001 6.467251e-002 2.223093e-002 -1.381775e-002 -2.207126e-002 -3.688422e-002 -5.513254e-002 -1.609969e-002 -2.696234e-003 -2.916312e-002 -2.456681e-002 -6.264538e-002 -6.546144e-002 4.039459e-002
<VARIANCE> 39
 1.535386e+000 1.522329e+000 3.318627e+000 4.821802e+000 5.690457e+000 5.545436e+000 5.314508e+000 7.258620e+000 6.464414e+000 6.687449e+000 6.292476e+000 6.782803e+000 5.578868e-001 1.927811e-001 1.727867e-001 4.953303e-001 6.744879e-001 6.208903e-001 6.404893e-001 8.027368e-001 8.306985e-001 9.287124e-001 7.750196e-001 7.141691e-001 8.071206e-001 9.009808e-002 4.986241e-002 3.548811e-002 1.132969e-001 1.356305e-001 1.175051e-001 1.055874e-001 1.646956e-001 1.739470e-001 1.948555e-001 1.425520e-001 1.320396e-001 1.548313e-001 2.393874e-002
<GCONST> 5.056723e+001
~s "ST_ah_4_1"
<MEAN> 39
 -1.982186e+001 4.229311e+000 1.173997e+000 5.229005e+000 4.589326e+000 6.227160e+000 6.598078e+000 6.459099e+000 6.811779e+000 6.176129e+000 6.109824e+000 4.837958e+000 5.682386e+001 -6.548981e-003 -7.305023e-003 -2.432960e-003 1.820223e-003 1.059892e-002 -7.880914e-003 6.217109e-003 -7.943942e-004 -1.862601e-002 -1.430419e-002 -1.251536e-003 -5.949036e-003 1.273930e-004 2.535720e-002 2.224440e-003 -6.909827e-003 -1.057241e-002 -4.411050e-003 -4.865947e-003 -5.333045e-003 -1.425123e-002 -1.262946e-002 -2.318898e-002 -8.477177e-003 -2.401842e-003 2.088665e-002
<VARIANCE> 39
 7.076837e-001 6.607841e-001 1.297110e+000 1.992698e+000 2.833703e+000 3.745413e+000 3.824630e+000 4.383756e+000 4.901142e+000 4.882488e+000 4.813375e+000 4.403238e+000 5.072046e-001 3.672219e-002 7.672279e-002 1.387752e-001 2.287183e-001 3.132212e-001 3.970646e-001 4.247862e-001 4.835316e-001 5.709352e-001 5.487397e-001 4.968019e-001 4.766201e-001 1.169577e-002 1.203359e-002 1.829403e-002 3.323323e-002 4.924611e-002 6.327872e-002 8.594941e-002 8.900857e-002 1.099310e-001 1.239077e-001 1.125393e-001 1.054723e-001 9.752899e-002 5.292711e-003
<GCONST> 2.379063e+001
~s "ST_p_2_1"
<MEAN> 39
 -1.556649e+001 4.560120e+000 -3.077454e+000 5.460221e-003 -2.113168e-001 3.295609e+000 6.142537e+000 5.985526e+000 7.981496e+000 8.221090e+000 7.117165e+000 6.847804e+000 5.952900e+001 -1.294073e+000 2.052483e-001 9.957190e-001 6.592267e-001 4.680406e-001 5.837898e-001 1.092813e-001 -3.778140e-003 1.461487e-001 7.200926e-002 -2.100071e-001 2.530863e-001 -9.431147e-001 3.685061e-001 -1.113556e-001 -1.597161e-001 1.000746e-001 1.016693e-001 -2.784088e-001 -1.160631e-001 1.082595e-001 -2.640333e-001 -5.057980e-001 -1.132752e-001 -2.484041e-001 3.105728e-001
<VARIANCE> 39
 1.292847e+001 1.280988e+000 1.017271e+001 1.334567e+001 6.747985e+000 4.881590e+000 4.902222e+000 1.104984e+001 1.148250e+001 9.490092e+000 1.297683e+001 1.726833e+001 5.153221e+000 1.401718e+000 2.282561e-001 1.110928e+000 1.177428e+000 7.274233e-001 1.028675e+000 1.946229e+000 8.582001e-001 1.984278e+000 1.483315e+000 8.750130e-001 1.262128e+000 7.606614e-001 1.414825e-001 3.336659e-002 1.727119e-001 1.966122e-001 1.887803e-001 3.922800e-001 3.382926e-001 1.169914e-001 3.843175e-001 1.961340e-001 1.174585e-001 2.000957e-001 6.896821e-002
<GCONST> 7.530107e+001
~s "ST_p_3_1"
<MEAN> 39
 -1.873269e+001 4.313282e+000 -2.010194e-001 2.833724e+000 3.913724e+000 6.139270e+000 6.854361e+000 5.710098e+000 6.984823e+000 5.873188e+000 6.251875e+000 5.576681e+000 5.760965e+001 -4.522144e-001 -1.147618e-001 5.445716e-001 5.799715e-001 4.727574e-001 2.903233e-001 4.791846e-002 3.102195e-001 -1.966481e-002 -3.537656e-001 -2.787043e-001 -2.394526e-001 -2.669394e-001 1.193314e-001 7.243457e-003 -9.652959e-002 -1.026715e-001 -1.802030e-001 -2.145986e-001 -8.887888e-002 5.095880e-002 -6.450878e-003 3.119315e-002 3.780127e-002 5.611309e-003 5.694244e-002
<VARIANCE> 39
 2.234558e+000 8.031709e-001 3.961488e+000 9.690781e+000 2.358123e+000 2.257936e+000 6.750508e+000 6.022230e+000 5.351244e+000 1.254883e+001 4.611743e+000 5.608624e+000 7.680991e-001 1.259720e-001 1.039371e-001 2.729009e-001 4.373553e-001 3.942192e-001 6.732523e-001 6.177374e-001 9.474351e-001 5.157377e-001 1.191135e+000 3.889780e-001 8.533650e-001 5.175101e-002 1.316573e-002 2.096847e-002 2.953246e-002 9.078250e-002 5.374100e-002 6.477308e-002 1.277472e-001 1.387661e-001 6.944185e-002 2.581007e-001 1.090638e-001 1.195034e-001 3.992250e-003
<GCONST> 3.791358e+001
~s "ST_p_4_1"
<MEAN> 39
 -1.985493e+001 4.263666e+000 1.134374e+000 5.065034e+000 4.329834e+000 6.260384e+000 6.670610e+000 6.886146e+000 7.261915e+000 6.369711e+000 6.363273e+000 5.234830e+000 5.679458e+001 4.092491e-003 1.948432e-002 1.172807e-002 3.274216e-003 -1.003648e-002 -1.317862e-002 1.855457e-002 -1.717398e-002 4.723723e-003 9.826503e-003 -1.338910e-002 -5.288934e-002 -1.465807e-003 2.383619e-003 1.534670e-003 -1.146793e-002 -1.022658e-002 4.413796e-003 8.498954e-003 5.848105e-004 -2.041709e-002 -3.081588e-003 1.068408e-002 2.444992e-003 4.675336e-003 3.311872e-003
<VARIANCE> 39
 7.076837e-001 6.920811e-001 1.352051e+000 1.961273e+000 2.857634e+000 3.582915e+000 3.898305e+000 3.610801e+000 4.294521e+000 4.536345e+000 3.987621e+000 4.025791e+000 5.072046e-001 2.869662e-002 9.044077e-002 1.524836e-001 2.479769e-001 3.376311e-001 3.815021e-001 4.604817e-001 4.610189e-001 4.527851e-001 4.390340e-001 4.333824e-001 4.685884e-001 1.169577e-002 5.884818e-003 1.850596e-002 3.210027e-002 5.121191e-002 7.951697e-002 8.198452e-002 9.869224e-002 9.857228e-002 8.863449e-002 8.942730e-002 9.265368e-002 9.658673e-002 1.405454e-003
<GCONST> 2.016659e+001
~s "ST_ih_2_1"
<MEAN> 39
 -1.199105e+001 6.667479e+000 2.041323e+000 6.095110e+000 3.852867e+000 -6.120207e-001 1.525584e+000 4.651718e+000 5.860232e+000 3.292663e-001 5.293192e-001 -1.371101e+000 6.266924e+001 1.436866e+000 -5.391457e-001 -9.582356e-001 -9.787800e-001 -1.783024e+000 -2.060264e+000 -5.711872e-001 -5.054002e-002 3.358970e-001 -9.448807e-001 8.109085e-002 3.879637e-001 1.591898e+000 1.133828e+000 -4.712636e-001 -8.878409e-001 -2.827685e-001 -4.736314e-001 -1.133676e+000 -4.688092e-001 3.433578e-001 2.047778e-001 -3.478968e-001 -4.078177e-001 -4.630090e-001 9.476254e-001
<VARIANCE> 39
 6.179332e+001 1.108957e+001 2.922796e+000 3.048365e+000 9.212194e+000 6.773780e+001 4.503736e+001 1.838925e+001 3.699987e+001 4.763470e+001 1.183850e+001 2.071724e+001 4.003304e+001 8.220258e+000 1.405115e+000 3.084333e+000 1.097075e+000 3.585579e+000 9.909919e+000 2.891170e+000 2.624417e+000 1.777879e+000 3.173469e+000 2.667231e+000 4.327115e+000 6.740659e+000 6.880128e-001 1.483060e-001 2.796005e-001 1.482061e-001 6.050113e-001 1.197522e+000 4.630892e-001 7.083051e-001 3.577337e-001 7.280677e-001 3.735386e-001 3.042264e-001 5.383849e-001
<GCONST> 1.145210e+002
~s "ST_ih_3_1"
<MEAN> 39
 2.566788e+000 3.238762e-001 -9.501678e+000 1.127120e-001 -6.681664e+000 -1.709640e+001 -2.737245e+000 9.533379e+000 8.567812e+000 -4.854927e+000 -1.546162e+000 -2.690098e+000 7.542418e+001 2.690654e+000 -1.705795e+000 -2.963702e+000 -9.476138e-001 -1.733559e+000 -2.376474e+000 2.332997e-001 1.531568e+000 5.731011e-001 -2.958418e-001 -4.270010e-001 -1.610396e-001 1.938194e+000 -1.046937e+000 2.663765e-001 5.706435e-001 3.600095e-001 7.744719e-001 1.415633e+000 6.578585e-001 -4.694471e-001 -4.249355e-001 4.852643e-001 1.834531e-001 2.869508e-001 -9.145858e-001
<VARIANCE> 39
 1.357895e+001 3.521958e+001 5.945287e+001 1.835062e+001 5.141687e+001 4.225555e+001 2.794392e+001 4.889552e+001 7.030174e+001 3.233593e+001 1.994044e+001 1.169438e+001 7.397033e+000 6.537241e+000 2.532262e+000 5.290944e+000 1.806897e+000 4.325362e+000 1.106908e+001 1.823109e+000 5.365008e+000 3.566736e+000 2.216211e+000 1.364615e+000 8.594773e-001 3.868605e+000 6.368136e-001 3.870051e-001 8.321207e-001 1.613552e-001 3.739980e-001 1.224788e+000 3.430469e-001 5.803420e-001 5.646071e-001 2.669379e-001 2.435975e-001 9.161384e-002 3.982142e-001
<GCONST> 1.173020e+002
~s "ST_ih_4_1"
<MEAN> 39
 2.824062e+000 -1.543697e+000 -1.223754e+001 -6.699477e-001 -8.618329e+000 -1.431640e+001 2.603820e+000 1.172470e+001 4.062578e+000 -3.353464e+000 -5.948513e-001 -2.220444e+000 7.484563e+001 -4.316576e-001 4.360410e-001 2.955324e-001 -2.607229e-001 -1.609521e-002 3.871906e-001 2.233672e-001 -6.297647e-001 -2.595177e-001 3.446137e-001 7.788240e-003 6.522855e-001 -4.643143e-001 -2.281453e-001 1.574861e-001 2.719471e-001 1.364460e-001 1.534297e-001 7.899724e-002 -1.887992e-001 -1.602535e-001 -1.294505e-001 -1.512196e-001 7.887038e-002 1.668971e-001 -1.679459e-001
<VARIANCE> 39
 1.117938e+001 5.187127e+001 6.068160e+001 2.674094e+001 4.239272e+001 3.021044e+001 3.486215e+001 4.488204e+001 3.104197e+001 3.016179e+001 1.492293e+001 1.926205e+001 1.339441e+001 5.575005e-001 4.508784e-001 1.208171e+000 4.241889e-001 1.007217e+000 1.882922e+000 1.064372e+000 1.055796e+000 2.242627e+000 5.381865e-001 5.731459e-001 9.759104e-001 4.142397e-001 1.305161e-001 1.707915e-001 2.785018e-001 9.525444e-002 1.651883e-001 2.088617e-001 1.079301e-001 1.683364e-001 2.388846e-001 2.559598e-001 1.604502e-001 1.711726e-001 9.196743e-002
<GCONST> 8.888986e+001
~h "b"
<BEGINHMM>
<NUMSTATES> 5
<STATE> 2
~s "ST_b_2_1"
<STATE> 3
~s "ST_b_3_1"
<STATE> 4
~s "ST_b_4_1"
~t "T_b"
<ENDHMM>
~h "d"
<BEGINHMM>
<NUMSTATES> 5
<STATE> 2
~s "ST_d_2_1"
<STATE> 3
~s "ST_d_3_1"
<STATE> 4
~s "ST_d_4_1"
~t "T_d"
<ENDHMM>
~h "g"
<BEGINHMM>
<NUMSTATES> 5
<STATE> 2
~s "ST_g_2_1"
<STATE> 3
~s "ST_g_3_1"
<STATE> 4
~s "ST_g_4_1"
~t "T_g"
<ENDHMM>
~h "l"
<BEGINHMM>
<NUMSTATES> 5
<STATE> 2
~s "ST_l_2_1"
<STATE> 3
~s "ST_l_3_1"
<STATE> 4
~s "ST_l_4_1"
~t "T_l"
<ENDHMM>
~h "m"
<BEGINHMM>
<NUMSTATES> 5
<STATE> 2
~s "ST_m_2_1"
<STATE> 3
~s "ST_m_3_1"
<STATE> 4
~s "ST_m_4_1"
~t "T_m"
<ENDHMM>
~h "n"
<BEGINHMM>
<NUMSTATES> 5
<STATE> 2
~s "ST_n_2_1"
<STATE> 3
~s "ST_n_3_1"
<STATE> 4
~s "ST_n_4_1"
~t "T_n"
<ENDHMM>
~h "p"
<BEGINHMM>
<NUMSTATES> 5
<STATE> 2
~s "ST_p_2_1"
<STATE> 3
~s "ST_p_3_1"
<STATE> 4
~s "ST_p_4_1"
~t "T_p"
<ENDHMM>
~h "s"
<BEGINHMM>
<NUMSTATES> 5
<STATE> 2
~s "ST_s_2_1"
<STATE> 3
~s "ST_s_3_1"
<STATE> 4
~s "ST_s_4_1"
~t "T_s"
<ENDHMM>
~h "t"
<BEGINHMM>
<NUMSTATES> 5
<STATE> 2
~s "ST_t_2_1"
<STATE> 3
~s "ST_t_3_1"
<STATE> 4
~s "ST_t_4_1"
~t "T_t"
<ENDHMM>
~h "w"
<BEGINHMM>
<NUMSTATES> 5
<STATE> 2
~s "ST_w_2_1"
<STATE> 3
~s "ST_w_3_1"
<STATE> 4
~s "ST_w_4_1"
~t "T_w"
<ENDHMM>
~h "ah"
<BEGINHMM>
<NUMSTATES> 5
<STATE> 2
~s "ST_ah_2_1"
<STATE> 3
~s "ST_ah_3_1"
<STATE> 4
~s "ST_ah_4_1"
~t "T_ah"
<ENDHMM>
~h "hh"
<BEGINHMM>
<NUMSTATES> 5
<STATE> 2
~s "ST_hh_2_1"
<STATE> 3
~s "ST_hh_3_1"
<STATE> 4
~s "ST_hh_4_1"
~t "T_hh"
<ENDHMM>
~h "ih"
<BEGINHMM>
<NUMSTATES> 5
<STATE> 2
~s "ST_ih_2_1"
<STATE> 3
~s "ST_ih_3_1"
<STATE> 4
~s "ST_ih_4_1"
~t "T_ih"
<ENDHMM>
~h "iy"
<BEGINHMM>
<NUMSTATES> 5
<STATE> 2
~s "ST_iy_2_1"
<STATE> 3
~s "ST_iy_3_1"
<STATE> 4
~s "ST_iy_4_1"
~t "T_iy"
<ENDHMM>
~h "jh"
<BEGINHMM>
<NUMSTATES> 5
<STATE> 2
~s "ST_jh_2_1"
<STATE> 3
~s "ST_jh_3_1"
<STATE> 4
~s "ST_jh_4_1"
~t "T_jh"
<ENDHMM>
~h "ow"
<BEGINHMM>
<NUMSTATES> 5
<STATE> 2
~s "ST_ow_2_1"
<STATE> 3
~s "ST_ow_3_1"
<STATE> 4
~s "ST_ow_4_1"
~t "T_ow"
<ENDHMM>
~h "uh"
<BEGINHMM>
<NUMSTATES> 5
<STATE> 2
~s "ST_uh_2_1"
<STATE> 3
~s "ST_uh_3_1"
<STATE> 4
~s "ST_uh_4_1"
~t "T_uh"
<ENDHMM>
~h "sil"
<BEGINHMM>
<NUMSTATES> 5
<STATE> 2
<MEAN> 39
 -1.906737e+001 4.931431e+000 1.815905e+000 6.369298e+000 5.389215e+000 6.159143e+000 6.046893e+000 6.761896e+000 7.312599e+000 6.645572e+000 6.062570e+000 4.484124e+000 5.714450e+001 -4.200776e-001 -3.073723e-001 1.114693e-002 1.896462e-004 1.775401e-002 -1.205037e-001 -6.390173e-002 2.211657e-001 3.202597e-001 7.203678e-001 4.687262e-001 3.916701e-001 -2.204042e-001 1.054506e-001 5.240776e-002 -5.182423e-002 -1.018144e-001 -1.425639e-001 -1.065655e-002 1.187551e-002 -1.219835e-001 -1.459771e-001 -3.046361e-001 -2.199697e-001 -3.706016e-002 6.095634e-002
<VARIANCE> 39
 1.577101e+000 2.218062e+000 2.357888e+000 3.401816e+000 3.820453e+000 2.751814e+000 2.771021e+000 6.134223e+000 5.734829e+000 7.412501e+000 5.194228e+000 4.005435e+000 5.072046e-001 1.550857e-001 1.897015e-001 4.071754e-001 3.874997e-001 5.656782e-001 3.200266e-001 3.757778e-001 4.792473e-001 9.157054e-001 1.250288e+000 6.485456e-001 2.471588e-001 3.416371e-002 9.004949e-003 9.724623e-003 3.173380e-002 3.245518e-002 9.742069e-002 6.142120e-002 5.075298e-002 1.215421e-001 9.291688e-002 1.359814e-001 1.153015e-001 3.808280e-002 3.251037e-003
<GCONST> 3.047866e+001
<STATE> 3
~s "silst"
<STATE> 4
<MEAN> 39
 -1.953432e+001 3.957163e+000 4.521905e-001 4.916899e+000 5.373435e+000 6.321386e+000 6.631054e+000 5.621869e+000 7.815283e+000 6.947464e+000 5.745570e+000 4.845261e+000 5.712529e+001 1.848427e-001 1.269186e-001 3.979097e-001 4.838510e-001 4.308308e-001 -1.894104e-001 2.111679e-001 -3.985745e-001 1.845943e-002 -1.573340e-001 -1.436514e-001 -4.492798e-001 2.657027e-001 4.961122e-001 1.818402e-001 2.767647e-001 4.030584e-001 1.461546e-001 -2.396410e-001 -5.136169e-001 -2.249327e-001 -4.893461e-001 -3.742279e-001 -3.382885e-001 -5.029449e-001 3.472289e-001
<VARIANCE> 39
 1.592309e+000 4.088068e-001 2.142970e+000 1.844609e+000 5.666124e+000 3.046457e+000 7.583751e+000 8.420069e+000 4.619356e+000 1.938650e+000 5.887691e+000 7.500873e+000 5.072046e-001 2.252170e-001 2.243229e-001 4.785152e-001 5.734512e-001 5.704223e-001 5.666155e-001 4.765519e-001 8.648140e-001 1.930243e+000 4.324080e-001 4.064338e-001 7.037345e-001 1.833549e-001 1.744699e-001 1.063605e-001 6.778380e-002 1.034904e-001 1.162114e-001 1.601938e-001 2.176145e-001 6.144848e-002 3.903086e-001 1.489863e-001 1.776497e-001 3.040603e-001 9.097666e-002
<GCONST> 5.010032e+001
<TRANSP> 5
 0.000000e+000 1.000000e+000 0.000000e+000 0.000000e+000 0.000000e+000
 0.000000e+000 5.292276e-001 2.942319e-001 1.765405e-001 0.000000e+000
 0.000000e+000 0.000000e+000 8.077429e-001 1.922572e-001 0.000000e+000
 0.000000e+000 0.000000e+000 0.000000e+000 3.843083e-001 6.156917e-001
 0.000000e+000 0.000000e+000 0.000000e+000 0.000000e+000 0.000000e+000
<ENDHMM>
