~o
<STREAMINFO> 1 39
<VECSIZE> 39<NULLD><MFCC_D_A_0><DIAGC>
~t "T_b"
<TRANSP> 5
 0.000000e+000 1.000000e+000 0.000000e+000 0.000000e+000 0.000000e+000
 0.000000e+000 8.260870e-001 1.739130e-001 0.000000e+000 0.000000e+000
 0.000000e+000 0.000000e+000 4.285719e-001 5.714281e-001 0.000000e+000
 0.000000e+000 0.000000e+000 0.000000e+000 7.802855e-001 2.197146e-001
 0.000000e+000 0.000000e+000 0.000000e+000 0.000000e+000 0.000000e+000
~t "T_d"
<TRANSP> 5
 0.000000e+000 1.000000e+000 0.000000e+000 0.000000e+000 0.000000e+000
 0.000000e+000 5.994523e-001 4.005477e-001 0.000000e+000 0.000000e+000
 0.000000e+000 0.000000e+000 7.858101e-001 2.141899e-001 0.000000e+000
 0.000000e+000 0.000000e+000 0.000000e+000 8.863440e-001 1.136560e-001
 0.000000e+000 0.000000e+000 0.000000e+000 0.000000e+000 0.000000e+000
~t "T_g"
<TRANSP> 5
 0.000000e+000 1.000000e+000 0.000000e+000 0.000000e+000 0.000000e+000
 0.000000e+000 9.033136e-001 9.668640e-002 0.000000e+000 0.000000e+000
 0.000000e+000 0.000000e+000 8.194638e-001 1.805362e-001 0.000000e+000
 0.000000e+000 0.000000e+000 0.000000e+000 7.660602e-001 2.339398e-001
 0.000000e+000 0.000000e+000 0.000000e+000 0.000000e+000 0.000000e+000
~t "T_l"
<TRANSP> 5
 0.000000e+000 1.000000e+000 0.000000e+000 0.000000e+000 0.000000e+000
 0.000000e+000 7.524826e-001 2.475174e-001 0.000000e+000 0.000000e+000
 0.000000e+000 0.000000e+000 7.488925e-001 2.511075e-001 0.000000e+000
 0.000000e+000 0.000000e+000 0.000000e+000 8.703646e-001 1.296354e-001
 0.000000e+000 0.000000e+000 0.000000e+000 0.000000e+000 0.000000e+000
~t "T_m"
<TRANSP> 5
 0.000000e+000 1.000000e+000 0.000000e+000 0.000000e+000 0.000000e+000
 0.000000e+000 7.431821e-001 2.568179e-001 0.000000e+000 0.000000e+000
 0.000000e+000 0.000000e+000 8.262136e-001 1.737864e-001 0.000000e+000
 0.000000e+000 0.000000e+000 0.000000e+000 7.814117e-001 2.185883e-001
 0.000000e+000 0.000000e+000 0.000000e+000 0.000000e+000 0.000000e+000
~t "T_n"
<TRANSP> 5
 0.000000e+000 1.000000e+000 0.000000e+000 0.000000e+000 0.000000e+000
 0.000000e+000 8.064463e-001 1.935537e-001 0.000000e+000 0.000000e+000
 0.000000e+000 0.000000e+000 8.848597e-001 1.151403e-001 0.000000e+000
 0.000000e+000 0.000000e+000 0.000000e+000 8.466893e-001 1.533107e-001
 0.000000e+000 0.000000e+000 0.000000e+000 0.000000e+000 0.000000e+000
~t "T_p"
<TRANSP> 5
 0.000000e+000 1.000000e+000 0.000000e+000 0.000000e+000 0.000000e+000
 0.000000e+000 6.712418e-001 3.287582e-001 0.000000e+000 0.000000e+000
 0.000000e+000 0.000000e+000 6.581626e-001 3.418374e-001 0.000000e+000
 0.000000e+000 0.000000e+000 0.000000e+000 9.618769e-001 3.812305e-002
 0.000000e+000 0.000000e+000 0.000000e+000 0.000000e+000 0.000000e+000
~t "T_s"
<TRANSP> 5
 0.000000e+000 1.000000e+000 0.000000e+000 0.000000e+000 0.000000e+000
 0.000000e+000 8.585747e-001 1.414253e-001 0.000000e+000 0.000000e+000
 0.000000e+000 0.000000e+000 7.498645e-001 2.501355e-001 0.000000e+000
 0.000000e+000 0.000000e+000 0.000000e+000 8.047718e-001 1.952282e-001
 0.000000e+000 0.000000e+000 0.000000e+000 0.000000e+000 0.000000e+000
~t "T_t"
<TRANSP> 5
 0.000000e+000 1.000000e+000 0.000000e+000 0.000000e+000 0.000000e+000
 0.000000e+000 8.475796e-001 1.524204e-001 0.000000e+000 0.000000e+000
 0.000000e+000 0.000000e+000 5.644706e-001 4.355294e-001 0.000000e+000
 0.000000e+000 0.000000e+000 0.000000e+000 7.140878e-001 2.859121e-001
 0.000000e+000 0.000000e+000 0.000000e+000 0.000000e+000 0.000000e+000
~t "T_w"
<TRANSP> 5
 0.000000e+000 1.000000e+000 0.000000e+000 0.000000e+000 0.000000e+000
 0.000000e+000 7.895702e-001 2.104298e-001 0.000000e+000 0.000000e+000
 0.000000e+000 0.000000e+000 7.334425e-001 2.665574e-001 0.000000e+000
 0.000000e+000 0.000000e+000 0.000000e+000 8.000042e-001 1.999958e-001
 0.000000e+000 0.000000e+000 0.000000e+000 0.000000e+000 0.000000e+000
~t "T_ah"
<TRANSP> 5
 0.000000e+000 1.000000e+000 0.000000e+000 0.000000e+000 0.000000e+000
 0.000000e+000 7.213652e-001 2.786348e-001 0.000000e+000 0.000000e+000
 0.000000e+000 0.000000e+000 7.998134e-001 2.001866e-001 0.000000e+000
 0.000000e+000 0.000000e+000 0.000000e+000 9.376292e-001 6.237084e-002
 0.000000e+000 0.000000e+000 0.000000e+000 0.000000e+000 0.000000e+000
~t "T_hh"
<TRANSP> 5
 0.000000e+000 1.000000e+000 0.000000e+000 0.000000e+000 0.000000e+000
 0.000000e+000 6.097763e-001 3.902237e-001 0.000000e+000 0.000000e+000
 0.000000e+000 0.000000e+000 6.002135e-001 3.997865e-001 0.000000e+000
 0.000000e+000 0.000000e+000 0.000000e+000 6.921017e-001 3.078984e-001
 0.000000e+000 0.000000e+000 0.000000e+000 0.000000e+000 0.000000e+000
~t "T_ih"
<TRANSP> 5
 0.000000e+000 1.000000e+000 0.000000e+000 0.000000e+000 0.000000e+000
 0.000000e+000 6.664566e-001 3.335434e-001 0.000000e+000 0.000000e+000
 0.000000e+000 0.000000e+000 5.797105e-001 4.202895e-001 0.000000e+000
 0.000000e+000 0.000000e+000 0.000000e+000 8.048943e-001 1.951057e-001
 0.000000e+000 0.000000e+000 0.000000e+000 0.000000e+000 0.000000e+000
~t "T_iy"
<TRANSP> 5
 0.000000e+000 1.000000e+000 0.000000e+000 0.000000e+000 0.000000e+000
 0.000000e+000 7.975835e-001 2.024165e-001 0.000000e+000 0.000000e+000
 0.000000e+000 0.000000e+000 8.409581e-001 1.590419e-001 0.000000e+000
 0.000000e+000 0.000000e+000 0.000000e+000 8.502134e-001 1.497866e-001
 0.000000e+000 0.000000e+000 0.000000e+000 0.000000e+000 0.000000e+000
~t "T_jh"
<TRANSP> 5
 0.000000e+000 1.000000e+000 0.000000e+000 0.000000e+000 0.000000e+000
 0.000000e+000 8.384804e-001 1.615196e-001 0.000000e+000 0.000000e+000
 0.000000e+000 0.000000e+000 5.000534e-001 4.999466e-001 0.000000e+000
 0.000000e+000 0.000000e+000 0.000000e+000 7.266445e-001 2.733555e-001
 0.000000e+000 0.000000e+000 0.000000e+000 0.000000e+000 0.000000e+000
~t "T_ow"
<TRANSP> 5
 0.000000e+000 1.000000e+000 0.000000e+000 0.000000e+000 0.000000e+000
 0.000000e+000 4.994084e-001 5.005916e-001 0.000000e+000 0.000000e+000
 0.000000e+000 0.000000e+000 6.366137e-001 3.633863e-001 0.000000e+000
 0.000000e+000 0.000000e+000 0.000000e+000 9.128894e-001 8.711057e-002
 0.000000e+000 0.000000e+000 0.000000e+000 0.000000e+000 0.000000e+000
~t "T_uh"
<TRANSP> 5
 0.000000e+000 1.000000e+000 0.000000e+000 0.000000e+000 0.000000e+000
 0.000000e+000 3.996794e-001 6.003206e-001 0.000000e+000 0.000000e+000
 0.000000e+000 0.000000e+000 2.728837e-001 7.271163e-001 0.000000e+000
 0.000000e+000 0.000000e+000 0.000000e+000 5.786269e-001 4.213731e-001
 0.000000e+000 0.000000e+000 0.000000e+000 0.000000e+000 0.000000e+000
~s "ST_s_2_1"
<MEAN> 39
 -1.244357e+000 -1.123212e+000 -8.762601e+000 1.583259e+000 -8.899183e+000 -1.347191e+001 2.010430e+000 1.136232e+001 9.942110e-001 -3.941350e+000 4.980342e+000 2.616091e+000 7.184236e+001 -2.528455e-001 1.338620e-001 2.240945e-001 1.555361e-001 2.973901e-001 5.057400e-001 -2.052180e-001 -3.068683e-001 -1.209710e-001 1.053755e-002 7.507987e-002 -9.072113e-002 -2.768300e-001 -9.507498e-002 2.461851e-002 2.963994e-002 -9.132044e-003 1.562530e-001 1.621902e-001 -4.704392e-002 -2.031694e-002 1.512292e-002 6.352186e-003 2.171072e-002 4.416352e-002 -7.627846e-002
<VARIANCE> 39
 6.545878e+001 5.100906e+001 3.856765e+001 1.395604e+001 2.147509e+001 6.781557e+001 1.571403e+001 2.285371e+001 4.211728e+001 5.408710e+001 2.253476e+001 1.681931e+001 6.041211e+001 6.707592e+000 3.308314e+000 2.945820e+000 6.570110e-001 2.965560e+000 8.210167e+000 1.301829e+000 2.765182e+000 2.148496e+000 5.435297e+000 2.909477e+000 2.093710e+000 5.417720e+000 1.000322e+000 4.767742e-001 4.160250e-001 1.276535e-001 5.048897e-001 1.524433e+000 2.243260e-001 4.671471e-001 2.588760e-001 8.169213e-001 6.604270e-001 5.120301e-001 7.376174e-001
<GCONST> 1.220682e+002
~s "ST_s_3_1"
<MEAN> 39
 -3.382044e+000 2.936440e+000 -7.623690e+000 -1.512342e+000 -4.470911e+000 -8.894638e+000 -3.521475e-001 4.938324e+000 6.800162e+000 6.255609e-001 1.880547e+000 2.096372e+000 6.851814e+001 -1.083541e+000 9.396078e-001 7.944466e-001 -1.985687e-001 5.004144e-001 1.569798e+000 -2.607148e-002 -5.434105e-001 2.782553e-001 5.285101e-001 1.283147e-001 1.841820e-001 -1.130693e+000 -5.036602e-002 -1.237513e-001 -2.831020e-004 8.117352e-002 2.178430e-001 5.338572e-002 1.565475e-001 2.417355e-002 3.307920e-003 5.032276e-002 5.971038e-003 -2.266309e-002 6.969886e-002
<VARIANCE> 39
 5.205085e+001 3.253147e+001 3.407497e+001 1.378111e+001 1.329461e+001 5.084510e+001 1.736603e+001 2.171464e+001 3.199277e+001 2.199586e+001 1.468818e+001 1.894333e+001 3.749902e+001 7.333887e+000 2.445551e+000 3.596361e+000 1.672719e+000 1.928851e+000 6.694474e+000 3.020331e+000 2.097080e+000 3.479736e+000 1.760363e+000 1.569527e+000 3.189373e+000 5.838935e+000 1.002842e+000 3.592264e-001 4.917952e-001 3.607920e-001 3.369029e-001 1.315905e+000 6.045620e-001 4.254139e-001 4.604825e-001 2.720619e-001 3.462971e-001 7.766680e-001 6.558263e-001
<GCONST> 1.190605e+002
~s "ST_s_4_1"
<MEAN> 39
 -6.245790e+000 5.840902e+000 -1.579126e+000 4.927600e+000 2.701700e+000 -3.220853e+000 -2.350086e+000 3.362715e+000 1.326421e+000 -1.936611e+000 5.929817e-001 -2.411327e+000 6.590459e+001 -1.534027e+000 3.957941e-001 9.150463e-001 4.596884e-001 9.921065e-001 1.764342e+000 9.636109e-001 -1.676250e-001 5.306001e-001 7.096011e-001 7.020600e-003 1.534071e-001 -1.189623e+000 -8.927307e-002 -2.428352e-001 -1.660752e-001 -5.362365e-002 -1.349667e-001 -1.523017e-002 2.749679e-001 2.122342e-001 1.979794e-002 6.936614e-002 2.440471e-001 2.726430e-001 7.432982e-003
<VARIANCE> 39
 1.550908e+001 3.192879e+001 2.341016e+001 2.639806e+001 4.667836e+001 3.035074e+001 1.391181e+001 3.720407e+001 2.201620e+001 3.196861e+001 1.171093e+001 1.406653e+001 1.486328e+001 7.686765e-001 1.310650e+000 2.203098e+000 1.299224e+000 1.084358e+000 1.923856e+000 1.431926e+000 1.108109e+000 8.518784e-001 1.376266e+000 1.346683e+000 2.433756e+000 3.898269e-001 1.775018e-001 1.907373e-001 4.293843e-001 1.595825e-001 1.818506e-001 1.956639e-001 1.330017e-001 1.140036e-001 1.572185e-001 1.914528e-001 1.565846e-001 2.289678e-001 9.468701e-002
<GCONST> 9.205393e+001
~s "ST_uh_2_1"
<MEAN> 39
 -6.473255e+000 -1.111839e+000 -6.635145e+000 2.104486e+000 6.051181e-001 -6.030601e+000 4.128075e+000 2.965315e+000 -7.511207e-002 -1.676209e+000 5.544065e+000 4.391649e+000 7.001861e+001 2.963905e+000 -1.178908e+000 -1.534663e+000 6.998707e-001 -3.165929e-001 -2.514007e+000 -4.956042e-001 -7.668854e-001 -2.034945e+000 -2.681184e+000 -7.131020e-001 -5.600436e-001 2.628952e+000 -7.181455e-002 3.945656e-001 3.835417e-001 1.097811e-001 2.768882e-002 8.110628e-002 -3.306018e-001 6.158155e-002 -2.700562e-002 -5.882371e-002 -2.559692e-001 -4.588822e-001 -2.097495e-001
<VARIANCE> 39
 6.928703e+001 2.587371e+001 3.941011e+001 3.431527e+001 5.036085e+001 5.589003e+001 4.433337e+001 4.819642e+001 5.304799e+001 5.142689e+001 2.218664e+001 1.061847e+001 5.447949e+001 3.846039e+000 2.455198e+000 2.831743e+000 2.471574e+000 2.933997e+000 3.976882e+000 3.264556e+000 5.724789e+000 6.863688e+000 5.453090e+000 1.788358e+000 1.943751e+000 2.499574e+000 1.339763e+000 7.419477e-001 5.612944e-001 5.794007e-001 4.028623e-001 1.343843e+000 6.339737e-001 9.650559e-001 1.179512e+000 1.358099e+000 6.040359e-001 2.530487e-001 7.263815e-001
<GCONST> 1.307584e+002
~s "ST_uh_3_1"
<MEAN> 39
 8.333917e-001 -6.076642e-001 -8.936683e+000 3.489387e+000 2.168076e+000 -9.356052e+000 3.076963e-001 2.054939e+000 -4.816374e+000 -8.241257e+000 1.391019e+000 1.736743e+000 7.434557e+001 1.211330e+000 2.737585e-001 -8.562449e-002 6.991333e-001 -3.349760e-001 -4.512819e-001 -8.950541e-001 1.596723e-001 2.102275e-001 -8.656906e-002 -1.239027e+000 -1.687158e+000 3.255311e-001 -8.924683e-001 2.556630e-001 6.133444e-001 -5.386963e-002 -1.915191e-003 4.316652e-001 -2.759212e-002 1.036469e-001 8.051272e-001 1.019132e+000 1.607451e-001 -2.415670e-001 -6.932037e-001
<VARIANCE> 39
 1.168713e+001 2.381898e+001 3.145839e+001 4.669532e+001 8.895868e+001 3.201765e+001 5.749053e+001 7.279705e+001 3.539439e+001 2.664644e+001 2.345568e+001 1.822864e+001 1.384229e+001 2.044699e+000 5.092727e+000 4.254030e+000 2.339350e+000 1.998236e+000 6.884840e+000 2.711586e+000 2.800675e+000 3.615359e+000 5.524014e+000 4.923357e+000 3.793530e+000 1.411379e+000 6.701653e-001 2.432685e-001 5.452760e-001 3.378151e-001 6.290666e-001 1.163592e+000 3.813717e-001 1.018835e+000 7.363107e-001 7.369080e-001 4.833424e-001 4.352612e-001 2.943618e-001
<GCONST> 1.238272e+002
~s "ST_uh_4_1"
<MEAN> 39
 2.728477e+000 -2.390432e+000 -1.137321e+001 1.951150e+000 -1.389265e+000 -1.205693e+001 1.096422e+000 2.951333e+000 -4.116491e+000 -5.953640e+000 2.090696e+000 6.674272e-001 7.625194e+001 1.914059e-002 5.708739e-001 1.809320e-001 2.319006e-001 -2.016571e-001 -4.017602e-001 -4.417983e-001 1.139604e-001 1.638570e-001 3.399534e-002 -3.185306e-001 -3.829553e-001 -3.840249e-001 -6.309047e-001 4.792085e-001 5.762990e-001 -9.729105e-002 1.333247e-001 4.396544e-001 9.154836e-003 -1.401194e-001 6.366255e-002 2.718349e-001 1.173481e-002 6.650721e-002 -5.263961e-001
<VARIANCE> 39
 9.437038e+000 2.063600e+001 3.606998e+001 4.014016e+001 8.001788e+001 1.982454e+001 5.902246e+001 7.179067e+001 6.613798e+001 3.113420e+001 1.964225e+001 2.026696e+001 1.181592e+001 6.934258e-001 1.665654e+000 1.571810e+000 5.592028e-001 1.395049e+000 1.426360e+000 1.054896e+000 1.857796e+000 1.869943e+000 1.958569e+000 1.948648e+000 1.278418e+000 5.376126e-001 3.139560e-001 3.528096e-001 3.992697e-001 1.629758e-001 2.620218e-001 4.120212e-001 2.834725e-001 4.391902e-001 4.274316e-001 4.848000e-001 1.995799e-001 3.207221e-001 2.021555e-001
<GCONST> 1.038365e+002
~s "ST_l_2_1"
<MEAN> 39
 -1.377752e+001 3.369886e+000 -1.311317e+000 4.167729e+000 1.960105e+000 -6.477977e-002 5.373332e+000 5.800100e+000 4.555973e+000 2.389455e+000 3.970640e+000 3.111278e+000 6.228055e+001 4.208996e-001 1.010919e-004 2.306789e-001 1.727949e-001 8.276787e-002 -2.253891e-001 -4.871064e-001 -5.959815e-001 -5.993251e-001 -6.855858e-001 -1.820518e-001 -1.782596e-001 4.263686e-001 1.716857e-001 8.630228e-002 5.817029e-002 1.020304e-001 1.562724e-001 -4.040627e-002 -2.593233e-001 -1.899884e-002 -1.137034e-001 -1.771086e-001 -1.362492e-001 -1.708354e-001 9.037162e-002
<VARIANCE> 39
 7.454846e+001 1.591006e+001 2.476572e+001 1.659155e+001 3.101398e+001 1.117332e+002 3.271504e+001 2.695217e+001 2.517847e+001 3.704522e+001 1.575494e+001 2.318845e+001 4.346533e+001 3.638574e+000 2.459652e+000 1.737497e+000 1.083481e+000 1.435190e+000 4.672747e+000 3.176022e+000 2.115648e+000 3.338804e+000 5.250709e+000 2.984679e+000 3.364891e+000 2.946835e+000 3.231981e-001 3.446720e-001 2.782547e-001 2.149851e-001 2.154713e-001 6.456107e-001 5.744870e-001 3.902690e-001 3.766522e-001 6.591235e-001 2.686206e-001 4.081748e-001 2.880625e-001
<GCONST> 1.157741e+002
~s "ST_l_3_1"
<MEAN> 39
 -2.099953e+000 1.973501e+000 -2.964278e+000 9.629551e+000 7.508994e+000 -7.591347e+000 -5.315038e+000 5.173121e+000 -1.685019e+000 -8.981726e+000 -1.229271e+000 -3.653031e+000 7.074210e+001 -4.167430e-001 5.071856e-001 6.474681e-001 8.654680e-001 9.937143e-001 6.016567e-001 -8.854921e-001 -4.913479e-001 3.783338e-001 3.721203e-001 -2.533998e-001 -4.522272e-001 -5.458585e-001 -4.770114e-001 1.045650e-001 2.122651e-001 -1.552034e-001 -2.183408e-001 2.808454e-001 4.486766e-001 -1.350383e-001 2.973459e-001 5.600615e-001 2.044349e-001 2.195881e-001 -3.246750e-001
<VARIANCE> 39
 1.790812e+001 1.253941e+001 1.574157e+001 4.216648e+001 6.090440e+001 3.038622e+001 2.166808e+001 4.371901e+001 7.945888e+001 7.765376e+001 4.381323e+001 5.603040e+001 1.286670e+001 2.683773e+000 1.829712e+000 1.827360e+000 2.649419e+000 2.705216e+000 3.276762e+000 3.224815e+000 2.330326e+000 2.459160e+000 5.896951e+000 2.856761e+000 2.573847e+000 1.637167e+000 2.131590e-001 3.540176e-001 2.480219e-001 3.722943e-001 4.603466e-001 4.056644e-001 3.109018e-001 3.876116e-001 4.480005e-001 6.269050e-001 5.766013e-001 4.491437e-001 1.693237e-001
<GCONST> 1.164266e+002
~s "ST_l_4_1"
<MEAN> 39
 -7.600554e+000 1.033214e+000 2.119439e+000 1.215100e+001 7.720153e+000 -4.265686e+000 -4.966550e+000 6.133730e-001 -1.457669e+000 -6.127440e+000 3.911948e-001 -1.317510e+000 6.824171e+001 -5.185320e-001 4.000434e-001 3.015895e-001 -3.159371e-001 -3.994790e-001 5.962080e-001 7.320216e-001 2.503956e-001 2.789917e-001 3.016424e-001 -8.136000e-002 7.636078e-002 -5.237504e-001 2.840739e-002 -1.658634e-001 -1.789086e-001 -5.114725e-002 3.275764e-002 2.560654e-004 1.136606e-001 1.286197e-001 -1.923460e-002 -4.482479e-002 7.948247e-002 7.208005e-002 6.982226e-002
<VARIANCE> 39
 4.427745e+001 7.155623e+001 5.688897e+001 4.406804e+001 5.732667e+001 5.569022e+001 5.548687e+001 4.671102e+001 5.770341e+001 6.118979e+001 2.565197e+001 1.308903e+001 3.179443e+001 3.793471e+000 6.180161e+000 4.164675e+000 2.027862e+000 2.525532e+000 3.392710e+000 4.061897e+000 3.529777e+000 3.568184e+000 4.243660e+000 2.398447e+000 1.527649e+000 2.275853e+000 4.141067e-001 1.244283e+000 5.389560e-001 3.446370e-001 3.899195e-001 5.146995e-001 7.300875e-001 7.264048e-001 6.202475e-001 7.033054e-001 4.313495e-001 2.436220e-001 2.887282e-001
<GCONST> 1.269648e+002
~s "ST_b_2_1"
<MEAN> 39
 -2.312266e+001 -6.116787e+000 1.161734e+001 -2.621533e+000 1.493179e+000 -9.273346e-001 1.302317e+001 -1.531914e+000 -5.052559e-001 9.219255e+000 9.098087e+000 -7.468091e-001 6.931231e+001 1.385465e+000 4.497280e-001 -5.254236e-001 2.239548e-001 6.720755e-002 -7.923014e-001 -6.113937e-001 -3.440653e-001 -1.260217e+000 -7.195944e-001 -6.322124e-001 1.064233e-001 5.559224e-001 4.885634e-001 4.558007e-001 -4.768192e-001 3.597750e-001 2.402782e-001 7.004276e-002 -5.408834e-001 1.329999e-001 2.246466e-002 -2.702946e-001 -3.522700e-001 8.195261e-002 -2.722234e-001
<VARIANCE> 39
 7.910083e+001 1.717951e+001 5.832951e+001 3.016928e+001 2.181016e+001 2.047416e+001 4.991415e+001 2.208152e+001 4.532845e+001 7.271257e+001 2.630750e+001 8.933623e+000 1.145557e+001 1.030734e+001 3.484935e+000 5.556376e+000 4.830116e+000 2.621977e+000 1.201241e+000 6.592121e+000 2.465365e+000 2.698809e+000 5.957552e+000 4.073452e+000 8.224823e-001 8.438737e-001 8.996134e-001 3.896697e-001 4.140786e-001 5.815474e-001 8.350832e-001 5.232401e-001 4.737940e-001 5.673233e-001 6.936218e-001 1.209979e+000 4.911150e-001 1.739303e-001 2.375627e-001
<GCONST> 1.214067e+002
~s "ST_b_3_1"
<MEAN> 39
 -1.115311e+000 2.682859e+000 -4.146795e+000 5.355958e+000 4.681434e+000 -9.685720e+000 -2.643819e+000 9.343898e-001 -7.905993e+000 -4.306950e+000 1.681350e+000 1.099963e+000 7.228188e+001 1.705047e+000 1.190544e+000 -1.711159e+000 1.136077e+000 2.735348e+000 1.870989e-001 -3.453932e+000 2.318960e-001 2.142060e+000 -1.425195e+000 -2.637295e+000 -1.023263e+000 4.374314e-002 -1.597489e+000 -2.067235e-001 1.093264e+000 -4.081099e-001 1.619875e-001 1.308311e+000 8.314357e-001 -3.799804e-001 1.270366e+000 1.297373e+000 -1.566998e-001 -6.308593e-001 -5.646719e-001
<VARIANCE> 39
 8.470896e+000 8.845240e+000 4.414886e+001 5.296169e+001 5.159138e+000 7.837769e+000 3.154775e+001 2.008851e+001 5.809428e+001 1.627173e+001 2.371861e+001 6.140083e+000 9.893555e+000 4.222565e+000 9.805585e-001 2.213269e+000 9.586775e-001 1.612439e+000 3.850939e+000 5.733792e+000 1.533195e+000 6.404027e+000 2.917374e+000 2.035034e+000 2.438437e+000 3.474240e-001 3.283834e-001 4.779803e-001 1.750603e-001 3.983965e-001 2.658904e-001 1.801170e-001 6.081617e-001 3.990740e-001 1.335127e+000 2.701154e-001 8.221970e-001 2.612686e-001 7.993954e-002
<GCONST> 1.036181e+002
~s "ST_b_4_1"
<MEAN> 39
 -1.889365e+000 2.955721e+000 -2.276662e+000 1.016639e+001 1.497844e+001 -3.907916e+000 -1.083272e+001 -5.116520e+000 3.589856e+000 -3.735873e+000 -5.421940e+000 -6.859467e+000 7.128326e+001 -2.284402e-001 -2.914664e-001 6.082428e-001 8.840379e-001 7.398161e-001 3.067327e-001 -4.796024e-001 -4.820008e-001 8.698497e-001 -2.319937e-001 -6.231303e-001 -2.835824e-001 4.132478e-002 -1.460714e-001 -1.893961e-002 1.453784e-001 -1.807708e-001 -3.377726e-001 6.676444e-002 4.337169e-001 -1.132301e-001 -3.751324e-001 1.680951e-001 2.522113e-001 1.903031e-001 -5.172941e-002
<VARIANCE> 39
 4.395787e+000 4.477710e+001 2.193271e+001 5.607504e+001 2.726331e+001 2.161657e+001 4.717550e+001 2.843442e+001 1.744958e+001 4.765471e+001 1.956125e+001 1.708844e+001 1.719971e+001 4.390860e-001 5.406750e+000 8.616949e-001 3.466091e+000 3.330325e+000 4.193874e+000 4.430531e+000 1.127049e+000 2.385853e+000 6.632452e+000 4.338585e+000 3.490152e+000 1.956731e+000 1.836157e-001 1.072567e+000 3.278750e-001 8.894613e-001 8.000786e-001 8.764848e-001 1.356876e+000 2.508321e-001 8.110062e-001 1.370799e+000 7.625831e-001 2.990167e-001 4.034339e-001
<GCONST> 1.188188e+002
~s "ST_hh_2_1"
<MEAN> 39
 2.663136e+000 -1.142294e+000 -1.286114e+001 -2.557205e+000 -4.233209e+000 -1.034339e+001 3.134863e+000 1.024700e+001 2.400009e-001 -2.113708e+000 1.388474e+000 -1.534668e+000 7.404953e+001 -7.389517e-001 7.892253e-001 8.203405e-001 9.983205e-001 1.338459e+000 6.776270e-001 -1.286081e+000 -4.862664e-001 1.450185e+000 1.057596e+000 -1.755272e+000 -1.414855e+000 -1.058092e+000 -3.259426e-001 8.172531e-002 3.841091e-001 4.821351e-001 4.257307e-001 5.549242e-001 2.286576e-001 -9.437315e-004 -2.545362e-001 -3.780024e-001 1.278450e-002 -2.985078e-001 -1.775465e-001
<VARIANCE> 39
 1.821478e+000 5.264167e+000 8.603088e+000 2.609029e+001 3.657198e+001 1.496741e+001 2.045095e+001 1.132529e+001 9.103765e+000 5.959842e+000 1.700862e+001 1.043218e+001 3.142578e+000 2.685151e-001 3.332747e-001 2.648658e-001 1.146600e+000 4.650121e+000 8.535369e-001 1.897010e+000 9.484041e-001 2.331090e-001 1.237261e+000 6.393278e-001 7.529640e-001 2.509773e-002 1.879651e-002 1.523705e-001 1.702381e-001 8.316451e-002 2.131189e-001 1.151361e-001 3.576378e-001 1.464382e-001 5.371896e-002 1.917443e-001 1.968416e-001 9.259105e-002 4.644432e-002
<GCONST> 6.570020e+001
~s "ST_ow_2_1"
<MEAN> 39
 3.500109e-001 1.640920e+000 -5.023059e+000 4.104494e+000 2.047967e+000 -1.070549e+001 -1.934493e+000 9.787372e-001 -3.830529e+000 -1.020093e+001 1.140673e+000 2.645232e+000 7.505106e+001 1.787293e+000 -1.621598e+000 -2.848762e+000 -2.448053e+000 -2.969108e+000 -3.968554e+000 2.524682e+000 2.954459e+000 -1.168475e+000 -1.997994e+000 3.180841e+000 3.352915e+000 2.220556e+000 -1.181683e-001 4.458653e-001 1.414100e-001 1.044457e-001 -2.544707e-001 -2.307574e-002 -5.048881e-002 8.224887e-001 5.496554e-001 6.557896e-001 -2.931219e-001 -8.420173e-001 -4.710175e-001
<VARIANCE> 39
 9.318118e+000 1.972447e+001 4.876171e+001 1.833222e+001 4.866053e+001 4.068902e+001 2.998045e+001 4.016340e+001 3.705597e+001 1.701024e+001 3.701287e+001 3.102927e+001 9.416016e+000 3.458304e-001 1.100909e+000 5.590639e-001 2.261605e-001 4.633131e-001 1.267013e+000 3.444324e-001 5.906475e+000 5.156567e+000 3.148615e+000 2.845268e+000 2.698054e+000 8.180032e-001 1.811451e-001 1.172494e-001 4.936891e-001 1.217804e-001 2.455851e-001 8.631755e-001 4.385845e-001 6.970282e-001 8.200400e-001 6.194960e-001 7.302768e-001 9.033905e-001 2.345447e-001
<GCONST> 1.039312e+002
~s "ST_hh_3_1"
<MEAN> 39
 3.657688e-002 -1.357370e+000 -9.741895e+000 5.081872e+000 2.430066e+000 -8.590515e+000 1.462354e+000 1.249763e+001 2.847461e+000 -3.432967e+000 -2.670425e+000 -9.137986e+000 7.194542e+001 -8.699985e-001 7.588384e-001 1.123915e+000 9.796681e-001 4.810276e-001 1.458754e+000 2.583458e-001 -5.725398e-001 3.062803e-001 2.212041e-001 -1.695271e-001 -1.256477e+000 -9.266713e-001 -1.269386e-001 2.610578e-001 2.412830e-001 -1.035743e-001 -1.389192e-001 2.936892e-001 1.131312e-001 -2.997776e-001 -2.381093e-001 -6.101858e-002 2.790225e-001 2.181391e-001 -1.284668e-001
<VARIANCE> 39
 2.056108e+000 5.334963e+000 7.753143e+000 8.273843e+001 5.111327e+000 6.055008e+000 4.463999e+000 2.192073e+001 3.946431e+000 1.659644e+001 2.598432e+000 2.688029e+001 1.681641e+000 1.939621e-001 1.709628e+000 1.245695e+000 9.869624e-001 2.835983e+000 1.012059e+000 5.215320e-001 1.209500e+000 1.655918e-001 5.590569e-001 1.744937e+000 1.641544e+000 6.712548e-001 9.397490e-002 9.604973e-002 1.945576e-001 2.642087e-001 5.047339e-001 3.057750e-001 1.081152e-001 9.283164e-002 5.760115e-002 1.397605e-001 1.978837e-001 2.148246e-001 8.816478e-002
<GCONST> 7.091595e+001
~s "ST_ow_3_1"
<MEAN> 39
 3.925192e+000 7.354097e-001 -1.158116e+001 -1.327467e+000 -4.544013e+000 -1.868148e+001 2.630479e+000 1.166262e+001 -1.350194e+000 -1.194343e+001 4.308335e+000 3.584777e+000 7.797893e+001 7.581947e-001 1.380422e-001 -7.882223e-001 -1.093191e+000 -2.133308e+000 -1.697340e+000 1.240781e-001 2.697901e+000 1.322396e+000 1.164055e+000 2.671334e-001 -1.127523e+000 2.502279e-001 -3.957326e-001 3.123329e-001 7.504569e-001 5.851519e-001 5.004978e-001 7.265496e-001 -9.935072e-001 -5.887255e-001 1.717227e-001 9.551118e-001 -5.679845e-001 -7.385532e-001 -4.811485e-001
<VARIANCE> 39
 1.173586e+000 1.384201e+001 4.302948e+000 2.345465e+001 3.456445e+001 1.158508e+001 9.397242e+000 6.455750e+000 3.544783e+001 1.373096e+001 2.606344e+001 2.507037e+001 1.053223e+000 3.308325e-001 2.122172e-001 1.454565e+000 4.773684e-001 1.150989e+000 1.002688e+000 3.930055e+000 1.245542e+000 1.267279e+000 2.542087e+000 1.081043e+000 3.915680e+000 1.796924e-001 4.907750e-002 1.461148e-001 1.352108e-001 3.517860e-002 4.182637e-002 5.321730e-001 1.418242e-001 3.935584e-001 5.348724e-001 2.988519e-001 2.907223e-001 8.154717e-001 5.979244e-002
<GCONST> 7.843937e+001
~s "ST_hh_4_1"
<MEAN> 39
 -3.663191e+000 2.762782e+000 -6.852729e+000 3.846294e+000 2.594018e+000 -9.815713e-001 3.161717e+000 7.290168e+000 2.466450e+000 -1.470955e+000 -2.686191e+000 -7.817700e+000 6.786806e+001 -1.515108e+000 1.461685e+000 1.915808e+000 7.632213e-001 8.754497e-001 1.920525e+000 1.767505e-001 -9.547656e-001 -2.259165e-001 1.970349e-001 -2.662567e-001 -5.750185e-001 -1.511810e+000 -2.144901e-001 -1.656155e-002 1.501658e-001 -2.666859e-002 3.791847e-002 5.011187e-003 1.496553e-001 8.052613e-002 -8.501373e-002 -5.301353e-002 1.104762e-001 2.783372e-001 -6.243623e-002
<VARIANCE> 39
 4.811984e+000 1.165579e+001 9.208794e+000 2.973939e+001 9.521868e+000 1.760341e+001 8.416134e+000 1.388863e+001 7.390384e+000 7.996278e+000 4.978497e+000 9.787186e+000 2.339355e+000 4.173086e-001 1.246834e+000 1.773813e+000 1.605097e+000 1.021326e+000 3.549180e+000 3.712729e-001 1.094472e+000 6.777176e-001 5.323774e-001 1.016266e+000 2.497457e+000 6.603734e-001 7.382824e-002 1.605180e-001 8.604145e-002 1.195804e-001 3.911711e-001 4.819049e-001 1.041492e-001 1.340877e-001 1.563105e-001 2.825428e-001 2.992228e-001 9.677976e-002 6.949738e-002
<GCONST> 7.601215e+001
~s "ST_ow_4_1"
<MEAN> 39
 4.066884e+000 1.036089e+000 -7.086612e+000 1.881811e+000 -1.178147e+001 -2.575253e+001 -4.053475e+000 1.867072e+001 1.307414e+000 -5.370039e+000 4.250093e+000 -4.126397e-001 7.581502e+001 -1.400350e-001 2.386585e-001 4.083821e-001 2.805536e-001 -3.498734e-001 -4.159631e-001 -4.281177e-001 1.316922e-001 2.864732e-001 2.782086e-001 -3.287969e-001 -1.508332e-002 -4.110177e-001 -1.018039e-001 1.218325e-001 7.352626e-002 -2.055352e-002 1.143692e-001 2.466367e-001 9.887379e-002 -2.884822e-001 -7.415272e-002 -8.421471e-002 -2.461274e-002 5.278865e-002 -8.586781e-002
<VARIANCE> 39
 2.223171e+000 6.468806e+000 1.996207e+001 2.882194e+001 2.026189e+001 2.697296e+001 3.019007e+001 1.303003e+001 2.118918e+001 1.561327e+001 1.578109e+001 6.873395e+000 3.313477e+000 1.059853e-001 3.985471e-001 4.473867e-001 4.094293e-001 7.072188e-001 1.008973e+000 1.289658e+000 1.004762e+000 4.100911e-001 1.796590e+000 6.619226e-001 7.389698e-001 1.165673e-001 1.195476e-002 4.043546e-002 8.116089e-002 6.730136e-002 3.585754e-002 8.682809e-002 1.941736e-001 9.429149e-002 7.031342e-002 2.094526e-001 1.300963e-001 2.010062e-001 1.075509e-002
<GCONST> 6.154133e+001
~s "ST_jh_2_1"
<MEAN> 39
 -2.520758e-001 1.266409e+000 -4.548917e+000 1.183785e+001 8.395643e+000 -6.468585e+000 -6.565433e+000 -2.457831e+000 -2.323199e+000 -1.938369e+000 -2.156547e+000 -5.551006e+000 7.152479e+001 2.155425e-001 -3.332082e-001 -2.801040e-001 -3.748943e-001 -1.049729e-001 -1.607956e-001 1.797285e-001 2.463737e-001 -4.387476e-001 -2.026562e-001 2.407304e-002 -4.661107e-003 3.217082e-001 -4.446669e-005 -4.450295e-003 -1.882657e-001 -4.478375e-001 -2.170094e-001 -2.925907e-002 4.143682e-001 2.650170e-001 -2.893957e-001 -1.974623e-001 2.251350e-001 2.439714e-001 8.432636e-002
<VARIANCE> 39
 7.076837e-001 3.615264e+000 2.593742e+000 5.707886e+000 4.703625e+001 4.711567e+000 3.696728e+001 2.741694e+001 1.895555e+001 2.690064e+001 2.204090e+001 5.570902e+000 1.181641e+000 3.337733e-001 4.557058e-001 7.167124e-001 6.255732e-001 1.245693e+000 1.210537e+000 8.097408e-001 2.148076e+000 5.755923e-001 5.061288e-001 1.789604e+000 1.683217e-001 2.007993e-001 3.278613e-002 5.465306e-002 1.049321e-001 1.371769e-001 2.275922e-001 2.244205e-001 1.584736e-001 1.455828e-001 9.638193e-002 1.163474e-001 3.536092e-001 1.598064e-001 5.335784e-002
<GCONST> 6.548184e+001
~s "ST_jh_3_1"
<MEAN> 39
 1.765939e-001 -9.443393e-002 -7.246851e+000 4.440781e+000 5.727959e+000 -8.252890e+000 -6.932147e-001 5.417208e-001 -6.681994e+000 -3.857417e+000 3.929076e-001 -4.304697e+000 7.449776e+001 7.722321e-001 -1.105181e+000 -2.347970e+000 -3.590637e+000 -2.410316e+000 -2.149267e+000 3.134092e+000 3.335874e+000 -1.796160e+000 -2.868490e-001 2.953481e+000 2.295440e+000 1.715972e+000 6.909544e-002 -1.050247e-001 -2.414626e-001 -7.030953e-002 -1.560318e-001 3.596788e-002 4.643062e-002 3.391007e-001 5.386879e-001 -1.128530e-001 2.640584e-002 4.962018e-001 -9.061949e-003
<VARIANCE> 39
 7.212211e-001 1.480098e+001 4.736958e+000 3.057699e+001 6.406102e+001 1.686471e+001 4.434251e+001 4.065794e+001 1.540030e+001 2.871001e+001 6.820671e+001 1.291464e+001 7.916016e+000 3.821546e-001 1.034767e+000 2.971592e-001 2.051331e+000 2.495253e+000 4.369397e-001 1.843319e-001 4.087587e+000 2.629132e-001 8.063661e-001 3.250613e+000 7.155619e-001 9.153008e-002 7.350337e-002 1.322980e-001 2.154519e-001 4.904915e-001 4.765588e-001 7.360529e-001 3.197681e-001 5.956410e-001 2.160238e-001 1.540699e-001 9.616904e-001 1.927901e-001 1.357513e-001
<GCONST> 8.705566e+001
~s "ST_jh_4_1"
<MEAN> 39
 3.095800e+000 -4.719555e+000 -1.300872e+001 1.216699e+000 -5.829110e+000 -1.183593e+001 5.525786e+000 1.047777e+001 -9.860826e+000 -7.965816e+000 1.214839e+001 2.967330e+000 7.746686e+001 4.069637e-001 -3.522611e-001 -7.701430e-001 -8.890787e-001 -1.156732e+000 -1.382157e-002 1.364933e+000 1.184188e+000 4.187051e-001 -3.520854e-001 -1.788186e-001 4.984888e-001 1.106781e-001 -1.864762e-001 2.922059e-001 4.099950e-001 2.809623e-001 3.398958e-001 2.778737e-001 -3.630421e-001 -4.214869e-001 4.511214e-001 3.402313e-002 -6.235723e-001 -3.821726e-001 -2.818697e-001
<VARIANCE> 39
 1.040425e+000 7.042721e+000 4.408661e+000 2.751881e+001 3.609394e+001 1.560887e+001 1.767192e+001 8.343689e+000 1.033663e+001 1.337833e+001 2.464487e+001 5.199311e+000 1.056641e+000 1.744959e-001 5.405321e-001 1.022061e+000 1.143999e+000 1.162114e+000 9.133003e-001 8.442210e-001 1.725024e+000 7.210495e-001 9.459374e-001 2.972531e+000 1.788506e+000 3.672504e-001 3.630026e-002 7.069179e-002 5.015139e-002 2.232878e-001 2.098812e-001 3.124373e-001 1.291984e-001 3.601820e-001 3.200218e-001 1.911827e-001 6.115040e-001 1.342311e-001 5.569868e-002
<GCONST> 7.371824e+001
~s "ST_n_2_1"
<MEAN> 39
 -1.723070e+001 4.025057e+000 4.274582e+000 5.860298e+000 5.383675e+000 4.910795e+000 5.960699e+000 3.129006e+000 3.791050e+000 3.779631e+000 4.237916e+000 2.443957e+000 6.104968e+001 1.379027e+000 1.304278e-001 1.691884e-001 5.862651e-001 3.950941e-001 -7.483879e-001 -9.302606e-001 -1.000494e+000 -1.028118e+000 -1.181041e+000 -6.498766e-001 -7.469894e-001 1.162646e+000 3.406899e-001 -1.772817e-001 -1.290195e-001 9.763122e-002 1.194990e-001 -4.244724e-001 -3.449450e-001 -1.182614e-001 -2.338101e-001 -3.396554e-001 -1.407524e-001 -7.568574e-002 3.731110e-001
<VARIANCE> 39
 3.753275e+001 3.314598e+001 3.531950e+001 2.868800e+001 8.690144e+000 1.489145e+001 2.252002e+001 1.884155e+001 1.891570e+001 1.326327e+001 1.540276e+001 1.577447e+001 2.144116e+001 3.398837e+000 3.506230e+000 2.424991e+000 2.900273e+000 1.143018e+000 3.070897e+000 3.002731e+000 2.796005e+000 2.598023e+000 2.503986e+000 2.455514e+000 2.522996e+000 2.592595e+000 4.015385e-001 6.660009e-001 4.285815e-001 4.762934e-001 1.877420e-001 4.905990e-001 3.522339e-001 6.543240e-001 4.369470e-001 4.260744e-001 4.414274e-001 4.201422e-001 3.543127e-001
<GCONST> 1.120181e+002
~s "ST_n_3_1"
<MEAN> 39
 -2.966883e+000 1.582031e+000 -6.281931e-001 1.180778e+001 1.038651e+001 -6.049700e+000 -6.619078e+000 -9.441368e-001 -2.820668e+000 -8.002505e+000 -1.967540e+000 -4.185167e+000 7.186688e+001 1.000466e+000 -2.840568e-001 -8.620501e-001 -5.044193e-001 -3.219701e-001 -7.361113e-001 -5.117996e-001 2.077393e-001 -2.042856e-001 -5.155796e-001 -3.250737e-001 -2.281219e-001 7.915253e-001 -1.733338e-001 -4.882938e-002 -1.311132e-001 -2.599131e-001 -2.749172e-001 4.028265e-002 3.296067e-001 2.718597e-001 2.036323e-001 2.427159e-001 3.111749e-001 3.039877e-001 -1.407945e-001
<VARIANCE> 39
 1.608588e+001 2.803725e+001 2.666940e+001 5.311284e+001 3.001972e+001 5.223791e+001 4.520128e+001 4.502301e+001 4.782665e+001 5.501956e+001 2.688173e+001 4.808099e+001 1.931152e+001 1.741119e+000 2.974961e+000 1.733344e+000 3.520273e+000 2.732650e+000 6.468077e+000 4.374213e+000 4.986742e+000 4.263510e+000 5.600715e+000 2.425455e+000 2.857273e+000 2.431905e+000 1.987238e-001 4.879968e-001 3.187549e-001 4.506475e-001 4.076368e-001 1.012847e+000 5.868964e-001 1.024811e+000 7.912610e-001 8.401589e-001 4.891834e-001 6.160280e-001 2.783327e-001
<GCONST> 1.248730e+002
~s "ST_n_4_1"
<MEAN> 39
 2.516694e-001 -8.615467e-001 -1.050728e+001 6.959347e-002 -1.955076e+000 -9.369875e+000 1.931491e+000 8.720126e+000 -1.643571e+000 -4.212601e+000 4.248577e+000 1.828286e+000 7.348679e+001 -4.013186e-001 -2.035819e-001 -9.070349e-002 -2.966428e-001 -6.221043e-001 2.189202e-002 1.066921e+000 7.340724e-001 4.478500e-001 5.692474e-001 4.556142e-001 4.911474e-001 -2.881008e-001 -2.157704e-001 1.352147e-001 2.192660e-001 1.795153e-001 1.750693e-001 2.725589e-001 6.156641e-004 -1.237214e-001 5.056500e-002 5.762652e-002 -1.423574e-001 -1.317242e-001 -2.366237e-001
<VARIANCE> 39
 3.109308e+001 4.218521e+001 4.104836e+001 3.171639e+001 4.444463e+001 6.661557e+001 3.818346e+001 6.110373e+001 3.845979e+001 3.070491e+001 3.948642e+001 1.914019e+001 3.758057e+001 1.732043e+000 1.992665e+000 2.595325e+000 1.812444e+000 2.284277e+000 4.425544e+000 1.480014e+000 4.163366e+000 1.970281e+000 2.258484e+000 3.029885e+000 3.166647e+000 1.730449e+000 8.874060e-002 2.540233e-001 2.410177e-001 2.585530e-001 3.200563e-001 3.367982e-001 3.176474e-001 4.640423e-001 2.711384e-001 3.079647e-001 4.970500e-001 5.253230e-001 1.132598e-001
<GCONST> 1.136119e+002
~s "ST_d_2_1"
<MEAN> 39
 -4.506202e+000 5.077916e+000 -6.277432e+000 -8.642507e-001 -2.900785e+000 -6.346006e+000 3.942366e+000 3.346578e+000 1.876946e+000 -2.391934e+000 -7.353271e-001 8.714018e-001 6.829412e+001 -3.523790e+000 2.354565e+000 2.638406e+000 -4.016788e-001 5.780442e-001 2.990626e+000 1.120622e-001 2.835704e-001 1.258601e+000 1.556406e+000 4.684941e-001 2.271110e-001 -3.404743e+000 -1.959946e-002 -5.973317e-001 -3.180027e-001 2.638924e-002 -1.000015e-001 7.117846e-002 1.014762e-001 3.584024e-001 3.579886e-001 4.710660e-001 4.347313e-001 2.682076e-001 7.314039e-002
<VARIANCE> 39
 4.376282e+001 2.211002e+001 2.626344e+001 1.921265e+001 2.998317e+001 5.912572e+001 8.472550e+000 1.677643e+001 3.564672e+001 2.273971e+001 1.710036e+001 4.207581e+001 3.325586e+001 1.743933e+000 1.545781e+000 5.776463e-001 1.404192e+000 1.411808e+000 7.502451e-001 8.772104e-001 1.712848e+000 3.064845e+000 2.849615e+000 2.005140e+000 1.398809e+000 1.235158e+000 7.238283e-001 3.399535e-001 2.888967e-001 2.559376e-001 2.015080e-001 5.571204e-001 1.690422e-001 1.938400e-001 5.016630e-001 4.815513e-001 2.245141e-001 1.516870e-001 5.118663e-001
<GCONST> 1.035683e+002
~s "ST_d_3_1"
<MEAN> 39
 -1.269497e+001 8.048976e+000 7.187249e-001 2.896962e+000 2.040547e+000 3.721576e+000 4.190844e+000 4.586585e+000 4.696360e+000 2.081255e+000 1.200611e+000 -1.069048e+000 6.056322e+001 -1.375511e+000 -4.125789e-001 4.680265e-001 7.210490e-001 6.380158e-001 8.562214e-001 2.175851e-001 1.807949e-001 4.558668e-001 7.545062e-001 9.506002e-001 9.083529e-001 -8.934189e-001 2.572797e-001 -2.701162e-001 -3.011788e-001 -5.269508e-002 -4.438333e-002 -3.580462e-001 6.928960e-002 1.470521e-002 -9.177530e-002 -1.113221e-001 -2.172353e-002 1.313740e-001 3.129938e-001
<VARIANCE> 39
 1.033281e+001 8.629791e+000 1.479839e+001 3.033505e+001 3.410871e+001 1.604039e+001 3.430588e+000 5.397619e+000 1.428062e+001 1.859209e+001 3.028279e+001 5.706246e+001 3.782715e+000 5.862643e-001 3.165025e-001 7.324409e-001 8.915682e-001 7.728925e-001 7.529493e-001 4.579185e-001 6.273504e-001 7.117196e-001 1.470950e+000 9.433696e-001 1.176186e+000 2.923027e-001 1.803648e-001 1.008867e-001 1.386200e-001 1.827407e-001 2.128456e-001 1.923778e-001 6.072430e-002 1.441095e-001 1.784530e-001 3.004948e-001 2.485677e-001 2.428922e-001 1.338656e-001
<GCONST> 7.752521e+001
~s "ST_d_4_1"
<MEAN> 39
 -1.938722e+001 4.275236e+000 6.063687e-001 5.863259e+000 4.383871e+000 5.717123e+000 6.084771e+000 5.543492e+000 7.084575e+000 5.714578e+000 6.162286e+000 4.944105e+000 5.768526e+001 -1.741440e-001 -2.412989e-001 -4.125303e-002 6.652234e-002 2.592707e-002 -6.662974e-004 3.847463e-002 -1.848318e-002 4.169511e-002 1.217007e-001 2.084413e-001 1.794818e-001 -3.707150e-002 1.502269e-001 -1.837414e-002 -3.735766e-002 8.633842e-003 -1.711015e-002 -1.207497e-001 -3.982095e-002 -5.667624e-002 -9.848291e-002 -1.329833e-001 -5.184394e-002 -8.203071e-002 1.350642e-001
<VARIANCE> 39
 3.011566e+000 8.831469e+000 1.348191e+001 5.260338e+000 9.850975e+000 5.746387e+000 5.868916e+000 1.164006e+001 8.035172e+000 5.743851e+000 7.493408e+000 8.360668e+000 4.504883e+000 4.872193e-001 1.468519e+000 2.173562e+000 5.236662e-001 1.079780e+000 5.392596e-001 5.840601e-001 1.335164e+000 1.178954e+000 7.702793e-001 7.837777e-001 1.229063e+000 8.145213e-001 1.290250e-001 3.250313e-001 4.536259e-001 8.827212e-002 1.986233e-001 1.784548e-001 1.226603e-001 3.372689e-001 2.803819e-001 2.440093e-001 1.776082e-001 2.034916e-001 2.600364e-001
<GCONST> 7.535699e+001
~s "ST_g_2_1"
<MEAN> 39
 2.740634e+000 -5.199354e-001 -5.803095e+000 2.794553e+000 -9.400004e+000 -2.167520e+001 -4.027170e+000 1.462404e+001 -1.881116e-001 -1.092436e+001 7.623432e-001 -2.859918e+000 7.635471e+001 1.255048e-001 -9.331827e-001 -9.512581e-001 -1.414561e-001 -3.997457e-001 -6.587797e-002 3.952245e-001 2.992449e-001 -2.533270e-002 2.961447e-001 4.815922e-001 8.356641e-001 2.242709e-001 -7.030997e-002 2.103125e-002 3.611614e-002 -6.970633e-004 9.700745e-002 1.689309e-001 8.435142e-002 -6.964605e-002 -2.689198e-002 7.977242e-002 6.773598e-002 2.734250e-002 -6.079905e-002
<VARIANCE> 39
 1.844132e+000 3.699611e+001 2.242707e+001 9.674248e+000 3.873820e+001 2.043915e+001 4.884620e+001 3.006885e+001 1.525732e+001 3.860855e+001 1.498938e+001 1.998020e+001 5.872070e+000 1.510260e-001 5.708428e-001 4.410065e-001 3.815890e-001 3.103241e-001 6.638404e-001 9.149466e-001 5.687110e-001 7.188009e-001 1.008030e+000 6.298834e-001 1.316729e+000 3.438538e-001 2.172163e-002 1.146666e-001 5.720975e-002 6.508739e-002 5.286030e-002 1.082309e-001 1.362544e-001 1.005000e-001 1.132944e-001 1.560714e-001 1.032085e-001 1.191708e-001 2.914349e-002
<GCONST> 6.804251e+001
~s "ST_g_3_1"
<MEAN> 39
 1.005599e+000 -9.613338e-002 -1.137477e+001 -5.151354e-002 -5.472176e+000 -1.396195e+001 -8.854609e-001 7.655373e+000 1.910540e+000 -4.096758e+000 2.498870e+000 3.431565e+000 7.294472e+001 -1.055067e+000 5.370123e-001 3.929802e-001 -4.924361e-001 3.294258e-001 1.453945e+000 8.238003e-001 -5.732754e-001 -1.152674e-001 1.282453e+000 5.974666e-001 2.213109e-001 -1.033059e+000 -3.642571e-001 2.140388e-001 2.701744e-001 -2.970202e-002 1.793467e-001 3.743264e-001 8.983229e-002 1.681969e-002 3.430475e-001 2.039889e-001 -6.929435e-002 -1.018000e-001 -2.777885e-001
<VARIANCE> 39
 5.703830e+000 2.264561e+001 8.832550e+000 1.017201e+001 5.343867e+001 2.084453e+001 4.631966e+001 4.873878e+001 5.155369e+000 3.413236e+001 1.754857e+001 1.610769e+001 8.069824e+000 4.296577e-001 9.765267e-001 6.557055e-001 7.160386e-001 5.371577e-001 8.494232e-001 4.242314e-001 6.693314e-001 6.274762e-001 8.755186e-001 4.416597e-001 1.011756e+000 3.251338e-001 7.412733e-002 1.671612e-001 1.650124e-001 2.453619e-001 2.472650e-001 1.652849e-001 1.732911e-001 1.320305e-001 1.533891e-001 1.341929e-001 1.258097e-001 3.838840e-001 5.042168e-002
<GCONST> 7.800712e+001
~s "ST_g_4_1"
<MEAN> 39
 -8.790840e+000 3.279288e+000 -5.952698e+000 -1.026667e+000 -4.144535e+000 -4.292927e+000 5.336070e+000 8.007360e+000 5.729232e+000 1.614134e+000 4.264616e+000 4.484601e+000 6.499583e+001 -2.561695e+000 1.133408e+000 1.399657e+000 -3.444862e-002 1.202812e+000 2.784967e+000 4.501773e-001 -3.179630e-001 1.359725e+000 1.740383e+000 4.847896e-001 8.577708e-001 -2.202559e+000 7.099475e-002 -2.535739e-001 -2.208164e-002 2.758719e-001 -3.470296e-002 -2.932335e-001 -2.518842e-001 2.157937e-001 -1.839199e-001 -1.846709e-001 8.089559e-002 1.340958e-002 8.135509e-002
<VARIANCE> 39
 2.775315e+001 1.039209e+001 1.483908e+001 1.551610e+001 3.034055e+001 3.869252e+001 1.258575e+001 3.607825e+001 1.546722e+001 2.854983e+001 1.503128e+001 2.475502e+001 1.540039e+001 1.384165e+000 1.074244e+000 1.981849e+000 2.753225e+000 2.763716e+000 1.474903e+000 3.364955e+000 2.104816e+000 1.149936e+000 2.361410e+000 1.506613e+000 8.693480e-001 4.981065e-001 2.353184e-001 1.840642e-001 3.077148e-001 3.328057e-001 2.139990e-001 3.721756e-001 3.233897e-001 1.668702e-001 2.023283e-001 4.038823e-001 2.929229e-001 2.207731e-001 1.072154e-001
<GCONST> 9.839571e+001
~s "ST_t_2_1"
<MEAN> 39
 -2.048332e+001 1.303406e+000 3.503299e+000 2.947116e+000 4.807035e+000 5.676344e+000 6.267684e+000 3.918538e+000 6.831978e+000 5.462022e+000 6.260435e+000 3.843273e+000 6.062691e+001 2.104437e-001 -2.187510e-001 3.724766e-001 -2.677318e-001 1.215932e-001 -2.573739e-001 -7.987098e-002 -5.212207e-001 -2.977068e-001 -2.809758e-001 -1.167506e-001 -3.993524e-001 8.149272e-001 3.119569e-001 3.013992e-002 -1.470478e-001 4.626001e-002 -1.227987e-002 -1.927019e-001 -7.481101e-002 -8.347380e-002 -1.631706e-001 -2.173711e-001 -1.258446e-001 -1.308224e-001 1.985523e-001
<VARIANCE> 39
 1.512592e+001 2.692468e+001 2.210214e+001 2.880715e+001 1.303618e+001 1.226100e+001 1.566517e+001 2.039894e+001 2.112350e+001 1.010157e+001 1.195648e+001 9.955892e+000 2.093530e+001 2.514208e+000 2.152997e+000 2.568914e+000 2.086234e+000 1.624607e+000 1.658943e+000 1.868600e+000 1.829702e+000 2.805393e+000 1.159324e+000 1.683698e+000 1.334384e+000 1.249283e+000 6.025563e-001 3.545152e-001 5.931545e-001 3.686304e-001 3.874302e-001 3.576049e-001 4.352104e-001 4.122618e-001 6.230434e-001 3.252344e-001 3.781798e-001 3.006021e-001 2.615426e-001
<GCONST> 1.040976e+002
~s "ST_t_3_1"
<MEAN> 39
 -1.430585e+001 2.997680e+000 2.906367e+000 3.097387e+000 6.151423e+000 2.019089e+000 3.978870e+000 -5.508121e-001 2.771476e+000 1.031893e+000 2.816761e+000 3.078520e-001 6.610698e+001 4.287601e+000 1.434883e-001 -2.750502e+000 6.953821e-001 -3.244526e-002 -2.558696e+000 -1.648968e+000 -5.779759e-001 -1.398034e+000 -2.683149e+000 -1.981691e+000 -8.156630e-001 2.207506e+000 5.580714e-001 -2.289569e-001 -4.936225e-001 4.349608e-002 -2.240459e-001 -4.944221e-001 -1.025496e-001 6.602542e-001 -6.631455e-002 -3.344125e-001 -2.030915e-001 1.948588e-002 1.909112e-001
<VARIANCE> 39
 4.560774e+001 4.794357e+001 4.736740e+001 7.125896e+001 2.378119e+001 4.153908e+001 3.439044e+001 1.987424e+001 9.934965e+000 1.390489e+001 2.674876e+001 9.975530e+000 3.393652e+001 2.714787e+000 3.438283e+000 4.326180e+000 1.991220e+000 3.398232e+000 3.887266e+000 3.348686e+000 3.650187e+000 5.103750e+000 2.963031e+000 2.668822e+000 2.954072e+000 2.537776e+000 6.243979e-001 5.496207e-001 8.535053e-001 3.766623e-001 5.370013e-001 6.907440e-001 5.727017e-001 4.604302e-001 4.944636e-001 4.089986e-001 4.440162e-001 1.565110e-001 3.607601e-001
<GCONST> 1.203240e+002
~s "ST_t_4_1"
<MEAN> 39
 -3.633329e+000 6.264640e+000 -1.449616e+000 7.529366e+000 5.576455e+000 -2.484372e+000 5.724108e-001 2.636272e+000 -2.452338e+000 -6.312612e+000 -4.169956e+000 -7.692201e+000 6.881632e+001 1.294386e+000 1.539398e-001 -2.459137e-001 -3.076420e-001 -7.269560e-001 -1.267972e+000 -3.206058e-001 7.657028e-001 -4.645522e-001 -1.014915e+000 -4.762556e-001 -4.387513e-001 7.543582e-001 -6.368287e-001 -7.094424e-002 2.642151e-001 -9.821236e-002 -1.566537e-001 2.288404e-001 1.847304e-001 1.142718e-001 4.835332e-001 6.260240e-001 4.626232e-001 3.915429e-001 -3.894652e-001
<VARIANCE> 39
 1.024185e+001 1.832580e+001 2.101649e+001 1.766714e+001 2.186796e+001 3.026696e+001 4.868315e+001 2.131441e+001 3.692353e+001 3.937320e+001 3.802620e+001 3.981161e+001 1.268311e+001 7.073170e+000 1.634363e+000 4.502718e+000 1.042057e+000 2.354533e+000 4.103132e+000 2.531850e+000 3.400697e+000 3.805108e+000 4.383919e+000 2.501212e+000 3.848932e+000 2.777941e+000 2.075447e-001 5.277146e-001 4.553248e-001 2.113973e-001 3.237665e-001 2.615299e-001 3.685727e-001 4.284190e-001 4.854141e-001 5.451318e-001 5.198770e-001 4.338609e-001 2.712961e-001
<GCONST> 1.149382e+002
~s "silst"
<MEAN> 39
 -1.969889e+001 3.989269e+000 6.945069e-001 5.073097e+000 4.432863e+000 5.907226e+000 6.324689e+000 6.767416e+000 7.061875e+000 5.665470e+000 6.300579e+000 5.571005e+000 5.693031e+001 6.812607e-002 -1.458262e-002 -2.175480e-001 -1.573357e-001 -4.856782e-002 1.671312e-001 1.519541e-001 -9.127255e-002 -7.144658e-002 -7.334936e-002 -6.979600e-002 -3.897261e-002 6.048920e-002 6.122036e-002 3.794862e-002 1.834913e-002 4.292776e-002 4.698803e-002 -2.688809e-002 1.260214e-002 -8.857788e-002 7.650502e-002 4.630074e-002 -7.048335e-002 -9.118683e-002 4.357828e-002
<VARIANCE> 39
 7.076837e-001 7.613093e-001 1.352273e+000 1.143703e+000 1.857070e+000 3.611445e+000 5.703906e+000 2.079373e+000 2.303064e+000 4.081470e+000 3.705183e+000 9.715205e+000 5.072046e-001 5.449865e-002 6.739622e-002 1.422256e-001 2.030458e-001 2.520444e-001 2.308857e-001 7.729544e-001 4.636013e-001 3.930879e-001 3.144142e-001 3.852673e-001 8.486361e-001 2.100076e-002 6.033077e-003 1.514668e-002 3.552208e-002 4.771224e-002 5.405807e-002 5.578337e-002 1.480274e-001 5.800654e-002 5.198198e-002 7.091142e-002 9.683250e-002 1.663491e-001 3.770331e-003
<GCONST> 1.936845e+001
~s "ST_iy_2_1"
<MEAN> 39
 -5.153448e+000 6.697545e+000 2.258300e+000 1.205781e+001 1.107305e+001 -2.677440e+000 -7.699426e+000 -2.753870e+000 -4.770531e-001 -3.760852e+000 -4.505391e+000 -8.382397e+000 6.801869e+001 -1.732526e-001 -5.531193e-001 1.230354e-001 4.024341e-001 5.271725e-001 -6.764553e-001 -6.902450e-002 -4.701916e-001 -1.100186e+000 -3.522315e-001 1.024593e+000 3.505487e-001 4.211512e-001 9.081009e-002 -1.206767e-001 -1.653838e-001 -1.669855e-002 -1.986274e-001 -2.885458e-001 2.370550e-002 4.445762e-002 -3.648801e-001 -1.850068e-001 3.685521e-001 2.409055e-001 1.333501e-001
<VARIANCE> 39
 3.928885e+000 5.777127e+001 1.997218e+001 4.525952e+001 2.458160e+001 3.774731e+001 3.460535e+001 1.393417e+001 1.942798e+001 1.256934e+001 2.485976e+001 2.213691e+001 2.188379e+001 1.784573e-001 3.203991e+000 6.995861e-001 3.085345e+000 1.284708e+000 4.962020e+000 1.779027e+000 2.012735e-001 1.489607e+000 1.637832e+000 1.530466e+000 1.083641e+000 1.348418e+000 3.131349e-002 6.741585e-001 1.043431e-001 6.045076e-001 2.891299e-001 9.531185e-001 4.791604e-001 6.362954e-002 2.833093e-001 1.236053e-001 3.275222e-001 2.190674e-001 2.613999e-001
<GCONST> 9.581785e+001
~s "ST_iy_3_1"
<MEAN> 39
 -1.850609e+000 -1.072069e+000 -2.970176e+000 1.217086e+001 9.857283e+000 -1.018702e+001 -6.362685e+000 -3.117239e+000 -8.850442e+000 -1.149232e+001 9.939309e-001 2.085715e-001 7.402528e+001 6.400577e-001 -1.940287e-001 -1.167431e+000 -9.978711e-001 -1.204458e+000 -6.471439e-001 4.248770e-001 9.118478e-001 -3.910191e-001 -5.923038e-001 1.874744e-001 9.416943e-001 3.092349e-001 1.845027e-002 -3.155165e-002 -3.522960e-002 -9.177140e-002 -1.061707e-001 -5.265524e-002 -1.391447e-001 1.923063e-001 4.951060e-001 1.537593e-001 9.458455e-002 8.315814e-002 -2.517042e-003
<VARIANCE> 39
 5.282212e+000 9.003054e+000 1.355681e+001 3.856395e+001 3.862988e+001 2.482668e+001 2.465915e+001 3.720485e+001 2.872777e+001 3.973412e+001 7.323006e+001 1.182127e+001 3.781738e+000 3.362633e-001 1.824541e+000 1.073130e+000 2.607216e+000 1.421081e+000 6.093100e+000 3.526405e+000 3.366700e+000 4.014988e+000 1.504130e+000 3.507758e+000 1.023998e+000 9.361522e-001 7.156686e-002 2.501611e-001 1.595451e-001 4.861590e-001 2.350967e-001 1.372067e+000 6.444712e-001 8.026733e-001 3.141411e-001 4.417526e-001 8.901319e-001 2.504569e-001 1.783236e-001
<GCONST> 1.052338e+002
~s "ST_iy_4_1"
<MEAN> 39
 1.632888e+000 -4.421415e+000 -1.117510e+001 2.564981e+000 -9.479476e-001 -1.427975e+001 -1.819807e+000 3.999791e+000 -3.995928e+000 -6.646773e+000 6.808850e+000 8.301009e+000 7.629611e+001 -2.281669e-001 2.785052e-001 4.585513e-002 -4.820341e-001 -9.052253e-001 6.153101e-001 1.002009e+000 9.710310e-002 2.620218e-001 1.182682e+000 6.155118e-001 -1.796178e-002 -5.031248e-001 -2.089288e-001 2.243087e-001 4.006691e-001 3.770019e-001 3.057902e-001 3.743650e-001 -1.022629e-001 -1.801611e-001 -1.082228e-001 -1.941907e-001 -3.457170e-001 -4.383254e-001 -2.531846e-001
<VARIANCE> 39
 1.279503e+000 1.493257e+001 1.391702e+001 3.274952e+001 2.793909e+001 2.419119e+001 3.495763e+001 3.787276e+001 1.638160e+001 3.874234e+001 5.019260e+001 1.108036e+001 4.457520e+000 3.317409e-001 9.636503e-001 1.402210e+000 3.080392e+000 3.043003e+000 2.103111e+000 4.191879e+000 2.640162e+000 9.142862e-001 2.206228e+000 5.008099e+000 3.192801e+000 6.006094e-001 1.419405e-002 6.514345e-002 1.113901e-001 3.150415e-001 4.133156e-001 4.134238e-001 8.200980e-001 3.918021e-001 2.188504e-001 5.307358e-001 5.959112e-001 2.780595e-001 2.723922e-002
<GCONST> 9.547752e+001
~s "ST_w_2_1"
<MEAN> 39
 -1.431940e+000 6.654120e+000 9.381908e-001 1.009947e+001 -4.121585e+000 -1.882417e+001 -2.811325e+000 7.087945e+000 -6.385691e+000 -1.037015e+001 -9.822962e-001 -5.079977e+000 6.958067e+001 -5.129859e-001 6.899415e-001 8.712438e-001 -1.204685e-002 -7.120357e-001 -2.103717e-001 -3.257254e-001 2.708281e-001 6.194678e-001 7.277542e-001 -2.215425e-001 1.918531e-001 -7.316658e-001 -2.869834e-001 -1.246387e-001 -6.429825e-003 -7.692801e-002 1.424385e-001 3.692159e-001 7.761477e-002 -2.579459e-001 1.103088e-001 9.310509e-002 1.651051e-001 2.891395e-001 -1.003497e-001
<VARIANCE> 39
 2.080573e+000 8.319073e+000 1.359775e+001 9.716194e+000 2.648589e+001 7.059805e+001 4.654212e+000 5.186391e+001 4.270084e+001 7.984413e+000 4.159801e+000 6.025682e+000 1.284180e+000 2.489410e-001 6.046408e-001 5.555705e-001 3.482059e-001 5.375347e-001 7.888827e-001 1.308538e+000 5.263662e-001 7.513406e-001 1.320638e+000 1.414566e-001 4.772463e-001 1.991882e-001 9.869111e-002 1.524314e-001 5.992417e-002 8.418799e-002 6.013895e-002 3.384448e-001 1.253336e-001 1.863370e-001 1.888153e-001 3.418177e-001 8.716920e-002 1.746732e-001 4.794609e-002
<GCONST> 6.555101e+001
~s "ST_w_3_1"
<MEAN> 39
 -5.503946e+000 1.157200e+001 4.078609e+000 5.171037e+000 -5.393810e+000 -1.185536e+001 -3.471352e+000 2.552033e+000 -7.788556e-002 -3.715986e+000 -2.632745e+000 -4.222427e+000 6.486720e+001 -1.881213e+000 9.586751e-001 1.049515e+000 -6.755540e-001 4.124460e-001 2.063465e+000 2.562425e-002 -1.199645e+000 1.044066e+000 1.798436e+000 2.687646e-001 3.054063e-001 -1.506820e+000 -3.071830e-001 -4.168339e-001 -3.273070e-001 1.649991e-002 6.601888e-001 6.153957e-001 2.443734e-001 1.916581e-002 -9.199042e-002 -3.096795e-002 3.036959e-001 3.208637e-001 -7.174696e-002
<VARIANCE> 39
 7.390041e+000 5.185547e+000 3.803076e+000 5.353365e+000 1.147622e+001 3.442130e+001 4.595028e+000 2.748443e+001 3.793654e+001 2.956261e+001 5.874222e+000 6.468483e+000 3.772461e+000 5.449960e-001 3.298320e-001 4.032934e-001 5.733520e-001 2.038751e+000 4.723355e+000 2.742462e-001 6.509972e-001 1.345857e+000 6.937134e-001 6.132234e-001 9.397370e-001 2.406271e-001 5.622432e-002 1.010052e-001 5.922798e-002 4.286595e-002 7.029092e-002 3.404804e-001 7.228972e-002 2.771118e-001 2.834768e-001 3.510967e-001 8.524316e-002 1.040764e-001 2.812998e-002
<GCONST> 6.706591e+001
~s "ST_w_4_1"
<MEAN> 39
 -1.555489e+001 7.503874e+000 2.576213e+000 5.428698e+000 2.516940e+000 7.125058e-001 -3.508867e-001 1.424875e+000 3.270599e+000 1.973168e+000 2.191114e+000 6.212720e-001 5.919890e+001 -1.406682e+000 -1.282623e+000 -1.051585e+000 -9.469581e-002 1.072430e+000 1.885423e+000 1.051723e+000 9.372504e-001 1.884625e+000 1.584611e+000 1.004109e+000 7.730002e-001 -6.582072e-001 3.300448e-001 -8.352340e-002 -1.283933e-001 -4.239250e-003 -3.498192e-001 -4.406362e-001 1.723381e-001 3.443995e-001 1.333095e-002 -9.985949e-002 -2.934085e-002 -4.255898e-002 2.238724e-001
<VARIANCE> 39
 9.193344e+000 2.042093e+001 1.205903e+001 1.283977e+001 1.666622e+001 1.497417e+001 1.605856e+001 1.497635e+001 3.303474e+001 1.660248e+001 4.118047e+000 1.309067e+001 1.864258e+000 1.097369e+000 8.112580e-001 6.373956e-001 8.730429e-001 1.172573e+000 2.132524e+000 1.902982e+000 2.211426e+000 2.499333e+000 1.887911e+000 9.183102e-001 1.741069e+000 5.174545e-001 6.143348e-002 3.069132e-001 2.947455e-001 2.308250e-001 2.914726e-001 2.999532e-001 4.157448e-001 4.856596e-001 6.349577e-001 2.171908e-001 1.796200e-001 3.350580e-001 6.739381e-002
<GCONST> 8.870309e+001
~s "ST_m_2_1"
<MEAN> 39
 -1.753760e+001 1.684409e+000 -3.872418e-001 2.257629e+000 2.409651e+000 4.333714e+000 6.013000e+000 3.767126e+000 7.509059e+000 5.655146e+000 5.136493e+000 5.025655e+000 6.072300e+001 3.664583e-001 -2.728209e-001 4.660053e-001 3.160327e-001 2.524228e-001 -5.464549e-001 -6.942253e-001 -9.058450e-001 -3.787595e-001 -4.860208e-001 -3.254589e-001 -5.100584e-001 7.572916e-001 2.590964e-001 -3.116226e-002 1.938584e-001 3.347207e-001 1.823129e-001 -3.714154e-001 -2.754508e-001 2.476838e-002 -2.920991e-001 -2.839520e-001 -5.401250e-002 -2.460622e-001 2.410005e-001
<VARIANCE> 39
 2.827667e+001 1.857353e+001 1.627748e+001 1.369470e+001 2.330731e+001 2.828958e+001 1.143659e+001 3.120437e+001 1.104834e+001 1.217358e+001 1.369485e+001 8.890335e+000 2.935034e+001 2.288173e+000 2.165216e+000 1.541599e+000 2.831977e+000 2.334896e+000 2.953439e+000 1.465213e+000 2.013539e+000 2.775100e+000 2.054060e+000 2.074479e+000 1.372954e+000 2.327444e+000 4.379707e-001 4.506723e-001 3.019996e-001 7.565825e-001 4.686068e-001 5.028101e-001 3.255674e-001 5.922910e-001 5.285586e-001 3.655710e-001 3.664806e-001 2.163152e-001 4.393991e-001
<GCONST> 1.073267e+002
~s "ST_m_3_1"
<MEAN> 39
 -9.545241e+000 3.403936e-001 4.412743e+000 1.656845e+001 1.057386e+001 -8.440236e+000 -4.112504e+000 8.672537e-001 1.066965e-001 -4.862602e+000 3.018454e-004 -9.173051e-001 6.841782e+001 6.334284e-001 -1.586573e-001 -2.926106e-001 4.247108e-002 1.900537e-001 -5.440462e-001 -5.677180e-001 -3.727498e-001 -6.837995e-001 -4.434714e-001 3.658759e-001 -4.677575e-002 5.724433e-001 -5.306571e-002 1.521300e-002 -1.645579e-001 -3.155925e-001 -2.425391e-001 1.007692e-001 1.894341e-001 7.174410e-002 7.870416e-002 1.524049e-001 1.718636e-001 1.683667e-001 -6.041058e-002
<VARIANCE> 39
 3.042651e+001 3.402945e+001 3.698812e+001 7.573331e+001 4.337244e+001 7.109954e+001 5.576100e+001 3.886509e+001 5.283982e+001 3.700115e+001 1.660348e+001 2.227706e+001 4.235205e+001 4.532270e+000 4.585568e+000 3.033442e+000 6.693902e+000 3.965199e+000 8.811110e+000 5.827621e+000 3.495009e+000 4.468170e+000 3.681606e+000 2.168671e+000 2.152291e+000 5.319408e+000 5.059792e-001 6.636385e-001 2.954947e-001 6.237952e-001 5.550170e-001 1.063946e+000 9.597800e-001 6.417288e-001 7.541431e-001 5.642116e-001 3.258587e-001 3.437499e-001 6.453760e-001
<GCONST> 1.308596e+002
~s "ST_m_4_1"
<MEAN> 39
 -2.828622e+000 -9.933205e-001 -8.793051e+000 1.433995e+000 -2.227795e+000 -9.540356e+000 6.393585e-001 4.593614e+000 -7.953752e-001 -1.500423e+000 6.980563e+000 4.056130e+000 7.144517e+001 -9.028820e-001 5.462907e-001 2.369125e-001 -7.497088e-001 -4.707146e-001 8.484512e-001 1.013386e+000 9.790303e-001 8.811836e-001 1.091737e+000 2.173371e-001 1.452370e-001 -9.598211e-001 -1.795932e-001 -8.034024e-002 1.157745e-001 1.533675e-001 1.744702e-001 1.457167e-001 3.601336e-002 -5.893030e-002 2.337347e-001 1.391285e-001 -1.393825e-001 -2.164643e-002 -8.071711e-002
<VARIANCE> 39
 6.014165e+001 3.299113e+001 3.611980e+001 2.976520e+001 4.936864e+001 6.763130e+001 5.068529e+001 9.469820e+001 5.098315e+001 4.846835e+001 2.399900e+001 2.019160e+001 4.264111e+001 4.011181e+000 1.822216e+000 3.170468e+000 2.092663e+000 3.059836e+000 3.702498e+000 2.594404e+000 3.116124e+000 3.047461e+000 3.830450e+000 2.465520e+000 1.554557e+000 2.722929e+000 4.528226e-001 2.042498e-001 3.649238e-001 2.702441e-001 2.790590e-001 4.638196e-001 5.690780e-001 3.947481e-001 4.901765e-001 5.299677e-001 3.714701e-001 2.853280e-001 2.126170e-001
<GCONST> 1.204143e+002
~s "ST_ah_2_1"
<MEAN> 39
 -1.611256e+001 5.296530e+000 -2.119683e-001 2.796157e+000 2.475284e+000 4.257958e+000 6.454246e+000 6.426768e+000 6.575469e+000 4.722974e+000 4.623141e+000 3.383145e+000 5.905223e+001 -9.169911e-001 -3.438936e-001 1.085804e-001 1.721470e-001 3.842120e-001 5.068680e-001 2.867518e-001 2.131174e-001 2.888002e-001 4.147174e-001 4.898379e-001 4.332784e-001 -5.673020e-001 1.933616e-001 2.360579e-003 -4.473443e-002 4.032369e-002 -5.107808e-002 -2.076872e-001 -1.740828e-001 -1.096008e-001 -1.364434e-001 -1.562748e-001 -6.107051e-002 -6.048327e-002 1.533727e-001
<VARIANCE> 39
 1.128549e+001 5.828119e+000 9.908375e+000 1.502998e+001 1.525241e+001 1.287351e+001 1.587896e+001 1.160264e+001 1.109526e+001 1.554135e+001 1.481019e+001 1.450144e+001 4.729980e+000 1.028157e+000 5.139772e-001 9.407680e-001 1.080485e+000 1.212505e+000 1.441500e+000 1.634907e+000 1.112842e+000 1.314025e+000 1.492658e+000 1.136461e+000 1.305159e+000 5.311813e-001 1.533888e-001 8.257066e-002 1.732482e-001 1.538629e-001 1.915815e-001 3.252050e-001 3.515519e-001 1.954022e-001 2.679180e-001 3.033162e-001 2.176758e-001 2.275032e-001 8.659025e-002
<GCONST> 8.299775e+001
~s "ST_ah_3_1"
<MEAN> 39
 -1.922663e+001 4.360934e+000 8.237292e-001 4.488447e+000 4.286120e+000 5.967341e+000 6.659127e+000 6.312524e+000 7.113234e+000 5.873312e+000 6.123864e+000 4.903839e+000 5.724390e+001 -2.042101e-001 -6.644504e-002 8.823407e-002 1.723946e-001 1.493186e-001 1.643700e-001 2.002305e-002 -3.840271e-002 4.071314e-002 1.754452e-001 1.301253e-001 9.422038e-002 -1.229603e-001 6.369510e-002 2.203845e-002 -1.034939e-002 -1.820363e-002 -3.397166e-002 -5.842758e-002 -1.837059e-002 1.216917e-003 -2.080787e-002 -2.403015e-002 -6.293934e-002 -6.435426e-002 3.901966e-002
<VARIANCE> 39
 1.574860e+000 1.508492e+000 3.308954e+000 4.872175e+000 5.804502e+000 5.471512e+000 5.411850e+000 7.515060e+000 6.445580e+000 6.539001e+000 6.239666e+000 6.569487e+000 6.726074e-001 1.927735e-001 1.706499e-001 4.864987e-001 6.574985e-001 6.093830e-001 6.499214e-001 8.116838e-001 8.266068e-001 9.879323e-001 7.947356e-001 7.061932e-001 7.756296e-001 8.781914e-002 4.967486e-002 3.531186e-002 1.121392e-001 1.350695e-001 1.136054e-001 1.042453e-001 1.669403e-001 1.759014e-001 1.962866e-001 1.442952e-001 1.321116e-001 1.545825e-001 2.355852e-002
<GCONST> 5.068526e+001
~s "ST_ah_4_1"
<MEAN> 39
 -1.982422e+001 4.227455e+000 1.176310e+000 5.233996e+000 4.577603e+000 6.228415e+000 6.596576e+000 6.469124e+000 6.813852e+000 6.181006e+000 6.113801e+000 4.847589e+000 5.682133e+001 -5.429923e-003 -5.180854e-003 -1.207537e-003 1.070854e-003 8.258055e-003 -8.003858e-003 2.789987e-003 -2.580292e-003 -1.575254e-002 -1.598475e-002 -4.385517e-005 -6.839484e-003 -3.955743e-004 2.593897e-002 2.455898e-003 -8.533274e-003 -1.046604e-002 -3.483213e-003 -2.968909e-003 -3.834772e-003 -1.509531e-002 -1.469731e-002 -2.337150e-002 -9.926396e-003 -3.209977e-003 2.082934e-002
<VARIANCE> 39
 7.332764e-001 6.541805e-001 1.285540e+000 2.002113e+000 2.849478e+000 3.761803e+000 3.833752e+000 4.345009e+000 4.909588e+000 4.873409e+000 4.808949e+000 4.408524e+000 5.114746e-001 3.669765e-002 7.631139e-002 1.378554e-001 2.268379e-001 3.131858e-001 3.936175e-001 4.207201e-001 4.803798e-001 5.572803e-001 5.473332e-001 4.978584e-001 4.778550e-001 1.252040e-002 1.207297e-002 1.824973e-002 3.299870e-002 4.906167e-002 6.425380e-002 8.616609e-002 8.876640e-002 1.101746e-001 1.241406e-001 1.123242e-001 1.058750e-001 9.896962e-002 5.141167e-003
<GCONST> 2.382062e+001
~s "ST_p_2_1"
<MEAN> 39
 -1.560763e+001 4.558942e+000 -3.054324e+000 4.856738e-002 -1.202293e-001 3.359008e+000 6.147246e+000 5.958069e+000 7.937773e+000 8.170177e+000 7.130548e+000 6.835469e+000 5.949969e+001 -1.277373e+000 2.066340e-001 9.979030e-001 6.738366e-001 4.807865e-001 5.747932e-001 1.060246e-001 6.200825e-003 1.570888e-001 6.535971e-002 -2.016476e-001 2.607459e-001 -9.300453e-001 3.632098e-001 -1.091048e-001 -1.520853e-001 9.791087e-002 9.565795e-002 -2.725984e-001 -1.111512e-001 1.128639e-001 -2.576625e-001 -4.984815e-001 -1.206982e-001 -2.516177e-001 3.064157e-001
<VARIANCE> 39
 1.295300e+001 1.258522e+000 1.009141e+001 1.330249e+001 7.184172e+000 5.074021e+000 4.854286e+000 1.090224e+001 1.146141e+001 9.659439e+000 1.282475e+001 1.703189e+001 5.213867e+000 1.400434e+000 2.241449e-001 1.093848e+000 1.161176e+000 7.266886e-001 1.017278e+000 1.918698e+000 8.534884e-001 1.962021e+000 1.456257e+000 8.671668e-001 1.249899e+000 7.576021e-001 1.412738e-001 3.321756e-002 1.738823e-001 1.940135e-001 1.884361e-001 3.851321e-001 3.330160e-001 1.170578e-001 3.811944e-001 1.976419e-001 1.200971e-001 1.982280e-001 6.906610e-002
<GCONST> 7.518701e+001
~s "ST_p_3_1"
<MEAN> 39
 -1.878901e+001 4.307376e+000 -1.356615e-001 2.918742e+000 3.952899e+000 6.204260e+000 6.860479e+000 5.767375e+000 7.030276e+000 5.880305e+000 6.180907e+000 5.616663e+000 5.757482e+001 -4.459880e-001 -1.096262e-001 5.422541e-001 5.760787e-001 4.690917e-001 2.903986e-001 6.078179e-002 3.174886e-001 -3.177464e-002 -3.753380e-001 -2.962097e-001 -2.461302e-001 -2.615840e-001 1.184346e-001 7.720522e-003 -1.013226e-001 -1.064627e-001 -1.801102e-001 -2.104295e-001 -8.562788e-002 4.417929e-002 -7.736970e-003 2.364650e-002 3.089936e-002 -3.738539e-003 5.668684e-002
<VARIANCE> 39
 2.360901e+000 7.934780e-001 3.989774e+000 9.883328e+000 2.430307e+000 2.391052e+000 6.641705e+000 6.040993e+000 5.297737e+000 1.224266e+001 4.811749e+000 5.573418e+000 8.627930e-001 1.247890e-001 1.036873e-001 2.638889e-001 4.306703e-001 3.876324e-001 6.607956e-001 6.133115e-001 9.396414e-001 5.179396e-001 1.200636e+000 3.843158e-001 8.415557e-001 5.252714e-002 1.317219e-002 2.062028e-002 2.948001e-002 9.064026e-002 5.245063e-002 6.465591e-002 1.262573e-001 1.396801e-001 6.838900e-002 2.539938e-001 1.084868e-001 1.207557e-001 4.178399e-003
<GCONST> 3.803299e+001
~s "ST_p_4_1"
<MEAN> 39
 -1.985301e+001 4.251580e+000 1.129071e+000 5.052211e+000 4.325272e+000 6.244629e+000 6.671404e+000 6.860047e+000 7.263914e+000 6.368917e+000 6.386348e+000 5.237313e+000 5.679742e+001 5.811487e-003 1.906794e-002 6.982723e-003 1.722184e-003 -8.109528e-003 -1.377452e-002 1.692461e-002 -2.642516e-002 5.969496e-003 2.533399e-002 -1.208329e-002 -5.193904e-002 -1.650132e-003 2.072520e-003 2.658641e-003 -8.193485e-003 -7.289686e-003 6.013286e-003 5.090861e-003 -2.196800e-003 -1.957013e-002 -2.356808e-003 1.291587e-002 1.368549e-003 2.047580e-003 2.656841e-003
<VARIANCE> 39
 7.154541e-001 6.968403e-001 1.364452e+000 1.974321e+000 2.860394e+000 3.597698e+000 3.920311e+000 3.587807e+000 4.294640e+000 4.557259e+000 3.964687e+000 4.042402e+000 5.075684e-001 2.852510e-002 9.089662e-002 1.507297e-001 2.487316e-001 3.388227e-001 3.785798e-001 4.526086e-001 4.588916e-001 4.471576e-001 4.212338e-001 4.353451e-001 4.773246e-001 1.171169e-002 5.812399e-003 1.846701e-002 3.135299e-002 5.066442e-002 7.969636e-002 8.118141e-002 9.787783e-002 9.770027e-002 8.850369e-002 8.967537e-002 9.197599e-002 9.692045e-002 1.412042e-003
<GCONST> 2.007160e+001
~s "ST_ih_2_1"
<MEAN> 39
 -1.117342e+001 6.623238e+000 1.856356e+000 6.014897e+000 3.864114e+000 -1.422593e+000 1.022886e+000 4.594157e+000 5.518374e+000 -4.187965e-001 3.359551e-001 -1.409866e+000 6.339897e+001 1.765451e+000 -4.503662e-001 -9.932228e-001 -1.042702e+000 -1.910739e+000 -2.338728e+000 -7.989246e-001 -6.060169e-002 4.274442e-001 -9.587307e-001 -1.592239e-001 -1.217172e-002 1.815648e+000 1.109550e+000 -4.546061e-001 -8.815697e-001 -2.860397e-001 -5.179473e-001 -1.141852e+000 -4.893210e-001 3.499665e-001 2.561804e-001 -3.223874e-001 -3.891525e-001 -4.249416e-001 9.198109e-001
<VARIANCE> 39
 6.826074e+001 1.201243e+001 2.921364e+000 3.153458e+000 8.446260e+000 7.140822e+001 5.091029e+001 1.940716e+001 4.825146e+001 5.172972e+001 1.378537e+001 2.003405e+001 4.342847e+001 6.957600e+000 1.694478e+000 3.220120e+000 1.063880e+000 3.562501e+000 9.031954e+000 2.247011e+000 2.734771e+000 1.717817e+000 3.650850e+000 2.037444e+000 2.784909e+000 6.152360e+000 7.693435e-001 1.370115e-001 3.055535e-001 1.670746e-001 5.923256e-001 1.282369e+000 4.662001e-001 7.720269e-001 3.919038e-001 7.795232e-001 3.488574e-001 2.993353e-001 6.135671e-001
<GCONST> 1.150384e+002
~s "ST_ih_3_1"
<MEAN> 39
 2.532393e+000 3.155089e-001 -9.446612e+000 9.736347e-002 -6.568061e+000 -1.696173e+001 -2.736155e+000 9.394598e+000 8.502509e+000 -4.880241e+000 -1.551265e+000 -2.693808e+000 7.541607e+001 2.693958e+000 -1.683798e+000 -2.955474e+000 -9.643084e-001 -1.756107e+000 -2.398036e+000 2.390654e-001 1.561744e+000 6.104100e-001 -2.973669e-001 -4.558264e-001 -1.786011e-001 1.936363e+000 -1.044370e+000 2.689826e-001 5.608526e-001 3.691396e-001 7.665086e-001 1.414337e+000 6.550772e-001 -4.711447e-001 -4.046872e-001 5.026615e-001 1.907040e-001 2.894053e-001 -9.191344e-001
<VARIANCE> 39
 1.366691e+001 3.463188e+001 5.979092e+001 1.801286e+001 5.267652e+001 4.271317e+001 2.810632e+001 4.950606e+001 7.244444e+001 3.261005e+001 1.970141e+001 1.183009e+001 7.308594e+000 6.553333e+000 2.665240e+000 5.373529e+000 1.765333e+000 4.361526e+000 1.102640e+001 1.810840e+000 5.338745e+000 3.717366e+000 2.246341e+000 1.369004e+000 8.760720e-001 3.899683e+000 6.408218e-001 3.794693e-001 8.523887e-001 1.586942e-001 3.767780e-001 1.238357e+000 3.507604e-001 5.825399e-001 5.542244e-001 2.378493e-001 2.422662e-001 9.375674e-002 3.911406e-001
<GCONST> 1.173859e+002
~s "ST_ih_4_1"
<MEAN> 39
 2.768015e+000 -1.268532e+000 -1.173281e+001 -3.985486e-001 -8.588058e+000 -1.448723e+001 2.405985e+000 1.177851e+001 3.771555e+000 -3.814892e+000 -6.368784e-001 -2.461722e+000 7.478320e+001 -3.985988e-001 4.231833e-001 2.648519e-001 -2.403792e-001 -7.845005e-002 3.050002e-001 2.033072e-001 -5.903231e-001 -2.115074e-001 3.532795e-001 2.051231e-002 6.018710e-001 -4.408008e-001 -2.166286e-001 1.400590e-001 2.488679e-001 1.311084e-001 1.701367e-001 8.027612e-002 -1.843437e-001 -1.685849e-001 -1.541121e-001 -1.424037e-001 8.659279e-002 1.754818e-001 -1.554665e-001
<VARIANCE> 39
 1.108293e+001 5.330594e+001 6.524876e+001 2.696861e+001 4.184054e+001 2.986040e+001 3.544298e+001 4.334174e+001 3.261465e+001 3.307268e+001 1.469410e+001 1.912692e+001 1.319043e+001 5.698152e-001 4.456658e-001 1.192814e+000 4.301756e-001 1.099453e+000 2.063245e+000 1.052552e+000 1.126273e+000 2.276212e+000 5.544738e-001 5.999151e-001 9.487529e-001 4.157534e-001 1.308994e-001 1.762798e-001 2.847877e-001 9.198020e-002 1.632736e-001 2.041174e-001 1.046869e-001 1.740718e-001 2.483717e-001 2.556072e-001 1.614270e-001 1.624514e-001 9.269369e-002
<GCONST> 8.934924e+001
~h "b"
<BEGINHMM>
<NUMSTATES> 5
<STATE> 2
~s "ST_b_2_1"
<STATE> 3
~s "ST_b_3_1"
<STATE> 4
~s "ST_b_4_1"
~t "T_b"
<ENDHMM>
~h "d"
<BEGINHMM>
<NUMSTATES> 5
<STATE> 2
~s "ST_d_2_1"
<STATE> 3
~s "ST_d_3_1"
<STATE> 4
~s "ST_d_4_1"
~t "T_d"
<ENDHMM>
~h "g"
<BEGINHMM>
<NUMSTATES> 5
<STATE> 2
~s "ST_g_2_1"
<STATE> 3
~s "ST_g_3_1"
<STATE> 4
~s "ST_g_4_1"
~t "T_g"
<ENDHMM>
~h "l"
<BEGINHMM>
<NUMSTATES> 5
<STATE> 2
~s "ST_l_2_1"
<STATE> 3
~s "ST_l_3_1"
<STATE> 4
~s "ST_l_4_1"
~t "T_l"
<ENDHMM>
~h "m"
<BEGINHMM>
<NUMSTATES> 5
<STATE> 2
~s "ST_m_2_1"
<STATE> 3
~s "ST_m_3_1"
<STATE> 4
~s "ST_m_4_1"
~t "T_m"
<ENDHMM>
~h "n"
<BEGINHMM>
<NUMSTATES> 5
<STATE> 2
~s "ST_n_2_1"
<STATE> 3
~s "ST_n_3_1"
<STATE> 4
~s "ST_n_4_1"
~t "T_n"
<ENDHMM>
~h "p"
<BEGINHMM>
<NUMSTATES> 5
<STATE> 2
~s "ST_p_2_1"
<STATE> 3
~s "ST_p_3_1"
<STATE> 4
~s "ST_p_4_1"
~t "T_p"
<ENDHMM>
~h "s"
<BEGINHMM>
<NUMSTATES> 5
<STATE> 2
~s "ST_s_2_1"
<STATE> 3
~s "ST_s_3_1"
<STATE> 4
~s "ST_s_4_1"
~t "T_s"
<ENDHMM>
~h "t"
<BEGINHMM>
<NUMSTATES> 5
<STATE> 2
~s "ST_t_2_1"
<STATE> 3
~s "ST_t_3_1"
<STATE> 4
~s "ST_t_4_1"
~t "T_t"
<ENDHMM>
~h "w"
<BEGINHMM>
<NUMSTATES> 5
<STATE> 2
~s "ST_w_2_1"
<STATE> 3
~s "ST_w_3_1"
<STATE> 4
~s "ST_w_4_1"
~t "T_w"
<ENDHMM>
~h "ah"
<BEGINHMM>
<NUMSTATES> 5
<STATE> 2
~s "ST_ah_2_1"
<STATE> 3
~s "ST_ah_3_1"
<STATE> 4
~s "ST_ah_4_1"
~t "T_ah"
<ENDHMM>
~h "hh"
<BEGINHMM>
<NUMSTATES> 5
<STATE> 2
~s "ST_hh_2_1"
<STATE> 3
~s "ST_hh_3_1"
<STATE> 4
~s "ST_hh_4_1"
~t "T_hh"
<ENDHMM>
~h "ih"
<BEGINHMM>
<NUMSTATES> 5
<STATE> 2
~s "ST_ih_2_1"
<STATE> 3
~s "ST_ih_3_1"
<STATE> 4
~s "ST_ih_4_1"
~t "T_ih"
<ENDHMM>
~h "iy"
<BEGINHMM>
<NUMSTATES> 5
<STATE> 2
~s "ST_iy_2_1"
<STATE> 3
~s "ST_iy_3_1"
<STATE> 4
~s "ST_iy_4_1"
~t "T_iy"
<ENDHMM>
~h "jh"
<BEGINHMM>
<NUMSTATES> 5
<STATE> 2
~s "ST_jh_2_1"
<STATE> 3
~s "ST_jh_3_1"
<STATE> 4
~s "ST_jh_4_1"
~t "T_jh"
<ENDHMM>
~h "ow"
<BEGINHMM>
<NUMSTATES> 5
<STATE> 2
~s "ST_ow_2_1"
<STATE> 3
~s "ST_ow_3_1"
<STATE> 4
~s "ST_ow_4_1"
~t "T_ow"
<ENDHMM>
~h "uh"
<BEGINHMM>
<NUMSTATES> 5
<STATE> 2
~s "ST_uh_2_1"
<STATE> 3
~s "ST_uh_3_1"
<STATE> 4
~s "ST_uh_4_1"
~t "T_uh"
<ENDHMM>
~h "sil"
<BEGINHMM>
<NUMSTATES> 5
<STATE> 2
<MEAN> 39
 -1.906831e+001 4.930587e+000 1.815150e+000 6.368500e+000 5.388433e+000 6.158956e+000 6.046778e+000 6.762179e+000 7.313674e+000 6.646848e+000 6.063171e+000 4.483852e+000 5.714413e+001 -4.199145e-001 -3.071504e-001 1.134057e-002 2.219268e-004 1.777120e-002 -1.206371e-001 -6.405081e-002 2.208719e-001 3.198950e-001 7.200279e-001 4.683426e-001 3.916655e-001 -2.203499e-001 1.054647e-001 5.240037e-002 -5.178880e-002 -1.017897e-001 -1.424838e-001 -1.054283e-002 1.200046e-002 -1.219253e-001 -1.460704e-001 -3.048163e-001 -2.200515e-001 -3.700054e-002 6.096145e-002
<VARIANCE> 39
 1.572547e+000 2.214375e+000 2.355121e+000 3.398902e+000 3.817333e+000 2.752105e+000 2.771474e+000 6.134974e+000 5.729065e+000 7.405567e+000 5.193811e+000 4.005833e+000 5.072046e-001 1.549606e-001 1.894344e-001 4.070421e-001 3.875781e-001 5.658145e-001 3.199785e-001 3.756955e-001 4.788764e-001 9.150743e-001 1.249841e+000 6.479124e-001 2.472032e-001 3.415288e-002 9.006158e-003 9.725777e-003 3.173471e-002 3.245842e-002 9.740157e-002 6.135027e-002 5.067853e-002 1.215576e-001 9.289451e-002 1.358331e-001 1.152925e-001 3.806766e-002 3.251645e-003
<GCONST> 3.046039e+001
<STATE> 3
~s "silst"
<STATE> 4
<MEAN> 39
 -1.952294e+001 3.985315e+000 4.602244e-001 4.924747e+000 5.333805e+000 6.345156e+000 6.610824e+000 5.581656e+000 7.729734e+000 6.844188e+000 5.644055e+000 4.798902e+000 5.712324e+001 2.439182e-001 1.971412e-001 4.476922e-001 5.204541e-001 4.521125e-001 -2.005287e-001 1.468626e-001 -4.254661e-001 -1.043610e-002 -2.419093e-001 -2.310517e-001 -5.108787e-001 2.845943e-001 5.136593e-001 1.951518e-001 2.778302e-001 3.950731e-001 1.457483e-001 -2.454334e-001 -5.338231e-001 -2.208132e-001 -4.693828e-001 -3.845139e-001 -3.577179e-001 -5.136092e-001 3.549958e-001
<VARIANCE> 39
 1.549611e+000 4.228563e-001 2.081554e+000 1.794006e+000 5.558011e+000 2.977394e+000 7.368318e+000 8.221855e+000 4.717156e+000 2.222883e+000 6.041077e+000 7.344063e+000 5.072046e-001 3.311818e-001 3.832502e-001 5.436775e-001 5.996800e-001 5.683311e-001 5.543407e-001 5.958111e-001 8.620190e-001 1.904126e+000 6.540275e-001 6.470727e-001 8.047783e-001 1.895229e-001 1.790924e-001 1.090296e-001 6.583538e-002 1.026015e-001 1.127758e-001 1.566584e-001 2.242912e-001 6.038122e-002 3.931920e-001 1.479137e-001 1.848149e-001 2.985728e-001 9.018780e-002
<GCONST> 5.242442e+001
<TRANSP> 5
 0.000000e+000 1.000000e+000 0.000000e+000 0.000000e+000 0.000000e+000
 0.000000e+000 5.291479e-001 2.942860e-001 1.765661e-001 0.000000e+000
 0.000000e+000 0.000000e+000 8.077459e-001 1.922541e-001 0.000000e+000
 0.000000e+000 0.000000e+000 0.000000e+000 4.028769e-001 5.971231e-001
 0.000000e+000 0.000000e+000 0.000000e+000 0.000000e+000 0.000000e+000
<ENDHMM>
