~o
<STREAMINFO> 1 39
<VECSIZE> 39<NULLD><MFCC_D_A_0><DIAGC>
~s "silst"
<MEAN> 39
 -1.969887e+001 3.989269e+000 6.944358e-001 5.073001e+000 4.432876e+000 5.907321e+000 6.324716e+000 6.767348e+000 7.061757e+000 5.665185e+000 6.300541e+000 5.570967e+000 5.693034e+001 6.814577e-002 -1.458487e-002 -2.175873e-001 -1.573589e-001 -4.853866e-002 1.671648e-001 1.519842e-001 -9.132645e-002 -7.143943e-002 -7.329776e-002 -6.978437e-002 -3.902178e-002 6.051021e-002 6.121707e-002 3.794109e-002 1.836510e-002 4.295123e-002 4.701397e-002 -2.690482e-002 1.257832e-002 -8.859442e-002 7.652166e-002 4.633075e-002 -7.047696e-002 -9.118665e-002 4.357677e-002
<VARIANCE> 39
 7.076837e-001 7.613434e-001 1.352310e+000 1.143623e+000 1.857110e+000 3.611615e+000 5.704264e+000 2.079233e+000 2.302738e+000 4.080832e+000 3.705187e+000 9.715357e+000 5.072046e-001 5.450136e-002 6.738961e-002 1.421908e-001 2.030337e-001 2.520390e-001 2.308766e-001 7.729667e-001 4.636098e-001 3.930538e-001 3.144016e-001 3.852727e-001 8.486983e-001 2.099797e-002 6.033062e-003 1.514760e-002 3.552000e-002 4.770872e-002 5.404363e-002 5.578359e-002 1.480383e-001 5.800500e-002 5.198546e-002 7.090583e-002 9.683396e-002 1.663637e-001 3.770310e-003
<GCONST> 1.936746e+001
~h "b"
<BEGINHMM>
<NUMSTATES> 5
<STATE> 2
<MEAN> 39
 -2.312383e+001 -6.116208e+000 1.161734e+001 -2.623053e+000 1.494234e+000 -9.251724e-001 1.302250e+001 -1.530887e+000 -5.021202e-001 9.217645e+000 9.097535e+000 -7.471989e-001 6.931057e+001 1.384424e+000 4.487602e-001 -5.240848e-001 2.220923e-001 6.754266e-002 -7.927899e-001 -6.106718e-001 -3.443797e-001 -1.259812e+000 -7.210376e-001 -6.311843e-001 1.062036e-001 5.575123e-001 4.884790e-001 4.555728e-001 -4.768474e-001 3.599445e-001 2.403137e-001 6.987035e-002 -5.408008e-001 1.327260e-001 2.246924e-002 -2.703834e-001 -3.521447e-001 8.198660e-002 -2.720209e-001
<VARIANCE> 39
 7.904237e+001 1.719175e+001 5.829502e+001 3.013995e+001 2.180175e+001 2.046748e+001 4.986368e+001 2.207402e+001 4.533241e+001 7.265860e+001 2.628913e+001 8.930771e+000 1.145590e+001 1.030915e+001 3.488719e+000 5.557138e+000 4.838947e+000 2.621655e+000 1.202032e+000 6.593253e+000 2.467303e+000 2.698087e+000 5.960041e+000 4.075324e+000 8.230298e-001 8.494652e-001 8.990396e-001 3.899316e-001 4.138904e-001 5.811031e-001 8.347377e-001 5.226809e-001 4.733185e-001 5.673053e-001 6.934025e-001 1.208808e+000 4.909997e-001 1.738465e-001 2.374932e-001
<GCONST> 1.214080e+002
<STATE> 3
<MEAN> 39
 -1.117500e+000 2.683044e+000 -4.143025e+000 5.359772e+000 4.683170e+000 -9.680882e+000 -2.647973e+000 9.367929e-001 -7.897590e+000 -4.311142e+000 1.678858e+000 1.098357e+000 7.227936e+001 1.705836e+000 1.189667e+000 -1.710340e+000 1.136599e+000 2.733806e+000 1.841284e-001 -3.453970e+000 2.313000e-001 2.140562e+000 -1.425887e+000 -2.637839e+000 -1.024056e+000 4.496805e-002 -1.597126e+000 -2.070156e-001 1.092182e+000 -4.082702e-001 1.615169e-001 1.308237e+000 8.315950e-001 -3.806118e-001 1.269879e+000 1.297753e+000 -1.562989e-001 -6.300075e-001 -5.645603e-001
<VARIANCE> 39
 8.470896e+000 8.838189e+000 4.412991e+001 5.293709e+001 5.158304e+000 7.859474e+000 3.154144e+001 2.007808e+001 5.812787e+001 1.627860e+001 2.370529e+001 6.138126e+000 9.893591e+000 4.219648e+000 9.807893e-001 2.212358e+000 9.581586e-001 1.614453e+000 3.858004e+000 5.728755e+000 1.532574e+000 6.401211e+000 2.915434e+000 2.033567e+000 2.437124e+000 3.488170e-001 3.283041e-001 4.776686e-001 1.763607e-001 3.981129e-001 2.659565e-001 1.800192e-001 6.077095e-001 3.991804e-001 1.334263e+000 2.700802e-001 8.216879e-001 2.619587e-001 7.990100e-002
<GCONST> 1.036262e+002
<STATE> 4
<MEAN> 39
 -1.949309e+000 3.141432e+000 -2.172985e+000 1.018499e+001 1.476986e+001 -3.783762e+000 -1.078044e+001 -4.972744e+000 3.573434e+000 -3.748250e+000 -5.484901e+000 -6.882073e+000 7.112359e+001 -2.420088e-001 -2.336654e-001 6.219134e-001 8.400406e-001 7.348904e-001 3.613654e-001 -4.608869e-001 -4.885215e-001 8.693645e-001 -1.946733e-001 -6.437368e-001 -3.308526e-001 6.323521e-003 -1.471050e-001 -4.821335e-002 1.443960e-001 -1.576264e-001 -3.242303e-001 3.810748e-002 4.289050e-001 -1.066553e-001 -4.023564e-001 1.502176e-001 2.870703e-001 2.064152e-001 -3.671622e-002
<VARIANCE> 39
 4.371584e+000 4.426627e+001 2.157189e+001 5.422814e+001 2.764106e+001 2.134800e+001 4.575544e+001 2.806739e+001 1.711755e+001 4.608122e+001 1.913001e+001 1.660542e+001 1.736189e+001 4.329498e-001 5.324247e+000 8.374982e-001 3.408442e+000 3.220341e+000 4.153010e+000 4.296240e+000 1.091530e+000 2.313942e+000 6.488741e+000 4.254440e+000 3.451086e+000 1.927823e+000 1.788030e-001 1.065526e+000 3.168627e-001 8.794917e-001 7.832727e-001 8.711699e-001 1.312855e+000 2.465199e-001 8.064709e-001 1.337017e+000 7.730139e-001 2.968626e-001 3.964718e-001
<GCONST> 1.181381e+002
<TRANSP> 5
 0.000000e+000 1.000000e+000 0.000000e+000 0.000000e+000 0.000000e+000
 0.000000e+000 8.261585e-001 1.738416e-001 0.000000e+000 0.000000e+000
 0.000000e+000 0.000000e+000 4.290347e-001 5.709653e-001 0.000000e+000
 0.000000e+000 0.000000e+000 0.000000e+000 7.876246e-001 2.123754e-001
 0.000000e+000 0.000000e+000 0.000000e+000 0.000000e+000 0.000000e+000
<ENDHMM>
~h "d"
<BEGINHMM>
<NUMSTATES> 5
<STATE> 2
<MEAN> 39
 -3.709797e+000 4.972393e+000 -6.393775e+000 -7.855552e-001 -2.785975e+000 -6.828083e+000 3.727516e+000 3.193975e+000 1.372306e+000 -2.863488e+000 -8.653299e-001 1.084648e+000 6.891098e+001 -3.753556e+000 2.561971e+000 2.732163e+000 -5.024500e-001 6.076915e-001 2.943162e+000 1.091839e-001 2.880721e-001 1.281360e+000 1.447138e+000 4.489442e-001 9.895289e-002 -3.541778e+000 -1.305073e-001 -5.632555e-001 -2.841311e-001 -4.604123e-002 -1.707279e-001 9.077497e-002 1.500609e-001 3.335929e-001 4.777976e-001 5.876924e-001 4.865216e-001 3.277321e-001 -5.596135e-003
<VARIANCE> 39
 4.154870e+001 2.443629e+001 2.850504e+001 1.872796e+001 3.152838e+001 5.959986e+001 8.674813e+000 1.831679e+001 3.600068e+001 2.200255e+001 1.740541e+001 4.252688e+001 3.303310e+001 1.379848e+000 1.221137e+000 5.486559e-001 1.452040e+000 1.450807e+000 7.236862e-001 9.656495e-001 1.854908e+000 3.358379e+000 2.795042e+000 2.178525e+000 1.356557e+000 1.140911e+000 6.606364e-001 3.588275e-001 3.059253e-001 2.193453e-001 1.698987e-001 6.098353e-001 1.609125e-001 2.071500e-001 3.977984e-001 3.957227e-001 2.181883e-001 1.322228e-001 4.921671e-001
<GCONST> 1.027342e+002
<STATE> 3
<MEAN> 39
 -1.250151e+001 7.991593e+000 4.206300e-001 2.653784e+000 1.826543e+000 3.460548e+000 4.283796e+000 4.571875e+000 4.706100e+000 1.950777e+000 9.962509e-001 -1.286242e+000 6.075455e+001 -1.392068e+000 -3.678614e-001 5.538172e-001 7.326077e-001 6.117400e-001 9.880216e-001 2.248947e-001 1.936192e-001 4.544404e-001 8.402062e-001 9.704625e-001 9.104885e-001 -9.681976e-001 2.922536e-001 -3.134907e-001 -3.301750e-001 -1.482379e-002 -2.433560e-002 -3.534755e-001 4.995932e-002 3.445763e-002 -1.210608e-001 -1.241028e-001 -7.642451e-003 1.227855e-001 3.412925e-001
<VARIANCE> 39
 9.748098e+000 8.529767e+000 1.644824e+001 3.159982e+001 3.540103e+001 1.883462e+001 3.475483e+000 5.151731e+000 1.419925e+001 1.828416e+001 2.925049e+001 5.607203e+001 3.709238e+000 5.781607e-001 3.646989e-001 7.938572e-001 8.221524e-001 7.539440e-001 1.098288e+000 4.557307e-001 6.345853e-001 6.960267e-001 1.704947e+000 8.761340e-001 1.128857e+000 3.767391e-001 2.105578e-001 1.199142e-001 1.379744e-001 2.102958e-001 2.272227e-001 1.883536e-001 6.879266e-002 1.569785e-001 2.030025e-001 3.070056e-001 2.275023e-001 2.411069e-001 1.486360e-001
<GCONST> 7.929938e+001
<STATE> 4
<MEAN> 39
 -1.936424e+001 4.302747e+000 6.077846e-001 5.865429e+000 4.335817e+000 5.703463e+000 6.072555e+000 5.519992e+000 7.087505e+000 5.675816e+000 6.117222e+000 4.907752e+000 5.768841e+001 -1.924506e-001 -2.237807e-001 -3.948089e-002 5.207878e-002 4.635516e-002 2.287713e-002 2.783972e-002 -7.247696e-003 8.038356e-002 1.479874e-001 2.143404e-001 2.235734e-001 -5.907050e-002 1.454660e-001 -1.204572e-002 -3.151223e-002 1.069420e-003 -7.105149e-003 -1.149457e-001 -4.199986e-002 -4.128050e-002 -8.866755e-002 -1.215663e-001 -5.321309e-002 -7.888847e-002 1.275579e-001
<VARIANCE> 39
 3.023506e+000 8.832995e+000 1.334410e+001 5.158937e+000 1.021965e+001 5.886949e+000 5.977015e+000 1.153834e+001 8.045364e+000 5.481437e+000 7.456683e+000 8.449739e+000 4.403929e+000 4.876122e-001 1.409108e+000 2.147105e+000 5.207863e-001 1.107736e+000 5.401951e-001 5.654802e-001 1.302427e+000 1.173151e+000 7.613559e-001 7.776773e-001 1.227974e+000 7.921573e-001 1.211252e-001 3.176261e-001 4.474257e-001 8.173756e-002 1.925285e-001 1.740750e-001 1.216670e-001 3.247953e-001 2.603671e-001 2.069712e-001 1.811271e-001 1.991504e-001 2.484054e-001
<GCONST> 7.463293e+001
<TRANSP> 5
 0.000000e+000 1.000000e+000 0.000000e+000 0.000000e+000 0.000000e+000
 0.000000e+000 5.555633e-001 4.444367e-001 0.000000e+000 0.000000e+000
 0.000000e+000 0.000000e+000 7.902786e-001 2.097214e-001 0.000000e+000
 0.000000e+000 0.000000e+000 0.000000e+000 8.875585e-001 1.124415e-001
 0.000000e+000 0.000000e+000 0.000000e+000 0.000000e+000 0.000000e+000
<ENDHMM>
~h "g"
<BEGINHMM>
<NUMSTATES> 5
<STATE> 2
<MEAN> 39
 2.610810e+000 8.056889e-001 -5.127223e+000 2.562265e+000 -8.333050e+000 -2.043982e+001 -4.356872e+000 1.368737e+001 5.066401e-001 -1.053509e+001 1.667854e-001 -3.335909e+000 7.578211e+001 1.465930e-001 -7.858796e-001 -8.649951e-001 -1.578411e-001 -4.727667e-001 -2.150976e-001 2.851222e-001 2.417970e-001 7.053167e-002 2.988813e-001 4.261178e-001 7.513138e-001 2.033845e-001 -5.454114e-002 -5.981833e-003 6.985587e-003 1.262939e-002 1.091917e-001 1.778997e-001 6.804241e-002 -8.091244e-002 -1.003935e-001 1.743160e-002 5.258290e-002 4.744525e-002 -4.693263e-002
<VARIANCE> 39
 1.956738e+000 4.408257e+001 2.626889e+001 1.032878e+001 4.124343e+001 2.879092e+001 4.403580e+001 3.371352e+001 1.858920e+001 3.640240e+001 1.608743e+001 1.947049e+001 7.128868e+000 1.505930e-001 6.158394e-001 4.576738e-001 3.655149e-001 3.631856e-001 7.752981e-001 1.094311e+000 5.181541e-001 8.532654e-001 9.425711e-001 6.089306e-001 1.500409e+000 3.041834e-001 2.174877e-002 1.225487e-001 8.192389e-002 7.031534e-002 6.412806e-002 9.622021e-002 1.226863e-001 9.331467e-002 1.598526e-001 1.898449e-001 1.107890e-001 1.354375e-001 3.562966e-002
<GCONST> 7.117860e+001
<STATE> 3
<MEAN> 39
 8.714110e-001 -2.290100e-002 -1.128708e+001 -6.889953e-002 -5.510932e+000 -1.392939e+001 -7.809211e-001 7.462138e+000 1.915712e+000 -3.983573e+000 2.509490e+000 3.496406e+000 7.283199e+001 -1.081549e+000 5.626370e-001 4.465188e-001 -5.293287e-001 3.322417e-001 1.495421e+000 8.241181e-001 -5.699555e-001 -1.232576e-001 1.288572e+000 5.728137e-001 1.838913e-001 -1.065491e+000 -3.734500e-001 1.994685e-001 2.646706e-001 -1.860167e-002 1.878982e-001 3.782488e-001 8.619354e-002 3.658547e-002 3.546913e-001 2.028593e-001 -5.831789e-002 -9.429870e-002 -2.759174e-001
<VARIANCE> 39
 5.410655e+000 2.304216e+001 8.935159e+000 1.053641e+001 5.379014e+001 2.125791e+001 4.654013e+001 4.876582e+001 5.339225e+000 3.487675e+001 1.816261e+001 1.639275e+001 8.052748e+000 4.280096e-001 9.877570e-001 5.891789e-001 7.011343e-001 5.561255e-001 8.329390e-001 4.404960e-001 6.942635e-001 6.407030e-001 9.078580e-001 4.213091e-001 9.611610e-001 3.089310e-001 7.437759e-002 1.675621e-001 1.701270e-001 2.516987e-001 2.554763e-001 1.698462e-001 1.800484e-001 1.261778e-001 1.551174e-001 1.391656e-001 1.252492e-001 3.948996e-001 5.219143e-002
<GCONST> 7.825332e+001
<STATE> 4
<MEAN> 39
 -8.918313e+000 3.298421e+000 -5.926385e+000 -1.063909e+000 -4.188321e+000 -4.295675e+000 5.244928e+000 7.921500e+000 5.756151e+000 1.781747e+000 4.358632e+000 4.629620e+000 6.489988e+001 -2.545157e+000 1.116222e+000 1.388960e+000 -1.686103e-002 1.191563e+000 2.741044e+000 4.221841e-001 -3.070485e-001 1.347359e+000 1.730133e+000 4.906574e-001 8.640189e-001 -2.188212e+000 7.289828e-002 -2.494639e-001 3.055055e-004 2.912404e-001 -1.487457e-002 -2.927652e-001 -2.335460e-001 2.141134e-001 -1.846327e-001 -2.081185e-001 7.548375e-002 9.340852e-003 9.008846e-002
<VARIANCE> 39
 2.810703e+001 1.023738e+001 1.455663e+001 1.523180e+001 2.944043e+001 3.779556e+001 1.257444e+001 3.568042e+001 1.507294e+001 2.975142e+001 1.527447e+001 2.498603e+001 1.563182e+001 1.370347e+000 1.071885e+000 1.948741e+000 2.715052e+000 2.717399e+000 1.565975e+000 3.353354e+000 2.067910e+000 1.142219e+000 2.320260e+000 1.471109e+000 8.535040e-001 5.025497e-001 2.309993e-001 1.810165e-001 3.165232e-001 3.365747e-001 2.243959e-001 3.659428e-001 3.343572e-001 1.633116e-001 1.975605e-001 4.209903e-001 2.901392e-001 2.178549e-001 1.097443e-001
<GCONST> 9.833164e+001
<TRANSP> 5
 0.000000e+000 1.000000e+000 0.000000e+000 0.000000e+000 0.000000e+000
 0.000000e+000 9.179711e-001 8.202886e-002 0.000000e+000 0.000000e+000
 0.000000e+000 0.000000e+000 8.130367e-001 1.869633e-001 0.000000e+000
 0.000000e+000 0.000000e+000 0.000000e+000 7.694718e-001 2.305282e-001
 0.000000e+000 0.000000e+000 0.000000e+000 0.000000e+000 0.000000e+000
<ENDHMM>
~h "l"
<BEGINHMM>
<NUMSTATES> 5
<STATE> 2
<MEAN> 39
 -1.434413e+001 3.225358e+000 -8.948369e-001 4.586268e+000 2.899209e+000 9.108964e-001 5.443839e+000 4.978142e+000 3.911372e+000 2.288048e+000 4.250010e+000 3.150202e+000 6.205724e+001 6.656045e-001 -1.068179e-001 1.332737e-001 3.130994e-001 1.554949e-001 -4.479905e-001 -6.403043e-001 -3.978962e-001 -8.203529e-001 -9.589754e-001 -1.664578e-001 -2.063614e-001 5.874182e-001 1.607725e-001 8.267296e-002 4.657158e-002 1.137380e-001 1.299954e-001 -5.946149e-002 -2.446930e-001 4.630827e-002 -6.336143e-002 -1.525922e-001 -1.315203e-001 -1.695881e-001 6.752813e-002
<VARIANCE> 39
 6.457293e+001 1.744018e+001 2.210447e+001 1.553829e+001 2.399126e+001 8.818041e+001 3.129920e+001 2.661856e+001 3.595307e+001 4.179571e+001 1.444223e+001 2.462267e+001 4.170256e+001 4.020532e+000 2.309369e+000 1.591525e+000 1.385937e+000 1.580768e+000 4.736019e+000 3.661528e+000 2.317151e+000 3.912318e+000 5.807971e+000 3.119669e+000 3.640747e+000 2.919097e+000 3.559976e-001 3.640388e-001 2.918000e-001 2.290231e-001 2.395947e-001 6.427125e-001 6.155660e-001 4.529558e-001 4.709423e-001 7.140097e-001 2.772993e-001 4.372276e-001 3.230273e-001
<GCONST> 1.174130e+002
<STATE> 3
<MEAN> 39
 -2.115383e+000 2.083471e+000 -2.995003e+000 9.677855e+000 7.438978e+000 -7.649901e+000 -5.320329e+000 5.554589e+000 -1.006039e+000 -8.718920e+000 -1.568384e+000 -4.034995e+000 7.061995e+001 -6.600648e-001 5.048709e-001 7.219424e-001 7.765080e-001 9.195730e-001 7.484025e-001 -7.073829e-001 -5.822492e-001 5.720901e-001 5.821549e-001 -1.870975e-001 -3.380677e-001 -6.690723e-001 -4.584568e-001 9.965178e-002 2.058456e-001 -1.717678e-001 -1.957682e-001 2.927696e-001 4.506803e-001 -1.936332e-001 2.396596e-001 5.323872e-001 1.977396e-001 2.383513e-001 -2.994774e-001
<VARIANCE> 39
 1.834363e+001 1.196896e+001 1.621033e+001 4.242100e+001 6.300396e+001 3.067636e+001 2.277262e+001 4.191758e+001 8.192084e+001 8.350710e+001 4.466998e+001 5.954434e+001 1.371971e+001 2.132723e+000 1.793913e+000 1.926331e+000 2.475072e+000 2.802080e+000 2.884471e+000 3.022717e+000 2.087247e+000 1.474112e+000 4.880862e+000 3.110746e+000 2.710840e+000 1.514276e+000 2.173182e-001 3.644483e-001 2.530340e-001 3.642981e-001 4.704657e-001 4.200114e-001 2.958260e-001 3.171690e-001 4.137746e-001 6.631940e-001 5.873537e-001 4.639392e-001 1.683965e-001
<GCONST> 1.154391e+002
<STATE> 4
<MEAN> 39
 -7.600858e+000 1.036779e+000 2.096236e+000 1.211419e+001 7.813921e+000 -4.021517e+000 -4.782766e+000 4.833047e-001 -1.623510e+000 -6.225278e+000 3.857105e-001 -1.190710e+000 6.821758e+001 -5.087864e-001 3.868389e-001 2.477739e-001 -3.735063e-001 -4.095068e-001 6.078818e-001 7.601004e-001 2.786874e-001 3.427462e-001 3.477196e-001 -1.196587e-001 3.974628e-002 -5.178010e-001 3.231090e-002 -1.506977e-001 -1.748551e-001 -4.496054e-002 3.646572e-002 -1.991389e-002 8.613081e-002 1.233539e-001 -1.708935e-002 -5.747432e-002 7.543719e-002 5.947681e-002 7.174660e-002
<VARIANCE> 39
 4.403066e+001 7.083542e+001 5.677110e+001 4.395900e+001 5.682691e+001 5.816802e+001 5.867266e+001 4.623441e+001 5.363379e+001 5.823964e+001 2.510223e+001 1.060841e+001 3.159349e+001 3.674667e+000 6.196923e+000 4.146575e+000 1.975811e+000 2.421531e+000 3.409152e+000 4.035212e+000 3.547094e+000 3.586957e+000 4.276340e+000 2.220524e+000 1.397030e+000 2.224934e+000 4.108767e-001 1.223494e+000 5.393107e-001 3.405167e-001 3.994499e-001 5.279869e-001 7.377167e-001 7.255655e-001 6.115888e-001 6.960056e-001 4.273758e-001 2.286551e-001 2.866416e-001
<GCONST> 1.263080e+002
<TRANSP> 5
 0.000000e+000 1.000000e+000 0.000000e+000 0.000000e+000 0.000000e+000
 0.000000e+000 7.462068e-001 2.537932e-001 0.000000e+000 0.000000e+000
 0.000000e+000 0.000000e+000 7.425964e-001 2.574036e-001 0.000000e+000
 0.000000e+000 0.000000e+000 0.000000e+000 8.716600e-001 1.283400e-001
 0.000000e+000 0.000000e+000 0.000000e+000 0.000000e+000 0.000000e+000
<ENDHMM>
~h "m"
<BEGINHMM>
<NUMSTATES> 5
<STATE> 2
<MEAN> 39
 -1.751564e+001 1.614236e+000 -3.336936e-001 2.221472e+000 2.290392e+000 4.281281e+000 5.879099e+000 3.563114e+000 7.470462e+000 5.490156e+000 5.076585e+000 5.044757e+000 6.081987e+001 3.788253e-001 -2.855794e-001 4.859352e-001 3.661351e-001 2.612101e-001 -5.243723e-001 -7.149531e-001 -9.591727e-001 -3.785464e-001 -5.014774e-001 -3.415925e-001 -5.388741e-001 7.883412e-001 2.905092e-001 -3.916762e-002 1.761457e-001 3.519498e-001 1.926639e-001 -3.893693e-001 -2.699691e-001 3.440959e-002 -3.114024e-001 -3.044801e-001 -8.116528e-002 -2.626868e-001 2.619403e-001
<VARIANCE> 39
 2.701929e+001 1.931776e+001 1.536494e+001 1.369798e+001 2.386166e+001 2.809878e+001 1.157330e+001 3.161055e+001 1.158802e+001 1.250776e+001 1.357801e+001 9.126228e+000 2.864349e+001 2.384701e+000 2.264740e+000 1.589961e+000 2.870615e+000 2.419412e+000 3.098727e+000 1.491334e+000 2.041270e+000 2.883686e+000 2.131377e+000 2.126493e+000 1.386620e+000 2.409341e+000 4.624355e-001 4.732167e-001 3.151422e-001 7.775053e-001 4.836599e-001 5.197223e-001 3.411487e-001 6.137633e-001 5.543154e-001 3.728264e-001 3.784891e-001 2.237227e-001 4.583289e-001
<GCONST> 1.082582e+002
<STATE> 3
<MEAN> 39
 -9.556519e+000 3.234763e-001 4.416593e+000 1.655031e+001 1.053306e+001 -8.455720e+000 -4.096337e+000 8.650518e-001 1.017060e-001 -4.799293e+000 4.840176e-002 -9.154721e-001 6.841398e+001 6.600183e-001 -1.435306e-001 -2.812286e-001 6.235936e-002 1.971535e-001 -5.672417e-001 -5.914774e-001 -3.861984e-001 -6.962609e-001 -4.659921e-001 3.472224e-001 -6.295163e-002 5.888780e-001 -4.489511e-002 1.690589e-002 -1.688575e-001 -3.157106e-001 -2.389795e-001 9.238905e-002 1.814518e-001 7.374933e-002 7.557870e-002 1.409372e-001 1.658275e-001 1.634395e-001 -5.527473e-002
<VARIANCE> 39
 3.032241e+001 3.390922e+001 3.669670e+001 7.569976e+001 4.379695e+001 7.018144e+001 5.593812e+001 3.880240e+001 5.267443e+001 3.822031e+001 1.698866e+001 2.221055e+001 4.234256e+001 4.542218e+000 4.602710e+000 3.049964e+000 6.752564e+000 3.984515e+000 8.797834e+000 5.809079e+000 3.507203e+000 4.483597e+000 3.673604e+000 2.212432e+000 2.164746e+000 5.323417e+000 5.203387e-001 6.641870e-001 2.979305e-001 6.284981e-001 5.609375e-001 1.074201e+000 9.792286e-001 6.429301e-001 7.575051e-001 5.811457e-001 3.392737e-001 3.536403e-001 6.527777e-001
<GCONST> 1.311439e+002
<STATE> 4
<MEAN> 39
 -3.090943e+000 -8.363328e-001 -8.654763e+000 1.367637e+000 -2.193205e+000 -9.127841e+000 8.502449e-001 4.674791e+000 -5.721749e-001 -1.128868e+000 7.133463e+000 4.253774e+000 7.117305e+001 -9.240620e-001 5.548362e-001 2.551936e-001 -7.469031e-001 -4.506375e-001 8.541249e-001 9.451914e-001 9.420980e-001 9.258960e-001 1.122048e+000 1.573460e-001 1.450200e-001 -9.796482e-001 -1.642668e-001 -8.824316e-002 1.010740e-001 1.540727e-001 1.616732e-001 1.070826e-001 2.055110e-002 -5.434659e-002 2.051738e-001 1.059059e-001 -1.401530e-001 -2.494363e-002 -6.721395e-002
<VARIANCE> 39
 6.063989e+001 3.288248e+001 3.618039e+001 3.008534e+001 4.875970e+001 7.174425e+001 5.092239e+001 9.276522e+001 5.176659e+001 5.144399e+001 2.442215e+001 2.159195e+001 4.384028e+001 4.374572e+000 1.786133e+000 3.260870e+000 2.172532e+000 3.014271e+000 3.783402e+000 2.946477e+000 3.105602e+000 3.156230e+000 3.902149e+000 2.559535e+000 1.709303e+000 2.869272e+000 4.438253e-001 1.973540e-001 3.650677e-001 2.696636e-001 2.906292e-001 5.160913e-001 5.757363e-001 3.859654e-001 5.047289e-001 5.525469e-001 3.733011e-001 2.847412e-001 2.124432e-001
<GCONST> 1.213039e+002
<TRANSP> 5
 0.000000e+000 1.000000e+000 0.000000e+000 0.000000e+000 0.000000e+000
 0.000000e+000 7.278834e-001 2.721166e-001 0.000000e+000 0.000000e+000
 0.000000e+000 0.000000e+000 8.265715e-001 1.734285e-001 0.000000e+000
 0.000000e+000 0.000000e+000 0.000000e+000 7.877133e-001 2.122866e-001
 0.000000e+000 0.000000e+000 0.000000e+000 0.000000e+000 0.000000e+000
<ENDHMM>
~h "n"
<BEGINHMM>
<NUMSTATES> 5
<STATE> 2
<MEAN> 39
 -1.698484e+001 4.134557e+000 4.263022e+000 6.036654e+000 5.501087e+000 4.779786e+000 5.732758e+000 2.943099e+000 3.684556e+000 3.626239e+000 4.103710e+000 2.294952e+000 6.116774e+001 1.420201e+000 1.270397e-001 1.585542e-001 5.908664e-001 4.017627e-001 -8.141394e-001 -9.750459e-001 -1.002207e+000 -1.047889e+000 -1.220520e+000 -6.829658e-001 -7.714656e-001 1.200817e+000 3.245974e-001 -1.915668e-001 -1.407914e-001 8.247475e-002 1.105056e-001 -4.067287e-001 -3.255623e-001 -9.893000e-002 -2.247410e-001 -3.295415e-001 -1.253247e-001 -5.379734e-002 3.603918e-001
<VARIANCE> 39
 3.831656e+001 3.303863e+001 3.464748e+001 2.938026e+001 9.681521e+000 1.521522e+001 2.381990e+001 1.988815e+001 1.992377e+001 1.388303e+001 1.646783e+001 1.670273e+001 2.149161e+001 3.430214e+000 3.628166e+000 2.352750e+000 2.872533e+000 1.153359e+000 3.199054e+000 3.076219e+000 2.908655e+000 2.619487e+000 2.514072e+000 2.478058e+000 2.516279e+000 2.614492e+000 3.948197e-001 6.513408e-001 4.338802e-001 4.771782e-001 1.929221e-001 4.986133e-001 3.517243e-001 6.633098e-001 4.599881e-001 4.235717e-001 4.402945e-001 4.293275e-001 3.544090e-001
<GCONST> 1.127435e+002
<STATE> 3
<MEAN> 39
 -2.970003e+000 1.461788e+000 -4.645023e-001 1.205432e+001 1.060098e+001 -6.217922e+000 -6.773368e+000 -8.605801e-001 -2.733998e+000 -8.137075e+000 -2.049414e+000 -4.387844e+000 7.195764e+001 9.611686e-001 -2.705102e-001 -8.651110e-001 -5.189976e-001 -2.812264e-001 -6.182057e-001 -4.980317e-001 1.593252e-001 -1.799071e-001 -4.952234e-001 -3.708347e-001 -2.412458e-001 7.437513e-001 -1.765185e-001 -3.572363e-002 -1.287660e-001 -2.635623e-001 -2.829800e-001 4.738297e-002 3.340187e-001 2.530238e-001 2.016985e-001 2.479031e-001 3.104222e-001 3.045545e-001 -1.483463e-001
<VARIANCE> 39
 1.526845e+001 2.797950e+001 2.470478e+001 5.252525e+001 2.921757e+001 5.236695e+001 4.641397e+001 4.560282e+001 4.815337e+001 5.510717e+001 2.714516e+001 4.841293e+001 1.881391e+001 1.692601e+000 2.881020e+000 1.741935e+000 3.566096e+000 2.653728e+000 6.403013e+000 4.368079e+000 4.604638e+000 4.270250e+000 5.657643e+000 2.160193e+000 2.737921e+000 2.433148e+000 2.025508e-001 4.974329e-001 3.194268e-001 4.637141e-001 4.204971e-001 1.044336e+000 6.047838e-001 1.041984e+000 8.009962e-001 8.624319e-001 4.969112e-001 6.373375e-001 2.822883e-001
<GCONST> 1.247149e+002
<STATE> 4
<MEAN> 39
 9.853646e-002 -6.906778e-001 -1.044532e+001 -4.242668e-002 -1.879052e+000 -9.002547e+000 1.939973e+000 8.412829e+000 -1.713943e+000 -4.219566e+000 4.178488e+000 1.930073e+000 7.333360e+001 -4.254875e-001 -2.218339e-001 -8.955434e-002 -3.056127e-001 -6.178020e-001 -3.134122e-003 1.038765e+000 7.921916e-001 4.588134e-001 6.416864e-001 5.595210e-001 5.145924e-001 -2.824913e-001 -2.088577e-001 1.195238e-001 2.128652e-001 1.875004e-001 1.857921e-001 2.669545e-001 1.257755e-002 -9.899540e-002 4.250847e-002 6.755111e-002 -1.293363e-001 -1.320315e-001 -2.256754e-001
<VARIANCE> 39
 3.253124e+001 4.124578e+001 4.026152e+001 3.051998e+001 4.093224e+001 6.505120e+001 3.770286e+001 6.237633e+001 4.048635e+001 3.261574e+001 3.854810e+001 1.828178e+001 3.840668e+001 1.908966e+000 2.005363e+000 2.679218e+000 1.818821e+000 2.608835e+000 4.894492e+000 1.508296e+000 4.536107e+000 2.031371e+000 2.034862e+000 3.109309e+000 3.013929e+000 1.841332e+000 8.711702e-002 2.485670e-001 2.365507e-001 2.530484e-001 3.033854e-001 3.315523e-001 2.985227e-001 4.714813e-001 2.723586e-001 3.117416e-001 4.972706e-001 5.074620e-001 1.121564e-001
<GCONST> 1.137611e+002
<TRANSP> 5
 0.000000e+000 1.000000e+000 0.000000e+000 0.000000e+000 0.000000e+000
 0.000000e+000 8.123658e-001 1.876342e-001 0.000000e+000 0.000000e+000
 0.000000e+000 0.000000e+000 8.796600e-001 1.203399e-001 0.000000e+000
 0.000000e+000 0.000000e+000 0.000000e+000 8.496042e-001 1.503958e-001
 0.000000e+000 0.000000e+000 0.000000e+000 0.000000e+000 0.000000e+000
<ENDHMM>
~h "p"
<BEGINHMM>
<NUMSTATES> 5
<STATE> 2
<MEAN> 39
 -1.589727e+001 4.578659e+000 -2.896257e+000 3.532823e-001 2.148577e-001 3.405238e+000 6.235138e+000 5.906957e+000 8.048317e+000 7.680824e+000 6.581218e+000 6.416148e+000 5.929955e+001 -1.103013e+000 1.705013e-001 9.397134e-001 7.279841e-001 5.198699e-001 4.609561e-001 1.806752e-001 4.620439e-002 -1.092481e-001 -2.808272e-001 -1.620761e-001 1.713181e-001 -7.622833e-001 3.548821e-001 -9.038700e-002 -1.467681e-001 3.830206e-002 1.014723e-001 -1.785561e-001 -7.414170e-002 9.124874e-002 -2.018368e-001 -4.184462e-001 -7.915061e-002 -2.425103e-001 2.912237e-001
<VARIANCE> 39
 1.216522e+001 1.083961e+000 1.063425e+001 1.358135e+001 6.853167e+000 4.873185e+000 3.859515e+000 9.906052e+000 1.021301e+001 1.185152e+001 9.608579e+000 1.402689e+001 4.449630e+000 9.700332e-001 1.984630e-001 8.179561e-001 8.056286e-001 7.177622e-001 8.593583e-001 1.541612e+000 8.484469e-001 1.249075e+000 7.121720e-001 9.051402e-001 1.097866e+000 4.853675e-001 1.468770e-001 3.368141e-002 1.790038e-001 1.893193e-001 1.516136e-001 2.870335e-001 2.705622e-001 1.063339e-001 3.716629e-001 2.209321e-001 8.035642e-002 1.826422e-001 7.369530e-002
<GCONST> 6.974274e+001
<STATE> 3
<MEAN> 39
 -1.885933e+001 4.335151e+000 -1.630087e-002 2.943177e+000 3.842314e+000 6.040394e+000 6.715666e+000 5.785026e+000 7.159300e+000 6.168075e+000 6.164616e+000 5.553794e+000 5.751048e+001 -4.363690e-001 -1.378480e-001 4.697227e-001 5.300745e-001 4.702759e-001 3.227600e-001 3.558637e-002 2.117425e-001 -2.983633e-002 -3.018819e-001 -3.042641e-001 -2.493856e-001 -2.465495e-001 1.168405e-001 1.233828e-004 -1.109974e-001 -1.100707e-001 -1.715656e-001 -2.159325e-001 -9.229688e-002 5.019437e-002 -1.844753e-002 2.499257e-002 6.156889e-002 9.315186e-003 5.620842e-002
<VARIANCE> 39
 1.607350e+000 8.207997e-001 3.365465e+000 9.732696e+000 2.386573e+000 2.275237e+000 6.369076e+000 6.092146e+000 5.109461e+000 1.133765e+001 4.572226e+000 5.912504e+000 5.072046e-001 1.190109e-001 9.686957e-002 2.341284e-001 4.698559e-001 4.059519e-001 7.021387e-001 5.936303e-001 9.309789e-001 5.411811e-001 1.196361e+000 3.929350e-001 9.113893e-001 4.494761e-002 1.374080e-002 2.097207e-002 2.687795e-002 9.616756e-002 5.722570e-002 6.790816e-002 1.292910e-001 1.482432e-001 7.151688e-002 2.504035e-001 1.017813e-001 1.237051e-001 4.248250e-003
<GCONST> 3.691551e+001
<STATE> 4
<MEAN> 39
 -1.985752e+001 4.259651e+000 1.130123e+000 5.063869e+000 4.333489e+000 6.264501e+000 6.662599e+000 6.869514e+000 7.258392e+000 6.362939e+000 6.352183e+000 5.240077e+000 5.679552e+001 2.061229e-003 1.738154e-002 1.348379e-002 5.488963e-003 -3.195036e-003 -1.122440e-002 1.518994e-002 -1.547071e-002 8.546992e-004 9.273562e-003 -9.798083e-003 -5.047453e-002 -2.566962e-003 2.792188e-003 2.567290e-003 -9.619756e-003 -8.793797e-003 3.963294e-003 5.407488e-003 -8.232112e-004 -1.653450e-002 -2.289783e-003 1.020841e-002 8.346328e-004 2.834712e-003 3.237132e-003
<VARIANCE> 39
 7.076837e-001 6.854312e-001 1.374768e+000 1.996504e+000 2.831357e+000 3.554350e+000 3.915973e+000 3.622607e+000 4.253338e+000 4.619482e+000 4.007577e+000 4.049545e+000 5.072046e-001 2.881281e-002 8.923094e-002 1.545033e-001 2.523472e-001 3.368018e-001 3.802183e-001 4.580960e-001 4.754727e-001 4.473512e-001 4.423924e-001 4.319402e-001 4.657953e-001 1.169577e-002 5.829941e-003 1.827290e-002 3.252754e-002 5.214223e-002 7.831063e-002 8.153459e-002 9.818529e-002 1.004648e-001 8.730718e-002 9.087040e-002 9.320526e-002 9.654023e-002 1.405454e-003
<GCONST> 2.023725e+001
<TRANSP> 5
 0.000000e+000 1.000000e+000 0.000000e+000 0.000000e+000 0.000000e+000
 0.000000e+000 6.464877e-001 3.535123e-001 0.000000e+000 0.000000e+000
 0.000000e+000 0.000000e+000 6.372051e-001 3.627949e-001 0.000000e+000
 0.000000e+000 0.000000e+000 0.000000e+000 9.625998e-001 3.740026e-002
 0.000000e+000 0.000000e+000 0.000000e+000 0.000000e+000 0.000000e+000
<ENDHMM>
~h "s"
<BEGINHMM>
<NUMSTATES> 5
<STATE> 2
<MEAN> 39
 -1.044755e+000 -1.404716e+000 -9.004375e+000 1.654916e+000 -8.887018e+000 -1.357302e+001 2.109469e+000 1.152970e+001 6.585987e-001 -4.088574e+000 5.025795e+000 2.597860e+000 7.205031e+001 -2.440396e-001 1.460597e-001 2.249746e-001 1.815822e-001 2.488644e-001 4.607524e-001 -2.026523e-001 -3.130246e-001 -7.480642e-002 3.406588e-002 2.574250e-002 -1.197196e-001 -2.893481e-001 -1.084339e-001 4.661828e-002 4.681158e-002 -4.784856e-003 1.611069e-001 1.652969e-001 -7.155564e-002 -3.370837e-002 3.834978e-002 6.472874e-004 1.466289e-002 4.507029e-002 -8.989762e-002
<VARIANCE> 39
 6.503401e+001 4.987422e+001 3.811489e+001 1.407317e+001 2.152913e+001 6.821944e+001 1.473581e+001 2.294838e+001 4.185931e+001 5.323260e+001 2.190379e+001 1.654543e+001 5.971928e+001 6.560116e+000 3.240962e+000 2.895196e+000 6.549733e-001 3.031391e+000 8.083564e+000 1.301627e+000 2.749203e+000 2.179551e+000 5.318099e+000 2.904160e+000 2.090545e+000 5.301473e+000 9.798240e-001 4.814402e-001 4.128223e-001 1.234290e-001 4.942349e-001 1.488879e+000 2.335843e-001 4.664055e-001 2.672335e-001 7.992240e-001 6.519964e-001 5.062530e-001 7.245763e-001
<GCONST> 1.217198e+002
<STATE> 3
<MEAN> 39
 -3.517868e+000 2.167091e+000 -8.157922e+000 -1.434879e+000 -4.046193e+000 -8.271930e+000 4.929339e-002 4.764972e+000 6.737864e+000 5.455517e-001 1.892708e+000 2.252731e+000 6.867944e+001 -1.108513e+000 9.893096e-001 8.162824e-001 -1.908842e-001 5.340684e-001 1.556289e+000 -1.521402e-001 -5.476753e-001 3.210611e-001 5.700775e-001 1.434156e-001 2.105405e-001 -1.178558e+000 -4.213440e-002 -1.219485e-001 -1.633755e-002 7.105254e-002 2.363635e-001 2.378935e-002 1.430260e-001 4.615609e-002 2.366575e-002 5.060336e-002 -5.380379e-003 -1.978645e-002 7.843567e-002
<VARIANCE> 39
 5.567218e+001 2.979228e+001 3.511568e+001 1.497181e+001 1.312562e+001 4.983106e+001 1.719916e+001 2.379645e+001 3.431145e+001 2.324185e+001 1.440948e+001 1.868823e+001 4.064370e+001 8.134578e+000 2.688093e+000 3.946082e+000 1.773747e+000 2.149302e+000 7.400974e+000 3.226676e+000 2.298151e+000 3.787269e+000 1.954770e+000 1.739533e+000 3.545715e+000 6.453217e+000 1.099238e+000 3.932078e-001 5.398143e-001 3.909182e-001 3.623933e-001 1.443625e+000 6.735197e-001 4.705797e-001 4.627810e-001 2.807624e-001 3.642571e-001 8.381763e-001 7.193060e-001
<GCONST> 1.215742e+002
<STATE> 4
<MEAN> 39
 -5.872649e+000 6.289403e+000 -1.565364e+000 4.389467e+000 1.797187e+000 -4.264179e+000 -2.625510e+000 3.509961e+000 1.898807e+000 -1.722816e+000 5.776854e-001 -2.252192e+000 6.600477e+001 -1.482064e+000 4.085226e-001 8.852860e-001 3.767227e-001 9.231387e-001 1.768406e+000 9.792925e-001 -1.849534e-001 4.628519e-001 6.606361e-001 4.079559e-002 1.599336e-001 -1.150299e+000 -9.307685e-002 -2.357205e-001 -1.432364e-001 -4.193857e-002 -1.219566e-001 6.674037e-003 2.832847e-001 1.902761e-001 8.734713e-003 7.661195e-002 2.349644e-001 2.534839e-001 4.869401e-003
<VARIANCE> 39
 1.597373e+001 2.983614e+001 1.985780e+001 2.846486e+001 5.320044e+001 4.184315e+001 1.318909e+001 3.459370e+001 2.306144e+001 2.990329e+001 1.167720e+001 1.435214e+001 1.342797e+001 7.770897e-001 1.219358e+000 2.088192e+000 1.291989e+000 1.047569e+000 1.808405e+000 1.269062e+000 9.686346e-001 8.552249e-001 1.301796e+000 1.217477e+000 2.248810e+000 3.920989e-001 1.744119e-001 1.816736e-001 4.079306e-001 1.612404e-001 1.804017e-001 1.971966e-001 1.243148e-001 1.130732e-001 1.630728e-001 1.820947e-001 1.572363e-001 2.323355e-001 9.437513e-002
<GCONST> 9.126842e+001
<TRANSP> 5
 0.000000e+000 1.000000e+000 0.000000e+000 0.000000e+000 0.000000e+000
 0.000000e+000 8.622361e-001 1.377639e-001 0.000000e+000 0.000000e+000
 0.000000e+000 0.000000e+000 7.210311e-001 2.789690e-001 0.000000e+000
 0.000000e+000 0.000000e+000 0.000000e+000 8.181510e-001 1.818490e-001
 0.000000e+000 0.000000e+000 0.000000e+000 0.000000e+000 0.000000e+000
<ENDHMM>
~h "t"
<BEGINHMM>
<NUMSTATES> 5
<STATE> 2
<MEAN> 39
 -2.039918e+001 1.328912e+000 3.770428e+000 2.867596e+000 4.886600e+000 5.564398e+000 6.286780e+000 3.750916e+000 6.558369e+000 5.209033e+000 6.155751e+000 3.612696e+000 6.093055e+001 3.149577e-001 -1.854051e-001 3.302815e-001 -2.593606e-001 1.313170e-001 -2.749447e-001 -1.313263e-001 -5.541181e-001 -3.654369e-001 -3.904154e-001 -2.096974e-001 -4.614040e-001 8.588705e-001 3.299586e-001 2.149537e-002 -1.801640e-001 5.104395e-002 -2.352953e-002 -2.012926e-001 -9.091831e-002 -7.198339e-002 -1.406423e-001 -2.139191e-001 -1.427531e-001 -1.166954e-001 1.914337e-001
<VARIANCE> 39
 1.701964e+001 3.019314e+001 2.295911e+001 3.185501e+001 1.360215e+001 1.399749e+001 1.625016e+001 2.090889e+001 2.242853e+001 1.053502e+001 1.345685e+001 1.077648e+001 2.307584e+001 2.813104e+000 2.199175e+000 2.672648e+000 2.071702e+000 1.677585e+000 1.677704e+000 1.971194e+000 1.861163e+000 2.952688e+000 1.386508e+000 1.969125e+000 1.482468e+000 1.335483e+000 6.218547e-001 3.657165e-001 6.007189e-001 3.712315e-001 3.872693e-001 3.803098e-001 4.310585e-001 4.099845e-001 6.215752e-001 3.127218e-001 4.038822e-001 2.983558e-001 2.575555e-001
<GCONST> 1.060701e+002
<STATE> 3
<MEAN> 39
 -1.292000e+001 2.834189e+000 1.719453e+000 3.156479e+000 6.446737e+000 1.337681e+000 2.908062e+000 -9.740825e-001 2.329494e+000 4.481869e-001 2.272393e+000 1.310181e-001 6.669921e+001 4.465625e+000 6.441217e-003 -2.949046e+000 6.896850e-001 -1.324254e-001 -2.890909e+000 -1.606728e+000 -3.103288e-001 -1.605203e+000 -2.892562e+000 -1.858534e+000 -7.485625e-001 2.324361e+000 3.851557e-001 -2.303343e-001 -3.641467e-001 3.742228e-002 -2.779819e-001 -4.436659e-001 3.152008e-002 7.844508e-001 -1.318381e-002 -2.517217e-001 -8.448755e-002 4.429622e-002 1.094602e-001
<VARIANCE> 39
 4.610896e+001 4.171962e+001 5.013672e+001 6.975465e+001 3.052312e+001 3.921327e+001 4.346530e+001 1.829434e+001 1.494104e+001 2.017552e+001 2.944742e+001 1.207211e+001 3.030943e+001 2.550464e+000 3.689984e+000 4.215610e+000 2.167953e+000 3.472947e+000 3.561252e+000 3.607577e+000 4.552547e+000 5.712918e+000 3.368705e+000 2.716226e+000 2.749784e+000 2.511405e+000 7.552737e-001 5.981284e-001 1.090406e+000 4.338032e-001 6.922332e-001 6.829082e-001 6.867213e-001 4.512894e-001 5.487824e-001 5.144685e-001 4.077592e-001 1.455589e-001 4.490302e-001
<GCONST> 1.234622e+002
<STATE> 4
<MEAN> 39
 -3.359027e+000 6.842177e+000 -1.205963e+000 7.439795e+000 4.970794e+000 -3.210296e+000 3.335611e-001 2.613170e+000 -1.730905e+000 -5.937018e+000 -4.068783e+000 -7.689465e+000 6.884259e+001 1.170529e+000 1.813311e-001 -2.706409e-001 -2.570596e-001 -7.577706e-001 -1.133776e+000 -3.167195e-001 6.183631e-001 -2.162205e-001 -7.409714e-001 -3.577534e-001 -3.364002e-001 6.247532e-001 -5.624647e-001 -1.455716e-001 1.977005e-001 -7.876001e-002 -7.214724e-002 2.228814e-001 1.308356e-001 9.304359e-002 3.996770e-001 4.884361e-001 3.798772e-001 3.662044e-001 -3.143617e-001
<VARIANCE> 39
 1.064621e+001 1.767258e+001 2.127517e+001 1.627445e+001 1.765101e+001 3.567259e+001 5.028110e+001 1.803907e+001 4.667427e+001 3.708852e+001 3.673128e+001 3.761013e+001 1.161834e+001 6.728169e+000 1.566336e+000 4.232213e+000 9.574726e-001 2.191098e+000 3.731939e+000 2.274652e+000 3.105579e+000 3.157060e+000 4.110051e+000 2.550703e+000 3.700796e+000 2.624610e+000 2.527832e-001 4.930964e-001 4.568759e-001 2.173786e-001 2.512118e-001 2.651472e-001 3.255905e-001 3.531929e-001 4.782751e-001 6.702932e-001 5.768744e-001 4.334604e-001 2.998484e-001
<GCONST> 1.137488e+002
<TRANSP> 5
 0.000000e+000 1.000000e+000 0.000000e+000 0.000000e+000 0.000000e+000
 0.000000e+000 8.509476e-001 1.490524e-001 0.000000e+000 0.000000e+000
 0.000000e+000 0.000000e+000 5.117580e-001 4.882419e-001 0.000000e+000
 0.000000e+000 0.000000e+000 0.000000e+000 7.244639e-001 2.755361e-001
 0.000000e+000 0.000000e+000 0.000000e+000 0.000000e+000 0.000000e+000
<ENDHMM>
~h "w"
<BEGINHMM>
<NUMSTATES> 5
<STATE> 2
<MEAN> 39
 -1.350160e+000 6.274064e+000 5.532104e-001 1.000461e+001 -3.586177e+000 -1.833660e+001 -3.054117e+000 6.705812e+000 -6.935703e+000 -1.044294e+001 -7.792036e-001 -4.965558e+000 6.976984e+001 -5.050409e-001 7.339531e-001 8.557190e-001 -2.407321e-003 -7.813094e-001 -1.188625e-001 -1.893200e-001 2.507367e-001 5.745987e-001 8.028107e-001 -2.592170e-001 1.536095e-001 -7.742006e-001 -2.892868e-001 -1.070569e-001 1.613501e-002 -7.614333e-002 1.301859e-001 3.551023e-001 9.185994e-002 -2.797567e-001 1.050950e-001 8.706298e-002 1.567082e-001 2.898820e-001 -1.050562e-001
<VARIANCE> 39
 2.107522e+000 1.070497e+001 1.579678e+001 9.412730e+000 3.073102e+001 7.172770e+001 5.565375e+000 5.213984e+001 4.645563e+001 7.694781e+000 4.753208e+000 5.982808e+000 1.913303e+000 2.379153e-001 6.123651e-001 5.329230e-001 3.328864e-001 6.039352e-001 9.120767e-001 1.604122e+000 5.082886e-001 7.533607e-001 1.364618e+000 1.619580e-001 4.820820e-001 2.243930e-001 9.394307e-002 1.509135e-001 6.682717e-002 8.006123e-002 6.008880e-002 3.256600e-001 1.230903e-001 1.863722e-001 1.800544e-001 3.257142e-001 8.424691e-002 1.660965e-001 4.601623e-002
<GCONST> 6.718713e+001
<STATE> 3
<MEAN> 39
 -5.503983e+000 1.157202e+001 4.078673e+000 5.171033e+000 -5.393816e+000 -1.185540e+001 -3.471333e+000 2.552098e+000 -7.778512e-002 -3.715981e+000 -2.632799e+000 -4.222446e+000 6.486717e+001 -1.881219e+000 9.586784e-001 1.049508e+000 -6.755667e-001 4.124728e-001 2.063504e+000 2.563254e-002 -1.199655e+000 1.044057e+000 1.798439e+000 2.687726e-001 3.053893e-001 -1.506818e+000 -3.071783e-001 -4.168331e-001 -3.273118e-001 1.650267e-002 6.601906e-001 6.153982e-001 2.443676e-001 1.916859e-002 -9.199858e-002 -3.097314e-002 3.036970e-001 3.208624e-001 -7.174686e-002
<VARIANCE> 39
 7.389701e+000 5.185552e+000 3.802840e+000 5.353446e+000 1.147617e+001 3.442137e+001 4.595052e+000 2.748481e+001 3.793579e+001 2.956250e+001 5.874142e+000 6.468379e+000 3.772501e+000 5.449800e-001 3.298339e-001 4.033002e-001 5.733629e-001 2.038738e+000 4.723398e+000 2.742417e-001 6.510031e-001 1.345834e+000 6.937193e-001 6.132211e-001 9.397365e-001 2.406238e-001 5.622233e-002 1.010062e-001 5.922672e-002 4.286618e-002 7.029156e-002 3.404858e-001 7.228884e-002 2.771078e-001 2.834719e-001 3.510951e-001 8.524460e-002 1.040748e-001 2.813027e-002
<GCONST> 6.706574e+001
<STATE> 4
<MEAN> 39
 -1.555698e+001 7.471861e+000 2.514603e+000 5.362546e+000 2.478734e+000 7.259094e-001 -2.970145e-001 1.443087e+000 3.402143e+000 2.056597e+000 2.212564e+000 5.979992e-001 5.919743e+001 -1.377357e+000 -1.272412e+000 -1.044622e+000 -1.088165e-001 1.039577e+000 1.858031e+000 1.066542e+000 9.538237e-001 1.900623e+000 1.569359e+000 9.790123e-001 7.477454e-001 -6.431928e-001 3.258466e-001 -7.651702e-002 -1.160284e-001 -5.029230e-003 -3.435593e-001 -4.426476e-001 1.640156e-001 3.403453e-001 -4.072755e-003 -1.153600e-001 -2.841512e-002 -4.016275e-002 2.202257e-001
<VARIANCE> 39
 9.005646e+000 2.007154e+001 1.199713e+001 1.280108e+001 1.641374e+001 1.467190e+001 1.587823e+001 1.465041e+001 3.322092e+001 1.663055e+001 4.047906e+000 1.284596e+001 1.824579e+000 1.115279e+000 7.989148e-001 6.259468e-001 8.651844e-001 1.201813e+000 2.126199e+000 1.875420e+000 2.178848e+000 2.463016e+000 1.862715e+000 9.277148e-001 1.733188e+000 5.176798e-001 6.051835e-002 3.029984e-001 2.965214e-001 2.264674e-001 2.875400e-001 2.936817e-001 4.102572e-001 4.750159e-001 6.369578e-001 2.225094e-001 1.762344e-001 3.285708e-001 6.658464e-002
<GCONST> 8.834737e+001
<TRANSP> 5
 0.000000e+000 1.000000e+000 0.000000e+000 0.000000e+000 0.000000e+000
 0.000000e+000 7.999173e-001 2.000826e-001 0.000000e+000 0.000000e+000
 0.000000e+000 0.000000e+000 7.334406e-001 2.665593e-001 0.000000e+000
 0.000000e+000 0.000000e+000 0.000000e+000 8.039269e-001 1.960731e-001
 0.000000e+000 0.000000e+000 0.000000e+000 0.000000e+000 0.000000e+000
<ENDHMM>
~h "ah"
<BEGINHMM>
<NUMSTATES> 5
<STATE> 2
<MEAN> 39
 -1.612958e+001 5.352590e+000 -2.370357e-001 2.723394e+000 2.381364e+000 4.279182e+000 6.504421e+000 6.652273e+000 6.722139e+000 4.946335e+000 4.891260e+000 3.594474e+000 5.901389e+001 -9.054604e-001 -3.345723e-001 1.517819e-001 2.549373e-001 4.229527e-001 4.885981e-001 2.504716e-001 1.949055e-001 2.718313e-001 4.168802e-001 4.791164e-001 4.210045e-001 -5.610378e-001 1.984053e-001 -6.994824e-003 -5.693429e-002 2.236505e-002 -7.334887e-002 -2.093746e-001 -1.644295e-001 -1.112065e-001 -1.320678e-001 -1.384857e-001 -7.149674e-002 -7.281968e-002 1.541548e-001
<VARIANCE> 39
 1.067780e+001 5.742181e+000 9.786975e+000 1.467590e+001 1.457465e+001 1.383274e+001 1.521013e+001 1.098591e+001 1.089621e+001 1.558571e+001 1.460139e+001 1.402400e+001 4.409463e+000 9.317462e-001 4.917013e-001 9.218243e-001 1.100482e+000 1.158653e+000 1.318032e+000 1.605058e+000 1.100177e+000 1.275092e+000 1.375730e+000 1.169115e+000 1.293535e+000 4.676923e-001 1.584962e-001 8.885191e-002 1.744659e-001 1.632776e-001 1.830053e-001 3.210075e-001 3.589916e-001 2.053381e-001 2.766389e-001 3.047342e-001 2.262187e-001 2.346212e-001 8.783334e-002
<GCONST> 8.246232e+001
<STATE> 3
<MEAN> 39
 -1.925964e+001 4.317839e+000 8.169141e-001 4.480938e+000 4.274783e+000 5.905772e+000 6.627083e+000 6.232925e+000 7.074865e+000 5.790404e+000 6.044569e+000 4.865067e+000 5.724121e+001 -1.920253e-001 -6.680281e-002 7.134279e-002 1.346036e-001 1.215765e-001 1.484867e-001 8.730896e-003 -6.386871e-002 1.981303e-002 1.543482e-001 1.511621e-001 1.077505e-001 -1.171720e-001 6.106598e-002 2.492399e-002 -1.865145e-003 -8.377466e-003 -2.547375e-002 -4.909372e-002 -1.383607e-002 -4.322019e-004 -2.759639e-002 -2.345139e-002 -6.234103e-002 -6.669042e-002 3.782240e-002
<VARIANCE> 39
 1.516070e+000 1.458614e+000 3.278998e+000 4.768649e+000 5.641465e+000 5.419400e+000 5.228740e+000 7.101649e+000 6.419133e+000 6.288506e+000 6.025784e+000 6.786108e+000 5.621809e-001 1.954175e-001 1.730158e-001 4.750379e-001 6.537291e-001 5.962105e-001 6.398836e-001 8.151991e-001 8.209444e-001 9.459219e-001 7.805378e-001 7.114286e-001 8.267134e-001 9.178066e-002 4.825984e-002 3.481366e-002 1.098130e-001 1.319962e-001 1.133944e-001 1.038083e-001 1.644685e-001 1.729962e-001 1.961429e-001 1.400797e-001 1.282115e-001 1.519893e-001 2.319620e-002
<GCONST> 5.002317e+001
<STATE> 4
<MEAN> 39
 -1.982236e+001 4.228251e+000 1.174058e+000 5.233374e+000 4.594866e+000 6.234280e+000 6.597454e+000 6.462761e+000 6.808955e+000 6.176591e+000 6.113630e+000 4.832244e+000 5.682335e+001 -5.842392e-003 -7.641196e-003 -1.248657e-003 3.065103e-003 1.000032e-002 -9.070418e-003 6.538100e-003 2.011839e-003 -1.530882e-002 -1.209483e-002 -2.528504e-003 -7.211821e-003 6.184403e-004 2.681985e-002 2.957016e-003 -7.043606e-003 -1.028166e-002 -4.537162e-003 -6.003415e-003 -5.341307e-003 -1.522822e-002 -1.330535e-002 -2.311713e-002 -9.261074e-003 -2.733851e-003 2.194769e-002
<VARIANCE> 39
 7.076837e-001 6.692986e-001 1.303129e+000 1.989765e+000 2.837956e+000 3.725342e+000 3.825808e+000 4.386025e+000 4.904157e+000 4.902339e+000 4.823066e+000 4.403652e+000 5.072046e-001 3.696717e-002 7.711172e-002 1.393740e-001 2.276914e-001 3.135520e-001 3.977034e-001 4.265065e-001 4.836500e-001 5.696571e-001 5.527567e-001 4.983173e-001 4.730268e-001 1.169577e-002 1.264389e-002 1.874291e-002 3.360249e-002 4.948150e-002 6.346762e-002 8.599492e-002 8.910146e-002 1.094089e-001 1.246323e-001 1.129547e-001 1.058641e-001 9.830186e-002 5.599183e-003
<GCONST> 2.399602e+001
<TRANSP> 5
 0.000000e+000 1.000000e+000 0.000000e+000 0.000000e+000 0.000000e+000
 0.000000e+000 7.191441e-001 2.808560e-001 0.000000e+000 0.000000e+000
 0.000000e+000 0.000000e+000 7.891648e-001 2.108352e-001 0.000000e+000
 0.000000e+000 0.000000e+000 0.000000e+000 9.386984e-001 6.130170e-002
 0.000000e+000 0.000000e+000 0.000000e+000 0.000000e+000 0.000000e+000
<ENDHMM>
~h "hh"
<BEGINHMM>
<NUMSTATES> 5
<STATE> 2
<MEAN> 39
 2.586604e+000 -1.033878e+000 -1.300491e+001 -3.167932e+000 -4.044620e+000 -1.006575e+001 3.847894e+000 1.080763e+001 -3.408456e-001 -2.597032e+000 1.548586e+000 -9.099508e-001 7.420720e+001 -6.312414e-001 7.314184e-001 6.565465e-001 8.553172e-001 1.191786e+000 6.552395e-001 -1.247858e+000 -5.795992e-001 1.489624e+000 1.126948e+000 -1.656421e+000 -1.376965e+000 -9.897198e-001 -3.066669e-001 1.139828e-001 3.822722e-001 4.575328e-001 3.773478e-001 4.883752e-001 1.717684e-001 -6.253895e-002 -2.335265e-001 -2.345867e-001 -1.253083e-002 -3.063404e-001 -1.901067e-001
<VARIANCE> 39
 1.627305e+000 4.558314e+000 8.308654e+000 2.659591e+001 4.399878e+001 1.323892e+001 2.276101e+001 1.214332e+001 1.037396e+001 7.170825e+000 1.651974e+001 1.531321e+001 3.055010e+000 2.982970e-001 3.043033e-001 3.965040e-001 1.100673e+000 4.149913e+000 7.367125e-001 1.868850e+000 8.752819e-001 2.164146e-001 1.194706e+000 6.025602e-001 6.575851e-001 4.934604e-002 1.839747e-002 1.434871e-001 1.582218e-001 7.440524e-002 2.587016e-001 1.429754e-001 3.850448e-001 1.479656e-001 7.699206e-002 3.768075e-001 1.727521e-001 1.546910e-001 4.124774e-002
<GCONST> 6.822963e+001
<STATE> 3
<MEAN> 39
 3.652447e-002 -1.357436e+000 -9.741757e+000 5.082178e+000 2.430106e+000 -8.590565e+000 1.462360e+000 1.249772e+001 2.847488e+000 -3.433045e+000 -2.670363e+000 -9.138225e+000 7.194540e+001 -8.699906e-001 7.588457e-001 1.123909e+000 9.796293e-001 4.810168e-001 1.458737e+000 2.583551e-001 -5.725527e-001 3.062584e-001 2.212008e-001 -1.694892e-001 -1.256429e+000 -9.266632e-001 -1.269401e-001 2.610581e-001 2.412800e-001 -1.035788e-001 -1.389168e-001 2.936860e-001 1.131257e-001 -2.997764e-001 -2.381051e-001 -6.100604e-002 2.790145e-001 2.181498e-001 -1.284693e-001
<VARIANCE> 39
 2.056134e+000 5.334886e+000 7.753213e+000 8.273753e+001 5.111549e+000 6.054612e+000 4.463904e+000 2.192055e+001 3.946249e+000 1.659639e+001 2.598531e+000 2.687967e+001 1.681618e+000 1.939585e-001 1.709626e+000 1.245676e+000 9.869738e-001 2.835883e+000 1.012017e+000 5.215439e-001 1.209493e+000 1.656022e-001 5.590236e-001 1.744846e+000 1.641563e+000 6.712515e-001 9.397461e-002 9.605085e-002 1.945539e-001 2.642053e-001 5.047365e-001 3.057707e-001 1.081090e-001 9.282843e-002 5.759985e-002 1.397548e-001 1.978899e-001 2.148240e-001 8.816580e-002
<GCONST> 7.091557e+001
<STATE> 4
<MEAN> 39
 -3.663252e+000 2.762339e+000 -6.852974e+000 3.846831e+000 2.594138e+000 -9.814089e-001 3.162377e+000 7.290936e+000 2.466020e+000 -1.471400e+000 -2.686219e+000 -7.817760e+000 6.786816e+001 -1.515049e+000 1.461649e+000 1.915707e+000 7.631358e-001 8.753257e-001 1.920425e+000 1.767199e-001 -9.548838e-001 -2.259949e-001 1.970808e-001 -2.661546e-001 -5.749227e-001 -1.511770e+000 -2.145044e-001 -1.649813e-002 1.502148e-001 -2.667606e-002 3.790279e-002 5.031821e-003 1.495809e-001 8.045814e-002 -8.498598e-002 -5.297320e-002 1.104980e-001 2.783332e-001 -6.246853e-002
<VARIANCE> 39
 4.812342e+000 1.165380e+001 9.209306e+000 2.973697e+001 9.522195e+000 1.760550e+001 8.412092e+000 1.388157e+001 7.388621e+000 7.994251e+000 4.978818e+000 9.787899e+000 2.339554e+000 4.172852e-001 1.246904e+000 1.773790e+000 1.605143e+000 1.021211e+000 3.549280e+000 3.713297e-001 1.094509e+000 6.777035e-001 5.324252e-001 1.016191e+000 2.497471e+000 6.603962e-001 7.383186e-002 1.604806e-001 8.602168e-002 1.195936e-001 3.911990e-001 4.819438e-001 1.040933e-001 1.340295e-001 1.563059e-001 2.825355e-001 2.992350e-001 9.679160e-002 6.948989e-002
<GCONST> 7.600993e+001
<TRANSP> 5
 0.000000e+000 1.000000e+000 0.000000e+000 0.000000e+000 0.000000e+000
 0.000000e+000 6.665056e-001 3.334944e-001 0.000000e+000 0.000000e+000
 0.000000e+000 0.000000e+000 6.002243e-001 3.997757e-001 0.000000e+000
 0.000000e+000 0.000000e+000 0.000000e+000 6.920589e-001 3.079411e-001
 0.000000e+000 0.000000e+000 0.000000e+000 0.000000e+000 0.000000e+000
<ENDHMM>
~h "ih"
<BEGINHMM>
<NUMSTATES> 5
<STATE> 2
<MEAN> 39
 -1.306444e+001 5.641877e+000 1.680205e+000 5.886053e+000 3.808695e+000 7.093992e-001 2.986511e+000 4.792183e+000 5.162996e+000 -1.898928e-001 1.036615e+000 -6.744984e-001 6.233389e+001 2.047096e+000 -6.939400e-001 -1.129843e+000 -1.184608e+000 -2.030426e+000 -2.695781e+000 -8.009626e-001 1.555810e-001 2.406733e-001 -1.473152e+000 -4.121025e-001 -4.646773e-002 2.204608e+000 1.238577e+000 -3.581985e-001 -8.837537e-001 -3.375209e-001 -6.672950e-001 -1.365234e+000 -5.603001e-001 3.890411e-001 3.253030e-001 -1.515533e-001 -3.408706e-001 -4.746381e-001 9.879823e-001
<VARIANCE> 39
 5.665395e+001 9.131579e+000 2.595927e+000 3.122405e+000 1.439342e+001 5.368031e+001 3.315858e+001 1.934947e+001 4.462181e+001 6.004368e+001 9.928627e+000 2.013853e+001 4.332571e+001 7.626204e+000 1.388122e+000 3.891305e+000 1.094173e+000 4.087285e+000 9.972810e+000 2.624842e+000 3.326863e+000 1.487017e+000 2.217392e+000 1.841121e+000 3.106558e+000 6.150541e+000 8.136513e-001 1.972164e-001 3.398456e-001 1.542876e-001 5.656762e-001 1.167002e+000 4.975672e-001 8.605785e-001 5.850245e-001 9.406729e-001 3.407197e-001 3.259780e-001 7.219307e-001
<GCONST> 1.153669e+002
<STATE> 3
<MEAN> 39
 2.336929e+000 4.171449e-001 -8.932221e+000 2.367676e-001 -6.051905e+000 -1.699283e+001 -2.922745e+000 1.000025e+001 7.928955e+000 -5.529343e+000 -1.854995e+000 -2.763810e+000 7.534888e+001 2.570068e+000 -1.549323e+000 -2.781035e+000 -9.366280e-001 -1.811985e+000 -2.387647e+000 2.137391e-001 1.525072e+000 7.307213e-001 -1.864571e-001 -4.315172e-001 -1.763722e-001 1.847907e+000 -9.983053e-001 2.667994e-001 4.874661e-001 3.773562e-001 7.450246e-001 1.395796e+000 6.210340e-001 -5.304977e-001 -3.557145e-001 5.353473e-001 2.344917e-001 2.771108e-001 -8.976167e-001
<VARIANCE> 39
 1.400215e+001 3.383965e+001 6.355738e+001 1.762038e+001 5.741972e+001 4.020664e+001 2.680433e+001 4.786573e+001 7.682982e+001 4.064316e+001 1.996714e+001 1.125301e+001 7.121074e+000 6.625147e+000 2.997066e+000 5.860246e+000 1.708340e+000 4.288660e+000 1.058418e+001 1.745495e+000 5.081153e+000 3.964871e+000 2.325190e+000 1.218588e+000 8.380641e-001 3.921678e+000 6.623865e-001 3.629521e-001 9.300900e-001 1.539284e-001 3.746201e-001 1.174041e+000 3.636048e-001 5.971881e-001 6.473048e-001 2.494720e-001 2.616867e-001 8.391521e-002 3.848784e-001
<GCONST> 1.177691e+002
<STATE> 4
<MEAN> 39
 3.034431e+000 -3.535211e+000 -1.438921e+001 -9.591837e-001 -9.811607e+000 -1.460907e+001 4.195888e+000 1.247150e+001 3.909698e+000 -2.455421e+000 5.283511e-002 -1.339816e+000 7.533997e+001 -5.613571e-001 5.049488e-001 3.818735e-001 -2.124546e-001 1.689223e-001 6.611123e-001 3.282774e-001 -7.810670e-001 -4.563996e-001 3.750935e-001 6.028810e-002 7.216389e-001 -5.634650e-001 -2.766593e-001 2.257467e-001 3.555915e-001 1.319550e-001 1.535612e-001 6.916729e-002 -2.168374e-001 -1.688746e-001 -5.232080e-002 -1.214317e-001 8.690362e-002 1.466905e-001 -2.124123e-001
<VARIANCE> 39
 1.273050e+001 3.410762e+001 3.798665e+001 2.890998e+001 3.957190e+001 3.219386e+001 2.248603e+001 4.621089e+001 3.210510e+001 2.675702e+001 1.377105e+001 1.776686e+001 1.402008e+001 5.259465e-001 4.982965e-001 1.333764e+000 4.882524e-001 9.146667e-001 1.662239e+000 8.532481e-001 1.035859e+000 2.191236e+000 5.694741e-001 6.578231e-001 6.649160e-001 4.072648e-001 1.408461e-001 1.618282e-001 2.513599e-001 9.726544e-002 1.731511e-001 2.368676e-001 1.172064e-001 1.965680e-001 2.069526e-001 2.456729e-001 1.581445e-001 1.595615e-001 8.752594e-002
<GCONST> 8.721671e+001
<TRANSP> 5
 0.000000e+000 1.000000e+000 0.000000e+000 0.000000e+000 0.000000e+000
 0.000000e+000 6.083952e-001 3.916048e-001 0.000000e+000 0.000000e+000
 0.000000e+000 0.000000e+000 5.971944e-001 4.028055e-001 0.000000e+000
 0.000000e+000 0.000000e+000 0.000000e+000 7.646911e-001 2.353089e-001
 0.000000e+000 0.000000e+000 0.000000e+000 0.000000e+000 0.000000e+000
<ENDHMM>
~h "iy"
<BEGINHMM>
<NUMSTATES> 5
<STATE> 2
<MEAN> 39
 -5.204558e+000 6.620486e+000 2.306054e+000 1.211056e+001 1.116782e+001 -2.779323e+000 -7.664380e+000 -2.818428e+000 -6.041069e-001 -3.761595e+000 -4.395330e+000 -8.409751e+000 6.808121e+001 -1.574574e-001 -6.172587e-001 9.268462e-002 4.246252e-001 5.238351e-001 -7.599779e-001 -7.193490e-002 -4.628358e-001 -1.164282e+000 -3.971342e-001 1.100148e+000 4.206916e-001 4.685252e-001 9.973941e-002 -9.374196e-002 -1.749269e-001 -3.469129e-002 -2.099635e-001 -2.683458e-001 1.819709e-002 4.371447e-002 -3.379584e-001 -1.784275e-001 3.362391e-001 2.278979e-001 1.227721e-001
<VARIANCE> 39
 3.957982e+000 5.962971e+001 2.046022e+001 4.663212e+001 2.530843e+001 3.891437e+001 3.566838e+001 1.423835e+001 1.938756e+001 1.302646e+001 2.540978e+001 2.271522e+001 2.257572e+001 1.737706e-001 3.167894e+000 6.954563e-001 3.172094e+000 1.325034e+000 4.874097e+000 1.831751e+000 2.048887e-001 1.396197e+000 1.606523e+000 1.357584e+000 9.655290e-001 1.319541e+000 2.865126e-002 6.721030e-001 1.050457e-001 6.098835e-001 2.945440e-001 9.803764e-001 4.963380e-001 6.292154e-002 2.680188e-001 1.237843e-001 3.096983e-001 2.197304e-001 2.689938e-001
<GCONST> 9.575383e+001
<STATE> 3
<MEAN> 39
 -1.990841e+000 -9.064574e-001 -2.781201e+000 1.233781e+001 1.004411e+001 -9.898252e+000 -6.299259e+000 -3.336850e+000 -9.053381e+000 -1.121405e+001 1.067774e+000 7.075538e-002 7.387959e+001 6.369985e-001 -1.443543e-001 -1.125077e+000 -9.909338e-001 -1.186594e+000 -6.067062e-001 4.964877e-001 8.973169e-001 -5.112729e-001 -6.662081e-001 1.062130e-001 8.656195e-001 2.836815e-001 2.947709e-002 -4.124689e-002 -5.029875e-002 -6.141482e-002 -9.305909e-002 -1.023356e-001 -1.817140e-001 2.195377e-001 5.342933e-001 1.054000e-001 6.564939e-002 5.843909e-002 8.549260e-003
<VARIANCE> 39
 5.019349e+000 8.385868e+000 1.309674e+001 4.017960e+001 3.750674e+001 2.463356e+001 2.447653e+001 3.841097e+001 2.876647e+001 4.016578e+001 6.890494e+001 1.127412e+001 3.489576e+000 3.453383e-001 1.872383e+000 1.063835e+000 2.694927e+000 1.441790e+000 6.341015e+000 3.594461e+000 3.397911e+000 3.942533e+000 1.393437e+000 3.527923e+000 9.388662e-001 9.642195e-001 7.123450e-002 2.613579e-001 1.610283e-001 4.906569e-001 2.165890e-001 1.388673e+000 5.975674e-001 7.617069e-001 2.958185e-001 4.066772e-001 8.427688e-001 2.477290e-001 1.858099e-001
<GCONST> 1.046346e+002
<STATE> 4
<MEAN> 39
 1.584886e+000 -4.362422e+000 -1.096838e+001 2.846043e+000 -6.501907e-001 -1.429075e+001 -1.994854e+000 3.921866e+000 -4.055791e+000 -7.103833e+000 6.429264e+000 7.993940e+000 7.627386e+001 -1.884788e-001 2.173873e-001 -3.900117e-002 -4.983989e-001 -9.273698e-001 5.057243e-001 9.087458e-001 1.518499e-001 3.371495e-001 1.153726e+000 6.508816e-001 8.117049e-002 -4.456742e-001 -2.075118e-001 2.192918e-001 3.934087e-001 3.268636e-001 2.787868e-001 3.929068e-001 -7.871538e-002 -1.904173e-001 -1.055271e-001 -1.331062e-001 -2.977374e-001 -3.900691e-001 -2.483790e-001
<VARIANCE> 39
 1.372025e+000 1.485609e+001 1.467554e+001 3.319013e+001 3.134150e+001 2.317174e+001 3.666217e+001 3.724743e+001 1.635898e+001 4.135493e+001 5.709607e+001 1.272337e+001 4.499299e+000 3.668911e-001 1.008146e+000 1.551790e+000 3.003609e+000 2.951680e+000 2.254932e+000 4.155015e+000 2.687970e+000 9.972137e-001 2.177038e+000 4.848369e+000 3.304386e+000 6.540245e-001 1.526888e-002 6.315637e-002 1.093401e-001 3.497928e-001 4.307488e-001 4.139951e-001 8.474137e-001 4.368816e-001 2.188500e-001 5.829858e-001 6.750295e-001 3.095306e-001 2.624717e-002
<GCONST> 9.708386e+001
<TRANSP> 5
 0.000000e+000 1.000000e+000 0.000000e+000 0.000000e+000 0.000000e+000
 0.000000e+000 7.913008e-001 2.086992e-001 0.000000e+000 0.000000e+000
 0.000000e+000 0.000000e+000 8.316322e-001 1.683678e-001 0.000000e+000
 0.000000e+000 0.000000e+000 0.000000e+000 8.584117e-001 1.415882e-001
 0.000000e+000 0.000000e+000 0.000000e+000 0.000000e+000 0.000000e+000
<ENDHMM>
~h "jh"
<BEGINHMM>
<NUMSTATES> 5
<STATE> 2
<MEAN> 39
 -2.530594e-001 1.279564e+000 -4.541589e+000 1.183821e+001 8.487210e+000 -6.452887e+000 -6.673949e+000 -2.530896e+000 -2.237757e+000 -1.893837e+000 -2.192447e+000 -5.580260e+000 7.152280e+001 2.163376e-001 -3.406953e-001 -2.771401e-001 -3.625578e-001 -1.014942e-001 -1.826357e-001 1.705973e-001 2.415462e-001 -4.310911e-001 -1.890832e-001 2.503484e-002 -4.277127e-003 3.239284e-001 1.870506e-003 -7.351717e-003 -1.943258e-001 -4.480159e-001 -2.162203e-001 -3.463891e-002 4.171386e-001 2.665319e-001 -2.963810e-001 -2.058210e-001 2.248361e-001 2.546254e-001 8.654375e-002
<VARIANCE> 39
 7.076837e-001 3.599776e+000 2.575990e+000 5.654192e+000 4.748037e+001 4.693457e+000 3.786786e+001 2.772647e+001 1.954735e+001 2.685895e+001 2.197269e+001 5.608714e+000 1.171190e+000 3.306799e-001 4.572957e-001 7.108961e-001 6.360798e-001 1.235384e+000 1.249779e+000 8.115904e-001 2.130204e+000 5.766265e-001 5.210228e-001 1.772882e+000 1.668124e-001 1.994326e-001 3.286513e-002 5.503118e-002 1.078235e-001 1.359189e-001 2.255675e-001 2.253702e-001 1.577931e-001 1.444575e-001 1.006249e-001 1.226577e-001 3.503323e-001 1.702691e-001 5.337551e-002
<GCONST> 6.571261e+001
<STATE> 3
<MEAN> 39
 2.186464e-001 -1.670694e-001 -7.315802e+000 4.463975e+000 5.615469e+000 -8.331536e+000 -6.657088e-001 6.205370e-001 -6.740426e+000 -3.972720e+000 6.357751e-001 -4.239353e+000 7.453677e+001 7.782039e-001 -1.101458e+000 -2.350355e+000 -3.554468e+000 -2.430856e+000 -2.143066e+000 3.123831e+000 3.306486e+000 -1.782681e+000 -2.769180e-001 2.968355e+000 2.294903e+000 1.706716e+000 6.332261e-002 -1.016377e-001 -2.307096e-001 -6.278466e-002 -1.433660e-001 4.286778e-002 3.917276e-002 3.361685e-001 5.433465e-001 -1.104073e-001 3.954396e-003 4.841380e-001 -1.341117e-002
<VARIANCE> 39
 8.571290e-001 1.504906e+001 5.069047e+000 3.025217e+001 6.427412e+001 1.716422e+001 4.384120e+001 4.066553e+001 1.547768e+001 2.944059e+001 7.215517e+001 1.310389e+001 7.942621e+000 3.803547e-001 1.023437e+000 2.936849e-001 2.134011e+000 2.499299e+000 4.343474e-001 1.906835e-001 4.109228e+000 2.744202e-001 8.046468e-001 3.228536e+000 7.066661e-001 9.749247e-002 7.532319e-002 1.315775e-001 2.222521e-001 4.889964e-001 4.836367e-001 7.309387e-001 3.199869e-001 5.891178e-001 2.150757e-001 1.526894e-001 9.906987e-001 2.021961e-001 1.355722e-001
<GCONST> 8.765446e+001
<STATE> 4
<MEAN> 39
 3.101472e+000 -4.654279e+000 -1.298886e+001 1.108784e+000 -6.029341e+000 -1.170095e+001 5.735593e+000 1.053942e+001 -9.802581e+000 -7.972471e+000 1.202760e+001 3.002424e+000 7.741380e+001 3.857491e-001 -3.184749e-001 -7.288047e-001 -8.689885e-001 -1.139654e+000 -1.593084e-002 1.370801e+000 1.150538e+000 4.409733e-001 -3.517238e-001 -2.196544e-001 4.550925e-001 9.123079e-002 -1.836455e-001 2.865077e-001 4.031962e-001 2.709372e-001 3.349137e-001 2.655329e-001 -3.646124e-001 -4.127915e-001 4.273454e-001 5.107675e-002 -5.937369e-001 -3.831927e-001 -2.739114e-001
<VARIANCE> 39
 1.023068e+000 7.038300e+000 4.343195e+000 2.705577e+001 3.673314e+001 1.581392e+001 1.856445e+001 8.166054e+000 1.021523e+001 1.301234e+001 2.390697e+001 5.107319e+000 1.142475e+000 1.757738e-001 5.660346e-001 1.016308e+000 1.141552e+000 1.083928e+000 8.867210e-001 8.347033e-001 1.742779e+000 7.081856e-001 9.249165e-001 2.798190e+000 1.774685e+000 3.632211e-001 3.537585e-002 7.096455e-002 4.992868e-002 2.214133e-001 2.041575e-001 3.099804e-001 1.268916e-001 3.575490e-001 3.298321e-001 1.997190e-001 6.091124e-001 1.318009e-001 5.675977e-002
<GCONST> 7.351797e+001
<TRANSP> 5
 0.000000e+000 1.000000e+000 0.000000e+000 0.000000e+000 0.000000e+000
 0.000000e+000 8.400001e-001 1.599999e-001 0.000000e+000 0.000000e+000
 0.000000e+000 0.000000e+000 5.060579e-001 4.939422e-001 0.000000e+000
 0.000000e+000 0.000000e+000 0.000000e+000 7.317305e-001 2.682696e-001
 0.000000e+000 0.000000e+000 0.000000e+000 0.000000e+000 0.000000e+000
<ENDHMM>
~h "ow"
<BEGINHMM>
<NUMSTATES> 5
<STATE> 2
<MEAN> 39
 2.960710e-001 1.961034e+000 -5.117695e+000 4.650746e+000 3.311424e+000 -1.032005e+001 -3.103742e+000 2.501804e-001 -3.119239e+000 -9.331434e+000 2.983196e-001 1.608831e+000 7.457887e+001 1.759192e+000 -1.672368e+000 -2.826091e+000 -2.398615e+000 -2.833750e+000 -3.878279e+000 2.476826e+000 2.908351e+000 -1.147512e+000 -2.321944e+000 2.955084e+000 3.539235e+000 2.207066e+000 -1.068753e-001 3.775015e-001 1.291548e-001 4.589427e-002 -3.438807e-001 -1.027014e-001 4.929945e-002 8.802585e-001 5.167839e-001 5.378966e-001 -1.871007e-001 -6.723018e-001 -3.998749e-001
<VARIANCE> 39
 8.500154e+000 1.899281e+001 4.442035e+001 1.969922e+001 6.043044e+001 3.846656e+001 4.121938e+001 4.193831e+001 3.877478e+001 2.309413e+001 4.078096e+001 3.898687e+001 1.082422e+001 3.254358e-001 1.027480e+000 5.154034e-001 2.317247e-001 6.108402e-001 1.248269e+000 3.393165e-001 5.402823e+000 4.695821e+000 3.931915e+000 3.098842e+000 2.820546e+000 7.456478e-001 1.663429e-001 1.543825e-001 4.502616e-001 1.451552e-001 3.039133e-001 8.483395e-001 4.983687e-001 6.676725e-001 7.568167e-001 7.043576e-001 7.762058e-001 1.110714e+000 2.659654e-001
<GCONST> 1.062497e+002
<STATE> 3
<MEAN> 39
 3.925231e+000 7.352237e-001 -1.158117e+001 -1.327358e+000 -4.543960e+000 -1.868178e+001 2.630431e+000 1.166260e+001 -1.349829e+000 -1.194340e+001 4.308062e+000 3.584890e+000 7.797893e+001 7.581700e-001 1.380701e-001 -7.881866e-001 -1.093139e+000 -2.133283e+000 -1.697318e+000 1.240699e-001 2.697785e+000 1.322392e+000 1.164096e+000 2.671270e-001 -1.127512e+000 2.501920e-001 -3.957178e-001 3.123300e-001 7.504200e-001 5.851414e-001 5.004930e-001 7.265330e-001 -9.934976e-001 -5.887142e-001 1.717063e-001 9.550679e-001 -5.679579e-001 -7.385148e-001 -4.811397e-001
<VARIANCE> 39
 1.173576e+000 1.384214e+001 4.302767e+000 2.345387e+001 3.456294e+001 1.158671e+001 9.396876e+000 6.455509e+000 3.544933e+001 1.373036e+001 2.606425e+001 2.506955e+001 1.053358e+000 3.308323e-001 2.122257e-001 1.454529e+000 4.774045e-001 1.150953e+000 1.002656e+000 3.929877e+000 1.245791e+000 1.267225e+000 2.542009e+000 1.080999e+000 3.915507e+000 1.797141e-001 4.908007e-002 1.461082e-001 1.352350e-001 3.517940e-002 4.182501e-002 5.321544e-001 1.418197e-001 3.935438e-001 5.348536e-001 2.988815e-001 2.907260e-001 8.154688e-001 5.979144e-002
<GCONST> 7.843972e+001
<STATE> 4
<MEAN> 39
 4.020470e+000 1.211410e+000 -7.121023e+000 1.767382e+000 -1.166006e+001 -2.557850e+001 -4.097278e+000 1.837225e+001 1.609969e+000 -5.248916e+000 3.951170e+000 -3.991378e-001 7.565577e+001 -1.806901e-001 3.482229e-001 4.454211e-001 2.180768e-001 -3.479848e-001 -2.807244e-001 -4.158665e-001 -8.690273e-003 2.741806e-001 3.409677e-001 -3.171456e-001 -5.486783e-002 -4.615270e-001 -1.102158e-001 1.204449e-001 8.898927e-002 -1.664384e-002 1.131924e-001 2.429805e-001 8.356959e-002 -2.816259e-001 -6.959679e-002 -8.506785e-002 -1.677323e-002 5.119210e-002 -8.565938e-002
<VARIANCE> 39
 2.242476e+000 6.741718e+000 1.940922e+001 2.843984e+001 1.935960e+001 2.709882e+001 2.860222e+001 1.368725e+001 2.179556e+001 1.558373e+001 1.643297e+001 7.324291e+000 3.610638e+000 1.268536e-001 5.924768e-001 5.097799e-001 4.623180e-001 7.214230e-001 1.257305e+000 1.283342e+000 1.262800e+000 4.063092e-001 1.808218e+000 6.703147e-001 7.244304e-001 1.509497e-001 1.369219e-002 3.832835e-002 8.075019e-002 6.555264e-002 3.629529e-002 8.254769e-002 1.863167e-001 9.223659e-002 6.731631e-002 1.975778e-001 1.265819e-001 1.917211e-001 1.013703e-002
<GCONST> 6.297382e+001
<TRANSP> 5
 0.000000e+000 1.000000e+000 0.000000e+000 0.000000e+000 0.000000e+000
 0.000000e+000 5.450086e-001 4.549914e-001 0.000000e+000 0.000000e+000
 0.000000e+000 0.000000e+000 6.366293e-001 3.633707e-001 0.000000e+000
 0.000000e+000 0.000000e+000 0.000000e+000 9.181324e-001 8.186758e-002
 0.000000e+000 0.000000e+000 0.000000e+000 0.000000e+000 0.000000e+000
<ENDHMM>
~h "sp"
<BEGINHMM>
<NUMSTATES> 5
<STATE> 2
~s "silst"
<STATE> 3
<MEAN> 39
 -1.964306e+001 4.224531e+000 8.408689e-001 5.011397e+000 4.830282e+000 6.145368e+000 6.951197e+000 5.701727e+000 7.139583e+000 6.492245e+000 6.088840e+000 4.595460e+000 5.697247e+001 7.005399e-002 1.435955e-002 -4.096438e-002 1.542572e-002 1.671951e-001 -5.184814e-002 4.222780e-002 -3.463269e-001 1.080244e-001 2.509844e-001 -1.066804e-003 -2.354688e-001 1.344163e-001 1.885074e-001 6.464083e-002 1.232786e-001 2.175877e-001 1.006203e-001 -1.637856e-001 -2.263905e-001 -1.897713e-001 -6.565386e-002 -1.111422e-001 -9.408046e-002 -1.460114e-001 1.355348e-001
<VARIANCE> 39
 8.668805e-001 6.341488e-001 1.698632e+000 1.670048e+000 4.095193e+000 2.206604e+000 5.399984e+000 3.170172e+000 2.787025e+000 2.890908e+000 2.706706e+000 1.098804e+001 5.072046e-001 8.429394e-002 4.088638e-002 2.944607e-001 1.385868e-001 3.810153e-001 3.971437e-001 8.857810e-001 6.251662e-001 7.829741e-001 1.761740e-001 1.450198e-001 7.708606e-001 3.984425e-002 6.097297e-002 5.488580e-002 7.648270e-002 1.005089e-001 9.515211e-002 5.673302e-002 1.579979e-001 5.928010e-002 2.826039e-001 1.390732e-001 1.045248e-001 2.637374e-001 2.455134e-002
<GCONST> 3.222480e+001
<STATE> 4
<MEAN> 39
 -1.940997e+001 3.980444e+000 4.782157e-001 5.108464e+000 5.562786e+000 6.758839e+000 6.709618e+000 5.916574e+000 7.358741e+000 6.002768e+000 4.768368e+000 4.367640e+000 5.716114e+001 5.397835e-001 4.663450e-001 6.939513e-001 7.810873e-001 4.558973e-001 -2.950864e-001 -1.063655e-001 -3.582588e-001 -4.287421e-001 -5.916183e-001 -5.616258e-001 -8.126934e-001 3.585946e-001 5.553335e-001 2.129520e-001 1.911585e-001 2.348495e-001 9.144524e-002 -2.686606e-001 -6.246361e-001 -1.770521e-001 -3.073181e-001 -3.221233e-001 -3.631773e-001 -4.553587e-001 3.755611e-001
<VARIANCE> 39
 9.508356e-001 4.636592e-001 1.434718e+000 1.017674e+000 6.000767e+000 2.754389e+000 6.412381e+000 9.354379e+000 5.493351e+000 1.907320e+000 5.904084e+000 5.605838e+000 5.164707e-001 5.704700e-001 8.001292e-001 5.652442e-001 8.323392e-001 5.905924e-001 4.611663e-001 9.164029e-001 8.538651e-001 1.650503e+000 1.201900e+000 1.274343e+000 1.033629e+000 2.637984e-001 2.526819e-001 1.103596e-001 4.974440e-002 7.101256e-002 9.543593e-002 1.704172e-001 2.933607e-001 5.286443e-002 3.650955e-001 1.809251e-001 2.591859e-001 3.389618e-001 1.262090e-001
<GCONST> 5.513779e+001
<TRANSP> 5
 0.000000e+000 7.000000e-001 3.000000e-001 0.000000e+000 0.000000e+000
 0.000000e+000 7.581326e-001 2.418675e-001 0.000000e+000 0.000000e+000
 0.000000e+000 0.000000e+000 5.583163e-001 4.416837e-001 0.000000e+000
 0.000000e+000 0.000000e+000 0.000000e+000 1.134596e-001 8.865404e-001
 0.000000e+000 0.000000e+000 0.000000e+000 0.000000e+000 0.000000e+000
<ENDHMM>
~h "uh"
<BEGINHMM>
<NUMSTATES> 5
<STATE> 2
<MEAN> 39
 -6.814490e+000 -9.401848e-001 -6.382305e+000 2.131219e+000 7.589023e-001 -5.834725e+000 4.003585e+000 2.952861e+000 1.269394e-001 -1.383465e+000 5.607102e+000 4.499552e+000 6.969812e+001 2.892648e+000 -1.222390e+000 -1.464558e+000 8.230993e-001 -2.645141e-001 -2.481929e+000 -5.419038e-001 -8.103572e-001 -2.007083e+000 -2.643950e+000 -7.395985e-001 -6.156060e-001 2.592265e+000 -4.431953e-002 3.808814e-001 3.686182e-001 1.189239e-001 9.674300e-003 5.701794e-002 -3.136559e-001 3.290910e-002 -5.174375e-002 -1.075914e-001 -2.831407e-001 -4.639409e-001 -1.816258e-001
<VARIANCE> 39
 6.994398e+001 2.651521e+001 3.914762e+001 3.355859e+001 4.721359e+001 5.676893e+001 4.254726e+001 4.704276e+001 5.399460e+001 5.341565e+001 2.227282e+001 1.079488e+001 5.655668e+001 3.939491e+000 2.430552e+000 2.904339e+000 2.852149e+000 2.962115e+000 4.030416e+000 3.326952e+000 5.668893e+000 6.848516e+000 5.460648e+000 1.732570e+000 2.021448e+000 2.533930e+000 1.345613e+000 7.495024e-001 5.609797e-001 5.417477e-001 4.079646e-001 1.326591e+000 6.248391e-001 9.870983e-001 1.205642e+000 1.442625e+000 5.983618e-001 2.515300e-001 7.489393e-001
<GCONST> 1.310492e+002
<STATE> 3
<MEAN> 39
 8.394543e-001 -7.350350e-001 -8.909218e+000 3.629834e+000 2.271990e+000 -9.381116e+000 8.840276e-002 1.920555e+000 -4.576461e+000 -8.282595e+000 1.250010e+000 1.673556e+000 7.440390e+001 1.232669e+000 2.956915e-001 -1.191652e-001 5.777972e-001 -3.866942e-001 -4.700845e-001 -8.385456e-001 2.013128e-001 1.903251e-001 -7.893953e-002 -1.276269e+000 -1.671956e+000 3.370071e-001 -8.794529e-001 2.603439e-001 5.898874e-001 -9.837703e-002 -2.516754e-002 4.184242e-001 -3.896502e-003 1.249592e-001 7.738896e-001 1.007843e+000 1.807471e-001 -2.324460e-001 -6.801409e-001
<VARIANCE> 39
 1.201288e+001 2.389238e+001 3.231324e+001 4.732690e+001 9.109470e+001 3.291063e+001 5.756427e+001 7.440091e+001 3.429539e+001 2.732596e+001 2.339745e+001 1.861506e+001 1.411276e+001 2.084888e+000 5.217109e+000 4.334579e+000 1.865743e+000 1.954098e+000 7.062320e+000 2.669391e+000 2.815158e+000 3.709287e+000 5.674265e+000 5.010435e+000 3.891334e+000 1.446176e+000 6.821522e-001 2.494310e-001 5.404316e-001 2.767240e-001 6.271823e-001 1.189491e+000 3.731878e-001 1.031294e+000 7.205861e-001 7.535046e-001 4.826512e-001 4.450988e-001 2.964651e-001
<GCONST> 1.238249e+002
<STATE> 4
<MEAN> 39
 2.849381e+000 -2.560753e+000 -1.142838e+001 2.140707e+000 -1.676424e+000 -1.237565e+001 1.132247e+000 2.591119e+000 -3.825351e+000 -5.871249e+000 2.092129e+000 7.228161e-001 7.642010e+001 2.834290e-002 5.627592e-001 1.958945e-001 2.389522e-001 -1.776615e-001 -4.915965e-001 -4.910667e-001 1.853145e-001 9.772861e-002 -1.114238e-001 -2.649342e-001 -3.407473e-001 -3.460299e-001 -6.663722e-001 5.004982e-001 5.995870e-001 -1.161748e-001 1.436710e-001 4.738156e-001 2.677402e-003 -1.143234e-001 8.066721e-002 2.725068e-001 1.973330e-002 7.186646e-002 -5.544576e-001
<VARIANCE> 39
 9.860838e+000 2.194735e+001 3.758574e+001 3.726251e+001 7.786780e+001 2.011352e+001 5.615381e+001 6.973354e+001 6.555061e+001 3.203167e+001 2.019011e+001 1.945063e+001 1.224556e+001 7.465888e-001 1.757253e+000 1.684555e+000 6.004555e-001 1.377363e+000 1.347541e+000 8.073774e-001 1.926050e+000 1.892950e+000 1.805412e+000 2.068730e+000 1.350023e+000 5.325260e-001 3.224233e-001 3.722954e-001 4.124974e-001 1.668654e-001 2.603985e-001 4.225185e-001 2.784304e-001 4.605783e-001 4.432233e-001 4.738106e-001 2.143642e-001 3.002867e-001 2.069863e-001
<GCONST> 1.040890e+002
<TRANSP> 5
 0.000000e+000 1.000000e+000 0.000000e+000 0.000000e+000 0.000000e+000
 0.000000e+000 4.066428e-001 5.933573e-001 0.000000e+000 0.000000e+000
 0.000000e+000 0.000000e+000 2.525531e-001 7.474468e-001 0.000000e+000
 0.000000e+000 0.000000e+000 0.000000e+000 5.426794e-001 4.573206e-001
 0.000000e+000 0.000000e+000 0.000000e+000 0.000000e+000 0.000000e+000
<ENDHMM>
~h "sil"
<BEGINHMM>
<NUMSTATES> 5
<STATE> 2
<MEAN> 39
 -1.906794e+001 4.930885e+000 1.815507e+000 6.368855e+000 5.388675e+000 6.158847e+000 6.046855e+000 6.762053e+000 7.313274e+000 6.646449e+000 6.062859e+000 4.484123e+000 5.714425e+001 -4.199516e-001 -3.072124e-001 1.127079e-002 2.219297e-004 1.773334e-002 -1.205834e-001 -6.402007e-002 2.210326e-001 3.199884e-001 7.200307e-001 4.684528e-001 3.916685e-001 -2.203650e-001 1.054570e-001 5.241216e-002 -5.182699e-002 -1.018177e-001 -1.425351e-001 -1.057982e-002 1.197441e-002 -1.219330e-001 -1.460107e-001 -3.047230e-001 -2.199957e-001 -3.703767e-002 6.096161e-002
<VARIANCE> 39
 1.574766e+000 2.216103e+000 2.356248e+000 3.400061e+000 3.818747e+000 2.751965e+000 2.771237e+000 6.134307e+000 5.731950e+000 7.409003e+000 5.193753e+000 4.006487e+000 5.072046e-001 1.550168e-001 1.895775e-001 4.071066e-001 3.875219e-001 5.656999e-001 3.199787e-001 3.757747e-001 4.790328e-001 9.154254e-001 1.250151e+000 6.482180e-001 2.471493e-001 3.415614e-002 9.004844e-003 9.724579e-003 3.173467e-002 3.245615e-002 9.741733e-002 6.138494e-002 5.072063e-002 1.215444e-001 9.289423e-002 1.358925e-001 1.152859e-001 3.807336e-002 3.251100e-003
<GCONST> 3.046858e+001
<STATE> 3
~s "silst"
<STATE> 4
<MEAN> 39
 -1.950601e+001 4.024945e+000 4.697604e-001 4.933260e+000 5.275321e+000 6.374761e+000 6.582624e+000 5.524268e+000 7.611144e+000 6.702385e+000 5.505013e+000 4.734569e+000 5.712101e+001 3.255668e-001 2.963707e-001 5.160167e-001 5.694815e-001 4.821379e-001 -2.145591e-001 5.798271e-002 -4.621061e-001 -4.697281e-002 -3.601348e-001 -3.537697e-001 -5.957184e-001 3.097790e-001 5.375587e-001 2.138678e-001 2.796064e-001 3.836520e-001 1.455352e-001 -2.527462e-001 -5.619190e-001 -2.145812e-001 -4.404298e-001 -3.987263e-001 -3.850369e-001 -5.284293e-001 3.654313e-001
<VARIANCE> 39
 1.490164e+000 4.402181e-001 1.995093e+000 1.719204e+000 5.398212e+000 2.870260e+000 7.073157e+000 7.946130e+000 4.833416e+000 2.581459e+000 6.220205e+000 7.125215e+000 5.072046e-001 4.672690e-001 5.882806e-001 6.257190e-001 6.282653e-001 5.644278e-001 5.351621e-001 7.484574e-001 8.556060e-001 1.852907e+000 9.407325e-001 9.583868e-001 9.327362e-001 1.957391e-001 1.843354e-001 1.122747e-001 6.310543e-002 1.011703e-001 1.079807e-001 1.511913e-001 2.325069e-001 5.867420e-002 3.952528e-001 1.461750e-001 1.937395e-001 2.908193e-001 8.880354e-002
<GCONST> 5.434872e+001
<TRANSP> 5
 0.000000e+000 1.000000e+000 0.000000e+000 0.000000e+000 0.000000e+000
 0.000000e+000 5.292439e-001 2.942213e-001 1.765349e-001 0.000000e+000
 0.000000e+000 0.000000e+000 8.077294e-001 1.922705e-001 0.000000e+000
 0.000000e+000 4.352868e-026 0.000000e+000 4.282531e-001 5.717469e-001
 0.000000e+000 0.000000e+000 0.000000e+000 0.000000e+000 0.000000e+000
<ENDHMM>
