~o
<STREAMINFO> 1 39
<VECSIZE> 39<NULLD><MFCC_D_A_0><DIAGC>
~t "T_b"
<TRANSP> 5
 0.000000e+000 1.000000e+000 0.000000e+000 0.000000e+000 0.000000e+000
 0.000000e+000 8.263500e-001 1.736500e-001 0.000000e+000 0.000000e+000
 0.000000e+000 0.000000e+000 4.286939e-001 5.713061e-001 0.000000e+000
 0.000000e+000 0.000000e+000 0.000000e+000 7.652442e-001 2.347558e-001
 0.000000e+000 0.000000e+000 0.000000e+000 0.000000e+000 0.000000e+000
~t "T_d"
<TRANSP> 5
 0.000000e+000 1.000000e+000 0.000000e+000 0.000000e+000 0.000000e+000
 0.000000e+000 5.788149e-001 4.211852e-001 0.000000e+000 0.000000e+000
 0.000000e+000 0.000000e+000 7.949811e-001 2.050190e-001 0.000000e+000
 0.000000e+000 0.000000e+000 0.000000e+000 8.851448e-001 1.148552e-001
 0.000000e+000 0.000000e+000 0.000000e+000 0.000000e+000 0.000000e+000
~t "T_g"
<TRANSP> 5
 0.000000e+000 1.000000e+000 0.000000e+000 0.000000e+000 0.000000e+000
 0.000000e+000 9.069681e-001 9.303194e-002 0.000000e+000 0.000000e+000
 0.000000e+000 0.000000e+000 8.175154e-001 1.824846e-001 0.000000e+000
 0.000000e+000 0.000000e+000 0.000000e+000 7.658380e-001 2.341621e-001
 0.000000e+000 0.000000e+000 0.000000e+000 0.000000e+000 0.000000e+000
~t "T_l"
<TRANSP> 5
 0.000000e+000 1.000000e+000 0.000000e+000 0.000000e+000 0.000000e+000
 0.000000e+000 7.243182e-001 2.756819e-001 0.000000e+000 0.000000e+000
 0.000000e+000 0.000000e+000 7.517496e-001 2.482504e-001 0.000000e+000
 0.000000e+000 0.000000e+000 0.000000e+000 8.691556e-001 1.308444e-001
 0.000000e+000 0.000000e+000 0.000000e+000 0.000000e+000 0.000000e+000
~t "T_m"
<TRANSP> 5
 0.000000e+000 1.000000e+000 0.000000e+000 0.000000e+000 0.000000e+000
 0.000000e+000 7.247990e-001 2.752011e-001 0.000000e+000 0.000000e+000
 0.000000e+000 0.000000e+000 8.277664e-001 1.722336e-001 0.000000e+000
 0.000000e+000 0.000000e+000 0.000000e+000 7.797552e-001 2.202448e-001
 0.000000e+000 0.000000e+000 0.000000e+000 0.000000e+000 0.000000e+000
~t "T_n"
<TRANSP> 5
 0.000000e+000 1.000000e+000 0.000000e+000 0.000000e+000 0.000000e+000
 0.000000e+000 8.102557e-001 1.897444e-001 0.000000e+000 0.000000e+000
 0.000000e+000 0.000000e+000 8.833270e-001 1.166730e-001 0.000000e+000
 0.000000e+000 0.000000e+000 0.000000e+000 8.499647e-001 1.500353e-001
 0.000000e+000 0.000000e+000 0.000000e+000 0.000000e+000 0.000000e+000
~t "T_p"
<TRANSP> 5
 0.000000e+000 1.000000e+000 0.000000e+000 0.000000e+000 0.000000e+000
 0.000000e+000 6.666385e-001 3.333615e-001 0.000000e+000 0.000000e+000
 0.000000e+000 0.000000e+000 6.536077e-001 3.463923e-001 0.000000e+000
 0.000000e+000 0.000000e+000 0.000000e+000 9.616095e-001 3.839052e-002
 0.000000e+000 0.000000e+000 0.000000e+000 0.000000e+000 0.000000e+000
~t "T_s"
<TRANSP> 5
 0.000000e+000 1.000000e+000 0.000000e+000 0.000000e+000 0.000000e+000
 0.000000e+000 8.585089e-001 1.414911e-001 0.000000e+000 0.000000e+000
 0.000000e+000 0.000000e+000 7.250509e-001 2.749492e-001 0.000000e+000
 0.000000e+000 0.000000e+000 0.000000e+000 8.211013e-001 1.788987e-001
 0.000000e+000 0.000000e+000 0.000000e+000 0.000000e+000 0.000000e+000
~t "T_t"
<TRANSP> 5
 0.000000e+000 1.000000e+000 0.000000e+000 0.000000e+000 0.000000e+000
 0.000000e+000 8.392785e-001 1.607215e-001 0.000000e+000 0.000000e+000
 0.000000e+000 0.000000e+000 6.004477e-001 3.995523e-001 0.000000e+000
 0.000000e+000 0.000000e+000 0.000000e+000 7.160131e-001 2.839869e-001
 0.000000e+000 0.000000e+000 0.000000e+000 0.000000e+000 0.000000e+000
~t "T_w"
<TRANSP> 5
 0.000000e+000 1.000000e+000 0.000000e+000 0.000000e+000 0.000000e+000
 0.000000e+000 7.895467e-001 2.104533e-001 0.000000e+000 0.000000e+000
 0.000000e+000 0.000000e+000 7.334137e-001 2.665864e-001 0.000000e+000
 0.000000e+000 0.000000e+000 0.000000e+000 8.027177e-001 1.972823e-001
 0.000000e+000 0.000000e+000 0.000000e+000 0.000000e+000 0.000000e+000
~t "T_ah"
<TRANSP> 5
 0.000000e+000 1.000000e+000 0.000000e+000 0.000000e+000 0.000000e+000
 0.000000e+000 7.166578e-001 2.833422e-001 0.000000e+000 0.000000e+000
 0.000000e+000 0.000000e+000 7.957383e-001 2.042617e-001 0.000000e+000
 0.000000e+000 0.000000e+000 0.000000e+000 9.386379e-001 6.136218e-002
 0.000000e+000 0.000000e+000 0.000000e+000 0.000000e+000 0.000000e+000
~t "T_hh"
<TRANSP> 5
 0.000000e+000 1.000000e+000 0.000000e+000 0.000000e+000 0.000000e+000
 0.000000e+000 6.364502e-001 3.635498e-001 0.000000e+000 0.000000e+000
 0.000000e+000 0.000000e+000 6.002493e-001 3.997507e-001 0.000000e+000
 0.000000e+000 0.000000e+000 0.000000e+000 6.918771e-001 3.081229e-001
 0.000000e+000 0.000000e+000 0.000000e+000 0.000000e+000 0.000000e+000
~t "T_ih"
<TRANSP> 5
 0.000000e+000 1.000000e+000 0.000000e+000 0.000000e+000 0.000000e+000
 0.000000e+000 7.238072e-001 2.761928e-001 0.000000e+000 0.000000e+000
 0.000000e+000 0.000000e+000 5.811134e-001 4.188866e-001 0.000000e+000
 0.000000e+000 0.000000e+000 0.000000e+000 7.898312e-001 2.101688e-001
 0.000000e+000 0.000000e+000 0.000000e+000 0.000000e+000 0.000000e+000
~t "T_iy"
<TRANSP> 5
 0.000000e+000 1.000000e+000 0.000000e+000 0.000000e+000 0.000000e+000
 0.000000e+000 8.070452e-001 1.929548e-001 0.000000e+000 0.000000e+000
 0.000000e+000 0.000000e+000 8.474387e-001 1.525613e-001 0.000000e+000
 0.000000e+000 0.000000e+000 0.000000e+000 8.462374e-001 1.537626e-001
 0.000000e+000 0.000000e+000 0.000000e+000 0.000000e+000 0.000000e+000
~t "T_jh"
<TRANSP> 5
 0.000000e+000 1.000000e+000 0.000000e+000 0.000000e+000 0.000000e+000
 0.000000e+000 8.399970e-001 1.600030e-001 0.000000e+000 0.000000e+000
 0.000000e+000 0.000000e+000 5.000613e-001 4.999388e-001 0.000000e+000
 0.000000e+000 0.000000e+000 0.000000e+000 7.364980e-001 2.635020e-001
 0.000000e+000 0.000000e+000 0.000000e+000 0.000000e+000 0.000000e+000
~t "T_ow"
<TRANSP> 5
 0.000000e+000 1.000000e+000 0.000000e+000 0.000000e+000 0.000000e+000
 0.000000e+000 4.994467e-001 5.005533e-001 0.000000e+000 0.000000e+000
 0.000000e+000 0.000000e+000 6.365742e-001 3.634258e-001 0.000000e+000
 0.000000e+000 0.000000e+000 0.000000e+000 9.167632e-001 8.323673e-002
 0.000000e+000 0.000000e+000 0.000000e+000 0.000000e+000 0.000000e+000
~t "T_uh"
<TRANSP> 5
 0.000000e+000 1.000000e+000 0.000000e+000 0.000000e+000 0.000000e+000
 0.000000e+000 4.075867e-001 5.924133e-001 0.000000e+000 0.000000e+000
 0.000000e+000 0.000000e+000 2.744357e-001 7.255643e-001 0.000000e+000
 0.000000e+000 0.000000e+000 0.000000e+000 5.651746e-001 4.348253e-001
 0.000000e+000 0.000000e+000 0.000000e+000 0.000000e+000 0.000000e+000
~s "ST_s_2_1"
<MEAN> 39
 -1.188181e+000 -1.276882e+000 -8.896833e+000 1.620982e+000 -8.823959e+000 -1.340826e+001 2.053609e+000 1.139106e+001 8.311154e-001 -3.997872e+000 5.084886e+000 2.616826e+000 7.191883e+001 -2.605288e-001 1.473191e-001 2.342371e-001 1.747156e-001 2.839167e-001 4.970585e-001 -2.172683e-001 -3.253395e-001 -1.063715e-001 8.958720e-003 7.152566e-002 -7.562932e-002 -2.908083e-001 -9.957164e-002 2.575823e-002 3.393837e-002 -7.565765e-003 1.529369e-001 1.582794e-001 -5.217618e-002 -1.322209e-002 2.592506e-002 1.817346e-003 1.646074e-002 4.514412e-002 -7.908071e-002
<VARIANCE> 39
 6.581918e+001 4.999950e+001 3.820375e+001 1.386431e+001 2.152181e+001 6.805254e+001 1.545341e+001 2.288390e+001 4.171635e+001 5.392099e+001 2.218741e+001 1.687878e+001 6.044921e+001 6.739365e+000 3.346571e+000 2.980976e+000 6.649895e-001 3.008739e+000 8.239280e+000 1.314000e+000 2.794709e+000 2.177924e+000 5.445530e+000 2.919959e+000 2.118097e+000 5.465992e+000 1.004517e+000 4.789211e-001 4.165428e-001 1.268021e-001 5.049646e-001 1.525174e+000 2.208998e-001 4.715062e-001 2.668582e-001 8.193114e-001 6.665173e-001 5.161222e-001 7.388647e-001
<GCONST> 1.221713e+002
~s "ST_s_3_1"
<MEAN> 39
 -3.701117e+000 2.249902e+000 -8.064399e+000 -1.481386e+000 -4.048839e+000 -8.193336e+000 8.593100e-002 4.821088e+000 6.763792e+000 7.118705e-001 2.081971e+000 2.417330e+000 6.853052e+001 -1.099134e+000 9.511848e-001 8.302296e-001 -1.439994e-001 5.198331e-001 1.535604e+000 -1.409725e-001 -5.516315e-001 3.373840e-001 5.687139e-001 1.082112e-001 1.811692e-001 -1.161198e+000 -1.436519e-002 -1.340987e-001 -3.128679e-002 7.202227e-002 2.251669e-001 1.041361e-002 1.407827e-001 5.130912e-002 -7.369295e-004 2.365258e-002 -3.235865e-002 -4.462019e-002 9.895877e-002
<VARIANCE> 39
 5.650267e+001 2.873674e+001 3.460130e+001 1.463294e+001 1.291161e+001 5.067281e+001 1.661017e+001 2.370330e+001 3.405498e+001 2.410222e+001 1.572942e+001 2.004738e+001 4.098345e+001 8.008812e+000 2.647010e+000 3.901212e+000 1.802193e+000 2.133095e+000 7.299679e+000 3.175439e+000 2.279463e+000 3.721200e+000 1.920924e+000 1.757789e+000 3.511785e+000 6.335732e+000 1.090327e+000 3.888530e-001 5.333313e-001 3.865050e-001 3.479166e-001 1.423579e+000 6.625442e-001 4.647872e-001 5.119059e-001 2.970993e-001 3.661533e-001 8.449584e-001 7.121164e-001
<GCONST> 1.215816e+002
~s "ST_s_4_1"
<MEAN> 39
 -5.716774e+000 6.347314e+000 -1.629788e+000 4.236668e+000 1.533007e+000 -4.498860e+000 -2.668405e+000 3.688286e+000 1.991608e+000 -1.607628e+000 5.450848e-001 -2.288734e+000 6.610007e+001 -1.468788e+000 4.298088e-001 8.935245e-001 3.676662e-001 9.219265e-001 1.765409e+000 9.613019e-001 -1.915484e-001 4.539676e-001 6.488010e-001 1.403254e-002 1.443564e-001 -1.146783e+000 -1.030209e-001 -2.285330e-001 -1.377670e-001 -4.098193e-002 -1.089834e-001 2.597552e-002 2.854428e-001 1.804909e-001 1.513572e-002 7.818493e-002 2.446948e-001 2.604961e-001 -3.162045e-003
<VARIANCE> 39
 1.643151e+001 3.081321e+001 2.021104e+001 2.928938e+001 5.473615e+001 4.210085e+001 1.314046e+001 3.480445e+001 2.349466e+001 3.061405e+001 1.051965e+001 1.299078e+001 1.350646e+001 7.576246e-001 1.203231e+000 2.037182e+000 1.278741e+000 1.032827e+000 1.753614e+000 1.276510e+000 9.422882e-001 8.523780e-001 1.292633e+000 1.207647e+000 2.210407e+000 3.854696e-001 1.633605e-001 1.775533e-001 4.027088e-001 1.559225e-001 1.882907e-001 1.956358e-001 1.209982e-001 1.160874e-001 1.389727e-001 1.742721e-001 1.425344e-001 2.090081e-001 8.649063e-002
<GCONST> 9.046703e+001
~s "ST_uh_2_1"
<MEAN> 39
 -6.898437e+000 -9.135206e-001 -6.381010e+000 2.090777e+000 7.638593e-001 -5.766468e+000 4.018416e+000 2.967433e+000 2.720679e-001 -1.278308e+000 5.626316e+000 4.529635e+000 6.962315e+001 2.941999e+000 -1.245423e+000 -1.539014e+000 7.324058e-001 -3.093081e-001 -2.502305e+000 -4.893908e-001 -8.007821e-001 -2.066200e+000 -2.681863e+000 -7.265637e-001 -6.005989e-001 2.641033e+000 -3.922891e-002 3.752333e-001 3.650343e-001 1.276712e-001 4.468469e-003 5.304412e-002 -3.111035e-001 3.320365e-002 -6.659511e-002 -1.208317e-001 -2.742895e-001 -4.686286e-001 -1.748572e-001
<VARIANCE> 39
 7.010669e+001 2.678842e+001 3.960823e+001 3.382961e+001 4.695891e+001 5.678922e+001 4.237548e+001 4.692260e+001 5.222368e+001 5.344087e+001 2.236821e+001 1.093729e+001 5.704885e+001 3.836239e+000 2.426233e+000 2.777947e+000 2.452877e+000 2.893498e+000 3.943468e+000 3.215107e+000 5.639837e+000 6.680213e+000 5.348028e+000 1.773143e+000 1.945127e+000 2.383208e+000 1.357447e+000 7.546233e-001 5.677514e-001 5.788525e-001 4.097182e-001 1.337332e+000 6.290778e-001 9.801790e-001 1.211065e+000 1.443291e+000 5.973186e-001 2.542352e-001 7.618776e-001
<GCONST> 1.307694e+002
~s "ST_uh_3_1"
<MEAN> 39
 8.313796e-001 -6.140037e-001 -8.952718e+000 3.496390e+000 2.197944e+000 -9.362172e+000 2.634988e-001 2.051190e+000 -4.814690e+000 -8.258387e+000 1.401018e+000 1.740775e+000 7.435134e+001 1.212826e+000 2.768927e-001 -8.619151e-002 7.012746e-001 -3.382240e-001 -4.562449e-001 -8.906284e-001 1.533384e-001 2.013155e-001 -8.278944e-002 -1.236923e+000 -1.694405e+000 3.267375e-001 -8.941633e-001 2.569079e-001 6.156349e-001 -5.863135e-002 -3.986481e-003 4.302053e-001 -2.119697e-002 1.083225e-001 8.002543e-001 1.025268e+000 1.607130e-001 -2.416791e-001 -6.931990e-001
<VARIANCE> 39
 1.166401e+001 2.379240e+001 3.156605e+001 4.662128e+001 8.892159e+001 3.202402e+001 5.742712e+001 7.335786e+001 3.550305e+001 2.655637e+001 2.345388e+001 1.823726e+001 1.383068e+001 2.044369e+000 5.075532e+000 4.244718e+000 2.335690e+000 1.996294e+000 6.873132e+000 2.710001e+000 2.801308e+000 3.605034e+000 5.500257e+000 4.916417e+000 3.741422e+000 1.414309e+000 6.698982e-001 2.443581e-001 5.470536e-001 3.354182e-001 6.284569e-001 1.169692e+000 3.835926e-001 1.009587e+000 7.450641e-001 7.344320e-001 4.825002e-001 4.357472e-001 2.956049e-001
<GCONST> 1.238140e+002
~s "ST_uh_4_1"
<MEAN> 39
 2.757410e+000 -2.469960e+000 -1.141992e+001 2.021230e+000 -1.296145e+000 -1.218450e+001 9.714490e-001 2.797455e+000 -4.130862e+000 -6.065078e+000 2.055828e+000 7.780740e-001 7.633456e+001 1.680733e-002 5.920295e-001 1.922144e-001 2.307084e-001 -2.288879e-001 -4.089266e-001 -3.965089e-001 1.528432e-001 1.130304e-001 -1.826941e-002 -3.061287e-001 -3.778843e-001 -3.865892e-001 -6.467037e-001 4.931696e-001 5.977927e-001 -1.041872e-001 1.217901e-001 4.482753e-001 2.062280e-002 -1.343363e-001 6.537844e-002 2.880374e-001 1.744424e-002 5.573522e-002 -5.404058e-001
<VARIANCE> 39
 9.575568e+000 2.104123e+001 3.680466e+001 3.984600e+001 7.688951e+001 1.984983e+001 5.568893e+001 7.036458e+001 6.740734e+001 3.143045e+001 1.942646e+001 1.978618e+001 1.187937e+001 7.150358e-001 1.698859e+000 1.614644e+000 5.726386e-001 1.408205e+000 1.425317e+000 9.995594e-001 1.859606e+000 1.831390e+000 1.874342e+000 1.997844e+000 1.307483e+000 5.511141e-001 3.145290e-001 3.557505e-001 3.925220e-001 1.632253e-001 2.585005e-001 4.154623e-001 2.711248e-001 4.473172e-001 4.286466e-001 4.772905e-001 2.042104e-001 3.087512e-001 2.011147e-001
<GCONST> 1.037597e+002
~s "ST_l_2_1"
<MEAN> 39
 -1.474519e+001 3.237741e+000 -1.160440e+000 4.303106e+000 2.670907e+000 1.190655e+000 6.007171e+000 5.433349e+000 4.764860e+000 3.047028e+000 4.502462e+000 3.261102e+000 6.169901e+001 5.363504e-001 -1.028236e-001 1.859453e-001 2.102816e-001 9.429564e-002 -2.769278e-001 -4.428256e-001 -5.807189e-001 -6.953418e-001 -7.581856e-001 -1.892318e-001 -2.910630e-001 5.662761e-001 1.697060e-001 1.054383e-001 9.331509e-002 1.251043e-001 1.600436e-001 -5.646142e-002 -2.850203e-001 -1.942748e-002 -1.376490e-001 -2.248011e-001 -1.788807e-001 -1.645306e-001 8.707106e-002
<VARIANCE> 39
 6.474393e+001 1.591810e+001 2.138853e+001 1.415875e+001 2.415962e+001 9.128631e+001 3.019383e+001 2.476458e+001 2.551133e+001 3.424606e+001 1.397690e+001 2.823832e+001 4.006507e+001 3.180678e+000 2.373446e+000 1.704633e+000 1.041976e+000 1.457678e+000 4.886636e+000 3.126323e+000 2.005120e+000 3.467392e+000 4.784805e+000 2.604446e+000 2.606883e+000 2.829141e+000 3.378505e-001 3.573189e-001 2.395961e-001 2.199491e-001 2.204941e-001 6.870095e-001 5.929456e-001 4.130014e-001 4.014531e-001 6.980243e-001 2.546709e-001 3.960448e-001 3.066800e-001
<GCONST> 1.141445e+002
~s "ST_l_3_1"
<MEAN> 39
 -1.712300e+000 1.780998e+000 -3.115451e+000 9.794128e+000 7.414866e+000 -7.514537e+000 -4.881919e+000 5.091977e+000 -2.134725e+000 -9.038977e+000 -1.274487e+000 -4.301184e+000 7.106198e+001 -3.034535e-001 4.876270e-001 6.368095e-001 9.015968e-001 1.053316e+000 4.788649e-001 -1.097493e+000 -4.067186e-001 3.945023e-001 1.659561e-001 -3.734466e-001 -4.700097e-001 -4.564916e-001 -5.236897e-001 1.159637e-001 2.244556e-001 -1.738213e-001 -2.183828e-001 2.726656e-001 4.103572e-001 -1.295412e-001 3.237957e-001 5.581063e-001 2.179460e-001 3.124225e-001 -3.624337e-001
<VARIANCE> 39
 1.294174e+001 1.129169e+001 1.638398e+001 3.987216e+001 6.107402e+001 3.127738e+001 2.697123e+001 4.251920e+001 7.587939e+001 7.666701e+001 4.138749e+001 5.960320e+001 8.828144e+000 3.092574e+000 1.718302e+000 1.829330e+000 2.567396e+000 2.554986e+000 3.006681e+000 3.057658e+000 2.350040e+000 2.490855e+000 6.581956e+000 2.959265e+000 2.595887e+000 1.721349e+000 1.762905e-001 3.505785e-001 2.635305e-001 3.697261e-001 4.658834e-001 4.127057e-001 3.454039e-001 4.019082e-001 4.197243e-001 6.177216e-001 5.465083e-001 4.691319e-001 1.455601e-001
<GCONST> 1.156339e+002
~s "ST_l_4_1"
<MEAN> 39
 -7.346171e+000 8.948981e-001 2.026133e+000 1.219370e+001 7.714041e+000 -4.359764e+000 -4.988075e+000 6.383029e-001 -1.650603e+000 -6.427782e+000 1.995924e-001 -1.440383e+000 6.849518e+001 -5.378199e-001 4.901800e-001 3.458918e-001 -3.860897e-001 -4.399909e-001 6.135776e-001 7.049409e-001 2.209135e-001 3.239850e-001 3.608177e-001 -1.605680e-001 1.315521e-002 -5.618587e-001 1.380713e-002 -1.549769e-001 -1.743333e-001 -4.207673e-002 4.354417e-002 -9.598106e-003 1.118548e-001 1.296496e-001 -1.998816e-002 -3.226056e-002 1.106480e-001 9.263761e-002 5.626510e-002
<VARIANCE> 39
 4.297667e+001 7.087886e+001 5.803262e+001 4.539976e+001 5.810035e+001 5.666917e+001 5.774019e+001 4.858268e+001 5.714572e+001 5.793681e+001 2.707325e+001 1.502401e+001 2.938508e+001 3.896984e+000 6.343198e+000 4.309141e+000 2.005619e+000 2.435575e+000 3.532793e+000 4.102433e+000 3.606857e+000 3.613317e+000 4.383506e+000 2.258970e+000 1.579607e+000 2.379836e+000 3.986806e-001 1.239216e+000 5.422559e-001 3.468202e-001 4.041174e-001 5.253354e-001 7.475356e-001 7.373149e-001 6.300250e-001 7.119152e-001 4.334715e-001 2.436999e-001 2.772894e-001
<GCONST> 1.273664e+002
~s "ST_b_2_1"
<MEAN> 39
 -2.312487e+001 -6.117616e+000 1.161612e+001 -2.624899e+000 1.498463e+000 -9.227840e-001 1.301790e+001 -1.527312e+000 -4.923821e-001 9.209444e+000 9.093911e+000 -7.487687e-001 6.930855e+001 1.380340e+000 4.447107e-001 -5.214412e-001 2.165053e-001 6.755501e-002 -7.933562e-001 -6.078439e-001 -3.473120e-001 -1.257979e+000 -7.226743e-001 -6.280529e-001 1.063783e-001 5.616129e-001 4.878401e-001 4.555582e-001 -4.768409e-001 3.601573e-001 2.403290e-001 7.037856e-002 -5.399498e-001 1.321511e-001 2.225558e-002 -2.697403e-001 -3.513046e-001 8.220330e-002 -2.721328e-001
<VARIANCE> 39
 7.897623e+001 1.715913e+001 5.823860e+001 3.012392e+001 2.179324e+001 2.045511e+001 4.984531e+001 2.206076e+001 4.536165e+001 7.265079e+001 2.627673e+001 8.922521e+000 1.144791e+001 1.030982e+001 3.496883e+000 5.557951e+000 4.859191e+000 2.618186e+000 1.200299e+000 6.590832e+000 2.469284e+000 2.697872e+000 5.954746e+000 4.078875e+000 8.214724e-001 8.635229e-001 8.985384e-001 3.892022e-001 4.134432e-001 5.806581e-001 8.338037e-001 5.224484e-001 4.735650e-001 5.669085e-001 6.925851e-001 1.208179e+000 4.910126e-001 1.736963e-001 2.372179e-001
<GCONST> 1.214093e+002
~s "ST_b_3_1"
<MEAN> 39
 -1.115817e+000 2.682869e+000 -4.145956e+000 5.356789e+000 4.681983e+000 -9.684281e+000 -2.644931e+000 9.351915e-001 -7.903295e+000 -4.308206e+000 1.680410e+000 1.099499e+000 7.228122e+001 1.705283e+000 1.190293e+000 -1.710899e+000 1.136225e+000 2.734951e+000 1.863092e-001 -3.453905e+000 2.316927e-001 2.141556e+000 -1.425361e+000 -2.637452e+000 -1.023469e+000 4.408786e-002 -1.597383e+000 -2.068016e-001 1.092959e+000 -4.081251e-001 1.618565e-001 1.308269e+000 8.314477e-001 -3.801831e-001 1.270198e+000 1.297472e+000 -1.565419e-001 -6.306079e-001 -5.646355e-001
<VARIANCE> 39
 8.471085e+000 8.843520e+000 4.414349e+001 5.295499e+001 5.158680e+000 7.844330e+000 3.154565e+001 2.008537e+001 5.810209e+001 1.627383e+001 2.371505e+001 6.139680e+000 9.893857e+000 4.221753e+000 9.805915e-001 2.213024e+000 9.585262e-001 1.613042e+000 3.852752e+000 5.732414e+000 1.533038e+000 6.403004e+000 2.916863e+000 2.034609e+000 2.438068e+000 3.477946e-001 3.283709e-001 4.779090e-001 1.754326e-001 3.983150e-001 2.659052e-001 1.800969e-001 6.080303e-001 3.990900e-001 1.334839e+000 2.701081e-001 8.220552e-001 2.614661e-001 7.993544e-002
<GCONST> 1.036205e+002
~s "ST_b_4_1"
<MEAN> 39
 -1.729981e+000 2.521491e+000 -2.557478e+000 1.017520e+001 1.545679e+001 -4.193474e+000 -1.101653e+001 -5.395474e+000 3.755108e+000 -3.740658e+000 -5.204064e+000 -6.741077e+000 7.164690e+001 -2.154600e-001 -4.161135e-001 5.839141e-001 9.883645e-001 7.570434e-001 1.647614e-001 -5.371390e-001 -4.768867e-001 8.440799e-001 -2.578298e-001 -5.223607e-001 -1.564518e-001 1.203602e-001 -1.534712e-001 2.238774e-002 1.481972e-001 -2.095376e-001 -3.476607e-001 1.214352e-001 4.372849e-001 -1.126689e-001 -3.104190e-001 1.913851e-001 1.741059e-001 1.511071e-001 -8.051246e-002
<VARIANCE> 39
 4.259551e+000 4.480043e+001 2.207219e+001 5.983851e+001 2.548105e+001 2.179318e+001 4.969192e+001 2.916495e+001 1.768056e+001 5.088981e+001 1.993169e+001 1.787682e+001 1.626926e+001 4.599029e-001 5.534075e+000 9.113092e-001 3.529033e+000 3.552642e+000 4.141241e+000 4.672982e+000 1.201596e+000 2.514925e+000 6.996179e+000 4.373458e+000 3.449259e+000 1.992001e+000 1.926711e-001 1.109682e+000 3.502108e-001 9.276313e-001 8.437189e-001 8.895203e-001 1.448519e+000 2.620528e-001 7.991502e-001 1.450888e+000 7.184429e-001 2.942592e-001 4.180722e-001
<GCONST> 1.197663e+002
~s "ST_hh_2_1"
<MEAN> 39
 2.669533e+000 -1.103518e+000 -1.273920e+001 -2.539012e+000 -4.877619e+000 -1.024524e+001 3.782582e+000 1.035007e+001 -1.951409e-001 -2.168741e+000 1.743528e+000 -1.660466e+000 7.402658e+001 -6.938955e-001 7.592596e-001 7.672024e-001 9.378152e-001 1.316219e+000 6.503690e-001 -1.369931e+000 -5.546437e-001 1.487352e+000 1.158238e+000 -1.707543e+000 -1.381575e+000 -1.030785e+000 -3.198144e-001 7.914392e-002 3.599574e-001 4.711164e-001 4.553565e-001 5.518043e-001 1.513340e-001 -3.501993e-002 -2.097958e-001 -3.736058e-001 -4.832607e-003 -2.457149e-001 -1.782129e-001
<VARIANCE> 39
 1.697282e+000 4.924625e+000 8.216271e+000 2.431295e+001 3.972822e+001 1.407633e+001 2.476491e+001 1.068998e+001 1.104704e+001 5.595767e+000 1.755894e+001 9.940050e+000 2.935432e+000 2.777523e-001 3.222180e-001 2.849820e-001 1.118079e+000 4.338298e+000 8.052395e-001 1.863107e+000 9.475241e-001 2.358291e-001 1.290619e+000 6.263695e-001 7.165861e-001 3.343136e-002 1.801802e-002 1.420399e-001 1.665309e-001 7.910442e-002 2.105745e-001 1.074469e-001 4.146061e-001 1.522068e-001 7.732131e-002 1.790281e-001 1.876220e-001 1.242296e-001 4.327228e-002
<GCONST> 6.621073e+001
~s "ST_ow_2_1"
<MEAN> 39
 3.461304e-001 1.639451e+000 -5.015078e+000 4.107123e+000 2.038057e+000 -1.070175e+001 -1.924785e+000 9.844033e-001 -3.836647e+000 -1.020027e+001 1.149003e+000 2.643792e+000 7.505077e+001 1.787171e+000 -1.620376e+000 -2.848284e+000 -2.447913e+000 -2.969533e+000 -3.966866e+000 2.524064e+000 2.950417e+000 -1.167112e+000 -1.994393e+000 3.181990e+000 3.350246e+000 2.220112e+000 -1.179828e-001 4.461549e-001 1.408771e-001 1.044244e-001 -2.542720e-001 -2.313925e-002 -5.035555e-002 8.220672e-001 5.490751e-001 6.558263e-001 -2.932146e-001 -8.420667e-001 -4.711914e-001
<VARIANCE> 39
 9.313520e+000 1.972526e+001 4.872299e+001 1.835709e+001 4.850528e+001 4.069313e+001 2.987364e+001 4.015086e+001 3.700335e+001 1.700727e+001 3.690913e+001 3.103410e+001 9.415859e+000 3.458599e-001 1.100168e+000 5.591998e-001 2.262331e-001 4.630855e-001 1.268046e+000 3.441104e-001 5.909701e+000 5.159982e+000 3.137304e+000 2.842071e+000 2.693319e+000 8.179464e-001 1.811431e-001 1.170968e-001 4.935955e-001 1.217763e-001 2.452588e-001 8.631416e-001 4.387079e-001 6.970632e-001 8.206707e-001 6.194453e-001 7.300127e-001 9.032843e-001 2.343778e-001
<GCONST> 1.039111e+002
~s "ST_hh_3_1"
<MEAN> 39
 3.683965e-002 -1.357199e+000 -9.742364e+000 5.080787e+000 2.429858e+000 -8.590837e+000 1.462609e+000 1.249714e+001 2.847834e+000 -3.432535e+000 -2.670548e+000 -9.137631e+000 7.194562e+001 -8.699812e-001 7.590168e-001 1.123979e+000 9.796310e-001 4.807907e-001 1.458662e+000 2.582763e-001 -5.725411e-001 3.062999e-001 2.212464e-001 -1.693982e-001 -1.256528e+000 -9.267356e-001 -1.269553e-001 2.610569e-001 2.413080e-001 -1.035032e-001 -1.388530e-001 2.937553e-001 1.130872e-001 -2.998260e-001 -2.380739e-001 -6.102311e-002 2.790294e-001 2.180738e-001 -1.284853e-001
<VARIANCE> 39
 2.056184e+000 5.334629e+000 7.754022e+000 8.274934e+001 5.111188e+000 6.054265e+000 4.464002e+000 2.192426e+001 3.947268e+000 1.659850e+001 2.598068e+000 2.687972e+001 1.681493e+000 1.939444e-001 1.709897e+000 1.245671e+000 9.868334e-001 2.836157e+000 1.011985e+000 5.215626e-001 1.209402e+000 1.655582e-001 5.589984e-001 1.744666e+000 1.641399e+000 6.712805e-001 9.397208e-002 9.604254e-002 1.945544e-001 2.642617e-001 5.047517e-001 3.057923e-001 1.081176e-001 9.282585e-002 5.760977e-002 1.397498e-001 1.978661e-001 2.148634e-001 8.816377e-002
<GCONST> 7.091592e+001
~s "ST_ow_3_1"
<MEAN> 39
 3.925086e+000 7.358561e-001 -1.158113e+001 -1.327680e+000 -4.544155e+000 -1.868072e+001 2.630610e+000 1.166265e+001 -1.351107e+000 -1.194350e+001 4.309063e+000 3.584479e+000 7.797890e+001 7.582578e-001 1.379724e-001 -7.883137e-001 -1.093310e+000 -2.133373e+000 -1.697402e+000 1.241017e-001 2.698184e+000 1.322393e+000 1.163964e+000 2.671582e-001 -1.127556e+000 2.503167e-001 -3.957678e-001 3.123393e-001 7.505457e-001 5.851766e-001 5.005098e-001 7.265882e-001 -9.935294e-001 -5.887461e-001 1.717607e-001 9.552173e-001 -5.680523e-001 -7.386487e-001 -4.811702e-001
<VARIANCE> 39
 1.173616e+000 1.384157e+001 4.303407e+000 2.345673e+001 3.456791e+001 1.158110e+001 9.398081e+000 6.456467e+000 3.544389e+001 1.373236e+001 2.606165e+001 2.507223e+001 1.053516e+000 3.308314e-001 2.121946e-001 1.454642e+000 4.772828e-001 1.151072e+000 1.002761e+000 3.930462e+000 1.244922e+000 1.267417e+000 2.542276e+000 1.081156e+000 3.916085e+000 1.796386e-001 4.907087e-002 1.461296e-001 1.351506e-001 3.517651e-002 4.182946e-002 5.322143e-001 1.418343e-001 3.935966e-001 5.349145e-001 2.987788e-001 2.907111e-001 8.154733e-001 5.979430e-002
<GCONST> 7.843901e+001
~s "ST_hh_4_1"
<MEAN> 39
 -3.664220e+000 2.758560e+000 -6.854385e+000 3.852024e+000 2.595889e+000 -9.803884e-001 3.167004e+000 7.297095e+000 2.462605e+000 -1.474989e+000 -2.686292e+000 -7.818485e+000 6.786870e+001 -1.514659e+000 1.461194e+000 1.914833e+000 7.623733e-001 8.744196e-001 1.919495e+000 1.766573e-001 -9.555260e-001 -2.266705e-001 1.974415e-001 -2.653519e-001 -5.738102e-001 -1.511392e+000 -2.146276e-001 -1.605576e-002 1.505611e-001 -2.673590e-002 3.767243e-002 5.181635e-003 1.490338e-001 7.990577e-002 -8.474677e-002 -5.257740e-002 1.107450e-001 2.782952e-001 -6.273498e-002
<VARIANCE> 39
 4.813635e+000 1.163825e+001 9.211085e+000 2.971747e+001 9.523723e+000 1.761442e+001 8.382723e+000 1.383176e+001 7.375018e+000 7.979144e+000 4.981861e+000 9.794603e+000 2.340677e+000 4.172653e-001 1.247190e+000 1.773438e+000 1.605245e+000 1.020415e+000 3.549669e+000 3.715362e-001 1.094601e+000 6.774558e-001 5.325567e-001 1.015737e+000 2.497206e+000 6.604998e-001 7.385967e-002 1.602614e-001 8.587956e-002 1.196559e-001 3.913158e-001 4.821900e-001 1.036890e-001 1.336029e-001 1.563151e-001 2.824601e-001 2.992876e-001 9.684583e-002 6.942975e-002
<GCONST> 7.599079e+001
~s "ST_ow_4_1"
<MEAN> 39
 4.015550e+000 1.139081e+000 -7.071374e+000 1.891562e+000 -1.171163e+001 -2.573823e+001 -4.085225e+000 1.845157e+001 1.497464e+000 -5.363521e+000 3.984701e+000 -3.873308e-001 7.568699e+001 -1.662738e-001 3.146866e-001 4.239492e-001 2.330385e-001 -3.640637e-001 -3.016533e-001 -4.005632e-001 2.620744e-002 2.906356e-001 3.248788e-001 -3.374246e-001 -4.292074e-002 -4.498390e-001 -1.098362e-001 1.214128e-001 8.462986e-002 -1.740570e-002 1.167995e-001 2.449543e-001 8.673527e-002 -2.822791e-001 -7.144412e-002 -8.479226e-002 -1.541204e-002 4.731940e-002 -8.572013e-002
<VARIANCE> 39
 2.277179e+000 6.539053e+000 1.957682e+001 2.796162e+001 1.952151e+001 2.598601e+001 2.907233e+001 1.353368e+001 2.138554e+001 1.504158e+001 1.663692e+001 7.438250e+000 3.611544e+000 1.163704e-001 5.338610e-001 4.896578e-001 4.564139e-001 7.178611e-001 1.251503e+000 1.289643e+000 1.209975e+000 3.965052e-001 1.822516e+000 6.558452e-001 7.278337e-001 1.451801e-001 1.389737e-002 3.891201e-002 8.094994e-002 6.661148e-002 3.611647e-002 8.368918e-002 1.888384e-001 9.373400e-002 6.823035e-002 2.008751e-001 1.285446e-001 1.940074e-001 1.030764e-002
<GCONST> 6.269251e+001
~s "ST_jh_2_1"
<MEAN> 39
 -2.530828e-001 1.279555e+000 -4.541407e+000 1.183830e+001 8.486610e+000 -6.452828e+000 -6.673469e+000 -2.530773e+000 -2.237995e+000 -1.893870e+000 -2.192172e+000 -5.580208e+000 7.152277e+001 2.163293e-001 -3.406434e-001 -2.771168e-001 -3.625160e-001 -1.014274e-001 -1.826426e-001 1.704949e-001 2.415219e-001 -4.310336e-001 -1.890610e-001 2.499193e-002 -4.286048e-003 3.238964e-001 1.861141e-003 -7.325653e-003 -1.943121e-001 -4.479897e-001 -2.161815e-001 -3.461688e-002 4.171086e-001 2.665119e-001 -2.963808e-001 -2.058147e-001 2.248026e-001 2.545922e-001 8.652332e-002
<VARIANCE> 39
 7.076837e-001 3.599852e+000 2.575477e+000 5.653964e+000 4.747522e+001 4.693643e+000 3.786537e+001 2.772641e+001 1.954666e+001 2.685952e+001 2.197068e+001 5.608637e+000 1.171177e+000 3.306803e-001 4.572668e-001 7.108843e-001 6.359237e-001 1.235248e+000 1.249767e+000 8.111909e-001 2.130170e+000 5.764622e-001 5.209801e-001 1.772843e+000 1.667790e-001 1.994181e-001 3.286406e-002 5.501846e-002 1.078218e-001 1.359110e-001 2.255411e-001 2.253578e-001 1.577841e-001 1.444551e-001 1.006271e-001 1.226593e-001 3.502969e-001 1.702496e-001 5.336693e-002
<GCONST> 6.570963e+001
~s "ST_jh_3_1"
<MEAN> 39
 1.765848e-001 -9.447733e-002 -7.246847e+000 4.440858e+000 5.728327e+000 -8.252822e+000 -6.934202e-001 5.416113e-001 -6.681894e+000 -3.857462e+000 3.926022e-001 -4.304795e+000 7.449773e+001 7.722314e-001 -1.105171e+000 -2.347968e+000 -3.590645e+000 -2.410341e+000 -2.149273e+000 3.134109e+000 3.335814e+000 -1.796153e+000 -2.868735e-001 2.953517e+000 2.295451e+000 1.715972e+000 6.910813e-002 -1.050335e-001 -2.414833e-001 -7.030743e-002 -1.560630e-001 3.593291e-002 4.643169e-002 3.391211e-001 5.386876e-001 -1.128372e-001 2.645019e-002 4.962102e-001 -9.053295e-003
<VARIANCE> 39
 7.212271e-001 1.480105e+001 4.736978e+000 3.057709e+001 6.405935e+001 1.686451e+001 4.434347e+001 4.065861e+001 1.540072e+001 2.871080e+001 6.820426e+001 1.291439e+001 7.916018e+000 3.821497e-001 1.034735e+000 2.971613e-001 2.051313e+000 2.495272e+000 4.369301e-001 1.843307e-001 4.087633e+000 2.629161e-001 8.063891e-001 3.250661e+000 7.155788e-001 9.153258e-002 7.349750e-002 1.322917e-001 2.154379e-001 4.904929e-001 4.765389e-001 7.360094e-001 3.197703e-001 5.956151e-001 2.160278e-001 1.540646e-001 9.616272e-001 1.927878e-001 1.357484e-001
<GCONST> 8.705530e+001
~s "ST_jh_4_1"
<MEAN> 39
 3.077068e+000 -4.594131e+000 -1.297826e+001 1.026726e+000 -5.890336e+000 -1.171978e+001 5.749456e+000 1.057857e+001 -9.833437e+000 -7.929124e+000 1.194017e+001 2.998786e+000 7.740469e+001 3.915554e-001 -3.345862e-001 -7.463251e-001 -8.578969e-001 -1.141695e+000 -9.353819e-003 1.346547e+000 1.149336e+000 4.578210e-001 -3.669665e-001 -1.941393e-001 4.913622e-001 9.604735e-002 -1.831634e-001 2.844720e-001 4.036730e-001 2.840190e-001 3.360494e-001 2.767150e-001 -3.716699e-001 -4.245295e-001 4.371904e-001 4.700783e-002 -6.001730e-001 -3.882462e-001 -2.776151e-001
<VARIANCE> 39
 1.068666e+000 7.310772e+000 4.275206e+000 2.786968e+001 3.733066e+001 1.559108e+001 1.849644e+001 8.430616e+000 1.007727e+001 1.347534e+001 2.563341e+001 5.042505e+000 1.132917e+000 1.774602e-001 5.693595e-001 1.020535e+000 1.129029e+000 1.146311e+000 9.120447e-001 9.049673e-001 1.712229e+000 7.532963e-001 9.491819e-001 2.872261e+000 1.810657e+000 3.613957e-001 3.539201e-002 6.992602e-002 4.947803e-002 2.285215e-001 2.029829e-001 3.112424e-001 1.276908e-001 3.714505e-001 3.292532e-001 1.976898e-001 6.080705e-001 1.311078e-001 5.652595e-002
<GCONST> 7.402596e+001
~s "ST_n_2_1"
<MEAN> 39
 -1.721083e+001 4.061365e+000 4.214326e+000 5.842571e+000 5.371033e+000 4.927498e+000 5.901137e+000 3.103216e+000 3.852530e+000 3.825907e+000 4.217693e+000 2.457293e+000 6.100315e+001 1.408123e+000 2.272938e-001 2.061465e-001 5.652959e-001 3.943050e-001 -7.191095e-001 -9.628822e-001 -1.034598e+000 -1.026935e+000 -1.196380e+000 -7.050241e-001 -7.955253e-001 1.145930e+000 3.400593e-001 -1.730213e-001 -1.358582e-001 8.720224e-002 1.143017e-001 -4.059093e-001 -3.298541e-001 -1.247529e-001 -2.233682e-001 -3.401833e-001 -1.470758e-001 -7.716570e-002 3.692652e-001
<VARIANCE> 39
 3.747188e+001 3.287248e+001 3.499580e+001 2.799554e+001 8.902001e+000 1.458676e+001 2.308139e+001 1.927375e+001 1.877595e+001 1.215928e+001 1.559844e+001 1.596567e+001 2.132208e+001 3.410166e+000 3.293394e+000 2.391148e+000 2.784474e+000 1.125351e+000 2.908971e+000 3.079908e+000 2.679197e+000 2.611085e+000 2.509384e+000 2.530725e+000 2.565975e+000 2.531724e+000 4.005883e-001 6.638605e-001 4.281466e-001 4.687415e-001 1.904444e-001 4.844826e-001 3.544940e-001 6.498249e-001 4.361416e-001 4.239313e-001 4.416121e-001 4.294640e-001 3.498640e-001
<GCONST> 1.117609e+002
~s "ST_n_3_1"
<MEAN> 39
 -3.033262e+000 1.596426e+000 -4.909075e-001 1.198513e+001 1.058723e+001 -6.082928e+000 -6.711272e+000 -9.525569e-001 -2.701248e+000 -7.980321e+000 -2.053715e+000 -4.373331e+000 7.183609e+001 9.777754e-001 -3.186319e-001 -8.718218e-001 -4.818247e-001 -2.757967e-001 -6.969373e-001 -5.011621e-001 1.782721e-001 -2.110205e-001 -5.507424e-001 -3.624125e-001 -2.085198e-001 7.829748e-001 -1.717384e-001 -4.832379e-002 -1.257956e-001 -2.590781e-001 -2.828200e-001 3.126915e-002 3.277236e-001 2.737163e-001 1.911412e-001 2.316894e-001 3.204499e-001 3.172895e-001 -1.394056e-001
<VARIANCE> 39
 1.586594e+001 2.798909e+001 2.521708e+001 5.214640e+001 2.888793e+001 5.200997e+001 4.635557e+001 4.522227e+001 4.790313e+001 5.486890e+001 2.694983e+001 4.777281e+001 1.931908e+001 1.700125e+000 3.036802e+000 1.707958e+000 3.626724e+000 2.654602e+000 6.473921e+000 4.307779e+000 4.641347e+000 4.229543e+000 5.649039e+000 2.189983e+000 2.828987e+000 2.461267e+000 2.009937e-001 4.891218e-001 3.189793e-001 4.627490e-001 4.168538e-001 1.035338e+000 6.183089e-001 1.033823e+000 8.015708e-001 8.595123e-001 4.944866e-001 6.411540e-001 2.814856e-001
<GCONST> 1.248064e+002
~s "ST_n_4_1"
<MEAN> 39
 1.573891e-001 -8.218276e-001 -1.051047e+001 -3.233884e-002 -2.089309e+000 -9.231909e+000 2.048087e+000 8.679002e+000 -1.728637e+000 -4.275662e+000 4.240210e+000 1.974809e+000 7.340294e+001 -4.234227e-001 -2.140093e-001 -8.059068e-002 -2.982743e-001 -6.275102e-001 -2.125296e-003 1.041940e+000 7.874389e-001 4.696735e-001 6.359873e-001 5.326855e-001 4.919957e-001 -2.869261e-001 -2.120552e-001 1.362587e-001 2.199210e-001 1.876783e-001 1.917628e-001 2.734726e-001 -8.177159e-003 -1.167469e-001 5.613841e-002 7.011246e-002 -1.440637e-001 -1.414061e-001 -2.335432e-001
<VARIANCE> 39
 3.275527e+001 4.143304e+001 4.023345e+001 3.033476e+001 4.120245e+001 6.633102e+001 3.663675e+001 6.054612e+001 3.991416e+001 3.232053e+001 3.813710e+001 1.740252e+001 3.850947e+001 1.902477e+000 2.021011e+000 2.681619e+000 1.822941e+000 2.602026e+000 4.860030e+000 1.519014e+000 4.526149e+000 2.005325e+000 2.153561e+000 3.082494e+000 3.087855e+000 1.849526e+000 8.866842e-002 2.500304e-001 2.368844e-001 2.492175e-001 3.045095e-001 3.278299e-001 2.919782e-001 4.583431e-001 2.746494e-001 2.970209e-001 4.810476e-001 4.797123e-001 1.135625e-001
<GCONST> 1.135539e+002
~s "ST_d_2_1"
<MEAN> 39
 -4.263885e+000 5.040682e+000 -6.434923e+000 -1.076805e+000 -3.043978e+000 -6.863301e+000 3.916140e+000 3.318175e+000 1.795812e+000 -2.452249e+000 -6.093808e-001 1.263867e+000 6.853991e+001 -3.612433e+000 2.412832e+000 2.692002e+000 -4.543453e-001 5.409756e-001 3.014639e+000 9.901237e-002 3.182148e-001 1.302320e+000 1.583508e+000 4.904859e-001 1.944682e-001 -3.499373e+000 -4.891904e-002 -5.955319e-001 -2.945804e-001 9.921738e-003 -1.410061e-001 8.986612e-002 1.169850e-001 3.509710e-001 3.953994e-001 5.199531e-001 4.675021e-001 2.975526e-001 5.570466e-002
<VARIANCE> 39
 4.467278e+001 2.314134e+001 2.699809e+001 1.927111e+001 3.108229e+001 5.647771e+001 8.931101e+000 1.758595e+001 3.732732e+001 2.384006e+001 1.764531e+001 4.093237e+001 3.356522e+001 1.673529e+000 1.552588e+000 5.499426e-001 1.420701e+000 1.457026e+000 7.774836e-001 9.146003e-001 1.774247e+000 3.175087e+000 2.981966e+000 2.099147e+000 1.449650e+000 1.113906e+000 7.406957e-001 3.563166e-001 2.903790e-001 2.629984e-001 1.765281e-001 5.773848e-001 1.735666e-001 2.028175e-001 4.978492e-001 4.560646e-001 2.132157e-001 1.420151e-001 5.302503e-001
<GCONST> 1.039235e+002
~s "ST_d_3_1"
<MEAN> 39
 -1.266113e+001 7.981122e+000 6.085082e-001 2.887397e+000 2.031204e+000 3.733608e+000 4.229958e+000 4.601036e+000 4.770333e+000 2.000956e+000 1.082399e+000 -1.247090e+000 6.060629e+001 -1.371641e+000 -3.839236e-001 4.754732e-001 7.137330e-001 6.640943e-001 8.981380e-001 2.418818e-001 1.731268e-001 4.252596e-001 7.376643e-001 9.082358e-001 8.804767e-001 -8.957067e-001 2.627551e-001 -2.754169e-001 -3.068870e-001 -4.317509e-002 -2.883458e-002 -3.532474e-001 5.838456e-002 2.391713e-002 -9.845864e-002 -1.128437e-001 -3.037044e-002 1.149398e-001 3.115167e-001
<VARIANCE> 39
 1.027460e+001 8.378669e+000 1.452314e+001 2.894921e+001 3.304423e+001 1.538140e+001 3.436789e+000 5.277405e+000 1.411768e+001 1.819906e+001 2.968024e+001 5.613632e+001 3.834803e+000 5.769249e-001 3.639244e-001 7.632463e-001 8.528727e-001 7.427143e-001 7.892913e-001 4.661335e-001 6.168438e-001 6.812339e-001 1.422050e+000 9.454774e-001 1.109318e+000 2.984005e-001 1.737717e-001 1.013083e-001 1.411095e-001 1.782611e-001 2.180513e-001 1.844747e-001 6.148499e-002 1.425727e-001 1.731873e-001 2.929250e-001 2.387516e-001 2.384118e-001 1.286876e-001
<GCONST> 7.707982e+001
~s "ST_d_4_1"
<MEAN> 39
 -1.942311e+001 4.250042e+000 6.228083e-001 5.941255e+000 4.450168e+000 5.810008e+000 6.141504e+000 5.518319e+000 7.051361e+000 5.675856e+000 6.102478e+000 4.877966e+000 5.767429e+001 -1.788712e-001 -2.114417e-001 -3.558477e-002 4.231573e-002 1.997234e-002 2.961399e-003 1.813194e-002 -6.481399e-003 6.744570e-002 1.433834e-001 2.303669e-001 2.173360e-001 -5.254899e-002 1.402934e-001 -1.124847e-002 -3.175131e-002 2.111447e-003 -1.030550e-002 -1.155117e-001 -4.594365e-002 -4.538321e-002 -8.327620e-002 -1.140440e-001 -4.069923e-002 -6.994229e-002 1.246052e-001
<VARIANCE> 39
 2.902840e+000 8.849856e+000 1.360556e+001 4.877363e+000 9.676937e+000 5.833482e+000 6.022176e+000 1.166260e+001 8.090715e+000 5.465293e+000 7.430627e+000 8.529095e+000 4.481110e+000 4.857649e-001 1.420125e+000 2.188141e+000 5.081751e-001 1.078928e+000 5.277041e-001 5.592667e-001 1.320822e+000 1.170093e+000 7.604235e-001 7.677974e-001 1.220560e+000 7.994308e-001 1.212328e-001 3.248396e-001 4.573197e-001 8.196797e-002 1.959352e-001 1.755849e-001 1.252391e-001 3.289686e-001 2.628107e-001 2.036956e-001 1.755526e-001 2.029402e-001 2.524381e-001
<GCONST> 7.458893e+001
~s "ST_g_2_1"
<MEAN> 39
 2.705567e+000 -2.181276e-001 -5.594429e+000 2.753368e+000 -9.335176e+000 -2.144874e+001 -3.971853e+000 1.447616e+001 -1.469848e-001 -1.087494e+001 6.268309e-001 -3.019588e+000 7.622139e+001 1.352607e-001 -9.046337e-001 -9.422225e-001 -1.265300e-001 -4.151322e-001 -1.219342e-001 3.592442e-001 2.895907e-001 -2.884177e-002 2.974903e-001 4.692172e-001 7.762302e-001 2.276295e-001 -6.428505e-002 1.440096e-002 1.976352e-002 3.062863e-003 1.017752e-001 1.757611e-001 8.088640e-002 -8.051859e-002 -5.388955e-002 7.394806e-002 7.816610e-002 2.634218e-002 -5.691101e-002
<VARIANCE> 39
 1.833954e+000 3.927168e+001 2.362590e+001 9.878664e+000 3.839304e+001 2.171019e+001 4.874689e+001 3.003833e+001 1.609643e+001 3.842753e+001 1.505244e+001 2.009268e+001 6.151157e+000 1.512877e-001 5.759629e-001 4.365584e-001 3.779736e-001 3.146467e-001 7.874299e-001 9.261886e-001 5.660377e-001 7.030126e-001 1.006166e+000 6.226147e-001 1.319362e+000 3.299895e-001 2.221172e-002 1.168855e-001 6.422373e-002 6.707623e-002 5.294716e-002 1.058869e-001 1.349081e-001 1.025083e-001 1.295016e-001 1.571827e-001 1.064326e-001 1.153748e-001 2.907397e-002
<GCONST> 6.874493e+001
~s "ST_g_3_1"
<MEAN> 39
 9.850826e-001 -3.367094e-002 -1.135011e+001 -6.307906e-002 -5.375538e+000 -1.390562e+001 -9.519902e-001 7.529919e+000 1.912558e+000 -4.097335e+000 2.498518e+000 3.483978e+000 7.292080e+001 -1.062869e+000 5.506205e-001 3.992618e-001 -5.079748e-001 3.329077e-001 1.468242e+000 8.241079e-001 -5.730220e-001 -1.107652e-001 1.288237e+000 6.012549e-001 2.273471e-001 -1.043173e+000 -3.664705e-001 2.085087e-001 2.696099e-001 -2.554384e-002 1.818948e-001 3.732425e-001 8.831603e-002 2.272665e-002 3.480783e-001 2.042001e-001 -6.943359e-002 -1.026198e-001 -2.773323e-001
<VARIANCE> 39
 5.708568e+000 2.243959e+001 8.863938e+000 1.024316e+001 5.254924e+001 2.063629e+001 4.586443e+001 4.755667e+001 5.210647e+000 3.439007e+001 1.773976e+001 1.593838e+001 8.093654e+000 4.284826e-001 9.660904e-001 6.545525e-001 6.989139e-001 5.410044e-001 8.385862e-001 4.287437e-001 6.763605e-001 6.287570e-001 8.810257e-001 4.381061e-001 1.004315e+000 3.188336e-001 7.444794e-002 1.656947e-001 1.666981e-001 2.459965e-001 2.490984e-001 1.666090e-001 1.747607e-001 1.301063e-001 1.523381e-001 1.356172e-001 1.265880e-001 3.874643e-001 5.091660e-002
<GCONST> 7.796490e+001
~s "ST_g_4_1"
<MEAN> 39
 -8.781039e+000 3.269181e+000 -5.975001e+000 -1.053307e+000 -4.190683e+000 -4.339434e+000 5.313654e+000 7.978535e+000 5.708331e+000 1.628618e+000 4.267770e+000 4.527771e+000 6.500830e+001 -2.553740e+000 1.137459e+000 1.392067e+000 -4.340482e-002 1.196400e+000 2.779305e+000 4.465270e-001 -3.110175e-001 1.359531e+000 1.735642e+000 4.787834e-001 8.630129e-001 -2.199304e+000 6.872437e-002 -2.510085e-001 -1.236282e-002 2.811775e-001 -2.739122e-002 -2.916287e-001 -2.476349e-001 2.174945e-001 -1.824280e-001 -1.914929e-001 8.173177e-002 1.460608e-002 8.099298e-002
<VARIANCE> 39
 2.769927e+001 1.036203e+001 1.469467e+001 1.548109e+001 3.023548e+001 3.829800e+001 1.270442e+001 3.614381e+001 1.527639e+001 2.885139e+001 1.507926e+001 2.488967e+001 1.530207e+001 1.384990e+000 1.063927e+000 1.974438e+000 2.723916e+000 2.759130e+000 1.498714e+000 3.371478e+000 2.098990e+000 1.151677e+000 2.357774e+000 1.486140e+000 8.675027e-001 5.015303e-001 2.340975e-001 1.838606e-001 3.096360e-001 3.353198e-001 2.186350e-001 3.711965e-001 3.284193e-001 1.652601e-001 2.024092e-001 4.107449e-001 2.921208e-001 2.196917e-001 1.070672e-001
<GCONST> 9.839782e+001
~s "ST_t_2_1"
<MEAN> 39
 -2.084198e+001 8.376575e-001 3.341981e+000 2.512784e+000 4.503370e+000 5.632389e+000 6.506710e+000 4.283516e+000 7.208665e+000 5.668835e+000 6.524124e+000 4.157454e+000 6.070185e+001 1.511688e-001 -2.467091e-001 4.255130e-001 -3.008004e-001 9.915572e-002 -2.700047e-001 -4.074230e-002 -4.349666e-001 -2.453779e-001 -2.603403e-001 -1.671104e-001 -4.252575e-001 8.081377e-001 3.288150e-001 6.360910e-002 -1.261068e-001 6.163400e-002 -4.840955e-003 -1.928840e-001 -7.900985e-002 -1.116493e-001 -1.945103e-001 -2.223503e-001 -1.432310e-001 -1.620186e-001 1.987772e-001
<VARIANCE> 39
 1.323093e+001 2.377428e+001 2.225178e+001 2.787594e+001 1.163499e+001 1.270384e+001 1.459762e+001 1.728423e+001 1.909801e+001 9.330677e+000 1.113991e+001 8.476719e+000 2.189687e+001 2.475716e+000 2.186130e+000 2.496235e+000 2.142957e+000 1.694353e+000 1.533020e+000 1.903203e+000 1.662200e+000 2.822937e+000 1.115960e+000 1.612270e+000 1.252641e+000 1.218494e+000 6.261871e-001 3.497379e-001 6.228392e-001 3.760890e-001 4.023496e-001 3.514478e-001 4.409181e-001 3.952847e-001 5.982888e-001 3.261029e-001 3.417023e-001 2.881282e-001 2.664579e-001
<GCONST> 1.027739e+002
~s "ST_t_3_1"
<MEAN> 39
 -1.495286e+001 3.844046e+000 4.003839e+000 3.444733e+000 6.485493e+000 2.891114e+000 4.003727e+000 -8.279594e-001 2.319396e+000 1.553121e+000 3.293652e+000 2.185886e-001 6.503258e+001 3.930780e+000 2.396951e-001 -2.502253e+000 6.525016e-001 4.225545e-002 -2.169580e+000 -1.566338e+000 -8.987339e-001 -1.468149e+000 -2.309129e+000 -1.518734e+000 -7.211872e-001 1.998309e+000 5.655562e-001 -3.350678e-001 -6.280473e-001 5.801330e-002 -1.839228e-001 -5.189912e-001 -1.307856e-001 6.238003e-001 2.746982e-002 -3.405586e-001 -2.001027e-001 8.711828e-002 2.407148e-001
<VARIANCE> 39
 3.501765e+001 4.888753e+001 4.076309e+001 6.786012e+001 2.227297e+001 3.778768e+001 3.081318e+001 2.223357e+001 1.028377e+001 1.112214e+001 2.391545e+001 1.009135e+001 3.452092e+001 3.719709e+000 3.144404e+000 4.849843e+000 1.941506e+000 3.153429e+000 4.517009e+000 3.242057e+000 3.575818e+000 4.652528e+000 3.073141e+000 3.390383e+000 2.966088e+000 2.653851e+000 5.867678e-001 4.411626e-001 6.214427e-001 3.863498e-001 4.919547e-001 6.319035e-001 5.369247e-001 5.128952e-001 5.325091e-001 4.287503e-001 5.452371e-001 1.953922e-001 3.201360e-001
<GCONST> 1.197412e+002
~s "ST_t_4_1"
<MEAN> 39
 -3.425576e+000 6.104262e+000 -1.506005e+000 7.526294e+000 5.735603e+000 -3.554986e+000 -3.725882e-001 2.754716e+000 -2.208649e+000 -7.257755e+000 -4.329044e+000 -6.724941e+000 6.921358e+001 1.604294e+000 8.798026e-002 -4.114126e-001 -2.978707e-001 -9.064416e-001 -1.554324e+000 -2.579748e-001 8.529323e-001 -4.640528e-001 -1.092910e+000 -5.710641e-001 -6.660588e-001 9.778016e-001 -5.977687e-001 -1.998361e-002 2.879737e-001 -9.636711e-002 -1.588068e-001 2.826447e-001 1.785699e-001 7.697201e-002 4.566690e-001 6.333548e-001 4.480943e-001 2.942372e-001 -3.867954e-001
<VARIANCE> 39
 1.016819e+001 1.963409e+001 2.166912e+001 1.945593e+001 2.393670e+001 2.971321e+001 4.734032e+001 2.497482e+001 4.475681e+001 3.826722e+001 3.786419e+001 3.424794e+001 1.271540e+001 6.045651e+000 1.711401e+000 4.382093e+000 1.054641e+000 2.408880e+000 3.832055e+000 2.478337e+000 3.473498e+000 4.038030e+000 5.222142e+000 3.041406e+000 2.896320e+000 2.444772e+000 2.196018e-001 5.518528e-001 5.092501e-001 2.353593e-001 3.284023e-001 2.477161e-001 3.865924e-001 4.696587e-001 5.646574e-001 5.506814e-001 5.057454e-001 3.511906e-001 2.743320e-001
<GCONST> 1.155407e+002
~s "silst"
<MEAN> 39
 -1.969888e+001 3.989279e+000 6.945194e-001 5.073102e+000 4.432844e+000 5.907162e+000 6.324674e+000 6.767393e+000 7.061891e+000 5.665476e+000 6.300513e+000 5.570873e+000 5.693031e+001 6.813105e-002 -1.458670e-002 -2.175569e-001 -1.573387e-001 -4.853879e-002 1.671436e-001 1.518990e-001 -9.132694e-002 -7.145020e-002 -7.334082e-002 -6.979641e-002 -3.897978e-002 6.049328e-002 6.122100e-002 3.794587e-002 1.834320e-002 4.292698e-002 4.699356e-002 -2.688643e-002 1.260755e-002 -8.858996e-002 7.651742e-002 4.630021e-002 -7.047717e-002 -9.117746e-002 4.358217e-002
<VARIANCE> 39
 7.076837e-001 7.613200e-001 1.352317e+000 1.143712e+000 1.857085e+000 3.611484e+000 5.704111e+000 2.079338e+000 2.303078e+000 4.081579e+000 3.705139e+000 9.715466e+000 5.072046e-001 5.450425e-002 6.739603e-002 1.422318e-001 2.030513e-001 2.520303e-001 2.308601e-001 7.729962e-001 4.636075e-001 3.930875e-001 3.144192e-001 3.852600e-001 8.486449e-001 2.100191e-002 6.033285e-003 1.514621e-002 3.551983e-002 4.771091e-002 5.405973e-002 5.578255e-002 1.480393e-001 5.800699e-002 5.198522e-002 7.091439e-002 9.682855e-002 1.663516e-001 3.770232e-003
<GCONST> 1.936879e+001
~s "ST_iy_2_1"
<MEAN> 39
 -5.089604e+000 6.939898e+000 2.232043e+000 1.189495e+001 1.080475e+001 -2.411431e+000 -7.641077e+000 -2.645154e+000 -3.408250e-001 -3.692577e+000 -4.821751e+000 -8.403438e+000 6.783479e+001 -1.897200e-001 -4.454218e-001 1.766647e-001 3.740353e-001 5.321633e-001 -5.198373e-001 -5.877918e-002 -4.764887e-001 -9.641227e-001 -3.053466e-001 8.421062e-001 1.970432e-001 3.342079e-001 8.263966e-002 -1.568694e-001 -1.487248e-001 1.153296e-003 -1.857367e-001 -3.309139e-001 2.830147e-002 3.148007e-002 -4.176224e-001 -1.862885e-001 4.358392e-001 2.651747e-001 1.558677e-001
<VARIANCE> 39
 3.812208e+000 5.449884e+001 1.915703e+001 4.315444e+001 2.300694e+001 3.535791e+001 3.241133e+001 1.342249e+001 1.890630e+001 1.158466e+001 2.395974e+001 2.122865e+001 2.059959e+001 1.779166e-001 3.277806e+000 6.997244e-001 2.909590e+000 1.220418e+000 5.227235e+000 1.693723e+000 1.939333e-001 1.729412e+000 1.601803e+000 2.053410e+000 1.362669e+000 1.411317e+000 3.283249e-002 6.568480e-001 1.030472e-001 5.864770e-001 2.667545e-001 8.861833e-001 4.394588e-001 6.554171e-002 3.202473e-001 1.218555e-001 3.579588e-001 2.218960e-001 2.428041e-001
<GCONST> 9.563347e+001
~s "ST_iy_3_1"
<MEAN> 39
 -1.746384e+000 -1.129047e+000 -3.125391e+000 1.208984e+001 1.009660e+001 -1.046373e+001 -6.688945e+000 -2.895042e+000 -8.425149e+000 -1.157040e+001 4.488889e-001 1.872872e-001 7.409677e+001 6.130703e-001 -1.831549e-001 -1.143663e+000 -1.064142e+000 -1.267989e+000 -5.900636e-001 4.840744e-001 8.548753e-001 -3.531221e-001 -5.370923e-001 3.156217e-001 1.065247e+000 3.026100e-001 9.004609e-003 -1.326464e-002 -1.769162e-002 -1.278398e-001 -1.468057e-001 -7.367637e-003 -6.458777e-002 1.356590e-001 4.461285e-001 2.100875e-001 1.482345e-001 9.957685e-002 -1.057115e-002
<VARIANCE> 39
 5.777175e+000 8.721103e+000 1.436498e+001 3.760579e+001 3.870902e+001 2.575989e+001 2.620457e+001 3.723238e+001 3.224699e+001 3.834728e+001 8.022495e+001 1.181795e+001 3.750044e+000 3.399708e-001 1.755100e+000 1.043589e+000 2.604657e+000 1.520934e+000 5.922323e+000 3.468631e+000 3.312570e+000 3.925717e+000 1.603231e+000 3.779616e+000 1.391609e+000 9.003276e-001 7.224005e-002 2.487007e-001 1.650340e-001 5.006542e-001 2.660688e-001 1.366706e+000 7.491659e-001 8.703796e-001 3.586147e-001 5.200030e-001 9.645977e-001 2.474412e-001 1.764031e-001
<GCONST> 1.066920e+002
~s "ST_iy_4_1"
<MEAN> 39
 1.606740e+000 -4.457312e+000 -1.127419e+001 2.325923e+000 -1.519583e+000 -1.412975e+001 -1.330639e+000 4.086299e+000 -4.227004e+000 -6.384656e+000 7.548784e+000 8.492906e+000 7.627476e+001 -2.391971e-001 2.914618e-001 7.719956e-002 -3.977442e-001 -8.142442e-001 5.984979e-001 9.640558e-001 1.208583e-001 2.412817e-001 1.163791e+000 5.019972e-001 -1.788741e-001 -5.248807e-001 -2.057952e-001 2.201464e-001 3.960209e-001 4.245334e-001 3.521080e-001 3.544469e-001 -1.709012e-001 -1.388985e-001 -8.074038e-002 -2.601626e-001 -4.187686e-001 -4.635865e-001 -2.588444e-001
<VARIANCE> 39
 1.300623e+000 1.536678e+001 1.415513e+001 3.255088e+001 2.073810e+001 2.452059e+001 3.181355e+001 3.976685e+001 1.506014e+001 3.786548e+001 3.302005e+001 9.948384e+000 4.745486e+000 3.431205e-001 9.868538e-001 1.437984e+000 3.032959e+000 2.927011e+000 2.184114e+000 4.271174e+000 2.692132e+000 9.208727e-001 2.274870e+000 4.822753e+000 2.586315e+000 6.058329e-001 1.424786e-002 6.629991e-002 1.135346e-001 2.473151e-001 3.650128e-001 4.129584e-001 7.385647e-001 3.394979e-001 2.139671e-001 3.977830e-001 4.372645e-001 2.618098e-001 2.672905e-002
<GCONST> 9.326041e+001
~s "ST_w_2_1"
<MEAN> 39
 -1.432116e+000 6.656062e+000 9.396976e-001 1.009954e+001 -4.124192e+000 -1.882606e+001 -2.810485e+000 7.089423e+000 -6.382945e+000 -1.036928e+001 -9.829692e-001 -5.080533e+000 6.957984e+001 -5.130126e-001 6.897790e-001 8.713294e-001 -1.209029e-002 -7.118313e-001 -2.107932e-001 -3.263283e-001 2.708333e-001 6.197153e-001 7.275634e-001 -2.214109e-001 1.920546e-001 -7.315188e-001 -2.870150e-001 -1.247375e-001 -6.517060e-003 -7.693519e-002 1.425277e-001 3.692929e-001 7.760495e-002 -2.579025e-001 1.103188e-001 9.314285e-002 1.651371e-001 2.891741e-001 -1.003343e-001
<VARIANCE> 39
 2.080496e+000 8.309542e+000 1.358717e+001 9.718211e+000 2.646617e+001 7.058695e+001 4.650163e+000 5.185790e+001 4.268202e+001 7.989240e+000 4.157254e+000 6.025335e+000 1.281529e+000 2.489611e-001 6.045492e-001 5.556320e-001 3.482412e-001 5.372930e-001 7.882984e-001 1.307142e+000 5.264633e-001 7.513045e-001 1.320472e+000 1.413630e-001 4.772054e-001 1.990723e-001 9.872656e-002 1.524315e-001 5.988966e-002 8.419861e-002 6.015401e-002 3.384703e-001 1.253534e-001 1.863428e-001 1.888346e-001 3.418534e-001 8.717360e-002 1.747141e-001 4.794933e-002
<GCONST> 6.554234e+001
~s "ST_w_3_1"
<MEAN> 39
 -5.504533e+000 1.157205e+001 4.079113e+000 5.171014e+000 -5.393559e+000 -1.185508e+001 -3.471220e+000 2.551944e+000 -7.770273e-002 -3.716088e+000 -2.633166e+000 -4.222278e+000 6.486681e+001 -1.881352e+000 9.586903e-001 1.049495e+000 -6.756338e-001 4.126773e-001 2.063782e+000 2.571680e-002 -1.199707e+000 1.044039e+000 1.798415e+000 2.688436e-001 3.053508e-001 -1.506859e+000 -3.071292e-001 -4.168240e-001 -3.273472e-001 1.651439e-002 6.601937e-001 6.154065e-001 2.443320e-001 1.924527e-002 -9.200396e-002 -3.099598e-002 3.037097e-001 3.208149e-001 -7.174027e-002
<VARIANCE> 39
 7.387022e+000 5.186036e+000 3.800965e+000 5.353970e+000 1.147666e+001 3.442356e+001 4.595381e+000 2.748737e+001 3.793969e+001 2.956544e+001 5.873294e+000 6.468841e+000 3.771281e+000 5.448610e-001 3.298585e-001 4.033364e-001 5.733777e-001 2.038467e+000 4.723088e+000 2.741972e-001 6.510408e-001 1.345954e+000 6.937714e-001 6.132076e-001 9.398146e-001 2.406356e-001 5.620047e-002 1.010153e-001 5.921774e-002 4.286898e-002 7.029772e-002 3.405173e-001 7.228224e-002 2.770723e-001 2.835014e-001 3.511239e-001 8.525136e-002 1.040621e-001 2.813226e-002
<GCONST> 6.706492e+001
~s "ST_w_4_1"
<MEAN> 39
 -1.555479e+001 7.482043e+000 2.531054e+000 5.380950e+000 2.489991e+000 7.192823e-001 -3.151779e-001 1.434338e+000 3.365641e+000 2.033835e+000 2.203966e+000 6.031200e-001 5.919903e+001 -1.385314e+000 -1.274865e+000 -1.046120e+000 -1.050180e-001 1.048910e+000 1.865585e+000 1.061438e+000 9.479387e-001 1.895929e+000 1.573891e+000 9.856750e-001 7.541885e-001 -6.472724e-001 3.267109e-001 -7.898223e-002 -1.196447e-001 -4.672903e-003 -3.451667e-001 -4.415890e-001 1.670023e-001 3.422952e-001 7.229731e-004 -1.115574e-001 -2.848076e-002 -4.061561e-002 2.211272e-001
<VARIANCE> 39
 9.059467e+000 2.017821e+001 1.202473e+001 1.282228e+001 1.649299e+001 1.475303e+001 1.592019e+001 1.471714e+001 3.320210e+001 1.664483e+001 4.058485e+000 1.291695e+001 1.834958e+000 1.111223e+000 8.026416e-001 6.292760e-001 8.680446e-001 1.194809e+000 2.129623e+000 1.882585e+000 2.186136e+000 2.474602e+000 1.870759e+000 9.256756e-001 1.736388e+000 5.180036e-001 6.068883e-002 3.038294e-001 2.962084e-001 2.278220e-001 2.888564e-001 2.952244e-001 4.112034e-001 4.770487e-001 6.369707e-001 2.211959e-001 1.772583e-001 3.305115e-001 6.684328e-002
<GCONST> 8.845246e+001
~s "ST_m_2_1"
<MEAN> 39
 -1.755629e+001 1.645130e+000 -3.375913e-001 2.218256e+000 2.308053e+000 4.311427e+000 5.911059e+000 3.602867e+000 7.501019e+000 5.684740e+000 5.183010e+000 4.966669e+000 6.075534e+001 3.530675e-001 -2.578581e-001 4.579684e-001 3.286404e-001 2.137034e-001 -4.958368e-001 -6.885791e-001 -9.427278e-001 -3.449811e-001 -4.686228e-001 -3.269030e-001 -5.257739e-001 7.420446e-001 2.715861e-001 -4.152424e-002 1.859795e-001 3.385601e-001 1.772315e-001 -3.770182e-001 -2.478508e-001 4.104530e-002 -3.033035e-001 -2.921307e-001 -6.942491e-002 -2.554123e-001 2.542412e-001
<VARIANCE> 39
 2.740487e+001 1.930386e+001 1.595778e+001 1.376196e+001 2.379828e+001 2.828011e+001 1.142410e+001 3.198040e+001 1.182778e+001 1.221896e+001 1.287763e+001 8.692776e+000 2.850813e+001 2.289069e+000 2.203454e+000 1.586145e+000 2.591458e+000 2.328731e+000 3.006756e+000 1.391887e+000 2.068911e+000 2.832799e+000 2.075602e+000 2.026566e+000 1.387023e+000 2.314847e+000 4.584633e-001 4.687355e-001 3.124275e-001 7.746095e-001 4.695078e-001 5.109726e-001 3.288515e-001 5.968467e-001 5.500981e-001 3.803238e-001 3.789628e-001 2.185292e-001 4.505489e-001
<GCONST> 1.076093e+002
~s "ST_m_3_1"
<MEAN> 39
 -9.591489e+000 3.253054e-001 4.380366e+000 1.645761e+001 1.047869e+001 -8.347012e+000 -4.025780e+000 8.579866e-001 2.004303e-001 -4.803269e+000 6.709657e-003 -8.197926e-001 6.839204e+001 6.596105e-001 -1.801158e-001 -2.792059e-001 8.900822e-002 2.165187e-001 -5.783155e-001 -5.894223e-001 -3.899153e-001 -6.961666e-001 -4.758458e-001 3.447114e-001 -5.381992e-002 6.033496e-001 -5.502944e-002 1.687492e-002 -1.537183e-001 -3.050454e-001 -2.248199e-001 9.123702e-002 1.740385e-001 7.830710e-002 6.856731e-002 1.481038e-001 1.780663e-001 1.668684e-001 -6.096599e-002
<VARIANCE> 39
 3.027675e+001 3.393635e+001 3.649674e+001 7.644064e+001 4.429429e+001 7.138348e+001 5.633637e+001 3.847592e+001 5.301386e+001 3.703971e+001 1.674624e+001 2.319293e+001 4.240206e+001 4.548355e+000 4.586418e+000 3.035536e+000 6.816169e+000 4.026180e+000 8.799611e+000 5.831123e+000 3.492766e+000 4.498275e+000 3.713578e+000 2.263159e+000 2.166971e+000 5.345874e+000 4.918385e-001 6.625828e-001 2.821876e-001 6.416757e-001 5.779808e-001 1.070701e+000 9.726383e-001 6.458747e-001 7.502749e-001 5.557536e-001 3.210753e-001 3.450939e-001 6.439922e-001
<GCONST> 1.310193e+002
~s "ST_m_4_1"
<MEAN> 39
 -2.664603e+000 -1.068464e+000 -8.909751e+000 1.630199e+000 -2.295980e+000 -9.613434e+000 6.078221e-001 4.582241e+000 -8.900132e-001 -1.615181e+000 6.916105e+000 3.983981e+000 7.149804e+001 -9.148672e-001 5.722480e-001 2.624542e-001 -7.794628e-001 -4.837847e-001 8.547021e-001 1.011888e+000 9.815803e-001 8.683667e-001 1.073465e+000 2.100100e-001 1.266349e-001 -9.558016e-001 -2.030580e-001 -7.250892e-002 1.315649e-001 1.383558e-001 1.762151e-001 1.588180e-001 4.295022e-002 -5.663328e-002 2.427207e-001 1.576886e-001 -1.305214e-001 -2.589009e-002 -9.147995e-002
<VARIANCE> 39
 5.811158e+001 3.263987e+001 3.495109e+001 2.818076e+001 4.912392e+001 6.822166e+001 5.002002e+001 9.532507e+001 5.081512e+001 4.801457e+001 2.339743e+001 2.032629e+001 4.312806e+001 3.936754e+000 1.825846e+000 3.112720e+000 2.111306e+000 3.035293e+000 3.739907e+000 2.603290e+000 3.032040e+000 3.054458e+000 3.774758e+000 2.446795e+000 1.544005e+000 2.694883e+000 4.114492e-001 2.020677e-001 3.361790e-001 2.548878e-001 2.793059e-001 4.572739e-001 5.652016e-001 4.012527e-001 4.955090e-001 5.177646e-001 3.692181e-001 2.864265e-001 2.074749e-001
<GCONST> 1.198832e+002
~s "ST_ah_2_1"
<MEAN> 39
 -1.594972e+001 5.408868e+000 -2.446779e-001 2.704494e+000 2.425822e+000 4.161759e+000 6.347412e+000 6.404091e+000 6.535493e+000 4.690563e+000 4.615868e+000 3.406041e+000 5.912844e+001 -9.387894e-001 -3.668637e-001 1.146106e-001 2.261572e-001 4.200229e-001 4.934429e-001 2.790745e-001 2.270128e-001 3.041380e-001 4.364360e-001 5.071430e-001 4.476308e-001 -5.827514e-001 1.931466e-001 -1.202958e-002 -4.893396e-002 3.899701e-002 -6.078273e-002 -2.063892e-001 -1.631988e-001 -1.058244e-001 -1.290562e-001 -1.406157e-001 -6.526324e-002 -6.776763e-002 1.529426e-001
<VARIANCE> 39
 1.139082e+001 6.189865e+000 1.009003e+001 1.530744e+001 1.561436e+001 1.334816e+001 1.631571e+001 1.265922e+001 1.131227e+001 1.522981e+001 1.483430e+001 1.416855e+001 4.615502e+000 9.593877e-001 4.955774e-001 9.156727e-001 1.075694e+000 1.147898e+000 1.332229e+000 1.652640e+000 1.148719e+000 1.302696e+000 1.431587e+000 1.167847e+000 1.300067e+000 4.938295e-001 1.658294e-001 9.453510e-002 1.782723e-001 1.579606e-001 1.803951e-001 3.229612e-001 3.603910e-001 1.995441e-001 2.762108e-001 3.068154e-001 2.211149e-001 2.287191e-001 9.052449e-002
<GCONST> 8.325671e+001
~s "ST_ah_3_1"
<MEAN> 39
 -1.923500e+001 4.340366e+000 8.326811e-001 4.516897e+000 4.295912e+000 5.953112e+000 6.657623e+000 6.289591e+000 7.106013e+000 5.876519e+000 6.126741e+000 4.913409e+000 5.724808e+001 -1.973682e-001 -6.162546e-002 9.077109e-002 1.546722e-001 1.410175e-001 1.631633e-001 1.526798e-002 -5.329730e-002 3.253772e-002 1.573235e-001 1.421507e-001 1.059946e-001 -1.200830e-001 6.557988e-002 2.229564e-002 -1.445656e-002 -2.270848e-002 -3.724008e-002 -5.609458e-002 -1.676418e-002 -3.909730e-003 -3.010470e-002 -2.445462e-002 -6.346157e-002 -6.662798e-002 4.095609e-002
<VARIANCE> 39
 1.529132e+000 1.523564e+000 3.309592e+000 4.800350e+000 5.674248e+000 5.529226e+000 5.296988e+000 7.197600e+000 6.473161e+000 6.704782e+000 6.295334e+000 6.787004e+000 5.554802e-001 1.926620e-001 1.735600e-001 4.967107e-001 6.775481e-001 6.234825e-001 6.391512e-001 8.018968e-001 8.313694e-001 9.256546e-001 7.699267e-001 7.169767e-001 8.091788e-001 9.014440e-002 5.032318e-002 3.552352e-002 1.134590e-001 1.358908e-001 1.181100e-001 1.061104e-001 1.652790e-001 1.734254e-001 1.947624e-001 1.426047e-001 1.323877e-001 1.557346e-001 2.413170e-002
<GCONST> 5.059053e+001
~s "ST_ah_4_1"
<MEAN> 39
 -1.982171e+001 4.230253e+000 1.173383e+000 5.229371e+000 4.590662e+000 6.224787e+000 6.596900e+000 6.457633e+000 6.811286e+000 6.177229e+000 6.108863e+000 4.836833e+000 5.682376e+001 -6.325958e-003 -7.286444e-003 -2.642372e-003 1.541800e-003 1.068402e-002 -7.416812e-003 6.630625e-003 -1.292639e-003 -1.876704e-002 -1.394926e-002 -1.594587e-003 -6.044122e-003 2.035635e-004 2.542086e-002 2.215575e-003 -6.912349e-003 -1.014016e-002 -4.566223e-003 -4.672982e-003 -5.095969e-003 -1.411847e-002 -1.224979e-002 -2.340782e-002 -8.698823e-003 -2.176734e-003 2.075888e-002
<VARIANCE> 39
 7.076837e-001 6.600559e-001 1.296285e+000 1.993608e+000 2.834737e+000 3.749095e+000 3.827908e+000 4.393890e+000 4.896566e+000 4.887127e+000 4.818128e+000 4.408246e+000 5.072046e-001 3.671924e-002 7.667776e-002 1.386440e-001 2.288601e-001 3.134599e-001 3.965029e-001 4.246680e-001 4.834366e-001 5.722217e-001 5.495424e-001 4.963465e-001 4.773008e-001 1.169577e-002 1.203844e-002 1.825927e-002 3.323375e-002 4.888588e-002 6.320941e-002 8.575665e-002 8.884932e-002 1.100009e-001 1.237735e-001 1.125480e-001 1.052090e-001 9.753805e-002 5.246977e-003
<GCONST> 2.377267e+001
~s "ST_p_2_1"
<MEAN> 39
 -1.556644e+001 4.559778e+000 -3.077116e+000 5.555513e-003 -2.132402e-001 3.293188e+000 6.144550e+000 5.988790e+000 7.979775e+000 8.219356e+000 7.117662e+000 6.848596e+000 5.952983e+001 -1.294238e+000 2.051292e-001 9.948469e-001 6.580460e-001 4.679190e-001 5.843244e-001 1.084364e-001 -4.859445e-003 1.461727e-001 7.340573e-002 -2.101379e-001 2.537024e-001 -9.434817e-001 3.686447e-001 -1.114617e-001 -1.599472e-001 1.000640e-001 1.017282e-001 -2.784144e-001 -1.162903e-001 1.078179e-001 -2.638359e-001 -5.057184e-001 -1.130026e-001 -2.484074e-001 3.105910e-001
<VARIANCE> 39
 1.293642e+001 1.281614e+000 1.017619e+001 1.334838e+001 6.738158e+000 4.882262e+000 4.903065e+000 1.105160e+001 1.148498e+001 9.482808e+000 1.297468e+001 1.726483e+001 5.155481e+000 1.401427e+000 2.286685e-001 1.112177e+000 1.179067e+000 7.275231e-001 1.028656e+000 1.947863e+000 8.578503e-001 1.986132e+000 1.486807e+000 8.748114e-001 1.262703e+000 7.610621e-001 1.414002e-001 3.334144e-002 1.725980e-001 1.965667e-001 1.888543e-001 3.931134e-001 3.385875e-001 1.168810e-001 3.844777e-001 1.961534e-001 1.174256e-001 2.000585e-001 6.896492e-002
<GCONST> 7.531015e+001
~s "ST_p_3_1"
<MEAN> 39
 -1.872814e+001 4.314315e+000 -2.081198e-001 2.821912e+000 3.906353e+000 6.134777e+000 6.852876e+000 5.701775e+000 6.984291e+000 5.880486e+000 6.257594e+000 5.574302e+000 5.761253e+001 -4.529866e-001 -1.156751e-001 5.442892e-001 5.801381e-001 4.735648e-001 2.923696e-001 4.694928e-002 3.073653e-001 -1.869643e-002 -3.512399e-001 -2.781415e-001 -2.387919e-001 -2.674914e-001 1.193973e-001 7.042835e-003 -9.616773e-002 -1.019564e-001 -1.798896e-001 -2.151053e-001 -8.892432e-002 5.245883e-002 -6.072945e-003 3.095473e-002 3.802131e-002 5.993335e-003 5.695928e-002
<VARIANCE> 39
 2.230899e+000 8.040498e-001 3.950869e+000 9.666033e+000 2.346047e+000 2.241864e+000 6.761958e+000 6.005269e+000 5.359521e+000 1.260508e+001 4.596818e+000 5.617753e+000 7.664045e-001 1.260775e-001 1.040371e-001 2.735935e-001 4.379446e-001 3.946147e-001 6.742780e-001 6.182168e-001 9.481709e-001 5.159242e-001 1.192285e+000 3.894968e-001 8.548407e-001 5.176564e-002 1.319850e-002 2.098247e-002 2.955608e-002 9.082779e-002 5.373149e-002 6.474784e-002 1.280465e-001 1.383478e-001 6.969025e-002 2.586527e-001 1.087725e-001 1.194317e-001 4.001539e-003
<GCONST> 3.791897e+001
~s "ST_p_4_1"
<MEAN> 39
 -1.985415e+001 4.265089e+000 1.131843e+000 5.065686e+000 4.330384e+000 6.267986e+000 6.671045e+000 6.892063e+000 7.259314e+000 6.376386e+000 6.363306e+000 5.235297e+000 5.679398e+001 3.890885e-003 1.968714e-002 1.250619e-002 3.976555e-003 -1.071997e-002 -1.229152e-002 1.913708e-002 -1.561301e-002 5.713282e-003 8.261255e-003 -1.276599e-002 -5.251906e-002 -1.552499e-003 2.352881e-003 1.449967e-003 -1.169759e-002 -1.032968e-002 3.896141e-003 8.709594e-003 5.122121e-004 -2.039143e-002 -3.164875e-003 1.033598e-002 2.646131e-003 5.318202e-003 3.375303e-003
<VARIANCE> 39
 7.076837e-001 6.902804e-001 1.347072e+000 1.958442e+000 2.860499e+000 3.581276e+000 3.905152e+000 3.611047e+000 4.302810e+000 4.519916e+000 3.986504e+000 4.023759e+000 5.072046e-001 2.871468e-002 9.056718e-002 1.524475e-001 2.481377e-001 3.379059e-001 3.829908e-001 4.620477e-001 4.619077e-001 4.528372e-001 4.391277e-001 4.337468e-001 4.665580e-001 1.169577e-002 5.897544e-003 1.856036e-002 3.213483e-002 5.127449e-002 7.967451e-002 8.231246e-002 9.910686e-002 9.884479e-002 8.857877e-002 8.926828e-002 9.292416e-002 9.642651e-002 1.405454e-003
<GCONST> 2.018718e+001
~s "ST_ih_2_1"
<MEAN> 39
 -1.262465e+001 6.815144e+000 2.262983e+000 6.182847e+000 3.938891e+000 1.509477e-001 1.838397e+000 4.631238e+000 5.745047e+000 6.197937e-001 6.895954e-001 -1.095436e+000 6.204813e+001 1.005268e+000 -5.624200e-001 -8.961664e-001 -8.975011e-001 -1.566213e+000 -1.743721e+000 -4.015720e-001 -3.726516e-002 3.936075e-001 -6.719881e-001 3.505929e-001 7.562990e-001 1.228349e+000 1.108721e+000 -4.585050e-001 -8.419899e-001 -2.401853e-001 -4.163483e-001 -1.032291e+000 -3.821319e-001 3.215372e-001 1.260254e-001 -3.450405e-001 -3.902794e-001 -5.213283e-001 9.278536e-001
<VARIANCE> 39
 5.709541e+001 9.839510e+000 3.073322e+000 2.932680e+000 9.451072e+000 6.590215e+001 4.097467e+001 1.633528e+001 2.812531e+001 4.081087e+001 1.163950e+001 2.228580e+001 3.698608e+001 8.699230e+000 1.240549e+000 2.729293e+000 1.060630e+000 3.480830e+000 9.894658e+000 2.973658e+000 2.555277e+000 1.742198e+000 3.285231e+000 2.815395e+000 5.050280e+000 6.912545e+000 6.018753e-001 1.768619e-001 2.744368e-001 1.448932e-001 5.708497e-001 1.148419e+000 4.721920e-001 5.958353e-001 3.050140e-001 6.389045e-001 4.047652e-001 3.734863e-001 4.573507e-001
<GCONST> 1.132412e+002
~s "ST_ih_3_1"
<MEAN> 39
 2.595114e+000 3.803230e-001 -9.523829e+000 1.655593e-001 -6.842659e+000 -1.724446e+001 -2.737050e+000 9.641580e+000 8.645810e+000 -4.829596e+000 -1.516629e+000 -2.688487e+000 7.540893e+001 2.699872e+000 -1.742624e+000 -2.979041e+000 -9.270347e-001 -1.712803e+000 -2.359286e+000 2.190396e-001 1.499241e+000 5.257128e-001 -3.066457e-001 -3.906027e-001 -1.403052e-001 1.947132e+000 -1.048840e+000 2.579506e-001 5.846422e-001 3.451688e-001 7.864704e-001 1.415257e+000 6.629975e-001 -4.578255e-001 -4.589434e-001 4.591442e-001 1.678403e-001 2.850268e-001 -9.072005e-001
<VARIANCE> 39
 1.337928e+001 3.593909e+001 5.913441e+001 1.916205e+001 4.894214e+001 4.185018e+001 2.760208e+001 4.774026e+001 6.817853e+001 3.185742e+001 2.004507e+001 1.162105e+001 7.504700e+000 6.491276e+000 2.322789e+000 5.190936e+000 1.872940e+000 4.285202e+000 1.109967e+001 1.834206e+000 5.425574e+000 3.333399e+000 2.159204e+000 1.391275e+000 8.390669e-001 3.825391e+000 6.322395e-001 4.014765e-001 7.973718e-001 1.660940e-001 3.689141e-001 1.219537e+000 3.330223e-001 5.740191e-001 5.791873e-001 3.141658e-001 2.417712e-001 8.822604e-002 4.136640e-001
<GCONST> 1.171809e+002
~s "ST_ih_4_1"
<MEAN> 39
 2.929844e+000 -1.958722e+000 -1.284854e+001 -8.851526e-001 -8.858461e+000 -1.424606e+001 2.949556e+000 1.170340e+001 4.239068e+000 -2.925976e+000 -4.873716e-001 -1.976225e+000 7.494824e+001 -4.743347e-001 4.440120e-001 3.224975e-001 -2.893234e-001 6.687130e-002 4.734981e-001 2.674565e-001 -6.711366e-001 -3.373279e-001 3.484286e-001 -5.734257e-003 7.091551e-001 -4.879544e-001 -2.420554e-001 1.833264e-001 3.018956e-001 1.347366e-001 1.392471e-001 7.473096e-002 -1.934673e-001 -1.497972e-001 -9.351489e-002 -1.446956e-001 6.933195e-002 1.624546e-001 -1.838116e-001
<VARIANCE> 39
 1.128629e+001 4.966501e+001 5.442286e+001 2.602727e+001 4.232196e+001 3.082805e+001 3.254853e+001 4.629714e+001 3.029877e+001 2.605646e+001 1.516833e+001 1.874776e+001 1.369660e+001 5.372415e-001 4.617387e-001 1.229543e+000 4.036839e-001 8.559153e-001 1.748184e+000 1.057752e+000 1.003149e+000 2.151835e+000 5.459314e-001 5.380155e-001 9.521353e-001 4.169302e-001 1.303592e-001 1.603279e-001 2.684575e-001 9.771459e-002 1.639386e-001 2.139989e-001 1.107215e-001 1.708967e-001 2.177524e-001 2.512572e-001 1.594829e-001 1.762331e-001 9.013989e-002
<GCONST> 8.796736e+001
~h "b"
<BEGINHMM>
<NUMSTATES> 5
<STATE> 2
~s "ST_b_2_1"
<STATE> 3
~s "ST_b_3_1"
<STATE> 4
~s "ST_b_4_1"
~t "T_b"
<ENDHMM>
~h "d"
<BEGINHMM>
<NUMSTATES> 5
<STATE> 2
~s "ST_d_2_1"
<STATE> 3
~s "ST_d_3_1"
<STATE> 4
~s "ST_d_4_1"
~t "T_d"
<ENDHMM>
~h "g"
<BEGINHMM>
<NUMSTATES> 5
<STATE> 2
~s "ST_g_2_1"
<STATE> 3
~s "ST_g_3_1"
<STATE> 4
~s "ST_g_4_1"
~t "T_g"
<ENDHMM>
~h "l"
<BEGINHMM>
<NUMSTATES> 5
<STATE> 2
~s "ST_l_2_1"
<STATE> 3
~s "ST_l_3_1"
<STATE> 4
~s "ST_l_4_1"
~t "T_l"
<ENDHMM>
~h "m"
<BEGINHMM>
<NUMSTATES> 5
<STATE> 2
~s "ST_m_2_1"
<STATE> 3
~s "ST_m_3_1"
<STATE> 4
~s "ST_m_4_1"
~t "T_m"
<ENDHMM>
~h "n"
<BEGINHMM>
<NUMSTATES> 5
<STATE> 2
~s "ST_n_2_1"
<STATE> 3
~s "ST_n_3_1"
<STATE> 4
~s "ST_n_4_1"
~t "T_n"
<ENDHMM>
~h "p"
<BEGINHMM>
<NUMSTATES> 5
<STATE> 2
~s "ST_p_2_1"
<STATE> 3
~s "ST_p_3_1"
<STATE> 4
~s "ST_p_4_1"
~t "T_p"
<ENDHMM>
~h "s"
<BEGINHMM>
<NUMSTATES> 5
<STATE> 2
~s "ST_s_2_1"
<STATE> 3
~s "ST_s_3_1"
<STATE> 4
~s "ST_s_4_1"
~t "T_s"
<ENDHMM>
~h "t"
<BEGINHMM>
<NUMSTATES> 5
<STATE> 2
~s "ST_t_2_1"
<STATE> 3
~s "ST_t_3_1"
<STATE> 4
~s "ST_t_4_1"
~t "T_t"
<ENDHMM>
~h "w"
<BEGINHMM>
<NUMSTATES> 5
<STATE> 2
~s "ST_w_2_1"
<STATE> 3
~s "ST_w_3_1"
<STATE> 4
~s "ST_w_4_1"
~t "T_w"
<ENDHMM>
~h "ah"
<BEGINHMM>
<NUMSTATES> 5
<STATE> 2
~s "ST_ah_2_1"
<STATE> 3
~s "ST_ah_3_1"
<STATE> 4
~s "ST_ah_4_1"
~t "T_ah"
<ENDHMM>
~h "hh"
<BEGINHMM>
<NUMSTATES> 5
<STATE> 2
~s "ST_hh_2_1"
<STATE> 3
~s "ST_hh_3_1"
<STATE> 4
~s "ST_hh_4_1"
~t "T_hh"
<ENDHMM>
~h "ih"
<BEGINHMM>
<NUMSTATES> 5
<STATE> 2
~s "ST_ih_2_1"
<STATE> 3
~s "ST_ih_3_1"
<STATE> 4
~s "ST_ih_4_1"
~t "T_ih"
<ENDHMM>
~h "iy"
<BEGINHMM>
<NUMSTATES> 5
<STATE> 2
~s "ST_iy_2_1"
<STATE> 3
~s "ST_iy_3_1"
<STATE> 4
~s "ST_iy_4_1"
~t "T_iy"
<ENDHMM>
~h "jh"
<BEGINHMM>
<NUMSTATES> 5
<STATE> 2
~s "ST_jh_2_1"
<STATE> 3
~s "ST_jh_3_1"
<STATE> 4
~s "ST_jh_4_1"
~t "T_jh"
<ENDHMM>
~h "ow"
<BEGINHMM>
<NUMSTATES> 5
<STATE> 2
~s "ST_ow_2_1"
<STATE> 3
~s "ST_ow_3_1"
<STATE> 4
~s "ST_ow_4_1"
~t "T_ow"
<ENDHMM>
~h "uh"
<BEGINHMM>
<NUMSTATES> 5
<STATE> 2
~s "ST_uh_2_1"
<STATE> 3
~s "ST_uh_3_1"
<STATE> 4
~s "ST_uh_4_1"
~t "T_uh"
<ENDHMM>
~h "sil"
<BEGINHMM>
<NUMSTATES> 5
<STATE> 2
<MEAN> 39
 -1.906716e+001 4.931626e+000 1.816074e+000 6.369476e+000 5.389391e+000 6.159198e+000 6.046917e+000 6.761830e+000 7.312362e+000 6.645312e+000 6.062470e+000 4.484158e+000 5.714458e+001 -4.201175e-001 -3.074269e-001 1.109948e-002 1.797370e-004 1.775383e-002 -1.204725e-001 -6.386620e-002 2.212247e-001 3.203399e-001 7.204472e-001 4.688045e-001 3.916731e-001 -2.204172e-001 1.054493e-001 5.240993e-002 -5.182933e-002 -1.018183e-001 -1.425787e-001 -1.068334e-002 1.184640e-002 -1.219978e-001 -1.459616e-001 -3.045995e-001 -2.199559e-001 -3.707083e-002 6.095576e-002
<VARIANCE> 39
 1.578059e+000 2.218854e+000 2.358483e+000 3.402443e+000 3.821065e+000 2.751781e+000 2.770936e+000 6.134145e+000 5.736057e+000 7.413876e+000 5.194327e+000 4.005338e+000 5.072046e-001 1.551142e-001 1.897573e-001 4.072087e-001 3.874894e-001 5.656605e-001 3.200373e-001 3.757923e-001 4.793296e-001 9.158499e-001 1.250384e+000 6.486834e-001 2.471501e-001 3.416662e-002 9.004790e-003 9.724429e-003 3.173332e-002 3.245437e-002 9.742424e-002 6.143581e-002 5.076853e-002 1.215412e-001 9.292349e-002 1.360141e-001 1.153050e-001 3.808554e-002 3.250948e-003
<GCONST> 3.048270e+001
<STATE> 3
~s "silst"
<STATE> 4
<MEAN> 39
 -1.953002e+001 3.958050e+000 4.448531e-001 4.906010e+000 5.360263e+000 6.305711e+000 6.632398e+000 5.617942e+000 7.820580e+000 6.959297e+000 5.759010e+000 4.848473e+000 5.712789e+001 1.801563e-001 1.309551e-001 3.920264e-001 4.741603e-001 4.317671e-001 -1.826351e-001 2.163876e-001 -3.938491e-001 3.557912e-002 -1.566224e-001 -1.452875e-001 -4.430492e-001 2.601202e-001 4.931559e-001 1.821274e-001 2.779475e-001 4.019025e-001 1.476465e-001 -2.361551e-001 -5.128375e-001 -2.228590e-001 -4.849492e-001 -3.732964e-001 -3.387595e-001 -5.024106e-001 3.452699e-001
<VARIANCE> 39
 1.595725e+000 4.105310e-001 2.141287e+000 1.827719e+000 5.654231e+000 3.006744e+000 7.618693e+000 8.456116e+000 4.634912e+000 1.916978e+000 5.876509e+000 7.533748e+000 5.072046e-001 2.215563e-001 2.217820e-001 4.731636e-001 5.557571e-001 5.729132e-001 5.593187e-001 4.729720e-001 8.641654e-001 1.875702e+000 4.342414e-001 4.076393e-001 6.986669e-001 1.775106e-001 1.733840e-001 1.068383e-001 6.780203e-002 1.036836e-001 1.162611e-001 1.583024e-001 2.184289e-001 6.081244e-002 3.878470e-001 1.495021e-001 1.784264e-001 3.053939e-001 9.057590e-002
<GCONST> 4.992030e+001
<TRANSP> 5
 0.000000e+000 1.000000e+000 0.000000e+000 0.000000e+000 0.000000e+000
 0.000000e+000 5.292436e-001 2.942224e-001 1.765340e-001 0.000000e+000
 0.000000e+000 0.000000e+000 8.077458e-001 1.922541e-001 0.000000e+000
 0.000000e+000 0.000000e+000 0.000000e+000 3.814262e-001 6.185738e-001
 0.000000e+000 0.000000e+000 0.000000e+000 0.000000e+000 0.000000e+000
<ENDHMM>
