~o
<STREAMINFO> 1 39
<VECSIZE> 39<NULLD><MFCC_D_A_0><DIAGC>
~s "silst"
<MEAN> 39
 -1.919619e+001 4.596065e+000 1.386963e+000 5.889059e+000 5.086444e+000 6.099850e+000 5.896128e+000 6.918447e+000 6.987195e+000 5.907678e+000 6.289860e+000 5.571024e+000 5.710415e+001 -2.811363e-001 -2.545171e-001 -1.429213e-001 -9.764703e-002 4.695825e-003 1.197971e-001 1.732073e-001 2.436670e-001 2.034356e-001 2.768507e-001 2.657644e-001 2.750683e-001 -1.350973e-001 7.769068e-002 5.512093e-002 -1.972050e-002 -4.671850e-002 -8.656053e-002 -1.308914e-002 5.063368e-002 -7.540547e-002 -6.538844e-002 -1.156878e-001 -1.558536e-001 -1.300347e-001 4.581012e-002
<VARIANCE> 39
 2.155965e+000 2.963579e+000 3.319694e+000 3.650814e+000 3.200100e+000 3.941262e+000 3.967875e+000 3.997742e+000 5.425171e+000 7.808311e+000 5.480562e+000 5.367104e+000 5.072046e-001 1.738742e-001 2.218644e-001 3.107596e-001 3.242000e-001 4.274176e-001 2.946123e-001 4.539192e-001 5.417691e-001 8.788075e-001 1.221746e+000 8.421454e-001 4.419132e-001 4.168738e-002 7.793051e-003 9.321841e-003 3.559905e-002 5.152804e-002 8.705752e-002 7.775477e-002 8.750427e-002 9.200976e-002 7.957576e-002 1.494444e-001 1.265546e-001 8.599798e-002 4.252464e-003
<GCONST> 3.459328e+001
~h "b"
<BEGINHMM>
<NUMSTATES> 5
<STATE> 2
<MEAN> 39
 -2.281547e+001 -5.756334e+000 1.175171e+001 -2.739596e+000 1.630071e+000 -1.061574e+000 1.342201e+001 -1.751765e+000 -1.377804e+000 9.799232e+000 8.535447e+000 -8.377704e-001 6.941945e+001 1.854554e+000 7.968357e-001 -9.811563e-001 4.662545e-001 1.605336e-001 -8.446996e-001 -9.083854e-001 -4.651694e-002 -1.372521e+000 -7.503497e-001 -8.789057e-001 1.497453e-001 2.854931e-001 5.387753e-001 4.221405e-001 -4.866090e-001 3.572119e-001 2.140647e-001 4.353042e-002 -5.785870e-001 6.349841e-002 -7.327467e-003 -3.303265e-001 -3.597182e-001 4.124507e-002 -2.118436e-001
<VARIANCE> 39
 9.055384e+001 1.983432e+001 6.699535e+001 2.995806e+001 1.784979e+001 2.228396e+001 5.394074e+001 2.377162e+001 3.987814e+001 6.473070e+001 2.814232e+001 8.788142e+000 1.039857e+001 1.006929e+001 3.136693e+000 4.143067e+000 4.845714e+000 2.651961e+000 1.235525e+000 6.662263e+000 2.124884e+000 2.974806e+000 6.469531e+000 3.925456e+000 8.333038e-001 4.089496e-001 9.987112e-001 4.273550e-001 4.624495e-001 4.701593e-001 8.893694e-001 6.025608e-001 5.294369e-001 5.689775e-001 7.400997e-001 1.090903e+000 5.667670e-001 1.530581e-001 2.177359e-001
<GCONST> 1.207788e+002
<STATE> 3
<MEAN> 39
 -1.201846e+000 2.960009e+000 -4.030264e+000 5.552315e+000 5.296294e+000 -9.086869e+000 -3.303529e+000 6.720281e-001 -7.087613e+000 -4.134813e+000 9.356321e-001 4.756106e-001 7.202172e+001 1.512935e+000 1.221999e+000 -1.530503e+000 1.091576e+000 2.695874e+000 3.930429e-001 -3.288318e+000 1.000400e-001 2.168236e+000 -1.180633e+000 -2.623886e+000 -1.146229e+000 -6.128380e-002 -1.526027e+000 -2.219547e-001 1.069663e+000 -3.634264e-001 1.111920e-001 1.195572e+000 8.516848e-001 -3.566430e-001 1.103470e+000 1.204536e+000 -6.447440e-002 -5.640823e-001 -5.219461e-001
<VARIANCE> 39
 8.179946e+000 9.357761e+000 4.137136e+001 5.059576e+001 9.200049e+000 1.250324e+001 3.436294e+001 2.041192e+001 6.124079e+001 1.504753e+001 2.896295e+001 1.060935e+001 1.031345e+001 4.273958e+000 9.037294e-001 2.392431e+000 1.083551e+000 1.582140e+000 3.867104e+000 5.731205e+000 1.697807e+000 6.082727e+000 3.387562e+000 2.075072e+000 2.524069e+000 4.171911e-001 3.721716e-001 4.439380e-001 1.674995e-001 3.737835e-001 2.988156e-001 2.831667e-001 5.798473e-001 3.758080e-001 1.546169e+000 3.042887e-001 8.678532e-001 3.019258e-001 8.629300e-002
<GCONST> 1.069368e+002
<STATE> 4
<MEAN> 39
 -2.285489e+000 4.310627e+000 -1.972034e+000 9.891244e+000 1.415877e+001 -3.174073e+000 -1.026395e+001 -4.490171e+000 3.258244e+000 -3.250954e+000 -5.592095e+000 -7.280457e+000 7.030282e+001 -2.982334e-001 -4.418902e-001 6.254345e-001 1.022791e+000 8.520443e-001 9.755855e-002 -4.562506e-001 -3.670747e-001 5.743027e-001 -4.005519e-001 -2.719361e-001 -2.884561e-001 1.004309e-001 -9.052093e-002 -2.197247e-001 1.385731e-001 -1.834618e-002 -2.419058e-001 -2.027892e-001 2.581032e-001 -5.125032e-002 -3.893250e-001 6.452184e-004 3.411738e-001 2.541837e-001 9.440663e-002
<VARIANCE> 39
 5.225463e+000 4.069319e+001 2.053345e+001 4.647949e+001 2.769070e+001 2.007979e+001 4.300997e+001 2.683551e+001 1.447455e+001 4.092352e+001 1.855410e+001 1.586263e+001 1.746434e+001 4.258077e-001 5.466801e+000 7.901645e-001 3.470642e+000 2.967776e+000 4.279508e+000 3.874735e+000 7.911454e-001 2.945331e+000 5.733173e+000 4.231126e+000 3.045326e+000 1.903121e+000 1.528635e-001 1.125680e+000 2.497253e-001 8.626236e-001 8.096827e-001 9.727896e-001 1.234825e+000 2.296640e-001 6.662309e-001 1.326400e+000 7.944221e-001 2.901990e-001 4.294776e-001
<GCONST> 1.165104e+002
<TRANSP> 5
 0.000000e+000 1.000000e+000 0.000000e+000 0.000000e+000 0.000000e+000
 0.000000e+000 7.994391e-001 2.005609e-001 0.000000e+000 0.000000e+000
 0.000000e+000 0.000000e+000 4.671063e-001 5.328937e-001 0.000000e+000
 0.000000e+000 0.000000e+000 0.000000e+000 7.980682e-001 2.019318e-001
 0.000000e+000 0.000000e+000 0.000000e+000 0.000000e+000 0.000000e+000
<ENDHMM>
~h "d"
<BEGINHMM>
<NUMSTATES> 5
<STATE> 2
<MEAN> 39
 -2.708981e+000 4.399043e+000 -7.166190e+000 -3.085600e-001 -1.960955e+000 -7.317933e+000 3.661204e+000 2.261811e+000 6.239529e-001 -3.390397e+000 -1.710862e+000 -7.449985e-002 7.009350e+001 -3.681466e+000 2.750945e+000 2.834202e+000 -3.266311e-001 8.217834e-001 2.944913e+000 1.793748e-001 1.044313e-001 1.067094e+000 1.210336e+000 1.164835e-001 -4.459215e-002 -3.532827e+000 -2.595434e-001 -4.847762e-001 -1.988397e-001 -1.571630e-001 -2.365595e-001 2.060920e-001 1.876257e-001 4.848990e-001 5.876178e-001 6.568028e-001 5.121547e-001 3.642765e-001 -1.567626e-001
<VARIANCE> 39
 4.006634e+001 2.380094e+001 2.873978e+001 1.951955e+001 2.947719e+001 6.476656e+001 9.585870e+000 1.709378e+001 3.377719e+001 2.112112e+001 1.357690e+001 4.206271e+001 2.985090e+001 1.715297e+000 1.203460e+000 4.720199e-001 1.597206e+000 1.342361e+000 8.496182e-001 1.002708e+000 1.859680e+000 3.369153e+000 2.843694e+000 1.713562e+000 1.181983e+000 1.435876e+000 6.436881e-001 3.191673e-001 2.823826e-001 1.822115e-001 1.207421e-001 5.784364e-001 1.702258e-001 1.159264e-001 3.678152e-001 3.952684e-001 1.625569e-001 1.490594e-001 3.942143e-001
<GCONST> 1.006426e+002
<STATE> 3
<MEAN> 39
 -1.171997e+001 8.147124e+000 -2.026730e-001 1.470825e+000 5.684165e-001 2.415712e+000 4.132855e+000 4.714019e+000 4.711210e+000 1.584816e+000 9.319470e-001 -7.450548e-001 6.121534e+001 -1.661733e+000 -1.408938e-001 8.597740e-001 7.428041e-001 5.420310e-001 1.205291e+000 9.227355e-002 2.461311e-001 6.543969e-001 1.023636e+000 1.097656e+000 7.872597e-001 -1.260324e+000 3.325695e-001 -4.358175e-001 -3.949529e-001 6.946042e-002 6.236177e-003 -4.191696e-001 2.810381e-002 -2.322821e-002 -1.405352e-001 -7.034466e-002 7.820392e-002 1.948590e-001 4.205027e-001
<VARIANCE> 39
 9.101525e+000 9.193682e+000 1.643104e+001 3.318904e+001 3.638889e+001 2.249352e+001 3.649040e+000 5.404934e+000 1.511917e+001 1.846846e+001 2.965034e+001 6.141117e+001 3.461372e+000 1.213254e+000 5.452150e-001 7.710857e-001 9.738951e-001 8.282574e-001 1.395086e+000 5.044497e-001 6.730698e-001 1.052175e+000 1.934352e+000 1.016217e+000 1.051324e+000 9.142008e-001 2.385893e-001 1.696687e-001 1.670388e-001 2.436495e-001 2.452528e-001 2.007506e-001 7.796959e-002 1.678067e-001 2.177803e-001 3.335119e-001 2.712118e-001 2.299583e-001 1.804941e-001
<GCONST> 8.466217e+001
<STATE> 4
<MEAN> 39
 -1.904147e+001 4.533458e+000 6.971611e-001 5.581504e+000 4.120883e+000 5.607425e+000 5.898685e+000 5.563967e+000 7.145267e+000 5.810586e+000 6.105911e+000 4.742164e+000 5.778645e+001 -1.415833e-001 -4.610845e-001 -1.162437e-001 1.554310e-001 4.280031e-002 -1.212423e-001 1.046766e-001 -1.096931e-001 -3.433340e-002 4.745378e-002 2.687187e-001 2.449825e-001 1.264814e-001 2.378048e-001 -1.247935e-002 -5.861128e-002 9.606542e-003 -2.931608e-002 -1.890013e-001 -5.415569e-002 -7.847312e-002 -1.896324e-001 -2.554020e-001 -1.109157e-001 -1.031864e-001 2.002534e-001
<VARIANCE> 39
 3.840455e+000 9.100947e+000 1.287732e+001 7.821080e+000 1.227425e+001 6.770960e+000 6.151406e+000 1.131516e+001 8.132163e+000 6.332353e+000 8.671968e+000 1.002971e+001 4.054203e+000 8.123696e-001 1.704564e+000 2.040191e+000 8.477898e-001 1.025877e+000 1.054173e+000 8.264307e-001 1.674904e+000 1.553523e+000 1.430827e+000 8.038154e-001 1.466691e+000 1.400913e+000 2.009919e-001 2.949097e-001 4.032516e-001 1.004982e-001 2.035259e-001 2.298282e-001 1.376695e-001 3.511372e-001 3.381849e-001 3.663977e-001 2.032988e-001 1.952827e-001 2.821783e-001
<GCONST> 8.218768e+001
<TRANSP> 5
 0.000000e+000 1.000000e+000 0.000000e+000 0.000000e+000 0.000000e+000
 0.000000e+000 4.521965e-001 5.478035e-001 0.000000e+000 0.000000e+000
 0.000000e+000 0.000000e+000 7.622062e-001 2.377938e-001 0.000000e+000
 0.000000e+000 0.000000e+000 0.000000e+000 9.004836e-001 9.951643e-002
 0.000000e+000 0.000000e+000 0.000000e+000 0.000000e+000 0.000000e+000
<ENDHMM>
~h "g"
<BEGINHMM>
<NUMSTATES> 5
<STATE> 2
<MEAN> 39
 2.699015e+000 9.089600e-001 -5.648271e+000 2.323645e+000 -8.085761e+000 -2.007693e+001 -4.308523e+000 1.321939e+001 6.275534e-001 -1.028745e+001 1.608555e-001 -2.854195e+000 7.574559e+001 1.094289e-001 -7.421041e-001 -8.444070e-001 -1.862314e-001 -4.421141e-001 -1.313455e-001 3.219010e-001 1.742418e-001 4.387911e-002 3.568775e-001 4.692171e-001 8.016423e-001 1.650023e-001 -5.916023e-002 1.370601e-002 2.740852e-002 1.796491e-002 1.052267e-001 1.822934e-001 5.839774e-002 -9.229969e-002 -5.788641e-002 5.348568e-002 3.889340e-002 -4.241815e-003 -6.368814e-002
<VARIANCE> 39
 1.747385e+000 4.377661e+001 2.863011e+001 9.493016e+000 4.120669e+001 3.087628e+001 4.191991e+001 3.619477e+001 1.828655e+001 3.457444e+001 1.731499e+001 2.300154e+001 7.110994e+000 1.470069e-001 6.376499e-001 4.716908e-001 3.643860e-001 3.326884e-001 9.000434e-001 1.079345e+000 5.994418e-001 8.679045e-001 9.610732e-001 6.395351e-001 1.526661e+000 3.148113e-001 2.205305e-002 1.126756e-001 9.238820e-002 7.549862e-002 5.867832e-002 9.637991e-002 1.220565e-001 9.231935e-002 1.328528e-001 1.755085e-001 1.136448e-001 1.857052e-001 3.187489e-002
<GCONST> 7.167354e+001
<STATE> 3
<MEAN> 39
 5.664727e-001 -4.095757e-001 -1.094268e+001 -1.542145e-001 -5.981304e+000 -1.366135e+001 -1.185083e-001 7.556505e+000 1.754380e+000 -3.382535e+000 2.635462e+000 3.222729e+000 7.259420e+001 -1.174752e+000 6.360961e-001 5.816789e-001 -5.691522e-001 4.359166e-001 1.515856e+000 8.115761e-001 -4.820497e-001 -1.079294e-001 1.359326e+000 4.582418e-001 -5.032220e-002 -1.134757e+000 -4.014607e-001 2.063273e-001 2.377064e-001 -1.006162e-002 1.700858e-001 3.766384e-001 1.097331e-001 8.982086e-002 3.809987e-001 1.763105e-001 -1.694731e-002 8.124888e-003 -2.840965e-001
<VARIANCE> 39
 5.020168e+000 2.326342e+001 7.057227e+000 1.123509e+001 5.954311e+001 2.276111e+001 4.981086e+001 5.315824e+001 5.425943e+000 3.499582e+001 1.592349e+001 1.649629e+001 8.051530e+000 3.765333e-001 1.082055e+000 4.979239e-001 7.733673e-001 5.081909e-001 7.681574e-001 4.694069e-001 7.212921e-001 6.134923e-001 9.443177e-001 3.487595e-001 6.077586e-001 2.757587e-001 7.302993e-002 1.764352e-001 1.640060e-001 2.563323e-001 2.759584e-001 1.885288e-001 1.964135e-001 1.235903e-001 1.688742e-001 1.476843e-001 1.131661e-001 3.131913e-001 5.234943e-002
<GCONST> 7.736973e+001
<STATE> 4
<MEAN> 39
 -9.443649e+000 3.493244e+000 -5.751674e+000 -1.050060e+000 -3.863982e+000 -3.774515e+000 5.130392e+000 7.905350e+000 6.141150e+000 2.478698e+000 4.738675e+000 4.687241e+000 6.441451e+001 -2.527632e+000 9.667811e-001 1.359241e+000 1.278845e-001 1.195305e+000 2.592635e+000 3.687814e-001 -3.229615e-001 1.264338e+000 1.670742e+000 6.180565e-001 8.593919e-001 -2.131226e+000 8.753921e-002 -2.516844e-001 7.908834e-003 3.053719e-001 3.131382e-003 -2.827529e-001 -1.993284e-001 1.594989e-001 -1.939226e-001 -2.477860e-001 3.348082e-002 -1.376448e-002 1.190472e-001
<VARIANCE> 39
 2.948626e+001 9.942957e+000 1.519663e+001 1.450570e+001 2.802662e+001 3.815805e+001 1.216470e+001 3.252976e+001 1.616706e+001 3.117473e+001 1.501640e+001 2.403418e+001 1.731447e+001 1.275326e+000 1.180347e+000 1.845592e+000 2.758837e+000 2.515081e+000 1.654990e+000 3.138987e+000 1.961535e+000 1.127281e+000 2.391515e+000 1.532640e+000 7.967956e-001 4.933190e-001 2.222463e-001 1.739028e-001 3.401943e-001 3.162248e-001 2.295260e-001 3.442450e-001 3.319795e-001 1.768103e-001 1.888776e-001 4.190940e-001 2.766230e-001 2.056678e-001 1.196740e-001
<GCONST> 9.805510e+001
<TRANSP> 5
 0.000000e+000 1.000000e+000 0.000000e+000 0.000000e+000 0.000000e+000
 0.000000e+000 9.214024e-001 7.859762e-002 0.000000e+000 0.000000e+000
 0.000000e+000 0.000000e+000 7.843240e-001 2.156760e-001 0.000000e+000
 0.000000e+000 0.000000e+000 0.000000e+000 7.932887e-001 2.067113e-001
 0.000000e+000 0.000000e+000 0.000000e+000 0.000000e+000 0.000000e+000
<ENDHMM>
~h "l"
<BEGINHMM>
<NUMSTATES> 5
<STATE> 2
<MEAN> 39
 -1.183218e+001 2.706121e+000 -1.530123e+000 4.678698e+000 2.413427e+000 -2.178058e+000 4.227762e+000 4.835543e+000 2.486469e+000 3.428974e-001 3.690393e+000 2.577310e+000 6.431633e+001 1.179688e+000 -4.157538e-002 1.077261e-001 5.541229e-001 3.758258e-001 -7.062879e-001 -1.097268e+000 -3.019652e-001 -1.164023e+000 -1.482830e+000 -5.260528e-001 -6.208947e-001 8.780901e-001 6.176553e-002 7.477885e-002 8.812106e-002 1.436814e-001 1.475152e-001 1.040284e-001 -2.200582e-001 5.015456e-002 -5.238738e-003 -1.062812e-001 -1.047834e-001 -1.375115e-001 -3.337339e-002
<VARIANCE> 39
 8.403658e+001 1.824433e+001 2.457225e+001 2.302036e+001 2.937067e+001 8.966600e+001 4.056536e+001 3.391421e+001 5.192050e+001 6.769432e+001 1.803786e+001 2.523555e+001 4.831142e+001 3.959652e+000 2.582750e+000 1.884349e+000 1.956515e+000 2.032775e+000 5.315148e+000 4.438982e+000 3.276649e+000 3.849329e+000 6.527284e+000 2.874046e+000 3.340114e+000 3.060281e+000 4.694642e-001 4.132367e-001 2.684661e-001 2.604851e-001 2.912419e-001 5.629939e-001 6.478847e-001 5.374745e-001 5.974973e-001 8.927656e-001 3.652525e-001 5.827367e-001 3.672829e-001
<GCONST> 1.235670e+002
<STATE> 3
<MEAN> 39
 -2.313878e+000 2.234050e+000 -3.088083e+000 9.517579e+000 7.123889e+000 -7.453735e+000 -5.135562e+000 5.684576e+000 -3.337741e-001 -8.067589e+000 -1.579587e+000 -4.334360e+000 7.035934e+001 -9.906124e-001 5.980315e-001 8.920094e-001 7.409768e-001 8.912854e-001 9.937035e-001 -4.848768e-001 -8.297588e-001 7.674311e-001 8.642371e-001 -1.662849e-001 -2.639343e-001 -8.772479e-001 -3.833358e-001 1.165644e-001 1.920225e-001 -1.930899e-001 -1.993936e-001 2.603881e-001 4.253012e-001 -1.796188e-001 1.530635e-001 4.589222e-001 1.775696e-001 2.489313e-001 -2.585178e-001
<VARIANCE> 39
 1.750776e+001 1.442893e+001 1.624771e+001 4.869498e+001 7.489909e+001 2.997646e+001 3.335274e+001 4.351886e+001 7.824461e+001 8.302467e+001 4.468214e+001 5.982087e+001 1.412466e+001 1.348817e+000 1.962293e+000 1.769758e+000 2.156302e+000 2.793279e+000 2.083191e+000 2.118647e+000 1.412599e+000 1.384244e+000 3.754375e+000 3.138226e+000 2.431862e+000 1.339968e+000 2.101335e-001 3.835617e-001 2.649086e-001 3.860026e-001 5.069213e-001 4.194929e-001 3.544148e-001 3.415124e-001 3.576678e-001 6.569120e-001 5.811812e-001 3.878782e-001 1.783488e-001
<GCONST> 1.142198e+002
<STATE> 4
<MEAN> 39
 -7.724101e+000 1.219239e+000 2.096311e+000 1.187118e+001 7.633976e+000 -3.697662e+000 -4.368617e+000 6.002519e-001 -1.538080e+000 -6.039798e+000 3.183651e-001 -1.212363e+000 6.801909e+001 -5.186666e-001 3.183247e-001 1.944722e-001 -3.841527e-001 -3.798385e-001 6.175228e-001 7.693346e-001 2.912960e-001 3.363909e-001 3.670745e-001 -4.286801e-002 8.124952e-002 -5.048586e-001 2.508040e-002 -1.520963e-001 -1.770848e-001 -4.243958e-002 4.178453e-002 -2.933930e-002 6.793519e-002 1.168755e-001 -6.114616e-003 -4.785771e-002 8.436397e-002 6.414158e-002 6.571730e-002
<VARIANCE> 39
 4.336802e+001 7.000136e+001 5.518697e+001 4.228796e+001 5.380153e+001 5.796542e+001 5.976586e+001 4.533195e+001 5.306464e+001 5.788460e+001 2.470867e+001 1.042386e+001 3.203970e+001 3.560615e+000 6.012463e+000 4.010642e+000 1.978470e+000 2.382832e+000 3.354687e+000 3.957036e+000 3.450328e+000 3.414382e+000 4.207972e+000 2.190020e+000 1.382614e+000 2.121356e+000 4.060941e-001 1.191847e+000 5.284584e-001 3.205080e-001 3.714181e-001 5.271843e-001 7.173221e-001 7.038285e-001 5.942662e-001 6.685546e-001 4.192083e-001 2.252732e-001 2.779739e-001
<GCONST> 1.254225e+002
<TRANSP> 5
 0.000000e+000 1.000000e+000 0.000000e+000 0.000000e+000 0.000000e+000
 0.000000e+000 6.993096e-001 3.006904e-001 0.000000e+000 0.000000e+000
 0.000000e+000 0.000000e+000 7.300851e-001 2.699149e-001 0.000000e+000
 0.000000e+000 0.000000e+000 0.000000e+000 8.753550e-001 1.246450e-001
 0.000000e+000 0.000000e+000 0.000000e+000 0.000000e+000 0.000000e+000
<ENDHMM>
~h "m"
<BEGINHMM>
<NUMSTATES> 5
<STATE> 2
<MEAN> 39
 -1.722501e+001 8.858330e-001 2.087545e-001 2.323688e+000 2.218666e+000 3.746074e+000 5.373882e+000 2.509405e+000 7.136553e+000 5.038171e+000 4.709150e+000 4.312054e+000 6.170855e+001 4.707373e-001 -5.201221e-001 8.010793e-001 7.141158e-001 4.830456e-001 -8.293115e-001 -8.310246e-001 -9.698531e-001 -5.929621e-001 -7.158831e-001 -3.383902e-001 -6.900123e-001 1.058308e+000 2.862277e-001 2.011992e-004 1.688674e-001 4.019853e-001 2.378844e-001 -4.284801e-001 -2.200211e-001 1.601009e-001 -3.145545e-001 -3.023194e-001 -4.037669e-002 -2.028330e-001 2.237468e-001
<VARIANCE> 39
 2.942915e+001 2.153005e+001 2.013098e+001 1.714816e+001 2.504038e+001 2.964670e+001 1.217882e+001 3.196170e+001 1.344107e+001 1.415877e+001 1.841439e+001 1.521491e+001 2.958947e+001 3.233177e+000 3.064821e+000 1.841069e+000 5.320368e+000 3.046239e+000 4.310313e+000 2.344550e+000 2.702113e+000 3.525613e+000 2.961188e+000 2.561060e+000 1.585362e+000 3.142990e+000 5.212685e-001 5.040086e-001 3.754555e-001 8.262222e-001 4.962233e-001 5.419369e-001 3.800065e-001 6.595724e-001 5.691327e-001 3.610702e-001 4.026875e-001 2.740383e-001 4.864677e-001
<GCONST> 1.149956e+002
<STATE> 3
<MEAN> 39
 -9.569852e+000 3.567242e-001 4.601554e+000 1.667943e+001 1.063659e+001 -8.693431e+000 -4.010466e+000 1.116124e+000 2.741499e-002 -5.031675e+000 1.107997e-001 -7.912269e-001 6.849280e+001 5.406066e-001 -6.694907e-002 -2.999717e-001 -1.053043e-001 1.261427e-001 -4.201892e-001 -4.787602e-001 -4.451844e-001 -6.163381e-001 -4.141290e-001 3.667189e-001 -3.074078e-002 5.288426e-001 -2.972882e-002 2.364680e-002 -1.958515e-001 -3.323955e-001 -2.433746e-001 1.181976e-001 1.526014e-001 4.515390e-002 8.993253e-002 1.496440e-001 1.426246e-001 1.473386e-001 -5.754587e-002
<VARIANCE> 39
 3.155186e+001 3.510168e+001 3.718589e+001 8.245892e+001 4.459958e+001 7.034200e+001 5.734417e+001 3.623312e+001 5.343841e+001 3.790521e+001 1.756825e+001 2.272988e+001 4.092796e+001 4.538973e+000 4.555030e+000 3.072069e+000 5.512367e+000 3.730183e+000 8.466380e+000 5.771913e+000 3.456835e+000 4.363483e+000 3.515135e+000 2.072176e+000 2.007975e+000 5.302166e+000 5.386748e-001 6.740902e-001 2.892127e-001 6.223136e-001 5.480508e-001 1.101105e+000 9.628206e-001 5.937909e-001 7.818719e-001 6.192790e-001 3.349949e-001 3.528622e-001 6.824642e-001
<GCONST> 1.308143e+002
<STATE> 4
<MEAN> 39
 -3.642071e+000 -7.918686e-001 -8.218295e+000 1.461694e+000 -2.038742e+000 -8.855580e+000 8.969688e-001 4.573314e+000 -2.312216e-001 -8.387154e-001 7.210037e+000 4.250276e+000 7.091459e+001 -8.735600e-001 5.610447e-001 2.107416e-001 -7.341577e-001 -4.703998e-001 8.086381e-001 8.706928e-001 8.351361e-001 8.487607e-001 1.093116e+000 2.098325e-001 2.835027e-001 -9.722330e-001 -1.202429e-001 -8.003738e-002 6.067331e-002 1.456326e-001 1.326323e-001 6.288928e-002 3.896581e-002 -3.219484e-003 1.537687e-001 6.553733e-002 -1.380178e-001 -2.555374e-002 -5.882164e-002
<VARIANCE> 39
 6.611736e+001 3.351508e+001 3.951144e+001 3.158904e+001 5.154605e+001 7.039503e+001 5.632739e+001 9.451167e+001 5.553344e+001 5.601238e+001 2.429358e+001 2.198977e+001 4.711569e+001 4.479869e+000 1.494038e+000 3.385465e+000 2.062675e+000 2.941432e+000 3.726730e+000 3.058497e+000 3.117553e+000 3.282655e+000 3.754869e+000 2.662621e+000 1.851666e+000 2.658726e+000 4.738169e-001 2.110777e-001 3.605480e-001 3.199221e-001 3.426805e-001 5.558596e-001 6.295713e-001 4.049359e-001 5.566724e-001 6.529824e-001 3.506840e-001 2.849448e-001 2.494696e-001
<GCONST> 1.228505e+002
<TRANSP> 5
 0.000000e+000 1.000000e+000 0.000000e+000 0.000000e+000 0.000000e+000
 0.000000e+000 7.160698e-001 2.839302e-001 0.000000e+000 0.000000e+000
 0.000000e+000 0.000000e+000 8.183163e-001 1.816837e-001 0.000000e+000
 0.000000e+000 0.000000e+000 0.000000e+000 8.003287e-001 1.996713e-001
 0.000000e+000 0.000000e+000 0.000000e+000 0.000000e+000 0.000000e+000
<ENDHMM>
~h "n"
<BEGINHMM>
<NUMSTATES> 5
<STATE> 2
<MEAN> 39
 -1.586039e+001 4.063516e+000 4.321207e+000 6.447031e+000 5.780109e+000 3.925467e+000 5.103061e+000 1.928420e+000 2.884568e+000 2.713644e+000 3.818352e+000 1.518193e+000 6.235487e+001 1.739090e+000 -3.340255e-002 2.688486e-002 6.642908e-001 5.005708e-001 -1.215804e+000 -1.349377e+000 -1.134164e+000 -1.208994e+000 -1.472129e+000 -7.141361e-001 -7.692230e-001 1.531310e+000 2.539620e-001 -2.169878e-001 -1.802869e-001 6.622250e-002 1.068689e-001 -3.314561e-001 -3.159656e-001 4.675370e-002 -1.500842e-001 -2.851660e-001 -1.132788e-001 4.453633e-002 2.612711e-001
<VARIANCE> 39
 4.511924e+001 3.450298e+001 3.433128e+001 3.212026e+001 1.030440e+001 2.263359e+001 2.873746e+001 2.552698e+001 2.446516e+001 2.322369e+001 1.940683e+001 1.908511e+001 2.756211e+001 3.870735e+000 4.105545e+000 2.513502e+000 3.100932e+000 1.276983e+000 3.707232e+000 3.475458e+000 3.654181e+000 3.159670e+000 3.640632e+000 2.597835e+000 2.752560e+000 3.182687e+000 4.326611e-001 6.640202e-001 4.433379e-001 4.778395e-001 1.937605e-001 6.536065e-001 3.821865e-001 7.480279e-001 5.277795e-001 4.469772e-001 4.605058e-001 4.874003e-001 4.692107e-001
<GCONST> 1.183268e+002
<STATE> 3
<MEAN> 39
 -3.298928e+000 5.632619e-001 7.588592e-001 1.344666e+001 1.133035e+001 -7.979469e+000 -8.277454e+000 6.818546e-002 -2.972737e+000 -9.721558e+000 -1.860603e+000 -3.149729e+000 7.232625e+001 7.833759e-001 -1.981108e-001 -7.563655e-001 -3.431143e-001 -1.103812e-001 -3.413911e-001 -5.436922e-001 9.198312e-002 3.287010e-003 -2.977041e-001 -4.018703e-001 -3.501039e-001 5.447704e-001 -2.167256e-001 5.062120e-002 -1.257632e-001 -3.265049e-001 -3.175333e-001 2.242360e-001 4.443894e-001 1.397126e-001 2.355472e-001 3.871257e-001 2.523081e-001 1.357671e-001 -2.084155e-001
<VARIANCE> 39
 1.514803e+001 3.149703e+001 2.113176e+001 5.675668e+001 3.251123e+001 5.298170e+001 3.807109e+001 4.696772e+001 3.881273e+001 5.618509e+001 2.545214e+001 4.222414e+001 2.199340e+001 1.182096e+000 2.944851e+000 1.872734e+000 3.277552e+000 2.244252e+000 6.546260e+000 4.154127e+000 4.785475e+000 4.147831e+000 5.560052e+000 2.006334e+000 1.883393e+000 1.952728e+000 2.255789e-001 5.507052e-001 3.573349e-001 4.549769e-001 4.124156e-001 1.034396e+000 6.362036e-001 1.210281e+000 8.936403e-001 9.656896e-001 5.379497e-001 5.798835e-001 2.602232e-001
<GCONST> 1.238344e+002
<STATE> 4
<MEAN> 39
 -2.055125e-001 5.210148e-001 -9.350213e+000 1.508768e+000 5.480644e-001 -6.731384e+000 8.507167e-001 5.883807e+000 -1.709245e+000 -3.933317e+000 2.495654e+000 -5.648502e-001 7.263827e+001 -2.736373e-001 -1.542744e-001 -2.782188e-001 -5.990980e-001 -7.032769e-001 -2.288333e-002 9.207993e-001 7.541022e-001 3.676610e-001 4.852509e-001 4.733366e-001 5.700066e-001 -1.867390e-001 -1.483752e-001 5.143297e-003 1.285472e-001 1.137339e-001 1.044673e-001 5.731946e-002 3.555055e-002 1.463460e-002 2.519522e-002 8.358599e-003 1.952139e-002 7.011124e-002 -1.053361e-001
<VARIANCE> 39
 2.588509e+001 3.597853e+001 3.526729e+001 3.907195e+001 5.322815e+001 6.174279e+001 4.912351e+001 7.894603e+001 4.998671e+001 3.247564e+001 4.693017e+001 4.586491e+001 3.058241e+001 1.922668e+000 2.053735e+000 2.533616e+000 2.250160e+000 2.652779e+000 4.625928e+000 1.554714e+000 3.767192e+000 2.358839e+000 2.203479e+000 3.052754e+000 3.568133e+000 1.938880e+000 9.850471e-002 2.667994e-001 2.415107e-001 3.412024e-001 3.911558e-001 5.283509e-001 3.276325e-001 4.961120e-001 3.093058e-001 3.474520e-001 5.341772e-001 6.686036e-001 1.282770e-001
<GCONST> 1.178350e+002
<TRANSP> 5
 0.000000e+000 1.000000e+000 0.000000e+000 0.000000e+000 0.000000e+000
 0.000000e+000 8.156161e-001 1.843839e-001 0.000000e+000 0.000000e+000
 0.000000e+000 0.000000e+000 8.345493e-001 1.654507e-001 0.000000e+000
 0.000000e+000 0.000000e+000 0.000000e+000 8.744631e-001 1.255369e-001
 0.000000e+000 0.000000e+000 0.000000e+000 0.000000e+000 0.000000e+000
<ENDHMM>
~h "p"
<BEGINHMM>
<NUMSTATES> 5
<STATE> 2
<MEAN> 39
 -1.608076e+001 4.675569e+000 -2.685307e+000 4.135894e-001 5.415011e-001 3.484715e+000 6.032943e+000 5.387147e+000 7.537787e+000 7.517413e+000 6.670701e+000 6.463443e+000 5.917545e+001 -9.941786e-001 6.968947e-002 7.999312e-001 8.399683e-001 7.178828e-001 4.633647e-001 1.347489e-001 1.020926e-001 -4.582899e-002 -3.413790e-001 -1.941899e-001 -5.372798e-002 -6.466181e-001 3.312513e-001 -8.978416e-002 -1.431062e-001 4.118183e-002 1.470472e-001 -5.934831e-002 -6.219899e-002 8.053027e-002 -8.354789e-002 -3.141968e-001 -1.097516e-001 -2.252871e-001 2.665058e-001
<VARIANCE> 39
 1.309782e+001 1.297395e+000 1.240252e+001 1.350457e+001 6.080584e+000 5.182970e+000 3.844043e+000 7.343285e+000 7.402266e+000 1.107560e+001 8.785391e+000 1.401970e+001 4.922547e+000 9.503689e-001 1.615577e-001 4.427614e-001 6.221775e-001 4.370497e-001 7.094720e-001 7.513729e-001 4.929121e-001 7.299567e-001 5.436656e-001 9.319379e-001 6.008086e-001 3.842715e-001 1.211049e-001 3.707413e-002 1.585499e-001 1.351243e-001 1.101874e-001 1.933465e-001 2.779475e-001 7.945100e-002 2.659195e-001 1.561560e-001 9.696853e-002 1.914576e-001 6.022987e-002
<GCONST> 6.255935e+001
<STATE> 3
<MEAN> 39
 -1.871913e+001 4.445743e+000 -1.463771e-002 2.780412e+000 3.631177e+000 5.947465e+000 6.513199e+000 5.440997e+000 7.143896e+000 6.377897e+000 6.457517e+000 5.712854e+000 5.749007e+001 -4.503368e-001 -1.593961e-001 4.836762e-001 5.224856e-001 4.338587e-001 4.069288e-001 1.157016e-001 7.895979e-002 -4.975788e-002 -1.573989e-001 -3.688375e-001 -2.661332e-001 -2.462789e-001 1.247667e-001 -1.209142e-002 -1.221969e-001 -1.127460e-001 -1.641219e-001 -1.989322e-001 -5.861685e-002 1.244353e-001 1.063758e-003 -4.755133e-002 -9.385496e-005 -1.954019e-002 7.195933e-002
<VARIANCE> 39
 1.458037e+000 6.485142e-001 3.268933e+000 1.035284e+001 2.331326e+000 1.900383e+000 5.546357e+000 4.666174e+000 5.244340e+000 1.106234e+001 3.540725e+000 5.993972e+000 5.477192e-001 1.364060e-001 1.163132e-001 2.228535e-001 4.766894e-001 4.533262e-001 6.114495e-001 5.082046e-001 6.963757e-001 5.063377e-001 1.180135e+000 3.888090e-001 8.663405e-001 5.205544e-002 1.409641e-002 1.836727e-002 2.563617e-002 1.051608e-001 6.104318e-002 7.306598e-002 1.091944e-001 1.462602e-001 7.787072e-002 2.546985e-001 7.792296e-002 1.218809e-001 4.328601e-003
<GCONST> 3.538844e+001
<STATE> 4
<MEAN> 39
 -1.983764e+001 4.241230e+000 1.159285e+000 5.031595e+000 4.363238e+000 6.171049e+000 6.658690e+000 6.687105e+000 7.158206e+000 6.252556e+000 6.278372e+000 5.216097e+000 5.681261e+001 -1.166871e-002 3.546068e-003 1.625367e-002 1.877901e-002 1.745368e-002 -3.228770e-004 1.964714e-002 1.826176e-002 1.026997e-002 -7.679412e-003 -9.066474e-004 -3.498865e-002 -6.034174e-003 2.780649e-003 1.704063e-003 -9.942736e-003 -9.027410e-003 8.084583e-004 1.750552e-003 2.541660e-003 -7.692389e-003 -1.496000e-003 1.140618e-002 1.131026e-002 6.933799e-003 2.239380e-003
<VARIANCE> 39
 7.076837e-001 7.189825e-001 1.432669e+000 2.064667e+000 2.792226e+000 3.525568e+000 3.779624e+000 4.252401e+000 4.277119e+000 4.777831e+000 4.246467e+000 4.161765e+000 5.072046e-001 3.183991e-002 8.346427e-002 1.560028e-001 2.557544e-001 3.265462e-001 3.760990e-001 4.275373e-001 5.444640e-001 4.479462e-001 4.843543e-001 4.291660e-001 4.822168e-001 1.169577e-002 6.613542e-003 1.777211e-002 3.337772e-002 5.375846e-002 7.268131e-002 8.081001e-002 9.647202e-002 1.165503e-001 8.880983e-002 9.984788e-002 9.296291e-002 9.596603e-002 1.483412e-003
<GCONST> 2.114688e+001
<TRANSP> 5
 0.000000e+000 1.000000e+000 0.000000e+000 0.000000e+000 0.000000e+000
 0.000000e+000 6.077207e-001 3.922793e-001 0.000000e+000 0.000000e+000
 0.000000e+000 0.000000e+000 5.845433e-001 4.154567e-001 0.000000e+000
 0.000000e+000 0.000000e+000 0.000000e+000 9.691505e-001 3.084954e-002
 0.000000e+000 0.000000e+000 0.000000e+000 0.000000e+000 0.000000e+000
<ENDHMM>
~h "s"
<BEGINHMM>
<NUMSTATES> 5
<STATE> 2
<MEAN> 39
 -5.584003e-001 -1.857553e+000 -9.388101e+000 1.633478e+000 -8.750481e+000 -1.436722e+001 2.129692e+000 1.158338e+001 4.564165e-001 -4.197298e+000 4.967364e+000 2.745420e+000 7.265581e+001 -1.914758e-001 1.146792e-001 1.991418e-001 1.389365e-001 3.199598e-002 3.878971e-001 -7.686859e-002 -1.681673e-001 -7.868594e-002 8.572245e-002 -1.781994e-002 -1.823293e-001 -2.682153e-001 -1.287608e-001 1.010985e-001 9.184691e-002 2.135030e-002 1.587415e-001 1.784578e-001 -1.184029e-001 -6.620216e-002 3.027624e-002 -3.341718e-002 -1.024731e-002 4.031572e-002 -1.369427e-001
<VARIANCE> 39
 6.317818e+001 4.929641e+001 3.818275e+001 1.457878e+001 2.253441e+001 6.584835e+001 1.402377e+001 2.306620e+001 4.568195e+001 5.142079e+001 2.221583e+001 1.586071e+001 5.971045e+001 6.167928e+000 3.122632e+000 2.782462e+000 6.106735e-001 3.118163e+000 7.724623e+000 1.314641e+000 2.640887e+000 2.083898e+000 5.009004e+000 2.742295e+000 2.081687e+000 5.027147e+000 9.260393e-001 4.821205e-001 4.122342e-001 1.331935e-001 4.781207e-001 1.394689e+000 2.606706e-001 4.681407e-001 2.823499e-001 7.729037e-001 6.457658e-001 4.936068e-001 6.967394e-001
<GCONST> 1.212131e+002
<STATE> 3
<MEAN> 39
 -3.872565e+000 2.179612e+000 -7.849683e+000 -1.236565e+000 -4.465771e+000 -8.792352e+000 3.353779e-001 5.621545e+000 6.905676e+000 4.813221e-001 1.938786e+000 2.133626e+000 6.845267e+001 -1.032848e+000 7.874454e-001 6.182508e-001 -3.987762e-001 4.605514e-001 1.634246e+000 6.614114e-002 -4.750330e-001 4.737958e-001 6.584342e-001 2.057620e-001 3.548691e-001 -1.043016e+000 -2.900969e-003 -1.477252e-001 -6.453218e-002 3.274800e-002 2.134657e-001 4.458401e-002 1.148175e-001 -1.275728e-002 2.901070e-003 4.295573e-002 5.350230e-002 7.425873e-002 1.129663e-001
<VARIANCE> 39
 5.828244e+001 3.166439e+001 3.736338e+001 1.403568e+001 1.239124e+001 4.821082e+001 1.815253e+001 1.961541e+001 3.562550e+001 2.513704e+001 1.632597e+001 1.908117e+001 4.289814e+001 8.787745e+000 2.649328e+000 3.919790e+000 1.260138e+000 2.097200e+000 7.859076e+000 2.912029e+000 2.390992e+000 3.615654e+000 1.916896e+000 1.627745e+000 3.265573e+000 6.795785e+000 1.152062e+000 4.011484e-001 5.611675e-001 3.523278e-001 3.857553e-001 1.512650e+000 7.030489e-001 5.019387e-001 4.692237e-001 2.941353e-001 2.994589e-001 6.793804e-001 7.482644e-001
<GCONST> 1.212002e+002
<STATE> 4
<MEAN> 39
 -5.995436e+000 5.833764e+000 -2.173463e+000 3.894242e+000 1.587586e+000 -3.782299e+000 -2.185710e+000 3.389487e+000 1.895844e+000 -1.575659e+000 9.179428e-001 -1.614336e+000 6.604105e+001 -1.576095e+000 4.342683e-001 9.823226e-001 5.316185e-001 1.026639e+000 1.730941e+000 7.911121e-001 -3.196857e-001 3.793309e-001 7.270346e-001 9.929559e-002 1.334476e-001 -1.237989e+000 -6.930158e-002 -2.038122e-001 -1.094634e-001 6.569371e-003 -1.126444e-001 -4.974511e-002 2.567208e-001 2.016697e-001 2.934507e-002 7.339992e-002 1.543413e-001 1.348520e-001 1.767633e-002
<VARIANCE> 39
 2.477839e+001 3.072671e+001 2.734883e+001 2.905742e+001 4.712096e+001 3.915578e+001 1.376672e+001 3.443035e+001 2.190363e+001 2.860004e+001 1.164783e+001 1.599953e+001 1.859334e+001 9.579772e-001 1.358247e+000 2.067358e+000 1.385245e+000 1.233633e+000 1.933456e+000 2.005415e+000 1.085456e+000 1.013243e+000 1.426033e+000 1.583648e+000 2.391802e+000 4.284104e-001 1.758910e-001 1.744505e-001 3.737754e-001 1.860759e-001 1.646720e-001 2.290354e-001 1.363145e-001 1.073415e-001 1.517927e-001 1.616816e-001 2.161735e-001 3.719047e-001 9.368773e-002
<GCONST> 9.482907e+001
<TRANSP> 5
 0.000000e+000 1.000000e+000 0.000000e+000 0.000000e+000 0.000000e+000
 0.000000e+000 8.723068e-001 1.276932e-001 0.000000e+000 0.000000e+000
 0.000000e+000 0.000000e+000 6.966603e-001 3.033397e-001 0.000000e+000
 0.000000e+000 0.000000e+000 0.000000e+000 8.416902e-001 1.583098e-001
 0.000000e+000 0.000000e+000 0.000000e+000 0.000000e+000 0.000000e+000
<ENDHMM>
~h "t"
<BEGINHMM>
<NUMSTATES> 5
<STATE> 2
<MEAN> 39
 -1.986141e+001 2.106854e+000 4.078525e+000 3.203911e+000 5.169448e+000 5.897819e+000 6.015061e+000 3.444556e+000 6.174440e+000 4.919983e+000 5.613367e+000 3.255741e+000 6.091089e+001 6.008437e-001 -2.220333e-001 1.341239e-001 -1.895324e-001 1.257423e-001 -5.097160e-001 -1.875359e-001 -5.658143e-001 -3.918187e-001 -5.397481e-001 -4.085585e-001 -5.946600e-001 1.064433e+000 3.457660e-001 -5.689460e-002 -2.664780e-001 5.973990e-002 -2.738991e-002 -2.946259e-001 -1.087653e-001 6.552681e-003 -1.076646e-001 -2.414521e-001 -1.337351e-001 -9.424119e-002 2.244942e-001
<VARIANCE> 39
 1.936380e+001 3.342702e+001 2.238602e+001 3.517703e+001 1.515839e+001 1.286007e+001 1.620471e+001 2.167298e+001 2.508459e+001 1.153299e+001 1.420579e+001 1.185428e+001 1.848167e+001 3.873525e+000 2.371432e+000 3.485167e+000 2.215117e+000 1.839911e+000 2.357483e+000 2.484325e+000 1.958068e+000 3.356045e+000 1.668643e+000 2.294144e+000 1.799149e+000 1.596217e+000 6.385111e-001 4.234504e-001 6.764981e-001 3.661013e-001 4.456955e-001 4.188926e-001 4.161148e-001 4.635069e-001 6.545833e-001 3.441072e-001 4.309254e-001 2.902436e-001 2.521534e-001
<GCONST> 1.096075e+002
<STATE> 3
<MEAN> 39
 -1.110981e+001 6.834714e-001 -2.443863e-001 2.669715e+000 5.904958e+000 -1.794225e+000 2.335894e+000 -1.452365e+000 1.192170e+000 -1.851089e+000 2.299896e+000 -9.549207e-001 6.961636e+001 4.270918e+000 -1.677246e-001 -2.606807e+000 4.602161e-001 -1.466324e-001 -2.769802e+000 -1.693545e+000 -6.509349e-002 -1.975253e+000 -3.147041e+000 -1.509930e+000 -5.466754e-001 2.292710e+000 4.787214e-002 5.280077e-002 1.541330e-002 2.747514e-002 -2.802239e-001 -2.890982e-003 1.730407e-001 7.614483e-001 1.307213e-001 9.926490e-002 2.968907e-002 1.117407e-001 -2.842499e-001
<VARIANCE> 39
 6.787524e+001 3.867677e+001 5.693313e+001 6.826841e+001 2.977877e+001 2.819086e+001 6.021656e+001 1.975568e+001 3.401155e+001 2.277390e+001 4.219528e+001 1.840789e+001 1.788409e+001 3.794464e+000 3.321589e+000 4.384257e+000 2.041775e+000 3.640218e+000 4.226628e+000 2.725745e+000 4.116104e+000 4.930571e+000 3.039307e+000 3.216575e+000 3.177076e+000 2.794770e+000 8.471577e-001 4.630177e-001 1.030679e+000 4.369819e-001 5.039188e-001 5.442806e-001 7.976850e-001 5.198244e-001 6.877716e-001 4.684412e-001 4.063443e-001 1.538823e-001 3.401878e-001
<GCONST> 1.248666e+002
<STATE> 4
<MEAN> 39
 -3.829546e+000 6.551134e+000 -1.080769e+000 7.356317e+000 5.134259e+000 -2.953541e+000 6.189942e-001 3.101211e+000 -1.370921e+000 -5.747740e+000 -4.212204e+000 -7.552957e+000 6.844938e+001 6.400294e-001 1.895986e-001 -1.054861e-001 -1.883101e-001 -6.985194e-001 -8.995147e-001 -2.135748e-001 6.466427e-001 3.015460e-002 -3.556291e-001 1.623401e-002 8.375601e-002 2.296687e-001 -5.517181e-001 -1.010120e-001 2.094270e-001 -5.347625e-002 -4.243083e-002 2.813273e-001 1.138477e-001 -1.129675e-002 3.551611e-001 5.458365e-001 3.742188e-001 3.225354e-001 -3.075771e-001
<VARIANCE> 39
 1.914182e+001 1.960097e+001 2.621535e+001 1.710841e+001 1.926566e+001 4.367076e+001 4.938917e+001 1.438350e+001 4.019117e+001 3.765415e+001 3.642370e+001 4.402662e+001 1.707851e+001 6.695024e+000 1.773902e+000 3.964932e+000 9.795781e-001 2.101816e+000 3.320898e+000 2.025883e+000 3.014057e+000 2.290820e+000 3.535245e+000 3.137207e+000 4.112681e+000 2.216032e+000 3.489419e-001 4.506319e-001 5.044482e-001 2.309881e-001 2.497814e-001 3.538837e-001 3.201987e-001 2.816493e-001 4.286808e-001 6.544029e-001 5.678227e-001 5.206054e-001 3.334202e-001
<GCONST> 1.151602e+002
<TRANSP> 5
 0.000000e+000 1.000000e+000 0.000000e+000 0.000000e+000 0.000000e+000
 0.000000e+000 8.509638e-001 1.490362e-001 0.000000e+000 0.000000e+000
 0.000000e+000 0.000000e+000 4.918236e-001 5.081764e-001 0.000000e+000
 0.000000e+000 0.000000e+000 0.000000e+000 7.025846e-001 2.974155e-001
 0.000000e+000 0.000000e+000 0.000000e+000 0.000000e+000 0.000000e+000
<ENDHMM>
~h "w"
<BEGINHMM>
<NUMSTATES> 5
<STATE> 2
<MEAN> 39
 -1.264057e+000 5.877640e+000 7.357679e-002 9.877104e+000 -3.182246e+000 -1.787856e+001 -2.798976e+000 6.408512e+000 -6.973291e+000 -1.111129e+001 -9.056397e-001 -4.846499e+000 7.004491e+001 -4.400795e-001 8.101611e-001 8.817468e-001 -6.388621e-002 -8.967274e-001 -2.555789e-001 -1.974837e-001 4.217241e-001 6.841815e-001 8.241169e-001 -3.330708e-001 -8.879781e-002 -7.510564e-001 -3.647160e-001 -1.070371e-001 6.648079e-002 -8.029571e-002 7.335208e-002 3.771534e-001 1.477327e-001 -2.852981e-001 1.492583e-001 2.629386e-001 2.287976e-001 3.103828e-001 -1.662082e-001
<VARIANCE> 39
 1.949040e+000 1.140797e+001 1.628190e+001 9.806443e+000 3.357512e+001 6.889201e+001 8.433554e+000 4.909357e+001 4.308125e+001 1.063170e+001 6.680937e+000 6.767325e+000 2.693165e+000 2.916007e-001 6.667708e-001 6.137275e-001 3.728278e-001 7.291176e-001 1.501234e+000 1.512762e+000 8.742179e-001 8.269046e-001 1.233366e+000 2.189691e-001 8.843153e-001 2.254714e-001 1.406394e-001 1.466502e-001 8.601355e-002 7.589887e-002 1.267371e-001 3.712529e-001 1.657719e-001 1.826791e-001 1.874457e-001 5.411041e-001 1.610098e-001 1.625018e-001 6.928228e-002
<GCONST> 7.463108e+001
<STATE> 3
<MEAN> 39
 -5.474890e+000 1.156925e+001 4.027117e+000 5.132813e+000 -5.374975e+000 -1.180399e+001 -3.487199e+000 2.475533e+000 -1.304990e-001 -3.671417e+000 -2.627387e+000 -4.228553e+000 6.488876e+001 -1.882668e+000 9.631652e-001 1.061702e+000 -6.601095e-001 3.955767e-001 2.031842e+000 1.754987e-002 -1.203324e+000 1.052258e+000 1.802948e+000 2.614044e-001 3.085766e-001 -1.511433e+000 -3.080952e-001 -4.201781e-001 -3.257327e-001 1.920642e-002 6.594644e-001 6.091161e-001 2.470159e-001 2.258153e-002 -8.880085e-002 -3.733213e-002 3.049689e-001 3.247581e-001 -7.035660e-002
<VARIANCE> 39
 7.409230e+000 5.191808e+000 3.880461e+000 5.103827e+000 1.139000e+001 3.297614e+001 4.610122e+000 2.653428e+001 3.813579e+001 2.930460e+001 5.991964e+000 6.534017e+000 3.740678e+000 5.535223e-001 3.202567e-001 3.990827e-001 5.519934e-001 2.072949e+000 4.782845e+000 2.799578e-001 6.544022e-001 1.332389e+000 6.890679e-001 6.012954e-001 9.405794e-001 2.411251e-001 5.606290e-002 9.985098e-002 5.930659e-002 4.257964e-002 6.840181e-002 3.277942e-001 7.366985e-002 2.755845e-001 2.854344e-001 3.462656e-001 8.559075e-002 1.059418e-001 2.680512e-002
<GCONST> 6.683191e+001
<STATE> 4
<MEAN> 39
 -1.552208e+001 7.536843e+000 2.606960e+000 5.405066e+000 2.471775e+000 6.720090e-001 -3.904643e-001 1.461174e+000 3.264508e+000 1.923538e+000 2.149760e+000 6.315588e-001 5.922126e+001 -1.424590e+000 -1.283702e+000 -1.047956e+000 -9.653126e-002 1.091924e+000 1.894195e+000 1.041834e+000 9.315242e-001 1.859352e+000 1.579643e+000 1.028723e+000 7.894266e-001 -6.683729e-001 3.294325e-001 -9.068765e-002 -1.384602e-001 2.354551e-004 -3.466547e-001 -4.389565e-001 1.732700e-001 3.408987e-001 1.011080e-002 -9.528741e-002 -2.425528e-002 -4.030781e-002 2.246392e-001
<VARIANCE> 39
 9.428205e+000 2.082665e+001 1.230572e+001 1.299737e+001 1.699848e+001 1.523682e+001 1.629481e+001 1.500857e+001 3.343776e+001 1.670049e+001 4.234303e+000 1.331367e+001 1.887303e+000 1.091724e+000 8.241516e-001 6.562278e-001 8.856095e-001 1.172180e+000 2.152759e+000 1.924467e+000 2.240010e+000 2.571305e+000 1.917282e+000 9.038468e-001 1.750229e+000 5.194203e-001 6.237870e-002 3.099776e-001 2.953549e-001 2.319059e-001 2.961906e-001 3.032716e-001 4.194905e-001 4.893276e-001 6.444252e-001 2.175293e-001 1.817340e-001 3.395099e-001 6.807452e-002
<GCONST> 8.916033e+001
<TRANSP> 5
 0.000000e+000 1.000000e+000 0.000000e+000 0.000000e+000 0.000000e+000
 0.000000e+000 8.242273e-001 1.757727e-001 0.000000e+000 0.000000e+000
 0.000000e+000 0.000000e+000 7.306430e-001 2.693570e-001 0.000000e+000
 0.000000e+000 0.000000e+000 0.000000e+000 7.978727e-001 2.021273e-001
 0.000000e+000 0.000000e+000 0.000000e+000 0.000000e+000 0.000000e+000
<ENDHMM>
~h "ah"
<BEGINHMM>
<NUMSTATES> 5
<STATE> 2
<MEAN> 39
 -1.654674e+001 5.145693e+000 -2.010676e-001 2.898504e+000 2.783017e+000 4.595500e+000 6.565135e+000 6.626066e+000 6.895516e+000 5.099707e+000 5.136954e+000 3.842242e+000 5.879096e+001 -7.731227e-001 -3.295329e-001 1.061247e-001 2.520874e-001 3.500696e-001 3.747700e-001 1.617354e-001 2.019203e-001 2.739387e-001 3.252613e-001 4.155366e-001 3.617762e-001 -4.773187e-001 1.849620e-001 2.581042e-002 -3.021694e-002 3.472738e-003 -7.619224e-002 -1.892227e-001 -1.466202e-001 -9.587047e-002 -1.233756e-001 -1.425342e-001 -9.889110e-002 -9.480701e-002 1.314206e-001
<VARIANCE> 39
 9.070746e+000 5.699050e+000 9.314732e+000 1.437585e+001 1.409712e+001 1.307483e+001 1.429803e+001 1.112492e+001 1.046586e+001 1.510423e+001 1.343234e+001 1.336908e+001 3.430362e+000 7.840955e-001 4.961465e-001 9.208543e-001 1.061759e+000 1.122258e+000 1.175678e+000 1.609932e+000 1.050516e+000 1.243041e+000 1.151899e+000 9.949946e-001 1.207684e+000 3.811421e-001 1.555793e-001 8.147117e-002 1.896349e-001 1.578388e-001 1.811789e-001 2.888376e-001 3.449933e-001 2.186015e-001 2.730075e-001 2.889523e-001 2.186338e-001 2.313717e-001 8.761504e-002
<GCONST> 8.033566e+001
<STATE> 3
<MEAN> 39
 -1.903699e+001 4.519030e+000 7.505424e-001 4.090183e+000 3.781559e+000 5.521029e+000 6.536904e+000 6.379274e+000 7.222006e+000 5.773956e+000 6.015297e+000 4.828141e+000 5.733302e+001 -2.868990e-001 -7.990708e-002 1.213403e-001 1.821935e-001 2.234221e-001 2.269255e-001 6.673741e-002 -7.108987e-002 -2.984690e-002 1.543691e-001 2.346171e-001 2.023716e-001 -1.746853e-001 8.099884e-002 4.840519e-002 2.195971e-002 1.283661e-002 -6.731653e-003 -5.518457e-002 -2.551030e-002 -3.416590e-002 -4.545690e-002 -3.126589e-002 -9.925212e-002 -1.309925e-001 5.056183e-002
<VARIANCE> 39
 1.946529e+000 8.891363e-001 3.166862e+000 4.674957e+000 6.054302e+000 6.895265e+000 5.020148e+000 6.145357e+000 6.434953e+000 6.604838e+000 6.654586e+000 9.246190e+000 5.844667e-001 1.938322e-001 1.821337e-001 4.191213e-001 6.180682e-001 6.108662e-001 7.366925e-001 8.818017e-001 7.486998e-001 1.030941e+000 8.638284e-001 7.076828e-001 9.901073e-001 9.340719e-002 5.172253e-002 2.934412e-002 9.595837e-002 1.196016e-001 1.134559e-001 1.129494e-001 1.475482e-001 1.511470e-001 2.057741e-001 1.495072e-001 1.269478e-001 1.934953e-001 2.327586e-002
<GCONST> 5.059648e+001
<STATE> 4
<MEAN> 39
 -1.979172e+001 4.218079e+000 1.123832e+000 5.238105e+000 4.635744e+000 6.280895e+000 6.607598e+000 6.450471e+000 6.806723e+000 6.142220e+000 6.088128e+000 4.822105e+000 5.685187e+001 5.072533e-003 -3.280927e-003 -2.637465e-003 -4.555008e-003 -1.771993e-003 -7.153524e-003 2.838559e-003 -1.487790e-002 -2.261873e-002 -9.065458e-003 -2.157435e-002 -3.000039e-002 8.296276e-003 3.388989e-002 -3.041625e-003 -7.961125e-003 -1.209449e-002 -9.889003e-003 -1.730370e-002 -1.046796e-002 -2.660920e-002 -1.777767e-002 -2.397815e-002 -8.801251e-003 -4.382535e-003 3.503390e-002
<VARIANCE> 39
 7.076837e-001 7.841678e-001 1.558443e+000 2.278160e+000 3.100852e+000 3.918828e+000 4.173241e+000 4.661219e+000 5.188342e+000 5.129667e+000 4.875475e+000 4.310958e+000 5.072046e-001 5.678491e-002 9.008567e-002 1.880157e-001 2.743650e-001 3.364004e-001 4.431958e-001 4.901979e-001 5.323084e-001 6.174007e-001 5.884885e-001 5.329978e-001 4.756891e-001 2.278261e-002 2.180179e-002 2.508188e-002 4.400393e-002 6.388929e-002 7.096347e-002 1.043175e-001 1.089990e-001 1.201969e-001 1.416891e-001 1.216136e-001 1.109027e-001 9.890576e-002 1.391882e-002
<GCONST> 3.034108e+001
<TRANSP> 5
 0.000000e+000 1.000000e+000 0.000000e+000 0.000000e+000 0.000000e+000
 0.000000e+000 7.142413e-001 2.857587e-001 0.000000e+000 0.000000e+000
 0.000000e+000 0.000000e+000 6.743130e-001 3.256870e-001 0.000000e+000
 0.000000e+000 0.000000e+000 0.000000e+000 9.434706e-001 5.652945e-002
 0.000000e+000 0.000000e+000 0.000000e+000 0.000000e+000 0.000000e+000
<ENDHMM>
~h "hh"
<BEGINHMM>
<NUMSTATES> 5
<STATE> 2
<MEAN> 39
 2.656225e+000 -1.169866e+000 -1.325998e+001 -3.343273e+000 -3.712276e+000 -1.004677e+001 3.853831e+000 1.047184e+001 -1.296159e-001 -2.524820e+000 1.448152e+000 -8.806452e-001 7.434049e+001 -6.076230e-001 7.342509e-001 6.434798e-001 8.086223e-001 1.079422e+000 6.647337e-001 -1.165317e+000 -5.483207e-001 1.471425e+000 1.153790e+000 -1.663157e+000 -1.377786e+000 -9.901917e-001 -3.060469e-001 1.304983e-001 4.011066e-001 4.477745e-001 3.693568e-001 4.661925e-001 1.430704e-001 -6.660073e-002 -2.486728e-001 -2.142564e-001 -2.650300e-002 -3.018887e-001 -1.921411e-001
<VARIANCE> 39
 1.699516e+000 4.860919e+000 9.380014e+000 2.621774e+001 4.372101e+001 1.272890e+001 2.167084e+001 1.404360e+001 1.053611e+001 7.043805e+000 1.595574e+001 1.477993e+001 3.375504e+000 3.036505e-001 2.914723e-001 3.850676e-001 1.121891e+000 4.311942e+000 7.018723e-001 1.911886e+000 8.613483e-001 2.123763e-001 1.173084e+000 5.786176e-001 6.349574e-001 4.718818e-002 1.771992e-002 1.441152e-001 1.591592e-001 7.311627e-002 2.466657e-001 1.494255e-001 3.944215e-001 1.429973e-001 7.503012e-002 3.726781e-001 1.712492e-001 1.478774e-001 3.996343e-002
<GCONST> 6.814534e+001
<STATE> 3
<MEAN> 39
 -1.760431e-003 -1.358544e+000 -9.731911e+000 5.081616e+000 2.425797e+000 -8.485066e+000 1.518793e+000 1.243918e+001 2.850214e+000 -3.407083e+000 -2.673842e+000 -9.143483e+000 7.192116e+001 -8.733807e-001 7.611989e-001 1.118921e+000 9.732609e-001 4.949338e-001 1.471690e+000 2.613359e-001 -5.637882e-001 3.079315e-001 2.139629e-001 -1.947905e-001 -1.247594e+000 -9.288548e-001 -1.248322e-001 2.619875e-001 2.401246e-001 -1.070559e-001 -1.435598e-001 2.837908e-001 1.113080e-001 -2.952466e-001 -2.397900e-001 -5.783761e-002 2.833457e-001 2.227932e-001 -1.281764e-001
<VARIANCE> 39
 2.195317e+000 5.276214e+000 7.807996e+000 8.202475e+001 5.076963e+000 7.020104e+000 4.673849e+000 2.185570e+001 3.910246e+000 1.642778e+001 2.613680e+000 2.671316e+001 1.752853e+000 1.923395e-001 1.693576e+000 1.234720e+000 9.874000e-001 2.829893e+000 1.019385e+000 5.160385e-001 1.203961e+000 1.688524e-001 5.642982e-001 1.780777e+000 1.629907e+000 6.627900e-001 9.440126e-002 9.501751e-002 1.928313e-001 2.644299e-001 5.030279e-001 3.132857e-001 1.072672e-001 9.341581e-002 5.723098e-002 1.390808e-001 1.990018e-001 2.146549e-001 8.771260e-002
<GCONST> 7.116084e+001
<STATE> 4
<MEAN> 39
 -3.885200e+000 2.921318e+000 -6.680316e+000 3.765689e+000 2.643787e+000 -7.824135e-001 3.274665e+000 7.190781e+000 2.391893e+000 -1.445502e+000 -2.746329e+000 -7.766953e+000 6.768736e+001 -1.548612e+000 1.477872e+000 1.945883e+000 7.272768e-001 8.122054e-001 1.910361e+000 1.638534e-001 -9.803967e-001 -1.912131e-001 2.298050e-001 -2.145538e-001 -4.913075e-001 -1.526195e+000 -1.983324e-001 -2.801579e-002 1.276634e-001 -9.271155e-003 6.266846e-002 1.348684e-002 1.303923e-001 8.783036e-002 -7.640941e-002 -5.846164e-002 9.712383e-002 2.695359e-001 -5.305187e-002
<VARIANCE> 39
 5.797603e+000 1.163127e+001 9.603603e+000 2.866159e+001 9.282745e+000 1.805656e+001 8.117516e+000 1.354625e+001 7.321985e+000 7.728760e+000 4.900623e+000 9.426585e+000 2.915172e+000 4.304534e-001 1.206561e+000 1.714836e+000 1.592598e+000 1.047101e+000 3.443531e+000 3.613940e-001 1.051142e+000 7.150576e-001 5.714434e-001 9.750996e-001 2.600916e+000 6.425486e-001 7.937781e-002 1.563378e-001 9.777690e-002 1.215397e-001 3.890657e-001 4.789575e-001 1.040248e-001 1.327356e-001 1.532025e-001 2.737614e-001 2.892982e-001 9.786928e-002 6.983370e-002
<GCONST> 7.634194e+001
<TRANSP> 5
 0.000000e+000 1.000000e+000 0.000000e+000 0.000000e+000 0.000000e+000
 0.000000e+000 6.773427e-001 3.226573e-001 0.000000e+000 0.000000e+000
 0.000000e+000 0.000000e+000 6.060940e-001 3.939060e-001 0.000000e+000
 0.000000e+000 0.000000e+000 0.000000e+000 7.000819e-001 2.999181e-001
 0.000000e+000 0.000000e+000 0.000000e+000 0.000000e+000 0.000000e+000
<ENDHMM>
~h "ih"
<BEGINHMM>
<NUMSTATES> 5
<STATE> 2
<MEAN> 39
 -1.242571e+001 5.455445e+000 1.238997e+000 5.143679e+000 2.769325e+000 -4.056089e-001 2.531724e+000 4.199342e+000 5.603996e+000 -2.885103e-002 1.214158e+000 -6.655743e-001 6.327244e+001 2.452678e+000 -8.450478e-001 -1.463793e+000 -1.190902e+000 -2.257835e+000 -3.113933e+000 -8.496188e-001 4.546086e-001 2.984006e-001 -1.389556e+000 -4.262185e-001 -4.566091e-002 2.410222e+000 1.057081e+000 -3.582744e-001 -7.985329e-001 -2.260378e-001 -5.007149e-001 -1.074604e+000 -3.891067e-001 4.612574e-001 2.821865e-001 -1.494963e-001 -3.338965e-001 -4.306362e-001 7.929153e-001
<VARIANCE> 39
 5.648942e+001 1.047042e+001 4.265138e+000 8.598505e+000 2.854396e+001 6.869166e+001 3.253735e+001 2.149179e+001 4.328746e+001 5.788740e+001 1.048893e+001 1.753167e+001 4.945024e+001 8.685281e+000 1.740180e+000 5.081711e+000 1.090750e+000 4.403050e+000 1.182477e+001 2.477934e+000 4.330658e+000 1.854376e+000 2.050692e+000 1.708177e+000 2.838168e+000 6.469798e+000 9.403442e-001 2.447534e-001 4.002222e-001 2.640586e-001 7.162834e-001 1.628989e+000 6.478021e-001 7.871379e-001 5.865612e-001 1.100735e+000 3.496549e-001 3.204983e-001 9.609181e-001
<GCONST> 1.213683e+002
<STATE> 3
<MEAN> 39
 2.663261e+000 1.572350e+000 -7.343961e+000 1.718366e+000 -4.530364e+000 -1.750929e+001 -4.140249e+000 1.146497e+001 6.250498e+000 -7.296717e+000 -2.251021e+000 -3.771528e+000 7.490907e+001 2.090463e+000 -1.247983e+000 -2.430932e+000 -7.320690e-001 -1.696280e+000 -2.013387e+000 1.242910e-001 1.474828e+000 1.035459e+000 -8.934574e-002 -3.333382e-001 -2.910241e-001 1.374321e+000 -9.206288e-001 1.840296e-001 3.680870e-001 2.919525e-001 7.070726e-001 1.258720e+000 5.285226e-001 -6.655123e-001 -3.596933e-001 4.341521e-001 2.408541e-001 2.926492e-001 -7.383686e-001
<VARIANCE> 39
 8.462710e+000 3.603809e+001 6.762445e+001 1.882483e+001 5.885155e+001 3.624357e+001 3.227359e+001 3.740472e+001 8.612041e+001 4.575569e+001 1.848317e+001 1.208306e+001 7.849765e+000 4.530523e+000 3.187779e+000 5.750981e+000 1.908260e+000 3.158998e+000 4.928251e+000 1.044867e+000 4.156613e+000 3.671738e+000 2.317084e+000 1.344043e+000 6.923746e-001 2.579222e+000 7.811600e-001 3.207906e-001 8.060738e-001 1.110986e-001 4.045412e-001 1.503767e+000 4.143708e-001 2.769131e-001 5.823390e-001 3.971095e-001 2.355094e-001 8.849136e-002 5.536567e-001
<GCONST> 1.149670e+002
<STATE> 4
<MEAN> 39
 3.167823e+000 -3.642381e+000 -1.458799e+001 -9.587410e-001 -9.736566e+000 -1.470083e+001 3.975707e+000 1.223408e+001 4.443666e+000 -2.450065e+000 -1.551411e-002 -1.177562e+000 7.546873e+001 -5.293026e-001 3.976135e-001 3.083957e-001 -2.822010e-001 1.917102e-001 7.459562e-001 4.386991e-001 -7.984954e-001 -5.288436e-001 3.379411e-001 2.190487e-002 7.204052e-001 -4.949721e-001 -3.487513e-001 2.688169e-001 4.347081e-001 1.252064e-001 1.812423e-001 1.464553e-001 -1.807634e-001 -2.128537e-001 -1.020678e-001 -8.115181e-002 7.579598e-002 1.408777e-001 -2.605720e-001
<VARIANCE> 39
 1.194441e+001 3.261658e+001 3.648501e+001 2.959771e+001 4.027203e+001 3.302518e+001 2.270185e+001 4.518373e+001 3.773239e+001 2.740801e+001 1.487299e+001 1.666927e+001 1.343392e+001 5.163011e-001 7.020493e-001 1.355827e+000 4.970739e-001 7.857754e-001 1.736102e+000 9.258847e-001 1.032850e+000 1.837949e+000 5.723107e-001 6.527329e-001 5.890343e-001 4.788668e-001 1.953834e-001 1.848295e-001 3.320238e-001 1.161206e-001 1.904105e-001 3.229027e-001 1.326762e-001 2.276167e-001 2.998317e-001 2.554194e-001 1.939007e-001 1.545112e-001 1.312073e-001
<GCONST> 9.004613e+001
<TRANSP> 5
 0.000000e+000 1.000000e+000 0.000000e+000 0.000000e+000 0.000000e+000
 0.000000e+000 6.621304e-001 3.378696e-001 0.000000e+000 0.000000e+000
 0.000000e+000 0.000000e+000 5.448851e-001 4.551149e-001 0.000000e+000
 0.000000e+000 0.000000e+000 0.000000e+000 7.791761e-001 2.208239e-001
 0.000000e+000 0.000000e+000 0.000000e+000 0.000000e+000 0.000000e+000
<ENDHMM>
~h "iy"
<BEGINHMM>
<NUMSTATES> 5
<STATE> 2
<MEAN> 39
 -5.071845e+000 5.104202e+000 2.440827e+000 1.278231e+001 1.195455e+001 -3.619825e+000 -8.156148e+000 -3.457887e+000 -6.979560e-001 -4.630416e+000 -3.837222e+000 -7.911177e+000 6.908656e+001 -7.810009e-002 -4.287205e-001 1.076046e-003 8.285499e-002 2.643735e-001 -5.434593e-001 1.167296e-001 -5.627747e-001 -1.188514e+000 -2.673531e-001 9.556288e-001 5.642691e-001 4.107561e-001 9.380725e-002 1.109671e-001 -2.158449e-001 -1.736660e-001 -3.061925e-001 -3.177966e-002 1.554657e-001 2.743508e-002 -3.389169e-001 -6.803172e-002 2.138535e-001 1.651334e-001 -1.300987e-002
<VARIANCE> 39
 4.649018e+000 7.462796e+001 2.196901e+001 5.305239e+001 3.057527e+001 4.312072e+001 4.160229e+001 1.705782e+001 2.609271e+001 1.901626e+001 2.999808e+001 2.622304e+001 2.839165e+001 1.566639e-001 3.000397e+000 7.895525e-001 3.046217e+000 1.376441e+000 5.257053e+000 2.416877e+000 4.396039e-001 1.486102e+000 2.192045e+000 1.773006e+000 1.021463e+000 1.369187e+000 3.230504e-002 5.365475e-001 1.394865e-001 6.244704e-001 2.585528e-001 9.183441e-001 6.013077e-001 1.001034e-001 3.858250e-001 1.196899e-001 2.748529e-001 2.255784e-001 2.397436e-001
<GCONST> 1.007807e+002
<STATE> 3
<MEAN> 39
 -2.661840e+000 -7.853663e-001 -1.942437e+000 1.291508e+001 9.883008e+000 -9.068659e+000 -5.563499e+000 -3.569354e+000 -9.773774e+000 -1.096326e+001 1.806360e+000 -3.178397e-001 7.348721e+001 6.149566e-001 -3.145042e-002 -9.076436e-001 -9.757798e-001 -1.347231e+000 -3.783345e-001 8.504212e-001 4.755568e-001 -8.519484e-001 -6.315099e-001 -6.723829e-002 7.928154e-001 2.236543e-001 9.143326e-002 -3.513753e-002 -9.305440e-002 -3.784940e-003 -1.601695e-002 -2.861194e-001 -3.402031e-001 2.682016e-001 5.954604e-001 4.394545e-003 -3.295606e-002 -3.184765e-002 5.288992e-002
<VARIANCE> 39
 3.026489e+000 8.246032e+000 1.026431e+001 4.683557e+001 3.473062e+001 2.455952e+001 2.560376e+001 4.509025e+001 2.893448e+001 4.739108e+001 4.308432e+001 9.796545e+000 3.115113e+000 3.803919e-001 2.090703e+000 1.014526e+000 2.987498e+000 1.537093e+000 6.700959e+000 3.237525e+000 2.490009e+000 3.354423e+000 1.241733e+000 3.682776e+000 9.644005e-001 1.094992e+000 6.040954e-002 3.149307e-001 1.818582e-001 5.490819e-001 1.708698e-001 1.460593e+000 5.218085e-001 6.840709e-001 2.897980e-001 3.699880e-001 6.561900e-001 2.280344e-001 2.185743e-001
<GCONST> 1.030215e+002
<STATE> 4
<MEAN> 39
 1.548832e+000 -3.996793e+000 -1.036610e+001 3.824788e+000 8.669870e-001 -1.431535e+001 -3.140056e+000 2.924718e+000 -4.448836e+000 -7.837750e+000 5.313621e+000 7.323820e+000 7.625430e+001 -3.346895e-002 6.126887e-002 -3.451108e-001 -5.906448e-001 -9.023495e-001 1.978702e-001 6.063475e-001 5.258182e-001 4.872016e-001 9.179904e-001 6.834620e-001 2.636333e-001 -2.807705e-001 -2.147419e-001 1.753648e-001 3.581850e-001 2.447060e-001 1.883325e-001 4.309881e-001 1.271034e-002 -1.604210e-001 -5.570714e-002 -4.104740e-002 -1.770878e-001 -2.855426e-001 -2.367826e-001
<VARIANCE> 39
 1.355650e+000 1.513854e+001 1.522538e+001 3.381339e+001 4.304622e+001 2.140683e+001 3.489261e+001 3.433633e+001 1.672998e+001 4.092954e+001 8.205182e+001 1.672939e+001 3.891212e+000 4.407199e-001 1.036915e+000 1.824126e+000 2.755127e+000 2.675257e+000 2.987770e+000 4.363830e+000 3.627315e+000 1.117640e+000 2.590288e+000 4.597580e+000 3.060676e+000 7.413669e-001 1.706339e-002 7.476114e-002 1.099935e-001 3.846106e-001 4.527424e-001 4.347413e-001 8.034775e-001 5.213794e-001 2.396533e-001 6.152805e-001 8.744336e-001 3.776438e-001 2.556385e-002
<GCONST> 1.000376e+002
<TRANSP> 5
 0.000000e+000 1.000000e+000 0.000000e+000 0.000000e+000 0.000000e+000
 0.000000e+000 7.781817e-001 2.218183e-001 0.000000e+000 0.000000e+000
 0.000000e+000 0.000000e+000 7.877740e-001 2.122260e-001 0.000000e+000
 0.000000e+000 0.000000e+000 0.000000e+000 8.740325e-001 1.259675e-001
 0.000000e+000 0.000000e+000 0.000000e+000 0.000000e+000 0.000000e+000
<ENDHMM>
~h "jh"
<BEGINHMM>
<NUMSTATES> 5
<STATE> 2
<MEAN> 39
 -2.416645e-001 1.190254e+000 -4.527363e+000 1.179328e+001 8.566977e+000 -6.426904e+000 -6.716939e+000 -2.434688e+000 -2.312044e+000 -2.090055e+000 -2.158438e+000 -5.639886e+000 7.163390e+001 2.325473e-001 -3.759748e-001 -3.372916e-001 -4.557852e-001 -2.651716e-001 -2.720244e-001 3.185534e-001 2.637147e-001 -5.377607e-001 -1.831565e-001 2.692267e-001 3.564155e-002 3.636519e-001 2.966434e-002 -1.825250e-002 -2.329788e-001 -4.412791e-001 -2.654806e-001 -6.569345e-002 4.473686e-001 2.853184e-001 -2.990164e-001 -1.722788e-001 2.635746e-001 2.727394e-001 9.652333e-002
<VARIANCE> 39
 7.076837e-001 4.188519e+000 2.539341e+000 5.632469e+000 4.746068e+001 4.640100e+000 3.774862e+001 2.934745e+001 1.971515e+001 2.997587e+001 2.192002e+001 5.644809e+000 1.275928e+000 3.556263e-001 4.585309e-001 8.588448e-001 7.415611e-001 1.740281e+000 1.368098e+000 1.050237e+000 2.123821e+000 6.479248e-001 5.210017e-001 2.836498e+000 2.213902e-001 2.525287e-001 3.654028e-002 5.302678e-002 1.178760e-001 1.409705e-001 2.668594e-001 2.282179e-001 1.461008e-001 1.266279e-001 9.971885e-002 1.310742e-001 3.772411e-001 1.790073e-001 4.977641e-002
<GCONST> 6.858524e+001
<STATE> 3
<MEAN> 39
 9.267536e-001 -9.808046e-001 -8.107430e+000 5.534168e+000 3.404663e+000 -8.689685e+000 -9.216212e-001 1.648150e-001 -7.184440e+000 -4.731684e+000 4.116481e+000 -3.268109e+000 7.473156e+001 8.496748e-001 -1.080864e+000 -2.315815e+000 -2.989120e+000 -2.584324e+000 -1.825397e+000 3.011100e+000 2.952166e+000 -1.690688e+000 -1.447371e-001 2.803983e+000 2.136645e+000 1.518553e+000 -8.870991e-002 -1.120878e-003 -2.664543e-002 -1.916227e-001 1.352432e-001 1.228475e-001 7.651798e-002 3.997568e-001 5.538176e-001 -1.348728e-001 -4.152707e-001 3.418881e-001 -2.801430e-002
<VARIANCE> 39
 1.602971e+000 1.636057e+001 7.576799e+000 6.983330e+000 8.453067e+001 2.055529e+001 3.141401e+001 3.444205e+001 1.564989e+001 3.249111e+001 1.307478e+002 2.042317e+001 9.774772e+000 4.175190e-001 1.118259e+000 3.833784e-001 3.013845e+000 2.557297e+000 1.036450e+000 2.693100e-001 3.284331e+000 3.748019e-001 8.385609e-001 3.174233e+000 4.694086e-001 2.190913e-001 8.792982e-002 1.503030e-001 2.954907e-001 4.023986e-001 4.787833e-001 7.932843e-001 1.816821e-001 7.064101e-001 1.416136e-001 1.218100e-001 1.381048e+000 3.463827e-001 1.724416e-001
<GCONST> 9.168655e+001
<STATE> 4
<MEAN> 39
 2.783864e+000 -3.937258e+000 -1.252068e+001 4.457363e-001 -5.742552e+000 -1.138524e+001 6.535513e+000 1.017698e+001 -9.781710e+000 -7.060556e+000 1.056869e+001 2.472619e+000 7.724491e+001 3.115561e-001 -3.106854e-001 -6.944242e-001 -1.167248e+000 -9.406487e-001 -1.486148e-001 1.402705e+000 1.452438e+000 3.617664e-001 -3.739856e-001 -3.695782e-001 5.361838e-001 1.713671e-001 -1.313283e-001 2.154331e-001 3.282771e-001 2.812052e-001 2.754704e-001 2.367176e-001 -4.087055e-001 -3.882082e-001 4.324804e-001 2.544492e-003 -4.330276e-001 -2.833946e-001 -2.471164e-001
<VARIANCE> 39
 1.663550e+000 1.206525e+001 4.506593e+000 2.918031e+001 3.797514e+001 1.641939e+001 1.544923e+001 1.854801e+001 1.154829e+001 1.597734e+001 3.001540e+001 7.240483e+000 1.100811e+000 1.246698e-001 6.169956e-001 9.674019e-001 2.281392e+000 6.103053e-001 1.230478e+000 1.005465e+000 3.120490e+000 8.323328e-001 8.989010e-001 1.862813e+000 2.270234e+000 5.971822e-001 3.769631e-002 1.011768e-001 6.550921e-002 2.550494e-001 1.804764e-001 3.178550e-001 1.553590e-001 3.393295e-001 3.453777e-001 1.987162e-001 4.840918e-001 1.347806e-001 4.574142e-002
<GCONST> 7.810867e+001
<TRANSP> 5
 0.000000e+000 1.000000e+000 0.000000e+000 0.000000e+000 0.000000e+000
 0.000000e+000 8.395510e-001 1.604491e-001 0.000000e+000 0.000000e+000
 0.000000e+000 0.000000e+000 4.155050e-001 5.844950e-001 0.000000e+000
 0.000000e+000 0.000000e+000 0.000000e+000 7.299955e-001 2.700045e-001
 0.000000e+000 0.000000e+000 0.000000e+000 0.000000e+000 0.000000e+000
<ENDHMM>
~h "ow"
<BEGINHMM>
<NUMSTATES> 5
<STATE> 2
<MEAN> 39
 1.353481e-001 1.836649e+000 -5.279919e+000 4.370689e+000 3.371063e+000 -9.749917e+000 -2.882088e+000 1.965678e-001 -2.288674e+000 -8.443659e+000 -4.972940e-001 7.890468e-001 7.472463e+001 1.943777e+000 -1.663435e+000 -2.974779e+000 -2.500978e+000 -2.941511e+000 -4.244667e+000 2.638682e+000 3.218697e+000 -9.948900e-001 -2.359311e+000 2.785488e+000 3.284285e+000 2.260918e+000 -1.726622e-001 4.027397e-001 1.349067e-001 2.502784e-002 -3.457768e-001 -1.215263e-001 1.006002e-001 9.318973e-001 5.571574e-001 4.837425e-001 -1.390620e-002 -4.673332e-001 -4.888322e-001
<VARIANCE> 39
 7.681211e+000 1.728411e+001 3.926423e+001 1.947088e+001 5.702151e+001 3.622685e+001 4.139312e+001 3.813909e+001 3.915271e+001 2.612829e+001 4.058287e+001 3.953075e+001 1.058697e+001 6.201545e-001 9.131730e-001 6.700632e-001 3.271934e-001 7.535291e-001 2.480777e+000 5.760576e-001 5.693370e+000 4.329226e+000 3.693670e+000 2.954236e+000 3.367476e+000 6.857291e-001 1.891289e-001 1.611714e-001 3.969755e-001 1.352502e-001 2.873532e-001 7.593271e-001 4.660152e-001 6.074855e-001 6.889080e-001 6.550981e-001 9.054136e-001 1.283919e+000 3.461975e-001
<GCONST> 1.083871e+002
<STATE> 3
<MEAN> 39
 3.842098e+000 1.919812e-001 -1.161595e+001 -5.518522e-001 -3.803974e+000 -1.876627e+001 2.738798e+000 1.121553e+001 -1.413299e+000 -1.242882e+001 4.304492e+000 4.345959e+000 7.798719e+001 8.375832e-001 9.632757e-002 -8.729001e-001 -1.213902e+000 -2.279795e+000 -1.665695e+000 3.847438e-001 2.626558e+000 1.357708e+000 9.167160e-001 3.441064e-001 -9.148157e-001 2.825207e-001 -4.165944e-001 3.676893e-001 7.655510e-001 5.441979e-001 5.127110e-001 8.559124e-001 -1.052282e+000 -6.259859e-001 3.112864e-001 1.041393e+000 -6.816367e-001 -9.108518e-001 -5.187557e-001
<VARIANCE> 39
 1.240170e+000 1.127314e+001 4.766519e+000 1.923023e+001 3.161640e+001 1.194302e+001 1.035439e+001 5.184222e+000 3.923154e+001 1.281040e+001 2.840646e+001 2.108557e+001 1.166719e+000 3.072375e-001 2.194430e-001 1.548717e+000 3.837514e-001 1.052073e+000 1.099390e+000 3.588645e+000 1.207867e+000 1.399410e+000 2.201351e+000 1.139032e+000 3.849781e+000 1.894490e-001 5.010733e-002 1.272074e-001 1.411929e-001 2.103317e-002 4.375089e-002 4.181459e-001 1.195280e-001 4.167934e-001 3.829068e-001 2.604780e-001 1.920469e-001 6.051441e-001 5.132721e-002
<GCONST> 7.555128e+001
<STATE> 4
<MEAN> 39
 4.035411e+000 1.318655e+000 -7.222306e+000 1.525920e+000 -1.163742e+001 -2.538186e+001 -3.968584e+000 1.829670e+001 1.572781e+000 -5.287023e+000 3.954804e+000 -4.609372e-001 7.570182e+001 -1.773315e-001 3.567906e-001 4.375159e-001 2.100020e-001 -3.569907e-001 -3.157625e-001 -4.573487e-001 6.112632e-002 2.883839e-001 4.107457e-001 -3.160287e-001 -1.227964e-001 -4.535993e-001 -1.126006e-001 1.137194e-001 1.015912e-001 5.125768e-003 1.189785e-001 2.280879e-001 7.036536e-002 -2.810978e-001 -9.138479e-002 -7.864321e-002 -7.012673e-003 6.791204e-002 -8.716393e-002
<VARIANCE> 39
 2.195581e+000 7.271932e+000 1.932835e+001 3.021469e+001 1.921732e+001 2.810853e+001 2.862382e+001 1.358893e+001 2.153974e+001 1.548638e+001 1.616111e+001 7.538082e+000 3.642469e+000 1.269355e-001 5.883135e-001 5.072394e-001 4.554511e-001 7.156924e-001 1.294904e+000 1.345345e+000 1.513093e+000 4.108766e-001 1.968309e+000 6.591676e-001 9.111983e-001 1.526577e-001 1.365513e-002 4.039266e-002 8.649337e-002 8.457516e-002 3.752266e-002 9.208456e-002 1.896868e-001 9.157901e-002 9.139498e-002 1.944553e-001 1.289491e-001 2.012086e-001 1.028547e-002
<GCONST> 6.455112e+001
<TRANSP> 5
 0.000000e+000 1.000000e+000 0.000000e+000 0.000000e+000 0.000000e+000
 0.000000e+000 5.998088e-001 4.001912e-001 0.000000e+000 0.000000e+000
 0.000000e+000 0.000000e+000 5.950288e-001 4.049712e-001 0.000000e+000
 0.000000e+000 0.000000e+000 0.000000e+000 9.201886e-001 7.981134e-002
 0.000000e+000 0.000000e+000 0.000000e+000 0.000000e+000 0.000000e+000
<ENDHMM>
~h "sp"
<BEGINHMM>
<NUMSTATES> 5
<STATE> 2
~s "silst"
<STATE> 3
<MEAN> 39
 -1.964306e+001 4.224531e+000 8.408689e-001 5.011397e+000 4.830282e+000 6.145368e+000 6.951197e+000 5.701727e+000 7.139583e+000 6.492245e+000 6.088840e+000 4.595460e+000 5.697247e+001 7.005399e-002 1.435955e-002 -4.096438e-002 1.542572e-002 1.671951e-001 -5.184814e-002 4.222780e-002 -3.463269e-001 1.080244e-001 2.509844e-001 -1.066804e-003 -2.354688e-001 1.344163e-001 1.885074e-001 6.464083e-002 1.232786e-001 2.175877e-001 1.006203e-001 -1.637856e-001 -2.263905e-001 -1.897713e-001 -6.565386e-002 -1.111422e-001 -9.408046e-002 -1.460114e-001 1.355348e-001
<VARIANCE> 39
 8.668804e-001 6.341488e-001 1.698632e+000 1.670048e+000 4.095193e+000 2.206604e+000 5.399984e+000 3.170172e+000 2.787025e+000 2.890908e+000 2.706706e+000 1.098804e+001 5.072046e-001 8.429394e-002 4.088638e-002 2.944607e-001 1.385868e-001 3.810153e-001 3.971437e-001 8.857811e-001 6.251662e-001 7.829741e-001 1.761740e-001 1.450198e-001 7.708607e-001 3.984425e-002 6.097297e-002 5.488580e-002 7.648270e-002 1.005089e-001 9.515212e-002 5.673302e-002 1.579979e-001 5.928010e-002 2.826039e-001 1.390732e-001 1.045248e-001 2.637374e-001 2.455134e-002
<GCONST> 3.222480e+001
<STATE> 4
<MEAN> 39
 -1.940997e+001 3.980444e+000 4.782157e-001 5.108464e+000 5.562786e+000 6.758839e+000 6.709618e+000 5.916574e+000 7.358741e+000 6.002768e+000 4.768368e+000 4.367640e+000 5.716114e+001 5.397835e-001 4.663450e-001 6.939513e-001 7.810873e-001 4.558973e-001 -2.950864e-001 -1.063655e-001 -3.582588e-001 -4.287421e-001 -5.916183e-001 -5.616258e-001 -8.126934e-001 3.585946e-001 5.553335e-001 2.129520e-001 1.911585e-001 2.348495e-001 9.144524e-002 -2.686606e-001 -6.246361e-001 -1.770521e-001 -3.073181e-001 -3.221233e-001 -3.631773e-001 -4.553587e-001 3.755611e-001
<VARIANCE> 39
 9.508356e-001 4.636592e-001 1.434718e+000 1.017674e+000 6.000767e+000 2.754389e+000 6.412381e+000 9.354379e+000 5.493351e+000 1.907320e+000 5.904084e+000 5.605838e+000 5.164707e-001 5.704700e-001 8.001292e-001 5.652442e-001 8.323393e-001 5.905924e-001 4.611663e-001 9.164029e-001 8.538651e-001 1.650503e+000 1.201900e+000 1.274343e+000 1.033629e+000 2.637984e-001 2.526819e-001 1.103596e-001 4.974440e-002 7.101256e-002 9.543594e-002 1.704172e-001 2.933607e-001 5.286443e-002 3.650955e-001 1.809251e-001 2.591859e-001 3.389618e-001 1.262090e-001
<GCONST> 5.513779e+001
<TRANSP> 5
 0.000000e+000 7.000000e-001 3.000000e-001 0.000000e+000 0.000000e+000
 0.000000e+000 7.581326e-001 2.418675e-001 0.000000e+000 0.000000e+000
 0.000000e+000 0.000000e+000 5.583163e-001 4.416837e-001 0.000000e+000
 0.000000e+000 0.000000e+000 0.000000e+000 1.134596e-001 8.865404e-001
 0.000000e+000 0.000000e+000 0.000000e+000 0.000000e+000 0.000000e+000
<ENDHMM>
~h "uh"
<BEGINHMM>
<NUMSTATES> 5
<STATE> 2
<MEAN> 39
 -3.821702e+000 -2.011783e+000 -7.919104e+000 2.180436e+000 7.636684e-001 -8.178974e+000 3.829736e+000 2.377566e+000 -2.384194e+000 -3.513707e+000 4.714738e+000 3.802536e+000 7.278714e+001 3.060203e+000 -8.469056e-001 -1.660271e+000 6.803403e-001 -4.196922e-001 -2.232292e+000 -5.576828e-001 -2.785034e-001 -1.814020e+000 -2.392131e+000 -8.394203e-001 -5.691069e-001 2.284548e+000 -3.759519e-001 3.368900e-001 4.913137e-001 1.538311e-002 1.177403e-002 2.844511e-001 -2.792870e-001 1.574013e-001 2.957925e-001 2.431067e-001 -1.620025e-001 -4.409425e-001 -4.127596e-001
<VARIANCE> 39
 4.768605e+001 2.657003e+001 3.646513e+001 4.132062e+001 5.972613e+001 3.817404e+001 5.230675e+001 5.488380e+001 3.977801e+001 3.878204e+001 2.340652e+001 1.350540e+001 2.592076e+001 4.478915e+000 1.904578e+000 4.485986e+000 3.240064e+000 3.323371e+000 4.454401e+000 2.941892e+000 6.897759e+000 8.031691e+000 6.770256e+000 2.524324e+000 2.164306e+000 3.117505e+000 1.010371e+000 1.058291e+000 4.676573e-001 5.504155e-001 4.424953e-001 1.279282e+000 6.594644e-001 9.398444e-001 8.740649e-001 9.426662e-001 6.414871e-001 3.228989e-001 5.033177e-001
<GCONST> 1.307503e+002
<STATE> 3
<MEAN> 39
 1.282227e+000 -1.886542e+000 -1.005656e+001 2.190866e+000 7.758431e-001 -9.294269e+000 1.334907e+000 2.459513e+000 -3.334360e+000 -6.393402e+000 1.743977e+000 1.766333e+000 7.528503e+001 1.192493e+000 -7.276684e-004 -4.504669e-001 4.878369e-001 -3.664654e-001 -4.959827e-001 -5.390362e-001 1.060255e-001 1.967296e-001 -1.325308e-001 -8.778850e-001 -1.207508e+000 4.210057e-001 -7.955130e-001 3.945186e-001 6.186042e-001 -1.884537e-002 1.356108e-001 3.754515e-001 -1.337698e-001 1.656736e-002 5.571094e-001 6.885939e-001 1.058310e-001 -2.042316e-001 -6.264636e-001
<VARIANCE> 39
 1.640098e+001 2.763192e+001 3.874408e+001 4.411708e+001 8.998473e+001 3.079322e+001 5.337242e+001 8.486598e+001 3.627228e+001 2.016335e+001 2.379529e+001 1.704357e+001 1.613782e+001 2.285662e+000 4.534421e+000 4.024521e+000 1.703493e+000 1.644776e+000 5.487344e+000 2.421115e+000 2.230166e+000 3.979618e+000 5.675135e+000 4.782732e+000 4.145529e+000 1.469826e+000 6.713541e-001 3.830631e-001 5.509920e-001 2.365593e-001 5.698037e-001 9.659393e-001 2.565909e-001 1.238453e+000 7.356523e-001 5.150853e-001 4.497654e-001 4.236539e-001 2.528615e-001
<GCONST> 1.224609e+002
<STATE> 4
<MEAN> 39
 2.709536e+000 -2.260192e+000 -1.102708e+001 2.594967e+000 -1.120992e+000 -1.212143e+001 6.407109e-001 2.149109e+000 -4.310560e+000 -6.206851e+000 2.068724e+000 1.057979e+000 7.613345e+001 7.212330e-002 8.241808e-001 3.195965e-001 2.114478e-001 -9.013151e-002 -3.690932e-001 -6.659718e-001 6.049123e-002 1.481054e-002 -2.477680e-001 -4.737918e-001 -5.397937e-001 -3.749489e-001 -6.491563e-001 4.598214e-001 5.411990e-001 -1.574819e-001 8.925476e-002 4.272579e-001 -7.313790e-003 -8.190744e-003 1.887636e-001 3.245578e-001 1.508983e-002 1.413228e-002 -5.614685e-001
<VARIANCE> 39
 9.165125e+000 2.038677e+001 3.386564e+001 3.745778e+001 8.601652e+001 2.113712e+001 5.656192e+001 6.802753e+001 6.511536e+001 3.200363e+001 2.051371e+001 1.930690e+001 1.180258e+001 1.133296e+000 1.966898e+000 1.806304e+000 5.737283e-001 1.413751e+000 2.624390e+000 1.091420e+000 2.113868e+000 1.937029e+000 2.185797e+000 2.650327e+000 1.982101e+000 6.569791e-001 3.465807e-001 3.286349e-001 3.947697e-001 1.895996e-001 2.873835e-001 4.163129e-001 2.666925e-001 4.338048e-001 5.903414e-001 6.709380e-001 2.218485e-001 3.035819e-001 2.425855e-001
<GCONST> 1.074869e+002
<TRANSP> 5
 0.000000e+000 1.000000e+000 0.000000e+000 0.000000e+000 0.000000e+000
 0.000000e+000 2.756803e-001 7.243196e-001 0.000000e+000 0.000000e+000
 0.000000e+000 0.000000e+000 1.932046e-001 8.067954e-001 0.000000e+000
 0.000000e+000 0.000000e+000 0.000000e+000 5.178703e-001 4.821297e-001
 0.000000e+000 0.000000e+000 0.000000e+000 0.000000e+000 0.000000e+000
<ENDHMM>
~h "sil"
<BEGINHMM>
<NUMSTATES> 5
<STATE> 2
<MEAN> 39
 -1.919619e+001 4.596065e+000 1.386963e+000 5.889059e+000 5.086444e+000 6.099850e+000 5.896128e+000 6.918447e+000 6.987195e+000 5.907678e+000 6.289860e+000 5.571024e+000 5.710415e+001 -2.811363e-001 -2.545171e-001 -1.429213e-001 -9.764703e-002 4.695825e-003 1.197971e-001 1.732073e-001 2.436670e-001 2.034356e-001 2.768507e-001 2.657644e-001 2.750683e-001 -1.350973e-001 7.769068e-002 5.512093e-002 -1.972050e-002 -4.671850e-002 -8.656053e-002 -1.308914e-002 5.063368e-002 -7.540547e-002 -6.538844e-002 -1.156878e-001 -1.558536e-001 -1.300347e-001 4.581012e-002
<VARIANCE> 39
 2.155965e+000 2.963579e+000 3.319694e+000 3.650814e+000 3.200100e+000 3.941262e+000 3.967875e+000 3.997742e+000 5.425171e+000 7.808311e+000 5.480562e+000 5.367104e+000 5.072046e-001 1.738742e-001 2.218644e-001 3.107596e-001 3.242000e-001 4.274176e-001 2.946123e-001 4.539192e-001 5.417691e-001 8.788075e-001 1.221746e+000 8.421454e-001 4.419132e-001 4.168738e-002 7.793051e-003 9.321841e-003 3.559905e-002 5.152804e-002 8.705752e-002 7.775477e-002 8.750427e-002 9.200976e-002 7.957576e-002 1.494444e-001 1.265546e-001 8.599798e-002 4.252464e-003
<GCONST> 3.459328e+001
<STATE> 3
~s "silst"
<STATE> 4
<MEAN> 39
 -1.940997e+001 3.980444e+000 4.782157e-001 5.108464e+000 5.562786e+000 6.758839e+000 6.709618e+000 5.916574e+000 7.358741e+000 6.002768e+000 4.768368e+000 4.367640e+000 5.716114e+001 5.397835e-001 4.663450e-001 6.939513e-001 7.810873e-001 4.558973e-001 -2.950864e-001 -1.063655e-001 -3.582588e-001 -4.287421e-001 -5.916183e-001 -5.616258e-001 -8.126934e-001 3.585946e-001 5.553335e-001 2.129520e-001 1.911585e-001 2.348495e-001 9.144524e-002 -2.686606e-001 -6.246361e-001 -1.770521e-001 -3.073181e-001 -3.221233e-001 -3.631773e-001 -4.553587e-001 3.755611e-001
<VARIANCE> 39
 9.508356e-001 4.636592e-001 1.434718e+000 1.017674e+000 6.000767e+000 2.754389e+000 6.412381e+000 9.354379e+000 5.493351e+000 1.907320e+000 5.904084e+000 5.605838e+000 5.164707e-001 5.704700e-001 8.001292e-001 5.652442e-001 8.323393e-001 5.905924e-001 4.611663e-001 9.164029e-001 8.538651e-001 1.650503e+000 1.201900e+000 1.274343e+000 1.033629e+000 2.637984e-001 2.526819e-001 1.103596e-001 4.974440e-002 7.101256e-002 9.543594e-002 1.704172e-001 2.933607e-001 5.286443e-002 3.650955e-001 1.809251e-001 2.591859e-001 3.389618e-001 1.262090e-001
<GCONST> 5.513779e+001
<TRANSP> 5
 0.000000e+000 1.000000e+000 0.000000e+000 0.000000e+000 0.000000e+000
 0.000000e+000 6.065060e-001 1.934940e-001 2.000000e-001 0.000000e+000
 0.000000e+000 0.000000e+000 5.583163e-001 4.416837e-001 0.000000e+000
 0.000000e+000 2.000000e-001 0.000000e+000 9.076768e-002 7.092323e-001
 0.000000e+000 0.000000e+000 0.000000e+000 0.000000e+000 0.000000e+000
<ENDHMM>
