~o
<STREAMINFO> 1 39
<VECSIZE> 39<NULLD><MFCC_D_A_0><DIAGC>
~s "silst"
<MEAN> 39
 -1.966142e+001 4.104001e+000 8.072837e-001 5.380516e+000 4.510739e+000 6.190928e+000 6.439415e+000 6.669485e+000 6.900822e+000 5.785800e+000 6.398080e+000 5.552105e+000 5.695630e+001 5.783620e-002 -6.696877e-002 -2.038464e-001 -1.455361e-001 -1.140032e-001 1.348334e-001 6.542253e-002 -1.192721e-001 1.635700e-004 4.375157e-002 -1.108714e-001 8.722067e-003 4.458679e-002 6.961273e-002 4.137338e-002 4.371395e-003 -4.917517e-003 2.498759e-002 -6.699362e-002 -1.419974e-002 -7.689102e-002 7.306124e-002 -3.007278e-004 -1.087685e-001 -6.922972e-002 4.275351e-002
<VARIANCE> 39
 7.076837e-001 9.606908e-001 1.431922e+000 1.592387e+000 2.054614e+000 3.275824e+000 4.581542e+000 2.367662e+000 2.588544e+000 3.875091e+000 3.858992e+000 1.035922e+001 5.072046e-001 7.188208e-002 8.093725e-002 1.833017e-001 2.204020e-001 2.592940e-001 2.706540e-001 8.210728e-001 4.823989e-001 3.330778e-001 3.693555e-001 4.238142e-001 8.489385e-001 2.754974e-002 8.117131e-003 1.572006e-002 3.926883e-002 4.456399e-002 6.688141e-002 5.819964e-002 1.266495e-001 6.306068e-002 5.824576e-002 9.923754e-002 1.014996e-001 1.549028e-001 4.183153e-003
<GCONST> 2.259725e+001
~h "b"
<BEGINHMM>
<NUMSTATES> 5
<STATE> 2
<MEAN> 39
 -2.295021e+001 -5.982606e+000 1.171399e+001 -2.526222e+000 1.361869e+000 -8.704055e-001 1.326459e+001 -1.769432e+000 -1.133917e+000 9.740343e+000 8.966661e+000 -8.706418e-001 6.930201e+001 1.602293e+000 6.137539e-001 -6.748419e-001 3.878527e-001 7.874414e-002 -8.113919e-001 -7.482388e-001 -1.795117e-001 -1.327100e+000 -6.955034e-001 -7.812513e-001 9.273784e-002 4.073561e-001 5.088714e-001 4.408906e-001 -4.821347e-001 3.297804e-001 2.403562e-001 4.882002e-002 -5.611353e-001 1.218013e-001 2.931514e-002 -3.211192e-001 -3.707436e-001 7.508097e-002 -2.377491e-001
<VARIANCE> 39
 8.295823e+001 1.811737e+001 6.196303e+001 2.984984e+001 2.070854e+001 2.135031e+001 5.192015e+001 2.233419e+001 3.972953e+001 6.777166e+001 2.701960e+001 9.204667e+000 1.147208e+001 1.026225e+001 3.316279e+000 5.305469e+000 4.680236e+000 2.659742e+000 1.262641e+000 6.701760e+000 2.228372e+000 2.801769e+000 6.163525e+000 3.909068e+000 8.406219e-001 5.218087e-001 9.413723e-001 4.136628e-001 4.350962e-001 5.242705e-001 8.778560e-001 5.524175e-001 4.962749e-001 5.928983e-001 7.141179e-001 1.165269e+000 5.131617e-001 1.755832e-001 2.284411e-001
<GCONST> 1.211244e+002
<STATE> 3
<MEAN> 39
 -1.145092e+000 2.698124e+000 -4.104291e+000 5.386348e+000 4.692556e+000 -9.630841e+000 -2.672697e+000 9.556329e-001 -7.830484e+000 -4.331295e+000 1.664593e+000 1.085681e+000 7.224787e+001 1.715028e+000 1.187331e+000 -1.699209e+000 1.142875e+000 2.723603e+000 1.571833e-001 -3.455710e+000 2.335307e-001 2.125534e+000 -1.439083e+000 -2.642374e+000 -1.033002e+000 5.545320e-002 -1.592346e+000 -2.112823e-001 1.082574e+000 -4.086051e-001 1.575701e-001 1.304533e+000 8.308663e-001 -3.861725e-001 1.266057e+000 1.298052e+000 -1.546120e-001 -6.229797e-001 -5.617529e-001
<VARIANCE> 39
 8.526124e+000 8.829449e+000 4.403079e+001 5.267349e+001 5.139627e+000 8.166407e+000 3.142162e+001 1.998556e+001 5.834556e+001 1.624928e+001 2.357655e+001 6.119509e+000 9.973027e+000 4.204986e+000 9.788836e-001 2.215862e+000 9.583351e-001 1.619524e+000 3.934833e+000 5.690938e+000 1.531659e+000 6.388120e+000 2.933084e+000 2.022504e+000 2.431993e+000 3.621693e-001 3.294206e-001 4.776670e-001 1.879825e-001 3.955634e-001 2.662301e-001 1.824800e-001 6.042963e-001 4.008444e-001 1.327007e+000 2.694511e-001 8.167427e-001 2.669753e-001 8.113196e-002
<GCONST> 1.037925e+002
<STATE> 4
<MEAN> 39
 -2.150486e+000 3.623577e+000 -1.936547e+000 1.021883e+001 1.444532e+001 -3.493169e+000 -1.062151e+001 -4.668445e+000 3.591783e+000 -3.660429e+000 -5.587668e+000 -6.920096e+000 7.074908e+001 -2.819960e-001 -3.334401e-001 6.016713e-001 9.329768e-001 7.864954e-001 2.941875e-001 -4.178616e-001 -4.884152e-001 6.882982e-001 -2.022230e-001 -5.011164e-001 -3.012601e-001 3.149687e-002 -1.339454e-001 -1.532920e-001 1.246449e-001 -8.085525e-002 -2.583734e-001 -8.254389e-002 3.697462e-001 -8.052272e-002 -4.487984e-001 7.168852e-002 3.553043e-001 2.225752e-001 2.936153e-002
<VARIANCE> 39
 4.612824e+000 4.393904e+001 2.081002e+001 5.027493e+001 2.699891e+001 2.085000e+001 4.279575e+001 2.716129e+001 1.591558e+001 4.295921e+001 1.789174e+001 1.545429e+001 1.787632e+001 4.242979e-001 5.201923e+000 7.891800e-001 3.356199e+000 3.053296e+000 4.108639e+000 4.022542e+000 1.018044e+000 2.666568e+000 6.055627e+000 4.291496e+000 3.233623e+000 1.836869e+000 1.691445e-001 1.132128e+000 2.990947e-001 8.960727e-001 7.830376e-001 9.965674e-001 1.266170e+000 2.381513e-001 7.781345e-001 1.319524e+000 7.776154e-001 2.799146e-001 4.242028e-001
<GCONST> 1.173190e+002
<TRANSP> 5
 0.000000e+000 1.000000e+000 0.000000e+000 0.000000e+000 0.000000e+000
 0.000000e+000 8.144488e-001 1.855512e-001 0.000000e+000 0.000000e+000
 0.000000e+000 0.000000e+000 4.331330e-001 5.668670e-001 0.000000e+000
 0.000000e+000 0.000000e+000 0.000000e+000 8.032067e-001 1.967932e-001
 0.000000e+000 0.000000e+000 0.000000e+000 0.000000e+000 0.000000e+000
<ENDHMM>
~h "d"
<BEGINHMM>
<NUMSTATES> 5
<STATE> 2
<MEAN> 39
 -2.906584e+000 4.594221e+000 -6.858813e+000 -3.367881e-001 -2.120764e+000 -7.082561e+000 3.910482e+000 2.681720e+000 6.663026e-001 -3.296159e+000 -1.627885e+000 1.540962e-001 6.976897e+001 -3.727021e+000 2.692813e+000 2.885163e+000 -3.618596e-001 7.113765e-001 2.997807e+000 1.652053e-001 1.466493e-001 1.128971e+000 1.251309e+000 1.904810e-001 -6.303756e-002 -3.563568e+000 -2.428090e-001 -4.945647e-001 -2.267677e-001 -1.277659e-001 -2.304543e-001 1.724585e-001 1.543629e-001 4.484587e-001 5.565965e-001 6.696519e-001 5.437729e-001 3.726926e-001 -1.277566e-001
<VARIANCE> 39
 4.072547e+001 2.503228e+001 2.925700e+001 1.867588e+001 3.214988e+001 6.600206e+001 9.332272e+000 1.850058e+001 3.483098e+001 2.168528e+001 1.472476e+001 4.129808e+001 3.061334e+001 1.560750e+000 1.237628e+000 3.946305e-001 1.480668e+000 1.438057e+000 7.519566e-001 9.338478e-001 1.842616e+000 3.409860e+000 2.770499e+000 1.839206e+000 1.217704e+000 1.301976e+000 6.280313e-001 3.428259e-001 2.989714e-001 1.923649e-001 1.257529e-001 6.153738e-001 1.668329e-001 1.276973e-001 3.913044e-001 3.641283e-001 1.716618e-001 1.294638e-001 4.145567e-001
<GCONST> 1.008008e+002
<STATE> 3
<MEAN> 39
 -1.207587e+001 8.063571e+000 1.014756e-001 2.051596e+000 1.149077e+000 2.796501e+000 4.097508e+000 4.541763e+000 4.748193e+000 1.706900e+000 1.028116e+000 -9.535583e-001 6.101989e+001 -1.572682e+000 -2.083669e-001 6.996537e-001 6.564911e-001 5.434419e-001 1.080001e+000 1.533430e-001 2.252401e-001 5.694983e-001 9.652582e-001 1.067401e+000 9.064746e-001 -1.150093e+000 3.319086e-001 -3.948962e-001 -3.821256e-001 3.252158e-002 -1.074103e-002 -3.969561e-001 5.692162e-002 1.564890e-002 -1.303098e-001 -1.120440e-001 3.471578e-002 1.594729e-001 3.971839e-001
<VARIANCE> 39
 9.178539e+000 8.795393e+000 1.696863e+001 3.369588e+001 3.710820e+001 2.183636e+001 3.485262e+000 5.076746e+000 1.448424e+001 1.797231e+001 2.890191e+001 5.919227e+001 3.520427e+000 9.601462e-001 5.404621e-001 7.705380e-001 1.030327e+000 7.842335e-001 1.292601e+000 4.891514e-001 7.047256e-001 9.550515e-001 1.925023e+000 9.572590e-001 1.096789e+000 7.045550e-001 2.253396e-001 1.501008e-001 1.457937e-001 2.317313e-001 2.449571e-001 2.027582e-001 7.922789e-002 1.695393e-001 2.153361e-001 3.227342e-001 2.252889e-001 2.265753e-001 1.709482e-001
<GCONST> 8.312732e+001
<STATE> 4
<MEAN> 39
 -1.920359e+001 4.398916e+000 6.184402e-001 5.632087e+000 4.163415e+000 5.668800e+000 5.987573e+000 5.604096e+000 7.137996e+000 5.798628e+000 6.172965e+000 4.898906e+000 5.772561e+001 -1.396520e-001 -3.986497e-001 -9.346451e-002 1.269443e-001 4.696859e-002 -7.137603e-002 6.075064e-002 -1.187618e-001 -2.164394e-003 7.908027e-002 2.420495e-001 1.956687e-001 9.894604e-002 2.136370e-001 -1.279684e-002 -4.567205e-002 1.317745e-002 -2.178258e-002 -1.723156e-001 -5.680149e-002 -8.817787e-002 -1.723412e-001 -2.199486e-001 -9.740610e-002 -1.033140e-001 1.858567e-001
<VARIANCE> 39
 3.276924e+000 8.711349e+000 1.276919e+001 6.663106e+000 1.159158e+001 6.353989e+000 6.011386e+000 1.146893e+001 7.976424e+000 6.104117e+000 7.906037e+000 8.561589e+000 4.131335e+000 6.826587e-001 1.633872e+000 2.091922e+000 7.343702e-001 1.051105e+000 8.572204e-001 7.502385e-001 1.628265e+000 1.383261e+000 1.048124e+000 7.754866e-001 1.343567e+000 1.256983e+000 1.829426e-001 3.050973e-001 4.202584e-001 9.640689e-002 1.926225e-001 2.165260e-001 1.319202e-001 3.585198e-001 3.308610e-001 3.407054e-001 1.964365e-001 1.974446e-001 2.838918e-001
<GCONST> 7.978784e+001
<TRANSP> 5
 0.000000e+000 1.000000e+000 0.000000e+000 0.000000e+000 0.000000e+000
 0.000000e+000 4.875343e-001 5.124658e-001 0.000000e+000 0.000000e+000
 0.000000e+000 0.000000e+000 7.855824e-001 2.144176e-001 0.000000e+000
 0.000000e+000 0.000000e+000 0.000000e+000 8.957469e-001 1.042531e-001
 0.000000e+000 0.000000e+000 0.000000e+000 0.000000e+000 0.000000e+000
<ENDHMM>
~h "g"
<BEGINHMM>
<NUMSTATES> 5
<STATE> 2
<MEAN> 39
 2.709453e+000 7.759188e-001 -5.618070e+000 2.369613e+000 -8.222337e+000 -2.027055e+001 -4.323422e+000 1.341224e+001 5.862767e-001 -1.033110e+001 2.108351e-001 -2.979043e+000 7.582115e+001 1.178237e-001 -7.686315e-001 -8.718278e-001 -1.696732e-001 -4.397125e-001 -1.470704e-001 3.317373e-001 1.968688e-001 4.192042e-002 3.350173e-001 4.564877e-001 8.077371e-001 1.787483e-001 -5.692402e-002 1.469640e-002 2.534448e-002 1.387189e-002 9.719285e-002 1.807364e-001 6.455883e-002 -8.829189e-002 -6.887773e-002 4.704807e-002 4.606552e-002 1.156741e-002 -6.292299e-002
<VARIANCE> 39
 1.773208e+000 4.326825e+001 2.819602e+001 9.599497e+000 4.138901e+001 2.943282e+001 4.294418e+001 3.524208e+001 1.851937e+001 3.530337e+001 1.698186e+001 2.156077e+001 6.940978e+000 1.474494e-001 6.252839e-001 4.515291e-001 3.579005e-001 3.303391e-001 8.353500e-001 1.077675e+000 5.858132e-001 8.411027e-001 9.516776e-001 6.355410e-001 1.511920e+000 3.153524e-001 2.146897e-002 1.133210e-001 9.036689e-002 7.402907e-002 5.544784e-002 9.605122e-002 1.225009e-001 9.370967e-002 1.333371e-001 1.760378e-001 1.130959e-001 1.657203e-001 3.185934e-002
<GCONST> 7.109483e+001
<STATE> 3
<MEAN> 39
 6.247516e-001 -2.968252e-001 -1.100216e+001 -1.471898e-001 -5.852057e+000 -1.378577e+001 -3.176656e-001 7.478179e+000 1.803572e+000 -3.575732e+000 2.562622e+000 3.393569e+000 7.263187e+001 -1.153797e+000 6.072170e-001 5.533550e-001 -5.629762e-001 3.905484e-001 1.529689e+000 8.142933e-001 -5.061423e-001 -1.213761e-001 1.320850e+000 5.051515e-001 3.575032e-002 -1.121751e+000 -3.981933e-001 2.038125e-001 2.503806e-001 -1.605119e-003 1.830095e-001 3.848251e-001 1.011143e-001 7.165742e-002 3.761675e-001 1.865893e-001 -2.340890e-002 -3.064395e-002 -2.821885e-001
<VARIANCE> 39
 5.150947e+000 2.360051e+001 7.337251e+000 1.119490e+001 5.720804e+001 2.280009e+001 4.820990e+001 5.189720e+001 5.501551e+000 3.602177e+001 1.714959e+001 1.668890e+001 8.065920e+000 4.070726e-001 1.049028e+000 4.948885e-001 7.420500e-001 5.409083e-001 7.971801e-001 4.624189e-001 7.019949e-001 6.476738e-001 9.394156e-001 3.860787e-001 7.638980e-001 2.983443e-001 7.347521e-002 1.745201e-001 1.719132e-001 2.525823e-001 2.689566e-001 1.823126e-001 1.908977e-001 1.232694e-001 1.626495e-001 1.472709e-001 1.113082e-001 3.584557e-001 5.375953e-002
<GCONST> 7.803732e+001
<STATE> 4
<MEAN> 39
 -9.371918e+000 3.444147e+000 -5.706702e+000 -1.002374e+000 -4.038897e+000 -3.956664e+000 5.173587e+000 7.914160e+000 6.047563e+000 2.238459e+000 4.628621e+000 4.689692e+000 6.450835e+001 -2.540631e+000 1.018821e+000 1.391489e+000 1.011556e-001 1.212622e+000 2.629763e+000 3.560149e-001 -3.323647e-001 1.303450e+000 1.727153e+000 5.763775e-001 8.492553e-001 -2.151680e+000 8.919203e-002 -2.559108e-001 3.033691e-003 3.038236e-001 -1.666910e-003 -2.918554e-001 -2.031845e-001 1.860281e-001 -1.936550e-001 -2.342020e-001 4.975924e-002 -1.055511e-002 1.174318e-001
<VARIANCE> 39
 2.943506e+001 9.981347e+000 1.454426e+001 1.471398e+001 2.850927e+001 3.790243e+001 1.216300e+001 3.391721e+001 1.567994e+001 3.121000e+001 1.540735e+001 2.476540e+001 1.698546e+001 1.309950e+000 1.159280e+000 1.858484e+000 2.787681e+000 2.577700e+000 1.678163e+000 3.226556e+000 1.994468e+000 1.108826e+000 2.248909e+000 1.534176e+000 8.142430e-001 4.956407e-001 2.213342e-001 1.727691e-001 3.287321e-001 3.284931e-001 2.334502e-001 3.449343e-001 3.366589e-001 1.680183e-001 1.864685e-001 4.251058e-001 2.823583e-001 2.101878e-001 1.144169e-001
<GCONST> 9.811861e+001
<TRANSP> 5
 0.000000e+000 1.000000e+000 0.000000e+000 0.000000e+000 0.000000e+000
 0.000000e+000 9.191895e-001 8.081048e-002 0.000000e+000 0.000000e+000
 0.000000e+000 0.000000e+000 7.962838e-001 2.037162e-001 0.000000e+000
 0.000000e+000 0.000000e+000 0.000000e+000 7.834732e-001 2.165268e-001
 0.000000e+000 0.000000e+000 0.000000e+000 0.000000e+000 0.000000e+000
<ENDHMM>
~h "l"
<BEGINHMM>
<NUMSTATES> 5
<STATE> 2
<MEAN> 39
 -1.357680e+001 2.942226e+000 -1.151262e+000 4.728523e+000 2.903688e+000 6.450868e-002 4.933961e+000 4.952344e+000 3.245096e+000 1.578145e+000 4.250769e+000 3.122800e+000 6.273683e+001 9.182466e-001 -5.767401e-002 7.025500e-002 3.638517e-001 2.112391e-001 -6.090554e-001 -8.605723e-001 -2.888584e-001 -9.005295e-001 -1.146830e+000 -2.880848e-001 -3.988105e-001 7.085579e-001 8.795735e-002 7.830670e-002 6.858047e-002 1.049168e-001 1.148382e-001 -1.892928e-002 -2.099236e-001 5.300055e-002 4.848500e-003 -1.140425e-001 -1.138826e-001 -1.115176e-001 2.509293e-002
<VARIANCE> 39
 7.270493e+001 1.600761e+001 2.052934e+001 1.748891e+001 2.451808e+001 9.189549e+001 3.551384e+001 2.846944e+001 4.712199e+001 5.448758e+001 1.436149e+001 2.425240e+001 4.560038e+001 3.672888e+000 2.267252e+000 1.751629e+000 1.460678e+000 1.633370e+000 5.030443e+000 4.265264e+000 2.808547e+000 3.908638e+000 5.911931e+000 2.697671e+000 2.769916e+000 2.713633e+000 4.053087e-001 3.674459e-001 2.746184e-001 2.332293e-001 2.610565e-001 6.441156e-001 6.396987e-001 4.594027e-001 5.636739e-001 7.655345e-001 3.087727e-001 5.056208e-001 3.245940e-001
<GCONST> 1.190980e+002
<STATE> 3
<MEAN> 39
 -2.271496e+000 2.179678e+000 -3.130026e+000 9.562176e+000 7.367579e+000 -7.470337e+000 -5.273460e+000 5.506667e+000 -4.100718e-001 -8.278688e+000 -1.682729e+000 -4.095802e+000 7.041473e+001 -9.053993e-001 5.897730e-001 8.934487e-001 7.786628e-001 9.275729e-001 9.907166e-001 -5.261874e-001 -7.689295e-001 7.165453e-001 8.213590e-001 -2.374023e-001 -3.297409e-001 -8.264330e-001 -4.115738e-001 1.226215e-001 2.091392e-001 -1.743633e-001 -1.929356e-001 2.823937e-001 4.482864e-001 -1.726923e-001 1.720402e-001 4.840478e-001 1.831037e-001 2.092608e-001 -2.791994e-001
<VARIANCE> 39
 1.798136e+001 1.369715e+001 1.625459e+001 4.811448e+001 7.071175e+001 3.127594e+001 2.831610e+001 4.224051e+001 7.697119e+001 8.261882e+001 4.383968e+001 5.999084e+001 1.419839e+001 1.544699e+000 1.911085e+000 1.754909e+000 2.405516e+000 2.846169e+000 2.157495e+000 2.334817e+000 1.445056e+000 1.358132e+000 4.273650e+000 3.208668e+000 2.749891e+000 1.421317e+000 2.154307e-001 3.722228e-001 2.572996e-001 3.909200e-001 4.941751e-001 4.260591e-001 3.162845e-001 3.295432e-001 3.579404e-001 6.770965e-001 5.723795e-001 4.244494e-001 1.786594e-001
<GCONST> 1.145669e+002
<STATE> 4
<MEAN> 39
 -7.679570e+000 1.096855e+000 2.120321e+000 1.197308e+001 7.716621e+000 -3.819003e+000 -4.535917e+000 5.054392e-001 -1.585903e+000 -6.128934e+000 3.332675e-001 -1.215687e+000 6.812257e+001 -4.918578e-001 3.334216e-001 1.930577e-001 -3.802143e-001 -3.971401e-001 5.864391e-001 7.657243e-001 2.982115e-001 3.255095e-001 3.258758e-001 -7.262023e-002 6.842128e-002 -4.894435e-001 3.186283e-002 -1.514183e-001 -1.804025e-001 -3.854503e-002 4.554312e-002 -2.902153e-002 6.984823e-002 1.174506e-001 -1.242334e-002 -5.694079e-002 8.054863e-002 6.283977e-002 6.998283e-002
<VARIANCE> 39
 4.374750e+001 7.057659e+001 5.618531e+001 4.270973e+001 5.447452e+001 5.831650e+001 5.953607e+001 4.551830e+001 5.349067e+001 5.847183e+001 2.511282e+001 1.052252e+001 3.190075e+001 3.603119e+000 6.103048e+000 4.057112e+000 1.990194e+000 2.393464e+000 3.364036e+000 4.005593e+000 3.497165e+000 3.481970e+000 4.172511e+000 2.180591e+000 1.400713e+000 2.150158e+000 4.094839e-001 1.213110e+000 5.343553e-001 3.261622e-001 3.788137e-001 5.254117e-001 7.243136e-001 7.176228e-001 6.047265e-001 6.813620e-001 4.255476e-001 2.274972e-001 2.816455e-001
<GCONST> 1.258103e+002
<TRANSP> 5
 0.000000e+000 1.000000e+000 0.000000e+000 0.000000e+000 0.000000e+000
 0.000000e+000 7.467114e-001 2.532886e-001 0.000000e+000 0.000000e+000
 0.000000e+000 0.000000e+000 7.390111e-001 2.609889e-001 0.000000e+000
 0.000000e+000 0.000000e+000 0.000000e+000 8.726025e-001 1.273976e-001
 0.000000e+000 0.000000e+000 0.000000e+000 0.000000e+000 0.000000e+000
<ENDHMM>
~h "m"
<BEGINHMM>
<NUMSTATES> 5
<STATE> 2
<MEAN> 39
 -1.731138e+001 1.231112e+000 -4.364027e-002 2.265719e+000 2.177090e+000 3.914351e+000 5.464346e+000 3.005251e+000 7.444320e+000 5.249831e+000 4.795694e+000 4.638832e+000 6.134084e+001 4.393212e-001 -4.177430e-001 6.938331e-001 5.853223e-001 4.013320e-001 -7.159029e-001 -7.930025e-001 -8.999422e-001 -5.106508e-001 -6.421173e-001 -3.086576e-001 -6.238410e-001 9.294133e-001 2.870866e-001 -1.979291e-002 1.770291e-001 4.045078e-001 2.191128e-001 -4.133219e-001 -2.147491e-001 1.245360e-001 -3.411490e-001 -3.021263e-001 -4.022207e-002 -2.343047e-001 2.345457e-001
<VARIANCE> 39
 2.782209e+001 2.044090e+001 1.866994e+001 1.583307e+001 2.531802e+001 2.946270e+001 1.304431e+001 3.370018e+001 1.233044e+001 1.326970e+001 1.504038e+001 1.209807e+001 2.844307e+001 2.839837e+000 2.660052e+000 1.769738e+000 4.609031e+000 2.793132e+000 3.884136e+000 1.848952e+000 2.383902e+000 3.490625e+000 2.520638e+000 2.354280e+000 1.561375e+000 2.754400e+000 5.011317e-001 5.052806e-001 3.460335e-001 8.161741e-001 4.866116e-001 5.340002e-001 3.679379e-001 6.874663e-001 5.684257e-001 3.880507e-001 3.885533e-001 2.382579e-001 4.793433e-001
<GCONST> 1.125506e+002
<STATE> 3
<MEAN> 39
 -9.440390e+000 2.558867e-001 4.430660e+000 1.654713e+001 1.063070e+001 -8.656137e+000 -4.129343e+000 8.932538e-001 1.706519e-002 -4.977031e+000 7.040511e-002 -8.922053e-001 6.859509e+001 6.032094e-001 -1.153316e-001 -3.364397e-001 -8.705419e-002 1.304612e-001 -4.835791e-001 -5.261228e-001 -4.449117e-001 -6.333176e-001 -4.317281e-001 3.827284e-001 -1.081717e-002 5.746231e-001 -5.073180e-002 3.067723e-002 -1.742274e-001 -3.276122e-001 -2.480773e-001 1.114718e-001 1.800418e-001 5.262543e-002 9.021913e-002 1.525768e-001 1.547450e-001 1.571370e-001 -6.416874e-002
<VARIANCE> 39
 3.095589e+001 3.475281e+001 3.762383e+001 8.090382e+001 4.394451e+001 6.975937e+001 5.765894e+001 3.856469e+001 5.337338e+001 3.764100e+001 1.751701e+001 2.262904e+001 4.186784e+001 4.528094e+000 4.602353e+000 2.965956e+000 5.970409e+000 3.885756e+000 8.556254e+000 5.827454e+000 3.503133e+000 4.335353e+000 3.610247e+000 2.194801e+000 2.086435e+000 5.399400e+000 5.277357e-001 6.612871e-001 3.011053e-001 6.095121e-001 5.633098e-001 1.079785e+000 9.921111e-001 6.002718e-001 7.624344e-001 5.916826e-001 3.444947e-001 3.579605e-001 6.639045e-001
<GCONST> 1.310634e+002
<STATE> 4
<MEAN> 39
 -3.497934e+000 -7.005075e-001 -8.447146e+000 1.261401e+000 -2.217322e+000 -8.905615e+000 9.937223e-001 4.800350e+000 -2.186457e-001 -9.079937e-001 7.211759e+000 4.369136e+000 7.089244e+001 -9.384314e-001 5.674953e-001 2.545682e-001 -7.252239e-001 -4.401703e-001 8.524967e-001 9.082491e-001 8.720618e-001 9.120950e-001 1.143209e+000 1.963329e-001 2.187751e-001 -1.001229e+000 -1.296932e-001 -9.092743e-002 8.552130e-002 1.727828e-001 1.487144e-001 7.707943e-002 2.061289e-002 -3.689637e-002 1.569903e-001 7.027874e-002 -1.409975e-001 -2.777928e-002 -5.516608e-002
<VARIANCE> 39
 6.490465e+001 3.339327e+001 3.692764e+001 3.019154e+001 4.827751e+001 7.118682e+001 5.043061e+001 9.075033e+001 5.539618e+001 5.339342e+001 2.428601e+001 2.115851e+001 4.597036e+001 4.394734e+000 1.642065e+000 3.304510e+000 2.044894e+000 2.947754e+000 3.731090e+000 3.007743e+000 3.202961e+000 3.158046e+000 3.810493e+000 2.607358e+000 1.768480e+000 2.731652e+000 4.575897e-001 2.029900e-001 3.598417e-001 3.025595e-001 3.014402e-001 5.319081e-001 5.665225e-001 3.801049e-001 5.617951e-001 6.191686e-001 3.609325e-001 2.829599e-001 2.347201e-001
<GCONST> 1.218324e+002
<TRANSP> 5
 0.000000e+000 1.000000e+000 0.000000e+000 0.000000e+000 0.000000e+000
 0.000000e+000 7.163491e-001 2.836509e-001 0.000000e+000 0.000000e+000
 0.000000e+000 0.000000e+000 8.226206e-001 1.773794e-001 0.000000e+000
 0.000000e+000 0.000000e+000 0.000000e+000 7.943823e-001 2.056177e-001
 0.000000e+000 0.000000e+000 0.000000e+000 0.000000e+000 0.000000e+000
<ENDHMM>
~h "n"
<BEGINHMM>
<NUMSTATES> 5
<STATE> 2
<MEAN> 39
 -1.618856e+001 4.099405e+000 4.299437e+000 6.274151e+000 5.712386e+000 4.147078e+000 5.348220e+000 2.011981e+000 3.120063e+000 3.039980e+000 3.961227e+000 1.731859e+000 6.207732e+001 1.674636e+000 2.851977e-002 5.967552e-002 6.316884e-001 5.012214e-001 -1.078298e+000 -1.253422e+000 -1.187149e+000 -1.194466e+000 -1.401699e+000 -7.193330e-001 -7.830645e-001 1.463368e+000 2.790216e-001 -2.112008e-001 -1.713933e-001 7.996100e-002 1.176046e-001 -3.407994e-001 -3.222156e-001 1.678049e-002 -1.821274e-001 -3.071665e-001 -1.233408e-001 2.098686e-002 2.807306e-001
<VARIANCE> 39
 4.285697e+001 3.406032e+001 3.428417e+001 3.106134e+001 1.012759e+001 2.126937e+001 2.749796e+001 2.516605e+001 2.295739e+001 1.920107e+001 1.805549e+001 1.931036e+001 2.714717e+001 3.830384e+000 3.954520e+000 2.509709e+000 2.946631e+000 1.228415e+000 3.577069e+000 3.483771e+000 3.358427e+000 2.979802e+000 3.158965e+000 2.522936e+000 2.739699e+000 3.118323e+000 4.197188e-001 6.490782e-001 4.400870e-001 4.768555e-001 1.876158e-001 6.399537e-001 3.691483e-001 7.325858e-001 5.157061e-001 4.412442e-001 4.463411e-001 4.796403e-001 4.597113e-001
<GCONST> 1.169731e+002
<STATE> 3
<MEAN> 39
 -3.105458e+000 9.797722e-001 3.529408e-001 1.306734e+001 1.123915e+001 -7.528766e+000 -8.067455e+000 -1.641389e-001 -2.457810e+000 -9.020644e+000 -2.167605e+000 -3.766840e+000 7.213251e+001 7.953363e-001 -2.136041e-001 -7.565928e-001 -3.682955e-001 -1.553425e-001 -3.643679e-001 -4.791957e-001 1.673328e-001 -2.807639e-002 -3.348952e-001 -4.481528e-001 -4.280715e-001 5.600283e-001 -2.059380e-001 1.450758e-003 -1.172821e-001 -2.922604e-001 -2.978752e-001 1.574406e-001 4.023636e-001 1.671058e-001 2.015993e-001 3.102953e-001 2.736382e-001 1.905020e-001 -1.711663e-001
<VARIANCE> 39
 1.461041e+001 3.089447e+001 2.152819e+001 5.352291e+001 3.056187e+001 5.167081e+001 3.903616e+001 4.552203e+001 4.701043e+001 5.917782e+001 2.732088e+001 4.530326e+001 2.080900e+001 1.218951e+000 2.937469e+000 1.783849e+000 3.358909e+000 2.375946e+000 6.405326e+000 4.213362e+000 4.509614e+000 4.228006e+000 5.762290e+000 1.976192e+000 1.922003e+000 1.970712e+000 2.161077e-001 5.530509e-001 3.371693e-001 4.642983e-001 4.260120e-001 1.013428e+000 6.166767e-001 1.118125e+000 8.740168e-001 9.751269e-001 5.033323e-001 6.035137e-001 2.590942e-001
<GCONST> 1.238203e+002
<STATE> 4
<MEAN> 39
 -2.296775e-001 1.851090e-001 -9.642803e+000 1.060618e+000 -1.299680e-001 -6.998277e+000 1.408847e+000 6.536968e+000 -2.122491e+000 -4.138802e+000 3.105042e+000 2.842238e-001 7.276321e+001 -3.106426e-001 -1.962882e-001 -2.411249e-001 -5.340695e-001 -6.835430e-001 -6.523129e-002 9.232649e-001 7.811827e-001 3.829581e-001 5.129907e-001 5.584180e-001 6.511053e-001 -1.937282e-001 -1.601610e-001 4.863242e-002 1.473006e-001 1.180251e-001 1.032380e-001 9.718902e-002 3.024075e-002 -9.664001e-003 5.055943e-002 5.777380e-002 -3.372986e-003 1.157399e-002 -1.404886e-001
<VARIANCE> 39
 2.929918e+001 3.726788e+001 3.817598e+001 3.759491e+001 4.854179e+001 6.633170e+001 4.286060e+001 7.581332e+001 4.348323e+001 3.147754e+001 4.220955e+001 3.823337e+001 3.368320e+001 1.975605e+000 2.043738e+000 2.603865e+000 2.251770e+000 2.630731e+000 4.750743e+000 1.511900e+000 3.958362e+000 2.258059e+000 2.157722e+000 3.070323e+000 3.399269e+000 1.981707e+000 9.710967e-002 2.480972e-001 2.501499e-001 3.219371e-001 3.725607e-001 5.064923e-001 3.343568e-001 5.149370e-001 2.850635e-001 3.092328e-001 5.408847e-001 6.294505e-001 1.200217e-001
<GCONST> 1.170242e+002
<TRANSP> 5
 0.000000e+000 1.000000e+000 0.000000e+000 0.000000e+000 0.000000e+000
 0.000000e+000 8.160920e-001 1.839080e-001 0.000000e+000 0.000000e+000
 0.000000e+000 0.000000e+000 8.509985e-001 1.490015e-001 0.000000e+000
 0.000000e+000 0.000000e+000 0.000000e+000 8.670363e-001 1.329637e-001
 0.000000e+000 0.000000e+000 0.000000e+000 0.000000e+000 0.000000e+000
<ENDHMM>
~h "p"
<BEGINHMM>
<NUMSTATES> 5
<STATE> 2
<MEAN> 39
 -1.603878e+001 4.588123e+000 -2.743841e+000 4.157642e-001 2.986172e-001 3.396157e+000 6.318332e+000 5.725823e+000 7.734331e+000 7.461165e+000 6.506905e+000 6.478832e+000 5.924399e+001 -1.001928e+000 1.152444e-001 8.379542e-001 7.643525e-001 5.937254e-001 4.850596e-001 1.966185e-001 9.317602e-002 -1.297277e-001 -3.646930e-001 -2.053074e-001 8.770700e-002 -6.727394e-001 3.549561e-001 -8.752158e-002 -1.708264e-001 1.729911e-002 1.467221e-001 -1.024851e-001 -9.158016e-002 5.697370e-002 -1.305201e-001 -3.530971e-001 -8.540122e-002 -2.459700e-001 2.844903e-001
<VARIANCE> 39
 1.310004e+001 1.108599e+000 1.187310e+001 1.379305e+001 5.698255e+000 5.041722e+000 3.652990e+000 8.597474e+000 7.681971e+000 1.047048e+001 9.594679e+000 1.374122e+001 4.771903e+000 9.497216e-001 1.854441e-001 5.926881e-001 6.552442e-001 6.445904e-001 6.594501e-001 1.106245e+000 5.477776e-001 1.147422e+000 5.720235e-001 9.048396e-001 8.566113e-001 4.098332e-001 1.410215e-001 3.634055e-002 1.757628e-001 1.646098e-001 1.125651e-001 2.641014e-001 2.741719e-001 8.875717e-002 2.773327e-001 1.710595e-001 8.699619e-002 1.774295e-001 6.966618e-002
<GCONST> 6.555005e+001
<STATE> 3
<MEAN> 39
 -1.870396e+001 4.464513e+000 -5.200657e-002 2.796740e+000 3.716873e+000 5.909655e+000 6.498860e+000 5.604963e+000 7.260843e+000 6.420717e+000 6.341606e+000 5.622769e+000 5.751525e+001 -4.468512e-001 -1.343816e-001 4.743338e-001 5.014748e-001 4.810475e-001 4.713016e-001 1.437296e-001 6.806803e-002 -4.330538e-002 -2.166710e-001 -3.222906e-001 -2.080286e-001 -2.455330e-001 1.117332e-001 -1.450539e-002 -1.193948e-001 -1.238135e-001 -1.604294e-001 -2.068447e-001 -5.701686e-002 8.368844e-002 -2.118753e-002 -1.330502e-002 4.562377e-002 -1.147280e-002 6.065863e-002
<VARIANCE> 39
 1.430786e+000 6.808250e-001 3.245331e+000 9.906762e+000 2.355326e+000 2.044945e+000 5.460477e+000 5.291513e+000 5.229633e+000 1.086186e+001 3.731352e+000 6.009062e+000 5.158215e-001 1.292905e-001 9.950162e-002 2.231349e-001 5.037703e-001 4.228739e-001 6.265600e-001 4.861279e-001 7.130426e-001 4.889303e-001 1.191809e+000 4.080325e-001 9.714644e-001 4.927760e-002 1.508934e-002 2.003125e-002 2.610061e-002 1.023326e-001 6.090200e-002 6.473456e-002 1.164522e-001 1.610608e-001 7.582445e-002 2.476946e-001 8.452842e-002 1.222999e-001 4.473872e-003
<GCONST> 3.564438e+001
<STATE> 4
<MEAN> 39
 -1.985648e+001 4.235710e+000 1.142125e+000 5.052731e+000 4.374859e+000 6.249856e+000 6.711522e+000 6.757442e+000 7.237364e+000 6.278661e+000 6.285894e+000 5.182394e+000 5.679944e+001 -2.778014e-003 1.184791e-002 1.360226e-002 9.345774e-003 9.996032e-003 -1.275192e-002 1.031065e-002 5.115482e-003 2.232334e-003 -3.617426e-003 -7.550694e-003 -4.606065e-002 -3.649849e-003 3.344437e-003 2.758306e-003 -1.088232e-002 -1.079826e-002 -2.105094e-003 -3.343773e-003 -5.227590e-003 -8.888061e-003 -2.452261e-004 1.454441e-002 9.785647e-003 5.579100e-003 3.197293e-003
<VARIANCE> 39
 7.076837e-001 7.228842e-001 1.396183e+000 2.027438e+000 2.799763e+000 3.533046e+000 3.930632e+000 3.959612e+000 4.095937e+000 4.777903e+000 4.249596e+000 4.176815e+000 5.072046e-001 2.988523e-002 8.825638e-002 1.573449e-001 2.522541e-001 3.284983e-001 3.778474e-001 4.487662e-001 5.369117e-001 4.371856e-001 4.679378e-001 4.258697e-001 4.585941e-001 1.169577e-002 6.037828e-003 1.880949e-002 3.426083e-002 5.196055e-002 7.462569e-002 8.131713e-002 9.765074e-002 1.108045e-001 8.542907e-002 9.603165e-002 9.504446e-002 9.677021e-002 1.405454e-003
<GCONST> 2.080835e+001
<TRANSP> 5
 0.000000e+000 1.000000e+000 0.000000e+000 0.000000e+000 0.000000e+000
 0.000000e+000 6.210304e-001 3.789696e-001 0.000000e+000 0.000000e+000
 0.000000e+000 0.000000e+000 6.096309e-001 3.903691e-001 0.000000e+000
 0.000000e+000 0.000000e+000 0.000000e+000 9.655548e-001 3.444527e-002
 0.000000e+000 0.000000e+000 0.000000e+000 0.000000e+000 0.000000e+000
<ENDHMM>
~h "s"
<BEGINHMM>
<NUMSTATES> 5
<STATE> 2
<MEAN> 39
 -6.215433e-001 -1.810898e+000 -9.328151e+000 1.655310e+000 -8.819038e+000 -1.415178e+001 2.142785e+000 1.164504e+001 3.819086e-001 -4.255760e+000 5.019026e+000 2.708808e+000 7.255605e+001 -1.943562e-001 1.157761e-001 1.998637e-001 1.598115e-001 9.366343e-002 3.842657e-001 -1.174205e-001 -1.953652e-001 -7.880852e-002 8.231065e-002 -2.283845e-002 -1.773424e-001 -2.712238e-001 -1.229706e-001 8.999124e-002 7.947732e-002 2.198898e-002 1.573964e-001 1.690727e-001 -1.070809e-001 -6.522767e-002 4.146496e-002 -2.964487e-002 -1.372661e-002 3.494747e-002 -1.248949e-001
<VARIANCE> 39
 6.318087e+001 4.922242e+001 3.774582e+001 1.438131e+001 2.178353e+001 6.658353e+001 1.404261e+001 2.281467e+001 4.441805e+001 5.136763e+001 2.171661e+001 1.581478e+001 5.920183e+001 6.166938e+000 3.086766e+000 2.766743e+000 6.215775e-001 3.111201e+000 7.702662e+000 1.333348e+000 2.652032e+000 2.068146e+000 5.029994e+000 2.765913e+000 2.058720e+000 4.996591e+000 9.257756e-001 4.797904e-001 4.060559e-001 1.307281e-001 4.782052e-001 1.398586e+000 2.525750e-001 4.650699e-001 2.727658e-001 7.702220e-001 6.410952e-001 4.913827e-001 6.951609e-001
<GCONST> 1.209663e+002
<STATE> 3
<MEAN> 39
 -3.687771e+000 2.100981e+000 -8.027314e+000 -1.380695e+000 -4.287096e+000 -8.467543e+000 2.576005e-001 5.224347e+000 6.868845e+000 4.956968e-001 1.947719e+000 2.195936e+000 6.859756e+001 -1.070804e+000 8.987923e-001 7.100434e-001 -3.199958e-001 4.670845e-001 1.604233e+000 -5.883513e-002 -5.389701e-001 4.070886e-001 6.096168e-001 2.161615e-001 3.611711e-001 -1.114483e+000 -2.193515e-002 -1.223886e-001 -4.072485e-002 5.991877e-002 2.298698e-001 2.436053e-002 1.132007e-001 1.540489e-002 9.233986e-003 4.951122e-002 2.330224e-002 2.774575e-002 8.925734e-002
<VARIANCE> 39
 5.714078e+001 3.031509e+001 3.610556e+001 1.488414e+001 1.219688e+001 4.952808e+001 1.732665e+001 2.011551e+001 3.478617e+001 2.398704e+001 1.525863e+001 1.884728e+001 4.173826e+001 8.494793e+000 2.691950e+000 3.913310e+000 1.368986e+000 2.048248e+000 7.652126e+000 3.152383e+000 2.401320e+000 3.792976e+000 1.929940e+000 1.665980e+000 3.222343e+000 6.661924e+000 1.129020e+000 4.002622e-001 5.523748e-001 3.905103e-001 3.717827e-001 1.504442e+000 6.873372e-001 4.857015e-001 4.639645e-001 2.897740e-001 3.346869e-001 7.735760e-001 7.383274e-001
<GCONST> 1.212826e+002
<STATE> 4
<MEAN> 39
 -6.084199e+000 6.140343e+000 -1.812304e+000 4.119215e+000 1.652747e+000 -4.028349e+000 -2.401739e+000 3.362215e+000 1.904499e+000 -1.608167e+000 6.943190e-001 -1.837509e+000 6.588598e+001 -1.558457e+000 3.963129e-001 9.282233e-001 4.880570e-001 1.036033e+000 1.786654e+000 8.823943e-001 -2.779273e-001 4.020158e-001 7.141454e-001 7.211851e-002 1.390859e-001 -1.205783e+000 -7.173904e-002 -2.244615e-001 -1.267394e-001 -1.740512e-002 -1.195844e-001 -2.911513e-002 2.725882e-001 2.054769e-001 2.172215e-002 7.867227e-002 1.954076e-001 1.783770e-001 2.232929e-002
<VARIANCE> 39
 2.130740e+001 2.967824e+001 2.356008e+001 2.797096e+001 4.924855e+001 3.985626e+001 1.339320e+001 3.451007e+001 2.197058e+001 2.873732e+001 1.128238e+001 1.564824e+001 1.617301e+001 8.865138e-001 1.329160e+000 2.058332e+000 1.418460e+000 1.197888e+000 1.927091e+000 1.533387e+000 1.034996e+000 9.124446e-001 1.373759e+000 1.479307e+000 2.469914e+000 4.158532e-001 1.809728e-001 1.741549e-001 3.852889e-001 1.651540e-001 1.681372e-001 2.187474e-001 1.322615e-001 1.082831e-001 1.587705e-001 1.688730e-001 1.890458e-001 3.125902e-001 9.534612e-002
<GCONST> 9.336023e+001
<TRANSP> 5
 0.000000e+000 1.000000e+000 0.000000e+000 0.000000e+000 0.000000e+000
 0.000000e+000 8.714040e-001 1.285960e-001 0.000000e+000 0.000000e+000
 0.000000e+000 0.000000e+000 7.078723e-001 2.921277e-001 0.000000e+000
 0.000000e+000 0.000000e+000 0.000000e+000 8.331160e-001 1.668840e-001
 0.000000e+000 0.000000e+000 0.000000e+000 0.000000e+000 0.000000e+000
<ENDHMM>
~h "t"
<BEGINHMM>
<NUMSTATES> 5
<STATE> 2
<MEAN> 39
 -2.009234e+001 1.812269e+000 3.978611e+000 3.119187e+000 5.062232e+000 5.798976e+000 6.191392e+000 3.660864e+000 6.292460e+000 5.001801e+000 5.812515e+000 3.409884e+000 6.089301e+001 4.845083e-001 -1.909870e-001 2.055944e-001 -2.387570e-001 1.312255e-001 -3.737446e-001 -1.648115e-001 -5.811902e-001 -3.740308e-001 -4.906648e-001 -3.364391e-001 -5.224581e-001 9.761224e-001 3.421865e-001 -2.971570e-002 -2.413209e-001 3.961702e-002 -2.468067e-002 -2.696801e-001 -1.097868e-001 -3.534245e-002 -1.221404e-001 -2.220477e-001 -1.374304e-001 -1.065045e-001 2.164975e-001
<VARIANCE> 39
 1.878490e+001 3.298430e+001 2.252709e+001 3.362723e+001 1.430361e+001 1.333485e+001 1.632208e+001 2.080378e+001 2.346198e+001 1.096251e+001 1.359851e+001 1.139681e+001 2.052071e+001 3.401392e+000 2.255238e+000 3.126281e+000 2.119051e+000 1.781124e+000 1.926125e+000 2.268050e+000 1.929554e+000 3.115097e+000 1.503286e+000 2.145752e+000 1.560598e+000 1.463501e+000 6.183792e-001 4.096310e-001 6.542137e-001 3.687318e-001 4.150270e-001 4.035218e-001 4.281786e-001 4.147186e-001 6.390885e-001 3.282132e-001 4.151954e-001 3.027679e-001 2.602460e-001
<GCONST> 1.079078e+002
<STATE> 3
<MEAN> 39
 -1.173860e+001 1.643083e+000 4.581639e-001 2.553921e+000 5.851759e+000 -5.718172e-001 2.615438e+000 -1.543106e+000 1.526244e+000 -8.189756e-001 2.377649e+000 -3.457268e-001 6.851739e+001 4.440332e+000 -4.265890e-002 -2.830837e+000 6.372005e-001 -1.903261e-001 -2.832032e+000 -1.568929e+000 -3.690407e-002 -1.958564e+000 -3.089844e+000 -1.697484e+000 -6.098096e-001 2.235883e+000 2.139259e-001 -7.968488e-002 -1.261469e-001 7.950929e-002 -3.010616e-001 -1.929113e-001 1.547413e-001 8.240861e-001 5.581832e-002 -8.291171e-002 -3.528068e-002 4.946445e-002 -1.045894e-001
<VARIANCE> 39
 5.562039e+001 3.724108e+001 5.146822e+001 6.996941e+001 3.109217e+001 3.323057e+001 5.443591e+001 1.870738e+001 3.018087e+001 2.258398e+001 3.457341e+001 1.457673e+001 2.444610e+001 2.823568e+000 3.624676e+000 4.490237e+000 2.106060e+000 3.277023e+000 3.895756e+000 3.079244e+000 4.343172e+000 5.508078e+000 3.094649e+000 3.096918e+000 3.052809e+000 2.895002e+000 8.416756e-001 5.165546e-001 9.918929e-001 4.686776e-001 5.963328e-001 6.817561e-001 7.922621e-001 5.353540e-001 6.188883e-001 4.989773e-001 3.661025e-001 1.091574e-001 4.318514e-001
<GCONST> 1.245788e+002
<STATE> 4
<MEAN> 39
 -3.688383e+000 6.910076e+000 -1.002521e+000 7.387195e+000 5.049801e+000 -2.903326e+000 6.090529e-001 2.897770e+000 -1.410467e+000 -5.636648e+000 -4.278011e+000 -7.782244e+000 6.848654e+001 8.711806e-001 1.622658e-001 -1.869887e-001 -2.212007e-001 -7.569650e-001 -1.034030e+000 -2.869175e-001 6.159543e-001 -3.798494e-002 -5.473122e-001 -1.323901e-001 -1.021752e-001 4.179851e-001 -5.401825e-001 -1.562616e-001 1.836264e-001 -6.304532e-002 -5.558275e-002 2.123357e-001 8.664483e-002 3.682518e-002 3.747102e-001 4.973596e-001 4.008639e-001 3.594262e-001 -2.854372e-001
<VARIANCE> 39
 1.533703e+001 1.775307e+001 2.351546e+001 1.569711e+001 1.788309e+001 3.817456e+001 4.788819e+001 1.556416e+001 4.169604e+001 3.762813e+001 3.637334e+001 3.813206e+001 1.458987e+001 7.097229e+000 1.619178e+000 4.131699e+000 9.511970e-001 2.168536e+000 3.711778e+000 2.219451e+000 3.136225e+000 2.405844e+000 3.924612e+000 2.882296e+000 4.476753e+000 2.564709e+000 3.006270e-001 4.858183e-001 4.792650e-001 2.260522e-001 2.572421e-001 2.659304e-001 2.967446e-001 2.984302e-001 4.414214e-001 6.592334e-001 5.765099e-001 4.630479e-001 3.193826e-001
<GCONST> 1.142399e+002
<TRANSP> 5
 0.000000e+000 1.000000e+000 0.000000e+000 0.000000e+000 0.000000e+000
 0.000000e+000 8.542594e-001 1.457406e-001 0.000000e+000 0.000000e+000
 0.000000e+000 0.000000e+000 4.827242e-001 5.172758e-001 0.000000e+000
 0.000000e+000 0.000000e+000 0.000000e+000 7.154071e-001 2.845929e-001
 0.000000e+000 0.000000e+000 0.000000e+000 0.000000e+000 0.000000e+000
<ENDHMM>
~h "w"
<BEGINHMM>
<NUMSTATES> 5
<STATE> 2
<MEAN> 39
 -1.292555e+000 5.991200e+000 2.243067e-001 1.000273e+001 -3.475427e+000 -1.806692e+001 -2.655524e+000 6.608774e+000 -6.854046e+000 -1.099963e+001 -1.038628e+000 -4.945503e+000 6.993565e+001 -4.704559e-001 7.788463e-001 9.085817e-001 -5.486588e-002 -8.818601e-001 -2.858748e-001 -2.039504e-001 4.000961e-001 6.925980e-001 8.157874e-001 -3.013336e-001 -3.982819e-002 -7.427168e-001 -3.587416e-001 -1.129231e-001 6.240603e-002 -8.789223e-002 8.831721e-002 3.646622e-001 1.359081e-001 -2.808158e-001 1.441486e-001 2.285637e-001 2.344906e-001 3.117018e-001 -1.511282e-001
<VARIANCE> 39
 1.971660e+000 1.057505e+001 1.565281e+001 9.497054e+000 3.002485e+001 6.937018e+001 7.599694e+000 4.824648e+001 4.252177e+001 1.044211e+001 6.212889e+000 6.459760e+000 2.212432e+000 2.511692e-001 5.925959e-001 5.925436e-001 3.467652e-001 7.149645e-001 1.399228e+000 1.493931e+000 8.649768e-001 8.432695e-001 1.252280e+000 1.921177e-001 8.245628e-001 2.289012e-001 1.349888e-001 1.392318e-001 8.717045e-002 7.579444e-002 1.121273e-001 3.707654e-001 1.626165e-001 1.791927e-001 1.798310e-001 5.242450e-001 1.614474e-001 1.578247e-001 6.392792e-002
<GCONST> 7.286011e+001
<STATE> 3
<MEAN> 39
 -5.503055e+000 1.157228e+001 4.076560e+000 5.169025e+000 -5.392829e+000 -1.185187e+001 -3.472386e+000 2.548138e+000 -7.927464e-002 -3.713144e+000 -2.632107e+000 -4.223068e+000 6.486774e+001 -1.881145e+000 9.585972e-001 1.049947e+000 -6.746938e-001 4.117638e-001 2.061829e+000 2.524044e-002 -1.199592e+000 1.044065e+000 1.798410e+000 2.686818e-001 3.057666e-001 -1.506907e+000 -3.072086e-001 -4.170318e-001 -3.272661e-001 1.658395e-002 6.600654e-001 6.149633e-001 2.445319e-001 1.927763e-002 -9.191886e-002 -3.126137e-002 3.037541e-001 3.210906e-001 -7.164291e-002
<VARIANCE> 39
 7.396244e+000 5.185314e+000 3.809874e+000 5.341426e+000 1.147056e+001 3.436018e+001 4.594728e+000 2.743665e+001 3.794138e+001 2.954613e+001 5.879072e+000 6.470106e+000 3.774577e+000 5.453802e-001 3.296750e-001 4.030763e-001 5.723482e-001 2.040449e+000 4.725343e+000 2.745031e-001 6.511280e-001 1.345668e+000 6.936246e-001 6.130999e-001 9.396740e-001 2.406316e-001 5.624596e-002 1.009353e-001 5.924930e-002 4.284563e-002 7.022808e-002 3.399360e-001 7.234257e-002 2.770278e-001 2.835197e-001 3.508002e-001 8.523603e-002 1.041528e-001 2.807630e-002
<GCONST> 6.705878e+001
<STATE> 4
<MEAN> 39
 -1.555273e+001 7.497642e+000 2.560015e+000 5.411265e+000 2.507267e+000 7.114434e-001 -3.422496e-001 1.425560e+000 3.303982e+000 1.993266e+000 2.192153e+000 6.139545e-001 5.920059e+001 -1.399270e+000 -1.279613e+000 -1.049283e+000 -9.850955e-002 1.064803e+000 1.878474e+000 1.054000e+000 9.398195e-001 1.888055e+000 1.580952e+000 9.978349e-001 7.661207e-001 -6.544170e-001 3.285626e-001 -8.257107e-002 -1.257077e-001 -4.170482e-003 -3.480065e-001 -4.405134e-001 1.710680e-001 3.443269e-001 8.738904e-003 -1.043177e-001 -2.866470e-002 -4.159221e-002 2.228093e-001
<VARIANCE> 39
 9.152177e+000 2.035380e+001 1.206230e+001 1.284763e+001 1.661988e+001 1.489922e+001 1.600605e+001 1.486028e+001 3.313589e+001 1.663327e+001 4.089012e+000 1.303517e+001 1.853836e+000 1.103239e+000 8.087525e-001 6.349501e-001 8.722503e-001 1.181350e+000 2.133917e+000 1.895883e+000 2.201566e+000 2.493196e+000 1.883644e+000 9.211034e-001 1.740725e+000 5.181461e-001 6.111585e-002 3.056435e-001 2.954322e-001 2.299170e-001 2.908679e-001 2.981908e-001 4.137357e-001 4.818669e-001 6.365045e-001 2.187241e-001 1.788703e-001 3.336970e-001 6.725544e-002
<GCONST> 8.862968e+001
<TRANSP> 5
 0.000000e+000 1.000000e+000 0.000000e+000 0.000000e+000 0.000000e+000
 0.000000e+000 8.178018e-001 1.821982e-001 0.000000e+000 0.000000e+000
 0.000000e+000 0.000000e+000 7.333947e-001 2.666053e-001 0.000000e+000
 0.000000e+000 0.000000e+000 0.000000e+000 8.007814e-001 1.992186e-001
 0.000000e+000 0.000000e+000 0.000000e+000 0.000000e+000 0.000000e+000
<ENDHMM>
~h "ah"
<BEGINHMM>
<NUMSTATES> 5
<STATE> 2
<MEAN> 39
 -1.629735e+001 5.292337e+000 -2.166063e-001 2.803070e+000 2.555233e+000 4.510209e+000 6.535115e+000 6.648253e+000 6.801261e+000 5.159901e+000 5.133248e+000 3.853845e+000 5.892913e+001 -8.493263e-001 -3.406926e-001 1.147184e-001 2.479597e-001 3.781644e-001 4.508672e-001 2.207175e-001 2.108279e-001 2.879835e-001 3.730143e-001 4.630019e-001 3.932672e-001 -5.254942e-001 1.890639e-001 1.202955e-002 -4.515456e-002 7.377652e-003 -7.085378e-002 -1.958251e-001 -1.591256e-001 -9.707119e-002 -1.227034e-001 -1.436490e-001 -9.593525e-002 -9.039175e-002 1.375346e-001
<VARIANCE> 39
 9.887423e+000 5.644284e+000 9.816687e+000 1.491089e+001 1.403244e+001 1.349144e+001 1.473335e+001 1.154114e+001 1.091413e+001 1.611470e+001 1.387666e+001 1.343155e+001 3.818853e+000 8.702170e-001 4.912125e-001 9.399986e-001 1.084406e+000 1.153584e+000 1.245122e+000 1.636246e+000 1.152350e+000 1.240525e+000 1.259436e+000 1.130714e+000 1.269107e+000 4.305995e-001 1.615572e-001 8.281255e-002 1.791880e-001 1.639147e-001 1.829489e-001 3.100848e-001 3.596721e-001 2.257383e-001 2.854359e-001 3.065301e-001 2.237817e-001 2.256482e-001 8.988984e-002
<GCONST> 8.187926e+001
<STATE> 3
<MEAN> 39
 -1.916133e+001 4.341271e+000 7.312292e-001 4.261333e+000 4.103758e+000 5.687692e+000 6.567489e+000 6.310129e+000 7.185986e+000 5.727682e+000 5.974134e+000 4.784947e+000 5.727903e+001 -2.246212e-001 -7.371834e-002 8.017546e-002 1.388856e-001 1.517375e-001 1.501828e-001 3.691546e-002 -4.707923e-002 -9.968963e-003 1.379227e-001 1.895520e-001 1.609824e-001 -1.385687e-001 6.757130e-002 3.522380e-002 1.367608e-002 9.589070e-003 -9.518369e-003 -3.868576e-002 -1.542327e-002 -1.789968e-002 -3.776422e-002 -3.104362e-002 -8.088323e-002 -8.707665e-002 4.125220e-002
<VARIANCE> 39
 1.754048e+000 1.366170e+000 3.271010e+000 5.035004e+000 6.301425e+000 5.988496e+000 5.171826e+000 6.548736e+000 6.331441e+000 6.249485e+000 6.305398e+000 7.776898e+000 5.983612e-001 1.989765e-001 1.887483e-001 4.769848e-001 7.060978e-001 6.283141e-001 6.543487e-001 8.484371e-001 7.535258e-001 9.995728e-001 8.018718e-001 6.941726e-001 8.471283e-001 9.381580e-002 4.838406e-002 3.051427e-002 1.047078e-001 1.368121e-001 1.156450e-001 1.074338e-001 1.588851e-001 1.638380e-001 2.002298e-001 1.333729e-001 1.359510e-001 1.671493e-001 2.233269e-002
<GCONST> 5.072847e+001
<STATE> 4
<MEAN> 39
 -1.981562e+001 4.240516e+000 1.176116e+000 5.264735e+000 4.610038e+000 6.240553e+000 6.598865e+000 6.475078e+000 6.786775e+000 6.163663e+000 6.113109e+000 4.819747e+000 5.682959e+001 -9.389929e-004 -5.216358e-003 2.008344e-004 2.427644e-003 3.693707e-003 -8.266190e-003 4.476222e-003 -6.026986e-003 -1.844544e-002 -7.395100e-003 -1.876844e-002 -2.685472e-002 4.292231e-003 3.212631e-002 -2.156933e-003 -9.809039e-003 -1.384328e-002 -9.034637e-003 -9.860333e-003 -9.335763e-003 -2.543501e-002 -1.591647e-002 -2.375878e-002 -8.912142e-003 -1.968921e-003 3.023744e-002
<VARIANCE> 39
 7.076837e-001 7.060868e-001 1.328653e+000 2.020214e+000 2.854781e+000 3.733955e+000 3.907171e+000 4.446326e+000 4.960499e+000 4.971066e+000 4.855325e+000 4.365085e+000 5.072046e-001 4.322294e-002 8.088500e-002 1.516140e-001 2.307336e-001 3.147183e-001 3.998458e-001 4.447605e-001 5.033824e-001 5.797428e-001 5.670087e-001 5.066496e-001 4.741348e-001 1.502128e-002 1.611464e-002 2.184931e-002 3.695259e-002 5.230256e-002 6.721035e-002 9.048191e-002 9.485009e-002 1.129142e-001 1.302779e-001 1.162513e-001 1.066296e-001 9.983107e-002 9.674619e-003
<GCONST> 2.624618e+001
<TRANSP> 5
 0.000000e+000 1.000000e+000 0.000000e+000 0.000000e+000 0.000000e+000
 0.000000e+000 7.011157e-001 2.988843e-001 0.000000e+000 0.000000e+000
 0.000000e+000 0.000000e+000 7.674389e-001 2.325611e-001 0.000000e+000
 0.000000e+000 0.000000e+000 0.000000e+000 9.404736e-001 5.952639e-002
 0.000000e+000 0.000000e+000 0.000000e+000 0.000000e+000 0.000000e+000
<ENDHMM>
~h "hh"
<BEGINHMM>
<NUMSTATES> 5
<STATE> 2
<MEAN> 39
 2.588074e+000 -1.036077e+000 -1.300311e+001 -3.160169e+000 -4.053872e+000 -1.006909e+001 3.847981e+000 1.080266e+001 -3.401464e-001 -2.594856e+000 1.553634e+000 -9.177855e-001 7.420654e+001 -6.315428e-001 7.320929e-001 6.575785e-001 8.553819e-001 1.191962e+000 6.544960e-001 -1.248925e+000 -5.786858e-001 1.489478e+000 1.127254e+000 -1.656678e+000 -1.376952e+000 -9.900021e-001 -3.067718e-001 1.136785e-001 3.820314e-001 4.577739e-001 3.783040e-001 4.886899e-001 1.712070e-001 -6.236793e-002 -2.330555e-001 -2.357718e-001 -1.268240e-002 -3.057527e-001 -1.900238e-001
<VARIANCE> 39
 1.628091e+000 4.564875e+000 8.305172e+000 2.658193e+001 4.395589e+001 1.324654e+001 2.276715e+001 1.212745e+001 1.038714e+001 7.170831e+000 1.656269e+001 1.525868e+001 3.054791e+000 2.981801e-001 3.047408e-001 3.955114e-001 1.101033e+000 4.151224e+000 7.379640e-001 1.867929e+000 8.763376e-001 2.166080e-001 1.194938e+000 6.026869e-001 6.577764e-001 4.927617e-002 1.838567e-002 1.434222e-001 1.582393e-001 7.443631e-002 2.582617e-001 1.427868e-001 3.853087e-001 1.479684e-001 7.707817e-002 3.749092e-001 1.730465e-001 1.543368e-001 4.124903e-002
<GCONST> 6.822380e+001
<STATE> 3
<MEAN> 39
 3.181589e-002 -1.358105e+000 -9.734633e+000 5.091260e+000 2.432545e+000 -8.585958e+000 1.465747e+000 1.249601e+001 2.846088e+000 -3.433573e+000 -2.666598e+000 -9.144881e+000 7.194230e+001 -8.703436e-001 7.599084e-001 1.124081e+000 9.777755e-001 4.817053e-001 1.459741e+000 2.588521e-001 -5.731501e-001 3.051437e-001 2.210783e-001 -1.698797e-001 -1.254370e+000 -9.271404e-001 -1.272356e-001 2.612779e-001 2.414097e-001 -1.034529e-001 -1.385940e-001 2.936420e-001 1.128732e-001 -2.991998e-001 -2.381155e-001 -6.066927e-002 2.785372e-001 2.185421e-001 -1.288164e-001
<VARIANCE> 39
 2.066567e+000 5.329482e+000 7.774753e+000 8.266477e+001 5.112821e+000 6.074349e+000 4.469293e+000 2.189582e+001 3.940967e+000 1.657420e+001 2.608190e+000 2.687183e+001 1.683569e+000 1.938186e-001 1.709066e+000 1.244529e+000 9.898508e-001 2.832797e+000 1.011337e+000 5.210537e-001 1.208716e+000 1.667561e-001 5.585905e-001 1.744282e+000 1.643692e+000 6.707159e-001 9.404004e-002 9.599137e-002 1.943818e-001 2.640108e-001 5.044826e-001 3.057075e-001 1.080578e-001 9.293748e-002 5.754282e-002 1.396856e-001 1.979843e-001 2.146340e-001 8.822504e-002
<GCONST> 7.092818e+001
<STATE> 4
<MEAN> 39
 -3.663514e+000 2.764412e+000 -6.857627e+000 3.840186e+000 2.591838e+000 -9.756147e-001 3.164608e+000 7.289947e+000 2.465374e+000 -1.470577e+000 -2.690079e+000 -7.811080e+000 6.786707e+001 -1.514642e+000 1.460841e+000 1.915359e+000 7.639483e-001 8.746301e-001 1.919262e+000 1.762394e-001 -9.553174e-001 -2.258088e-001 1.969919e-001 -2.656049e-001 -5.760423e-001 -1.511388e+000 -2.142655e-001 -1.641823e-002 1.503226e-001 -2.694039e-002 3.760843e-002 4.772249e-003 1.495394e-001 8.012249e-002 -8.495970e-002 -5.317610e-002 1.108186e-001 2.781678e-001 -6.222607e-002
<VARIANCE> 39
 4.818802e+000 1.163706e+001 9.210003e+000 2.969529e+001 9.525951e+000 1.760686e+001 8.403429e+000 1.385226e+001 7.386794e+000 7.988952e+000 4.975705e+000 9.765513e+000 2.338504e+000 4.170399e-001 1.248388e+000 1.775291e+000 1.604808e+000 1.021717e+000 3.554319e+000 3.718196e-001 1.095813e+000 6.779431e-001 5.328890e-001 1.016364e+000 2.498029e+000 6.611584e-001 7.381231e-002 1.601719e-001 8.594629e-002 1.196601e-001 3.916504e-001 4.825014e-001 1.038817e-001 1.339435e-001 1.563676e-001 2.827388e-001 2.995276e-001 9.691221e-002 6.937094e-002
<GCONST> 7.600874e+001
<TRANSP> 5
 0.000000e+000 1.000000e+000 0.000000e+000 0.000000e+000 0.000000e+000
 0.000000e+000 6.664063e-001 3.335937e-001 0.000000e+000 0.000000e+000
 0.000000e+000 0.000000e+000 6.006449e-001 3.993551e-001 0.000000e+000
 0.000000e+000 0.000000e+000 0.000000e+000 6.915092e-001 3.084908e-001
 0.000000e+000 0.000000e+000 0.000000e+000 0.000000e+000 0.000000e+000
<ENDHMM>
~h "ih"
<BEGINHMM>
<NUMSTATES> 5
<STATE> 2
<MEAN> 39
 -1.256884e+001 5.490195e+000 1.334615e+000 5.239682e+000 2.879484e+000 -7.723364e-002 2.570606e+000 4.190483e+000 5.637140e+000 4.371874e-002 1.142212e+000 -7.143952e-001 6.304956e+001 2.383752e+000 -8.708235e-001 -1.426360e+000 -1.183858e+000 -2.173251e+000 -3.083367e+000 -8.672712e-001 3.763824e-001 3.550783e-001 -1.455225e+000 -4.790428e-001 -5.448584e-002 2.416975e+000 1.101083e+000 -3.596937e-001 -8.206338e-001 -2.408547e-001 -5.240059e-001 -1.156788e+000 -4.110182e-001 4.498005e-001 2.931235e-001 -1.717289e-001 -3.336008e-001 -4.326608e-001 8.469599e-001
<VARIANCE> 39
 5.638358e+001 9.621181e+000 3.388486e+000 7.349926e+000 2.535858e+001 6.175159e+001 3.388206e+001 2.150077e+001 4.583053e+001 5.662677e+001 9.978106e+000 1.822770e+001 4.691021e+001 8.387183e+000 1.737176e+000 4.867028e+000 1.058170e+000 4.390853e+000 1.150955e+001 2.524004e+000 3.976912e+000 1.892520e+000 2.095264e+000 1.786971e+000 2.869157e+000 6.382498e+000 8.949546e-001 2.207814e-001 3.738540e-001 2.566840e-001 7.105812e-001 1.452565e+000 6.576678e-001 8.224414e-001 6.110862e-001 9.547544e-001 3.200190e-001 3.246680e-001 8.488561e-001
<GCONST> 1.199461e+002
<STATE> 3
<MEAN> 39
 2.796875e+000 6.934112e-001 -8.545206e+000 1.015162e+000 -5.160022e+000 -1.757256e+001 -3.332939e+000 1.142320e+001 6.809462e+000 -6.896204e+000 -2.114620e+000 -3.154517e+000 7.536635e+001 2.071212e+000 -1.225630e+000 -2.393030e+000 -7.828389e-001 -1.673388e+000 -1.840548e+000 2.900494e-001 1.331731e+000 8.142276e-001 1.022609e-002 -2.962323e-001 -2.358042e-001 1.371120e+000 -9.833182e-001 2.611733e-001 4.966866e-001 3.278987e-001 7.107748e-001 1.339583e+000 5.174616e-001 -6.803530e-001 -4.183146e-001 4.999465e-001 2.520855e-001 2.928244e-001 -8.295401e-001
<VARIANCE> 39
 8.847112e+000 3.461509e+001 6.952971e+001 2.065156e+001 5.902179e+001 3.620337e+001 2.946370e+001 3.526591e+001 8.496133e+001 4.537796e+001 1.977559e+001 1.263392e+001 6.947048e+000 5.271183e+000 3.101759e+000 5.773789e+000 1.874034e+000 3.557808e+000 6.952960e+000 1.300675e+000 4.830075e+000 3.701710e+000 2.145246e+000 1.260791e+000 7.355118e-001 2.862153e+000 7.142509e-001 3.323931e-001 8.849494e-001 1.101812e-001 3.836306e-001 1.320803e+000 3.927452e-001 2.958265e-001 6.217756e-001 3.526189e-001 2.625918e-001 8.282414e-002 4.961652e-001
<GCONST> 1.156257e+002
<STATE> 4
<MEAN> 39
 3.085967e+000 -3.568611e+000 -1.441060e+001 -9.210548e-001 -9.896484e+000 -1.467421e+001 4.119771e+000 1.242462e+001 4.029019e+000 -2.472188e+000 1.258981e-001 -1.313414e+000 7.537003e+001 -5.509008e-001 4.526869e-001 3.604291e-001 -2.403426e-001 1.987689e-001 6.866532e-001 3.530427e-001 -7.779729e-001 -5.043922e-001 3.425357e-001 3.113559e-002 7.312692e-001 -5.334518e-001 -2.961790e-001 2.356604e-001 3.751318e-001 1.175708e-001 1.653107e-001 8.827410e-002 -2.042980e-001 -1.754299e-001 -6.294323e-002 -1.144617e-001 6.763707e-002 1.450819e-001 -2.191430e-001
<VARIANCE> 39
 1.238832e+001 3.405442e+001 3.762928e+001 2.931951e+001 3.870565e+001 3.264945e+001 2.319178e+001 4.563959e+001 3.260485e+001 2.702506e+001 1.385220e+001 1.757943e+001 1.393389e+001 5.291841e-001 5.738695e-001 1.340654e+000 4.492189e-001 7.660618e-001 1.630674e+000 8.600550e-001 1.022595e+000 1.969672e+000 5.791753e-001 5.991597e-001 6.233699e-001 4.414870e-001 1.490158e-001 1.710097e-001 2.579716e-001 1.085930e-001 1.824983e-001 2.618449e-001 1.208065e-001 2.070933e-001 2.281724e-001 2.494540e-001 1.739480e-001 1.577346e-001 1.008278e-001
<GCONST> 8.773928e+001
<TRANSP> 5
 0.000000e+000 1.000000e+000 0.000000e+000 0.000000e+000 0.000000e+000
 0.000000e+000 6.505565e-001 3.494435e-001 0.000000e+000 0.000000e+000
 0.000000e+000 0.000000e+000 5.800354e-001 4.199645e-001 0.000000e+000
 0.000000e+000 0.000000e+000 0.000000e+000 7.680985e-001 2.319015e-001
 0.000000e+000 0.000000e+000 0.000000e+000 0.000000e+000 0.000000e+000
<ENDHMM>
~h "iy"
<BEGINHMM>
<NUMSTATES> 5
<STATE> 2
<MEAN> 39
 -5.245093e+000 6.348418e+000 2.409641e+000 1.223876e+001 1.124506e+001 -3.032100e+000 -7.589404e+000 -2.993565e+000 -9.743201e-001 -3.868579e+000 -4.185194e+000 -8.488618e+000 6.826211e+001 -1.045871e-001 -5.325032e-001 7.012807e-002 2.792538e-001 4.455568e-001 -7.744452e-001 -8.541334e-002 -4.616583e-001 -1.130664e+000 -4.044759e-001 1.083857e+000 4.497991e-001 4.772111e-001 1.055353e-001 2.371858e-002 -1.791219e-001 -1.128791e-001 -2.762149e-001 -1.555551e-001 5.181455e-002 2.711309e-002 -2.792898e-001 -1.163602e-001 2.613855e-001 2.107669e-001 6.005374e-002
<VARIANCE> 39
 4.221129e+000 6.388895e+001 2.190384e+001 5.034527e+001 2.736495e+001 4.138641e+001 3.850985e+001 1.514688e+001 1.920309e+001 1.382386e+001 2.696945e+001 2.451683e+001 2.410415e+001 1.488835e-001 3.187720e+000 7.399856e-001 3.088115e+000 1.319062e+000 5.052622e+000 1.970575e+000 2.157823e-001 1.381175e+000 1.695541e+000 1.360901e+000 1.008127e+000 1.381973e+000 2.908336e-002 5.464224e-001 1.129406e-001 5.752521e-001 2.605713e-001 8.929235e-001 5.176363e-001 6.368419e-002 2.417763e-001 8.094710e-002 2.620164e-001 2.330437e-001 2.394421e-001
<GCONST> 9.564713e+001
<STATE> 3
<MEAN> 39
 -2.446753e+000 -8.446639e-001 -2.176633e+000 1.281558e+001 1.008488e+001 -9.164676e+000 -5.974614e+000 -3.740365e+000 -9.486086e+000 -1.089989e+001 1.729223e+000 -1.633411e-001 7.361590e+001 6.300333e-001 -3.370836e-002 -1.009236e+000 -1.023751e+000 -1.262956e+000 -4.355827e-001 7.670323e-001 6.399699e-001 -8.392267e-001 -6.771638e-001 2.536916e-002 7.977346e-001 2.355906e-001 7.522389e-002 -4.470204e-002 -9.134873e-002 2.210378e-003 -3.941694e-002 -2.480649e-001 -2.966567e-001 3.088261e-001 5.817230e-001 8.774207e-004 -3.802646e-002 -1.535134e-002 3.586587e-002
<VARIANCE> 39
 3.896766e+000 8.313603e+000 1.116722e+001 4.373593e+001 3.674081e+001 2.295106e+001 2.561434e+001 4.206953e+001 2.997401e+001 4.369326e+001 5.008073e+001 1.048042e+001 3.128392e+000 3.828970e-001 2.016972e+000 1.046813e+000 2.845191e+000 1.498859e+000 6.823573e+000 3.489514e+000 3.006853e+000 3.550301e+000 1.328468e+000 3.783946e+000 9.547669e-001 1.056033e+000 6.035017e-002 2.949350e-001 1.655036e-001 5.173487e-001 1.859495e-001 1.362239e+000 5.225037e-001 6.585444e-001 2.981469e-001 3.473084e-001 6.458645e-001 2.194376e-001 2.057455e-001
<GCONST> 1.033170e+002
<STATE> 4
<MEAN> 39
 1.553575e+000 -4.078566e+000 -1.060039e+001 3.428958e+000 3.377644e-001 -1.437205e+001 -2.625152e+000 3.508319e+000 -4.253957e+000 -7.717656e+000 5.480491e+000 7.403525e+000 7.622775e+001 -1.033458e-001 1.080244e-001 -2.215988e-001 -5.256752e-001 -9.049975e-001 2.829086e-001 6.910064e-001 3.961155e-001 4.773646e-001 9.901214e-001 6.532292e-001 2.036318e-001 -3.424561e-001 -2.156265e-001 1.961078e-001 3.790590e-001 2.485633e-001 2.072152e-001 4.427404e-001 -1.134634e-002 -2.111173e-001 -7.617842e-002 -3.971548e-002 -1.931284e-001 -2.990952e-001 -2.421446e-001
<VARIANCE> 39
 1.356968e+000 1.506743e+001 1.515289e+001 3.348520e+001 4.159696e+001 2.159061e+001 3.778026e+001 3.553430e+001 1.603278e+001 4.172920e+001 7.706799e+001 1.618010e+001 4.281760e+000 4.041639e-001 1.038196e+000 1.753420e+000 2.867754e+000 2.742327e+000 2.623210e+000 4.238953e+000 3.224941e+000 1.134834e+000 2.405729e+000 4.524933e+000 3.182998e+000 7.076820e-001 1.727140e-002 6.433102e-002 1.043639e-001 3.839753e-001 4.635956e-001 4.352079e-001 8.461787e-001 4.981333e-001 2.209579e-001 6.282716e-001 8.678463e-001 3.739363e-001 2.454546e-002
<GCONST> 9.938535e+001
<TRANSP> 5
 0.000000e+000 1.000000e+000 0.000000e+000 0.000000e+000 0.000000e+000
 0.000000e+000 7.738879e-001 2.261121e-001 0.000000e+000 0.000000e+000
 0.000000e+000 0.000000e+000 8.075355e-001 1.924646e-001 0.000000e+000
 0.000000e+000 0.000000e+000 0.000000e+000 8.716044e-001 1.283955e-001
 0.000000e+000 0.000000e+000 0.000000e+000 0.000000e+000 0.000000e+000
<ENDHMM>
~h "jh"
<BEGINHMM>
<NUMSTATES> 5
<STATE> 2
<MEAN> 39
 -2.525811e-001 1.280352e+000 -4.541503e+000 1.183787e+001 8.486944e+000 -6.452264e+000 -6.673915e+000 -2.533490e+000 -2.237710e+000 -1.891835e+000 -2.192516e+000 -5.580490e+000 7.152305e+001 2.161721e-001 -3.408072e-001 -2.770057e-001 -3.627586e-001 -1.016724e-001 -1.827538e-001 1.709377e-001 2.417181e-001 -4.314096e-001 -1.890613e-001 2.527215e-002 -4.319035e-003 3.238694e-001 1.953222e-003 -7.403521e-003 -1.944293e-001 -4.481419e-001 -2.162642e-001 -3.473838e-002 4.172962e-001 2.667461e-001 -2.964565e-001 -2.057382e-001 2.248635e-001 2.546200e-001 8.662166e-002
<VARIANCE> 39
 7.076837e-001 3.599132e+000 2.576794e+000 5.655753e+000 4.749510e+001 4.694184e+000 3.787920e+001 2.771445e+001 1.955316e+001 2.685538e+001 2.197949e+001 5.610288e+000 1.171306e+000 3.307049e-001 4.573996e-001 7.110577e-001 6.360765e-001 1.235685e+000 1.250142e+000 8.114326e-001 2.130847e+000 5.764610e-001 5.211399e-001 1.773252e+000 1.668230e-001 1.994897e-001 3.284969e-002 5.503603e-002 1.078116e-001 1.359036e-001 2.256099e-001 2.254032e-001 1.577433e-001 1.443677e-001 1.006351e-001 1.226654e-001 3.504238e-001 1.703178e-001 5.337007e-002
<GCONST> 6.571529e+001
<STATE> 3
<MEAN> 39
 5.976578e-001 -1.002502e+000 -7.834616e+000 5.254394e+000 4.816984e+000 -8.722334e+000 -9.640409e-001 8.508164e-001 -6.916110e+000 -5.169280e+000 2.640613e+000 -3.818425e+000 7.478445e+001 8.527471e-001 -1.085547e+000 -2.376092e+000 -3.183633e+000 -2.692512e+000 -2.057362e+000 3.061587e+000 2.932330e+000 -1.696376e+000 -2.033811e-001 3.173030e+000 2.248836e+000 1.622598e+000 1.033865e-002 -5.331918e-002 -1.527520e-001 -5.794741e-002 -5.274804e-002 5.563102e-002 3.209128e-002 3.563469e-001 5.556746e-001 -6.550290e-002 -1.736248e-001 3.887186e-001 -3.428417e-002
<VARIANCE> 39
 1.879750e+000 1.608057e+001 7.721960e+000 2.105428e+001 6.815663e+001 1.874611e+001 3.614060e+001 3.867505e+001 1.484121e+001 3.442491e+001 1.045380e+002 1.476709e+001 8.339696e+000 3.648568e-001 9.705534e-001 2.788587e-001 2.704997e+000 2.415361e+000 4.119763e-001 2.361610e-001 4.027285e+000 3.604488e-001 8.196742e-001 3.015386e+000 6.327290e-001 1.446173e-001 9.089381e-002 1.210913e-001 2.798964e-001 4.295939e-001 5.524709e-001 6.797357e-001 2.777492e-001 5.200631e-001 2.028338e-001 1.336656e-001 1.246122e+000 2.805447e-001 1.353019e-001
<GCONST> 9.018884e+001
<STATE> 4
<MEAN> 39
 2.969776e+000 -4.301180e+000 -1.286762e+001 5.188369e-001 -5.933867e+000 -1.157863e+001 6.128057e+000 1.073567e+001 -9.801711e+000 -7.388579e+000 1.120528e+001 2.994363e+000 7.736121e+001 3.284678e-001 -3.029019e-001 -6.604925e-001 -9.996677e-001 -9.402872e-001 4.469812e-003 1.348458e+000 1.301435e+000 4.651429e-001 -3.995336e-001 -4.469928e-001 4.230159e-001 8.770646e-002 -1.602778e-001 2.706055e-001 3.779326e-001 2.799427e-001 2.970064e-001 2.659376e-001 -3.741391e-001 -4.508289e-001 4.166391e-001 2.953623e-002 -5.082394e-001 -3.556881e-001 -2.704273e-001
<VARIANCE> 39
 1.344152e+000 9.429182e+000 4.996657e+000 2.822899e+001 3.973824e+001 1.590126e+001 1.846586e+001 7.668792e+000 1.072587e+001 1.349871e+001 2.293538e+001 5.625526e+000 1.214487e+000 1.316521e-001 5.769231e-001 9.063303e-001 1.614978e+000 5.505074e-001 9.777046e-001 8.569250e-001 2.410997e+000 7.333271e-001 9.095193e-001 1.719311e+000 1.842812e+000 4.144996e-001 3.611056e-002 9.082656e-002 5.105384e-002 2.465694e-001 1.913868e-001 3.283975e-001 1.435906e-001 3.536178e-001 3.386863e-001 2.187093e-001 5.324323e-001 1.501388e-001 5.825965e-002
<GCONST> 7.455999e+001
<TRANSP> 5
 0.000000e+000 1.000000e+000 0.000000e+000 0.000000e+000 0.000000e+000
 0.000000e+000 8.399531e-001 1.600469e-001 0.000000e+000 0.000000e+000
 0.000000e+000 0.000000e+000 5.336424e-001 4.663576e-001 0.000000e+000
 0.000000e+000 0.000000e+000 0.000000e+000 7.229275e-001 2.770725e-001
 0.000000e+000 0.000000e+000 0.000000e+000 0.000000e+000 0.000000e+000
<ENDHMM>
~h "ow"
<BEGINHMM>
<NUMSTATES> 5
<STATE> 2
<MEAN> 39
 1.351258e-001 1.837119e+000 -5.279060e+000 4.370800e+000 3.370214e+000 -9.749698e+000 -2.881646e+000 1.966386e-001 -2.289011e+000 -8.444312e+000 -4.969680e-001 7.895649e-001 7.472430e+001 1.943642e+000 -1.663429e+000 -2.974645e+000 -2.500958e+000 -2.941496e+000 -4.244328e+000 2.638640e+000 3.218157e+000 -9.951571e-001 -2.358961e+000 2.785829e+000 3.284319e+000 2.260932e+000 -1.725989e-001 4.027006e-001 1.348353e-001 2.502548e-002 -3.457328e-001 -1.215600e-001 1.005502e-001 9.318876e-001 5.570345e-001 4.837796e-001 -1.395242e-002 -4.674385e-001 -4.887554e-001
<VARIANCE> 39
 7.682598e+000 1.729157e+001 3.927109e+001 1.946878e+001 5.701748e+001 3.622907e+001 4.138632e+001 3.813737e+001 3.914927e+001 2.612420e+001 4.058421e+001 3.952946e+001 1.058980e+001 6.200550e-001 9.132495e-001 6.700687e-001 3.271261e-001 7.534047e-001 2.480764e+000 5.758018e-001 5.695152e+000 4.329954e+000 3.693737e+000 2.954443e+000 3.367240e+000 6.857856e-001 1.891281e-001 1.611975e-001 3.970494e-001 1.352729e-001 2.873175e-001 7.593477e-001 4.659604e-001 6.074796e-001 6.890384e-001 6.551016e-001 9.053900e-001 1.283872e+000 3.461969e-001
<GCONST> 1.083877e+002
<STATE> 3
<MEAN> 39
 3.900084e+000 5.284513e-001 -1.159686e+001 -1.051747e+000 -4.270164e+000 -1.873866e+001 2.662521e+000 1.151551e+001 -1.357710e+000 -1.210996e+001 4.281788e+000 3.858577e+000 7.798429e+001 7.833484e-001 1.251833e-001 -8.129594e-001 -1.133980e+000 -2.184300e+000 -1.684536e+000 2.179333e-001 2.664132e+000 1.334137e+000 1.080249e+000 2.943727e-001 -1.052090e+000 2.597237e-001 -4.016766e-001 3.322601e-001 7.524542e-001 5.711127e-001 5.057119e-001 7.707176e-001 -1.014355e+000 -6.036926e-001 2.206632e-001 9.825841e-001 -6.062949e-001 -7.966909e-001 -4.943133e-001
<VARIANCE> 39
 1.197429e+000 1.303572e+001 4.449882e+000 2.203568e+001 3.358659e+001 1.185734e+001 9.704736e+000 6.048971e+000 3.667289e+001 1.341236e+001 2.694229e+001 2.373438e+001 1.090301e+000 3.244234e-001 2.150025e-001 1.489073e+000 4.464673e-001 1.116754e+000 1.033378e+000 3.812868e+000 1.248725e+000 1.308702e+000 2.429133e+000 1.098183e+000 3.888111e+000 1.833268e-001 4.980030e-002 1.397308e-001 1.395446e-001 3.048922e-002 4.254137e-002 4.944476e-001 1.342743e-001 4.011856e-001 4.842426e-001 2.877529e-001 2.586424e-001 7.467826e-001 5.691587e-002
<GCONST> 7.766825e+001
<STATE> 4
<MEAN> 39
 4.025788e+000 1.261483e+000 -7.158493e+000 1.668171e+000 -1.165730e+001 -2.549254e+001 -4.053727e+000 1.834190e+001 1.603151e+000 -5.250278e+000 3.955237e+000 -4.287223e-001 7.566864e+001 -1.806857e-001 3.536495e-001 4.439486e-001 2.148194e-001 -3.487660e-001 -2.917629e-001 -4.338508e-001 1.503881e-002 2.776724e-001 3.674539e-001 -3.159082e-001 -8.093522e-002 -4.595668e-001 -1.111902e-001 1.175156e-001 9.422326e-002 -8.868366e-003 1.146057e-001 2.369561e-001 7.932236e-002 -2.806960e-001 -7.803864e-002 -8.297969e-002 -1.295296e-002 5.810331e-002 -8.587553e-002
<VARIANCE> 39
 2.223526e+000 6.943259e+000 1.936156e+001 2.918058e+001 1.920335e+001 2.758763e+001 2.858259e+001 1.365542e+001 2.174630e+001 1.556595e+001 1.629721e+001 7.371010e+000 3.618927e+000 1.276227e-001 5.953730e-001 5.106319e-001 4.596883e-001 7.174042e-001 1.272574e+000 1.306406e+000 1.363701e+000 4.084159e-001 1.869106e+000 6.671979e-001 7.964017e-001 1.520859e-001 1.367419e-002 3.900488e-002 8.299348e-002 7.252777e-002 3.648722e-002 8.615109e-002 1.864678e-001 9.143104e-002 7.649121e-002 1.962151e-001 1.274272e-001 1.953053e-001 1.004756e-002
<GCONST> 6.358756e+001
<TRANSP> 5
 0.000000e+000 1.000000e+000 0.000000e+000 0.000000e+000 0.000000e+000
 0.000000e+000 5.998183e-001 4.001816e-001 0.000000e+000 0.000000e+000
 0.000000e+000 0.000000e+000 6.235773e-001 3.764227e-001 0.000000e+000
 0.000000e+000 0.000000e+000 0.000000e+000 9.189401e-001 8.105988e-002
 0.000000e+000 0.000000e+000 0.000000e+000 0.000000e+000 0.000000e+000
<ENDHMM>
~h "sp"
<BEGINHMM>
<NUMSTATES> 5
<STATE> 2
~s "silst"
<STATE> 3
<MEAN> 39
 -1.964306e+001 4.224531e+000 8.408689e-001 5.011397e+000 4.830282e+000 6.145368e+000 6.951197e+000 5.701727e+000 7.139583e+000 6.492245e+000 6.088840e+000 4.595460e+000 5.697247e+001 7.005399e-002 1.435955e-002 -4.096438e-002 1.542572e-002 1.671951e-001 -5.184814e-002 4.222780e-002 -3.463269e-001 1.080244e-001 2.509844e-001 -1.066804e-003 -2.354688e-001 1.344163e-001 1.885074e-001 6.464083e-002 1.232786e-001 2.175877e-001 1.006203e-001 -1.637856e-001 -2.263905e-001 -1.897713e-001 -6.565386e-002 -1.111422e-001 -9.408046e-002 -1.460114e-001 1.355348e-001
<VARIANCE> 39
 8.668805e-001 6.341488e-001 1.698632e+000 1.670048e+000 4.095193e+000 2.206604e+000 5.399984e+000 3.170172e+000 2.787025e+000 2.890908e+000 2.706706e+000 1.098804e+001 5.072046e-001 8.429394e-002 4.088638e-002 2.944607e-001 1.385868e-001 3.810153e-001 3.971437e-001 8.857810e-001 6.251662e-001 7.829741e-001 1.761740e-001 1.450198e-001 7.708606e-001 3.984425e-002 6.097297e-002 5.488580e-002 7.648270e-002 1.005089e-001 9.515211e-002 5.673302e-002 1.579979e-001 5.928010e-002 2.826039e-001 1.390732e-001 1.045248e-001 2.637374e-001 2.455134e-002
<GCONST> 3.222480e+001
<STATE> 4
<MEAN> 39
 -1.940997e+001 3.980444e+000 4.782157e-001 5.108464e+000 5.562786e+000 6.758839e+000 6.709618e+000 5.916574e+000 7.358741e+000 6.002768e+000 4.768368e+000 4.367640e+000 5.716114e+001 5.397835e-001 4.663450e-001 6.939513e-001 7.810873e-001 4.558973e-001 -2.950864e-001 -1.063655e-001 -3.582588e-001 -4.287421e-001 -5.916183e-001 -5.616258e-001 -8.126934e-001 3.585946e-001 5.553335e-001 2.129520e-001 1.911585e-001 2.348495e-001 9.144524e-002 -2.686606e-001 -6.246361e-001 -1.770521e-001 -3.073181e-001 -3.221233e-001 -3.631773e-001 -4.553587e-001 3.755611e-001
<VARIANCE> 39
 9.508356e-001 4.636592e-001 1.434718e+000 1.017674e+000 6.000767e+000 2.754389e+000 6.412381e+000 9.354379e+000 5.493351e+000 1.907320e+000 5.904084e+000 5.605838e+000 5.164707e-001 5.704700e-001 8.001292e-001 5.652442e-001 8.323392e-001 5.905924e-001 4.611663e-001 9.164029e-001 8.538651e-001 1.650503e+000 1.201900e+000 1.274343e+000 1.033629e+000 2.637984e-001 2.526819e-001 1.103596e-001 4.974440e-002 7.101256e-002 9.543593e-002 1.704172e-001 2.933607e-001 5.286443e-002 3.650955e-001 1.809251e-001 2.591859e-001 3.389618e-001 1.262090e-001
<GCONST> 5.513779e+001
<TRANSP> 5
 0.000000e+000 7.000000e-001 3.000000e-001 0.000000e+000 0.000000e+000
 0.000000e+000 7.581326e-001 2.418675e-001 0.000000e+000 0.000000e+000
 0.000000e+000 0.000000e+000 5.583163e-001 4.416837e-001 0.000000e+000
 0.000000e+000 0.000000e+000 0.000000e+000 1.134596e-001 8.865404e-001
 0.000000e+000 0.000000e+000 0.000000e+000 0.000000e+000 0.000000e+000
<ENDHMM>
~h "uh"
<BEGINHMM>
<NUMSTATES> 5
<STATE> 2
<MEAN> 39
 -4.720211e+000 -1.916022e+000 -7.525893e+000 2.191710e+000 6.356442e-001 -7.756979e+000 3.721821e+000 2.347193e+000 -1.429165e+000 -3.165072e+000 5.095751e+000 4.234421e+000 7.192158e+001 3.122910e+000 -9.415947e-001 -1.505713e+000 8.379478e-001 -2.976486e-001 -2.560723e+000 -7.011704e-001 -5.666356e-001 -1.983401e+000 -2.743176e+000 -8.881623e-001 -6.258860e-001 2.501676e+000 -2.923985e-001 4.485791e-001 4.815880e-001 5.526216e-002 4.862427e-002 2.731261e-001 -2.991483e-001 1.807817e-001 1.990899e-001 1.967325e-001 -2.253225e-001 -4.709756e-001 -4.170577e-001
<VARIANCE> 39
 5.508585e+001 2.513537e+001 3.724441e+001 3.736278e+001 5.442988e+001 4.100975e+001 4.879548e+001 5.155743e+001 4.770256e+001 4.299461e+001 2.440282e+001 1.198389e+001 3.630964e+001 4.147620e+000 2.337530e+000 3.440855e+000 3.090120e+000 3.367184e+000 4.377523e+000 3.194913e+000 5.850476e+000 8.043814e+000 6.239768e+000 1.751937e+000 2.104503e+000 2.819905e+000 1.159793e+000 8.312511e-001 5.530529e-001 5.239244e-001 4.381583e-001 1.200160e+000 6.725296e-001 9.314031e-001 9.452727e-001 1.076685e+000 6.832454e-001 2.745546e-001 4.852875e-001
<GCONST> 1.303328e+002
<STATE> 3
<MEAN> 39
 9.962739e-001 -1.041903e+000 -9.445867e+000 2.924925e+000 2.320510e+000 -8.982505e+000 2.454495e-002 1.632766e+000 -3.788262e+000 -7.289722e+000 1.611016e+000 1.840193e+000 7.472398e+001 1.178966e+000 1.041949e-001 -2.078698e-001 5.685486e-001 -3.597513e-001 -2.448470e-001 -6.252949e-001 6.496781e-002 1.583001e-001 7.885151e-002 -1.160221e+000 -1.523279e+000 3.451368e-001 -8.206078e-001 2.770247e-001 5.702176e-001 -6.433292e-002 4.433473e-002 4.153540e-001 -3.444424e-002 1.125283e-001 6.603501e-001 8.606877e-001 1.214035e-001 -2.460260e-001 -6.356100e-001
<VARIANCE> 39
 1.363322e+001 2.702324e+001 3.513111e+001 4.603033e+001 9.766337e+001 3.249771e+001 6.323746e+001 8.161053e+001 3.222960e+001 2.092186e+001 2.275170e+001 1.921367e+001 1.552745e+001 2.213595e+000 5.455933e+000 4.717862e+000 1.617092e+000 1.964573e+000 5.935967e+000 2.557959e+000 2.368084e+000 4.086792e+000 5.790382e+000 5.268659e+000 4.242917e+000 1.552390e+000 7.209006e-001 2.962499e-001 5.785571e-001 2.210477e-001 5.652471e-001 1.302353e+000 3.461308e-001 1.151661e+000 6.844039e-001 6.209776e-001 4.633408e-001 4.853178e-001 3.081574e-001
<GCONST> 1.240631e+002
<STATE> 4
<MEAN> 39
 2.877845e+000 -2.670399e+000 -1.146141e+001 2.229441e+000 -1.491569e+000 -1.231473e+001 1.026287e+000 2.507042e+000 -4.086557e+000 -5.964026e+000 2.133927e+000 9.895340e-001 7.643094e+001 1.149507e-001 6.472051e-001 1.644106e-001 2.532240e-001 -1.157857e-001 -5.160676e-001 -6.097105e-001 1.716088e-001 8.472406e-003 -2.517609e-001 -3.746529e-001 -3.918510e-001 -3.242668e-001 -6.826447e-001 5.198053e-001 6.019230e-001 -1.489655e-001 1.158334e-001 4.691975e-001 -3.008061e-003 -7.403407e-002 1.421724e-001 3.106678e-001 1.260441e-002 4.178993e-002 -5.778111e-001
<VARIANCE> 39
 9.549966e+000 2.017407e+001 3.580241e+001 3.774310e+001 8.008389e+001 1.891257e+001 5.556413e+001 6.918296e+001 6.800085e+001 3.303208e+001 1.961831e+001 1.783313e+001 1.163449e+001 9.528488e-001 1.814396e+000 1.582364e+000 5.634550e-001 1.263569e+000 2.105460e+000 9.966022e-001 2.032903e+000 1.711088e+000 1.968286e+000 2.378911e+000 1.506745e+000 5.889538e-001 3.438027e-001 3.418319e-001 4.128211e-001 1.813882e-001 3.022302e-001 3.842143e-001 2.694596e-001 4.511492e-001 5.676063e-001 5.969390e-001 1.897223e-001 2.869300e-001 2.210578e-001
<GCONST> 1.053357e+002
<TRANSP> 5
 0.000000e+000 1.000000e+000 0.000000e+000 0.000000e+000 0.000000e+000
 0.000000e+000 2.974445e-001 7.025556e-001 0.000000e+000 0.000000e+000
 0.000000e+000 0.000000e+000 1.713764e-001 8.286235e-001 0.000000e+000
 0.000000e+000 0.000000e+000 0.000000e+000 5.406002e-001 4.593998e-001
 0.000000e+000 0.000000e+000 0.000000e+000 0.000000e+000 0.000000e+000
<ENDHMM>
~h "sil"
<BEGINHMM>
<NUMSTATES> 5
<STATE> 2
<MEAN> 39
 -1.932084e+001 4.525016e+000 1.361200e+000 5.729409e+000 5.031155e+000 5.953917e+000 6.145995e+000 6.823162e+000 7.250241e+000 6.106574e+000 6.119488e+000 5.007570e+000 5.705038e+001 -2.402779e-001 -1.693450e-001 -8.080840e-002 -5.979575e-002 1.955668e-002 2.193648e-002 1.020358e-001 1.451036e-001 1.256979e-001 3.429095e-001 2.972665e-001 2.108154e-001 -1.091416e-001 8.560361e-002 4.109843e-002 -2.299287e-002 -2.739197e-002 -6.747171e-002 -7.508118e-004 7.495128e-003 -1.166895e-001 -6.162318e-002 -1.268257e-001 -1.402214e-001 -7.741551e-002 5.331169e-002
<VARIANCE> 39
 1.290880e+000 1.973648e+000 2.385798e+000 3.010586e+000 3.271886e+000 3.271067e+000 4.507650e+000 4.385964e+000 4.438015e+000 6.658325e+000 4.587733e+000 6.212350e+000 5.072046e-001 1.587170e-001 1.748271e-001 2.926562e-001 3.090769e-001 4.340180e-001 2.930515e-001 4.918447e-001 4.628656e-001 8.145700e-001 1.079724e+000 6.029097e-001 5.421876e-001 4.478863e-002 7.182753e-003 1.114164e-002 3.220999e-002 4.613662e-002 8.204677e-002 5.982875e-002 9.492821e-002 9.475573e-002 8.138892e-002 1.370065e-001 1.151510e-001 9.723801e-002 3.323449e-003
<GCONST> 3.144640e+001
<STATE> 3
~s "silst"
<STATE> 4
<MEAN> 39
 -1.948295e+001 4.033669e+000 4.405178e-001 4.939535e+000 5.177589e+000 6.299878e+000 6.485972e+000 5.536448e+000 7.600801e+000 6.759095e+000 5.482082e+000 4.623576e+000 5.712936e+001 3.405097e-001 2.773441e-001 4.634842e-001 5.217317e-001 4.687317e-001 -2.145187e-001 -2.161823e-003 -4.934059e-001 -1.667616e-002 -3.173364e-001 -3.604515e-001 -5.986789e-001 3.109191e-001 5.137362e-001 2.149110e-001 2.781914e-001 3.807024e-001 1.567706e-001 -2.439250e-001 -5.109848e-001 -2.084534e-001 -4.025015e-001 -3.998215e-001 -3.702938e-001 -4.987513e-001 3.541443e-001
<VARIANCE> 39
 1.439042e+000 4.238837e-001 1.930957e+000 1.648361e+000 5.401273e+000 2.917716e+000 6.998237e+000 7.613958e+000 4.639503e+000 2.593191e+000 5.974413e+000 7.185812e+000 5.072046e-001 4.544999e-001 5.763330e-001 6.674179e-001 6.568130e-001 5.473637e-001 5.151565e-001 8.115738e-001 8.515167e-001 1.801457e+000 9.507381e-001 9.238251e-001 8.962586e-001 1.878361e-001 1.901022e-001 1.076735e-001 6.063195e-002 9.714526e-002 1.068758e-001 1.469391e-001 2.851542e-001 5.721874e-002 4.122385e-001 1.403182e-001 1.911865e-001 3.003797e-001 8.811490e-002
<GCONST> 5.409028e+001
<TRANSP> 5
 0.000000e+000 1.000000e+000 0.000000e+000 0.000000e+000 0.000000e+000
 0.000000e+000 7.178641e-001 1.376111e-001 1.445248e-001 0.000000e+000
 0.000000e+000 0.000000e+000 7.249101e-001 2.750899e-001 0.000000e+000
 0.000000e+000 2.958347e-004 0.000000e+000 4.523377e-001 5.473664e-001
 0.000000e+000 0.000000e+000 0.000000e+000 0.000000e+000 0.000000e+000
<ENDHMM>
