~o
<STREAMINFO> 1 39
<VECSIZE> 39<NULLD><MFCC_D_A_0><DIAGC>
~s "silst"
<MEAN> 39
 -1.969911e+001 3.991587e+000 6.979280e-001 5.072564e+000 4.433091e+000 5.918848e+000 6.335786e+000 6.760637e+000 7.052235e+000 5.658107e+000 6.293005e+000 5.560844e+000 5.693114e+001 6.844167e-002 -1.563785e-002 -2.183433e-001 -1.571696e-001 -4.827284e-002 1.678468e-001 1.529928e-001 -9.091276e-002 -6.723705e-002 -7.032141e-002 -6.864141e-002 -4.085588e-002 6.106233e-002 6.123568e-002 3.780258e-002 1.873794e-002 4.333093e-002 4.714281e-002 -2.801734e-002 1.088658e-002 -8.821954e-002 7.661507e-002 4.661927e-002 -7.032249e-002 -9.067789e-002 4.345012e-002
<VARIANCE> 39
 7.076837e-001 7.612637e-001 1.351761e+000 1.146598e+000 1.862370e+000 3.570655e+000 5.671486e+000 2.071401e+000 2.277528e+000 4.071790e+000 3.690852e+000 9.698478e+000 5.072046e-001 5.461580e-002 6.715934e-002 1.422699e-001 2.035364e-001 2.525786e-001 2.312898e-001 7.745736e-001 4.648423e-001 3.880022e-001 3.122715e-001 3.859085e-001 8.498076e-001 2.094300e-002 6.048437e-003 1.518207e-002 3.557136e-002 4.779309e-002 5.425042e-002 5.550168e-002 1.473933e-001 5.814537e-002 5.212089e-002 7.108514e-002 9.708203e-002 1.667158e-001 3.774517e-003
<GCONST> 1.933933e+001
~h "b"
<BEGINHMM>
<NUMSTATES> 5
<STATE> 2
<MEAN> 39
 -2.308688e+001 -6.097898e+000 1.162346e+001 -2.582652e+000 1.448421e+000 -9.067052e-001 1.304760e+001 -1.572562e+000 -6.119238e-001 9.324897e+000 9.097337e+000 -7.677840e-001 6.929575e+001 1.410689e+000 4.688663e-001 -5.340539e-001 2.482193e-001 6.131686e-002 -7.923523e-001 -6.239821e-001 -3.226580e-001 -1.270076e+000 -7.077228e-001 -6.556745e-001 1.004882e-001 5.345498e-001 4.892137e-001 4.542841e-001 -4.759630e-001 3.507450e-001 2.422159e-001 6.718540e-002 -5.426641e-001 1.336314e-001 2.639964e-002 -2.814471e-001 -3.560257e-001 8.286285e-002 -2.664334e-001
<VARIANCE> 39
 7.954523e+001 1.729704e+001 5.878836e+001 3.020034e+001 2.173826e+001 2.059233e+001 5.021306e+001 2.205450e+001 4.428854e+001 7.190966e+001 2.650769e+001 8.949958e+000 1.152081e+001 1.031450e+001 3.470069e+000 5.591623e+000 4.797828e+000 2.639222e+000 1.212039e+000 6.628201e+000 2.432609e+000 2.708626e+000 5.989625e+000 4.038289e+000 8.259692e-001 7.936972e-001 9.065094e-001 3.930126e-001 4.173236e-001 5.757000e-001 8.413591e-001 5.263208e-001 4.768588e-001 5.719585e-001 6.974456e-001 1.204230e+000 4.933467e-001 1.752057e-001 2.356151e-001
<GCONST> 1.214090e+002
<STATE> 3
<MEAN> 39
 -1.117931e+000 2.683341e+000 -4.142443e+000 5.360262e+000 4.683106e+000 -9.680551e+000 -2.648066e+000 9.368185e-001 -7.897482e+000 -4.310980e+000 1.679098e+000 1.098220e+000 7.227896e+001 1.705850e+000 1.189682e+000 -1.710231e+000 1.136634e+000 2.733672e+000 1.838914e-001 -3.453961e+000 2.314099e-001 2.140518e+000 -1.426039e+000 -2.637825e+000 -1.024141e+000 4.503016e-002 -1.597067e+000 -2.070429e-001 1.092104e+000 -4.083052e-001 1.614804e-001 1.308222e+000 8.316114e-001 -3.806183e-001 1.269873e+000 1.297733e+000 -1.563587e-001 -6.299587e-001 -5.645416e-001
<VARIANCE> 39
 8.471413e+000 8.838456e+000 4.413050e+001 5.293552e+001 5.158308e+000 7.862266e+000 3.154105e+001 2.007808e+001 5.813153e+001 1.627743e+001 2.370422e+001 6.138019e+000 9.894589e+000 4.219594e+000 9.807871e-001 2.212477e+000 9.582095e-001 1.614318e+000 3.858829e+000 5.728619e+000 1.532577e+000 6.401511e+000 2.915841e+000 2.033509e+000 2.437179e+000 3.489360e-001 3.283174e-001 4.776821e-001 1.764416e-001 3.980977e-001 2.659565e-001 1.800526e-001 6.076994e-001 3.992102e-001 1.334283e+000 2.700750e-001 8.216438e-001 2.619905e-001 7.991558e-002
<GCONST> 1.036283e+002
<STATE> 4
<MEAN> 39
 -1.963439e+000 3.187258e+000 -2.151995e+000 1.019168e+001 1.472391e+001 -3.753223e+000 -1.077149e+001 -4.934974e+000 3.579282e+000 -3.751555e+000 -5.494722e+000 -6.882277e+000 7.108502e+001 -2.468976e-001 -2.242904e-001 6.245966e-001 8.339856e-001 7.350995e-001 3.700867e-001 -4.567500e-001 -4.906155e-001 8.638070e-001 -1.838000e-001 -6.412170e-001 -3.376067e-001 -1.339277e-004 -1.476468e-001 -5.820303e-002 1.437885e-001 -1.495045e-001 -3.186988e-001 2.889095e-002 4.261658e-001 -1.036831e-001 -4.086418e-001 1.437196e-001 2.955362e-001 2.097673e-001 -3.188181e-002
<VARIANCE> 39
 4.359198e+000 4.409877e+001 2.143977e+001 5.375759e+001 2.764076e+001 2.126657e+001 4.537123e+001 2.797585e+001 1.699374e+001 4.568105e+001 1.898420e+001 1.646677e+001 1.737155e+001 4.321783e-001 5.298637e+000 8.311383e-001 3.390003e+000 3.192396e+000 4.130098e+000 4.260773e+000 1.082497e+000 2.302366e+000 6.452080e+000 4.227162e+000 3.431021e+000 1.917374e+000 1.774982e-001 1.068113e+000 3.141870e-001 8.796668e-001 7.805284e-001 8.742750e-001 1.302726e+000 2.456567e-001 8.039676e-001 1.330690e+000 7.744427e-001 2.955159e-001 3.959478e-001
<GCONST> 1.179545e+002
<TRANSP> 5
 0.000000e+000 1.000000e+000 0.000000e+000 0.000000e+000 0.000000e+000
 0.000000e+000 8.246814e-001 1.753186e-001 0.000000e+000 0.000000e+000
 0.000000e+000 0.000000e+000 4.290687e-001 5.709313e-001 0.000000e+000
 0.000000e+000 0.000000e+000 0.000000e+000 7.894595e-001 2.105404e-001
 0.000000e+000 0.000000e+000 0.000000e+000 0.000000e+000 0.000000e+000
<ENDHMM>
~h "d"
<BEGINHMM>
<NUMSTATES> 5
<STATE> 2
<MEAN> 39
 -3.439424e+000 4.935184e+000 -6.418459e+000 -5.283598e-001 -2.595036e+000 -6.883375e+000 3.834293e+000 3.146274e+000 1.014867e+000 -3.150798e+000 -1.086562e+000 8.941150e-001 6.915752e+001 -3.741428e+000 2.606968e+000 2.775125e+000 -4.669401e-001 6.782206e-001 2.986583e+000 7.952473e-002 2.079539e-001 1.281699e+000 1.397489e+000 3.498442e-001 6.408934e-002 -3.547250e+000 -1.689981e-001 -5.475937e-001 -2.799631e-001 -6.900712e-002 -2.115449e-001 1.015472e-001 1.349361e-001 3.753943e-001 4.954500e-001 6.338041e-001 5.293441e-001 3.325923e-001 -4.825512e-002
<VARIANCE> 39
 4.146392e+001 2.542172e+001 2.968399e+001 1.787307e+001 3.194996e+001 6.202261e+001 8.737164e+000 1.902907e+001 3.434177e+001 2.087905e+001 1.692487e+001 4.341162e+001 3.290227e+001 1.429628e+000 1.220670e+000 5.259043e-001 1.480007e+000 1.388010e+000 7.045065e-001 9.838187e-001 1.772020e+000 3.499627e+000 2.849624e+000 2.024251e+000 1.382625e+000 1.187830e+000 6.512652e-001 3.676319e-001 3.183431e-001 2.153029e-001 1.356835e-001 6.325520e-001 1.615140e-001 1.716232e-001 4.061240e-001 3.596087e-001 1.817298e-001 1.370904e-001 4.674969e-001
<GCONST> 1.020983e+002
<STATE> 3
<MEAN> 39
 -1.247151e+001 7.941109e+000 2.952140e-001 2.453169e+000 1.671093e+000 3.245507e+000 4.185113e+000 4.580197e+000 4.807389e+000 2.096900e+000 1.145456e+000 -1.012948e+000 6.078133e+001 -1.432311e+000 -3.237731e-001 5.844561e-001 6.809458e-001 5.743743e-001 1.002883e+000 2.397260e-001 2.415506e-001 4.669361e-001 8.781620e-001 9.945847e-001 8.839118e-001 -1.007490e+000 3.090983e-001 -3.402503e-001 -3.393635e-001 4.386214e-003 -2.658259e-002 -3.572912e-001 6.886416e-002 7.166315e-003 -1.336938e-001 -1.526145e-001 -1.680827e-002 1.147258e-001 3.670906e-001
<VARIANCE> 39
 9.644396e+000 8.428885e+000 1.677651e+001 3.257448e+001 3.580016e+001 1.999226e+001 3.559188e+000 5.056545e+000 1.430498e+001 1.908481e+001 2.958525e+001 5.758138e+001 3.762245e+000 7.060647e-001 4.197646e-001 7.913244e-001 8.912607e-001 7.825271e-001 1.093735e+000 4.476204e-001 6.926664e-001 6.872087e-001 1.719621e+000 9.306362e-001 1.141962e+000 4.837642e-001 2.130038e-001 1.280739e-001 1.330072e-001 2.134355e-001 2.439870e-001 1.847468e-001 7.587307e-002 1.761030e-001 2.158247e-001 3.319985e-001 2.217760e-001 2.466479e-001 1.592037e-001
<GCONST> 8.086951e+001
<STATE> 4
<MEAN> 39
 -1.935367e+001 4.317972e+000 6.067393e-001 5.808521e+000 4.272915e+000 5.686850e+000 6.076209e+000 5.542802e+000 7.093743e+000 5.684481e+000 6.149488e+000 4.903120e+000 5.769177e+001 -1.853625e-001 -2.600459e-001 -5.192206e-002 7.785018e-002 3.942099e-002 6.441124e-003 3.898446e-002 -3.182026e-002 5.629855e-002 1.236553e-001 2.001268e-001 2.083083e-001 -3.980736e-002 1.537241e-001 -1.038073e-002 -3.136666e-002 6.670146e-003 -5.150845e-003 -1.193594e-001 -4.448954e-002 -4.679686e-002 -9.788975e-002 -1.363150e-001 -6.250346e-002 -8.269303e-002 1.329524e-001
<VARIANCE> 39
 3.000708e+000 8.784911e+000 1.322137e+001 5.479889e+000 1.057872e+001 5.747329e+000 5.844791e+000 1.153576e+001 8.003599e+000 5.424282e+000 7.526933e+000 8.143557e+000 4.368350e+000 4.912953e-001 1.475264e+000 2.128389e+000 5.492026e-001 1.109933e+000 5.538294e-001 5.783492e-001 1.315171e+000 1.215682e+000 7.838492e-001 7.958680e-001 1.274608e+000 8.168026e-001 1.297484e-001 3.112927e-001 4.431925e-001 8.865815e-002 1.911780e-001 1.771201e-001 1.171464e-001 3.307155e-001 2.729578e-001 2.407860e-001 1.879439e-001 1.983509e-001 2.528507e-001
<GCONST> 7.528043e+001
<TRANSP> 5
 0.000000e+000 1.000000e+000 0.000000e+000 0.000000e+000 0.000000e+000
 0.000000e+000 5.368622e-001 4.631378e-001 0.000000e+000 0.000000e+000
 0.000000e+000 0.000000e+000 7.952005e-001 2.047995e-001 0.000000e+000
 0.000000e+000 0.000000e+000 0.000000e+000 8.885576e-001 1.114424e-001
 0.000000e+000 0.000000e+000 0.000000e+000 0.000000e+000 0.000000e+000
<ENDHMM>
~h "g"
<BEGINHMM>
<NUMSTATES> 5
<STATE> 2
<MEAN> 39
 2.634273e+000 7.827612e-001 -5.230753e+000 2.533643e+000 -8.281521e+000 -2.038648e+001 -4.378885e+000 1.366249e+001 5.377958e-001 -1.048909e+001 1.995069e-001 -3.275202e+000 7.579264e+001 1.420052e-001 -7.816681e-001 -8.690599e-001 -1.565719e-001 -4.634781e-001 -2.015903e-001 2.926633e-001 2.304359e-001 6.944720e-002 3.055312e-001 4.340149e-001 7.595239e-001 1.991834e-001 -5.527218e-002 -1.151890e-003 1.244125e-002 9.426969e-003 1.065572e-001 1.781961e-001 6.932054e-002 -8.216451e-002 -9.642196e-002 1.903801e-002 4.592381e-002 4.340079e-002 -4.992298e-002
<VARIANCE> 39
 1.961738e+000 4.378893e+001 2.684301e+001 1.025798e+001 4.143375e+001 2.903453e+001 4.379597e+001 3.366577e+001 1.839600e+001 3.612412e+001 1.612179e+001 1.958021e+001 7.068155e+000 1.515994e-001 6.157432e-001 4.555643e-001 3.636812e-001 3.596470e-001 7.499705e-001 1.092633e+000 5.252857e-001 8.452057e-001 9.448897e-001 6.132458e-001 1.500656e+000 3.046471e-001 2.159533e-002 1.235187e-001 8.353493e-002 7.133060e-002 6.322230e-002 9.569809e-002 1.217605e-001 9.291443e-002 1.571407e-001 1.882455e-001 1.116920e-001 1.364894e-001 3.592837e-002
<GCONST> 7.114586e+001
<STATE> 3
<MEAN> 39
 7.952317e-001 -1.942711e-002 -1.121223e+001 -8.603258e-002 -5.578026e+000 -1.392288e+001 -6.811610e-001 7.390516e+000 1.915025e+000 -3.904792e+000 2.488642e+000 3.521310e+000 7.276273e+001 -1.097190e+000 5.720427e-001 4.789603e-001 -5.448806e-001 3.337716e-001 1.517353e+000 8.220283e-001 -5.619005e-001 -1.311933e-001 1.290080e+000 5.591626e-001 1.563699e-001 -1.081456e+000 -3.788276e-001 1.940683e-001 2.595174e-001 -1.164019e-002 1.913735e-001 3.814633e-001 8.589067e-002 4.648856e-002 3.604684e-001 2.013781e-001 -4.863141e-002 -8.791114e-002 -2.749229e-001
<VARIANCE> 39
 5.249043e+000 2.340408e+001 8.746824e+000 1.070034e+001 5.439873e+001 2.172170e+001 4.678457e+001 4.945200e+001 5.436270e+000 3.526344e+001 1.840068e+001 1.665758e+001 8.017139e+000 4.261182e-001 1.000978e+000 5.496269e-001 7.017578e-001 5.669857e-001 8.254112e-001 4.481551e-001 7.030749e-001 6.490272e-001 9.281218e-001 4.158167e-001 9.344231e-001 3.025717e-001 7.421286e-002 1.688706e-001 1.716741e-001 2.535450e-001 2.599904e-001 1.723409e-001 1.834424e-001 1.240238e-001 1.563674e-001 1.420333e-001 1.226133e-001 4.006304e-001 5.313207e-002
<GCONST> 7.838654e+001
<STATE> 4
<MEAN> 39
 -9.011947e+000 3.317273e+000 -5.891622e+000 -1.071890e+000 -4.200006e+000 -4.267363e+000 5.210376e+000 7.895795e+000 5.790504e+000 1.884716e+000 4.423188e+000 4.689808e+000 6.482626e+001 -2.539818e+000 1.101986e+000 1.386759e+000 1.957566e-003 1.191106e+000 2.715678e+000 4.050016e-001 -3.057550e-001 1.339239e+000 1.724176e+000 4.977068e-001 8.654118e-001 -2.180637e+000 7.570895e-002 -2.489945e-001 8.117440e-003 2.983047e-001 -5.702286e-003 -2.933731e-001 -2.249370e-001 2.111957e-001 -1.859994e-001 -2.185656e-001 7.070510e-002 5.153501e-003 9.632670e-002
<VARIANCE> 39
 2.837703e+001 1.016081e+001 1.447384e+001 1.509032e+001 2.906824e+001 3.750337e+001 1.254291e+001 3.532845e+001 1.496825e+001 3.033107e+001 1.538736e+001 2.507868e+001 1.585780e+001 1.360673e+000 1.078535e+000 1.931626e+000 2.711292e+000 2.685246e+000 1.608487e+000 3.337131e+000 2.046856e+000 1.136006e+000 2.296396e+000 1.460892e+000 8.439881e-001 5.031917e-001 2.289996e-001 1.791393e-001 3.209779e-001 3.373387e-001 2.289482e-001 3.622483e-001 3.382807e-001 1.621540e-001 1.947911e-001 4.272696e-001 2.888310e-001 2.165364e-001 1.113788e-001
<GCONST> 9.829598e+001
<TRANSP> 5
 0.000000e+000 1.000000e+000 0.000000e+000 0.000000e+000 0.000000e+000
 0.000000e+000 9.184233e-001 8.157672e-002 0.000000e+000 0.000000e+000
 0.000000e+000 0.000000e+000 8.095745e-001 1.904256e-001 0.000000e+000
 0.000000e+000 0.000000e+000 0.000000e+000 7.718874e-001 2.281126e-001
 0.000000e+000 0.000000e+000 0.000000e+000 0.000000e+000 0.000000e+000
<ENDHMM>
~h "l"
<BEGINHMM>
<NUMSTATES> 5
<STATE> 2
<MEAN> 39
 -1.404798e+001 3.199104e+000 -8.602181e-001 4.733048e+000 2.999872e+000 6.322498e-001 5.219669e+000 4.909375e+000 3.504387e+000 1.986679e+000 4.202284e+000 3.020603e+000 6.229741e+001 7.183328e-001 -9.699997e-002 1.025909e-001 3.289477e-001 1.621888e-001 -5.092838e-001 -7.044736e-001 -3.202476e-001 -8.485454e-001 -1.013704e+000 -1.492544e-001 -2.164280e-001 5.990861e-001 1.342876e-001 6.877159e-002 4.328242e-002 1.031846e-001 1.111374e-001 -4.445562e-002 -2.214902e-001 4.866620e-002 -2.674273e-002 -1.276514e-001 -1.210264e-001 -1.506517e-001 5.622940e-002
<VARIANCE> 39
 6.690854e+001 1.706300e+001 2.174769e+001 1.639666e+001 2.415560e+001 8.940881e+001 3.266753e+001 2.731366e+001 4.328890e+001 4.545243e+001 1.459363e+001 2.477371e+001 4.317441e+001 4.042376e+000 2.265538e+000 1.621075e+000 1.407930e+000 1.569840e+000 4.788888e+000 3.824502e+000 2.528762e+000 3.919420e+000 5.877752e+000 3.081673e+000 3.572250e+000 2.859847e+000 3.776632e-001 3.667994e-001 2.876236e-001 2.300577e-001 2.553829e-001 6.417481e-001 6.270531e-001 4.500502e-001 5.306878e-001 7.259970e-001 2.882776e-001 4.518486e-001 3.211590e-001
<GCONST> 1.183248e+002
<STATE> 3
<MEAN> 39
 -2.172078e+000 2.113452e+000 -3.083973e+000 9.609556e+000 7.406861e+000 -7.525874e+000 -5.302958e+000 5.578056e+000 -6.713967e-001 -8.586296e+000 -1.640615e+000 -4.026188e+000 7.053004e+001 -7.675359e-001 5.369570e-001 7.942442e-001 7.648997e-001 9.219632e-001 8.580731e-001 -6.377552e-001 -6.773619e-001 6.477144e-001 7.006967e-001 -2.174728e-001 -3.361247e-001 -7.352245e-001 -4.393195e-001 1.137990e-001 2.114142e-001 -1.680838e-001 -1.865551e-001 2.832474e-001 4.438908e-001 -1.920750e-001 2.034635e-001 5.127048e-001 1.939912e-001 2.275539e-001 -2.923464e-001
<VARIANCE> 39
 1.860307e+001 1.254404e+001 1.602030e+001 4.401367e+001 6.540132e+001 3.118385e+001 2.424497e+001 4.180428e+001 7.809406e+001 8.451884e+001 4.464799e+001 6.053618e+001 1.406151e+001 1.857443e+000 1.853031e+000 1.866131e+000 2.472447e+000 2.846311e+000 2.552397e+000 2.830319e+000 1.783256e+000 1.278460e+000 4.581178e+000 3.146747e+000 2.757055e+000 1.486930e+000 2.160292e-001 3.640182e-001 2.545624e-001 3.716904e-001 4.706399e-001 4.234760e-001 2.969641e-001 3.181800e-001 3.678594e-001 6.797994e-001 5.854979e-001 4.561555e-001 1.731203e-001
<GCONST> 1.149290e+002
<STATE> 4
<MEAN> 39
 -7.621943e+000 1.038763e+000 2.110950e+000 1.210143e+001 7.813026e+000 -3.976538e+000 -4.743443e+000 4.830420e-001 -1.619032e+000 -6.212674e+000 3.720486e-001 -1.201413e+000 6.820042e+001 -5.020065e-001 3.685278e-001 2.291513e-001 -3.762550e-001 -4.077004e-001 6.015446e-001 7.669823e-001 2.871348e-001 3.377547e-001 3.346831e-001 -1.101470e-001 5.063004e-002 -5.068831e-001 3.283959e-002 -1.511664e-001 -1.766707e-001 -4.334718e-002 3.873740e-002 -2.305495e-002 8.196155e-002 1.210056e-001 -1.694491e-002 -5.906824e-002 7.569496e-002 5.943904e-002 7.228908e-002
<VARIANCE> 39
 4.405334e+001 7.085764e+001 5.671040e+001 4.360230e+001 5.615948e+001 5.843267e+001 5.903110e+001 4.599089e+001 5.358850e+001 5.833635e+001 2.513331e+001 1.052724e+001 3.169706e+001 3.663762e+000 6.175558e+000 4.124434e+000 1.977246e+000 2.414630e+000 3.403690e+000 4.020069e+000 3.539419e+000 3.577219e+000 4.223065e+000 2.210335e+000 1.394387e+000 2.203413e+000 4.114347e-001 1.222362e+000 5.389445e-001 3.383296e-001 3.956046e-001 5.281217e-001 7.376928e-001 7.249574e-001 6.110922e-001 6.952484e-001 4.269043e-001 2.285754e-001 2.862535e-001
<GCONST> 1.262162e+002
<TRANSP> 5
 0.000000e+000 1.000000e+000 0.000000e+000 0.000000e+000 0.000000e+000
 0.000000e+000 7.520413e-001 2.479587e-001 0.000000e+000 0.000000e+000
 0.000000e+000 0.000000e+000 7.393655e-001 2.606345e-001 0.000000e+000
 0.000000e+000 0.000000e+000 0.000000e+000 8.715820e-001 1.284180e-001
 0.000000e+000 0.000000e+000 0.000000e+000 0.000000e+000 0.000000e+000
<ENDHMM>
~h "m"
<BEGINHMM>
<NUMSTATES> 5
<STATE> 2
<MEAN> 39
 -1.751234e+001 1.579517e+000 -2.866644e-001 2.262907e+000 2.292358e+000 4.270502e+000 5.860641e+000 3.562136e+000 7.455703e+000 5.433352e+000 5.032397e+000 5.018026e+000 6.084204e+001 3.832558e-001 -2.978316e-001 4.975871e-001 3.713267e-001 2.748471e-001 -5.334149e-001 -7.163444e-001 -9.584964e-001 -3.916691e-001 -5.224893e-001 -3.517808e-001 -5.479581e-001 8.064837e-001 2.922816e-001 -3.734640e-002 1.719860e-001 3.452845e-001 1.960776e-001 -3.911905e-001 -2.674836e-001 3.335809e-002 -3.148206e-001 -3.083787e-001 -7.849190e-002 -2.595399e-001 2.652097e-001
<VARIANCE> 39
 2.691091e+001 1.928618e+001 1.548146e+001 1.387008e+001 2.380632e+001 2.816500e+001 1.160749e+001 3.151579e+001 1.153574e+001 1.247133e+001 1.356049e+001 9.309438e+000 2.864233e+001 2.412009e+000 2.294568e+000 1.597435e+000 2.994993e+000 2.441556e+000 3.112295e+000 1.517834e+000 2.039029e+000 2.898536e+000 2.126547e+000 2.127585e+000 1.373989e+000 2.447008e+000 4.641815e-001 4.735869e-001 3.144175e-001 7.892104e-001 4.871749e-001 5.215222e-001 3.457841e-001 6.185728e-001 5.561801e-001 3.704865e-001 3.790504e-001 2.265909e-001 4.593526e-001
<GCONST> 1.084577e+002
<STATE> 3
<MEAN> 39
 -9.547282e+000 3.254943e-001 4.431769e+000 1.654067e+001 1.054279e+001 -8.479725e+000 -4.110532e+000 8.544860e-001 8.016521e-002 -4.793660e+000 6.573039e-002 -9.213986e-001 6.843318e+001 6.586643e-001 -1.327258e-001 -2.826048e-001 4.826935e-002 1.915342e-001 -5.663139e-001 -5.886495e-001 -3.875473e-001 -6.994331e-001 -4.678116e-001 3.506820e-001 -5.804442e-002 5.868292e-001 -4.256408e-002 1.762537e-002 -1.737475e-001 -3.174010e-001 -2.432180e-001 9.220614e-002 1.840720e-001 7.376254e-002 7.609830e-002 1.405067e-001 1.647631e-001 1.617292e-001 -5.503836e-002
<VARIANCE> 39
 3.044522e+001 3.407899e+001 3.681023e+001 7.650287e+001 4.379625e+001 6.996947e+001 5.597498e+001 3.877397e+001 5.257892e+001 3.866730e+001 1.721038e+001 2.221608e+001 4.222007e+001 4.541406e+000 4.605186e+000 3.051366e+000 6.718663e+000 3.966996e+000 8.797787e+000 5.808982e+000 3.515602e+000 4.485013e+000 3.668919e+000 2.211550e+000 2.163946e+000 5.322015e+000 5.266997e-001 6.640578e-001 3.009393e-001 6.251110e-001 5.551479e-001 1.076906e+000 9.772666e-001 6.392608e-001 7.599247e-001 5.872138e-001 3.394785e-001 3.537269e-001 6.555456e-001
<GCONST> 1.311950e+002
<STATE> 4
<MEAN> 39
 -3.227361e+000 -7.873624e-001 -8.598138e+000 1.352146e+000 -2.174897e+000 -9.022907e+000 9.108716e-001 4.744638e+000 -4.115778e-001 -1.018721e+000 7.116470e+000 4.248534e+000 7.105767e+001 -9.265346e-001 5.576017e-001 2.631749e-001 -7.360451e-001 -4.449406e-001 8.576644e-001 9.559618e-001 9.160893e-001 9.084027e-001 1.126967e+000 1.668759e-001 1.592361e-001 -9.801526e-001 -1.535029e-001 -9.071337e-002 9.654562e-002 1.539032e-001 1.500960e-001 9.760566e-002 2.507213e-002 -4.845179e-002 1.861923e-001 9.268643e-002 -1.384549e-001 -2.039460e-002 -6.179919e-002
<VARIANCE> 39
 6.193492e+001 3.286979e+001 3.616103e+001 3.010181e+001 4.872117e+001 7.223239e+001 5.078016e+001 9.237396e+001 5.400055e+001 5.261296e+001 2.422754e+001 2.142677e+001 4.482780e+001 4.455892e+000 1.757372e+000 3.322991e+000 2.196491e+000 2.993916e+000 3.820913e+000 2.915641e+000 3.149081e+000 3.201680e+000 3.890126e+000 2.566503e+000 1.723655e+000 2.884971e+000 4.487402e-001 1.967051e-001 3.676481e-001 2.760953e-001 3.006625e-001 5.195862e-001 5.731078e-001 3.833521e-001 5.346588e-001 5.728893e-001 3.695032e-001 2.833953e-001 2.178268e-001
<GCONST> 1.216326e+002
<TRANSP> 5
 0.000000e+000 1.000000e+000 0.000000e+000 0.000000e+000 0.000000e+000
 0.000000e+000 7.297888e-001 2.702112e-001 0.000000e+000 0.000000e+000
 0.000000e+000 0.000000e+000 8.262076e-001 1.737924e-001 0.000000e+000
 0.000000e+000 0.000000e+000 0.000000e+000 7.898874e-001 2.101127e-001
 0.000000e+000 0.000000e+000 0.000000e+000 0.000000e+000 0.000000e+000
<ENDHMM>
~h "n"
<BEGINHMM>
<NUMSTATES> 5
<STATE> 2
<MEAN> 39
 -1.671309e+001 4.104509e+000 4.204039e+000 6.146092e+000 5.548105e+000 4.513432e+000 5.602196e+000 2.593556e+000 3.514308e+000 3.399081e+000 4.103481e+000 2.048466e+000 6.150217e+001 1.496941e+000 7.838639e-002 1.154745e-001 5.908822e-001 4.158039e-001 -8.997364e-001 -1.049365e+000 -1.086080e+000 -1.088990e+000 -1.284632e+000 -6.795378e-001 -7.760114e-001 1.297990e+000 3.113382e-001 -1.954346e-001 -1.555978e-001 8.024816e-002 1.146658e-001 -3.772494e-001 -3.284007e-001 -5.491062e-002 -2.119119e-001 -3.108445e-001 -1.234647e-001 -1.923879e-002 3.242673e-001
<VARIANCE> 39
 3.933628e+001 3.263968e+001 3.419941e+001 3.014728e+001 9.935683e+000 1.791430e+001 2.447193e+001 2.292012e+001 2.092484e+001 1.549541e+001 1.682551e+001 1.786755e+001 2.453916e+001 3.527854e+000 3.702966e+000 2.357734e+000 2.886270e+000 1.163736e+000 3.341234e+000 3.236717e+000 3.210184e+000 2.634593e+000 2.632198e+000 2.485046e+000 2.539394e+000 2.835182e+000 3.978857e-001 6.341574e-001 4.311221e-001 4.722430e-001 1.933777e-001 5.666006e-001 3.522145e-001 7.057335e-001 4.893923e-001 4.327147e-001 4.420054e-001 4.524983e-001 4.079146e-001
<GCONST> 1.143490e+002
<STATE> 3
<MEAN> 39
 -2.878885e+000 1.396405e+000 -3.705728e-001 1.231928e+001 1.073597e+001 -6.419826e+000 -6.994409e+000 -5.878329e-001 -2.832827e+000 -8.388622e+000 -2.123950e+000 -4.338960e+000 7.194095e+001 8.793656e-001 -2.294489e-001 -8.270765e-001 -5.007018e-001 -2.575738e-001 -4.936084e-001 -4.704221e-001 2.034007e-001 -1.173368e-001 -4.101280e-001 -4.052073e-001 -2.909522e-001 6.402670e-001 -1.805612e-001 -2.736418e-002 -1.173843e-001 -2.736075e-001 -2.924332e-001 5.931024e-002 3.408597e-001 2.119384e-001 2.051865e-001 2.541841e-001 3.005123e-001 2.794034e-001 -1.347339e-001
<VARIANCE> 39
 1.443653e+001 2.854991e+001 2.428695e+001 5.202605e+001 2.914601e+001 5.264175e+001 4.597469e+001 4.529931e+001 4.802837e+001 5.544365e+001 2.617751e+001 4.937480e+001 1.885732e+001 1.482506e+000 2.852639e+000 1.708990e+000 3.477284e+000 2.616440e+000 6.212398e+000 4.283221e+000 4.323241e+000 4.229137e+000 5.618203e+000 2.090256e+000 2.298237e+000 2.135761e+000 2.049839e-001 5.123816e-001 3.197442e-001 4.677929e-001 4.104747e-001 1.013555e+000 5.950952e-001 1.021288e+000 8.011770e-001 8.901655e-001 4.842531e-001 6.389749e-001 2.631536e-001
<GCONST> 1.238589e+002
<STATE> 4
<MEAN> 39
 1.425778e-002 -5.340166e-001 -1.032997e+001 3.435172e-002 -1.494309e+000 -8.637565e+000 1.711370e+000 7.972359e+000 -1.674263e+000 -4.155874e+000 3.982809e+000 1.736640e+000 7.326083e+001 -4.022318e-001 -2.366506e-001 -1.188011e-001 -3.461205e-001 -6.243445e-001 -2.830479e-002 1.007808e+000 7.765036e-001 4.257706e-001 6.048557e-001 5.924208e-001 5.842499e-001 -2.438106e-001 -1.998632e-001 9.813489e-002 1.964616e-001 1.789585e-001 1.703829e-001 2.367785e-001 3.797055e-002 -7.069194e-002 3.306521e-002 7.031051e-002 -1.011775e-001 -1.170117e-001 -2.108717e-001
<VARIANCE> 39
 3.246916e+001 4.088013e+001 4.027375e+001 3.069586e+001 4.325817e+001 6.545555e+001 3.908708e+001 6.710809e+001 4.122960e+001 3.267646e+001 4.021941e+001 2.079825e+001 3.783499e+001 1.986234e+000 2.041640e+000 2.694194e+000 1.930186e+000 2.554657e+000 4.820144e+000 1.441331e+000 4.311215e+000 2.168936e+000 2.133158e+000 3.103303e+000 3.398012e+000 1.995649e+000 8.339854e-002 2.456574e-001 2.458349e-001 2.631410e-001 3.269761e-001 3.810250e-001 3.166755e-001 5.148235e-001 2.704238e-001 3.089952e-001 5.228115e-001 5.200543e-001 1.069117e-001
<GCONST> 1.147986e+002
<TRANSP> 5
 0.000000e+000 1.000000e+000 0.000000e+000 0.000000e+000 0.000000e+000
 0.000000e+000 8.177760e-001 1.822240e-001 0.000000e+000 0.000000e+000
 0.000000e+000 0.000000e+000 8.739003e-001 1.260997e-001 0.000000e+000
 0.000000e+000 0.000000e+000 0.000000e+000 8.509808e-001 1.490192e-001
 0.000000e+000 0.000000e+000 0.000000e+000 0.000000e+000 0.000000e+000
<ENDHMM>
~h "p"
<BEGINHMM>
<NUMSTATES> 5
<STATE> 2
<MEAN> 39
 -1.590189e+001 4.602516e+000 -2.837522e+000 4.192301e-001 2.785719e-001 3.376154e+000 6.244903e+000 5.796358e+000 7.808640e+000 7.429862e+000 6.597810e+000 6.530384e+000 5.931641e+001 -1.058305e+000 1.479307e-001 8.578885e-001 6.866491e-001 5.098885e-001 4.138889e-001 1.401637e-001 9.219967e-002 -9.171653e-002 -3.314790e-001 -1.791902e-001 1.503184e-001 -7.264726e-001 3.479101e-001 -9.473637e-002 -1.572066e-001 3.974435e-002 1.313415e-001 -1.554543e-001 -9.489755e-002 6.925268e-002 -1.593304e-001 -3.838240e-001 -6.981675e-002 -2.614123e-001 2.877483e-001
<VARIANCE> 39
 1.250447e+001 1.094535e+000 1.110582e+001 1.433028e+001 6.772567e+000 4.950521e+000 3.746837e+000 8.858137e+000 7.984702e+000 1.068143e+001 9.818247e+000 1.370868e+001 4.537488e+000 9.085268e-001 1.930835e-001 6.542923e-001 7.702150e-001 7.347180e-001 7.526184e-001 1.473421e+000 7.815003e-001 1.265613e+000 6.644518e-001 9.254086e-001 1.080373e+000 4.530567e-001 1.472466e-001 3.375736e-002 1.806024e-001 1.897777e-001 1.206639e-001 2.897516e-001 2.627566e-001 1.055788e-001 3.092352e-001 1.941558e-001 8.036718e-002 1.719196e-001 7.464594e-002
<GCONST> 6.809084e+001
<STATE> 3
<MEAN> 39
 -1.881499e+001 4.358974e+000 7.117239e-003 2.891512e+000 3.800640e+000 5.940128e+000 6.623690e+000 5.696903e+000 7.192401e+000 6.275186e+000 6.147522e+000 5.532753e+000 5.751793e+001 -4.484020e-001 -1.358819e-001 4.691943e-001 5.148296e-001 4.766256e-001 3.704192e-001 8.083648e-002 1.850237e-001 -2.110289e-002 -2.869685e-001 -3.105080e-001 -2.513390e-001 -2.468327e-001 1.162375e-001 -3.624630e-003 -1.179503e-001 -1.150194e-001 -1.665812e-001 -2.085259e-001 -8.542225e-002 5.400094e-002 -2.350756e-002 1.945730e-002 6.856313e-002 4.411638e-003 5.668290e-002
<VARIANCE> 39
 1.582299e+000 8.206443e-001 3.361974e+000 9.816907e+000 2.379118e+000 2.127908e+000 5.871089e+000 5.534848e+000 5.171992e+000 1.097636e+001 4.417727e+000 6.052638e+000 5.072046e-001 1.154035e-001 9.864832e-002 2.327385e-001 4.868529e-001 4.116300e-001 6.856151e-001 5.189343e-001 9.273491e-001 5.463609e-001 1.211740e+000 3.983850e-001 9.450480e-001 4.613162e-002 1.413823e-002 2.081204e-002 2.550100e-002 9.879895e-002 5.900097e-002 6.813620e-002 1.245701e-001 1.486192e-001 7.263919e-002 2.402361e-001 9.546284e-002 1.235117e-001 4.365179e-003
<GCONST> 3.652575e+001
<STATE> 4
<MEAN> 39
 -1.985972e+001 4.257392e+000 1.127295e+000 5.066339e+000 4.338958e+000 6.267400e+000 6.669909e+000 6.861272e+000 7.254857e+000 6.347398e+000 6.332419e+000 5.231365e+000 5.679739e+001 1.028274e-003 1.588047e-002 1.339361e-002 6.553001e-003 2.716419e-003 -1.027987e-002 1.055026e-002 -1.496517e-002 -2.929135e-003 6.531713e-003 -8.212532e-003 -4.870342e-002 -3.568446e-003 3.215959e-003 3.337379e-003 -8.723343e-003 -8.837550e-003 2.710215e-003 2.389520e-003 -3.115174e-003 -1.487242e-002 -1.255372e-003 1.135883e-002 1.665398e-003 3.674146e-003 3.180223e-003
<VARIANCE> 39
 7.076837e-001 6.813455e-001 1.401564e+000 2.021427e+000 2.817237e+000 3.544167e+000 3.959664e+000 3.682008e+000 4.221239e+000 4.710635e+000 4.053026e+000 4.109666e+000 5.072046e-001 2.888338e-002 8.832847e-002 1.551753e-001 2.541794e-001 3.357008e-001 3.803629e-001 4.606428e-001 4.852686e-001 4.437553e-001 4.459220e-001 4.297195e-001 4.643709e-001 1.169577e-002 5.809637e-003 1.809574e-002 3.272112e-002 5.255183e-002 7.759035e-002 8.133847e-002 9.801681e-002 1.019565e-001 8.656231e-002 9.247783e-002 9.378850e-002 9.735725e-002 1.405454e-003
<GCONST> 2.036456e+001
<TRANSP> 5
 0.000000e+000 1.000000e+000 0.000000e+000 0.000000e+000 0.000000e+000
 0.000000e+000 6.373970e-001 3.626030e-001 0.000000e+000 0.000000e+000
 0.000000e+000 0.000000e+000 6.286349e-001 3.713650e-001 0.000000e+000
 0.000000e+000 0.000000e+000 0.000000e+000 9.633531e-001 3.664685e-002
 0.000000e+000 0.000000e+000 0.000000e+000 0.000000e+000 0.000000e+000
<ENDHMM>
~h "s"
<BEGINHMM>
<NUMSTATES> 5
<STATE> 2
<MEAN> 39
 -9.157013e-001 -1.521331e+000 -9.087949e+000 1.675522e+000 -8.932562e+000 -1.373115e+001 2.143025e+000 1.161507e+001 5.280516e-001 -4.161199e+000 5.023459e+000 2.606325e+000 7.218179e+001 -2.282780e-001 1.427607e-001 2.193179e-001 1.837527e-001 2.028351e-001 4.308361e-001 -1.786337e-001 -2.866978e-001 -7.241891e-002 4.645471e-002 1.396531e-003 -1.421511e-001 -2.863310e-001 -1.136143e-001 6.164391e-002 5.515146e-002 7.423805e-004 1.638472e-001 1.639382e-001 -8.598830e-002 -4.722591e-002 4.779195e-002 -5.785213e-003 6.952800e-003 4.600433e-002 -9.893157e-002
<VARIANCE> 39
 6.456130e+001 4.969703e+001 3.779500e+001 1.414259e+001 2.131421e+001 6.802684e+001 1.450757e+001 2.298686e+001 4.229982e+001 5.252306e+001 2.162247e+001 1.630706e+001 5.937985e+001 6.432804e+000 3.175879e+000 2.849630e+000 6.432056e-001 3.070873e+000 7.961727e+000 1.306759e+000 2.714810e+000 2.151501e+000 5.222750e+000 2.876415e+000 2.080565e+000 5.190818e+000 9.627630e-001 4.839345e-001 4.089871e-001 1.230146e-001 4.887595e-001 1.460923e+000 2.434499e-001 4.677096e-001 2.684841e-001 7.872610e-001 6.450354e-001 5.004056e-001 7.150844e-001
<GCONST> 1.214342e+002
<STATE> 3
<MEAN> 39
 -3.506013e+000 2.161568e+000 -8.163556e+000 -1.438305e+000 -4.048523e+000 -8.281497e+000 5.305528e-002 4.778375e+000 6.712016e+000 5.339361e-001 1.898171e+000 2.245794e+000 6.868902e+001 -1.110070e+000 9.902027e-001 8.159778e-001 -1.916506e-001 5.330947e-001 1.557294e+000 -1.514297e-001 -5.499105e-001 3.233783e-001 5.689650e-001 1.458592e-001 2.146955e-001 -1.180390e+000 -4.349098e-002 -1.211804e-001 -1.624229e-002 7.115987e-002 2.365523e-001 2.578692e-002 1.424732e-001 4.390031e-002 2.662677e-002 5.301474e-002 -4.820151e-003 -1.866571e-002 7.731093e-002
<VARIANCE> 39
 5.564891e+001 2.988280e+001 3.514922e+001 1.494419e+001 1.309923e+001 4.980577e+001 1.723530e+001 2.386540e+001 3.463751e+001 2.323803e+001 1.438263e+001 1.862422e+001 4.063835e+001 8.145073e+000 2.692207e+000 3.950452e+000 1.775556e+000 2.149772e+000 7.412186e+000 3.225510e+000 2.304450e+000 3.792840e+000 1.954747e+000 1.733212e+000 3.545105e+000 6.463409e+000 1.099288e+000 3.932118e-001 5.394555e-001 3.911732e-001 3.622600e-001 1.446019e+000 6.737100e-001 4.701358e-001 4.621031e-001 2.806754e-001 3.649581e-001 8.391380e-001 7.193946e-001
<GCONST> 1.215927e+002
<STATE> 4
<MEAN> 39
 -5.965165e+000 6.282600e+000 -1.564398e+000 4.364900e+000 1.776219e+000 -4.213554e+000 -2.559126e+000 3.495952e+000 1.906226e+000 -1.700375e+000 5.805999e-001 -2.201123e+000 6.594371e+001 -1.503304e+000 3.936681e-001 8.836564e-001 3.854739e-001 9.448458e-001 1.788674e+000 9.775833e-001 -2.001652e-001 4.542664e-001 6.761500e-001 5.851311e-002 1.787060e-001 -1.160147e+000 -8.832110e-002 -2.355965e-001 -1.421613e-001 -3.684776e-002 -1.222511e-001 -1.917582e-003 2.775021e-001 1.938174e-001 7.648201e-003 7.758579e-002 2.357638e-001 2.468650e-001 8.697464e-003
<VARIANCE> 39
 1.689478e+001 2.972621e+001 2.007320e+001 2.816650e+001 5.254196e+001 4.148125e+001 1.339016e+001 3.421874e+001 2.284579e+001 2.970255e+001 1.160931e+001 1.447669e+001 1.392767e+001 8.182169e-001 1.230455e+000 2.066320e+000 1.282674e+000 1.073112e+000 1.837175e+000 1.266590e+000 9.780646e-001 8.582500e-001 1.304336e+000 1.261627e+000 2.276303e+000 3.977152e-001 1.753151e-001 1.804528e-001 4.041526e-001 1.628244e-001 1.777119e-001 2.017469e-001 1.266904e-001 1.124935e-001 1.624181e-001 1.804422e-001 1.566234e-001 2.344793e-001 9.502967e-002
<GCONST> 9.150481e+001
<TRANSP> 5
 0.000000e+000 1.000000e+000 0.000000e+000 0.000000e+000 0.000000e+000
 0.000000e+000 8.649851e-001 1.350149e-001 0.000000e+000 0.000000e+000
 0.000000e+000 0.000000e+000 7.208911e-001 2.791089e-001 0.000000e+000
 0.000000e+000 0.000000e+000 0.000000e+000 8.201725e-001 1.798275e-001
 0.000000e+000 0.000000e+000 0.000000e+000 0.000000e+000 0.000000e+000
<ENDHMM>
~h "t"
<BEGINHMM>
<NUMSTATES> 5
<STATE> 2
<MEAN> 39
 -2.030219e+001 1.459935e+000 3.828173e+000 2.950158e+000 4.934321e+000 5.600870e+000 6.282117e+000 3.695059e+000 6.449285e+000 5.130621e+000 6.083689e+000 3.539691e+000 6.093993e+001 3.545540e-001 -1.740203e-001 3.147886e-001 -2.556320e-001 1.335824e-001 -2.803369e-001 -1.305053e-001 -5.540465e-001 -3.873716e-001 -4.292839e-001 -2.424423e-001 -4.919029e-001 8.809419e-001 3.296161e-001 7.577041e-003 -1.935949e-001 4.728137e-002 -2.822670e-002 -2.112125e-001 -9.771070e-002 -6.345649e-002 -1.244132e-001 -2.097312e-001 -1.446651e-001 -1.145721e-001 1.944555e-001
<VARIANCE> 39
 1.757636e+001 3.135783e+001 2.289233e+001 3.239738e+001 1.369761e+001 1.426541e+001 1.620844e+001 2.095949e+001 2.298127e+001 1.083510e+001 1.378540e+001 1.094215e+001 2.277067e+001 2.934257e+000 2.208143e+000 2.731106e+000 2.071203e+000 1.679602e+000 1.696558e+000 1.982370e+000 1.851419e+000 3.036344e+000 1.456517e+000 2.015284e+000 1.528764e+000 1.367934e+000 6.140071e-001 3.755943e-001 6.075878e-001 3.699070e-001 3.857633e-001 3.898024e-001 4.306579e-001 4.086922e-001 6.266139e-001 3.094475e-001 4.095961e-001 2.990299e-001 2.548758e-001
<GCONST> 1.065357e+002
<STATE> 3
<MEAN> 39
 -1.240368e+001 2.580669e+000 1.277014e+000 2.893917e+000 6.204457e+000 7.837889e-001 2.751312e+000 -1.144256e+000 2.014592e+000 8.775701e-002 2.227219e+000 1.923382e-003 6.723850e+001 4.520025e+000 -5.685969e-002 -3.006781e+000 6.793268e-001 -1.585655e-001 -2.940438e+000 -1.633867e+000 -2.519896e-001 -1.688823e+000 -2.941317e+000 -1.806362e+000 -6.858779e-001 2.356323e+000 3.223863e-001 -1.977387e-001 -2.959580e-001 6.429870e-002 -2.647392e-001 -3.705061e-001 6.678995e-002 8.112920e-001 -7.937472e-003 -2.187213e-001 -6.144881e-002 5.224622e-002 4.281832e-002
<VARIANCE> 39
 4.903894e+001 3.937557e+001 5.068666e+001 7.024107e+001 3.130672e+001 3.721008e+001 4.685233e+001 1.921739e+001 2.066378e+001 2.160688e+001 2.960138e+001 1.286148e+001 2.775636e+001 2.415896e+000 3.656401e+000 4.046186e+000 2.181984e+000 3.514395e+000 3.480853e+000 3.641463e+000 4.559472e+000 5.956052e+000 3.284230e+000 2.838726e+000 2.763969e+000 2.537772e+000 8.072161e-001 5.918642e-001 1.090569e+000 4.729303e-001 7.032205e-001 7.080569e-001 7.152241e-001 4.796211e-001 5.697570e-001 5.496554e-001 3.872330e-001 1.296175e-001 4.700191e-001
<GCONST> 1.242100e+002
<STATE> 4
<MEAN> 39
 -3.299563e+000 6.855531e+000 -1.258004e+000 7.417473e+000 4.943558e+000 -3.302264e+000 3.411448e-001 2.728569e+000 -1.671364e+000 -5.915556e+000 -4.121743e+000 -7.774815e+000 6.885924e+001 1.106037e+000 1.781649e-001 -2.527398e-001 -2.305808e-001 -7.589845e-001 -1.106034e+000 -3.131088e-001 6.245467e-001 -1.201570e-001 -6.838751e-001 -3.335376e-001 -3.230705e-001 5.730215e-001 -5.670755e-001 -1.467711e-001 2.097151e-001 -6.757887e-002 -6.154424e-002 2.236278e-001 1.157043e-001 7.046388e-002 3.994367e-001 4.887999e-001 3.785704e-001 3.700659e-001 -3.109688e-001
<VARIANCE> 39
 1.085056e+001 1.774895e+001 2.200761e+001 1.581957e+001 1.792500e+001 3.581543e+001 4.948456e+001 1.680013e+001 4.656565e+001 3.750458e+001 3.731594e+001 3.760970e+001 1.171880e+001 6.613669e+000 1.593392e+000 4.177633e+000 9.348300e-001 2.189446e+000 3.697901e+000 2.216247e+000 3.163120e+000 2.712795e+000 4.019278e+000 2.536843e+000 3.685421e+000 2.511789e+000 2.638116e-001 4.914537e-001 4.685279e-001 2.271495e-001 2.591968e-001 2.663713e-001 3.214450e-001 3.247029e-001 4.828756e-001 6.779440e-001 5.865397e-001 4.441044e-001 3.062262e-001
<GCONST> 1.135914e+002
<TRANSP> 5
 0.000000e+000 1.000000e+000 0.000000e+000 0.000000e+000 0.000000e+000
 0.000000e+000 8.524184e-001 1.475815e-001 0.000000e+000 0.000000e+000
 0.000000e+000 0.000000e+000 5.055684e-001 4.944316e-001 0.000000e+000
 0.000000e+000 0.000000e+000 0.000000e+000 7.195901e-001 2.804100e-001
 0.000000e+000 0.000000e+000 0.000000e+000 0.000000e+000 0.000000e+000
<ENDHMM>
~h "w"
<BEGINHMM>
<NUMSTATES> 5
<STATE> 2
<MEAN> 39
 -1.349966e+000 6.274312e+000 5.528542e-001 1.000410e+001 -3.586276e+000 -1.833595e+001 -3.054362e+000 6.705282e+000 -6.935547e+000 -1.044227e+001 -7.788972e-001 -4.965555e+000 6.976984e+001 -5.050452e-001 7.339869e-001 8.557500e-001 -2.399659e-003 -7.814436e-001 -1.188837e-001 -1.893132e-001 2.506388e-001 5.746478e-001 8.029636e-001 -2.592650e-001 1.536466e-001 -7.742584e-001 -2.893424e-001 -1.070874e-001 1.615068e-002 -7.614547e-002 1.302298e-001 3.551108e-001 9.191254e-002 -2.798137e-001 1.050868e-001 8.707532e-002 1.567069e-001 2.899344e-001 -1.050632e-001
<VARIANCE> 39
 2.107665e+000 1.070723e+001 1.579645e+001 9.413578e+000 3.073207e+001 7.172269e+001 5.565425e+000 5.213610e+001 4.645610e+001 7.699128e+000 4.753381e+000 5.982307e+000 1.913457e+000 2.378907e-001 6.123179e-001 5.328687e-001 3.328469e-001 6.040046e-001 9.120923e-001 1.604149e+000 5.083193e-001 7.533510e-001 1.364681e+000 1.619600e-001 4.820648e-001 2.243958e-001 9.396093e-002 1.509153e-001 6.682359e-002 8.005149e-002 6.010765e-002 3.256277e-001 1.231063e-001 1.863806e-001 1.800359e-001 3.256815e-001 8.423691e-002 1.661030e-001 4.601195e-002
<GCONST> 6.718788e+001
<STATE> 3
<MEAN> 39
 -5.504747e+000 1.157206e+001 4.079263e+000 5.170990e+000 -5.393440e+000 -1.185490e+001 -3.471188e+000 2.551824e+000 -7.770167e-002 -3.716110e+000 -2.633293e+000 -4.222211e+000 6.486666e+001 -1.881401e+000 9.586909e-001 1.049494e+000 -6.756486e-001 4.127467e-001 2.063865e+000 2.574524e-002 -1.199721e+000 1.044032e+000 1.798401e+000 2.688727e-001 3.053444e-001 -1.506874e+000 -3.071102e-001 -4.168220e-001 -3.273601e-001 1.651830e-002 6.601927e-001 6.154050e-001 2.443204e-001 1.927644e-002 -9.200381e-002 -3.100598e-002 3.037145e-001 3.207976e-001 -7.173631e-002
<VARIANCE> 39
 7.386121e+000 5.186225e+000 3.800344e+000 5.354067e+000 1.147683e+001 3.442406e+001 4.595496e+000 2.748788e+001 3.794152e+001 2.956652e+001 5.872998e+000 6.469062e+000 3.770871e+000 5.448195e-001 3.298697e-001 4.033468e-001 5.733722e-001 2.038369e+000 4.722936e+000 2.741813e-001 6.510534e-001 1.346013e+000 6.937906e-001 6.132057e-001 9.398458e-001 2.406412e-001 5.619255e-002 1.010178e-001 5.921473e-002 4.286980e-002 7.029978e-002 3.405247e-001 7.228012e-002 2.770581e-001 2.835149e-001 3.511333e-001 8.525324e-002 1.040577e-001 2.813268e-002
<GCONST> 6.706456e+001
<STATE> 4
<MEAN> 39
 -1.555536e+001 7.477479e+000 2.523370e+000 5.372871e+000 2.485478e+000 7.218615e-001 -3.078543e-001 1.436537e+000 3.382143e+000 2.043681e+000 2.206979e+000 5.997040e-001 5.919851e+001 -1.381374e+000 -1.273559e+000 -1.045299e+000 -1.067722e-001 1.044616e+000 1.861979e+000 1.063531e+000 9.502851e-001 1.898124e+000 1.571783e+000 9.823983e-001 7.509796e-001 -6.452537e-001 3.262016e-001 -7.798253e-002 -1.180133e-001 -4.907212e-003 -3.444362e-001 -4.419825e-001 1.657899e-001 3.416093e-001 -1.500770e-003 -1.133895e-001 -2.831348e-002 -4.028516e-002 2.206682e-001
<VARIANCE> 39
 9.034385e+000 2.013051e+001 1.201314e+001 1.281245e+001 1.645574e+001 1.471428e+001 1.589521e+001 1.467564e+001 3.321151e+001 1.663000e+001 4.049262e+000 1.288349e+001 1.829955e+000 1.113528e+000 8.009865e-001 6.277479e-001 8.668244e-001 1.198202e+000 2.128437e+000 1.879004e+000 2.182111e+000 2.469551e+000 1.867246e+000 9.268651e-001 1.735147e+000 5.179904e-001 6.058845e-002 3.033434e-001 2.963617e-001 2.271970e-001 2.882562e-001 2.944446e-001 4.106082e-001 4.758619e-001 6.370667e-001 2.217091e-001 1.767215e-001 3.296101e-001 6.673162e-002
<GCONST> 8.840034e+001
<TRANSP> 5
 0.000000e+000 1.000000e+000 0.000000e+000 0.000000e+000 0.000000e+000
 0.000000e+000 7.999417e-001 2.000584e-001 0.000000e+000 0.000000e+000
 0.000000e+000 0.000000e+000 7.334039e-001 2.665961e-001 0.000000e+000
 0.000000e+000 0.000000e+000 0.000000e+000 8.032588e-001 1.967411e-001
 0.000000e+000 0.000000e+000 0.000000e+000 0.000000e+000 0.000000e+000
<ENDHMM>
~h "ah"
<BEGINHMM>
<NUMSTATES> 5
<STATE> 2
<MEAN> 39
 -1.616604e+001 5.347743e+000 -2.280496e-001 2.748416e+000 2.427837e+000 4.342777e+000 6.533097e+000 6.686578e+000 6.750627e+000 5.013195e+000 4.953098e+000 3.657121e+000 5.899298e+001 -8.985581e-001 -3.332179e-001 1.485043e-001 2.564294e-001 4.141543e-001 4.849880e-001 2.424278e-001 1.919487e-001 2.827209e-001 4.202463e-001 4.758888e-001 4.155778e-001 -5.571872e-001 2.006172e-001 -5.839783e-003 -5.860412e-002 1.514812e-002 -7.941619e-002 -2.101798e-001 -1.657845e-001 -1.121187e-001 -1.321890e-001 -1.405570e-001 -7.452759e-002 -7.550175e-002 1.544412e-001
<VARIANCE> 39
 1.061105e+001 5.697370e+000 9.832119e+000 1.470555e+001 1.447014e+001 1.381627e+001 1.526146e+001 1.105191e+001 1.092319e+001 1.585539e+001 1.452941e+001 1.392352e+001 4.361115e+000 9.198920e-001 4.927001e-001 9.278662e-001 1.104397e+000 1.157963e+000 1.301426e+000 1.610544e+000 1.113150e+000 1.268599e+000 1.351820e+000 1.162484e+000 1.295983e+000 4.646646e-001 1.586507e-001 8.760057e-002 1.757553e-001 1.632988e-001 1.846332e-001 3.224383e-001 3.632446e-001 2.082373e-001 2.773503e-001 3.051138e-001 2.278977e-001 2.352680e-001 8.749147e-002
<GCONST> 8.246397e+001
<STATE> 3
<MEAN> 39
 -1.923864e+001 4.326476e+000 8.011714e-001 4.441172e+000 4.245695e+000 5.870317e+000 6.611618e+000 6.221202e+000 7.075212e+000 5.761538e+000 6.026378e+000 4.833403e+000 5.725103e+001 -1.935881e-001 -6.675334e-002 7.124175e-002 1.310791e-001 1.208481e-001 1.452114e-001 1.251619e-002 -5.987183e-002 1.190408e-002 1.491921e-001 1.550721e-001 1.118292e-001 -1.188716e-001 6.023437e-002 2.582151e-002 3.171800e-003 -1.667265e-003 -2.067380e-002 -4.662637e-002 -1.391561e-002 -2.438170e-003 -2.787457e-002 -2.371106e-002 -6.524061e-002 -7.021841e-002 3.752684e-002
<VARIANCE> 39
 1.579373e+000 1.449336e+000 3.271177e+000 4.816298e+000 5.740593e+000 5.538813e+000 5.195485e+000 7.056870e+000 6.425798e+000 6.156482e+000 6.034568e+000 6.931453e+000 5.756066e-001 1.971808e-001 1.737849e-001 4.727189e-001 6.567830e-001 5.967986e-001 6.410636e-001 8.301800e-001 8.133942e-001 9.603763e-001 7.839475e-001 7.073770e-001 8.318848e-001 9.211989e-002 4.849291e-002 3.449586e-002 1.084562e-001 1.313748e-001 1.127039e-001 1.039633e-001 1.634350e-001 1.738399e-001 1.968220e-001 1.378321e-001 1.282517e-001 1.527711e-001 2.313802e-002
<GCONST> 5.012920e+001
<STATE> 4
<MEAN> 39
 -1.982179e+001 4.227055e+000 1.173579e+000 5.236066e+000 4.594506e+000 6.233714e+000 6.598036e+000 6.466063e+000 6.808801e+000 6.175738e+000 6.116349e+000 4.831872e+000 5.682394e+001 -5.693131e-003 -7.807111e-003 4.594356e-004 5.194461e-003 9.812812e-003 -1.017720e-002 6.320395e-003 2.364555e-003 -1.457645e-002 -1.083173e-002 -3.487424e-003 -8.848915e-003 8.114422e-004 2.736393e-002 3.159789e-003 -7.549410e-003 -1.058350e-002 -4.651174e-003 -6.035952e-003 -5.108101e-003 -1.572193e-002 -1.421210e-002 -2.301495e-002 -9.479668e-003 -2.365588e-003 2.225022e-002
<VARIANCE> 39
 7.076837e-001 6.770028e-001 1.308062e+000 1.990309e+000 2.843434e+000 3.735454e+000 3.824032e+000 4.364246e+000 4.907487e+000 4.915545e+000 4.818755e+000 4.397474e+000 5.072046e-001 3.718427e-002 7.782533e-002 1.404124e-001 2.273206e-001 3.140393e-001 3.984808e-001 4.274424e-001 4.844525e-001 5.686650e-001 5.569929e-001 5.006848e-001 4.707201e-001 1.169577e-002 1.290742e-002 1.901368e-002 3.409016e-002 4.954813e-002 6.380741e-002 8.606749e-002 8.927461e-002 1.088328e-001 1.253276e-001 1.134201e-001 1.059169e-001 9.867880e-002 5.723371e-003
<GCONST> 2.413525e+001
<TRANSP> 5
 0.000000e+000 1.000000e+000 0.000000e+000 0.000000e+000 0.000000e+000
 0.000000e+000 7.153151e-001 2.846849e-001 0.000000e+000 0.000000e+000
 0.000000e+000 0.000000e+000 7.876344e-001 2.123656e-001 0.000000e+000
 0.000000e+000 0.000000e+000 0.000000e+000 9.387183e-001 6.128171e-002
 0.000000e+000 0.000000e+000 0.000000e+000 0.000000e+000 0.000000e+000
<ENDHMM>
~h "hh"
<BEGINHMM>
<NUMSTATES> 5
<STATE> 2
<MEAN> 39
 2.585277e+000 -1.031452e+000 -1.300545e+001 -3.171135e+000 -4.041297e+000 -1.006266e+001 3.848848e+000 1.080522e+001 -3.386070e-001 -2.595577e+000 1.546394e+000 -9.090315e-001 7.420618e+001 -6.314609e-001 7.311090e-001 6.565061e-001 8.554839e-001 1.191826e+000 6.563859e-001 -1.247051e+000 -5.802503e-001 1.489444e+000 1.126912e+000 -1.656022e+000 -1.377052e+000 -9.897426e-001 -3.066020e-001 1.141168e-001 3.823247e-001 4.572819e-001 3.768207e-001 4.884493e-001 1.718623e-001 -6.253834e-002 -2.337531e-001 -2.345318e-001 -1.229641e-002 -3.061957e-001 -1.901189e-001
<VARIANCE> 39
 1.625799e+000 4.552866e+000 8.313066e+000 2.659508e+001 4.400657e+001 1.323336e+001 2.277466e+001 1.214192e+001 1.037195e+001 7.171567e+000 1.652030e+001 1.532095e+001 3.055762e+000 2.984262e-001 3.043651e-001 3.967284e-001 1.101301e+000 4.152554e+000 7.352936e-001 1.868896e+000 8.752739e-001 2.164858e-001 1.195526e+000 6.026679e-001 6.580220e-001 4.936880e-002 1.840138e-002 1.435433e-001 1.583220e-001 7.435306e-002 2.584082e-001 1.430419e-001 3.852811e-001 1.480652e-001 7.696100e-002 3.770132e-001 1.727640e-001 1.547578e-001 4.127489e-002
<GCONST> 6.823421e+001
<STATE> 3
<MEAN> 39
 3.642172e-002 -1.357477e+000 -9.741590e+000 5.082529e+000 2.430210e+000 -8.590474e+000 1.462326e+000 1.249783e+001 2.847383e+000 -3.433181e+000 -2.670281e+000 -9.138371e+000 7.194532e+001 -8.699955e-001 7.588100e-001 1.123884e+000 9.796187e-001 4.810783e-001 1.458762e+000 2.583847e-001 -5.725435e-001 3.062440e-001 2.211868e-001 -1.695259e-001 -1.256402e+000 -9.266486e-001 -1.269384e-001 2.610613e-001 2.412751e-001 -1.035930e-001 -1.389330e-001 2.936735e-001 1.131329e-001 -2.997638e-001 -2.381126e-001 -6.099972e-002 2.790110e-001 2.181658e-001 -1.284689e-001
<VARIANCE> 39
 2.056203e+000 5.334800e+000 7.753304e+000 8.273434e+001 5.111270e+000 6.054930e+000 4.463885e+000 2.191952e+001 3.946094e+000 1.659545e+001 2.598666e+000 2.687964e+001 1.681664e+000 1.939610e-001 1.709562e+000 1.245649e+000 9.870315e-001 2.835870e+000 1.012032e+000 5.215111e-001 1.209485e+000 1.656219e-001 5.590330e-001 1.744910e+000 1.641619e+000 6.712313e-001 9.397586e-002 9.605139e-002 1.945540e-001 2.641933e-001 5.047218e-001 3.057646e-001 1.081117e-001 9.283352e-002 5.759755e-002 1.397557e-001 1.978907e-001 2.148156e-001 8.816743e-002
<GCONST> 7.091557e+001
<STATE> 4
<MEAN> 39
 -3.663279e+000 2.762419e+000 -6.853019e+000 3.846589e+000 2.594088e+000 -9.812292e-001 3.162277e+000 7.290665e+000 2.466125e+000 -1.471265e+000 -2.686348e+000 -7.817611e+000 6.786811e+001 -1.515026e+000 1.461607e+000 1.915681e+000 7.631457e-001 8.753371e-001 1.920382e+000 1.767390e-001 -9.548362e-001 -2.259684e-001 1.970441e-001 -2.661832e-001 -5.749707e-001 -1.511740e+000 -2.144862e-001 -1.649844e-002 1.502066e-001 -2.669363e-002 3.787956e-002 5.006852e-003 1.495968e-001 8.046792e-002 -8.500236e-002 -5.298486e-002 1.105110e-001 2.783392e-001 -6.245406e-002
<VARIANCE> 39
 4.812152e+000 1.165427e+001 9.208916e+000 2.973569e+001 9.521703e+000 1.760495e+001 8.413172e+000 1.388305e+001 7.388891e+000 7.994609e+000 4.978743e+000 9.787264e+000 2.339462e+000 4.172717e-001 1.246928e+000 1.773841e+000 1.605124e+000 1.021285e+000 3.549396e+000 3.713062e-001 1.094537e+000 6.777013e-001 5.324183e-001 1.016265e+000 2.497403e+000 6.604035e-001 7.383115e-002 1.604823e-001 8.602664e-002 1.195912e-001 3.911989e-001 4.819562e-001 1.041053e-001 1.340461e-001 1.563073e-001 2.825377e-001 2.992423e-001 9.679191e-002 6.949119e-002
<GCONST> 7.601044e+001
<TRANSP> 5
 0.000000e+000 1.000000e+000 0.000000e+000 0.000000e+000 0.000000e+000
 0.000000e+000 6.662872e-001 3.337128e-001 0.000000e+000 0.000000e+000
 0.000000e+000 0.000000e+000 6.002280e-001 3.997720e-001 0.000000e+000
 0.000000e+000 0.000000e+000 0.000000e+000 6.920682e-001 3.079318e-001
 0.000000e+000 0.000000e+000 0.000000e+000 0.000000e+000 0.000000e+000
<ENDHMM>
~h "ih"
<BEGINHMM>
<NUMSTATES> 5
<STATE> 2
<MEAN> 39
 -1.304137e+001 5.613833e+000 1.665979e+000 5.864858e+000 3.754402e+000 6.988146e-001 2.990336e+000 4.770357e+000 5.170123e+000 -2.202108e-001 1.034265e+000 -6.799930e-001 6.236280e+001 2.073881e+000 -7.049791e-001 -1.136757e+000 -1.188865e+000 -2.044412e+000 -2.734882e+000 -8.117518e-001 1.753647e-001 2.364409e-001 -1.487756e+000 -4.277910e-001 -5.665299e-002 2.229245e+000 1.233437e+000 -3.536584e-001 -8.801075e-001 -3.355073e-001 -6.676288e-001 -1.363633e+000 -5.540989e-001 3.920947e-001 3.274055e-001 -1.420549e-001 -3.374033e-001 -4.719239e-001 9.824242e-001
<VARIANCE> 39
 5.690525e+001 9.172407e+000 2.576803e+000 3.271301e+000 1.553577e+001 5.361390e+001 3.303239e+001 1.918850e+001 4.423380e+001 6.021807e+001 9.829105e+000 2.028088e+001 4.355104e+001 7.623617e+000 1.396165e+000 3.982342e+000 1.093006e+000 4.117273e+000 1.000918e+001 2.598896e+000 3.407779e+000 1.450579e+000 2.176596e+000 1.803295e+000 3.030548e+000 6.120249e+000 8.272985e-001 2.054086e-001 3.405930e-001 1.584065e-001 5.711364e-001 1.176758e+000 5.065819e-001 8.620406e-001 6.046824e-001 9.564732e-001 3.385362e-001 3.314567e-001 7.363206e-001
<GCONST> 1.156361e+002
<STATE> 3
<MEAN> 39
 2.332094e+000 4.177424e-001 -8.880528e+000 2.686109e-001 -5.977434e+000 -1.702554e+001 -2.947334e+000 1.012747e+001 7.833985e+000 -5.637850e+000 -1.894080e+000 -2.777700e+000 7.535022e+001 2.539912e+000 -1.524418e+000 -2.750728e+000 -9.284754e-001 -1.810500e+000 -2.366582e+000 2.129952e-001 1.511824e+000 7.476382e-001 -1.645389e-001 -4.239075e-001 -1.762430e-001 1.823416e+000 -9.935967e-001 2.678764e-001 4.800810e-001 3.766315e-001 7.423831e-001 1.393745e+000 6.137443e-001 -5.437795e-001 -3.514468e-001 5.382522e-001 2.405303e-001 2.757471e-001 -8.938543e-001
<VARIANCE> 39
 1.392480e+001 3.377764e+001 6.412498e+001 1.765028e+001 5.806852e+001 3.977383e+001 2.671103e+001 4.736602e+001 7.740101e+001 4.168689e+001 2.000507e+001 1.120891e+001 7.088861e+000 6.603164e+000 3.042408e+000 5.914438e+000 1.708748e+000 4.250913e+000 1.044577e+001 1.729146e+000 5.041703e+000 3.988164e+000 2.325541e+000 1.201572e+000 8.300340e-001 3.902188e+000 6.660451e-001 3.593549e-001 9.385108e-001 1.517424e-001 3.738163e-001 1.167916e+000 3.661503e-001 5.894173e-001 6.560439e-001 2.513103e-001 2.643284e-001 8.207022e-002 3.864694e-001
<GCONST> 1.177337e+002
<STATE> 4
<MEAN> 39
 3.033881e+000 -3.535519e+000 -1.438952e+001 -9.545882e-001 -9.820138e+000 -1.461891e+001 4.194765e+000 1.247400e+001 3.913661e+000 -2.454368e+000 6.570081e-002 -1.336129e+000 7.533997e+001 -5.617269e-001 5.045803e-001 3.793055e-001 -2.105952e-001 1.733324e-001 6.585590e-001 3.286396e-001 -7.858928e-001 -4.632098e-001 3.765317e-001 6.465732e-002 7.252727e-001 -5.625547e-001 -2.759306e-001 2.254768e-001 3.556366e-001 1.308311e-001 1.536479e-001 7.008651e-002 -2.171164e-001 -1.680687e-001 -5.342924e-002 -1.226809e-001 8.616816e-002 1.452598e-001 -2.124054e-001
<VARIANCE> 39
 1.272104e+001 3.408498e+001 3.797821e+001 2.898728e+001 3.945206e+001 3.225915e+001 2.250063e+001 4.617216e+001 3.204807e+001 2.680385e+001 1.367079e+001 1.775379e+001 1.401120e+001 5.259194e-001 4.965062e-001 1.335375e+000 4.900165e-001 8.981381e-001 1.679710e+000 8.522807e-001 1.015277e+000 2.164539e+000 5.702947e-001 6.541321e-001 6.588161e-001 4.086777e-001 1.406026e-001 1.622929e-001 2.506270e-001 9.728594e-002 1.732885e-001 2.360260e-001 1.172844e-001 1.958943e-001 2.083933e-001 2.457044e-001 1.579607e-001 1.589875e-001 8.764929e-002
<GCONST> 8.715447e+001
<TRANSP> 5
 0.000000e+000 1.000000e+000 0.000000e+000 0.000000e+000 0.000000e+000
 0.000000e+000 6.079175e-001 3.920825e-001 0.000000e+000 0.000000e+000
 0.000000e+000 0.000000e+000 5.987987e-001 4.012013e-001 0.000000e+000
 0.000000e+000 0.000000e+000 0.000000e+000 7.646056e-001 2.353944e-001
 0.000000e+000 0.000000e+000 0.000000e+000 0.000000e+000 0.000000e+000
<ENDHMM>
~h "iy"
<BEGINHMM>
<NUMSTATES> 5
<STATE> 2
<MEAN> 39
 -5.219429e+000 6.605378e+000 2.324499e+000 1.212044e+001 1.118238e+001 -2.801992e+000 -7.646421e+000 -2.836455e+000 -6.477041e-001 -3.758636e+000 -4.374676e+000 -8.423574e+000 6.809318e+001 -1.517628e-001 -6.300495e-001 8.544204e-002 4.269868e-001 5.217806e-001 -7.784876e-001 -7.280752e-002 -4.603621e-001 -1.176101e+000 -4.101984e-001 1.112776e+000 4.342088e-001 4.791290e-001 1.024435e-001 -8.412445e-002 -1.771166e-001 -4.170066e-002 -2.146710e-001 -2.615676e-001 1.754516e-002 4.201367e-002 -3.311306e-001 -1.747100e-001 3.281341e-001 2.248686e-001 1.192275e-001
<VARIANCE> 39
 3.963727e+000 6.013313e+001 2.059385e+001 4.702739e+001 2.550636e+001 3.921062e+001 3.593953e+001 1.432095e+001 1.932294e+001 1.313974e+001 2.558447e+001 2.288011e+001 2.276300e+001 1.713102e-001 3.165016e+000 6.950724e-001 3.191453e+000 1.335749e+000 4.871638e+000 1.846398e+000 2.058254e-001 1.385004e+000 1.595149e+000 1.342061e+000 9.488655e-001 1.316324e+000 2.783557e-002 6.667646e-001 1.053687e-001 6.090211e-001 2.942802e-001 9.832059e-001 5.003787e-001 6.281428e-002 2.648689e-001 1.227132e-001 3.049814e-001 2.205052e-001 2.697742e-001
<GCONST> 9.574268e+001
<STATE> 3
<MEAN> 39
 -2.169522e+000 -8.287250e-001 -2.527861e+000 1.251125e+001 1.015573e+001 -9.627468e+000 -6.159681e+000 -3.564055e+000 -9.245154e+000 -1.099824e+001 1.156870e+000 -3.793468e-002 7.376900e+001 6.384217e-001 -9.628334e-002 -1.082699e+000 -9.759023e-001 -1.193684e+000 -5.794175e-001 5.857204e-001 8.330618e-001 -6.565543e-001 -7.062657e-001 5.699682e-002 8.124228e-001 2.638441e-001 4.445194e-002 -4.749522e-002 -6.871823e-002 -2.817338e-002 -7.105913e-002 -1.568655e-001 -2.377675e-001 2.574313e-001 5.619573e-001 5.390194e-002 3.783137e-002 3.105321e-002 1.842614e-002
<VARIANCE> 39
 4.571990e+000 8.252439e+000 1.212023e+001 4.168390e+001 3.749022e+001 2.435670e+001 2.461737e+001 3.943476e+001 2.893021e+001 4.108190e+001 6.313967e+001 1.081098e+001 3.303488e+000 3.587682e-001 1.921395e+000 1.051455e+000 2.774955e+000 1.473715e+000 6.633921e+000 3.632174e+000 3.361448e+000 3.719470e+000 1.381084e+000 3.637050e+000 9.140440e-001 9.956269e-001 6.909587e-002 2.731491e-001 1.607333e-001 4.896739e-001 1.993923e-001 1.385200e+000 5.382237e-001 7.068143e-001 2.877522e-001 3.621334e-001 7.710579e-001 2.387533e-001 1.938369e-001
<GCONST> 1.039838e+002
<STATE> 4
<MEAN> 39
 1.575414e+000 -4.280389e+000 -1.082654e+001 3.104444e+000 -2.957211e-001 -1.431754e+001 -2.279248e+000 3.797718e+000 -4.115280e+000 -7.439981e+000 6.139994e+000 7.752091e+000 7.626055e+001 -1.554137e-001 1.657824e-001 -1.164698e-001 -5.305918e-001 -9.330789e-001 4.388616e-001 8.240080e-001 2.317688e-001 4.133062e-001 1.110019e+000 6.661071e-001 1.542499e-001 -4.004126e-001 -2.092362e-001 2.132741e-001 3.893175e-001 2.855158e-001 2.466750e-001 4.140467e-001 -4.009798e-002 -2.025096e-001 -1.003595e-001 -8.380811e-002 -2.613407e-001 -3.508492e-001 -2.453025e-001
<VARIANCE> 39
 1.383138e+000 1.476306e+001 1.486268e+001 3.343464e+001 3.433852e+001 2.236588e+001 3.762521e+001 3.609399e+001 1.628116e+001 4.249797e+001 6.382803e+001 1.419941e+001 4.419789e+000 3.807642e-001 1.034146e+000 1.652820e+000 2.949422e+000 2.864309e+000 2.291405e+000 4.153418e+000 2.832350e+000 1.109408e+000 2.174659e+000 4.680024e+000 3.307773e+000 6.845118e-001 1.590869e-002 6.250183e-002 1.069907e-001 3.797801e-001 4.516895e-001 4.228529e-001 8.701128e-001 4.742252e-001 2.173501e-001 6.264283e-001 7.557818e-001 3.386961e-001 2.540843e-002
<GCONST> 9.814793e+001
<TRANSP> 5
 0.000000e+000 1.000000e+000 0.000000e+000 0.000000e+000 0.000000e+000
 0.000000e+000 7.894990e-001 2.105009e-001 0.000000e+000 0.000000e+000
 0.000000e+000 0.000000e+000 8.225732e-001 1.774268e-001 0.000000e+000
 0.000000e+000 0.000000e+000 0.000000e+000 8.642111e-001 1.357889e-001
 0.000000e+000 0.000000e+000 0.000000e+000 0.000000e+000 0.000000e+000
<ENDHMM>
~h "jh"
<BEGINHMM>
<NUMSTATES> 5
<STATE> 2
<MEAN> 39
 -2.530715e-001 1.279543e+000 -4.541539e+000 1.183818e+001 8.486848e+000 -6.452868e+000 -6.673650e+000 -2.530709e+000 -2.237987e+000 -1.893942e+000 -2.192251e+000 -5.580179e+000 7.152280e+001 2.163445e-001 -3.406905e-001 -2.771444e-001 -3.625757e-001 -1.015197e-001 -1.826388e-001 1.705997e-001 2.415722e-001 -4.311066e-001 -1.890870e-001 2.506742e-002 -4.268039e-003 3.239312e-001 1.867459e-003 -7.344538e-003 -1.943189e-001 -4.480037e-001 -2.162100e-001 -3.463701e-002 4.171279e-001 2.665278e-001 -2.963701e-001 -2.058136e-001 2.248286e-001 2.546127e-001 8.653762e-002
<VARIANCE> 39
 7.076837e-001 3.599812e+000 2.575927e+000 5.654560e+000 4.747890e+001 4.693614e+000 3.786591e+001 2.772602e+001 1.954667e+001 2.685902e+001 2.197278e+001 5.608927e+000 1.171231e+000 3.307078e-001 4.573140e-001 7.109296e-001 6.359987e-001 1.235442e+000 1.249824e+000 8.115177e-001 2.130370e+000 5.765875e-001 5.209968e-001 1.772994e+000 1.667858e-001 1.994386e-001 3.286549e-002 5.502876e-002 1.078235e-001 1.359164e-001 2.255666e-001 2.253698e-001 1.577925e-001 1.444610e-001 1.006256e-001 1.226546e-001 3.503412e-001 1.702617e-001 5.337503e-002
<GCONST> 6.571252e+001
<STATE> 3
<MEAN> 39
 5.002655e-001 -6.505657e-001 -7.777843e+000 4.621892e+000 4.871454e+000 -8.856799e+000 -4.906500e-001 1.144289e+000 -7.126066e+000 -4.740978e+000 2.255224e+000 -3.803953e+000 7.479581e+001 8.176170e-001 -1.076568e+000 -2.365004e+000 -3.311504e+000 -2.567481e+000 -2.099719e+000 3.055229e+000 3.108439e+000 -1.692926e+000 -2.107104e-001 3.065883e+000 2.289781e+000 1.644273e+000 2.476439e-002 -7.937866e-002 -1.588665e-001 -1.311623e-002 -5.916926e-002 8.867351e-002 -8.673232e-003 3.168123e-001 5.739115e-001 -9.427994e-002 -1.455961e-001 4.038333e-001 -4.206976e-002
<VARIANCE> 39
 1.674714e+000 1.643244e+001 7.043462e+000 2.805088e+001 6.519200e+001 1.884407e+001 4.058659e+001 4.039696e+001 1.587092e+001 3.363146e+001 9.558170e+001 1.415038e+001 8.042353e+000 3.665630e-001 9.464421e-001 2.720080e-001 2.619700e+000 2.503400e+000 4.197774e-001 2.276810e-001 4.211459e+000 3.420978e-001 7.875980e-001 3.070347e+000 6.489827e-001 1.331266e-001 8.578529e-002 1.263352e-001 2.617853e-001 4.765041e-001 5.233042e-001 6.944787e-001 3.193725e-001 5.450114e-001 2.078996e-001 1.430870e-001 1.159727e+000 2.577934e-001 1.336451e-001
<GCONST> 9.023827e+001
<STATE> 4
<MEAN> 39
 3.073927e+000 -4.583517e+000 -1.299068e+001 8.403808e-001 -6.162098e+000 -1.154711e+001 5.953506e+000 1.072043e+001 -9.718012e+000 -7.699105e+000 1.160095e+001 3.099665e+000 7.739927e+001 3.410573e-001 -2.934328e-001 -6.364068e-001 -8.829967e-001 -9.886494e-001 6.585007e-002 1.322843e+000 1.163623e+000 4.986549e-001 -3.963896e-001 -4.428552e-001 3.639289e-001 4.739741e-002 -1.722205e-001 2.924425e-001 3.906579e-001 2.570371e-001 3.067990e-001 2.481463e-001 -3.554440e-001 -4.387824e-001 4.024818e-001 4.927922e-002 -5.309598e-001 -3.774618e-001 -2.692578e-001
<VARIANCE> 39
 1.059080e+000 7.289728e+000 4.561921e+000 2.692791e+001 3.822945e+001 1.612033e+001 1.852287e+001 7.908810e+000 1.058878e+001 1.212586e+001 2.137780e+001 5.168096e+000 1.195846e+000 1.438569e-001 5.828459e-001 8.945072e-001 1.194906e+000 6.700938e-001 7.946462e-001 8.342865e-001 1.826972e+000 6.756725e-001 9.301037e-001 1.912678e+000 1.695306e+000 3.425409e-001 3.449696e-002 7.381216e-002 4.938060e-002 2.286213e-001 1.983999e-001 3.197242e-001 1.315638e-001 3.615523e-001 3.336647e-001 2.097213e-001 5.595014e-001 1.377689e-001 5.922148e-002
<GCONST> 7.239179e+001
<TRANSP> 5
 0.000000e+000 1.000000e+000 0.000000e+000 0.000000e+000 0.000000e+000
 0.000000e+000 8.399974e-001 1.600026e-001 0.000000e+000 0.000000e+000
 0.000000e+000 0.000000e+000 5.465611e-001 4.534389e-001 0.000000e+000
 0.000000e+000 0.000000e+000 0.000000e+000 7.182202e-001 2.817798e-001
 0.000000e+000 0.000000e+000 0.000000e+000 0.000000e+000 0.000000e+000
<ENDHMM>
~h "ow"
<BEGINHMM>
<NUMSTATES> 5
<STATE> 2
<MEAN> 39
 1.658840e-001 1.836523e+000 -5.245903e+000 4.381516e+000 3.276572e+000 -9.871287e+000 -2.841535e+000 2.537332e-001 -2.475782e+000 -8.651100e+000 -3.072312e-001 9.962475e-001 7.473135e+001 1.914514e+000 -1.661566e+000 -2.951216e+000 -2.487034e+000 -2.932363e+000 -4.188859e+000 2.614616e+000 3.169291e+000 -1.022139e+000 -2.331327e+000 2.829214e+000 3.314828e+000 2.252764e+000 -1.623055e-001 4.030154e-001 1.347153e-001 3.243475e-002 -3.394906e-001 -1.131003e-001 8.530551e-002 9.193982e-001 5.524876e-001 5.006984e-001 -5.013543e-002 -5.131741e-001 -4.785518e-001
<VARIANCE> 39
 7.878681e+000 1.762771e+001 4.042903e+001 1.942913e+001 5.692144e+001 3.683131e+001 4.067791e+001 3.869700e+001 3.916636e+001 2.545438e+001 4.057344e+001 3.916432e+001 1.054334e+001 5.760882e-001 9.374567e-001 6.496357e-001 3.117801e-001 7.208218e-001 2.290035e+000 5.393379e-001 5.690422e+000 4.425562e+000 3.689975e+000 2.973353e+000 3.273311e+000 7.009937e-001 1.868069e-001 1.577584e-001 4.088669e-001 1.357808e-001 2.867625e-001 7.759039e-001 4.689939e-001 6.204647e-001 7.047312e-001 6.597496e-001 8.875002e-001 1.252474e+000 3.313194e-001
<GCONST> 1.081232e+002
<STATE> 3
<MEAN> 39
 3.925218e+000 7.352626e-001 -1.158117e+001 -1.327386e+000 -4.543947e+000 -1.868169e+001 2.630456e+000 1.166261e+001 -1.349936e+000 -1.194337e+001 4.308135e+000 3.584806e+000 7.797894e+001 7.581874e-001 1.380632e-001 -7.882061e-001 -1.093162e+000 -2.133295e+000 -1.697343e+000 1.240799e-001 2.697833e+000 1.322390e+000 1.164073e+000 2.671369e-001 -1.127504e+000 2.502037e-001 -3.957246e-001 3.123325e-001 7.504319e-001 5.851446e-001 5.004948e-001 7.265429e-001 -9.935024e-001 -5.887163e-001 1.717136e-001 9.550781e-001 -5.679629e-001 -7.385184e-001 -4.811458e-001
<VARIANCE> 39
 1.173575e+000 1.384208e+001 4.302801e+000 2.345398e+001 3.456338e+001 1.158620e+001 9.396968e+000 6.455560e+000 3.544875e+001 1.373078e+001 2.606391e+001 2.507028e+001 1.053375e+000 3.308553e-001 2.122226e-001 1.454553e+000 4.774083e-001 1.150965e+000 1.002743e+000 3.929922e+000 1.245767e+000 1.267237e+000 2.542053e+000 1.081021e+000 3.915570e+000 1.797079e-001 4.908078e-002 1.461101e-001 1.352281e-001 3.517903e-002 4.182525e-002 5.321634e-001 1.418213e-001 3.935464e-001 5.348580e-001 2.988729e-001 2.907250e-001 8.154778e-001 5.979444e-002
<GCONST> 7.844000e+001
<STATE> 4
<MEAN> 39
 4.020852e+000 1.216583e+000 -7.124666e+000 1.758373e+000 -1.165629e+001 -2.556695e+001 -4.098101e+000 1.836652e+001 1.618118e+000 -5.240660e+000 3.948767e+000 -3.999256e-001 7.565356e+001 -1.817256e-001 3.506413e-001 4.469770e-001 2.169985e-001 -3.468333e-001 -2.792394e-001 -4.169832e-001 -1.118914e-002 2.729944e-001 3.421404e-001 -3.156711e-001 -5.573312e-002 -4.623666e-001 -1.102403e-001 1.203754e-001 8.930044e-002 -1.658585e-002 1.129342e-001 2.428383e-001 8.333851e-002 -2.815824e-001 -6.946342e-002 -8.508818e-002 -1.687471e-002 5.147221e-002 -8.565594e-002
<VARIANCE> 39
 2.239922e+000 6.755981e+000 1.939699e+001 2.847320e+001 1.934814e+001 2.717732e+001 2.856843e+001 1.369805e+001 2.182442e+001 1.562213e+001 1.641806e+001 7.316173e+000 3.610398e+000 1.275939e-001 5.966209e-001 5.111937e-001 4.627269e-001 7.216672e-001 1.257636e+000 1.282854e+000 1.266466e+000 4.070027e-001 1.807185e+000 6.713243e-001 7.241784e-001 1.513528e-001 1.367650e-002 3.828631e-002 8.073375e-002 6.547684e-002 3.630757e-002 8.246523e-002 1.861380e-001 9.212744e-002 6.725024e-002 1.973402e-001 1.264388e-001 1.915554e-001 1.012494e-002
<GCONST> 6.299170e+001
<TRANSP> 5
 0.000000e+000 1.000000e+000 0.000000e+000 0.000000e+000 0.000000e+000
 0.000000e+000 5.875633e-001 4.124367e-001 0.000000e+000 0.000000e+000
 0.000000e+000 0.000000e+000 6.366265e-001 3.633735e-001 0.000000e+000
 0.000000e+000 0.000000e+000 0.000000e+000 9.182311e-001 8.176894e-002
 0.000000e+000 0.000000e+000 0.000000e+000 0.000000e+000 0.000000e+000
<ENDHMM>
~h "sp"
<BEGINHMM>
<NUMSTATES> 5
<STATE> 2
~s "silst"
<STATE> 3
<MEAN> 39
 -1.964306e+001 4.224531e+000 8.408689e-001 5.011397e+000 4.830282e+000 6.145368e+000 6.951197e+000 5.701727e+000 7.139583e+000 6.492245e+000 6.088840e+000 4.595460e+000 5.697247e+001 7.005399e-002 1.435955e-002 -4.096438e-002 1.542572e-002 1.671951e-001 -5.184814e-002 4.222780e-002 -3.463269e-001 1.080244e-001 2.509844e-001 -1.066804e-003 -2.354688e-001 1.344163e-001 1.885074e-001 6.464083e-002 1.232786e-001 2.175877e-001 1.006203e-001 -1.637856e-001 -2.263905e-001 -1.897713e-001 -6.565386e-002 -1.111422e-001 -9.408046e-002 -1.460114e-001 1.355348e-001
<VARIANCE> 39
 8.668805e-001 6.341488e-001 1.698632e+000 1.670048e+000 4.095193e+000 2.206604e+000 5.399984e+000 3.170172e+000 2.787025e+000 2.890908e+000 2.706706e+000 1.098804e+001 5.072046e-001 8.429394e-002 4.088638e-002 2.944607e-001 1.385868e-001 3.810153e-001 3.971437e-001 8.857810e-001 6.251662e-001 7.829741e-001 1.761740e-001 1.450198e-001 7.708606e-001 3.984425e-002 6.097297e-002 5.488580e-002 7.648270e-002 1.005089e-001 9.515211e-002 5.673302e-002 1.579979e-001 5.928010e-002 2.826039e-001 1.390732e-001 1.045248e-001 2.637374e-001 2.455134e-002
<GCONST> 3.222480e+001
<STATE> 4
<MEAN> 39
 -1.940997e+001 3.980444e+000 4.782157e-001 5.108464e+000 5.562786e+000 6.758839e+000 6.709618e+000 5.916574e+000 7.358741e+000 6.002768e+000 4.768368e+000 4.367640e+000 5.716114e+001 5.397835e-001 4.663450e-001 6.939513e-001 7.810873e-001 4.558973e-001 -2.950864e-001 -1.063655e-001 -3.582588e-001 -4.287421e-001 -5.916183e-001 -5.616258e-001 -8.126934e-001 3.585946e-001 5.553335e-001 2.129520e-001 1.911585e-001 2.348495e-001 9.144524e-002 -2.686606e-001 -6.246361e-001 -1.770521e-001 -3.073181e-001 -3.221233e-001 -3.631773e-001 -4.553587e-001 3.755611e-001
<VARIANCE> 39
 9.508356e-001 4.636592e-001 1.434718e+000 1.017674e+000 6.000767e+000 2.754389e+000 6.412381e+000 9.354379e+000 5.493351e+000 1.907320e+000 5.904084e+000 5.605838e+000 5.164707e-001 5.704700e-001 8.001292e-001 5.652442e-001 8.323392e-001 5.905924e-001 4.611663e-001 9.164029e-001 8.538651e-001 1.650503e+000 1.201900e+000 1.274343e+000 1.033629e+000 2.637984e-001 2.526819e-001 1.103596e-001 4.974440e-002 7.101256e-002 9.543593e-002 1.704172e-001 2.933607e-001 5.286443e-002 3.650955e-001 1.809251e-001 2.591859e-001 3.389618e-001 1.262090e-001
<GCONST> 5.513779e+001
<TRANSP> 5
 0.000000e+000 7.000000e-001 3.000000e-001 0.000000e+000 0.000000e+000
 0.000000e+000 7.581326e-001 2.418675e-001 0.000000e+000 0.000000e+000
 0.000000e+000 0.000000e+000 5.583163e-001 4.416837e-001 0.000000e+000
 0.000000e+000 0.000000e+000 0.000000e+000 1.134596e-001 8.865404e-001
 0.000000e+000 0.000000e+000 0.000000e+000 0.000000e+000 0.000000e+000
<ENDHMM>
~h "uh"
<BEGINHMM>
<NUMSTATES> 5
<STATE> 2
<MEAN> 39
 -6.435646e+000 -1.198016e+000 -6.550043e+000 2.290230e+000 7.786311e-001 -6.122447e+000 3.943253e+000 2.744096e+000 -1.512395e-001 -1.854463e+000 5.419770e+000 4.363101e+000 7.011543e+001 2.945465e+000 -1.147286e+000 -1.441135e+000 8.530903e-001 -2.247315e-001 -2.532111e+000 -6.313668e-001 -7.927375e-001 -1.971397e+000 -2.675270e+000 -7.474178e-001 -5.900529e-001 2.599046e+000 -8.138311e-002 4.195366e-001 3.892855e-001 7.440673e-002 2.834934e-002 7.705031e-002 -3.251420e-001 7.883321e-002 -3.546387e-003 -3.078949e-002 -2.726824e-001 -4.527369e-001 -2.249228e-001
<VARIANCE> 39
 6.825906e+001 2.552526e+001 3.877246e+001 3.440210e+001 4.888623e+001 5.625330e+001 4.377863e+001 4.770838e+001 5.443563e+001 5.137867e+001 2.227054e+001 1.074560e+001 5.351723e+001 3.948251e+000 2.482417e+000 3.064379e+000 3.163575e+000 3.101820e+000 4.162941e+000 3.409490e+000 5.893539e+000 7.199306e+000 5.700258e+000 1.750876e+000 2.065362e+000 2.675944e+000 1.327410e+000 7.393935e-001 5.483111e-001 4.973308e-001 4.013013e-001 1.325197e+000 6.311693e-001 9.776618e-001 1.162499e+000 1.354043e+000 6.145045e-001 2.579629e-001 7.017398e-001
<GCONST> 1.312158e+002
<STATE> 3
<MEAN> 39
 8.555015e-001 -8.305099e-001 -8.927545e+000 3.682821e+000 2.343627e+000 -9.400413e+000 -4.560529e-002 1.869327e+000 -4.397745e+000 -8.283605e+000 1.166605e+000 1.649235e+000 7.445163e+001 1.235516e+000 3.009468e-001 -1.421243e-001 5.024924e-001 -4.161431e-001 -4.632315e-001 -8.015139e-001 2.156136e-001 1.874047e-001 -5.112177e-002 -1.296327e+000 -1.659144e+000 3.379896e-001 -8.709326e-001 2.617212e-001 5.768892e-001 -1.216460e-001 -3.852433e-002 4.133071e-001 1.161580e-002 1.319709e-001 7.495037e-001 9.976599e-001 1.917110e-001 -2.283783e-001 -6.708249e-001
<VARIANCE> 39
 1.222497e+001 2.392348e+001 3.267951e+001 4.769135e+001 9.269974e+001 3.358523e+001 5.774212e+001 7.549206e+001 3.345101e+001 2.769721e+001 2.342358e+001 1.887017e+001 1.428054e+001 2.090183e+000 5.295913e+000 4.397990e+000 1.570988e+000 1.931376e+000 7.107483e+000 2.650444e+000 2.802145e+000 3.761499e+000 5.649561e+000 5.077984e+000 3.963588e+000 1.462681e+000 6.921402e-001 2.533990e-001 5.388015e-001 2.357600e-001 6.282686e-001 1.206931e+000 3.681980e-001 1.034842e+000 7.067139e-001 7.633672e-001 4.835888e-001 4.522783e-001 2.982453e-001
<GCONST> 1.237197e+002
<STATE> 4
<MEAN> 39
 2.849217e+000 -2.560648e+000 -1.142719e+001 2.141547e+000 -1.674958e+000 -1.237551e+001 1.129919e+000 2.589340e+000 -3.827234e+000 -5.871053e+000 2.092039e+000 7.228100e-001 7.642000e+001 2.832367e-002 5.626863e-001 1.958462e-001 2.392862e-001 -1.772674e-001 -4.915899e-001 -4.913879e-001 1.852995e-001 9.746314e-002 -1.114997e-001 -2.649310e-001 -3.409545e-001 -3.461183e-001 -6.665598e-001 5.003955e-001 5.995640e-001 -1.162808e-001 1.437332e-001 4.740166e-001 2.915743e-003 -1.141634e-001 8.093408e-002 2.725421e-001 1.979451e-002 7.187837e-002 -5.544853e-001
<VARIANCE> 39
 9.859901e+000 2.194323e+001 3.758173e+001 3.726073e+001 7.787315e+001 2.011077e+001 5.615677e+001 6.976640e+001 6.555626e+001 3.202570e+001 2.017795e+001 1.944716e+001 1.224336e+001 7.468311e-001 1.757240e+000 1.684679e+000 6.004288e-001 1.377609e+000 1.347471e+000 8.078780e-001 1.925817e+000 1.893142e+000 1.805044e+000 2.069077e+000 1.349939e+000 5.325893e-001 3.224445e-001 3.722878e-001 4.124028e-001 1.669926e-001 2.604719e-001 4.223575e-001 2.784320e-001 4.605696e-001 4.435440e-001 4.738666e-001 2.142571e-001 3.002782e-001 2.069621e-001
<GCONST> 1.040897e+002
<TRANSP> 5
 0.000000e+000 1.000000e+000 0.000000e+000 0.000000e+000 0.000000e+000
 0.000000e+000 3.859017e-001 6.140983e-001 0.000000e+000 0.000000e+000
 0.000000e+000 0.000000e+000 2.368898e-001 7.631102e-001 0.000000e+000
 0.000000e+000 0.000000e+000 0.000000e+000 5.427749e-001 4.572251e-001
 0.000000e+000 0.000000e+000 0.000000e+000 0.000000e+000 0.000000e+000
<ENDHMM>
~h "sil"
<BEGINHMM>
<NUMSTATES> 5
<STATE> 2
<MEAN> 39
 -1.907058e+001 4.923081e+000 1.805164e+000 6.363762e+000 5.383970e+000 6.140166e+000 6.031108e+000 6.772404e+000 7.327132e+000 6.653610e+000 6.075515e+000 4.503940e+000 5.714201e+001 -4.182722e-001 -3.042948e-001 1.152278e-002 -7.261839e-004 1.704971e-002 -1.204711e-001 -6.473444e-002 2.189609e-001 3.118404e-001 7.120547e-001 4.643027e-001 3.926304e-001 -2.199972e-001 1.052445e-001 5.256218e-002 -5.208110e-002 -1.017721e-001 -1.418945e-001 -8.910090e-003 1.460997e-002 -1.223403e-001 -1.452450e-001 -3.037663e-001 -2.196350e-001 -3.801275e-002 6.108327e-002
<VARIANCE> 39
 1.567665e+000 2.218949e+000 2.368900e+000 3.390227e+000 3.805864e+000 2.826456e+000 2.824022e+000 6.129235e+000 5.746243e+000 7.388960e+000 5.214544e+000 4.094116e+000 5.072046e-001 1.549486e-001 1.905967e-001 4.055206e-001 3.862047e-001 5.636706e-001 3.187048e-001 3.745280e-001 4.777838e-001 9.261922e-001 1.259016e+000 6.489785e-001 2.463824e-001 3.404340e-002 8.980417e-003 9.690581e-003 3.161500e-002 3.231644e-002 9.699460e-002 6.170333e-002 5.207933e-002 1.210333e-001 9.265634e-002 1.354935e-001 1.148475e-001 3.816482e-002 3.241634e-003
<GCONST> 3.053110e+001
<STATE> 3
~s "silst"
<STATE> 4
<MEAN> 39
 -1.950591e+001 4.025247e+000 4.698809e-001 4.933370e+000 5.274962e+000 6.375105e+000 6.582428e+000 5.523859e+000 7.610257e+000 6.701209e+000 5.503860e+000 4.734109e+000 5.712097e+001 3.262083e-001 2.971215e-001 5.166051e-001 5.699347e-001 4.823693e-001 -2.147022e-001 5.730509e-002 -4.623973e-001 -4.735338e-002 -3.610712e-001 -3.547029e-001 -5.964082e-001 3.100014e-001 5.377725e-001 2.140096e-001 2.796178e-001 3.835758e-001 1.455224e-001 -2.528259e-001 -5.621693e-001 -2.145486e-001 -4.402574e-001 -3.988434e-001 -3.852563e-001 -5.285665e-001 3.655296e-001
<VARIANCE> 39
 1.489723e+000 4.403359e-001 1.994480e+000 1.718765e+000 5.396967e+000 2.869619e+000 7.070679e+000 7.944124e+000 4.834098e+000 2.584137e+000 6.221525e+000 7.123310e+000 5.072046e-001 4.682802e-001 5.898014e-001 6.263057e-001 6.285384e-001 5.643927e-001 5.350667e-001 7.495399e-001 8.555545e-001 1.852820e+000 9.428017e-001 9.606696e-001 9.336901e-001 1.958157e-001 1.843724e-001 1.122975e-001 6.308457e-002 1.011586e-001 1.079438e-001 1.511619e-001 2.325279e-001 5.866563e-002 3.952665e-001 1.461585e-001 1.937973e-001 2.907439e-001 8.879418e-002
<GCONST> 5.436060e+001
<TRANSP> 5
 0.000000e+000 1.000000e+000 0.000000e+000 0.000000e+000 0.000000e+000
 0.000000e+000 5.311968e-001 2.930060e-001 1.757971e-001 0.000000e+000
 0.000000e+000 0.000000e+000 8.071991e-001 1.928009e-001 0.000000e+000
 0.000000e+000 3.303779e-018 0.000000e+000 4.284516e-001 5.715485e-001
 0.000000e+000 0.000000e+000 0.000000e+000 0.000000e+000 0.000000e+000
<ENDHMM>
