~o
<STREAMINFO> 1 39
<VECSIZE> 39<NULLD><MFCC_D_A_0><DIAGC>
~h "b"
<BEGINHMM>
<NUMSTATES> 5
<STATE> 2
<MEAN> 39
 -8.337454e+000 1.731908e-001 3.302665e-001 4.151853e+000 6.497401e+000 -4.501461e+000 -2.520201e-001 -7.499890e-001 -3.021685e+000 -7.096254e-001 3.267704e+000 -1.466808e+000 7.074149e+001 8.072490e-001 1.472703e-001 -5.279870e-001 3.620218e-001 1.965725e-001 -5.496900e-001 -7.054014e-001 1.460784e-001 -2.690577e-001 -4.471177e-001 -2.645271e-001 -2.154696e-001 2.303566e-001 -3.807690e-002 5.067848e-003 -5.245888e-003 3.313618e-002 -4.766396e-002 6.231747e-002 2.933265e-002 3.891325e-003 7.529800e-002 4.992158e-003 2.352029e-002 3.209704e-002 -6.449933e-002
<VARIANCE> 39
 1.297199e+002 4.305112e+001 9.688216e+001 6.946945e+001 4.515469e+001 4.000351e+001 1.095001e+002 3.878046e+001 5.696705e+001 7.985651e+001 5.491826e+001 2.861375e+001 2.025885e+001 5.487348e+000 3.542132e+000 2.585751e+000 3.468858e+000 3.347850e+000 4.191136e+000 5.351810e+000 3.258648e+000 4.782586e+000 4.382869e+000 4.677932e+000 1.868504e+000 1.748364e+000 7.959300e-001 5.444816e-001 3.592562e-001 5.652724e-001 5.683334e-001 8.617116e-001 7.320006e-001 5.159098e-001 9.077334e-001 8.214350e-001 7.052801e-001 3.080551e-001 3.011008e-001
<GCONST> 1.330552e+002
<STATE> 3
<MEAN> 39
 -5.898604e+000 9.134219e-001 -1.315517e+000 5.627886e+000 6.923349e+000 -5.744472e+000 -2.510855e+000 -3.502278e-001 -3.241535e+000 -2.273456e+000 2.268073e+000 -2.079985e+000 7.099580e+001 5.622097e-001 1.753534e-001 -3.842697e-001 3.898924e-001 5.128189e-002 -2.872948e-001 -5.286303e-001 1.077908e-001 1.211925e-002 -4.356517e-001 -2.376727e-001 -9.039385e-002 2.387372e-002 -7.909478e-002 -1.077895e-003 4.759197e-002 -8.476661e-003 -4.523737e-002 6.999373e-002 6.423900e-002 -1.450735e-002 7.318832e-002 1.562183e-002 1.341099e-002 4.733189e-002 -5.016540e-002
<VARIANCE> 39
 8.838527e+001 4.556190e+001 7.803590e+001 6.615798e+001 5.663224e+001 4.398420e+001 8.711578e+001 4.291107e+001 5.940017e+001 7.623131e+001 5.883043e+001 3.776599e+001 2.518475e+001 5.230842e+000 3.525363e+000 2.715351e+000 2.990398e+000 3.583595e+000 4.550929e+000 5.350892e+000 2.721822e+000 5.096898e+000 4.117096e+000 4.460980e+000 2.231004e+000 1.943436e+000 7.042709e-001 5.404381e-001 3.554418e-001 5.024346e-001 5.793588e-001 8.795655e-001 7.419698e-001 4.361250e-001 9.233424e-001 7.345812e-001 6.726982e-001 3.514550e-001 3.030360e-001
<GCONST> 1.328942e+002
<STATE> 4
<MEAN> 39
 -4.558653e+000 1.776250e+000 -2.095382e+000 7.295420e+000 6.993296e+000 -6.039850e+000 -4.201480e+000 -3.961277e-001 -2.193520e+000 -3.744991e+000 1.148802e+000 -2.126501e+000 7.051122e+001 1.740723e-001 4.463714e-002 -1.399226e-001 2.827242e-001 -8.758000e-002 -1.081041e-001 -1.895880e-001 1.825614e-002 1.852818e-001 -2.868045e-001 -8.341177e-002 1.754315e-001 -6.464518e-002 -5.267023e-002 -3.778913e-002 2.076520e-002 -3.699658e-002 -2.780715e-002 7.862013e-003 6.781206e-002 -8.578321e-003 6.685039e-003 3.789936e-002 4.011751e-002 5.697917e-002 5.043190e-003
<VARIANCE> 39
 4.954306e+001 5.099456e+001 5.137457e+001 5.684175e+001 6.466307e+001 5.193180e+001 6.151629e+001 4.679120e+001 6.309716e+001 7.441797e+001 5.886058e+001 5.091499e+001 3.637265e+001 3.909674e+000 3.401313e+000 2.533252e+000 2.806897e+000 3.115248e+000 4.919875e+000 4.456180e+000 1.958274e+000 4.517247e+000 3.815453e+000 3.689697e+000 2.472883e+000 2.320220e+000 5.080714e-001 5.441716e-001 3.248314e-001 4.825561e-001 4.894148e-001 9.387467e-001 7.171873e-001 3.612010e-001 8.181024e-001 6.892024e-001 5.979552e-001 3.784072e-001 3.499135e-001
<GCONST> 1.305972e+002
<TRANSP> 5
 0.000000e+000 1.000000e+000 0.000000e+000 0.000000e+000 0.000000e+000
 0.000000e+000 7.130980e-001 2.869020e-001 0.000000e+000 0.000000e+000
 0.000000e+000 0.000000e+000 7.130981e-001 2.869019e-001 0.000000e+000
 0.000000e+000 0.000000e+000 0.000000e+000 8.225509e-001 1.774491e-001
 0.000000e+000 0.000000e+000 0.000000e+000 0.000000e+000 0.000000e+000
<ENDHMM>
~h "d"
<BEGINHMM>
<NUMSTATES> 5
<STATE> 2
<MEAN> 39
 -5.905593e+000 2.668831e+000 -5.671558e+000 8.466635e-001 -4.003503e-001 -3.726787e+000 3.528466e+000 4.362107e+000 2.960162e+000 -2.556043e-001 1.161484e+000 -3.956110e-001 6.806709e+001 -7.985737e-001 6.632313e-001 8.191699e-001 6.219707e-001 4.741414e-001 7.674050e-001 -7.323907e-002 -2.777514e-001 -3.779286e-002 8.030654e-002 -1.265191e-002 -1.984974e-001 -8.814161e-001 -9.233913e-002 -8.815529e-002 6.067413e-002 2.808906e-002 3.373151e-002 -3.585432e-002 5.161358e-002 6.564897e-002 -7.154544e-002 -3.142380e-002 6.584780e-002 7.793335e-002 1.350282e-002
<VARIANCE> 39
 6.425577e+001 3.660608e+001 4.400932e+001 3.455543e+001 2.688611e+001 5.828527e+001 1.307442e+001 3.514275e+001 3.593119e+001 3.376764e+001 2.631027e+001 5.322227e+001 5.563078e+001 5.879796e+000 3.114614e+000 3.992915e+000 1.472653e+000 1.505601e+000 4.620780e+000 1.197471e+000 2.402318e+000 3.249986e+000 3.800937e+000 1.673013e+000 1.609395e+000 4.036588e+000 6.610313e-001 5.216084e-001 4.213702e-001 2.300156e-001 2.467901e-001 5.738611e-001 2.274392e-001 4.157896e-001 5.407394e-001 5.908316e-001 2.777685e-001 2.131822e-001 4.992705e-001
<GCONST> 1.188201e+002
<STATE> 3
<MEAN> 39
 -7.627461e+000 3.813027e+000 -3.847317e+000 2.322823e+000 7.369339e-001 -2.378261e+000 3.339967e+000 3.891642e+000 2.458008e+000 -3.615313e-001 1.288055e+000 -8.335912e-001 6.636801e+001 -8.533232e-001 4.362838e-001 8.623714e-001 6.701572e-001 4.644182e-001 5.907391e-001 9.764926e-003 -1.481034e-001 -2.015629e-001 -3.117956e-002 1.045105e-001 -6.745829e-002 -7.639482e-001 1.265777e-002 -1.419988e-001 -6.593693e-002 -2.743806e-002 -5.077286e-002 -1.259870e-001 2.947344e-002 7.388318e-002 -4.148503e-003 1.726076e-003 9.046029e-002 1.377399e-001 7.474769e-002
<VARIANCE> 39
 5.621735e+001 3.301968e+001 3.898370e+001 3.657741e+001 2.904453e+001 6.493821e+001 1.543435e+001 3.347618e+001 4.402972e+001 4.246633e+001 2.823216e+001 5.293636e+001 5.070538e+001 5.282839e+000 2.612364e+000 2.512139e+000 1.432984e+000 1.266019e+000 4.693984e+000 1.278113e+000 2.571436e+000 3.500725e+000 4.680288e+000 1.480388e+000 1.557846e+000 4.113489e+000 6.139971e-001 4.444495e-001 3.371599e-001 2.439826e-001 2.242071e-001 5.548112e-001 2.078288e-001 4.348609e-001 5.868948e-001 6.966107e-001 2.550493e-001 2.155740e-001 4.818998e-001
<GCONST> 1.181390e+002
<STATE> 4
<MEAN> 39
 -9.012768e+000 4.158386e+000 -2.337646e+000 3.874162e+000 1.574160e+000 -2.128151e+000 2.849712e+000 3.291102e+000 1.216647e+000 -1.020956e+000 2.023597e+000 -5.848508e-001 6.533361e+001 -5.852708e-001 1.464906e-001 6.075256e-001 5.588296e-001 2.794409e-001 1.747328e-001 -3.151010e-002 -2.669481e-002 -2.418679e-001 -1.109522e-001 2.239175e-001 1.637043e-001 -4.693047e-001 1.041392e-001 -1.034645e-001 -1.241884e-001 -7.172173e-002 -8.722004e-002 -1.620651e-001 -1.340030e-002 6.807304e-002 4.578787e-002 1.472494e-002 6.066334e-002 1.359970e-001 1.059299e-001
<VARIANCE> 39
 5.261283e+001 2.635718e+001 3.040186e+001 3.623996e+001 3.220185e+001 8.080456e+001 2.295037e+001 3.721369e+001 5.985355e+001 5.659419e+001 2.578861e+001 4.556754e+001 4.741593e+001 5.085344e+000 2.084288e+000 1.674738e+000 1.507303e+000 1.130767e+000 4.737280e+000 1.372806e+000 2.601954e+000 3.870207e+000 5.289823e+000 1.404862e+000 1.937769e+000 4.010427e+000 5.777071e-001 3.594438e-001 2.551529e-001 2.496131e-001 2.118608e-001 5.368148e-001 2.124580e-001 4.594781e-001 6.093341e-001 7.984370e-001 2.286519e-001 2.107200e-001 4.677536e-001
<GCONST> 1.178950e+002
<TRANSP> 5
 0.000000e+000 1.000000e+000 0.000000e+000 0.000000e+000 0.000000e+000
 0.000000e+000 5.585625e-001 4.414375e-001 0.000000e+000 0.000000e+000
 0.000000e+000 0.000000e+000 5.585625e-001 4.414376e-001 0.000000e+000
 0.000000e+000 0.000000e+000 0.000000e+000 6.614954e-001 3.385046e-001
 0.000000e+000 0.000000e+000 0.000000e+000 0.000000e+000 0.000000e+000
<ENDHMM>
~h "g"
<BEGINHMM>
<NUMSTATES> 5
<STATE> 2
<MEAN> 39
 1.509253e+000 -3.585875e-001 -8.256671e+000 1.821824e+000 -6.479318e+000 -1.722855e+001 -2.898428e+000 1.109282e+001 2.464382e+000 -7.702255e+000 8.292439e-001 -6.576800e-002 7.444447e+001 -4.246756e-001 -1.719674e-001 -3.145084e-001 -2.501809e-001 -6.706016e-002 5.866629e-001 5.737025e-001 -2.486706e-001 3.328834e-002 5.042967e-001 3.713652e-001 6.484134e-001 -3.644871e-001 -1.562077e-001 1.168534e-001 1.387753e-001 9.198911e-003 1.135093e-001 1.987408e-001 3.305268e-002 -4.687973e-002 3.082937e-002 1.126423e-001 1.775052e-002 -1.983184e-002 -1.480363e-001
<VARIANCE> 39
 9.808182e+000 3.396160e+001 2.569222e+001 1.282867e+001 5.907686e+001 3.493695e+001 6.127272e+001 5.670357e+001 2.039887e+001 5.028319e+001 2.191927e+001 2.620173e+001 1.340284e+001 9.205741e-001 1.409544e+000 1.275823e+000 7.193617e-001 1.311659e+000 1.790504e+000 9.696677e-001 9.065601e-001 1.338881e+000 1.665061e+000 7.510725e-001 1.703991e+000 8.653560e-001 7.100516e-002 1.772198e-001 1.701716e-001 1.430598e-001 1.716383e-001 1.474508e-001 1.601845e-001 1.452350e-001 2.410099e-001 2.335133e-001 1.430458e-001 3.114150e-001 6.582640e-002
<GCONST> 9.251664e+001
<STATE> 3
<MEAN> 39
 -4.813356e-001 -3.828449e-001 -8.825932e+000 9.520879e-001 -6.253129e+000 -1.442019e+001 -7.763388e-001 9.943285e+000 2.735238e+000 -5.561082e+000 2.113612e+000 2.001407e+000 7.262329e+001 -1.027857e+000 3.148970e-001 2.340313e-001 -2.442888e-001 3.607710e-001 1.311872e+000 6.572862e-001 -3.862759e-001 2.352669e-001 9.357799e-001 4.145277e-001 5.719342e-001 -9.352071e-001 -1.908634e-001 1.066284e-001 1.776685e-001 3.573808e-002 9.811322e-002 1.835633e-001 1.362343e-002 1.950441e-002 8.786959e-002 1.163735e-001 3.336494e-002 -8.690725e-003 -1.650048e-001
<VARIANCE> 39
 2.381604e+001 2.885336e+001 1.781390e+001 1.495303e+001 5.072040e+001 5.178772e+001 5.702746e+001 5.654405e+001 1.646239e+001 5.755227e+001 2.122616e+001 2.458857e+001 2.351399e+001 1.528846e+000 1.494675e+000 1.534197e+000 1.056394e+000 1.692258e+000 2.190514e+000 1.260157e+000 9.477888e-001 1.427205e+000 1.664297e+000 7.447346e-001 1.544009e+000 1.067318e+000 1.238081e-001 1.762347e-001 1.844477e-001 2.053226e-001 2.104803e-001 2.410240e-001 2.117705e-001 1.464970e-001 2.378124e-001 1.933650e-001 1.550151e-001 3.010447e-001 6.852253e-002
<GCONST> 9.750510e+001
<STATE> 4
<MEAN> 39
 -5.252370e+000 1.355419e+000 -7.050504e+000 1.179962e-001 -4.572421e+000 -8.726315e+000 1.889460e+000 8.704468e+000 4.095539e+000 -1.746681e+000 3.840197e+000 4.123617e+000 6.837760e+001 -1.781381e+000 6.646668e-001 8.798336e-001 -3.808388e-002 7.135525e-001 1.907007e+000 5.941101e-001 -2.940828e-001 6.249225e-001 1.435598e+000 5.680770e-001 5.974429e-001 -1.576995e+000 -7.584361e-002 -7.296350e-002 7.908241e-002 1.606416e-001 2.266030e-002 -5.346918e-002 -5.985442e-002 9.028415e-002 1.882824e-002 -1.508206e-002 5.548025e-002 -2.203848e-002 -2.558347e-002
<VARIANCE> 39
 4.953874e+001 2.545306e+001 1.831581e+001 1.583335e+001 3.868486e+001 7.660976e+001 4.005371e+001 4.341420e+001 1.728662e+001 6.333513e+001 1.892362e+001 2.199121e+001 4.207669e+001 1.805902e+000 1.275051e+000 1.941478e+000 1.975469e+000 1.799958e+000 2.129787e+000 1.878788e+000 1.224090e+000 1.269929e+000 2.003113e+000 1.079397e+000 1.110892e+000 9.947793e-001 2.379419e-001 2.219530e-001 2.853524e-001 2.958086e-001 2.271655e-001 4.211971e-001 2.984753e-001 1.618580e-001 2.313170e-001 3.192338e-001 2.214293e-001 2.387521e-001 1.405931e-001
<GCONST> 1.038781e+002
<TRANSP> 5
 0.000000e+000 1.000000e+000 0.000000e+000 0.000000e+000 0.000000e+000
 0.000000e+000 7.198722e-001 2.801278e-001 0.000000e+000 0.000000e+000
 0.000000e+000 0.000000e+000 7.198722e-001 2.801278e-001 0.000000e+000
 0.000000e+000 0.000000e+000 0.000000e+000 8.305408e-001 1.694591e-001
 0.000000e+000 0.000000e+000 0.000000e+000 0.000000e+000 0.000000e+000
<ENDHMM>
~h "l"
<BEGINHMM>
<NUMSTATES> 5
<STATE> 2
<MEAN> 39
 -5.198814e+000 1.005942e+000 -3.448947e+000 6.421438e+000 2.896007e+000 -7.706326e+000 -3.972573e-001 5.264420e+000 -2.793911e-001 -3.270969e+000 2.011922e+000 -1.142886e-001 6.934559e+001 3.513881e-001 -9.230795e-002 7.425117e-002 2.849898e-001 1.527173e-001 -3.311288e-001 -4.616613e-001 -3.123570e-001 -3.246535e-001 -4.229730e-001 -2.396202e-001 -1.455848e-001 3.474316e-001 -6.613203e-002 1.040362e-001 8.364739e-002 4.501383e-002 7.386339e-002 1.112510e-001 -4.868158e-002 -4.362936e-002 3.189057e-002 -1.852199e-002 -2.022876e-002 -2.241325e-002 -8.305176e-002
<VARIANCE> 39
 7.349307e+001 2.293804e+001 4.984428e+001 5.080155e+001 7.672846e+001 1.208797e+002 5.723663e+001 6.595759e+001 5.256572e+001 6.266512e+001 4.488281e+001 5.357184e+001 4.741830e+001 3.700902e+000 2.796257e+000 3.233939e+000 2.546379e+000 2.972085e+000 4.524812e+000 3.799156e+000 3.183285e+000 3.527725e+000 5.546192e+000 3.346703e+000 3.066595e+000 3.226112e+000 4.470355e-001 4.655021e-001 4.533516e-001 3.907492e-001 4.273472e-001 6.383696e-001 6.262774e-001 5.477874e-001 4.848456e-001 8.110481e-001 5.720671e-001 4.984067e-001 3.563585e-001
<GCONST> 1.311803e+002
<STATE> 3
<MEAN> 39
 -4.584829e+000 9.987972e-001 -2.588580e+000 7.816587e+000 3.893720e+000 -8.141205e+000 -2.339870e+000 4.483805e+000 -5.982611e-001 -4.433683e+000 1.254483e+000 -6.952276e-001 6.993422e+001 -1.816632e-001 2.144815e-001 3.506141e-001 1.998072e-001 6.251486e-002 1.963566e-001 -2.324141e-001 -1.831198e-001 1.496695e-001 3.191977e-002 -1.211954e-001 -9.012081e-002 -2.072367e-001 -9.650812e-002 6.060005e-002 7.027706e-002 -2.864430e-002 -4.320076e-002 8.704486e-002 6.336261e-002 5.205099e-002 7.674801e-002 8.396586e-002 4.665230e-002 4.109914e-002 -1.057955e-001
<VARIANCE> 39
 5.952466e+001 3.185424e+001 6.634228e+001 6.412209e+001 9.813459e+001 1.102005e+002 5.769631e+001 7.288349e+001 5.882800e+001 5.723919e+001 3.613905e+001 4.297821e+001 3.471492e+001 3.911586e+000 3.262827e+000 3.739745e+000 2.500090e+000 3.174525e+000 4.324327e+000 3.715161e+000 3.121862e+000 2.989792e+000 4.624375e+000 3.087956e+000 2.630227e+000 2.894375e+000 4.591032e-001 6.143541e-001 5.612106e-001 3.863319e-001 4.782386e-001 6.424511e-001 5.867856e-001 6.198107e-001 4.491719e-001 6.392637e-001 5.257317e-001 3.938117e-001 3.697091e-001
<GCONST> 1.310626e+002
<STATE> 4
<MEAN> 39
 -5.629169e+000 8.849788e-001 -6.188431e-001 1.000905e+001 4.783176e+000 -6.847621e+000 -3.552644e+000 3.195680e+000 -1.472586e+000 -5.969457e+000 5.662920e-001 -8.100793e-001 6.908583e+001 -3.831757e-001 3.638418e-001 1.837144e-001 -2.344155e-001 -2.689560e-001 4.714960e-001 4.155661e-001 1.795380e-001 3.412037e-001 3.550902e-001 -3.699360e-002 8.768052e-004 -4.667298e-001 -3.298322e-002 -5.164476e-002 -5.988635e-002 -4.578176e-002 1.075629e-003 3.504999e-002 5.620649e-002 4.679969e-002 4.091788e-002 6.041060e-002 5.213137e-002 4.963004e-002 -1.348616e-002
<VARIANCE> 39
 5.463609e+001 5.046204e+001 6.160984e+001 5.989632e+001 8.553638e+001 8.931192e+001 6.543115e+001 6.667903e+001 5.654523e+001 6.208398e+001 2.809898e+001 2.138138e+001 3.661903e+001 3.814432e+000 3.664093e+000 4.023820e+000 2.055959e+000 2.764234e+000 4.199240e+000 3.687062e+000 3.311605e+000 2.879328e+000 3.745288e+000 2.326330e+000 1.730430e+000 2.284380e+000 4.433282e-001 6.644829e-001 5.282241e-001 3.110648e-001 4.040049e-001 6.005062e-001 5.926446e-001 6.133522e-001 4.651280e-001 5.198678e-001 4.051352e-001 2.832413e-001 2.799351e-001
<GCONST> 1.272837e+002
<TRANSP> 5
 0.000000e+000 1.000000e+000 0.000000e+000 0.000000e+000 0.000000e+000
 0.000000e+000 7.178683e-001 2.821317e-001 0.000000e+000 0.000000e+000
 0.000000e+000 0.000000e+000 7.178684e-001 2.821316e-001 0.000000e+000
 0.000000e+000 0.000000e+000 0.000000e+000 8.801762e-001 1.198238e-001
 0.000000e+000 0.000000e+000 0.000000e+000 0.000000e+000 0.000000e+000
<ENDHMM>
~h "m"
<BEGINHMM>
<NUMSTATES> 5
<STATE> 2
<MEAN> 39
 -1.183914e+001 7.623696e-002 3.712971e-001 7.086699e+000 3.809409e+000 -3.281665e+000 1.881984e+000 3.038651e+000 3.415161e+000 5.582803e-001 2.851877e+000 1.619575e+000 6.624493e+001 7.708339e-001 -1.850138e-001 4.666167e-001 7.185052e-001 4.604746e-001 -1.000312e+000 -8.117868e-001 -6.614892e-001 -8.479779e-001 -8.275298e-001 -4.269259e-001 -5.258560e-001 9.215084e-001 9.737159e-002 7.818744e-002 5.378087e-003 1.631514e-001 1.121354e-001 -1.167702e-001 -1.025431e-001 1.222119e-001 -7.343874e-002 -1.099768e-001 -3.212946e-002 -4.187857e-002 -1.880461e-002
<VARIANCE> 39
 7.741681e+001 3.024150e+001 6.910518e+001 1.028869e+002 7.145480e+001 9.775995e+001 5.435418e+001 4.027787e+001 4.710394e+001 5.353577e+001 3.091991e+001 2.247002e+001 5.069835e+001 4.426962e+000 3.199764e+000 2.916390e+000 5.606049e+000 3.234169e+000 6.334672e+000 3.729078e+000 3.879261e+000 3.703665e+000 4.038737e+000 2.545828e+000 2.093050e+000 4.476867e+000 6.376985e-001 5.138465e-001 4.893581e-001 8.873655e-001 5.946812e-001 9.685540e-001 5.643088e-001 7.478204e-001 6.840754e-001 6.751683e-001 4.166304e-001 3.512755e-001 6.240377e-001
<GCONST> 1.336338e+002
<STATE> 3
<MEAN> 39
 -9.651294e+000 2.727139e-001 1.085643e+000 8.885435e+000 5.232148e+000 -5.828196e+000 -9.483790e-002 2.070551e+000 1.018553e+000 -1.845869e+000 2.026553e+000 7.269278e-001 6.813361e+001 4.033637e-001 1.657975e-001 9.270062e-002 2.188917e-001 3.061814e-001 -4.573868e-001 -4.342081e-001 -2.024935e-001 -4.907601e-001 -4.304260e-001 -7.542977e-002 -1.914026e-001 3.124313e-001 -6.169225e-002 6.748696e-003 -8.858357e-002 -5.362614e-002 -1.590173e-002 8.265940e-002 5.663798e-002 1.098960e-001 1.043714e-001 9.097017e-002 7.458583e-002 6.468617e-002 -9.635940e-002
<VARIANCE> 39
 7.266090e+001 3.527618e+001 7.842259e+001 1.265253e+002 7.514777e+001 7.842377e+001 7.034188e+001 4.329237e+001 5.491494e+001 6.252359e+001 3.461905e+001 2.581871e+001 3.968529e+001 6.047313e+000 3.409914e+000 3.622744e+000 4.936545e+000 3.287049e+000 6.873238e+000 4.448890e+000 3.772503e+000 4.511546e+000 5.174891e+000 2.836843e+000 2.094693e+000 5.044364e+000 5.861567e-001 5.328027e-001 4.069715e-001 7.008361e-001 5.310731e-001 9.234903e-001 6.117012e-001 6.117744e-001 6.951926e-001 7.904949e-001 4.340827e-001 3.235296e-001 5.657821e-001
<GCONST> 1.352037e+002
<STATE> 4
<MEAN> 39
 -6.510587e+000 -4.985642e-002 -3.231700e+000 5.966052e+000 2.883370e+000 -7.554917e+000 -2.363510e-001 2.375437e+000 1.316602e-001 -1.713336e+000 4.226565e+000 1.840514e+000 6.986710e+001 -9.241507e-002 2.022874e-001 -2.015186e-001 -3.834703e-001 -1.403649e-001 2.783785e-001 1.185551e-001 1.221815e-001 1.972839e-001 3.679710e-001 2.198646e-001 1.634153e-001 -2.418337e-001 -5.113224e-002 -1.871030e-002 2.310154e-002 4.977420e-002 1.107817e-002 4.908854e-002 2.492557e-002 1.957381e-002 2.066444e-002 1.596471e-002 -1.847813e-002 8.976309e-003 -4.552106e-002
<VARIANCE> 39
 7.312178e+001 3.537324e+001 8.127581e+001 8.796603e+001 7.868396e+001 6.169506e+001 6.964174e+001 7.724909e+001 5.748159e+001 5.807261e+001 3.771511e+001 3.114790e+001 4.327913e+001 4.815424e+000 2.668167e+000 3.117922e+000 3.166527e+000 3.193653e+000 5.262564e+000 4.833872e+000 3.600373e+000 4.143594e+000 3.945202e+000 2.679070e+000 1.912898e+000 3.688502e+000 4.993566e-001 3.914622e-001 3.368937e-001 4.952876e-001 4.607840e-001 7.426880e-001 8.152314e-001 4.733863e-001 7.112069e-001 6.531005e-001 4.381977e-001 3.189231e-001 4.106378e-001
<GCONST> 1.316205e+002
<TRANSP> 5
 0.000000e+000 1.000000e+000 0.000000e+000 0.000000e+000 0.000000e+000
 0.000000e+000 7.259884e-001 2.740116e-001 0.000000e+000 0.000000e+000
 0.000000e+000 0.000000e+000 7.259886e-001 2.740114e-001 0.000000e+000
 0.000000e+000 0.000000e+000 0.000000e+000 8.893622e-001 1.106378e-001
 0.000000e+000 0.000000e+000 0.000000e+000 0.000000e+000 0.000000e+000
<ENDHMM>
~h "n"
<BEGINHMM>
<NUMSTATES> 5
<STATE> 2
<MEAN> 39
 -1.143923e+001 2.380434e+000 2.220272e+000 8.520788e+000 6.150526e+000 -1.067241e+000 8.106310e-001 2.607986e+000 8.200750e-001 -2.226470e+000 2.305549e+000 8.107159e-001 6.537873e+001 1.464753e+000 -3.700904e-001 -6.591981e-002 3.373636e-001 2.027739e-001 -1.257583e+000 -1.013400e+000 -4.443601e-001 -8.638598e-001 -1.350092e+000 -4.838600e-001 -4.852584e-001 1.446242e+000 5.728204e-002 -8.344594e-002 -1.202988e-001 -3.808696e-002 4.922098e-003 -8.314332e-002 -3.209543e-002 1.331055e-001 1.689529e-002 -6.135437e-002 -9.835065e-003 2.128937e-002 6.168221e-002
<VARIANCE> 39
 7.597432e+001 3.170964e+001 3.313717e+001 4.616315e+001 2.768983e+001 7.307978e+001 6.254599e+001 2.937959e+001 4.120732e+001 8.189826e+001 2.580215e+001 2.882104e+001 5.157837e+001 3.142540e+000 3.081033e+000 2.453695e+000 2.927167e+000 1.710780e+000 4.361322e+000 3.967151e+000 4.375689e+000 3.980724e+000 5.770027e+000 2.558096e+000 2.530829e+000 2.458971e+000 4.506271e-001 5.770559e-001 3.778485e-001 3.720575e-001 2.496312e-001 7.488499e-001 6.770675e-001 8.384924e-001 7.290908e-001 9.572387e-001 4.966037e-001 4.858971e-001 3.913321e-001
<GCONST> 1.273405e+002
<STATE> 3
<MEAN> 39
 -6.330793e+000 1.059994e+000 9.473026e-002 8.760215e+000 6.036908e+000 -5.337022e+000 -2.278086e+000 2.915063e+000 -7.587101e-001 -5.676422e+000 9.850490e-001 -8.707728e-001 6.978116e+001 9.336241e-001 -2.143239e-001 -4.834588e-001 -6.843093e-002 -1.361523e-001 -7.757976e-001 -4.763706e-001 1.415654e-001 -2.077170e-001 -5.126877e-001 -1.719489e-001 -2.555963e-001 7.776595e-001 -9.718800e-002 2.805339e-002 -6.565355e-002 -7.080953e-002 -6.865143e-002 7.324138e-002 1.079499e-001 1.071361e-001 1.040918e-001 1.420898e-001 5.028796e-002 4.195274e-002 -1.180022e-001
<VARIANCE> 39
 7.725793e+001 3.639897e+001 5.219199e+001 6.619969e+001 5.660382e+001 8.678641e+001 6.924680e+001 4.565323e+001 4.169419e+001 8.043721e+001 3.175719e+001 4.155746e+001 4.628601e+001 2.621649e+000 3.153851e+000 2.107411e+000 3.294250e+000 2.476197e+000 5.407101e+000 4.624133e+000 4.558108e+000 3.835329e+000 5.347386e+000 2.989449e+000 3.150405e+000 2.560938e+000 3.082879e-001 5.452828e-001 3.467648e-001 4.533146e-001 3.706725e-001 7.874113e-001 6.822046e-001 8.507107e-001 6.745211e-001 8.000127e-001 5.399696e-001 6.069368e-001 2.989851e-001
<GCONST> 1.310104e+002
<STATE> 4
<MEAN> 39
 -2.701737e+000 6.424201e-001 -5.471632e+000 4.593208e+000 1.793388e+000 -6.867351e+000 -3.310165e-001 5.781987e+000 5.799341e-002 -4.533013e+000 1.517057e+000 -1.023910e+000 7.137444e+001 -5.716799e-002 4.018760e-002 -2.682921e-001 -3.442146e-001 -3.249056e-001 8.113667e-002 3.115157e-001 2.390960e-001 1.952550e-001 2.949678e-001 1.701163e-001 1.963171e-001 -1.345258e-001 -7.862505e-002 1.008789e-002 3.427162e-002 1.369284e-002 1.583591e-002 4.074033e-002 2.134099e-002 4.987400e-003 2.043116e-002 3.950788e-002 3.269985e-002 3.976940e-002 -6.302164e-002
<VARIANCE> 39
 5.174081e+001 3.730081e+001 5.766878e+001 6.540508e+001 8.913953e+001 7.951051e+001 6.402058e+001 6.901358e+001 4.486126e+001 5.643851e+001 3.995550e+001 4.315071e+001 4.073375e+001 3.257827e+000 2.961490e+000 2.536280e+000 2.850620e+000 3.225293e+000 5.560978e+000 2.873690e+000 3.637670e+000 2.823164e+000 3.904478e+000 2.875026e+000 3.592739e+000 2.828917e+000 3.351772e-001 4.582417e-001 3.173821e-001 4.220805e-001 4.945227e-001 8.236476e-001 4.584836e-001 5.746446e-001 4.473549e-001 6.256382e-001 5.245721e-001 6.854985e-001 3.147863e-001
<GCONST> 1.294195e+002
<TRANSP> 5
 0.000000e+000 1.000000e+000 0.000000e+000 0.000000e+000 0.000000e+000
 0.000000e+000 7.568602e-001 2.431398e-001 0.000000e+000 0.000000e+000
 0.000000e+000 0.000000e+000 7.568601e-001 2.431399e-001 0.000000e+000
 0.000000e+000 0.000000e+000 0.000000e+000 9.158123e-001 8.418775e-002
 0.000000e+000 0.000000e+000 0.000000e+000 0.000000e+000 0.000000e+000
<ENDHMM>
~h "p"
<BEGINHMM>
<NUMSTATES> 5
<STATE> 2
<MEAN> 39
 -1.777139e+001 4.457640e+000 -7.566018e-001 2.750090e+000 2.704302e+000 4.922478e+000 6.168668e+000 6.022012e+000 7.289675e+000 6.342150e+000 6.017427e+000 5.720164e+000 5.814238e+001 -4.790061e-001 1.381865e-002 3.510458e-001 3.567223e-001 3.627577e-001 3.220376e-001 1.309542e-001 6.998648e-002 -9.265048e-002 -1.606795e-001 -2.617090e-002 -1.087152e-001 -3.223407e-001 1.391641e-001 -4.267894e-002 -9.753993e-002 -1.281750e-002 1.928783e-002 -6.632107e-002 -5.605516e-002 7.806609e-003 -3.269194e-002 -7.084010e-002 1.786231e-002 -6.091594e-002 1.080730e-001
<VARIANCE> 39
 1.334903e+001 1.013665e+000 1.078729e+001 1.235114e+001 7.663414e+000 6.763597e+000 5.446637e+000 6.778168e+000 6.409855e+000 9.365414e+000 6.301754e+000 8.146822e+000 5.361595e+000 5.713807e-001 1.334977e-001 4.005591e-001 6.144361e-001 4.878734e-001 7.489032e-001 8.278910e-001 6.530291e-001 7.087150e-001 7.048213e-001 5.997140e-001 6.930088e-001 2.735353e-001 8.180441e-002 2.730942e-002 9.697516e-002 1.115796e-001 8.858216e-002 1.572343e-001 1.922357e-001 1.228775e-001 1.573051e-001 1.691445e-001 7.706898e-002 1.282041e-001 4.131821e-002
<GCONST> 5.789810e+001
<STATE> 3
<MEAN> 39
 -1.894337e+001 4.362805e+000 2.430242e-001 3.907824e+000 3.853103e+000 5.726396e+000 6.439001e+000 6.333061e+000 6.988631e+000 5.914088e+000 6.149893e+000 5.316131e+000 5.736903e+001 -2.121881e-001 -2.199838e-002 1.810065e-001 2.004398e-001 1.936197e-001 1.482202e-001 6.022485e-002 8.129369e-002 -4.085064e-002 -4.854193e-002 1.776031e-002 -7.832331e-002 -1.399133e-001 4.628253e-002 -3.117662e-003 -2.878717e-002 -2.955369e-002 -4.100040e-002 -3.688772e-002 -1.169790e-002 4.216177e-004 1.147308e-002 3.345992e-002 1.488170e-002 8.370074e-003 3.187171e-002
<VARIANCE> 39
 4.470898e+000 7.903023e-001 6.086898e+000 8.493930e+000 4.248957e+000 4.461409e+000 5.328251e+000 5.862325e+000 4.802206e+000 7.928408e+000 4.424740e+000 5.150756e+000 1.770923e+000 2.304626e-001 9.817073e-002 2.975934e-001 4.550968e-001 3.986850e-001 5.633321e-001 5.849779e-001 6.608614e-001 4.699331e-001 7.274608e-001 3.740228e-001 4.725919e-001 8.679977e-002 2.325414e-002 2.143842e-002 4.690621e-002 7.853178e-002 6.877041e-002 1.239290e-001 1.367885e-001 1.357412e-001 9.225095e-002 1.426335e-001 7.272371e-002 8.563657e-002 9.155508e-003
<GCONST> 4.106184e+001
<STATE> 4
<MEAN> 39
 -1.963978e+001 4.309982e+000 9.534880e-001 4.800236e+000 4.344358e+000 6.108308e+000 6.715109e+000 6.663970e+000 6.938852e+000 6.152389e+000 6.268469e+000 5.039946e+000 5.691183e+001 -5.924854e-002 -8.453552e-003 5.605923e-002 6.904198e-002 3.558687e-002 3.620268e-002 2.528112e-002 3.563645e-002 1.746214e-002 2.770280e-002 1.534808e-002 -2.335264e-002 -3.725757e-002 1.332591e-002 5.809424e-004 -1.167822e-002 -1.201927e-002 -1.363336e-002 -1.043150e-002 -6.359970e-003 -9.536696e-003 4.846750e-003 5.187029e-003 3.904490e-003 7.713493e-003 9.205097e-003
<VARIANCE> 39
 9.065514e-001 7.565864e-001 2.439552e+000 3.857946e+000 3.069242e+000 3.674974e+000 4.229208e+000 4.548334e+000 4.234776e+000 5.730120e+000 4.452260e+000 4.073026e+000 5.072046e-001 7.274665e-002 8.557095e-002 2.284753e-001 3.192315e-001 3.283086e-001 4.735226e-001 4.991932e-001 5.583947e-001 4.229857e-001 6.088341e-001 4.756502e-001 4.680095e-001 2.399123e-002 1.003611e-002 1.791110e-002 3.998633e-002 5.981556e-002 7.010932e-002 1.076334e-001 1.152205e-001 1.209733e-001 8.214353e-002 1.295520e-001 1.020429e-001 9.356505e-002 2.825424e-003
<GCONST> 2.802175e+001
<TRANSP> 5
 0.000000e+000 1.000000e+000 0.000000e+000 0.000000e+000 0.000000e+000
 0.000000e+000 7.678246e-001 2.321754e-001 0.000000e+000 0.000000e+000
 0.000000e+000 0.000000e+000 7.678245e-001 2.321755e-001 0.000000e+000
 0.000000e+000 0.000000e+000 0.000000e+000 9.001666e-001 9.983335e-002
 0.000000e+000 0.000000e+000 0.000000e+000 0.000000e+000 0.000000e+000
<ENDHMM>
~h "s"
<BEGINHMM>
<NUMSTATES> 5
<STATE> 2
<MEAN> 39
 -2.275102e+000 1.907135e+000 -5.424423e+000 2.494838e+000 -4.470535e+000 -1.258068e+001 -1.771817e+000 8.664859e+000 2.761048e+000 -4.139624e+000 2.281762e+000 9.857641e-001 7.072688e+001 -4.360922e-001 2.635207e-001 2.032784e-001 -6.113437e-002 1.800817e-001 7.196450e-001 1.813843e-001 -3.770764e-001 1.305601e-001 3.328580e-001 1.724059e-002 -9.001147e-002 -3.994461e-001 -5.618665e-002 -7.111189e-003 1.517092e-002 -1.686763e-003 7.220183e-002 1.311108e-001 7.051375e-002 -1.404314e-002 2.318785e-003 2.099889e-002 1.801761e-002 2.894676e-002 -3.272345e-002
<VARIANCE> 39
 5.284676e+001 5.155192e+001 4.215804e+001 3.088712e+001 7.254314e+001 1.000430e+002 2.828316e+001 4.785919e+001 3.858878e+001 5.525650e+001 1.808253e+001 1.661614e+001 4.443096e+001 4.314958e+000 4.087270e+000 2.741597e+000 1.154004e+000 2.583944e+000 5.931062e+000 2.404427e+000 2.957617e+000 2.177387e+000 4.179087e+000 1.782577e+000 1.646115e+000 3.865697e+000 5.805590e-001 6.932174e-001 4.110236e-001 2.019346e-001 4.009919e-001 9.247845e-001 4.853824e-001 4.905871e-001 3.370920e-001 6.741086e-001 3.751964e-001 3.531035e-001 4.868300e-001
<GCONST> 1.233243e+002
<STATE> 3
<MEAN> 39
 -3.449213e+000 2.538070e+000 -4.950561e+000 2.425786e+000 -3.497964e+000 -1.001759e+001 -1.302073e+000 7.324785e+000 2.891412e+000 -3.260243e+000 2.320991e+000 4.353935e-001 6.966971e+001 -5.685992e-001 3.158129e-001 2.997692e-001 -1.235575e-002 4.583426e-001 1.105692e+000 3.467698e-001 -4.239853e-001 8.351713e-002 3.327885e-001 1.758273e-002 -2.612344e-002 -5.136891e-001 -7.437598e-002 -5.315531e-002 3.147494e-003 4.102271e-002 8.167088e-002 9.880013e-002 8.787322e-002 5.336535e-002 1.304608e-002 4.243492e-002 4.493045e-002 5.464155e-002 -4.515789e-002
<VARIANCE> 39
 5.117011e+001 6.050786e+001 4.424805e+001 2.995850e+001 7.158733e+001 8.786774e+001 2.736060e+001 4.498599e+001 3.603552e+001 4.687934e+001 1.870034e+001 1.715533e+001 4.115373e+001 4.423773e+000 4.428689e+000 2.857604e+000 1.374182e+000 2.608984e+000 6.138817e+000 2.737200e+000 2.718935e+000 2.116356e+000 3.693917e+000 1.839924e+000 1.832866e+000 3.513316e+000 5.820688e-001 7.846656e-001 4.423755e-001 2.210406e-001 3.818994e-001 9.597121e-001 4.993642e-001 4.772797e-001 3.347858e-001 5.738255e-001 3.668765e-001 3.584561e-001 4.393367e-001
<GCONST> 1.232921e+002
<STATE> 4
<MEAN> 39
 -4.773547e+000 2.835704e+000 -4.468282e+000 3.578935e+000 -1.708908e-001 -5.365973e+000 -6.044025e-001 5.320505e+000 1.932798e+000 -2.952392e+000 2.003592e+000 -3.854165e-001 6.837158e+001 -8.542946e-001 3.719445e-001 5.328285e-001 2.078308e-001 6.435839e-001 1.214962e+000 4.836270e-001 -2.386470e-001 1.820544e-001 5.465322e-001 1.677819e-002 1.940992e-002 -7.747232e-001 -9.312251e-002 -9.505435e-002 -1.601239e-002 1.002217e-002 -1.923517e-002 -9.790127e-003 8.113936e-002 9.649409e-002 4.270697e-002 6.994614e-002 9.393400e-002 7.409457e-002 -3.439187e-002
<VARIANCE> 39
 4.641236e+001 5.309050e+001 4.547352e+001 2.701715e+001 6.371462e+001 7.022502e+001 2.562882e+001 4.455156e+001 3.278490e+001 4.097794e+001 2.114194e+001 1.897397e+001 3.941972e+001 3.757262e+000 3.409979e+000 2.834523e+000 1.410266e+000 2.546325e+000 4.558090e+000 2.717128e+000 2.396141e+000 1.854453e+000 3.123082e+000 1.992512e+000 2.091591e+000 2.468423e+000 4.922009e-001 5.796206e-001 4.792491e-001 2.106238e-001 3.309259e-001 8.016672e-001 4.204157e-001 3.809725e-001 2.925596e-001 4.442386e-001 3.651704e-001 3.874676e-001 3.115681e-001
<GCONST> 1.193988e+002
<TRANSP> 5
 0.000000e+000 1.000000e+000 0.000000e+000 0.000000e+000 0.000000e+000
 0.000000e+000 7.363998e-001 2.636003e-001 0.000000e+000 0.000000e+000
 0.000000e+000 0.000000e+000 7.363999e-001 2.636002e-001 0.000000e+000
 0.000000e+000 0.000000e+000 0.000000e+000 8.775786e-001 1.224214e-001
 0.000000e+000 0.000000e+000 0.000000e+000 0.000000e+000 0.000000e+000
<ENDHMM>
~h "t"
<BEGINHMM>
<NUMSTATES> 5
<STATE> 2
<MEAN> 39
 -1.417778e+001 3.328872e+000 1.846965e+000 5.350900e+000 5.185482e+000 2.272808e+000 3.732237e+000 2.449473e+000 3.204877e+000 1.115816e+000 3.139047e+000 7.187654e-001 6.359406e+001 1.325834e+000 -1.616218e-001 -1.120211e-001 6.709392e-002 3.424092e-002 -1.101893e+000 -4.997218e-001 -6.962608e-001 -9.282168e-001 -1.088443e+000 -6.450804e-001 -1.141929e+000 1.497889e+000 1.057421e-001 -5.369522e-002 -1.693095e-001 -6.512094e-002 -2.913000e-002 -1.345333e-001 1.364643e-002 1.418433e-001 -2.934887e-003 -4.182508e-002 -1.776894e-002 -7.458892e-002 5.866985e-002
<VARIANCE> 39
 7.194533e+001 3.003052e+001 3.803809e+001 3.406278e+001 2.103036e+001 5.118992e+001 3.239173e+001 2.277060e+001 4.026702e+001 3.804908e+001 3.116159e+001 3.202344e+001 3.260138e+001 4.975019e+000 2.220209e+000 4.023895e+000 2.548184e+000 2.130296e+000 3.389227e+000 2.275383e+000 2.584664e+000 3.931964e+000 2.843506e+000 3.050830e+000 2.620448e+000 1.751295e+000 9.142277e-001 3.517284e-001 7.838359e-001 3.562926e-001 3.825201e-001 7.197890e-001 4.318874e-001 4.523039e-001 7.663767e-001 6.222889e-001 5.927401e-001 4.372014e-001 3.982990e-001
<GCONST> 1.230187e+002
<STATE> 3
<MEAN> 39
 -1.024443e+001 2.696362e+000 4.427668e-001 5.064321e+000 4.824384e+000 -1.173784e+000 2.568802e+000 2.159072e+000 1.181331e+000 -1.560285e+000 1.562590e+000 -1.881312e+000 6.722753e+001 1.272734e+000 -2.710416e-001 -5.104764e-001 -2.230126e-002 -1.387772e-001 -1.088304e+000 -3.988187e-001 6.075825e-002 -5.371907e-001 -7.993773e-001 -5.697048e-001 -7.822755e-001 1.119132e+000 -9.014038e-002 5.115722e-003 -5.172419e-002 -1.582140e-002 -6.002401e-002 7.677270e-002 3.771383e-002 1.922843e-001 1.601180e-001 1.478806e-001 3.582430e-002 1.261759e-001 -1.726552e-001
<VARIANCE> 39
 1.002632e+002 3.768277e+001 5.401962e+001 4.216410e+001 3.416062e+001 6.570424e+001 4.434260e+001 3.162709e+001 4.516698e+001 4.633424e+001 4.084470e+001 4.006552e+001 3.198251e+001 6.192892e+000 2.099123e+000 4.627022e+000 1.940094e+000 2.503232e+000 4.161927e+000 2.515868e+000 2.806358e+000 3.915554e+000 3.447963e+000 3.309731e+000 2.683002e+000 2.226644e+000 8.820293e-001 4.097856e-001 7.707629e-001 2.824117e-001 4.146369e-001 7.100037e-001 4.308439e-001 4.393129e-001 6.542820e-001 6.096858e-001 5.437773e-001 3.752138e-001 3.238764e-001
<GCONST> 1.266980e+002
<STATE> 4
<MEAN> 39
 -6.839820e+000 2.485073e+000 -1.166985e+000 4.764333e+000 3.421309e+000 -4.481291e+000 1.369789e+000 4.075216e+000 6.579843e-001 -3.259891e+000 1.002433e-001 -3.195915e+000 6.928584e+001 8.005781e-001 -4.258643e-002 -3.755379e-001 -6.396446e-002 -3.650503e-001 -7.647209e-001 -3.554345e-001 3.443859e-001 -1.935646e-003 -2.706518e-001 -3.463500e-001 -3.211062e-001 4.761285e-001 -1.295549e-001 5.957951e-002 3.229547e-002 -2.657151e-002 -5.064657e-002 1.061148e-001 2.319180e-002 1.377887e-002 1.119055e-001 1.415772e-001 8.577439e-002 1.230717e-001 -1.565047e-001
<VARIANCE> 39
 1.043838e+002 3.794767e+001 5.616717e+001 4.170193e+001 5.707382e+001 8.738887e+001 5.047676e+001 3.911204e+001 4.240578e+001 5.403745e+001 4.484334e+001 4.524184e+001 3.530104e+001 5.392243e+000 2.319826e+000 4.274127e+000 1.374073e+000 2.676114e+000 4.140368e+000 2.329691e+000 2.660691e+000 2.849524e+000 3.522457e+000 3.121929e+000 2.496975e+000 2.205637e+000 7.324809e-001 4.505361e-001 6.984764e-001 2.214954e-001 4.192197e-001 6.210431e-001 3.945714e-001 4.830158e-001 5.204476e-001 5.995507e-001 4.872636e-001 3.551961e-001 3.258849e-001
<GCONST> 1.263981e+002
<TRANSP> 5
 0.000000e+000 1.000000e+000 0.000000e+000 0.000000e+000 0.000000e+000
 0.000000e+000 6.323357e-001 3.676643e-001 0.000000e+000 0.000000e+000
 0.000000e+000 0.000000e+000 6.323356e-001 3.676644e-001 0.000000e+000
 0.000000e+000 0.000000e+000 0.000000e+000 7.441662e-001 2.558338e-001
 0.000000e+000 0.000000e+000 0.000000e+000 0.000000e+000 0.000000e+000
<ENDHMM>
~h "w"
<BEGINHMM>
<NUMSTATES> 5
<STATE> 2
<MEAN> 39
 -5.661174e+000 6.830977e+000 7.011964e-001 7.007580e+000 -1.932609e+000 -1.113655e+001 -1.824194e+000 3.563833e+000 -3.178367e+000 -6.160108e+000 -1.456666e-002 -1.585762e+000 6.647207e+001 -5.507826e-001 6.838690e-001 5.728304e-001 -2.140077e-001 -1.411619e-001 5.520195e-001 -1.907338e-001 -1.323550e-001 7.887943e-001 7.712439e-001 -3.231263e-001 -2.476528e-001 -6.357014e-001 -2.462495e-001 -8.961448e-002 -4.590826e-002 -6.552823e-002 1.596823e-001 3.363308e-001 1.123226e-001 -3.680209e-002 1.654627e-001 2.326873e-001 1.578773e-001 9.858955e-002 -1.330566e-001
<VARIANCE> 39
 3.790342e+001 2.561322e+001 1.795004e+001 1.190092e+001 3.298925e+001 8.620834e+001 2.002978e+001 3.859943e+001 5.022792e+001 4.157697e+001 1.740427e+001 1.983104e+001 2.193409e+001 3.214092e+000 1.924877e+000 1.311131e+000 8.862839e-001 2.194928e+000 4.743831e+000 1.744579e+000 1.679996e+000 3.157921e+000 3.966431e+000 1.519924e+000 1.829376e+000 1.775215e+000 3.399061e-001 3.646475e-001 2.352590e-001 1.307366e-001 3.571155e-001 4.809214e-001 2.847980e-001 3.297490e-001 4.033811e-001 5.818697e-001 2.587401e-001 2.895207e-001 2.378724e-001
<GCONST> 1.094408e+002
<STATE> 3
<MEAN> 39
 -7.914995e+000 8.505030e+000 2.199589e+000 6.334194e+000 -1.864748e+000 -8.738082e+000 -2.085330e+000 3.126839e+000 -3.535736e-001 -3.324363e+000 -5.982864e-001 -2.047126e+000 6.430041e+001 -1.179634e+000 2.501365e-001 2.942934e-001 -2.953140e-001 4.521139e-001 1.492329e+000 1.573280e-001 -1.714054e-001 1.174444e+000 1.286787e+000 1.688129e-001 8.563231e-002 -9.123939e-001 -1.521780e-001 -2.349181e-001 -1.658323e-001 -1.528715e-002 1.612650e-001 2.311111e-001 1.998567e-001 9.301423e-002 1.974317e-002 5.942214e-002 2.290059e-001 2.005427e-001 -3.746942e-002
<VARIANCE> 39
 4.193682e+001 2.397428e+001 1.503369e+001 1.080141e+001 3.301753e+001 8.566599e+001 1.650422e+001 3.046574e+001 4.643546e+001 4.281984e+001 1.233032e+001 1.754865e+001 2.040053e+001 2.155010e+000 2.136251e+000 1.509742e+000 9.765315e-001 2.616842e+000 5.171985e+000 1.827702e+000 2.223182e+000 2.444538e+000 2.666059e+000 1.384888e+000 1.923589e+000 1.040988e+000 2.406308e-001 3.112117e-001 2.246677e-001 1.497346e-001 4.202884e-001 5.941989e-001 2.892013e-001 4.241816e-001 4.178197e-001 4.342104e-001 1.969432e-001 2.768826e-001 1.527571e-001
<GCONST> 1.066882e+002
<STATE> 4
<MEAN> 39
 -1.199454e+001 8.145338e+000 2.282267e+000 5.776623e+000 3.715785e-001 -3.386386e+000 -1.150463e+000 2.969626e+000 3.502157e+000 7.253101e-001 5.346963e-001 -1.124447e+000 6.151803e+001 -1.417342e+000 -4.688225e-001 -2.224033e-001 -3.602405e-001 6.801323e-001 1.846082e+000 8.598789e-001 3.810114e-001 1.097123e+000 1.274311e+000 8.500487e-001 7.315968e-001 -8.871385e-001 6.296205e-002 -1.215054e-001 -9.126513e-002 -6.671330e-002 -1.239301e-001 -1.302415e-001 2.288490e-001 1.989771e-001 -2.066562e-001 -1.412155e-001 1.545046e-001 2.035919e-001 6.226498e-002
<VARIANCE> 39
 3.778788e+001 2.691809e+001 1.537540e+001 1.407429e+001 3.594933e+001 7.261018e+001 2.008951e+001 2.027711e+001 4.685850e+001 3.876492e+001 1.206212e+001 1.859139e+001 1.404074e+001 1.312941e+000 2.265611e+000 1.657696e+000 1.101876e+000 2.369884e+000 3.525476e+000 2.493364e+000 2.736442e+000 3.112948e+000 2.292480e+000 1.180756e+000 2.097576e+000 6.162619e-001 1.692435e-001 3.665974e-001 2.867404e-001 2.247299e-001 4.981803e-001 6.280741e-001 3.714908e-001 4.683138e-001 6.282038e-001 3.572245e-001 1.857031e-001 3.344492e-001 1.002356e-001
<GCONST> 1.065331e+002
<TRANSP> 5
 0.000000e+000 1.000000e+000 0.000000e+000 0.000000e+000 0.000000e+000
 0.000000e+000 6.424929e-001 3.575071e-001 0.000000e+000 0.000000e+000
 0.000000e+000 0.000000e+000 6.424929e-001 3.575071e-001 0.000000e+000
 0.000000e+000 0.000000e+000 0.000000e+000 7.461574e-001 2.538426e-001
 0.000000e+000 0.000000e+000 0.000000e+000 0.000000e+000 0.000000e+000
<ENDHMM>
~h "ah"
<BEGINHMM>
<NUMSTATES> 5
<STATE> 2
<MEAN> 39
 -1.778026e+001 5.055385e+000 7.037215e-001 4.301050e+000 3.714666e+000 5.367723e+000 6.220984e+000 6.357013e+000 6.710142e+000 5.438572e+000 5.154601e+000 3.870687e+000 5.798937e+001 -4.541633e-001 -1.804336e-001 4.371418e-002 1.023221e-001 1.659730e-001 2.486951e-001 1.415342e-001 8.476304e-002 1.393304e-001 1.891240e-001 2.358937e-001 2.703381e-001 -2.769781e-001 1.166316e-001 2.134916e-003 -4.470453e-002 -1.422317e-002 -3.881892e-002 -1.145468e-001 -6.700805e-002 -4.504636e-002 -5.288281e-002 -9.829614e-002 -7.856332e-002 -6.386699e-002 9.235749e-002
<VARIANCE> 39
 1.093695e+001 4.372861e+000 6.099212e+000 8.654682e+000 9.850976e+000 9.438759e+000 9.325336e+000 9.849587e+000 8.718222e+000 1.023840e+001 1.138628e+001 1.466099e+001 3.938608e+000 5.020822e-001 3.174960e-001 5.363657e-001 6.208968e-001 6.697977e-001 7.393132e-001 9.257767e-001 7.575018e-001 9.913854e-001 9.187537e-001 7.732755e-001 1.021295e+000 2.324921e-001 7.373796e-002 5.864568e-002 1.110782e-001 1.086940e-001 1.258645e-001 1.548957e-001 1.931128e-001 1.641602e-001 1.939884e-001 1.899375e-001 1.521418e-001 1.729554e-001 3.845668e-002
<GCONST> 6.631569e+001
<STATE> 3
<MEAN> 39
 -1.895801e+001 4.461811e+000 8.278427e-001 4.726323e+000 4.251675e+000 5.860269e+000 6.446743e+000 6.305121e+000 6.921536e+000 5.779132e+000 5.675018e+000 4.489002e+000 5.737005e+001 -2.010581e-001 -1.016438e-001 3.216351e-002 6.941565e-002 8.429730e-002 8.015227e-002 3.968622e-002 -1.808808e-002 2.815133e-002 5.101042e-002 9.178422e-002 9.716040e-002 -9.963986e-002 4.359614e-002 1.253788e-002 -1.700232e-003 -7.932110e-003 -1.718668e-002 -3.050289e-002 -1.215020e-002 -1.633539e-002 -2.184460e-002 -2.758035e-002 -2.098745e-002 -2.544693e-002 3.387275e-002
<VARIANCE> 39
 4.782047e+000 2.161768e+000 3.717156e+000 5.946957e+000 5.997249e+000 6.557114e+000 6.847094e+000 7.655354e+000 6.891009e+000 7.721289e+000 7.617231e+000 8.315603e+000 1.826628e+000 2.891392e-001 2.128943e-001 3.599107e-001 4.362917e-001 4.992626e-001 6.109856e-001 7.110553e-001 7.167790e-001 8.004577e-001 6.811733e-001 6.708625e-001 7.746310e-001 1.314196e-001 4.254581e-002 3.932578e-002 7.693391e-002 8.252559e-002 9.382372e-002 1.227516e-001 1.449754e-001 1.472697e-001 1.703492e-001 1.406531e-001 1.321016e-001 1.469747e-001 2.174260e-002
<GCONST> 5.240961e+001
<STATE> 4
<MEAN> 39
 -1.968516e+001 4.135603e+000 1.073227e+000 4.985974e+000 4.487479e+000 6.132570e+000 6.610302e+000 6.227828e+000 6.903278e+000 6.012452e+000 6.071938e+000 4.827796e+000 5.708715e+001 -1.532450e-002 -3.567502e-002 4.530049e-002 4.359930e-003 8.096172e-003 -1.979194e-003 1.689512e-005 -4.874464e-002 -2.050877e-002 -1.422374e-002 8.676044e-003 -5.036480e-003 3.571498e-002 3.830671e-002 -5.699487e-003 1.068983e-002 2.702013e-003 -3.018579e-003 -2.822556e-002 -1.728990e-002 -3.774744e-002 -2.973608e-002 -2.601499e-002 -1.713170e-002 -2.477456e-002 4.717716e-002
<VARIANCE> 39
 1.485504e+000 2.104025e+000 2.457354e+000 3.635659e+000 4.126545e+000 4.865355e+000 5.347276e+000 6.389732e+000 6.326554e+000 5.848452e+000 5.457921e+000 5.211868e+000 1.193335e+000 2.003824e-001 2.624163e-001 3.380443e-001 4.215985e-001 4.760162e-001 6.001541e-001 6.406714e-001 6.662661e-001 7.874569e-001 6.275991e-001 5.989420e-001 5.846444e-001 1.371037e-001 5.223915e-002 5.455144e-002 7.923079e-002 9.192706e-002 9.716413e-002 1.356085e-001 1.385994e-001 1.478070e-001 1.763926e-001 1.391875e-001 1.229314e-001 1.288105e-001 3.884837e-002
<GCONST> 4.783364e+001
<TRANSP> 5
 0.000000e+000 1.000000e+000 0.000000e+000 0.000000e+000 0.000000e+000
 0.000000e+000 8.130776e-001 1.869224e-001 0.000000e+000 0.000000e+000
 0.000000e+000 0.000000e+000 8.130777e-001 1.869223e-001 0.000000e+000
 0.000000e+000 0.000000e+000 0.000000e+000 9.480557e-001 5.194426e-002
 0.000000e+000 0.000000e+000 0.000000e+000 0.000000e+000 0.000000e+000
<ENDHMM>
~h "hh"
<BEGINHMM>
<NUMSTATES> 5
<STATE> 2
<MEAN> 39
 9.475870e-001 -7.788525e-001 -1.166702e+001 -6.874619e-001 1.940036e-002 -7.833969e+000 3.773578e+000 1.058948e+001 3.675537e-001 -3.178693e+000 -4.938824e-001 -3.311697e+000 7.318788e+001 -6.137446e-001 6.219136e-001 6.497452e-001 5.752146e-001 4.689482e-001 9.988596e-001 -1.744815e-001 -3.319060e-001 8.666410e-001 4.787844e-001 -7.897623e-001 -1.016877e+000 -8.494601e-001 -1.616092e-001 1.960658e-001 2.999004e-001 1.734870e-001 4.384822e-002 2.075128e-001 -1.874549e-002 -2.513686e-001 -1.757333e-001 8.403418e-003 9.001684e-002 -8.449375e-002 -1.521490e-001
<VARIANCE> 39
 6.903534e+000 9.698195e+000 1.554258e+001 5.878033e+001 3.845491e+001 2.381322e+001 1.866955e+001 2.234858e+001 1.941297e+001 1.203224e+001 1.830438e+001 4.100397e+001 1.017944e+001 4.424878e-001 1.052175e+000 1.516782e+000 1.643893e+000 3.205961e+000 1.720440e+000 1.590863e+000 1.592850e+000 9.449793e-001 1.490780e+000 1.491189e+000 2.004769e+000 5.382159e-001 6.065261e-002 1.206701e-001 1.840196e-001 2.578688e-001 3.720772e-001 3.544108e-001 2.939269e-001 2.183302e-001 1.576462e-001 3.512454e-001 3.115715e-001 3.663717e-001 7.434719e-002
<GCONST> 9.315119e+001
<STATE> 3
<MEAN> 39
 -3.033514e-001 4.518058e-001 -1.022761e+001 5.598993e-001 9.315913e-001 -5.871737e+000 3.468693e+000 9.667736e+000 1.571939e+000 -2.372382e+000 -1.690283e+000 -5.178910e+000 7.158342e+001 -8.956524e-001 9.714212e-001 1.163827e+000 7.659569e-001 4.741449e-001 1.334441e+000 -1.287293e-001 -7.174717e-001 5.083247e-001 4.169365e-001 -5.311424e-001 -1.042740e+000 -1.089326e+000 -1.753538e-001 1.745946e-001 2.792586e-001 9.548218e-002 5.947397e-002 1.800680e-001 3.912059e-002 -1.446690e-001 -1.832733e-001 -7.067841e-002 1.147119e-001 4.741949e-002 -1.288854e-001
<VARIANCE> 39
 9.907928e+000 1.513344e+001 1.944747e+001 6.291225e+001 2.582779e+001 3.272012e+001 1.281429e+001 2.370135e+001 1.350499e+001 1.267044e+001 1.289056e+001 3.696393e+001 1.222260e+001 4.589662e-001 1.295811e+000 1.723730e+000 1.338121e+000 2.587796e+000 2.043074e+000 1.114799e+000 1.258842e+000 8.804383e-001 1.249019e+000 1.385272e+000 1.817145e+000 6.120486e-001 6.954262e-002 1.393052e-001 1.896024e-001 2.302212e-001 3.840411e-001 4.438253e-001 2.007933e-001 2.060412e-001 1.210802e-001 3.038517e-001 2.600809e-001 3.024531e-001 8.157447e-002
<GCONST> 9.183769e+001
<STATE> 4
<MEAN> 39
 -2.160192e+000 2.368859e+000 -7.779848e+000 2.110443e+000 1.868562e+000 -3.207491e+000 3.288999e+000 8.125559e+000 2.125136e+000 -1.835294e+000 -2.380814e+000 -6.929960e+000 6.946970e+001 -1.203715e+000 1.239272e+000 1.607830e+000 8.521429e-001 6.063257e-001 1.607913e+000 -1.142547e-002 -8.673329e-001 2.048818e-001 2.519337e-001 -3.531666e-001 -8.232182e-001 -1.287441e+000 -1.608534e-001 4.621891e-002 1.614367e-001 4.904639e-002 9.834045e-002 8.345497e-002 8.578904e-002 2.233351e-002 -1.238511e-001 -8.339757e-002 7.613982e-002 1.813454e-001 -7.305897e-002
<VARIANCE> 39
 1.373849e+001 2.294085e+001 2.472322e+001 5.437266e+001 1.774392e+001 4.062728e+001 9.754301e+000 2.549755e+001 1.156467e+001 1.279997e+001 9.338303e+000 2.692565e+001 1.409173e+001 4.821306e-001 1.303253e+000 1.658344e+000 1.301803e+000 1.896609e+000 2.320994e+000 8.566635e-001 1.074332e+000 7.838123e-001 1.095277e+000 1.165162e+000 2.041381e+000 6.347344e-001 8.623442e-002 2.023335e-001 2.136239e-001 1.854075e-001 3.548795e-001 5.185002e-001 1.493543e-001 2.149553e-001 1.256158e-001 2.643719e-001 2.298422e-001 2.348021e-001 1.003784e-001
<GCONST> 9.083230e+001
<TRANSP> 5
 0.000000e+000 1.000000e+000 0.000000e+000 0.000000e+000 0.000000e+000
 0.000000e+000 4.229438e-001 5.770562e-001 0.000000e+000 0.000000e+000
 0.000000e+000 0.000000e+000 4.229439e-001 5.770562e-001 0.000000e+000
 0.000000e+000 0.000000e+000 0.000000e+000 4.915656e-001 5.084344e-001
 0.000000e+000 0.000000e+000 0.000000e+000 0.000000e+000 0.000000e+000
<ENDHMM>
~h "ih"
<BEGINHMM>
<NUMSTATES> 5
<STATE> 2
<MEAN> 39
 -3.283286e+000 3.297801e+000 -3.423903e+000 4.496854e+000 -9.516006e-001 -9.561463e+000 -9.487281e-001 8.259977e+000 3.099667e+000 -4.485172e+000 -6.610987e-001 -3.578752e+000 6.996465e+001 8.471332e-001 -4.233902e-001 -7.202363e-001 -5.239356e-001 -9.571636e-001 -1.233129e+000 -2.276241e-001 5.971524e-001 2.114165e-001 -2.276150e-001 -1.934406e-004 1.590500e-001 7.190619e-001 6.855007e-003 -2.413430e-002 -6.110981e-002 -1.384503e-002 3.600439e-002 5.322503e-002 3.323323e-002 -5.403577e-002 -9.231899e-003 4.030837e-002 4.023260e-003 1.961030e-002 8.395722e-003
<VARIANCE> 39
 7.686362e+001 3.801145e+001 5.209904e+001 2.068370e+001 9.529680e+001 1.297090e+002 4.123922e+001 4.777350e+001 5.132196e+001 6.013919e+001 2.839102e+001 3.001427e+001 5.470667e+001 5.045781e+000 2.350068e+000 4.152038e+000 1.028420e+000 2.888957e+000 5.969396e+000 2.226165e+000 3.118296e+000 2.509309e+000 3.840293e+000 2.265182e+000 2.405882e+000 3.681035e+000 8.039515e-001 4.009143e-001 7.053084e-001 1.877481e-001 5.119037e-001 1.074545e+000 4.173751e-001 5.904732e-001 4.898212e-001 7.037594e-001 4.054757e-001 3.457341e-001 5.960775e-001
<GCONST> 1.277068e+002
<STATE> 3
<MEAN> 39
 -7.171412e-001 1.789936e+000 -5.870667e+000 2.952100e+000 -3.671749e+000 -1.309211e+001 -1.574382e+000 9.915234e+000 3.682808e+000 -5.059098e+000 -6.155884e-001 -3.076493e+000 7.220142e+001 7.226499e-001 -4.815861e-001 -8.509538e-001 -5.172368e-001 -7.267996e-001 -8.566523e-001 -5.284694e-002 3.163674e-001 1.328168e-001 -1.015268e-001 3.040672e-002 3.176892e-001 6.283688e-001 -9.314158e-002 2.639227e-002 2.253262e-002 1.471581e-002 1.032398e-001 1.658789e-001 6.262029e-002 -1.075010e-001 -4.680328e-002 3.976861e-002 1.005841e-002 5.652339e-002 -7.868036e-002
<VARIANCE> 39
 5.789388e+001 4.439599e+001 6.431839e+001 2.263503e+001 8.800160e+001 1.021236e+002 4.659493e+001 4.833102e+001 4.915528e+001 5.332784e+001 2.159122e+001 2.360930e+001 4.378564e+001 4.298170e+000 2.105001e+000 4.026052e+000 9.595646e-001 2.334120e+000 5.255383e+000 2.027606e+000 2.685256e+000 2.486251e+000 3.064445e+000 1.657029e+000 1.815489e+000 3.191455e+000 6.893157e-001 3.558705e-001 6.806035e-001 1.595812e-001 3.942203e-001 8.811489e-001 3.724024e-001 4.743522e-001 4.800377e-001 5.708182e-001 3.123407e-001 2.729798e-001 5.113211e-001
<GCONST> 1.227246e+002
<STATE> 4
<MEAN> 39
 1.239655e+000 -1.654119e-001 -8.449850e+000 1.587176e+000 -5.924377e+000 -1.564988e+001 -1.574430e+000 1.106037e+001 3.563474e+000 -5.852273e+000 -2.103794e-001 -1.656924e+000 7.413566e+001 1.993217e-001 -3.127522e-001 -5.829673e-001 -3.981289e-001 -3.544058e-001 -1.256972e-001 2.358034e-001 -6.728832e-002 -2.454972e-002 6.432205e-002 1.218661e-001 5.594188e-001 1.811754e-001 -1.975066e-001 1.087298e-001 1.516044e-001 4.070017e-002 1.177317e-001 2.158878e-001 5.352355e-002 -9.066418e-002 -3.503395e-002 6.340824e-002 4.105680e-002 3.895413e-002 -1.734753e-001
<VARIANCE> 39
 2.919408e+001 4.034656e+001 5.718322e+001 2.331191e+001 6.977316e+001 6.361865e+001 5.502179e+001 5.092978e+001 4.425716e+001 5.337983e+001 1.878179e+001 2.315197e+001 2.557343e+001 3.119985e+000 1.922391e+000 3.426952e+000 8.514472e-001 1.720517e+000 3.865340e+000 1.527336e+000 1.948254e+000 2.344280e+000 2.206738e+000 1.192905e+000 1.426418e+000 2.461813e+000 4.284984e-001 2.752471e-001 5.018708e-001 1.387889e-001 2.662748e-001 5.534929e-001 2.825833e-001 3.323714e-001 4.418539e-001 4.299047e-001 2.320025e-001 2.371079e-001 3.260139e-001
<GCONST> 1.135237e+002
<TRANSP> 5
 0.000000e+000 1.000000e+000 0.000000e+000 0.000000e+000 0.000000e+000
 0.000000e+000 6.849751e-001 3.150249e-001 0.000000e+000 0.000000e+000
 0.000000e+000 0.000000e+000 6.849751e-001 3.150249e-001 0.000000e+000
 0.000000e+000 0.000000e+000 0.000000e+000 7.943743e-001 2.056258e-001
 0.000000e+000 0.000000e+000 0.000000e+000 0.000000e+000 0.000000e+000
<ENDHMM>
~h "iy"
<BEGINHMM>
<NUMSTATES> 5
<STATE> 2
<MEAN> 39
 -4.258536e+000 1.307458e+000 -2.610358e+000 8.190332e+000 6.337673e+000 -6.758048e+000 -4.306943e+000 -2.405057e-001 -1.713580e+000 -4.797442e+000 1.498689e+000 -6.177359e-001 7.050642e+001 1.192612e-001 -1.635223e-001 -2.193899e-001 5.602742e-002 -1.823577e-001 -2.365927e-001 6.165059e-002 4.966924e-002 4.261966e-002 -1.290399e-001 1.149212e-001 3.990250e-001 8.414461e-002 1.994986e-002 -2.475596e-002 -4.060617e-002 -5.703485e-002 2.158930e-004 -2.600777e-002 3.299646e-002 1.367536e-002 -3.884888e-002 3.357258e-002 2.031580e-002 1.807696e-002 3.684149e-002
<VARIANCE> 39
 4.068900e+001 5.373872e+001 3.905684e+001 5.450103e+001 6.712418e+001 6.316265e+001 5.353886e+001 4.890553e+001 6.323195e+001 7.458062e+001 5.926020e+001 5.735168e+001 4.654118e+001 2.937557e+000 3.063526e+000 2.395910e+000 3.066610e+000 2.453148e+000 5.495083e+000 3.469565e+000 1.907217e+000 3.843137e+000 3.379263e+000 3.121817e+000 2.314148e+000 2.569700e+000 3.967580e-001 5.183112e-001 3.127115e-001 5.041536e-001 3.791963e-001 1.063069e+000 6.872269e-001 3.913848e-001 6.851512e-001 6.314331e-001 5.569122e-001 3.664888e-001 3.801724e-001
<GCONST> 1.288060e+002
<STATE> 3
<MEAN> 39
 -3.681651e+000 5.313516e-001 -3.638772e+000 8.084348e+000 5.757380e+000 -7.833990e+000 -3.942365e+000 1.787901e-002 -1.910382e+000 -5.138753e+000 2.043558e+000 8.846655e-001 7.109112e+001 2.523478e-001 -2.117956e-001 -4.109791e-001 -1.834668e-001 -1.721218e-001 -3.238606e-001 1.505205e-001 1.338925e-001 -1.153786e-001 -2.923939e-002 1.459428e-001 4.103870e-001 2.204087e-001 2.220989e-002 1.351215e-002 -2.825744e-002 -5.988674e-002 9.808531e-003 1.709000e-002 2.012788e-002 1.847124e-002 -2.802509e-002 3.143606e-002 -1.085185e-002 -2.246964e-002 1.206533e-002
<VARIANCE> 39
 4.124166e+001 4.928303e+001 3.915797e+001 5.811902e+001 6.371566e+001 6.760994e+001 5.375997e+001 5.024879e+001 5.717654e+001 6.749001e+001 6.317361e+001 5.377524e+001 4.849088e+001 2.746516e+000 2.730664e+000 2.511980e+000 3.361032e+000 2.206269e+000 5.974778e+000 3.140337e+000 2.309025e+000 3.377292e+000 3.024351e+000 3.276615e+000 2.330456e+000 2.643199e+000 3.933761e-001 4.731914e-001 3.482232e-001 5.260931e-001 3.348807e-001 1.173875e+000 6.853284e-001 4.730496e-001 6.014210e-001 5.805250e-001 5.830261e-001 3.671636e-001 3.904356e-001
<GCONST> 1.286283e+002
<STATE> 4
<MEAN> 39
 -2.318590e+000 -2.805271e-001 -5.662030e+000 6.782556e+000 5.198769e+000 -9.196361e+000 -3.290036e+000 6.647034e-001 -2.638132e+000 -5.107546e+000 2.471021e+000 2.440265e+000 7.224455e+001 2.934051e-001 -8.393516e-002 -4.605767e-001 -4.500226e-001 -1.940735e-001 -1.342451e-001 2.514159e-001 2.210350e-001 -1.554739e-001 1.187922e-001 8.048266e-002 2.848597e-001 1.856411e-001 -4.993539e-002 7.224406e-002 7.022791e-002 -7.003152e-003 3.196855e-003 1.171411e-001 1.742818e-002 -1.375889e-002 2.235101e-002 3.877943e-002 -3.594755e-002 -6.307454e-002 -6.901968e-002
<VARIANCE> 39
 3.630360e+001 3.553056e+001 4.193405e+001 6.765185e+001 5.526599e+001 5.945914e+001 5.492802e+001 5.171112e+001 4.342690e+001 5.563903e+001 6.722565e+001 4.210543e+001 3.977537e+001 2.605409e+000 2.391224e+000 2.894134e+000 3.551912e+000 2.463708e+000 6.322296e+000 3.329734e+000 2.962821e+000 2.816944e+000 2.767951e+000 4.153266e+000 2.626354e+000 2.638170e+000 3.852190e-001 3.967408e-001 3.958425e-001 5.426915e-001 3.525699e-001 1.176946e+000 7.157325e-001 5.716605e-001 4.989071e-001 5.388078e-001 6.852573e-001 4.053097e-001 3.627503e-001
<GCONST> 1.280698e+002
<TRANSP> 5
 0.000000e+000 1.000000e+000 0.000000e+000 0.000000e+000 0.000000e+000
 0.000000e+000 7.130962e-001 2.869038e-001 0.000000e+000 0.000000e+000
 0.000000e+000 0.000000e+000 7.130962e-001 2.869038e-001 0.000000e+000
 0.000000e+000 0.000000e+000 0.000000e+000 8.225465e-001 1.774535e-001
 0.000000e+000 0.000000e+000 0.000000e+000 0.000000e+000 0.000000e+000
<ENDHMM>
~h "jh"
<BEGINHMM>
<NUMSTATES> 5
<STATE> 2
<MEAN> 39
 8.065844e-001 -4.960172e-001 -7.538947e+000 6.564053e+000 2.277095e+000 -8.082948e+000 -1.504775e+000 1.034517e+000 -5.064201e+000 -3.854408e+000 3.461872e+000 -2.302758e+000 7.406500e+001 4.097595e-001 -4.822622e-001 -8.501654e-001 -9.544189e-001 -8.544581e-001 -3.855317e-001 1.021308e+000 1.003566e+000 -4.896321e-001 -1.838321e-002 4.647872e-001 3.707151e-001 3.825395e-001 -2.086233e-002 5.626617e-002 -1.236336e-002 -1.834023e-001 1.545867e-002 1.573818e-002 9.955633e-002 2.121044e-001 3.496868e-002 -1.226175e-001 -1.496727e-001 2.135352e-002 -2.616403e-002
<VARIANCE> 39
 6.730942e+000 2.140301e+001 2.540025e+001 2.877680e+001 1.120719e+002 2.363784e+001 7.413560e+001 7.454895e+001 3.419353e+001 2.968756e+001 9.555588e+001 2.392002e+001 1.059589e+001 5.039838e-001 9.710886e-001 1.267936e+000 1.472228e+000 2.483021e+000 1.943617e+000 1.491243e+000 3.863924e+000 1.516459e+000 8.867056e-001 4.946100e+000 1.273018e+000 6.155664e-001 8.407948e-002 1.141902e-001 2.166619e-001 2.537586e-001 4.310840e-001 4.876241e-001 2.514559e-001 7.554536e-001 2.864586e-001 1.569131e-001 8.755010e-001 2.624803e-001 9.895892e-002
<GCONST> 1.039916e+002
<STATE> 3
<MEAN> 39
 1.464583e+000 -1.170044e+000 -8.939745e+000 4.672613e+000 8.608854e-001 -8.649324e+000 3.833840e-001 3.081282e+000 -5.816927e+000 -4.042937e+000 3.896552e+000 -1.742475e+000 7.462287e+001 3.342740e-001 -3.482558e-001 -7.958926e-001 -1.253756e+000 -7.874157e-001 -3.531400e-001 1.115168e+000 1.295282e+000 -3.263275e-001 -1.667323e-001 1.833418e-001 3.786768e-001 3.267850e-001 -4.277644e-002 6.335183e-002 2.128542e-002 -1.299003e-001 2.827328e-002 4.387510e-003 1.605939e-002 1.364753e-001 1.455175e-001 -5.510991e-002 -1.105462e-001 1.603758e-002 -2.998429e-002
<VARIANCE> 39
 4.730392e+000 1.863071e+001 2.081788e+001 3.494493e+001 1.203927e+002 2.133797e+001 7.609486e+001 7.802130e+001 3.028844e+001 2.400193e+001 8.538319e+001 2.475313e+001 9.385391e+000 3.679862e-001 9.891905e-001 1.198612e+000 2.276605e+000 1.986317e+000 1.773768e+000 2.080943e+000 3.559319e+000 1.754757e+000 1.011214e+000 3.719197e+000 1.759388e+000 7.387411e-001 5.791476e-002 1.265302e-001 1.733590e-001 3.672590e-001 3.622043e-001 4.339294e-001 3.275788e-001 6.990076e-001 2.979811e-001 1.666287e-001 6.818753e-001 2.959470e-001 1.141915e-001
<GCONST> 1.034064e+002
<STATE> 4
<MEAN> 39
 1.987583e+000 -1.627005e+000 -1.027330e+001 2.154345e+000 -7.220178e-001 -9.301227e+000 2.541400e+000 5.783229e+000 -6.188044e+000 -4.435624e+000 4.084834e+000 -1.039840e+000 7.512975e+001 2.263664e-001 -2.116074e-001 -7.081839e-001 -1.343005e+000 -6.625555e-001 -3.559825e-001 9.783355e-001 1.408645e+000 8.196136e-002 -1.730400e-001 -1.483098e-002 3.648956e-001 2.399127e-001 -6.437364e-002 7.020566e-002 5.967482e-002 4.846860e-002 9.330790e-002 3.954775e-002 -1.223614e-001 -1.035342e-002 2.561072e-001 3.061565e-002 -1.124620e-001 -5.410245e-002 -7.380458e-002
<VARIANCE> 39
 3.439270e+000 1.620690e+001 1.658581e+001 3.838701e+001 1.135803e+002 1.920946e+001 6.627367e+001 7.235677e+001 2.573411e+001 1.842910e+001 6.493137e+001 2.426451e+001 7.897476e+000 2.967931e-001 9.974395e-001 1.301033e+000 3.195327e+000 2.020373e+000 1.725235e+000 3.015649e+000 3.577630e+000 2.099579e+000 1.280857e+000 3.014648e+000 2.633006e+000 8.992071e-001 4.160718e-002 1.365979e-001 1.505613e-001 4.601770e-001 3.007551e-001 4.039914e-001 3.758584e-001 6.579849e-001 3.054465e-001 2.184360e-001 4.997309e-001 3.660747e-001 1.228222e-001
<GCONST> 1.028500e+002
<TRANSP> 5
 0.000000e+000 1.000000e+000 0.000000e+000 0.000000e+000 0.000000e+000
 0.000000e+000 4.229626e-001 5.770374e-001 0.000000e+000 0.000000e+000
 0.000000e+000 0.000000e+000 4.229627e-001 5.770374e-001 0.000000e+000
 0.000000e+000 0.000000e+000 0.000000e+000 4.915914e-001 5.084085e-001
 0.000000e+000 0.000000e+000 0.000000e+000 0.000000e+000 0.000000e+000
<ENDHMM>
~h "ow"
<BEGINHMM>
<NUMSTATES> 5
<STATE> 2
<MEAN> 39
 8.968658e-001 2.230009e+000 -7.065032e+000 2.837724e+000 -2.302468e+000 -1.460494e+001 -1.809608e+000 8.692856e+000 2.839403e-001 -5.469846e+000 2.453662e+000 -9.591930e-001 7.430914e+001 1.128992e+000 -4.988943e-001 -8.742412e-001 -7.086256e-001 -1.316894e+000 -2.044692e+000 2.498906e-004 1.515714e+000 4.502841e-002 -3.873263e-001 2.295671e-001 3.191652e-001 9.703740e-001 -1.713100e-001 5.517465e-002 1.449749e-001 2.440523e-002 -5.642808e-002 7.919528e-002 3.380314e-002 7.875001e-002 1.097031e-001 1.232339e-001 4.034942e-003 5.211663e-002 -1.931208e-001
<VARIANCE> 39
 3.666811e+001 1.901193e+001 3.451253e+001 3.245817e+001 1.144583e+002 1.078024e+002 4.232592e+001 9.252563e+001 3.437154e+001 3.831071e+001 4.209305e+001 3.407565e+001 3.030850e+001 1.814492e+000 1.218272e+000 2.884205e+000 1.922827e+000 2.413524e+000 3.634166e+000 4.886184e+000 4.756209e+000 2.543567e+000 4.474044e+000 3.322852e+000 5.644382e+000 2.358782e+000 1.894851e-001 2.291796e-001 4.204651e-001 2.994960e-001 3.907644e-001 7.573887e-001 9.236540e-001 8.568985e-001 4.986944e-001 6.921116e-001 6.502016e-001 1.156083e+000 2.750733e-001
<GCONST> 1.255467e+002
<STATE> 3
<MEAN> 39
 2.970721e+000 1.263028e+000 -8.559614e+000 1.357793e+000 -5.532687e+000 -1.918912e+001 -1.880487e+000 1.251184e+001 7.874525e-001 -5.907516e+000 3.006179e+000 -1.530702e-001 7.591875e+001 6.714793e-001 -2.644725e-001 -3.716407e-001 -4.980829e-001 -1.263165e+000 -1.664876e+000 -1.115040e-001 1.392033e+000 3.064640e-001 -7.445946e-002 1.291929e-001 3.168361e-001 4.444901e-001 -1.907640e-001 1.187080e-001 2.108043e-001 1.027071e-001 6.140977e-002 2.079707e-001 -6.115950e-002 -1.387925e-001 7.198581e-002 1.316084e-001 -4.555009e-002 -3.172489e-002 -2.141858e-001
<VARIANCE> 39
 1.740364e+001 1.395570e+001 2.371290e+001 2.869383e+001 9.770305e+001 8.142126e+001 3.291521e+001 7.659479e+001 3.100261e+001 2.977909e+001 3.241116e+001 2.603443e+001 1.402432e+001 1.414761e+000 1.023135e+000 2.557723e+000 1.658760e+000 1.887255e+000 3.396549e+000 3.748271e+000 3.966786e+000 1.712639e+000 3.967825e+000 2.029369e+000 3.947859e+000 1.811065e+000 1.092570e-001 1.566859e-001 3.061780e-001 2.155995e-001 2.782569e-001 5.912760e-001 6.866495e-001 6.670036e-001 3.580827e-001 6.143282e-001 4.314505e-001 8.131106e-001 1.809560e-001
<GCONST> 1.140341e+002
<STATE> 4
<MEAN> 39
 4.001966e+000 1.065576e+000 -8.485257e+000 6.263099e-001 -8.690757e+000 -2.297340e+001 -2.750195e+000 1.573356e+001 1.678901e+000 -5.687975e+000 3.255708e+000 4.274671e-001 7.628278e+001 1.809826e-001 7.159752e-002 1.985732e-001 -1.304792e-001 -8.944901e-001 -9.912885e-001 -3.707885e-001 7.533026e-001 3.860197e-001 1.662557e-001 -5.928857e-002 1.384883e-001 -7.526454e-002 -1.584137e-001 1.290666e-001 1.615969e-001 1.070184e-001 1.420636e-001 2.555390e-001 -5.580898e-002 -2.506024e-001 -1.019543e-002 7.072645e-002 -5.212726e-002 -7.878469e-002 -1.633933e-001
<VARIANCE> 39
 5.834473e+000 1.057183e+001 1.986000e+001 2.546234e+001 6.309831e+001 4.973737e+001 2.900428e+001 4.532583e+001 2.889818e+001 2.432596e+001 2.319061e+001 1.601202e+001 6.101959e+000 7.990023e-001 8.602628e-001 1.617974e+000 1.193851e+000 1.525217e+000 2.559013e+000 2.564743e+000 2.952875e+000 9.689550e-001 2.947920e+000 1.157616e+000 2.249104e+000 9.313499e-001 5.482571e-002 1.022958e-001 2.011587e-001 1.382775e-001 1.418069e-001 3.453640e-001 4.546204e-001 3.669693e-001 2.125172e-001 4.516488e-001 2.505692e-001 4.562226e-001 9.470981e-002
<GCONST> 9.670188e+001
<TRANSP> 5
 0.000000e+000 1.000000e+000 0.000000e+000 0.000000e+000 0.000000e+000
 0.000000e+000 5.924608e-001 4.075392e-001 0.000000e+000 0.000000e+000
 0.000000e+000 0.000000e+000 5.924608e-001 4.075392e-001 0.000000e+000
 0.000000e+000 0.000000e+000 0.000000e+000 6.860757e-001 3.139243e-001
 0.000000e+000 0.000000e+000 0.000000e+000 0.000000e+000 0.000000e+000
<ENDHMM>
~h "uh"
<BEGINHMM>
<NUMSTATES> 5
<STATE> 2
<MEAN> 39
 -5.106454e+000 1.393595e-001 -4.498998e+000 2.211998e+000 2.706597e-001 -7.193959e+000 1.942827e+000 3.291419e+000 -1.434078e+000 -2.815409e+000 3.067030e+000 5.180997e-001 7.115867e+001 5.513942e-001 1.183052e-001 -3.679140e-001 -4.376506e-002 -2.948802e-001 -3.648684e-001 -1.740517e-002 2.040115e-001 -1.197321e-001 -2.060140e-001 -1.447064e-001 -3.446466e-002 1.550700e-001 -3.328729e-003 3.557712e-002 -2.306196e-002 1.988069e-002 3.665441e-003 2.220041e-002 -2.996576e-002 -8.656968e-003 8.136115e-002 3.773356e-002 -1.101944e-002 1.568205e-002 -5.483558e-002
<VARIANCE> 39
 9.903425e+001 3.379112e+001 6.429887e+001 4.993968e+001 6.586192e+001 6.012788e+001 5.011194e+001 5.130515e+001 5.158643e+001 5.035748e+001 3.542840e+001 2.788309e+001 4.076720e+001 5.673423e+000 2.443531e+000 3.859696e+000 2.123700e+000 2.344597e+000 4.175471e+000 2.333054e+000 3.183937e+000 3.097746e+000 3.501205e+000 2.932234e+000 2.112160e+000 2.763129e+000 7.120194e-001 4.383315e-001 4.588285e-001 2.728997e-001 3.429487e-001 6.391796e-001 3.498621e-001 5.449606e-001 5.170152e-001 5.808599e-001 4.463696e-001 2.864387e-001 3.793063e-001
<GCONST> 1.260660e+002
<STATE> 3
<MEAN> 39
 -3.818728e+000 6.022422e-001 -5.350194e+000 2.404636e+000 -2.710319e-001 -8.060920e+000 1.652500e+000 3.672563e+000 -1.648269e+000 -3.385233e+000 2.683779e+000 4.714551e-001 7.130967e+001 4.283401e-001 1.783035e-001 -3.220622e-001 1.452502e-002 -2.445322e-001 -2.773976e-001 -7.422294e-002 1.936199e-001 5.855948e-002 -9.714525e-002 -1.713038e-001 -4.314753e-002 7.983102e-003 -7.956468e-002 3.258947e-002 4.205019e-002 2.651042e-002 2.523105e-002 6.411395e-002 -1.157167e-002 -1.291822e-002 6.358573e-002 5.993246e-002 -9.831929e-003 -2.296981e-002 -7.876510e-002
<VARIANCE> 39
 7.664394e+001 3.248321e+001 5.709834e+001 4.848845e+001 6.073055e+001 5.920855e+001 4.649598e+001 5.500601e+001 5.318599e+001 4.628546e+001 3.560481e+001 2.924500e+001 4.111612e+001 5.415941e+000 2.611977e+000 3.890101e+000 1.802300e+000 2.516559e+000 3.853382e+000 2.271270e+000 2.858135e+000 3.124692e+000 3.351344e+000 3.232081e+000 2.080548e+000 2.847217e+000 6.142605e-001 4.626290e-001 4.567010e-001 2.523584e-001 3.399194e-001 5.831365e-001 3.426037e-001 5.214751e-001 4.999803e-001 5.611442e-001 4.876713e-001 3.033797e-001 3.815622e-001
<GCONST> 1.250661e+002
<STATE> 4
<MEAN> 39
 -3.493320e+000 1.436801e+000 -5.571791e+000 2.728893e+000 -7.977772e-001 -8.475069e+000 1.303199e+000 3.925040e+000 -1.522233e+000 -3.547853e+000 2.328934e+000 5.082515e-001 7.066465e+001 7.372614e-002 2.792444e-001 -5.328775e-002 6.345437e-002 -1.535455e-001 -3.433650e-002 -8.171072e-002 1.368855e-001 1.839597e-001 9.163538e-002 -1.790475e-001 -1.323936e-001 -2.388518e-001 -1.400647e-001 3.637400e-002 9.935167e-002 4.359516e-004 3.869065e-002 1.200072e-001 2.155088e-002 -2.218028e-002 3.432469e-002 7.662507e-002 9.973444e-003 -3.590110e-002 -9.312852e-002
<VARIANCE> 39
 6.263401e+001 3.330696e+001 5.139112e+001 4.443101e+001 5.119334e+001 5.982428e+001 3.921985e+001 5.404536e+001 5.734636e+001 4.516177e+001 3.462349e+001 3.042016e+001 4.462823e+001 5.116061e+000 2.684721e+000 3.480757e+000 1.507808e+000 2.471185e+000 3.796060e+000 1.994921e+000 2.582066e+000 3.268985e+000 3.459139e+000 2.941171e+000 1.868595e+000 3.055157e+000 5.533786e-001 4.562984e-001 4.087557e-001 2.341227e-001 3.285702e-001 5.325637e-001 3.103151e-001 4.797405e-001 5.033196e-001 5.718052e-001 4.553479e-001 2.834324e-001 3.900449e-001
<GCONST> 1.231541e+002
<TRANSP> 5
 0.000000e+000 1.000000e+000 0.000000e+000 0.000000e+000 0.000000e+000
 0.000000e+000 5.585664e-001 4.414336e-001 0.000000e+000 0.000000e+000
 0.000000e+000 0.000000e+000 5.585668e-001 4.414333e-001 0.000000e+000
 0.000000e+000 0.000000e+000 0.000000e+000 6.614960e-001 3.385041e-001
 0.000000e+000 0.000000e+000 0.000000e+000 0.000000e+000 0.000000e+000
<ENDHMM>
~h "sil"
<BEGINHMM>
<NUMSTATES> 5
<STATE> 2
<MEAN> 39
 -1.488280e+001 3.966129e+000 2.657571e-001 5.747632e+000 5.705733e+000 3.309510e+000 4.170192e+000 4.234933e+000 3.618549e+000 3.119353e+000 5.235322e+000 4.085398e+000 6.115339e+001 -7.139216e-002 3.891674e-002 9.623341e-002 7.973732e-002 1.283657e-001 2.072803e-002 7.776747e-002 1.906326e-001 -5.903529e-002 1.977695e-001 1.929790e-001 4.556781e-002 -7.210966e-002 6.250913e-002 -7.730161e-003 -8.415644e-003 2.219691e-002 -5.053884e-003 -9.023656e-003 -1.327535e-002 -6.895880e-002 -1.151130e-001 -1.366420e-001 -9.240625e-002 -8.729409e-002 5.532417e-002
<VARIANCE> 39
 6.324889e+001 1.211553e+001 2.172204e+001 1.780097e+001 1.360052e+001 3.871867e+001 2.719323e+001 2.992008e+001 4.749333e+001 3.067743e+001 1.384484e+001 9.892081e+000 5.200477e+001 7.796847e-001 1.141282e+000 1.165128e+000 1.287473e+000 8.613786e-001 1.597019e+000 1.108458e+000 2.014383e+000 1.226013e+000 1.310800e+000 1.320117e+000 8.292601e-001 7.874156e-001 9.048124e-002 1.784743e-001 1.454940e-001 2.058728e-001 1.337341e-001 2.571766e-001 1.886723e-001 3.044764e-001 2.134674e-001 1.541393e-001 2.292440e-001 1.689306e-001 1.062952e-001
<GCONST> 9.236848e+001
<STATE> 3
<MEAN> 39
 -1.499708e+001 4.261045e+000 6.491961e-001 6.087648e+000 5.765533e+000 3.315136e+000 4.133665e+000 4.269141e+000 3.482064e+000 3.447365e+000 5.273262e+000 3.941263e+000 6.089642e+001 1.589824e-001 6.583233e-002 7.630319e-002 1.371226e-001 6.536065e-002 -8.914500e-002 -1.966373e-002 -4.573131e-002 -2.896572e-001 -9.725508e-002 -6.243380e-002 -1.502108e-001 1.082009e-001 1.295473e-001 1.250507e-002 -3.298032e-002 1.469427e-002 -2.604152e-002 -8.307762e-002 -5.934962e-002 -6.866127e-002 -5.629355e-002 -1.030768e-001 -8.038951e-002 -1.096934e-001 8.900367e-002
<VARIANCE> 39
 6.125734e+001 1.183243e+001 2.168213e+001 1.749721e+001 1.317662e+001 3.848019e+001 2.639367e+001 2.756269e+001 4.710284e+001 2.918852e+001 1.442123e+001 1.652552e+001 4.808117e+001 1.327499e+000 1.083737e+000 1.334274e+000 1.325707e+000 8.244872e-001 1.784417e+000 1.476724e+000 2.136580e+000 1.933794e+000 1.303982e+000 1.457079e+000 1.321962e+000 1.013278e+000 1.395986e-001 1.719874e-001 1.817579e-001 2.142407e-001 1.445224e-001 2.469342e-001 2.719040e-001 3.201983e-001 2.936848e-001 1.938506e-001 2.806085e-001 2.398934e-001 1.044679e-001
<GCONST> 9.708297e+001
<STATE> 4
<MEAN> 39
 -1.357403e+001 4.850263e+000 2.277917e-001 6.027891e+000 5.448426e+000 2.394302e+000 3.345186e+000 4.439013e+000 2.481959e+000 2.789562e+000 5.248057e+000 3.488032e+000 6.168148e+001 1.140234e-001 3.380349e-002 8.554908e-003 5.212636e-002 -7.587691e-002 -1.072662e-001 -7.070832e-002 5.605080e-003 1.600542e-002 -1.184382e-001 -1.891828e-001 -1.881709e-001 5.508936e-002 7.734220e-002 2.616785e-003 -2.600472e-002 -2.006979e-002 -3.197687e-002 -8.334615e-002 -6.210074e-002 -1.219678e-002 2.410598e-002 -2.121018e-002 -2.453870e-002 -1.606949e-002 5.875832e-002
<VARIANCE> 39
 6.565971e+001 1.646716e+001 2.698196e+001 1.810681e+001 1.217482e+001 4.425170e+001 2.734412e+001 3.049356e+001 4.661492e+001 3.138660e+001 2.206734e+001 1.829692e+001 4.923052e+001 1.779453e+000 1.356081e+000 1.780307e+000 1.326165e+000 1.009135e+000 2.110272e+000 2.140317e+000 2.558204e+000 1.717842e+000 1.677332e+000 2.306288e+000 1.779041e+000 1.286295e+000 1.367073e-001 2.003770e-001 2.297155e-001 1.885852e-001 1.560890e-001 2.337261e-001 3.679880e-001 3.603122e-001 2.375572e-001 2.344310e-001 4.138818e-001 3.273645e-001 1.002553e-001
<GCONST> 1.027185e+002
<TRANSP> 5
 0.000000e+000 1.000000e+000 0.000000e+000 0.000000e+000 0.000000e+000
 0.000000e+000 5.774388e-001 4.225612e-001 0.000000e+000 0.000000e+000
 0.000000e+000 0.000000e+000 5.774390e-001 4.225611e-001 0.000000e+000
 0.000000e+000 0.000000e+000 0.000000e+000 7.928652e-001 2.071348e-001
 0.000000e+000 0.000000e+000 0.000000e+000 0.000000e+000 0.000000e+000
<ENDHMM>
