~h "d"
<BEGINHMM>
<NUMSTATES> 5
<STATE> 2
<MEAN> 39
 -1.250339e+001 2.913872e+000 -9.898548e-001 5.102881e+000 3.220543e+000 -2.779773e-001 3.150854e+000 5.337303e+000 3.704810e+000 1.394873e+000 3.916599e+000 2.251170e+000 6.326388e+001 -7.460064e-004 -1.370575e-004 4.217381e-004 -3.246881e-004 1.042608e-003 1.112454e-003 1.409131e-003 1.650585e-003 -9.838804e-004 2.452780e-003 3.049016e-003 2.460802e-003 -5.194396e-004 2.452690e-004 -8.780354e-005 -2.863595e-004 -1.610064e-004 -4.333635e-004 -1.372012e-004 3.906052e-004 9.095619e-005 4.502791e-005 -5.384606e-004 -7.405099e-004 -1.406975e-004 1.252115e-004
<VARIANCE> 39
 8.580048e+001 2.257740e+001 3.644572e+001 3.284849e+001 4.230026e+001 8.797819e+001 4.273669e+001 3.434465e+001 3.883818e+001 5.359867e+001 2.501958e+001 2.713645e+001 6.058203e+001 2.321230e+000 1.536878e+000 1.774549e+000 1.485875e+000 1.614652e+000 2.897446e+000 1.985241e+000 1.955797e+000 2.023090e+000 2.357655e+000 1.644917e+000 1.569868e+000 1.648002e+000 2.688876e-001 2.553294e-001 2.551755e-001 2.275859e-001 2.479310e-001 4.268500e-001 3.294549e-001 3.414667e-001 3.486287e-001 3.772162e-001 2.877987e-001 2.676993e-001 1.951473e-001
<GCONST> 1.120826e+002
<STATE> 3
<MEAN> 39
 -1.250339e+001 2.913872e+000 -9.898548e-001 5.102881e+000 3.220543e+000 -2.779773e-001 3.150854e+000 5.337303e+000 3.704810e+000 1.394873e+000 3.916599e+000 2.251170e+000 6.326388e+001 -7.460064e-004 -1.370575e-004 4.217381e-004 -3.246881e-004 1.042608e-003 1.112454e-003 1.409131e-003 1.650585e-003 -9.838804e-004 2.452780e-003 3.049016e-003 2.460802e-003 -5.194396e-004 2.452690e-004 -8.780354e-005 -2.863595e-004 -1.610064e-004 -4.333635e-004 -1.372012e-004 3.906052e-004 9.095619e-005 4.502791e-005 -5.384606e-004 -7.405099e-004 -1.406975e-004 1.252115e-004
<VARIANCE> 39
 8.580048e+001 2.257740e+001 3.644572e+001 3.284849e+001 4.230026e+001 8.797819e+001 4.273669e+001 3.434465e+001 3.883818e+001 5.359867e+001 2.501958e+001 2.713645e+001 6.058203e+001 2.321230e+000 1.536878e+000 1.774549e+000 1.485875e+000 1.614652e+000 2.897446e+000 1.985241e+000 1.955797e+000 2.023090e+000 2.357655e+000 1.644917e+000 1.569868e+000 1.648002e+000 2.688876e-001 2.553294e-001 2.551755e-001 2.275859e-001 2.479310e-001 4.268500e-001 3.294549e-001 3.414667e-001 3.486287e-001 3.772162e-001 2.877987e-001 2.676993e-001 1.951473e-001
<GCONST> 1.120826e+002
<STATE> 4
<MEAN> 39
 -1.250339e+001 2.913872e+000 -9.898548e-001 5.102881e+000 3.220543e+000 -2.779773e-001 3.150854e+000 5.337303e+000 3.704810e+000 1.394873e+000 3.916599e+000 2.251170e+000 6.326388e+001 -7.460064e-004 -1.370575e-004 4.217381e-004 -3.246881e-004 1.042608e-003 1.112454e-003 1.409131e-003 1.650585e-003 -9.838804e-004 2.452780e-003 3.049016e-003 2.460802e-003 -5.194396e-004 2.452690e-004 -8.780354e-005 -2.863595e-004 -1.610064e-004 -4.333635e-004 -1.372012e-004 3.906052e-004 9.095619e-005 4.502791e-005 -5.384606e-004 -7.405099e-004 -1.406975e-004 1.252115e-004
<VARIANCE> 39
 8.580048e+001 2.257740e+001 3.644572e+001 3.284849e+001 4.230026e+001 8.797819e+001 4.273669e+001 3.434465e+001 3.883818e+001 5.359867e+001 2.501958e+001 2.713645e+001 6.058203e+001 2.321230e+000 1.536878e+000 1.774549e+000 1.485875e+000 1.614652e+000 2.897446e+000 1.985241e+000 1.955797e+000 2.023090e+000 2.357655e+000 1.644917e+000 1.569868e+000 1.648002e+000 2.688876e-001 2.553294e-001 2.551755e-001 2.275859e-001 2.479310e-001 4.268500e-001 3.294549e-001 3.414667e-001 3.486287e-001 3.772162e-001 2.877987e-001 2.676993e-001 1.951473e-001
<GCONST> 1.120826e+002
<TRANSP> 5
 0.000000e+000 1.000000e+000 0.000000e+000 0.000000e+000 0.000000e+000
 0.000000e+000 6.000000e-001 4.000000e-001 0.000000e+000 0.000000e+000
 0.000000e+000 0.000000e+000 6.000000e-001 4.000000e-001 0.000000e+000
 0.000000e+000 0.000000e+000 0.000000e+000 7.000000e-001 3.000000e-001
 0.000000e+000 0.000000e+000 0.000000e+000 0.000000e+000 0.000000e+000
<ENDHMM>

~h "ah"
<BEGINHMM>
<NUMSTATES> 5
<STATE> 2
<MEAN> 39
 -1.457899e+001 3.137339e+000 -6.050398e-002 4.902233e+000 4.003007e+000 1.359208e+000 4.561697e+000 5.209906e+000 4.957277e+000 2.440612e+000 4.898831e+000 2.816779e+000 6.132375e+001 9.906853e-004 5.930465e-004 -7.054840e-004 -1.341805e-003 -2.388034e-003 -1.774325e-003 -2.082969e-003 -1.125146e-003 -1.016367e-003 -2.101416e-004 -2.490651e-004 -1.370361e-003 3.878616e-004 1.801214e-004 -2.083079e-005 2.753252e-004 -1.667456e-004 -6.058620e-004 -6.255107e-004 -1.806791e-004 1.334157e-004 -4.831039e-004 -6.055362e-004 -1.818638e-004 -1.239784e-004 1.550209e-004
<VARIANCE> 39
 7.076837e+001 1.663596e+001 2.768884e+001 2.384836e+001 3.152313e+001 7.053098e+001 3.414671e+001 2.632460e+001 3.170426e+001 4.321862e+001 2.044123e+001 2.199369e+001 5.072046e+001 1.656056e+000 1.130756e+000 1.317600e+000 1.123567e+000 1.240355e+000 2.140515e+000 1.555889e+000 1.580223e+000 1.617350e+000 1.867076e+000 1.349541e+000 1.295707e+000 1.169577e+000 1.958741e-001 1.909749e-001 1.950289e-001 1.762518e-001 1.960289e-001 3.220237e-001 2.656344e-001 2.830013e-001 2.872487e-001 3.123142e-001 2.435442e-001 2.286803e-001 1.405454e-001
<GCONST> 1.024544e+002
<STATE> 3
<MEAN> 39
 -1.457899e+001 3.137339e+000 -6.050398e-002 4.902233e+000 4.003007e+000 1.359208e+000 4.561697e+000 5.209906e+000 4.957277e+000 2.440612e+000 4.898831e+000 2.816779e+000 6.132375e+001 9.906853e-004 5.930465e-004 -7.054840e-004 -1.341805e-003 -2.388034e-003 -1.774325e-003 -2.082969e-003 -1.125146e-003 -1.016367e-003 -2.101416e-004 -2.490651e-004 -1.370361e-003 3.878616e-004 1.801214e-004 -2.083079e-005 2.753252e-004 -1.667456e-004 -6.058620e-004 -6.255107e-004 -1.806791e-004 1.334157e-004 -4.831039e-004 -6.055362e-004 -1.818638e-004 -1.239784e-004 1.550209e-004
<VARIANCE> 39
 7.076837e+001 1.663596e+001 2.768884e+001 2.384836e+001 3.152313e+001 7.053098e+001 3.414671e+001 2.632460e+001 3.170426e+001 4.321862e+001 2.044123e+001 2.199369e+001 5.072046e+001 1.656056e+000 1.130756e+000 1.317600e+000 1.123567e+000 1.240355e+000 2.140515e+000 1.555889e+000 1.580223e+000 1.617350e+000 1.867076e+000 1.349541e+000 1.295707e+000 1.169577e+000 1.958741e-001 1.909749e-001 1.950289e-001 1.762518e-001 1.960289e-001 3.220237e-001 2.656344e-001 2.830013e-001 2.872487e-001 3.123142e-001 2.435442e-001 2.286803e-001 1.405454e-001
<GCONST> 1.024544e+002
<STATE> 4
<MEAN> 39
 -1.457899e+001 3.137339e+000 -6.050398e-002 4.902233e+000 4.003007e+000 1.359208e+000 4.561697e+000 5.209906e+000 4.957277e+000 2.440612e+000 4.898831e+000 2.816779e+000 6.132375e+001 9.906853e-004 5.930465e-004 -7.054840e-004 -1.341805e-003 -2.388034e-003 -1.774325e-003 -2.082969e-003 -1.125146e-003 -1.016367e-003 -2.101416e-004 -2.490651e-004 -1.370361e-003 3.878616e-004 1.801214e-004 -2.083079e-005 2.753252e-004 -1.667456e-004 -6.058620e-004 -6.255107e-004 -1.806791e-004 1.334157e-004 -4.831039e-004 -6.055362e-004 -1.818638e-004 -1.239784e-004 1.550209e-004
<VARIANCE> 39
 7.076837e+001 1.663596e+001 2.768884e+001 2.384836e+001 3.152313e+001 7.053098e+001 3.414671e+001 2.632460e+001 3.170426e+001 4.321862e+001 2.044123e+001 2.199369e+001 5.072046e+001 1.656056e+000 1.130756e+000 1.317600e+000 1.123567e+000 1.240355e+000 2.140515e+000 1.555889e+000 1.580223e+000 1.617350e+000 1.867076e+000 1.349541e+000 1.295707e+000 1.169577e+000 1.958741e-001 1.909749e-001 1.950289e-001 1.762518e-001 1.960289e-001 3.220237e-001 2.656344e-001 2.830013e-001 2.872487e-001 3.123142e-001 2.435442e-001 2.286803e-001 1.405454e-001
<GCONST> 1.024544e+002
<TRANSP> 5
 0.000000e+000 1.000000e+000 0.000000e+000 0.000000e+000 0.000000e+000
 0.000000e+000 6.000000e-001 4.000000e-001 0.000000e+000 0.000000e+000
 0.000000e+000 0.000000e+000 6.000000e-001 4.000000e-001 0.000000e+000
 0.000000e+000 0.000000e+000 0.000000e+000 7.000000e-001 3.000000e-001
 0.000000e+000 0.000000e+000 0.000000e+000 0.000000e+000 0.000000e+000
<ENDHMM>

~h "l"
<BEGINHMM>
<NUMSTATES> 5
<STATE> 2
<MEAN> 39
 -1.250339e+001 2.913872e+000 -9.898548e-001 5.102881e+000 3.220543e+000 -2.779773e-001 3.150854e+000 5.337303e+000 3.704810e+000 1.394873e+000 3.916599e+000 2.251170e+000 6.326388e+001 -7.460064e-004 -1.370575e-004 4.217381e-004 -3.246881e-004 1.042608e-003 1.112454e-003 1.409131e-003 1.650585e-003 -9.838804e-004 2.452780e-003 3.049016e-003 2.460802e-003 -5.194396e-004 2.452690e-004 -8.780354e-005 -2.863595e-004 -1.610064e-004 -4.333635e-004 -1.372012e-004 3.906052e-004 9.095619e-005 4.502791e-005 -5.384606e-004 -7.405099e-004 -1.406975e-004 1.252115e-004
<VARIANCE> 39
 8.580048e+001 2.257740e+001 3.644572e+001 3.284849e+001 4.230026e+001 8.797819e+001 4.273669e+001 3.434465e+001 3.883818e+001 5.359867e+001 2.501958e+001 2.713645e+001 6.058203e+001 2.321230e+000 1.536878e+000 1.774549e+000 1.485875e+000 1.614652e+000 2.897446e+000 1.985241e+000 1.955797e+000 2.023090e+000 2.357655e+000 1.644917e+000 1.569868e+000 1.648002e+000 2.688876e-001 2.553294e-001 2.551755e-001 2.275859e-001 2.479310e-001 4.268500e-001 3.294549e-001 3.414667e-001 3.486287e-001 3.772162e-001 2.877987e-001 2.676993e-001 1.951473e-001
<GCONST> 1.120826e+002
<STATE> 3
<MEAN> 39
 -1.250339e+001 2.913872e+000 -9.898548e-001 5.102881e+000 3.220543e+000 -2.779773e-001 3.150854e+000 5.337303e+000 3.704810e+000 1.394873e+000 3.916599e+000 2.251170e+000 6.326388e+001 -7.460064e-004 -1.370575e-004 4.217381e-004 -3.246881e-004 1.042608e-003 1.112454e-003 1.409131e-003 1.650585e-003 -9.838804e-004 2.452780e-003 3.049016e-003 2.460802e-003 -5.194396e-004 2.452690e-004 -8.780354e-005 -2.863595e-004 -1.610064e-004 -4.333635e-004 -1.372012e-004 3.906052e-004 9.095619e-005 4.502791e-005 -5.384606e-004 -7.405099e-004 -1.406975e-004 1.252115e-004
<VARIANCE> 39
 8.580048e+001 2.257740e+001 3.644572e+001 3.284849e+001 4.230026e+001 8.797819e+001 4.273669e+001 3.434465e+001 3.883818e+001 5.359867e+001 2.501958e+001 2.713645e+001 6.058203e+001 2.321230e+000 1.536878e+000 1.774549e+000 1.485875e+000 1.614652e+000 2.897446e+000 1.985241e+000 1.955797e+000 2.023090e+000 2.357655e+000 1.644917e+000 1.569868e+000 1.648002e+000 2.688876e-001 2.553294e-001 2.551755e-001 2.275859e-001 2.479310e-001 4.268500e-001 3.294549e-001 3.414667e-001 3.486287e-001 3.772162e-001 2.877987e-001 2.676993e-001 1.951473e-001
<GCONST> 1.120826e+002
<STATE> 4
<MEAN> 39
 -1.250339e+001 2.913872e+000 -9.898548e-001 5.102881e+000 3.220543e+000 -2.779773e-001 3.150854e+000 5.337303e+000 3.704810e+000 1.394873e+000 3.916599e+000 2.251170e+000 6.326388e+001 -7.460064e-004 -1.370575e-004 4.217381e-004 -3.246881e-004 1.042608e-003 1.112454e-003 1.409131e-003 1.650585e-003 -9.838804e-004 2.452780e-003 3.049016e-003 2.460802e-003 -5.194396e-004 2.452690e-004 -8.780354e-005 -2.863595e-004 -1.610064e-004 -4.333635e-004 -1.372012e-004 3.906052e-004 9.095619e-005 4.502791e-005 -5.384606e-004 -7.405099e-004 -1.406975e-004 1.252115e-004
<VARIANCE> 39
 8.580048e+001 2.257740e+001 3.644572e+001 3.284849e+001 4.230026e+001 8.797819e+001 4.273669e+001 3.434465e+001 3.883818e+001 5.359867e+001 2.501958e+001 2.713645e+001 6.058203e+001 2.321230e+000 1.536878e+000 1.774549e+000 1.485875e+000 1.614652e+000 2.897446e+000 1.985241e+000 1.955797e+000 2.023090e+000 2.357655e+000 1.644917e+000 1.569868e+000 1.648002e+000 2.688876e-001 2.553294e-001 2.551755e-001 2.275859e-001 2.479310e-001 4.268500e-001 3.294549e-001 3.414667e-001 3.486287e-001 3.772162e-001 2.877987e-001 2.676993e-001 1.951473e-001
<GCONST> 1.120826e+002
<TRANSP> 5
 0.000000e+000 1.000000e+000 0.000000e+000 0.000000e+000 0.000000e+000
 0.000000e+000 6.000000e-001 4.000000e-001 0.000000e+000 0.000000e+000
 0.000000e+000 0.000000e+000 6.000000e-001 4.000000e-001 0.000000e+000
 0.000000e+000 0.000000e+000 0.000000e+000 7.000000e-001 3.000000e-001
 0.000000e+000 0.000000e+000 0.000000e+000 0.000000e+000 0.000000e+000
<ENDHMM>

~h "p"
<BEGINHMM>
<NUMSTATES> 5
<STATE> 2
<MEAN> 39
 -1.457899e+001 3.137339e+000 -6.050398e-002 4.902233e+000 4.003007e+000 1.359208e+000 4.561697e+000 5.209906e+000 4.957277e+000 2.440612e+000 4.898831e+000 2.816779e+000 6.132375e+001 9.906853e-004 5.930465e-004 -7.054840e-004 -1.341805e-003 -2.388034e-003 -1.774325e-003 -2.082969e-003 -1.125146e-003 -1.016367e-003 -2.101416e-004 -2.490651e-004 -1.370361e-003 3.878616e-004 1.801214e-004 -2.083079e-005 2.753252e-004 -1.667456e-004 -6.058620e-004 -6.255107e-004 -1.806791e-004 1.334157e-004 -4.831039e-004 -6.055362e-004 -1.818638e-004 -1.239784e-004 1.550209e-004
<VARIANCE> 39
 7.076837e+001 1.663596e+001 2.768884e+001 2.384836e+001 3.152313e+001 7.053098e+001 3.414671e+001 2.632460e+001 3.170426e+001 4.321862e+001 2.044123e+001 2.199369e+001 5.072046e+001 1.656056e+000 1.130756e+000 1.317600e+000 1.123567e+000 1.240355e+000 2.140515e+000 1.555889e+000 1.580223e+000 1.617350e+000 1.867076e+000 1.349541e+000 1.295707e+000 1.169577e+000 1.958741e-001 1.909749e-001 1.950289e-001 1.762518e-001 1.960289e-001 3.220237e-001 2.656344e-001 2.830013e-001 2.872487e-001 3.123142e-001 2.435442e-001 2.286803e-001 1.405454e-001
<GCONST> 1.024544e+002
<STATE> 3
<MEAN> 39
 -1.457899e+001 3.137339e+000 -6.050398e-002 4.902233e+000 4.003007e+000 1.359208e+000 4.561697e+000 5.209906e+000 4.957277e+000 2.440612e+000 4.898831e+000 2.816779e+000 6.132375e+001 9.906853e-004 5.930465e-004 -7.054840e-004 -1.341805e-003 -2.388034e-003 -1.774325e-003 -2.082969e-003 -1.125146e-003 -1.016367e-003 -2.101416e-004 -2.490651e-004 -1.370361e-003 3.878616e-004 1.801214e-004 -2.083079e-005 2.753252e-004 -1.667456e-004 -6.058620e-004 -6.255107e-004 -1.806791e-004 1.334157e-004 -4.831039e-004 -6.055362e-004 -1.818638e-004 -1.239784e-004 1.550209e-004
<VARIANCE> 39
 7.076837e+001 1.663596e+001 2.768884e+001 2.384836e+001 3.152313e+001 7.053098e+001 3.414671e+001 2.632460e+001 3.170426e+001 4.321862e+001 2.044123e+001 2.199369e+001 5.072046e+001 1.656056e+000 1.130756e+000 1.317600e+000 1.123567e+000 1.240355e+000 2.140515e+000 1.555889e+000 1.580223e+000 1.617350e+000 1.867076e+000 1.349541e+000 1.295707e+000 1.169577e+000 1.958741e-001 1.909749e-001 1.950289e-001 1.762518e-001 1.960289e-001 3.220237e-001 2.656344e-001 2.830013e-001 2.872487e-001 3.123142e-001 2.435442e-001 2.286803e-001 1.405454e-001
<GCONST> 1.024544e+002
<STATE> 4
<MEAN> 39
 -1.457899e+001 3.137339e+000 -6.050398e-002 4.902233e+000 4.003007e+000 1.359208e+000 4.561697e+000 5.209906e+000 4.957277e+000 2.440612e+000 4.898831e+000 2.816779e+000 6.132375e+001 9.906853e-004 5.930465e-004 -7.054840e-004 -1.341805e-003 -2.388034e-003 -1.774325e-003 -2.082969e-003 -1.125146e-003 -1.016367e-003 -2.101416e-004 -2.490651e-004 -1.370361e-003 3.878616e-004 1.801214e-004 -2.083079e-005 2.753252e-004 -1.667456e-004 -6.058620e-004 -6.255107e-004 -1.806791e-004 1.334157e-004 -4.831039e-004 -6.055362e-004 -1.818638e-004 -1.239784e-004 1.550209e-004
<VARIANCE> 39
 7.076837e+001 1.663596e+001 2.768884e+001 2.384836e+001 3.152313e+001 7.053098e+001 3.414671e+001 2.632460e+001 3.170426e+001 4.321862e+001 2.044123e+001 2.199369e+001 5.072046e+001 1.656056e+000 1.130756e+000 1.317600e+000 1.123567e+000 1.240355e+000 2.140515e+000 1.555889e+000 1.580223e+000 1.617350e+000 1.867076e+000 1.349541e+000 1.295707e+000 1.169577e+000 1.958741e-001 1.909749e-001 1.950289e-001 1.762518e-001 1.960289e-001 3.220237e-001 2.656344e-001 2.830013e-001 2.872487e-001 3.123142e-001 2.435442e-001 2.286803e-001 1.405454e-001
<GCONST> 1.024544e+002
<TRANSP> 5
 0.000000e+000 1.000000e+000 0.000000e+000 0.000000e+000 0.000000e+000
 0.000000e+000 6.000000e-001 4.000000e-001 0.000000e+000 0.000000e+000
 0.000000e+000 0.000000e+000 6.000000e-001 4.000000e-001 0.000000e+000
 0.000000e+000 0.000000e+000 0.000000e+000 7.000000e-001 3.000000e-001
 0.000000e+000 0.000000e+000 0.000000e+000 0.000000e+000 0.000000e+000
<ENDHMM>

~h "n"
<BEGINHMM>
<NUMSTATES> 5
<STATE> 2
<MEAN> 39
 -1.250339e+001 2.913872e+000 -9.898548e-001 5.102881e+000 3.220543e+000 -2.779773e-001 3.150854e+000 5.337303e+000 3.704810e+000 1.394873e+000 3.916599e+000 2.251170e+000 6.326388e+001 -7.460064e-004 -1.370575e-004 4.217381e-004 -3.246881e-004 1.042608e-003 1.112454e-003 1.409131e-003 1.650585e-003 -9.838804e-004 2.452780e-003 3.049016e-003 2.460802e-003 -5.194396e-004 2.452690e-004 -8.780354e-005 -2.863595e-004 -1.610064e-004 -4.333635e-004 -1.372012e-004 3.906052e-004 9.095619e-005 4.502791e-005 -5.384606e-004 -7.405099e-004 -1.406975e-004 1.252115e-004
<VARIANCE> 39
 8.580048e+001 2.257740e+001 3.644572e+001 3.284849e+001 4.230026e+001 8.797819e+001 4.273669e+001 3.434465e+001 3.883818e+001 5.359867e+001 2.501958e+001 2.713645e+001 6.058203e+001 2.321230e+000 1.536878e+000 1.774549e+000 1.485875e+000 1.614652e+000 2.897446e+000 1.985241e+000 1.955797e+000 2.023090e+000 2.357655e+000 1.644917e+000 1.569868e+000 1.648002e+000 2.688876e-001 2.553294e-001 2.551755e-001 2.275859e-001 2.479310e-001 4.268500e-001 3.294549e-001 3.414667e-001 3.486287e-001 3.772162e-001 2.877987e-001 2.676993e-001 1.951473e-001
<GCONST> 1.120826e+002
<STATE> 3
<MEAN> 39
 -1.250339e+001 2.913872e+000 -9.898548e-001 5.102881e+000 3.220543e+000 -2.779773e-001 3.150854e+000 5.337303e+000 3.704810e+000 1.394873e+000 3.916599e+000 2.251170e+000 6.326388e+001 -7.460064e-004 -1.370575e-004 4.217381e-004 -3.246881e-004 1.042608e-003 1.112454e-003 1.409131e-003 1.650585e-003 -9.838804e-004 2.452780e-003 3.049016e-003 2.460802e-003 -5.194396e-004 2.452690e-004 -8.780354e-005 -2.863595e-004 -1.610064e-004 -4.333635e-004 -1.372012e-004 3.906052e-004 9.095619e-005 4.502791e-005 -5.384606e-004 -7.405099e-004 -1.406975e-004 1.252115e-004
<VARIANCE> 39
 8.580048e+001 2.257740e+001 3.644572e+001 3.284849e+001 4.230026e+001 8.797819e+001 4.273669e+001 3.434465e+001 3.883818e+001 5.359867e+001 2.501958e+001 2.713645e+001 6.058203e+001 2.321230e+000 1.536878e+000 1.774549e+000 1.485875e+000 1.614652e+000 2.897446e+000 1.985241e+000 1.955797e+000 2.023090e+000 2.357655e+000 1.644917e+000 1.569868e+000 1.648002e+000 2.688876e-001 2.553294e-001 2.551755e-001 2.275859e-001 2.479310e-001 4.268500e-001 3.294549e-001 3.414667e-001 3.486287e-001 3.772162e-001 2.877987e-001 2.676993e-001 1.951473e-001
<GCONST> 1.120826e+002
<STATE> 4
<MEAN> 39
 -1.250339e+001 2.913872e+000 -9.898548e-001 5.102881e+000 3.220543e+000 -2.779773e-001 3.150854e+000 5.337303e+000 3.704810e+000 1.394873e+000 3.916599e+000 2.251170e+000 6.326388e+001 -7.460064e-004 -1.370575e-004 4.217381e-004 -3.246881e-004 1.042608e-003 1.112454e-003 1.409131e-003 1.650585e-003 -9.838804e-004 2.452780e-003 3.049016e-003 2.460802e-003 -5.194396e-004 2.452690e-004 -8.780354e-005 -2.863595e-004 -1.610064e-004 -4.333635e-004 -1.372012e-004 3.906052e-004 9.095619e-005 4.502791e-005 -5.384606e-004 -7.405099e-004 -1.406975e-004 1.252115e-004
<VARIANCE> 39
 8.580048e+001 2.257740e+001 3.644572e+001 3.284849e+001 4.230026e+001 8.797819e+001 4.273669e+001 3.434465e+001 3.883818e+001 5.359867e+001 2.501958e+001 2.713645e+001 6.058203e+001 2.321230e+000 1.536878e+000 1.774549e+000 1.485875e+000 1.614652e+000 2.897446e+000 1.985241e+000 1.955797e+000 2.023090e+000 2.357655e+000 1.644917e+000 1.569868e+000 1.648002e+000 2.688876e-001 2.553294e-001 2.551755e-001 2.275859e-001 2.479310e-001 4.268500e-001 3.294549e-001 3.414667e-001 3.486287e-001 3.772162e-001 2.877987e-001 2.676993e-001 1.951473e-001
<GCONST> 1.120826e+002
<TRANSP> 5
 0.000000e+000 1.000000e+000 0.000000e+000 0.000000e+000 0.000000e+000
 0.000000e+000 6.000000e-001 4.000000e-001 0.000000e+000 0.000000e+000
 0.000000e+000 0.000000e+000 6.000000e-001 4.000000e-001 0.000000e+000
 0.000000e+000 0.000000e+000 0.000000e+000 7.000000e-001 3.000000e-001
 0.000000e+000 0.000000e+000 0.000000e+000 0.000000e+000 0.000000e+000
<ENDHMM>

~h "uh"
<BEGINHMM>
<NUMSTATES> 5
<STATE> 2
<MEAN> 39
 -1.250339e+001 2.913872e+000 -9.898548e-001 5.102881e+000 3.220543e+000 -2.779773e-001 3.150854e+000 5.337303e+000 3.704810e+000 1.394873e+000 3.916599e+000 2.251170e+000 6.326388e+001 -7.460064e-004 -1.370575e-004 4.217381e-004 -3.246881e-004 1.042608e-003 1.112454e-003 1.409131e-003 1.650585e-003 -9.838804e-004 2.452780e-003 3.049016e-003 2.460802e-003 -5.194396e-004 2.452690e-004 -8.780354e-005 -2.863595e-004 -1.610064e-004 -4.333635e-004 -1.372012e-004 3.906052e-004 9.095619e-005 4.502791e-005 -5.384606e-004 -7.405099e-004 -1.406975e-004 1.252115e-004
<VARIANCE> 39
 8.580048e+001 2.257740e+001 3.644572e+001 3.284849e+001 4.230026e+001 8.797819e+001 4.273669e+001 3.434465e+001 3.883818e+001 5.359867e+001 2.501958e+001 2.713645e+001 6.058203e+001 2.321230e+000 1.536878e+000 1.774549e+000 1.485875e+000 1.614652e+000 2.897446e+000 1.985241e+000 1.955797e+000 2.023090e+000 2.357655e+000 1.644917e+000 1.569868e+000 1.648002e+000 2.688876e-001 2.553294e-001 2.551755e-001 2.275859e-001 2.479310e-001 4.268500e-001 3.294549e-001 3.414667e-001 3.486287e-001 3.772162e-001 2.877987e-001 2.676993e-001 1.951473e-001
<GCONST> 1.120826e+002
<STATE> 3
<MEAN> 39
 -1.250339e+001 2.913872e+000 -9.898548e-001 5.102881e+000 3.220543e+000 -2.779773e-001 3.150854e+000 5.337303e+000 3.704810e+000 1.394873e+000 3.916599e+000 2.251170e+000 6.326388e+001 -7.460064e-004 -1.370575e-004 4.217381e-004 -3.246881e-004 1.042608e-003 1.112454e-003 1.409131e-003 1.650585e-003 -9.838804e-004 2.452780e-003 3.049016e-003 2.460802e-003 -5.194396e-004 2.452690e-004 -8.780354e-005 -2.863595e-004 -1.610064e-004 -4.333635e-004 -1.372012e-004 3.906052e-004 9.095619e-005 4.502791e-005 -5.384606e-004 -7.405099e-004 -1.406975e-004 1.252115e-004
<VARIANCE> 39
 8.580048e+001 2.257740e+001 3.644572e+001 3.284849e+001 4.230026e+001 8.797819e+001 4.273669e+001 3.434465e+001 3.883818e+001 5.359867e+001 2.501958e+001 2.713645e+001 6.058203e+001 2.321230e+000 1.536878e+000 1.774549e+000 1.485875e+000 1.614652e+000 2.897446e+000 1.985241e+000 1.955797e+000 2.023090e+000 2.357655e+000 1.644917e+000 1.569868e+000 1.648002e+000 2.688876e-001 2.553294e-001 2.551755e-001 2.275859e-001 2.479310e-001 4.268500e-001 3.294549e-001 3.414667e-001 3.486287e-001 3.772162e-001 2.877987e-001 2.676993e-001 1.951473e-001
<GCONST> 1.120826e+002
<STATE> 4
<MEAN> 39
 -1.250339e+001 2.913872e+000 -9.898548e-001 5.102881e+000 3.220543e+000 -2.779773e-001 3.150854e+000 5.337303e+000 3.704810e+000 1.394873e+000 3.916599e+000 2.251170e+000 6.326388e+001 -7.460064e-004 -1.370575e-004 4.217381e-004 -3.246881e-004 1.042608e-003 1.112454e-003 1.409131e-003 1.650585e-003 -9.838804e-004 2.452780e-003 3.049016e-003 2.460802e-003 -5.194396e-004 2.452690e-004 -8.780354e-005 -2.863595e-004 -1.610064e-004 -4.333635e-004 -1.372012e-004 3.906052e-004 9.095619e-005 4.502791e-005 -5.384606e-004 -7.405099e-004 -1.406975e-004 1.252115e-004
<VARIANCE> 39
 8.580048e+001 2.257740e+001 3.644572e+001 3.284849e+001 4.230026e+001 8.797819e+001 4.273669e+001 3.434465e+001 3.883818e+001 5.359867e+001 2.501958e+001 2.713645e+001 6.058203e+001 2.321230e+000 1.536878e+000 1.774549e+000 1.485875e+000 1.614652e+000 2.897446e+000 1.985241e+000 1.955797e+000 2.023090e+000 2.357655e+000 1.644917e+000 1.569868e+000 1.648002e+000 2.688876e-001 2.553294e-001 2.551755e-001 2.275859e-001 2.479310e-001 4.268500e-001 3.294549e-001 3.414667e-001 3.486287e-001 3.772162e-001 2.877987e-001 2.676993e-001 1.951473e-001
<GCONST> 1.120826e+002
<TRANSP> 5
 0.000000e+000 1.000000e+000 0.000000e+000 0.000000e+000 0.000000e+000
 0.000000e+000 6.000000e-001 4.000000e-001 0.000000e+000 0.000000e+000
 0.000000e+000 0.000000e+000 6.000000e-001 4.000000e-001 0.000000e+000
 0.000000e+000 0.000000e+000 0.000000e+000 7.000000e-001 3.000000e-001
 0.000000e+000 0.000000e+000 0.000000e+000 0.000000e+000 0.000000e+000
<ENDHMM>

~h "w"
<BEGINHMM>
<NUMSTATES> 5
<STATE> 2
<MEAN> 39
 -1.250339e+001 2.913872e+000 -9.898548e-001 5.102881e+000 3.220543e+000 -2.779773e-001 3.150854e+000 5.337303e+000 3.704810e+000 1.394873e+000 3.916599e+000 2.251170e+000 6.326388e+001 -7.460064e-004 -1.370575e-004 4.217381e-004 -3.246881e-004 1.042608e-003 1.112454e-003 1.409131e-003 1.650585e-003 -9.838804e-004 2.452780e-003 3.049016e-003 2.460802e-003 -5.194396e-004 2.452690e-004 -8.780354e-005 -2.863595e-004 -1.610064e-004 -4.333635e-004 -1.372012e-004 3.906052e-004 9.095619e-005 4.502791e-005 -5.384606e-004 -7.405099e-004 -1.406975e-004 1.252115e-004
<VARIANCE> 39
 8.580048e+001 2.257740e+001 3.644572e+001 3.284849e+001 4.230026e+001 8.797819e+001 4.273669e+001 3.434465e+001 3.883818e+001 5.359867e+001 2.501958e+001 2.713645e+001 6.058203e+001 2.321230e+000 1.536878e+000 1.774549e+000 1.485875e+000 1.614652e+000 2.897446e+000 1.985241e+000 1.955797e+000 2.023090e+000 2.357655e+000 1.644917e+000 1.569868e+000 1.648002e+000 2.688876e-001 2.553294e-001 2.551755e-001 2.275859e-001 2.479310e-001 4.268500e-001 3.294549e-001 3.414667e-001 3.486287e-001 3.772162e-001 2.877987e-001 2.676993e-001 1.951473e-001
<GCONST> 1.120826e+002
<STATE> 3
<MEAN> 39
 -1.250339e+001 2.913872e+000 -9.898548e-001 5.102881e+000 3.220543e+000 -2.779773e-001 3.150854e+000 5.337303e+000 3.704810e+000 1.394873e+000 3.916599e+000 2.251170e+000 6.326388e+001 -7.460064e-004 -1.370575e-004 4.217381e-004 -3.246881e-004 1.042608e-003 1.112454e-003 1.409131e-003 1.650585e-003 -9.838804e-004 2.452780e-003 3.049016e-003 2.460802e-003 -5.194396e-004 2.452690e-004 -8.780354e-005 -2.863595e-004 -1.610064e-004 -4.333635e-004 -1.372012e-004 3.906052e-004 9.095619e-005 4.502791e-005 -5.384606e-004 -7.405099e-004 -1.406975e-004 1.252115e-004
<VARIANCE> 39
 8.580048e+001 2.257740e+001 3.644572e+001 3.284849e+001 4.230026e+001 8.797819e+001 4.273669e+001 3.434465e+001 3.883818e+001 5.359867e+001 2.501958e+001 2.713645e+001 6.058203e+001 2.321230e+000 1.536878e+000 1.774549e+000 1.485875e+000 1.614652e+000 2.897446e+000 1.985241e+000 1.955797e+000 2.023090e+000 2.357655e+000 1.644917e+000 1.569868e+000 1.648002e+000 2.688876e-001 2.553294e-001 2.551755e-001 2.275859e-001 2.479310e-001 4.268500e-001 3.294549e-001 3.414667e-001 3.486287e-001 3.772162e-001 2.877987e-001 2.676993e-001 1.951473e-001
<GCONST> 1.120826e+002
<STATE> 4
<MEAN> 39
 -1.250339e+001 2.913872e+000 -9.898548e-001 5.102881e+000 3.220543e+000 -2.779773e-001 3.150854e+000 5.337303e+000 3.704810e+000 1.394873e+000 3.916599e+000 2.251170e+000 6.326388e+001 -7.460064e-004 -1.370575e-004 4.217381e-004 -3.246881e-004 1.042608e-003 1.112454e-003 1.409131e-003 1.650585e-003 -9.838804e-004 2.452780e-003 3.049016e-003 2.460802e-003 -5.194396e-004 2.452690e-004 -8.780354e-005 -2.863595e-004 -1.610064e-004 -4.333635e-004 -1.372012e-004 3.906052e-004 9.095619e-005 4.502791e-005 -5.384606e-004 -7.405099e-004 -1.406975e-004 1.252115e-004
<VARIANCE> 39
 8.580048e+001 2.257740e+001 3.644572e+001 3.284849e+001 4.230026e+001 8.797819e+001 4.273669e+001 3.434465e+001 3.883818e+001 5.359867e+001 2.501958e+001 2.713645e+001 6.058203e+001 2.321230e+000 1.536878e+000 1.774549e+000 1.485875e+000 1.614652e+000 2.897446e+000 1.985241e+000 1.955797e+000 2.023090e+000 2.357655e+000 1.644917e+000 1.569868e+000 1.648002e+000 2.688876e-001 2.553294e-001 2.551755e-001 2.275859e-001 2.479310e-001 4.268500e-001 3.294549e-001 3.414667e-001 3.486287e-001 3.772162e-001 2.877987e-001 2.676993e-001 1.951473e-001
<GCONST> 1.120826e+002
<TRANSP> 5
 0.000000e+000 1.000000e+000 0.000000e+000 0.000000e+000 0.000000e+000
 0.000000e+000 6.000000e-001 4.000000e-001 0.000000e+000 0.000000e+000
 0.000000e+000 0.000000e+000 6.000000e-001 4.000000e-001 0.000000e+000
 0.000000e+000 0.000000e+000 0.000000e+000 7.000000e-001 3.000000e-001
 0.000000e+000 0.000000e+000 0.000000e+000 0.000000e+000 0.000000e+000
<ENDHMM>

~h "m"
<BEGINHMM>
<NUMSTATES> 5
<STATE> 2
<MEAN> 39
 -1.250339e+001 2.913872e+000 -9.898548e-001 5.102881e+000 3.220543e+000 -2.779773e-001 3.150854e+000 5.337303e+000 3.704810e+000 1.394873e+000 3.916599e+000 2.251170e+000 6.326388e+001 -7.460064e-004 -1.370575e-004 4.217381e-004 -3.246881e-004 1.042608e-003 1.112454e-003 1.409131e-003 1.650585e-003 -9.838804e-004 2.452780e-003 3.049016e-003 2.460802e-003 -5.194396e-004 2.452690e-004 -8.780354e-005 -2.863595e-004 -1.610064e-004 -4.333635e-004 -1.372012e-004 3.906052e-004 9.095619e-005 4.502791e-005 -5.384606e-004 -7.405099e-004 -1.406975e-004 1.252115e-004
<VARIANCE> 39
 8.580048e+001 2.257740e+001 3.644572e+001 3.284849e+001 4.230026e+001 8.797819e+001 4.273669e+001 3.434465e+001 3.883818e+001 5.359867e+001 2.501958e+001 2.713645e+001 6.058203e+001 2.321230e+000 1.536878e+000 1.774549e+000 1.485875e+000 1.614652e+000 2.897446e+000 1.985241e+000 1.955797e+000 2.023090e+000 2.357655e+000 1.644917e+000 1.569868e+000 1.648002e+000 2.688876e-001 2.553294e-001 2.551755e-001 2.275859e-001 2.479310e-001 4.268500e-001 3.294549e-001 3.414667e-001 3.486287e-001 3.772162e-001 2.877987e-001 2.676993e-001 1.951473e-001
<GCONST> 1.120826e+002
<STATE> 3
<MEAN> 39
 -1.250339e+001 2.913872e+000 -9.898548e-001 5.102881e+000 3.220543e+000 -2.779773e-001 3.150854e+000 5.337303e+000 3.704810e+000 1.394873e+000 3.916599e+000 2.251170e+000 6.326388e+001 -7.460064e-004 -1.370575e-004 4.217381e-004 -3.246881e-004 1.042608e-003 1.112454e-003 1.409131e-003 1.650585e-003 -9.838804e-004 2.452780e-003 3.049016e-003 2.460802e-003 -5.194396e-004 2.452690e-004 -8.780354e-005 -2.863595e-004 -1.610064e-004 -4.333635e-004 -1.372012e-004 3.906052e-004 9.095619e-005 4.502791e-005 -5.384606e-004 -7.405099e-004 -1.406975e-004 1.252115e-004
<VARIANCE> 39
 8.580048e+001 2.257740e+001 3.644572e+001 3.284849e+001 4.230026e+001 8.797819e+001 4.273669e+001 3.434465e+001 3.883818e+001 5.359867e+001 2.501958e+001 2.713645e+001 6.058203e+001 2.321230e+000 1.536878e+000 1.774549e+000 1.485875e+000 1.614652e+000 2.897446e+000 1.985241e+000 1.955797e+000 2.023090e+000 2.357655e+000 1.644917e+000 1.569868e+000 1.648002e+000 2.688876e-001 2.553294e-001 2.551755e-001 2.275859e-001 2.479310e-001 4.268500e-001 3.294549e-001 3.414667e-001 3.486287e-001 3.772162e-001 2.877987e-001 2.676993e-001 1.951473e-001
<GCONST> 1.120826e+002
<STATE> 4
<MEAN> 39
 -1.250339e+001 2.913872e+000 -9.898548e-001 5.102881e+000 3.220543e+000 -2.779773e-001 3.150854e+000 5.337303e+000 3.704810e+000 1.394873e+000 3.916599e+000 2.251170e+000 6.326388e+001 -7.460064e-004 -1.370575e-004 4.217381e-004 -3.246881e-004 1.042608e-003 1.112454e-003 1.409131e-003 1.650585e-003 -9.838804e-004 2.452780e-003 3.049016e-003 2.460802e-003 -5.194396e-004 2.452690e-004 -8.780354e-005 -2.863595e-004 -1.610064e-004 -4.333635e-004 -1.372012e-004 3.906052e-004 9.095619e-005 4.502791e-005 -5.384606e-004 -7.405099e-004 -1.406975e-004 1.252115e-004
<VARIANCE> 39
 8.580048e+001 2.257740e+001 3.644572e+001 3.284849e+001 4.230026e+001 8.797819e+001 4.273669e+001 3.434465e+001 3.883818e+001 5.359867e+001 2.501958e+001 2.713645e+001 6.058203e+001 2.321230e+000 1.536878e+000 1.774549e+000 1.485875e+000 1.614652e+000 2.897446e+000 1.985241e+000 1.955797e+000 2.023090e+000 2.357655e+000 1.644917e+000 1.569868e+000 1.648002e+000 2.688876e-001 2.553294e-001 2.551755e-001 2.275859e-001 2.479310e-001 4.268500e-001 3.294549e-001 3.414667e-001 3.486287e-001 3.772162e-001 2.877987e-001 2.676993e-001 1.951473e-001
<GCONST> 1.120826e+002
<TRANSP> 5
 0.000000e+000 1.000000e+000 0.000000e+000 0.000000e+000 0.000000e+000
 0.000000e+000 6.000000e-001 4.000000e-001 0.000000e+000 0.000000e+000
 0.000000e+000 0.000000e+000 6.000000e-001 4.000000e-001 0.000000e+000
 0.000000e+000 0.000000e+000 0.000000e+000 7.000000e-001 3.000000e-001
 0.000000e+000 0.000000e+000 0.000000e+000 0.000000e+000 0.000000e+000
<ENDHMM>

~h "t"
<BEGINHMM>
<NUMSTATES> 5
<STATE> 2
<MEAN> 39
 -1.250339e+001 2.913872e+000 -9.898548e-001 5.102881e+000 3.220543e+000 -2.779773e-001 3.150854e+000 5.337303e+000 3.704810e+000 1.394873e+000 3.916599e+000 2.251170e+000 6.326388e+001 -7.460064e-004 -1.370575e-004 4.217381e-004 -3.246881e-004 1.042608e-003 1.112454e-003 1.409131e-003 1.650585e-003 -9.838804e-004 2.452780e-003 3.049016e-003 2.460802e-003 -5.194396e-004 2.452690e-004 -8.780354e-005 -2.863595e-004 -1.610064e-004 -4.333635e-004 -1.372012e-004 3.906052e-004 9.095619e-005 4.502791e-005 -5.384606e-004 -7.405099e-004 -1.406975e-004 1.252115e-004
<VARIANCE> 39
 8.580048e+001 2.257740e+001 3.644572e+001 3.284849e+001 4.230026e+001 8.797819e+001 4.273669e+001 3.434465e+001 3.883818e+001 5.359867e+001 2.501958e+001 2.713645e+001 6.058203e+001 2.321230e+000 1.536878e+000 1.774549e+000 1.485875e+000 1.614652e+000 2.897446e+000 1.985241e+000 1.955797e+000 2.023090e+000 2.357655e+000 1.644917e+000 1.569868e+000 1.648002e+000 2.688876e-001 2.553294e-001 2.551755e-001 2.275859e-001 2.479310e-001 4.268500e-001 3.294549e-001 3.414667e-001 3.486287e-001 3.772162e-001 2.877987e-001 2.676993e-001 1.951473e-001
<GCONST> 1.120826e+002
<STATE> 3
<MEAN> 39
 -1.250339e+001 2.913872e+000 -9.898548e-001 5.102881e+000 3.220543e+000 -2.779773e-001 3.150854e+000 5.337303e+000 3.704810e+000 1.394873e+000 3.916599e+000 2.251170e+000 6.326388e+001 -7.460064e-004 -1.370575e-004 4.217381e-004 -3.246881e-004 1.042608e-003 1.112454e-003 1.409131e-003 1.650585e-003 -9.838804e-004 2.452780e-003 3.049016e-003 2.460802e-003 -5.194396e-004 2.452690e-004 -8.780354e-005 -2.863595e-004 -1.610064e-004 -4.333635e-004 -1.372012e-004 3.906052e-004 9.095619e-005 4.502791e-005 -5.384606e-004 -7.405099e-004 -1.406975e-004 1.252115e-004
<VARIANCE> 39
 8.580048e+001 2.257740e+001 3.644572e+001 3.284849e+001 4.230026e+001 8.797819e+001 4.273669e+001 3.434465e+001 3.883818e+001 5.359867e+001 2.501958e+001 2.713645e+001 6.058203e+001 2.321230e+000 1.536878e+000 1.774549e+000 1.485875e+000 1.614652e+000 2.897446e+000 1.985241e+000 1.955797e+000 2.023090e+000 2.357655e+000 1.644917e+000 1.569868e+000 1.648002e+000 2.688876e-001 2.553294e-001 2.551755e-001 2.275859e-001 2.479310e-001 4.268500e-001 3.294549e-001 3.414667e-001 3.486287e-001 3.772162e-001 2.877987e-001 2.676993e-001 1.951473e-001
<GCONST> 1.120826e+002
<STATE> 4
<MEAN> 39
 -1.250339e+001 2.913872e+000 -9.898548e-001 5.102881e+000 3.220543e+000 -2.779773e-001 3.150854e+000 5.337303e+000 3.704810e+000 1.394873e+000 3.916599e+000 2.251170e+000 6.326388e+001 -7.460064e-004 -1.370575e-004 4.217381e-004 -3.246881e-004 1.042608e-003 1.112454e-003 1.409131e-003 1.650585e-003 -9.838804e-004 2.452780e-003 3.049016e-003 2.460802e-003 -5.194396e-004 2.452690e-004 -8.780354e-005 -2.863595e-004 -1.610064e-004 -4.333635e-004 -1.372012e-004 3.906052e-004 9.095619e-005 4.502791e-005 -5.384606e-004 -7.405099e-004 -1.406975e-004 1.252115e-004
<VARIANCE> 39
 8.580048e+001 2.257740e+001 3.644572e+001 3.284849e+001 4.230026e+001 8.797819e+001 4.273669e+001 3.434465e+001 3.883818e+001 5.359867e+001 2.501958e+001 2.713645e+001 6.058203e+001 2.321230e+000 1.536878e+000 1.774549e+000 1.485875e+000 1.614652e+000 2.897446e+000 1.985241e+000 1.955797e+000 2.023090e+000 2.357655e+000 1.644917e+000 1.569868e+000 1.648002e+000 2.688876e-001 2.553294e-001 2.551755e-001 2.275859e-001 2.479310e-001 4.268500e-001 3.294549e-001 3.414667e-001 3.486287e-001 3.772162e-001 2.877987e-001 2.676993e-001 1.951473e-001
<GCONST> 1.120826e+002
<TRANSP> 5
 0.000000e+000 1.000000e+000 0.000000e+000 0.000000e+000 0.000000e+000
 0.000000e+000 6.000000e-001 4.000000e-001 0.000000e+000 0.000000e+000
 0.000000e+000 0.000000e+000 6.000000e-001 4.000000e-001 0.000000e+000
 0.000000e+000 0.000000e+000 0.000000e+000 7.000000e-001 3.000000e-001
 0.000000e+000 0.000000e+000 0.000000e+000 0.000000e+000 0.000000e+000
<ENDHMM>

~h "ih"
<BEGINHMM>
<NUMSTATES> 5
<STATE> 2
<MEAN> 39
 -1.250339e+001 2.913872e+000 -9.898548e-001 5.102881e+000 3.220543e+000 -2.779773e-001 3.150854e+000 5.337303e+000 3.704810e+000 1.394873e+000 3.916599e+000 2.251170e+000 6.326388e+001 -7.460064e-004 -1.370575e-004 4.217381e-004 -3.246881e-004 1.042608e-003 1.112454e-003 1.409131e-003 1.650585e-003 -9.838804e-004 2.452780e-003 3.049016e-003 2.460802e-003 -5.194396e-004 2.452690e-004 -8.780354e-005 -2.863595e-004 -1.610064e-004 -4.333635e-004 -1.372012e-004 3.906052e-004 9.095619e-005 4.502791e-005 -5.384606e-004 -7.405099e-004 -1.406975e-004 1.252115e-004
<VARIANCE> 39
 8.580048e+001 2.257740e+001 3.644572e+001 3.284849e+001 4.230026e+001 8.797819e+001 4.273669e+001 3.434465e+001 3.883818e+001 5.359867e+001 2.501958e+001 2.713645e+001 6.058203e+001 2.321230e+000 1.536878e+000 1.774549e+000 1.485875e+000 1.614652e+000 2.897446e+000 1.985241e+000 1.955797e+000 2.023090e+000 2.357655e+000 1.644917e+000 1.569868e+000 1.648002e+000 2.688876e-001 2.553294e-001 2.551755e-001 2.275859e-001 2.479310e-001 4.268500e-001 3.294549e-001 3.414667e-001 3.486287e-001 3.772162e-001 2.877987e-001 2.676993e-001 1.951473e-001
<GCONST> 1.120826e+002
<STATE> 3
<MEAN> 39
 -1.250339e+001 2.913872e+000 -9.898548e-001 5.102881e+000 3.220543e+000 -2.779773e-001 3.150854e+000 5.337303e+000 3.704810e+000 1.394873e+000 3.916599e+000 2.251170e+000 6.326388e+001 -7.460064e-004 -1.370575e-004 4.217381e-004 -3.246881e-004 1.042608e-003 1.112454e-003 1.409131e-003 1.650585e-003 -9.838804e-004 2.452780e-003 3.049016e-003 2.460802e-003 -5.194396e-004 2.452690e-004 -8.780354e-005 -2.863595e-004 -1.610064e-004 -4.333635e-004 -1.372012e-004 3.906052e-004 9.095619e-005 4.502791e-005 -5.384606e-004 -7.405099e-004 -1.406975e-004 1.252115e-004
<VARIANCE> 39
 8.580048e+001 2.257740e+001 3.644572e+001 3.284849e+001 4.230026e+001 8.797819e+001 4.273669e+001 3.434465e+001 3.883818e+001 5.359867e+001 2.501958e+001 2.713645e+001 6.058203e+001 2.321230e+000 1.536878e+000 1.774549e+000 1.485875e+000 1.614652e+000 2.897446e+000 1.985241e+000 1.955797e+000 2.023090e+000 2.357655e+000 1.644917e+000 1.569868e+000 1.648002e+000 2.688876e-001 2.553294e-001 2.551755e-001 2.275859e-001 2.479310e-001 4.268500e-001 3.294549e-001 3.414667e-001 3.486287e-001 3.772162e-001 2.877987e-001 2.676993e-001 1.951473e-001
<GCONST> 1.120826e+002
<STATE> 4
<MEAN> 39
 -1.250339e+001 2.913872e+000 -9.898548e-001 5.102881e+000 3.220543e+000 -2.779773e-001 3.150854e+000 5.337303e+000 3.704810e+000 1.394873e+000 3.916599e+000 2.251170e+000 6.326388e+001 -7.460064e-004 -1.370575e-004 4.217381e-004 -3.246881e-004 1.042608e-003 1.112454e-003 1.409131e-003 1.650585e-003 -9.838804e-004 2.452780e-003 3.049016e-003 2.460802e-003 -5.194396e-004 2.452690e-004 -8.780354e-005 -2.863595e-004 -1.610064e-004 -4.333635e-004 -1.372012e-004 3.906052e-004 9.095619e-005 4.502791e-005 -5.384606e-004 -7.405099e-004 -1.406975e-004 1.252115e-004
<VARIANCE> 39
 8.580048e+001 2.257740e+001 3.644572e+001 3.284849e+001 4.230026e+001 8.797819e+001 4.273669e+001 3.434465e+001 3.883818e+001 5.359867e+001 2.501958e+001 2.713645e+001 6.058203e+001 2.321230e+000 1.536878e+000 1.774549e+000 1.485875e+000 1.614652e+000 2.897446e+000 1.985241e+000 1.955797e+000 2.023090e+000 2.357655e+000 1.644917e+000 1.569868e+000 1.648002e+000 2.688876e-001 2.553294e-001 2.551755e-001 2.275859e-001 2.479310e-001 4.268500e-001 3.294549e-001 3.414667e-001 3.486287e-001 3.772162e-001 2.877987e-001 2.676993e-001 1.951473e-001
<GCONST> 1.120826e+002
<TRANSP> 5
 0.000000e+000 1.000000e+000 0.000000e+000 0.000000e+000 0.000000e+000
 0.000000e+000 6.000000e-001 4.000000e-001 0.000000e+000 0.000000e+000
 0.000000e+000 0.000000e+000 6.000000e-001 4.000000e-001 0.000000e+000
 0.000000e+000 0.000000e+000 0.000000e+000 7.000000e-001 3.000000e-001
 0.000000e+000 0.000000e+000 0.000000e+000 0.000000e+000 0.000000e+000
<ENDHMM>

~h "ow"
<BEGINHMM>
<NUMSTATES> 5
<STATE> 2
<MEAN> 39
 -1.250339e+001 2.913872e+000 -9.898548e-001 5.102881e+000 3.220543e+000 -2.779773e-001 3.150854e+000 5.337303e+000 3.704810e+000 1.394873e+000 3.916599e+000 2.251170e+000 6.326388e+001 -7.460064e-004 -1.370575e-004 4.217381e-004 -3.246881e-004 1.042608e-003 1.112454e-003 1.409131e-003 1.650585e-003 -9.838804e-004 2.452780e-003 3.049016e-003 2.460802e-003 -5.194396e-004 2.452690e-004 -8.780354e-005 -2.863595e-004 -1.610064e-004 -4.333635e-004 -1.372012e-004 3.906052e-004 9.095619e-005 4.502791e-005 -5.384606e-004 -7.405099e-004 -1.406975e-004 1.252115e-004
<VARIANCE> 39
 8.580048e+001 2.257740e+001 3.644572e+001 3.284849e+001 4.230026e+001 8.797819e+001 4.273669e+001 3.434465e+001 3.883818e+001 5.359867e+001 2.501958e+001 2.713645e+001 6.058203e+001 2.321230e+000 1.536878e+000 1.774549e+000 1.485875e+000 1.614652e+000 2.897446e+000 1.985241e+000 1.955797e+000 2.023090e+000 2.357655e+000 1.644917e+000 1.569868e+000 1.648002e+000 2.688876e-001 2.553294e-001 2.551755e-001 2.275859e-001 2.479310e-001 4.268500e-001 3.294549e-001 3.414667e-001 3.486287e-001 3.772162e-001 2.877987e-001 2.676993e-001 1.951473e-001
<GCONST> 1.120826e+002
<STATE> 3
<MEAN> 39
 -1.250339e+001 2.913872e+000 -9.898548e-001 5.102881e+000 3.220543e+000 -2.779773e-001 3.150854e+000 5.337303e+000 3.704810e+000 1.394873e+000 3.916599e+000 2.251170e+000 6.326388e+001 -7.460064e-004 -1.370575e-004 4.217381e-004 -3.246881e-004 1.042608e-003 1.112454e-003 1.409131e-003 1.650585e-003 -9.838804e-004 2.452780e-003 3.049016e-003 2.460802e-003 -5.194396e-004 2.452690e-004 -8.780354e-005 -2.863595e-004 -1.610064e-004 -4.333635e-004 -1.372012e-004 3.906052e-004 9.095619e-005 4.502791e-005 -5.384606e-004 -7.405099e-004 -1.406975e-004 1.252115e-004
<VARIANCE> 39
 8.580048e+001 2.257740e+001 3.644572e+001 3.284849e+001 4.230026e+001 8.797819e+001 4.273669e+001 3.434465e+001 3.883818e+001 5.359867e+001 2.501958e+001 2.713645e+001 6.058203e+001 2.321230e+000 1.536878e+000 1.774549e+000 1.485875e+000 1.614652e+000 2.897446e+000 1.985241e+000 1.955797e+000 2.023090e+000 2.357655e+000 1.644917e+000 1.569868e+000 1.648002e+000 2.688876e-001 2.553294e-001 2.551755e-001 2.275859e-001 2.479310e-001 4.268500e-001 3.294549e-001 3.414667e-001 3.486287e-001 3.772162e-001 2.877987e-001 2.676993e-001 1.951473e-001
<GCONST> 1.120826e+002
<STATE> 4
<MEAN> 39
 -1.250339e+001 2.913872e+000 -9.898548e-001 5.102881e+000 3.220543e+000 -2.779773e-001 3.150854e+000 5.337303e+000 3.704810e+000 1.394873e+000 3.916599e+000 2.251170e+000 6.326388e+001 -7.460064e-004 -1.370575e-004 4.217381e-004 -3.246881e-004 1.042608e-003 1.112454e-003 1.409131e-003 1.650585e-003 -9.838804e-004 2.452780e-003 3.049016e-003 2.460802e-003 -5.194396e-004 2.452690e-004 -8.780354e-005 -2.863595e-004 -1.610064e-004 -4.333635e-004 -1.372012e-004 3.906052e-004 9.095619e-005 4.502791e-005 -5.384606e-004 -7.405099e-004 -1.406975e-004 1.252115e-004
<VARIANCE> 39
 8.580048e+001 2.257740e+001 3.644572e+001 3.284849e+001 4.230026e+001 8.797819e+001 4.273669e+001 3.434465e+001 3.883818e+001 5.359867e+001 2.501958e+001 2.713645e+001 6.058203e+001 2.321230e+000 1.536878e+000 1.774549e+000 1.485875e+000 1.614652e+000 2.897446e+000 1.985241e+000 1.955797e+000 2.023090e+000 2.357655e+000 1.644917e+000 1.569868e+000 1.648002e+000 2.688876e-001 2.553294e-001 2.551755e-001 2.275859e-001 2.479310e-001 4.268500e-001 3.294549e-001 3.414667e-001 3.486287e-001 3.772162e-001 2.877987e-001 2.676993e-001 1.951473e-001
<GCONST> 1.120826e+002
<TRANSP> 5
 0.000000e+000 1.000000e+000 0.000000e+000 0.000000e+000 0.000000e+000
 0.000000e+000 6.000000e-001 4.000000e-001 0.000000e+000 0.000000e+000
 0.000000e+000 0.000000e+000 6.000000e-001 4.000000e-001 0.000000e+000
 0.000000e+000 0.000000e+000 0.000000e+000 7.000000e-001 3.000000e-001
 0.000000e+000 0.000000e+000 0.000000e+000 0.000000e+000 0.000000e+000
<ENDHMM>

~h "s"
<BEGINHMM>
<NUMSTATES> 5
<STATE> 2
<MEAN> 39
 -1.250339e+001 2.913872e+000 -9.898548e-001 5.102881e+000 3.220543e+000 -2.779773e-001 3.150854e+000 5.337303e+000 3.704810e+000 1.394873e+000 3.916599e+000 2.251170e+000 6.326388e+001 -7.460064e-004 -1.370575e-004 4.217381e-004 -3.246881e-004 1.042608e-003 1.112454e-003 1.409131e-003 1.650585e-003 -9.838804e-004 2.452780e-003 3.049016e-003 2.460802e-003 -5.194396e-004 2.452690e-004 -8.780354e-005 -2.863595e-004 -1.610064e-004 -4.333635e-004 -1.372012e-004 3.906052e-004 9.095619e-005 4.502791e-005 -5.384606e-004 -7.405099e-004 -1.406975e-004 1.252115e-004
<VARIANCE> 39
 8.580048e+001 2.257740e+001 3.644572e+001 3.284849e+001 4.230026e+001 8.797819e+001 4.273669e+001 3.434465e+001 3.883818e+001 5.359867e+001 2.501958e+001 2.713645e+001 6.058203e+001 2.321230e+000 1.536878e+000 1.774549e+000 1.485875e+000 1.614652e+000 2.897446e+000 1.985241e+000 1.955797e+000 2.023090e+000 2.357655e+000 1.644917e+000 1.569868e+000 1.648002e+000 2.688876e-001 2.553294e-001 2.551755e-001 2.275859e-001 2.479310e-001 4.268500e-001 3.294549e-001 3.414667e-001 3.486287e-001 3.772162e-001 2.877987e-001 2.676993e-001 1.951473e-001
<GCONST> 1.120826e+002
<STATE> 3
<MEAN> 39
 -1.250339e+001 2.913872e+000 -9.898548e-001 5.102881e+000 3.220543e+000 -2.779773e-001 3.150854e+000 5.337303e+000 3.704810e+000 1.394873e+000 3.916599e+000 2.251170e+000 6.326388e+001 -7.460064e-004 -1.370575e-004 4.217381e-004 -3.246881e-004 1.042608e-003 1.112454e-003 1.409131e-003 1.650585e-003 -9.838804e-004 2.452780e-003 3.049016e-003 2.460802e-003 -5.194396e-004 2.452690e-004 -8.780354e-005 -2.863595e-004 -1.610064e-004 -4.333635e-004 -1.372012e-004 3.906052e-004 9.095619e-005 4.502791e-005 -5.384606e-004 -7.405099e-004 -1.406975e-004 1.252115e-004
<VARIANCE> 39
 8.580048e+001 2.257740e+001 3.644572e+001 3.284849e+001 4.230026e+001 8.797819e+001 4.273669e+001 3.434465e+001 3.883818e+001 5.359867e+001 2.501958e+001 2.713645e+001 6.058203e+001 2.321230e+000 1.536878e+000 1.774549e+000 1.485875e+000 1.614652e+000 2.897446e+000 1.985241e+000 1.955797e+000 2.023090e+000 2.357655e+000 1.644917e+000 1.569868e+000 1.648002e+000 2.688876e-001 2.553294e-001 2.551755e-001 2.275859e-001 2.479310e-001 4.268500e-001 3.294549e-001 3.414667e-001 3.486287e-001 3.772162e-001 2.877987e-001 2.676993e-001 1.951473e-001
<GCONST> 1.120826e+002
<STATE> 4
<MEAN> 39
 -1.250339e+001 2.913872e+000 -9.898548e-001 5.102881e+000 3.220543e+000 -2.779773e-001 3.150854e+000 5.337303e+000 3.704810e+000 1.394873e+000 3.916599e+000 2.251170e+000 6.326388e+001 -7.460064e-004 -1.370575e-004 4.217381e-004 -3.246881e-004 1.042608e-003 1.112454e-003 1.409131e-003 1.650585e-003 -9.838804e-004 2.452780e-003 3.049016e-003 2.460802e-003 -5.194396e-004 2.452690e-004 -8.780354e-005 -2.863595e-004 -1.610064e-004 -4.333635e-004 -1.372012e-004 3.906052e-004 9.095619e-005 4.502791e-005 -5.384606e-004 -7.405099e-004 -1.406975e-004 1.252115e-004
<VARIANCE> 39
 8.580048e+001 2.257740e+001 3.644572e+001 3.284849e+001 4.230026e+001 8.797819e+001 4.273669e+001 3.434465e+001 3.883818e+001 5.359867e+001 2.501958e+001 2.713645e+001 6.058203e+001 2.321230e+000 1.536878e+000 1.774549e+000 1.485875e+000 1.614652e+000 2.897446e+000 1.985241e+000 1.955797e+000 2.023090e+000 2.357655e+000 1.644917e+000 1.569868e+000 1.648002e+000 2.688876e-001 2.553294e-001 2.551755e-001 2.275859e-001 2.479310e-001 4.268500e-001 3.294549e-001 3.414667e-001 3.486287e-001 3.772162e-001 2.877987e-001 2.676993e-001 1.951473e-001
<GCONST> 1.120826e+002
<TRANSP> 5
 0.000000e+000 1.000000e+000 0.000000e+000 0.000000e+000 0.000000e+000
 0.000000e+000 6.000000e-001 4.000000e-001 0.000000e+000 0.000000e+000
 0.000000e+000 0.000000e+000 6.000000e-001 4.000000e-001 0.000000e+000
 0.000000e+000 0.000000e+000 0.000000e+000 7.000000e-001 3.000000e-001
 0.000000e+000 0.000000e+000 0.000000e+000 0.000000e+000 0.000000e+000
<ENDHMM>

~h "b"
<BEGINHMM>
<NUMSTATES> 5
<STATE> 2
<MEAN> 39
 -1.250339e+001 2.913872e+000 -9.898548e-001 5.102881e+000 3.220543e+000 -2.779773e-001 3.150854e+000 5.337303e+000 3.704810e+000 1.394873e+000 3.916599e+000 2.251170e+000 6.326388e+001 -7.460064e-004 -1.370575e-004 4.217381e-004 -3.246881e-004 1.042608e-003 1.112454e-003 1.409131e-003 1.650585e-003 -9.838804e-004 2.452780e-003 3.049016e-003 2.460802e-003 -5.194396e-004 2.452690e-004 -8.780354e-005 -2.863595e-004 -1.610064e-004 -4.333635e-004 -1.372012e-004 3.906052e-004 9.095619e-005 4.502791e-005 -5.384606e-004 -7.405099e-004 -1.406975e-004 1.252115e-004
<VARIANCE> 39
 8.580048e+001 2.257740e+001 3.644572e+001 3.284849e+001 4.230026e+001 8.797819e+001 4.273669e+001 3.434465e+001 3.883818e+001 5.359867e+001 2.501958e+001 2.713645e+001 6.058203e+001 2.321230e+000 1.536878e+000 1.774549e+000 1.485875e+000 1.614652e+000 2.897446e+000 1.985241e+000 1.955797e+000 2.023090e+000 2.357655e+000 1.644917e+000 1.569868e+000 1.648002e+000 2.688876e-001 2.553294e-001 2.551755e-001 2.275859e-001 2.479310e-001 4.268500e-001 3.294549e-001 3.414667e-001 3.486287e-001 3.772162e-001 2.877987e-001 2.676993e-001 1.951473e-001
<GCONST> 1.120826e+002
<STATE> 3
<MEAN> 39
 -1.250339e+001 2.913872e+000 -9.898548e-001 5.102881e+000 3.220543e+000 -2.779773e-001 3.150854e+000 5.337303e+000 3.704810e+000 1.394873e+000 3.916599e+000 2.251170e+000 6.326388e+001 -7.460064e-004 -1.370575e-004 4.217381e-004 -3.246881e-004 1.042608e-003 1.112454e-003 1.409131e-003 1.650585e-003 -9.838804e-004 2.452780e-003 3.049016e-003 2.460802e-003 -5.194396e-004 2.452690e-004 -8.780354e-005 -2.863595e-004 -1.610064e-004 -4.333635e-004 -1.372012e-004 3.906052e-004 9.095619e-005 4.502791e-005 -5.384606e-004 -7.405099e-004 -1.406975e-004 1.252115e-004
<VARIANCE> 39
 8.580048e+001 2.257740e+001 3.644572e+001 3.284849e+001 4.230026e+001 8.797819e+001 4.273669e+001 3.434465e+001 3.883818e+001 5.359867e+001 2.501958e+001 2.713645e+001 6.058203e+001 2.321230e+000 1.536878e+000 1.774549e+000 1.485875e+000 1.614652e+000 2.897446e+000 1.985241e+000 1.955797e+000 2.023090e+000 2.357655e+000 1.644917e+000 1.569868e+000 1.648002e+000 2.688876e-001 2.553294e-001 2.551755e-001 2.275859e-001 2.479310e-001 4.268500e-001 3.294549e-001 3.414667e-001 3.486287e-001 3.772162e-001 2.877987e-001 2.676993e-001 1.951473e-001
<GCONST> 1.120826e+002
<STATE> 4
<MEAN> 39
 -1.250339e+001 2.913872e+000 -9.898548e-001 5.102881e+000 3.220543e+000 -2.779773e-001 3.150854e+000 5.337303e+000 3.704810e+000 1.394873e+000 3.916599e+000 2.251170e+000 6.326388e+001 -7.460064e-004 -1.370575e-004 4.217381e-004 -3.246881e-004 1.042608e-003 1.112454e-003 1.409131e-003 1.650585e-003 -9.838804e-004 2.452780e-003 3.049016e-003 2.460802e-003 -5.194396e-004 2.452690e-004 -8.780354e-005 -2.863595e-004 -1.610064e-004 -4.333635e-004 -1.372012e-004 3.906052e-004 9.095619e-005 4.502791e-005 -5.384606e-004 -7.405099e-004 -1.406975e-004 1.252115e-004
<VARIANCE> 39
 8.580048e+001 2.257740e+001 3.644572e+001 3.284849e+001 4.230026e+001 8.797819e+001 4.273669e+001 3.434465e+001 3.883818e+001 5.359867e+001 2.501958e+001 2.713645e+001 6.058203e+001 2.321230e+000 1.536878e+000 1.774549e+000 1.485875e+000 1.614652e+000 2.897446e+000 1.985241e+000 1.955797e+000 2.023090e+000 2.357655e+000 1.644917e+000 1.569868e+000 1.648002e+000 2.688876e-001 2.553294e-001 2.551755e-001 2.275859e-001 2.479310e-001 4.268500e-001 3.294549e-001 3.414667e-001 3.486287e-001 3.772162e-001 2.877987e-001 2.676993e-001 1.951473e-001
<GCONST> 1.120826e+002
<TRANSP> 5
 0.000000e+000 1.000000e+000 0.000000e+000 0.000000e+000 0.000000e+000
 0.000000e+000 6.000000e-001 4.000000e-001 0.000000e+000 0.000000e+000
 0.000000e+000 0.000000e+000 6.000000e-001 4.000000e-001 0.000000e+000
 0.000000e+000 0.000000e+000 0.000000e+000 7.000000e-001 3.000000e-001
 0.000000e+000 0.000000e+000 0.000000e+000 0.000000e+000 0.000000e+000
<ENDHMM>

~h "iy"
<BEGINHMM>
<NUMSTATES> 5
<STATE> 2
<MEAN> 39
 -1.250339e+001 2.913872e+000 -9.898548e-001 5.102881e+000 3.220543e+000 -2.779773e-001 3.150854e+000 5.337303e+000 3.704810e+000 1.394873e+000 3.916599e+000 2.251170e+000 6.326388e+001 -7.460064e-004 -1.370575e-004 4.217381e-004 -3.246881e-004 1.042608e-003 1.112454e-003 1.409131e-003 1.650585e-003 -9.838804e-004 2.452780e-003 3.049016e-003 2.460802e-003 -5.194396e-004 2.452690e-004 -8.780354e-005 -2.863595e-004 -1.610064e-004 -4.333635e-004 -1.372012e-004 3.906052e-004 9.095619e-005 4.502791e-005 -5.384606e-004 -7.405099e-004 -1.406975e-004 1.252115e-004
<VARIANCE> 39
 8.580048e+001 2.257740e+001 3.644572e+001 3.284849e+001 4.230026e+001 8.797819e+001 4.273669e+001 3.434465e+001 3.883818e+001 5.359867e+001 2.501958e+001 2.713645e+001 6.058203e+001 2.321230e+000 1.536878e+000 1.774549e+000 1.485875e+000 1.614652e+000 2.897446e+000 1.985241e+000 1.955797e+000 2.023090e+000 2.357655e+000 1.644917e+000 1.569868e+000 1.648002e+000 2.688876e-001 2.553294e-001 2.551755e-001 2.275859e-001 2.479310e-001 4.268500e-001 3.294549e-001 3.414667e-001 3.486287e-001 3.772162e-001 2.877987e-001 2.676993e-001 1.951473e-001
<GCONST> 1.120826e+002
<STATE> 3
<MEAN> 39
 -1.250339e+001 2.913872e+000 -9.898548e-001 5.102881e+000 3.220543e+000 -2.779773e-001 3.150854e+000 5.337303e+000 3.704810e+000 1.394873e+000 3.916599e+000 2.251170e+000 6.326388e+001 -7.460064e-004 -1.370575e-004 4.217381e-004 -3.246881e-004 1.042608e-003 1.112454e-003 1.409131e-003 1.650585e-003 -9.838804e-004 2.452780e-003 3.049016e-003 2.460802e-003 -5.194396e-004 2.452690e-004 -8.780354e-005 -2.863595e-004 -1.610064e-004 -4.333635e-004 -1.372012e-004 3.906052e-004 9.095619e-005 4.502791e-005 -5.384606e-004 -7.405099e-004 -1.406975e-004 1.252115e-004
<VARIANCE> 39
 8.580048e+001 2.257740e+001 3.644572e+001 3.284849e+001 4.230026e+001 8.797819e+001 4.273669e+001 3.434465e+001 3.883818e+001 5.359867e+001 2.501958e+001 2.713645e+001 6.058203e+001 2.321230e+000 1.536878e+000 1.774549e+000 1.485875e+000 1.614652e+000 2.897446e+000 1.985241e+000 1.955797e+000 2.023090e+000 2.357655e+000 1.644917e+000 1.569868e+000 1.648002e+000 2.688876e-001 2.553294e-001 2.551755e-001 2.275859e-001 2.479310e-001 4.268500e-001 3.294549e-001 3.414667e-001 3.486287e-001 3.772162e-001 2.877987e-001 2.676993e-001 1.951473e-001
<GCONST> 1.120826e+002
<STATE> 4
<MEAN> 39
 -1.250339e+001 2.913872e+000 -9.898548e-001 5.102881e+000 3.220543e+000 -2.779773e-001 3.150854e+000 5.337303e+000 3.704810e+000 1.394873e+000 3.916599e+000 2.251170e+000 6.326388e+001 -7.460064e-004 -1.370575e-004 4.217381e-004 -3.246881e-004 1.042608e-003 1.112454e-003 1.409131e-003 1.650585e-003 -9.838804e-004 2.452780e-003 3.049016e-003 2.460802e-003 -5.194396e-004 2.452690e-004 -8.780354e-005 -2.863595e-004 -1.610064e-004 -4.333635e-004 -1.372012e-004 3.906052e-004 9.095619e-005 4.502791e-005 -5.384606e-004 -7.405099e-004 -1.406975e-004 1.252115e-004
<VARIANCE> 39
 8.580048e+001 2.257740e+001 3.644572e+001 3.284849e+001 4.230026e+001 8.797819e+001 4.273669e+001 3.434465e+001 3.883818e+001 5.359867e+001 2.501958e+001 2.713645e+001 6.058203e+001 2.321230e+000 1.536878e+000 1.774549e+000 1.485875e+000 1.614652e+000 2.897446e+000 1.985241e+000 1.955797e+000 2.023090e+000 2.357655e+000 1.644917e+000 1.569868e+000 1.648002e+000 2.688876e-001 2.553294e-001 2.551755e-001 2.275859e-001 2.479310e-001 4.268500e-001 3.294549e-001 3.414667e-001 3.486287e-001 3.772162e-001 2.877987e-001 2.676993e-001 1.951473e-001
<GCONST> 1.120826e+002
<TRANSP> 5
 0.000000e+000 1.000000e+000 0.000000e+000 0.000000e+000 0.000000e+000
 0.000000e+000 6.000000e-001 4.000000e-001 0.000000e+000 0.000000e+000
 0.000000e+000 0.000000e+000 6.000000e-001 4.000000e-001 0.000000e+000
 0.000000e+000 0.000000e+000 0.000000e+000 7.000000e-001 3.000000e-001
 0.000000e+000 0.000000e+000 0.000000e+000 0.000000e+000 0.000000e+000
<ENDHMM>

~h "g"
<BEGINHMM>
<NUMSTATES> 5
<STATE> 2
<MEAN> 39
 -1.250339e+001 2.913872e+000 -9.898548e-001 5.102881e+000 3.220543e+000 -2.779773e-001 3.150854e+000 5.337303e+000 3.704810e+000 1.394873e+000 3.916599e+000 2.251170e+000 6.326388e+001 -7.460064e-004 -1.370575e-004 4.217381e-004 -3.246881e-004 1.042608e-003 1.112454e-003 1.409131e-003 1.650585e-003 -9.838804e-004 2.452780e-003 3.049016e-003 2.460802e-003 -5.194396e-004 2.452690e-004 -8.780354e-005 -2.863595e-004 -1.610064e-004 -4.333635e-004 -1.372012e-004 3.906052e-004 9.095619e-005 4.502791e-005 -5.384606e-004 -7.405099e-004 -1.406975e-004 1.252115e-004
<VARIANCE> 39
 8.580048e+001 2.257740e+001 3.644572e+001 3.284849e+001 4.230026e+001 8.797819e+001 4.273669e+001 3.434465e+001 3.883818e+001 5.359867e+001 2.501958e+001 2.713645e+001 6.058203e+001 2.321230e+000 1.536878e+000 1.774549e+000 1.485875e+000 1.614652e+000 2.897446e+000 1.985241e+000 1.955797e+000 2.023090e+000 2.357655e+000 1.644917e+000 1.569868e+000 1.648002e+000 2.688876e-001 2.553294e-001 2.551755e-001 2.275859e-001 2.479310e-001 4.268500e-001 3.294549e-001 3.414667e-001 3.486287e-001 3.772162e-001 2.877987e-001 2.676993e-001 1.951473e-001
<GCONST> 1.120826e+002
<STATE> 3
<MEAN> 39
 -1.250339e+001 2.913872e+000 -9.898548e-001 5.102881e+000 3.220543e+000 -2.779773e-001 3.150854e+000 5.337303e+000 3.704810e+000 1.394873e+000 3.916599e+000 2.251170e+000 6.326388e+001 -7.460064e-004 -1.370575e-004 4.217381e-004 -3.246881e-004 1.042608e-003 1.112454e-003 1.409131e-003 1.650585e-003 -9.838804e-004 2.452780e-003 3.049016e-003 2.460802e-003 -5.194396e-004 2.452690e-004 -8.780354e-005 -2.863595e-004 -1.610064e-004 -4.333635e-004 -1.372012e-004 3.906052e-004 9.095619e-005 4.502791e-005 -5.384606e-004 -7.405099e-004 -1.406975e-004 1.252115e-004
<VARIANCE> 39
 8.580048e+001 2.257740e+001 3.644572e+001 3.284849e+001 4.230026e+001 8.797819e+001 4.273669e+001 3.434465e+001 3.883818e+001 5.359867e+001 2.501958e+001 2.713645e+001 6.058203e+001 2.321230e+000 1.536878e+000 1.774549e+000 1.485875e+000 1.614652e+000 2.897446e+000 1.985241e+000 1.955797e+000 2.023090e+000 2.357655e+000 1.644917e+000 1.569868e+000 1.648002e+000 2.688876e-001 2.553294e-001 2.551755e-001 2.275859e-001 2.479310e-001 4.268500e-001 3.294549e-001 3.414667e-001 3.486287e-001 3.772162e-001 2.877987e-001 2.676993e-001 1.951473e-001
<GCONST> 1.120826e+002
<STATE> 4
<MEAN> 39
 -1.250339e+001 2.913872e+000 -9.898548e-001 5.102881e+000 3.220543e+000 -2.779773e-001 3.150854e+000 5.337303e+000 3.704810e+000 1.394873e+000 3.916599e+000 2.251170e+000 6.326388e+001 -7.460064e-004 -1.370575e-004 4.217381e-004 -3.246881e-004 1.042608e-003 1.112454e-003 1.409131e-003 1.650585e-003 -9.838804e-004 2.452780e-003 3.049016e-003 2.460802e-003 -5.194396e-004 2.452690e-004 -8.780354e-005 -2.863595e-004 -1.610064e-004 -4.333635e-004 -1.372012e-004 3.906052e-004 9.095619e-005 4.502791e-005 -5.384606e-004 -7.405099e-004 -1.406975e-004 1.252115e-004
<VARIANCE> 39
 8.580048e+001 2.257740e+001 3.644572e+001 3.284849e+001 4.230026e+001 8.797819e+001 4.273669e+001 3.434465e+001 3.883818e+001 5.359867e+001 2.501958e+001 2.713645e+001 6.058203e+001 2.321230e+000 1.536878e+000 1.774549e+000 1.485875e+000 1.614652e+000 2.897446e+000 1.985241e+000 1.955797e+000 2.023090e+000 2.357655e+000 1.644917e+000 1.569868e+000 1.648002e+000 2.688876e-001 2.553294e-001 2.551755e-001 2.275859e-001 2.479310e-001 4.268500e-001 3.294549e-001 3.414667e-001 3.486287e-001 3.772162e-001 2.877987e-001 2.676993e-001 1.951473e-001
<GCONST> 1.120826e+002
<TRANSP> 5
 0.000000e+000 1.000000e+000 0.000000e+000 0.000000e+000 0.000000e+000
 0.000000e+000 6.000000e-001 4.000000e-001 0.000000e+000 0.000000e+000
 0.000000e+000 0.000000e+000 6.000000e-001 4.000000e-001 0.000000e+000
 0.000000e+000 0.000000e+000 0.000000e+000 7.000000e-001 3.000000e-001
 0.000000e+000 0.000000e+000 0.000000e+000 0.000000e+000 0.000000e+000
<ENDHMM>

~h "jh"
<BEGINHMM>
<NUMSTATES> 5
<STATE> 2
<MEAN> 39
 -1.250339e+001 2.913872e+000 -9.898548e-001 5.102881e+000 3.220543e+000 -2.779773e-001 3.150854e+000 5.337303e+000 3.704810e+000 1.394873e+000 3.916599e+000 2.251170e+000 6.326388e+001 -7.460064e-004 -1.370575e-004 4.217381e-004 -3.246881e-004 1.042608e-003 1.112454e-003 1.409131e-003 1.650585e-003 -9.838804e-004 2.452780e-003 3.049016e-003 2.460802e-003 -5.194396e-004 2.452690e-004 -8.780354e-005 -2.863595e-004 -1.610064e-004 -4.333635e-004 -1.372012e-004 3.906052e-004 9.095619e-005 4.502791e-005 -5.384606e-004 -7.405099e-004 -1.406975e-004 1.252115e-004
<VARIANCE> 39
 8.580048e+001 2.257740e+001 3.644572e+001 3.284849e+001 4.230026e+001 8.797819e+001 4.273669e+001 3.434465e+001 3.883818e+001 5.359867e+001 2.501958e+001 2.713645e+001 6.058203e+001 2.321230e+000 1.536878e+000 1.774549e+000 1.485875e+000 1.614652e+000 2.897446e+000 1.985241e+000 1.955797e+000 2.023090e+000 2.357655e+000 1.644917e+000 1.569868e+000 1.648002e+000 2.688876e-001 2.553294e-001 2.551755e-001 2.275859e-001 2.479310e-001 4.268500e-001 3.294549e-001 3.414667e-001 3.486287e-001 3.772162e-001 2.877987e-001 2.676993e-001 1.951473e-001
<GCONST> 1.120826e+002
<STATE> 3
<MEAN> 39
 -1.250339e+001 2.913872e+000 -9.898548e-001 5.102881e+000 3.220543e+000 -2.779773e-001 3.150854e+000 5.337303e+000 3.704810e+000 1.394873e+000 3.916599e+000 2.251170e+000 6.326388e+001 -7.460064e-004 -1.370575e-004 4.217381e-004 -3.246881e-004 1.042608e-003 1.112454e-003 1.409131e-003 1.650585e-003 -9.838804e-004 2.452780e-003 3.049016e-003 2.460802e-003 -5.194396e-004 2.452690e-004 -8.780354e-005 -2.863595e-004 -1.610064e-004 -4.333635e-004 -1.372012e-004 3.906052e-004 9.095619e-005 4.502791e-005 -5.384606e-004 -7.405099e-004 -1.406975e-004 1.252115e-004
<VARIANCE> 39
 8.580048e+001 2.257740e+001 3.644572e+001 3.284849e+001 4.230026e+001 8.797819e+001 4.273669e+001 3.434465e+001 3.883818e+001 5.359867e+001 2.501958e+001 2.713645e+001 6.058203e+001 2.321230e+000 1.536878e+000 1.774549e+000 1.485875e+000 1.614652e+000 2.897446e+000 1.985241e+000 1.955797e+000 2.023090e+000 2.357655e+000 1.644917e+000 1.569868e+000 1.648002e+000 2.688876e-001 2.553294e-001 2.551755e-001 2.275859e-001 2.479310e-001 4.268500e-001 3.294549e-001 3.414667e-001 3.486287e-001 3.772162e-001 2.877987e-001 2.676993e-001 1.951473e-001
<GCONST> 1.120826e+002
<STATE> 4
<MEAN> 39
 -1.250339e+001 2.913872e+000 -9.898548e-001 5.102881e+000 3.220543e+000 -2.779773e-001 3.150854e+000 5.337303e+000 3.704810e+000 1.394873e+000 3.916599e+000 2.251170e+000 6.326388e+001 -7.460064e-004 -1.370575e-004 4.217381e-004 -3.246881e-004 1.042608e-003 1.112454e-003 1.409131e-003 1.650585e-003 -9.838804e-004 2.452780e-003 3.049016e-003 2.460802e-003 -5.194396e-004 2.452690e-004 -8.780354e-005 -2.863595e-004 -1.610064e-004 -4.333635e-004 -1.372012e-004 3.906052e-004 9.095619e-005 4.502791e-005 -5.384606e-004 -7.405099e-004 -1.406975e-004 1.252115e-004
<VARIANCE> 39
 8.580048e+001 2.257740e+001 3.644572e+001 3.284849e+001 4.230026e+001 8.797819e+001 4.273669e+001 3.434465e+001 3.883818e+001 5.359867e+001 2.501958e+001 2.713645e+001 6.058203e+001 2.321230e+000 1.536878e+000 1.774549e+000 1.485875e+000 1.614652e+000 2.897446e+000 1.985241e+000 1.955797e+000 2.023090e+000 2.357655e+000 1.644917e+000 1.569868e+000 1.648002e+000 2.688876e-001 2.553294e-001 2.551755e-001 2.275859e-001 2.479310e-001 4.268500e-001 3.294549e-001 3.414667e-001 3.486287e-001 3.772162e-001 2.877987e-001 2.676993e-001 1.951473e-001
<GCONST> 1.120826e+002
<TRANSP> 5
 0.000000e+000 1.000000e+000 0.000000e+000 0.000000e+000 0.000000e+000
 0.000000e+000 6.000000e-001 4.000000e-001 0.000000e+000 0.000000e+000
 0.000000e+000 0.000000e+000 6.000000e-001 4.000000e-001 0.000000e+000
 0.000000e+000 0.000000e+000 0.000000e+000 7.000000e-001 3.000000e-001
 0.000000e+000 0.000000e+000 0.000000e+000 0.000000e+000 0.000000e+000
<ENDHMM>

~h "hh"
<BEGINHMM>
<NUMSTATES> 5
<STATE> 2
<MEAN> 39
 -1.250339e+001 2.913872e+000 -9.898548e-001 5.102881e+000 3.220543e+000 -2.779773e-001 3.150854e+000 5.337303e+000 3.704810e+000 1.394873e+000 3.916599e+000 2.251170e+000 6.326388e+001 -7.460064e-004 -1.370575e-004 4.217381e-004 -3.246881e-004 1.042608e-003 1.112454e-003 1.409131e-003 1.650585e-003 -9.838804e-004 2.452780e-003 3.049016e-003 2.460802e-003 -5.194396e-004 2.452690e-004 -8.780354e-005 -2.863595e-004 -1.610064e-004 -4.333635e-004 -1.372012e-004 3.906052e-004 9.095619e-005 4.502791e-005 -5.384606e-004 -7.405099e-004 -1.406975e-004 1.252115e-004
<VARIANCE> 39
 8.580048e+001 2.257740e+001 3.644572e+001 3.284849e+001 4.230026e+001 8.797819e+001 4.273669e+001 3.434465e+001 3.883818e+001 5.359867e+001 2.501958e+001 2.713645e+001 6.058203e+001 2.321230e+000 1.536878e+000 1.774549e+000 1.485875e+000 1.614652e+000 2.897446e+000 1.985241e+000 1.955797e+000 2.023090e+000 2.357655e+000 1.644917e+000 1.569868e+000 1.648002e+000 2.688876e-001 2.553294e-001 2.551755e-001 2.275859e-001 2.479310e-001 4.268500e-001 3.294549e-001 3.414667e-001 3.486287e-001 3.772162e-001 2.877987e-001 2.676993e-001 1.951473e-001
<GCONST> 1.120826e+002
<STATE> 3
<MEAN> 39
 -1.250339e+001 2.913872e+000 -9.898548e-001 5.102881e+000 3.220543e+000 -2.779773e-001 3.150854e+000 5.337303e+000 3.704810e+000 1.394873e+000 3.916599e+000 2.251170e+000 6.326388e+001 -7.460064e-004 -1.370575e-004 4.217381e-004 -3.246881e-004 1.042608e-003 1.112454e-003 1.409131e-003 1.650585e-003 -9.838804e-004 2.452780e-003 3.049016e-003 2.460802e-003 -5.194396e-004 2.452690e-004 -8.780354e-005 -2.863595e-004 -1.610064e-004 -4.333635e-004 -1.372012e-004 3.906052e-004 9.095619e-005 4.502791e-005 -5.384606e-004 -7.405099e-004 -1.406975e-004 1.252115e-004
<VARIANCE> 39
 8.580048e+001 2.257740e+001 3.644572e+001 3.284849e+001 4.230026e+001 8.797819e+001 4.273669e+001 3.434465e+001 3.883818e+001 5.359867e+001 2.501958e+001 2.713645e+001 6.058203e+001 2.321230e+000 1.536878e+000 1.774549e+000 1.485875e+000 1.614652e+000 2.897446e+000 1.985241e+000 1.955797e+000 2.023090e+000 2.357655e+000 1.644917e+000 1.569868e+000 1.648002e+000 2.688876e-001 2.553294e-001 2.551755e-001 2.275859e-001 2.479310e-001 4.268500e-001 3.294549e-001 3.414667e-001 3.486287e-001 3.772162e-001 2.877987e-001 2.676993e-001 1.951473e-001
<GCONST> 1.120826e+002
<STATE> 4
<MEAN> 39
 -1.250339e+001 2.913872e+000 -9.898548e-001 5.102881e+000 3.220543e+000 -2.779773e-001 3.150854e+000 5.337303e+000 3.704810e+000 1.394873e+000 3.916599e+000 2.251170e+000 6.326388e+001 -7.460064e-004 -1.370575e-004 4.217381e-004 -3.246881e-004 1.042608e-003 1.112454e-003 1.409131e-003 1.650585e-003 -9.838804e-004 2.452780e-003 3.049016e-003 2.460802e-003 -5.194396e-004 2.452690e-004 -8.780354e-005 -2.863595e-004 -1.610064e-004 -4.333635e-004 -1.372012e-004 3.906052e-004 9.095619e-005 4.502791e-005 -5.384606e-004 -7.405099e-004 -1.406975e-004 1.252115e-004
<VARIANCE> 39
 8.580048e+001 2.257740e+001 3.644572e+001 3.284849e+001 4.230026e+001 8.797819e+001 4.273669e+001 3.434465e+001 3.883818e+001 5.359867e+001 2.501958e+001 2.713645e+001 6.058203e+001 2.321230e+000 1.536878e+000 1.774549e+000 1.485875e+000 1.614652e+000 2.897446e+000 1.985241e+000 1.955797e+000 2.023090e+000 2.357655e+000 1.644917e+000 1.569868e+000 1.648002e+000 2.688876e-001 2.553294e-001 2.551755e-001 2.275859e-001 2.479310e-001 4.268500e-001 3.294549e-001 3.414667e-001 3.486287e-001 3.772162e-001 2.877987e-001 2.676993e-001 1.951473e-001
<GCONST> 1.120826e+002
<TRANSP> 5
 0.000000e+000 1.000000e+000 0.000000e+000 0.000000e+000 0.000000e+000
 0.000000e+000 6.000000e-001 4.000000e-001 0.000000e+000 0.000000e+000
 0.000000e+000 0.000000e+000 6.000000e-001 4.000000e-001 0.000000e+000
 0.000000e+000 0.000000e+000 0.000000e+000 7.000000e-001 3.000000e-001
 0.000000e+000 0.000000e+000 0.000000e+000 0.000000e+000 0.000000e+000
<ENDHMM>

~h "sil"
<BEGINHMM>
<NUMSTATES> 5
<STATE> 2
<MEAN> 39
 -1.250339e+001 2.913872e+000 -9.898548e-001 5.102881e+000 3.220543e+000 -2.779773e-001 3.150854e+000 5.337303e+000 3.704810e+000 1.394873e+000 3.916599e+000 2.251170e+000 6.326388e+001 -7.460064e-004 -1.370575e-004 4.217381e-004 -3.246881e-004 1.042608e-003 1.112454e-003 1.409131e-003 1.650585e-003 -9.838804e-004 2.452780e-003 3.049016e-003 2.460802e-003 -5.194396e-004 2.452690e-004 -8.780354e-005 -2.863595e-004 -1.610064e-004 -4.333635e-004 -1.372012e-004 3.906052e-004 9.095619e-005 4.502791e-005 -5.384606e-004 -7.405099e-004 -1.406975e-004 1.252115e-004
<VARIANCE> 39
 8.580048e+001 2.257740e+001 3.644572e+001 3.284849e+001 4.230026e+001 8.797819e+001 4.273669e+001 3.434465e+001 3.883818e+001 5.359867e+001 2.501958e+001 2.713645e+001 6.058203e+001 2.321230e+000 1.536878e+000 1.774549e+000 1.485875e+000 1.614652e+000 2.897446e+000 1.985241e+000 1.955797e+000 2.023090e+000 2.357655e+000 1.644917e+000 1.569868e+000 1.648002e+000 2.688876e-001 2.553294e-001 2.551755e-001 2.275859e-001 2.479310e-001 4.268500e-001 3.294549e-001 3.414667e-001 3.486287e-001 3.772162e-001 2.877987e-001 2.676993e-001 1.951473e-001
<GCONST> 1.120826e+002
<STATE> 3
<MEAN> 39
 -1.250339e+001 2.913872e+000 -9.898548e-001 5.102881e+000 3.220543e+000 -2.779773e-001 3.150854e+000 5.337303e+000 3.704810e+000 1.394873e+000 3.916599e+000 2.251170e+000 6.326388e+001 -7.460064e-004 -1.370575e-004 4.217381e-004 -3.246881e-004 1.042608e-003 1.112454e-003 1.409131e-003 1.650585e-003 -9.838804e-004 2.452780e-003 3.049016e-003 2.460802e-003 -5.194396e-004 2.452690e-004 -8.780354e-005 -2.863595e-004 -1.610064e-004 -4.333635e-004 -1.372012e-004 3.906052e-004 9.095619e-005 4.502791e-005 -5.384606e-004 -7.405099e-004 -1.406975e-004 1.252115e-004
<VARIANCE> 39
 8.580048e+001 2.257740e+001 3.644572e+001 3.284849e+001 4.230026e+001 8.797819e+001 4.273669e+001 3.434465e+001 3.883818e+001 5.359867e+001 2.501958e+001 2.713645e+001 6.058203e+001 2.321230e+000 1.536878e+000 1.774549e+000 1.485875e+000 1.614652e+000 2.897446e+000 1.985241e+000 1.955797e+000 2.023090e+000 2.357655e+000 1.644917e+000 1.569868e+000 1.648002e+000 2.688876e-001 2.553294e-001 2.551755e-001 2.275859e-001 2.479310e-001 4.268500e-001 3.294549e-001 3.414667e-001 3.486287e-001 3.772162e-001 2.877987e-001 2.676993e-001 1.951473e-001
<GCONST> 1.120826e+002
<STATE> 4
<MEAN> 39
 -1.250339e+001 2.913872e+000 -9.898548e-001 5.102881e+000 3.220543e+000 -2.779773e-001 3.150854e+000 5.337303e+000 3.704810e+000 1.394873e+000 3.916599e+000 2.251170e+000 6.326388e+001 -7.460064e-004 -1.370575e-004 4.217381e-004 -3.246881e-004 1.042608e-003 1.112454e-003 1.409131e-003 1.650585e-003 -9.838804e-004 2.452780e-003 3.049016e-003 2.460802e-003 -5.194396e-004 2.452690e-004 -8.780354e-005 -2.863595e-004 -1.610064e-004 -4.333635e-004 -1.372012e-004 3.906052e-004 9.095619e-005 4.502791e-005 -5.384606e-004 -7.405099e-004 -1.406975e-004 1.252115e-004
<VARIANCE> 39
 8.580048e+001 2.257740e+001 3.644572e+001 3.284849e+001 4.230026e+001 8.797819e+001 4.273669e+001 3.434465e+001 3.883818e+001 5.359867e+001 2.501958e+001 2.713645e+001 6.058203e+001 2.321230e+000 1.536878e+000 1.774549e+000 1.485875e+000 1.614652e+000 2.897446e+000 1.985241e+000 1.955797e+000 2.023090e+000 2.357655e+000 1.644917e+000 1.569868e+000 1.648002e+000 2.688876e-001 2.553294e-001 2.551755e-001 2.275859e-001 2.479310e-001 4.268500e-001 3.294549e-001 3.414667e-001 3.486287e-001 3.772162e-001 2.877987e-001 2.676993e-001 1.951473e-001
<GCONST> 1.120826e+002
<TRANSP> 5
 0.000000e+000 1.000000e+000 0.000000e+000 0.000000e+000 0.000000e+000
 0.000000e+000 6.000000e-001 4.000000e-001 0.000000e+000 0.000000e+000
 0.000000e+000 0.000000e+000 6.000000e-001 4.000000e-001 0.000000e+000
 0.000000e+000 0.000000e+000 0.000000e+000 7.000000e-001 3.000000e-001
 0.000000e+000 0.000000e+000 0.000000e+000 0.000000e+000 0.000000e+000
<ENDHMM>