~o
<STREAMINFO> 1 39
<VECSIZE> 39<NULLD><MFCC_D_A_0><DIAGC>
~h "proto"
<BEGINHMM>
<NUMSTATES> 5
<STATE> 2
<MEAN> 39
 -1.457899e+001 3.137339e+000 -6.050398e-002 4.902233e+000 4.003007e+000 1.359208e+000 4.561697e+000 5.209906e+000 4.957277e+000 2.440612e+000 4.898831e+000 2.816779e+000 6.132375e+001 9.906853e-004 5.930465e-004 -7.054840e-004 -1.341805e-003 -2.388034e-003 -1.774325e-003 -2.082969e-003 -1.125146e-003 -1.016367e-003 -2.101416e-004 -2.490651e-004 -1.370361e-003 3.878616e-004 1.801214e-004 -2.083079e-005 2.753252e-004 -1.667456e-004 -6.058620e-004 -6.255107e-004 -1.806791e-004 1.334157e-004 -4.831039e-004 -6.055362e-004 -1.818638e-004 -1.239784e-004 1.550209e-004
<VARIANCE> 39
 7.076837e+001 1.663596e+001 2.768884e+001 2.384836e+001 3.152313e+001 7.053098e+001 3.414671e+001 2.632460e+001 3.170426e+001 4.321862e+001 2.044123e+001 2.199369e+001 5.072046e+001 1.656056e+000 1.130756e+000 1.317600e+000 1.123567e+000 1.240355e+000 2.140515e+000 1.555889e+000 1.580223e+000 1.617350e+000 1.867076e+000 1.349541e+000 1.295707e+000 1.169577e+000 1.958741e-001 1.909749e-001 1.950289e-001 1.762518e-001 1.960289e-001 3.220237e-001 2.656344e-001 2.830013e-001 2.872487e-001 3.123142e-001 2.435442e-001 2.286803e-001 1.405454e-001
<GCONST> 1.024544e+002
<STATE> 3
<MEAN> 39
 -1.457899e+001 3.137339e+000 -6.050398e-002 4.902233e+000 4.003007e+000 1.359208e+000 4.561697e+000 5.209906e+000 4.957277e+000 2.440612e+000 4.898831e+000 2.816779e+000 6.132375e+001 9.906853e-004 5.930465e-004 -7.054840e-004 -1.341805e-003 -2.388034e-003 -1.774325e-003 -2.082969e-003 -1.125146e-003 -1.016367e-003 -2.101416e-004 -2.490651e-004 -1.370361e-003 3.878616e-004 1.801214e-004 -2.083079e-005 2.753252e-004 -1.667456e-004 -6.058620e-004 -6.255107e-004 -1.806791e-004 1.334157e-004 -4.831039e-004 -6.055362e-004 -1.818638e-004 -1.239784e-004 1.550209e-004
<VARIANCE> 39
 7.076837e+001 1.663596e+001 2.768884e+001 2.384836e+001 3.152313e+001 7.053098e+001 3.414671e+001 2.632460e+001 3.170426e+001 4.321862e+001 2.044123e+001 2.199369e+001 5.072046e+001 1.656056e+000 1.130756e+000 1.317600e+000 1.123567e+000 1.240355e+000 2.140515e+000 1.555889e+000 1.580223e+000 1.617350e+000 1.867076e+000 1.349541e+000 1.295707e+000 1.169577e+000 1.958741e-001 1.909749e-001 1.950289e-001 1.762518e-001 1.960289e-001 3.220237e-001 2.656344e-001 2.830013e-001 2.872487e-001 3.123142e-001 2.435442e-001 2.286803e-001 1.405454e-001
<GCONST> 1.024544e+002
<STATE> 4
<MEAN> 39
 -1.457899e+001 3.137339e+000 -6.050398e-002 4.902233e+000 4.003007e+000 1.359208e+000 4.561697e+000 5.209906e+000 4.957277e+000 2.440612e+000 4.898831e+000 2.816779e+000 6.132375e+001 9.906853e-004 5.930465e-004 -7.054840e-004 -1.341805e-003 -2.388034e-003 -1.774325e-003 -2.082969e-003 -1.125146e-003 -1.016367e-003 -2.101416e-004 -2.490651e-004 -1.370361e-003 3.878616e-004 1.801214e-004 -2.083079e-005 2.753252e-004 -1.667456e-004 -6.058620e-004 -6.255107e-004 -1.806791e-004 1.334157e-004 -4.831039e-004 -6.055362e-004 -1.818638e-004 -1.239784e-004 1.550209e-004
<VARIANCE> 39
 7.076837e+001 1.663596e+001 2.768884e+001 2.384836e+001 3.152313e+001 7.053098e+001 3.414671e+001 2.632460e+001 3.170426e+001 4.321862e+001 2.044123e+001 2.199369e+001 5.072046e+001 1.656056e+000 1.130756e+000 1.317600e+000 1.123567e+000 1.240355e+000 2.140515e+000 1.555889e+000 1.580223e+000 1.617350e+000 1.867076e+000 1.349541e+000 1.295707e+000 1.169577e+000 1.958741e-001 1.909749e-001 1.950289e-001 1.762518e-001 1.960289e-001 3.220237e-001 2.656344e-001 2.830013e-001 2.872487e-001 3.123142e-001 2.435442e-001 2.286803e-001 1.405454e-001
<GCONST> 1.024544e+002
<TRANSP> 5
 0.000000e+000 1.000000e+000 0.000000e+000 0.000000e+000 0.000000e+000
 0.000000e+000 6.000000e-001 4.000000e-001 0.000000e+000 0.000000e+000
 0.000000e+000 0.000000e+000 6.000000e-001 4.000000e-001 0.000000e+000
 0.000000e+000 0.000000e+000 0.000000e+000 7.000000e-001 3.000000e-001
 0.000000e+000 0.000000e+000 0.000000e+000 0.000000e+000 0.000000e+000
<ENDHMM>
