~o
<STREAMINFO> 1 39
<VECSIZE> 39<NULLD><MFCC_D_A_0><DIAGC>
~h "b"
<BEGINHMM>
<NUMSTATES> 5
<STATE> 2
<MEAN> 39
 -2.052701e+001 -4.528025e+000 1.009229e+001 -2.365232e+000 2.337539e+000 -2.298619e+000 1.216854e+001 -1.298521e+000 -2.697826e+000 8.557401e+000 7.634883e+000 -4.022917e-001 6.972025e+001 2.406790e+000 1.080593e+000 -1.522994e+000 8.412331e-001 3.211364e-001 -8.980520e-001 -1.408086e+000 3.275745e-002 -1.342171e+000 -9.033104e-001 -1.143631e+000 -7.557198e-003 1.941016e-001 3.370560e-001 3.016757e-001 -2.832861e-001 3.205726e-001 1.998796e-001 1.686834e-001 -5.282184e-001 -1.836805e-002 1.775507e-001 -2.551842e-001 -3.141043e-001 -7.961600e-002 -1.803640e-001
<VARIANCE> 39
 1.285866e+002 2.740149e+001 8.284625e+001 3.650394e+001 1.347146e+001 2.229918e+001 7.055653e+001 2.094762e+001 5.361914e+001 7.405103e+001 3.342770e+001 8.075750e+000 1.023231e+001 9.053851e+000 3.230456e+000 3.156504e+000 4.394533e+000 3.431358e+000 1.532084e+000 8.142962e+000 2.215601e+000 3.560357e+000 7.128204e+000 3.982054e+000 7.898464e-001 3.743573e-001 1.565789e+000 5.092328e-001 6.068106e-001 5.465235e-001 8.176846e-001 6.933854e-001 6.438432e-001 5.173382e-001 1.263533e+000 1.243094e+000 6.828505e-001 1.916557e-001 2.090403e-001
<GCONST> 1.248838e+002
<STATE> 3
<MEAN> 39
 -1.276576e+000 2.988424e+000 -4.499033e+000 5.477585e+000 6.523918e+000 -8.194682e+000 -4.368451e+000 7.603446e-001 -4.420157e+000 -3.562878e+000 -5.771103e-001 -8.824060e-001 7.182742e+001 8.212069e-001 9.975343e-001 -9.569789e-001 8.688229e-001 2.501958e+000 9.168229e-001 -2.600536e+000 -2.426297e-001 2.198464e+000 -4.801091e-001 -2.456034e+000 -1.262040e+000 -2.626710e-001 -1.286735e+000 -1.686429e-001 1.014505e+000 -2.034890e-001 -5.552500e-002 9.644242e-001 8.421526e-001 -3.855324e-001 5.966911e-001 9.278644e-001 1.334093e-001 -3.604531e-001 -4.644926e-001
<VARIANCE> 39
 9.918020e+000 1.179469e+001 4.308496e+001 5.197016e+001 1.704572e+001 2.361584e+001 4.599660e+001 2.479572e+001 5.164512e+001 1.584786e+001 3.628722e+001 1.803188e+001 1.252230e+001 3.566396e+000 8.232065e-001 2.215759e+000 1.197561e+000 1.510417e+000 2.602124e+000 5.425119e+000 1.942025e+000 6.156865e+000 3.030935e+000 2.149775e+000 3.010886e+000 4.353711e-001 4.375204e-001 4.794832e-001 2.205548e-001 3.419305e-001 3.400952e-001 6.095752e-001 6.457950e-001 2.533345e-001 1.338128e+000 4.497585e-001 8.643379e-001 3.895664e-001 1.533185e-001
<GCONST> 1.116457e+002
<STATE> 4
<MEAN> 39
 -2.692474e+000 4.480323e+000 -1.505983e+000 1.029591e+001 1.379723e+001 -3.264259e+000 -9.989723e+000 -4.484412e+000 2.503101e+000 -3.251168e+000 -5.290213e+000 -7.613682e+000 7.008343e+001 -2.612496e-001 -4.616885e-001 5.522342e-001 8.699525e-001 7.726691e-001 4.013069e-003 -4.102907e-001 -3.102807e-001 4.258469e-001 -4.823449e-001 -6.850206e-002 -2.339080e-001 1.649996e-001 -5.701444e-002 -1.531424e-001 1.269326e-001 -6.266992e-002 -2.408346e-001 -1.528512e-001 2.133887e-001 -3.686319e-002 -3.205076e-001 -1.870675e-002 2.717355e-001 2.439713e-001 7.936870e-002
<VARIANCE> 39
 5.891917e+000 4.343628e+001 2.141098e+001 4.702802e+001 2.833215e+001 2.329492e+001 3.988516e+001 2.471343e+001 1.793054e+001 3.736557e+001 2.278252e+001 1.761385e+001 1.807335e+001 4.011663e-001 5.284678e+000 7.624897e-001 3.489931e+000 2.913639e+000 4.414808e+000 3.841139e+000 7.036049e-001 3.247692e+000 5.355927e+000 4.187084e+000 2.795386e+000 1.911701e+000 1.349604e-001 1.034054e+000 2.489957e-001 8.348279e-001 7.334175e-001 9.180204e-001 1.117366e+000 2.037907e-001 6.323532e-001 1.155910e+000 7.429882e-001 2.930371e-001 3.912349e-001
<GCONST> 1.159698e+002
<TRANSP> 5
 0.000000e+000 1.000000e+000 0.000000e+000 0.000000e+000 0.000000e+000
 0.000000e+000 7.906853e-001 2.093147e-001 0.000000e+000 0.000000e+000
 0.000000e+000 0.000000e+000 3.605908e-001 6.394092e-001 0.000000e+000
 0.000000e+000 0.000000e+000 0.000000e+000 8.109568e-001 1.890432e-001
 0.000000e+000 0.000000e+000 0.000000e+000 0.000000e+000 0.000000e+000
<ENDHMM>
~h "d"
<BEGINHMM>
<NUMSTATES> 5
<STATE> 2
<MEAN> 39
 -3.602300e+000 4.112720e+000 -6.989319e+000 -9.233361e-001 -2.718356e+000 -6.792459e+000 3.309452e+000 2.959344e+000 1.962574e+000 -1.720520e+000 -5.340774e-001 1.426806e+000 6.932977e+001 -3.033555e+000 2.144813e+000 2.240923e+000 -5.216223e-002 7.430810e-001 2.305326e+000 -1.893229e-002 1.608405e-001 7.395326e-001 9.284439e-001 3.430300e-001 1.404881e-003 -2.931306e+000 -2.035576e-001 -4.009384e-001 -1.307519e-001 -6.919319e-002 -1.116719e-001 1.607585e-001 1.953259e-001 2.938694e-001 3.893989e-001 4.241040e-001 3.580573e-001 2.001745e-001 -9.077743e-002
<VARIANCE> 39
 5.331255e+001 2.959329e+001 3.784282e+001 1.977200e+001 2.566738e+001 6.480132e+001 7.502860e+000 1.827724e+001 3.186259e+001 2.418310e+001 1.769041e+001 3.875109e+001 4.839320e+001 2.945805e+000 2.302159e+000 1.472764e+000 1.552893e+000 1.156915e+000 1.988773e+000 1.025757e+000 1.984027e+000 3.345489e+000 3.274289e+000 1.918405e+000 1.005784e+000 2.245526e+000 7.094956e-001 4.494711e-001 4.159266e-001 2.155025e-001 1.669929e-001 6.512582e-001 1.695329e-001 2.237445e-001 4.406225e-001 4.809070e-001 2.550871e-001 1.894986e-001 5.991048e-001
<GCONST> 1.090590e+002
<STATE> 3
<MEAN> 39
 -1.182938e+001 7.565606e+000 -1.334641e+000 3.814697e-003 -7.807961e-001 8.998339e-001 4.336369e+000 5.245413e+000 4.783817e+000 2.042391e+000 2.162695e+000 1.339656e+000 6.157265e+001 -1.807873e+000 5.583292e-002 9.885154e-001 7.013068e-001 6.668069e-001 1.552787e+000 1.455678e-001 2.444564e-001 7.572822e-001 1.093652e+000 8.700979e-001 4.554355e-001 -1.500826e+000 4.079688e-001 -5.187249e-001 -3.955772e-001 1.713678e-001 -3.688124e-002 -4.689604e-001 2.264657e-002 -2.514707e-002 -1.714851e-001 -9.000901e-002 1.072236e-001 1.513557e-001 4.851110e-001
<VARIANCE> 39
 1.310208e+001 8.944451e+000 1.488194e+001 3.438229e+001 3.607741e+001 2.519764e+001 5.381264e+000 6.087168e+000 1.681605e+001 2.235065e+001 3.103489e+001 5.719225e+001 6.700764e+000 1.801770e+000 1.012656e+000 9.005223e-001 1.198002e+000 9.403774e-001 1.754229e+000 6.659829e-001 8.376825e-001 1.574997e+000 2.599535e+000 1.219824e+000 7.846327e-001 1.560344e+000 2.787785e-001 1.995247e-001 1.880851e-001 2.566281e-001 2.633561e-001 2.308216e-001 7.168971e-002 1.788614e-001 2.723305e-001 3.596582e-001 3.142883e-001 2.716973e-001 1.760053e-001
<GCONST> 9.109984e+001
<STATE> 4
<MEAN> 39
 -1.781714e+001 4.839148e+000 4.804749e-001 5.031024e+000 3.964572e+000 5.363620e+000 5.296846e+000 5.193782e+000 6.224048e+000 5.271368e+000 5.251255e+000 4.014349e+000 5.825140e+001 -1.817988e-001 -5.544506e-001 -7.162786e-002 3.203565e-001 2.272857e-001 -9.267619e-002 8.989586e-002 -1.528586e-001 -7.035962e-002 2.943109e-002 3.013752e-001 2.538200e-001 1.515504e-001 2.810912e-001 -3.089498e-002 -7.788648e-002 -9.526204e-003 -9.190944e-002 -2.674735e-001 -6.125433e-002 -7.182028e-002 -2.090993e-001 -2.685307e-001 -8.877769e-002 -3.842500e-002 2.445516e-001
<VARIANCE> 39
 8.677940e+000 1.305313e+001 1.646663e+001 1.094362e+001 1.510825e+001 9.301716e+000 5.204703e+000 1.115855e+001 9.089197e+000 1.242268e+001 1.402384e+001 2.026703e+001 6.482441e+000 1.225988e+000 1.551428e+000 2.257445e+000 1.051916e+000 1.014830e+000 1.389412e+000 9.569020e-001 2.177042e+000 1.666497e+000 2.103605e+000 9.193951e-001 1.428892e+000 2.176827e+000 2.313638e-001 2.522092e-001 4.356160e-001 1.232029e-001 1.813527e-001 2.628569e-001 1.492025e-001 3.736712e-001 3.548191e-001 4.666679e-001 2.026543e-001 2.133790e-001 3.160957e-001
<GCONST> 8.995679e+001
<TRANSP> 5
 0.000000e+000 1.000000e+000 0.000000e+000 0.000000e+000 0.000000e+000
 0.000000e+000 5.566319e-001 4.433681e-001 0.000000e+000 0.000000e+000
 0.000000e+000 0.000000e+000 5.720193e-001 4.279808e-001 0.000000e+000
 0.000000e+000 0.000000e+000 0.000000e+000 8.835614e-001 1.164386e-001
 0.000000e+000 0.000000e+000 0.000000e+000 0.000000e+000 0.000000e+000
<ENDHMM>
~h "g"
<BEGINHMM>
<NUMSTATES> 5
<STATE> 2
<MEAN> 39
 2.669619e+000 9.374827e-001 -6.086902e+000 2.184436e+000 -7.710195e+000 -1.942391e+001 -4.104359e+000 1.247716e+001 9.201883e-001 -9.881272e+000 6.511194e-002 -2.406778e+000 7.555737e+001 4.585788e-002 -6.362298e-001 -7.437438e-001 -2.338563e-001 -3.960394e-001 -4.612154e-002 3.609345e-001 8.254148e-002 4.179031e-004 4.478494e-001 4.671498e-001 7.136041e-001 9.046665e-002 -7.886818e-002 4.865701e-002 5.950409e-002 1.479513e-002 1.052294e-001 1.811293e-001 5.655571e-002 -7.722882e-002 -2.476243e-002 8.564366e-002 2.164949e-002 -1.640290e-002 -8.838028e-002
<VARIANCE> 39
 1.798264e+000 4.421101e+001 2.884399e+001 8.811374e+000 4.302482e+001 3.420263e+001 4.224021e+001 4.266682e+001 1.867865e+001 3.401854e+001 1.854783e+001 2.644159e+001 7.283997e+000 1.788409e-001 7.209690e-001 6.043872e-001 4.194831e-001 4.177123e-001 9.636387e-001 1.077924e+000 6.614558e-001 9.050488e-001 1.003093e+000 6.208151e-001 1.494417e+000 3.408741e-001 2.672921e-002 1.238956e-001 1.076860e-001 8.565095e-002 6.887653e-002 9.781269e-002 1.185112e-001 9.433086e-002 1.304361e-001 1.786449e-001 1.117617e-001 2.413668e-001 3.559666e-002
<GCONST> 7.450247e+001
<STATE> 3
<MEAN> 39
 1.864614e-001 -4.374591e-002 -1.087478e+001 -5.031743e-001 -5.702843e+000 -1.310978e+001 1.511613e-001 7.593010e+000 1.765969e+000 -2.577081e+000 2.594674e+000 2.787450e+000 7.215369e+001 -1.268018e+000 6.534950e-001 5.820063e-001 -5.599598e-001 5.071528e-001 1.551085e+000 7.659815e-001 -3.248778e-001 -4.318389e-002 1.356501e+000 4.360997e-001 -1.461697e-001 -1.177064e+000 -3.988541e-001 1.493731e-001 1.783229e-001 3.118815e-002 1.272829e-001 3.670179e-001 1.164626e-001 1.068710e-001 3.990965e-001 1.370197e-001 4.441703e-002 1.081145e-001 -2.689029e-001
<VARIANCE> 39
 4.534006e+000 2.055952e+001 6.111691e+000 1.032780e+001 6.366615e+001 2.133999e+001 5.170970e+001 5.225928e+001 5.080036e+000 3.101600e+001 1.387004e+001 1.522829e+001 7.398914e+000 3.888815e-001 1.182336e+000 5.020183e-001 1.011427e+000 8.738368e-001 8.172979e-001 5.423489e-001 7.268921e-001 7.777782e-001 9.207143e-001 2.526745e-001 5.828202e-001 1.897308e-001 7.136241e-002 1.680766e-001 1.504228e-001 2.470762e-001 2.958884e-001 1.795335e-001 2.226291e-001 1.340560e-001 1.814205e-001 1.420785e-001 1.108213e-001 2.247739e-001 5.343604e-002
<GCONST> 7.681086e+001
<STATE> 4
<MEAN> 39
 -9.154078e+000 3.345963e+000 -5.924430e+000 -1.128790e+000 -3.810309e+000 -4.005698e+000 4.764371e+000 7.861573e+000 5.943853e+000 2.444980e+000 4.983080e+000 4.771888e+000 6.465324e+001 -2.462754e+000 9.794515e-001 1.343264e+000 8.649004e-002 1.096076e+000 2.536336e+000 4.771321e-001 -3.042571e-001 1.187428e+000 1.602266e+000 6.310554e-001 8.845060e-001 -2.099295e+000 4.457626e-002 -2.201499e-001 3.777418e-002 3.025507e-001 2.881184e-002 -2.206342e-001 -1.641425e-001 1.272822e-001 -1.447166e-001 -2.400314e-001 6.266832e-003 -3.977081e-003 9.204267e-002
<VARIANCE> 39
 3.189808e+001 1.110349e+001 1.584434e+001 1.442572e+001 2.990626e+001 4.119291e+001 1.611089e+001 3.069433e+001 1.813372e+001 3.419038e+001 1.510748e+001 2.379221e+001 2.037494e+001 1.217755e+000 1.149958e+000 1.771855e+000 2.601914e+000 2.265231e+000 1.580496e+000 2.986516e+000 1.883377e+000 1.038684e+000 2.595203e+000 1.458381e+000 7.537654e-001 4.991968e-001 2.499402e-001 1.904843e-001 3.489049e-001 3.081343e-001 2.479733e-001 3.978959e-001 3.530525e-001 1.829226e-001 2.359354e-001 4.212918e-001 2.728238e-001 2.088237e-001 1.411326e-001
<GCONST> 9.942384e+001
<TRANSP> 5
 0.000000e+000 1.000000e+000 0.000000e+000 0.000000e+000 0.000000e+000
 0.000000e+000 9.290259e-001 7.097410e-002 0.000000e+000 0.000000e+000
 0.000000e+000 0.000000e+000 6.980944e-001 3.019056e-001 0.000000e+000
 0.000000e+000 0.000000e+000 0.000000e+000 8.114132e-001 1.885867e-001
 0.000000e+000 0.000000e+000 0.000000e+000 0.000000e+000 0.000000e+000
<ENDHMM>
~h "l"
<BEGINHMM>
<NUMSTATES> 5
<STATE> 2
<MEAN> 39
 -7.230103e+000 1.511628e+000 -2.804091e+000 5.339585e+000 2.240508e+000 -5.295499e+000 1.610586e+000 4.780787e+000 2.170405e-001 -3.211662e+000 2.211751e+000 1.328901e+000 6.762796e+001 1.244064e+000 1.391619e-003 2.312611e-001 8.734504e-001 6.783455e-001 -6.365907e-001 -1.287797e+000 -4.068917e-001 -1.185772e+000 -1.642246e+000 -7.601367e-001 -7.940476e-001 9.237667e-001 -5.228553e-002 1.651678e-001 1.388094e-001 1.738719e-001 2.194282e-001 1.395820e-001 -1.579687e-001 -3.046699e-003 5.309918e-002 -4.594650e-002 -7.530487e-002 -1.621310e-001 -1.057147e-001
<VARIANCE> 39
 7.421977e+001 1.700878e+001 3.313055e+001 3.318726e+001 4.020838e+001 8.328421e+001 4.504543e+001 4.209167e+001 4.376717e+001 8.736649e+001 3.019817e+001 3.858156e+001 4.084824e+001 4.041778e+000 2.660544e+000 2.180709e+000 2.191859e+000 2.521534e+000 5.182669e+000 4.461199e+000 3.541656e+000 4.241076e+000 7.346944e+000 3.361930e+000 4.418478e+000 3.566479e+000 4.954178e-001 3.815184e-001 3.121331e-001 3.168580e-001 3.012803e-001 4.471928e-001 7.802448e-001 6.427948e-001 6.202030e-001 1.203137e+000 5.365486e-001 6.639267e-001 3.764379e-001
<GCONST> 1.282066e+002
<STATE> 3
<MEAN> 39
 -2.380920e+000 2.385502e+000 -3.364354e+000 8.955893e+000 6.891606e+000 -7.521461e+000 -4.853212e+000 5.710720e+000 5.899379e-001 -6.928310e+000 -1.686776e+000 -4.511415e+000 7.022059e+001 -1.051019e+000 7.028958e-001 9.647701e-001 8.081161e-001 8.013924e-001 9.189708e-001 -5.822144e-001 -8.455122e-001 7.425010e-001 8.298656e-001 -1.229014e-002 -2.678132e-001 -9.902093e-001 -3.689355e-001 1.172081e-001 1.691708e-001 -1.756539e-001 -1.962588e-001 2.099645e-001 3.508023e-001 -1.138413e-001 1.797586e-001 4.016019e-001 1.429746e-001 2.741590e-001 -2.586870e-001
<VARIANCE> 39
 2.232844e+001 1.631789e+001 1.892136e+001 5.064748e+001 8.459982e+001 3.877682e+001 3.822682e+001 4.653573e+001 8.415189e+001 8.935095e+001 5.111276e+001 6.915079e+001 1.642350e+001 1.688214e+000 2.048599e+000 1.846541e+000 2.164988e+000 3.012798e+000 2.412520e+000 2.482155e+000 1.792575e+000 1.859749e+000 4.014078e+000 3.352512e+000 2.320384e+000 1.406750e+000 2.241960e-001 3.857908e-001 2.348625e-001 3.471621e-001 5.236976e-001 4.256968e-001 3.946550e-001 3.935618e-001 4.625605e-001 7.049680e-001 6.022980e-001 4.388045e-001 1.928940e-001
<GCONST> 1.180057e+002
<STATE> 4
<MEAN> 39
 -7.603249e+000 1.536511e+000 1.809828e+000 1.161128e+001 7.475013e+000 -3.574425e+000 -4.041943e+000 1.035603e+000 -1.607561e+000 -6.065039e+000 3.756573e-001 -1.270810e+000 6.790009e+001 -6.105460e-001 3.018517e-001 2.398952e-001 -3.240305e-001 -2.483569e-001 7.108939e-001 7.358902e-001 2.336926e-001 4.140829e-001 4.936689e-001 -6.670618e-003 9.110855e-002 -5.536956e-001 4.624154e-003 -1.377476e-001 -1.428016e-001 -7.578343e-002 -1.194036e-003 -1.816759e-002 8.905931e-002 8.997304e-002 -2.696589e-003 -1.158946e-002 1.016382e-001 8.118873e-002 5.291450e-002
<VARIANCE> 39
 4.267706e+001 6.483126e+001 5.125731e+001 4.337634e+001 5.506983e+001 5.678134e+001 6.095606e+001 4.432341e+001 5.466689e+001 5.868119e+001 2.446512e+001 1.153887e+001 3.206642e+001 3.325710e+000 5.561258e+000 3.788028e+000 1.916569e+000 2.422691e+000 3.224914e+000 3.761765e+000 3.412417e+000 3.238326e+000 4.268958e+000 2.245744e+000 1.312091e+000 1.992351e+000 3.904071e-001 1.093542e+000 5.206745e-001 3.281372e-001 3.946238e-001 5.294381e-001 6.990389e-001 6.512131e-001 5.589983e-001 6.650673e-001 4.115980e-001 2.220367e-001 2.716084e-001
<GCONST> 1.246911e+002
<TRANSP> 5
 0.000000e+000 1.000000e+000 0.000000e+000 0.000000e+000 0.000000e+000
 0.000000e+000 6.553613e-001 3.446387e-001 0.000000e+000 0.000000e+000
 0.000000e+000 0.000000e+000 6.157075e-001 3.842925e-001 0.000000e+000
 0.000000e+000 0.000000e+000 0.000000e+000 8.892471e-001 1.107530e-001
 0.000000e+000 0.000000e+000 0.000000e+000 0.000000e+000 0.000000e+000
<ENDHMM>
~h "m"
<BEGINHMM>
<NUMSTATES> 5
<STATE> 2
<MEAN> 39
 -1.689606e+001 5.076517e-001 7.391958e-001 2.873111e+000 2.477736e+000 3.347903e+000 5.321526e+000 2.142269e+000 6.449183e+000 4.973213e+000 4.774874e+000 3.839307e+000 6.234856e+001 7.121213e-001 -4.310860e-001 9.789753e-001 1.004014e+000 5.761558e-001 -1.154338e+000 -9.789141e-001 -9.261849e-001 -8.967325e-001 -9.135579e-001 -4.492198e-001 -8.584187e-001 1.221728e+000 3.102491e-001 2.852811e-002 8.607428e-002 3.830309e-001 2.524828e-001 -4.706015e-001 -2.477314e-001 2.303031e-001 -2.711420e-001 -3.424832e-001 -5.778279e-002 -1.804411e-001 2.010171e-001
<VARIANCE> 39
 3.304993e+001 2.323304e+001 2.503153e+001 2.685437e+001 2.856236e+001 3.482427e+001 1.470092e+001 3.155680e+001 1.842446e+001 1.887402e+001 2.217836e+001 1.756507e+001 3.032594e+001 4.030393e+000 3.548070e+000 2.186668e+000 6.170644e+000 3.729547e+000 4.750657e+000 2.927516e+000 3.251253e+000 4.018534e+000 3.424736e+000 2.643637e+000 1.663263e+000 3.322893e+000 5.907734e-001 5.142852e-001 5.060838e-001 9.052072e-001 5.168837e-001 5.684538e-001 4.262197e-001 6.696195e-001 6.306362e-001 4.115849e-001 4.512185e-001 3.163265e-001 5.215540e-001
<GCONST> 1.203988e+002
<STATE> 3
<MEAN> 39
 -9.881459e+000 5.798994e-001 4.792432e+000 1.608854e+001 1.004865e+001 -8.458714e+000 -3.386286e+000 1.383180e+000 9.248239e-002 -4.773260e+000 1.873647e-001 -7.071462e-001 6.830788e+001 3.788126e-001 -3.317504e-002 -2.597241e-001 -1.779224e-001 1.606748e-001 -3.062616e-001 -3.775631e-001 -4.793940e-001 -4.312068e-001 -3.814660e-001 2.545257e-001 -1.419662e-001 4.731054e-001 -3.761012e-003 -1.111240e-002 -2.147756e-001 -2.789744e-001 -1.907619e-001 1.165455e-001 9.357345e-002 4.198579e-002 9.991806e-002 1.618161e-001 1.418954e-001 1.493518e-001 -5.583872e-002
<VARIANCE> 39
 3.372752e+001 3.619829e+001 3.936692e+001 9.868254e+001 5.168674e+001 7.071717e+001 5.815515e+001 3.166114e+001 5.427257e+001 4.211032e+001 1.993837e+001 2.385721e+001 3.616593e+001 5.367852e+000 4.602888e+000 3.258483e+000 4.853475e+000 3.185378e+000 8.480597e+000 5.744238e+000 3.384264e+000 4.263707e+000 3.568106e+000 2.146276e+000 1.811405e+000 5.857910e+000 5.514102e-001 6.985583e-001 3.190651e-001 6.646207e-001 5.626773e-001 1.137164e+000 8.588668e-001 5.986164e-001 8.021534e-001 6.848903e-001 3.286550e-001 3.443303e-001 6.893930e-001
<GCONST> 1.315717e+002
<STATE> 4
<MEAN> 39
 -3.878917e+000 -6.705198e-001 -7.698391e+000 1.819078e+000 -1.392015e+000 -8.831125e+000 3.557363e-001 3.940045e+000 -1.661787e-001 -8.432204e-001 7.099226e+000 4.104758e+000 7.085748e+001 -6.445499e-001 4.071698e-001 3.881872e-003 -6.731507e-001 -4.601682e-001 6.683050e-001 7.156440e-001 8.000627e-001 7.187525e-001 9.466059e-001 2.972163e-001 4.249035e-001 -8.300369e-001 -1.356619e-001 -6.116408e-002 5.101036e-002 1.406195e-001 9.451982e-002 8.442514e-002 1.053956e-001 1.348254e-002 1.236472e-001 5.314235e-002 -1.582863e-001 -3.684966e-002 -7.781311e-002
<VARIANCE> 39
 6.542000e+001 3.634781e+001 4.399617e+001 3.534850e+001 5.855165e+001 6.568799e+001 6.314550e+001 9.848869e+001 5.545551e+001 5.866938e+001 2.565506e+001 2.403863e+001 4.948809e+001 4.741586e+000 1.400652e+000 3.477994e+000 2.309355e+000 3.012149e+000 3.972687e+000 3.341099e+000 2.985452e+000 3.517373e+000 4.056982e+000 2.844208e+000 1.982152e+000 2.696877e+000 4.566395e-001 2.103278e-001 3.452930e-001 3.583125e-001 4.073929e-001 5.127440e-001 7.261497e-001 4.107519e-001 5.631587e-001 6.690388e-001 3.743170e-001 2.757724e-001 2.528958e-001
<GCONST> 1.245129e+002
<TRANSP> 5
 0.000000e+000 1.000000e+000 0.000000e+000 0.000000e+000 0.000000e+000
 0.000000e+000 7.092924e-001 2.907076e-001 0.000000e+000 0.000000e+000
 0.000000e+000 0.000000e+000 8.139277e-001 1.860723e-001 0.000000e+000
 0.000000e+000 0.000000e+000 0.000000e+000 8.136943e-001 1.863057e-001
 0.000000e+000 0.000000e+000 0.000000e+000 0.000000e+000 0.000000e+000
<ENDHMM>
~h "n"
<BEGINHMM>
<NUMSTATES> 5
<STATE> 2
<MEAN> 39
 -1.509509e+001 3.997737e+000 4.298743e+000 6.830804e+000 6.133412e+000 3.438086e+000 4.563469e+000 1.458843e+000 2.180491e+000 1.871121e+000 3.478710e+000 1.291872e+000 6.296680e+001 1.825532e+000 -1.159829e-001 7.208228e-003 7.206581e-001 5.628408e-001 -1.315425e+000 -1.411147e+000 -1.040428e+000 -1.249571e+000 -1.621103e+000 -7.673838e-001 -7.411118e-001 1.628748e+000 1.919674e-001 -2.333984e-001 -2.089436e-001 3.299291e-002 6.365998e-002 -3.070694e-001 -2.773268e-001 1.393078e-001 -5.896882e-002 -2.218635e-001 -7.025946e-002 7.681594e-002 2.102756e-001
<VARIANCE> 39
 5.081247e+001 3.510010e+001 3.433595e+001 3.359010e+001 1.138787e+001 2.609377e+001 3.250504e+001 2.460224e+001 2.979406e+001 3.385252e+001 2.188264e+001 1.962724e+001 2.865714e+001 3.793268e+000 4.301804e+000 2.563306e+000 3.201159e+000 1.322051e+000 3.895194e+000 3.570911e+000 4.024072e+000 3.309211e+000 4.080854e+000 2.598483e+000 2.857822e+000 3.195894e+000 4.737442e-001 6.759259e-001 4.238397e-001 4.761013e-001 2.245663e-001 6.748156e-001 4.328600e-001 7.569178e-001 6.396726e-001 5.183274e-001 4.694419e-001 4.886610e-001 4.937601e-001
<GCONST> 1.208738e+002
<STATE> 3
<MEAN> 39
 -3.393463e+000 3.617977e-001 1.005386e+000 1.358488e+001 1.110508e+001 -8.342010e+000 -8.326719e+000 2.784212e-001 -3.016588e+000 -9.768716e+000 -1.582922e+000 -2.862583e+000 7.245177e+001 7.257648e-001 -2.820135e-001 -7.073859e-001 -2.719152e-001 -6.095273e-002 -4.266078e-001 -5.423861e-001 1.560940e-001 6.847000e-002 -3.067550e-001 -3.136875e-001 -2.668473e-001 5.838720e-001 -1.998878e-001 9.475950e-002 -1.539461e-001 -3.329477e-001 -2.908219e-001 2.635708e-001 4.641061e-001 9.840494e-002 1.768105e-001 3.719084e-001 2.306816e-001 1.300761e-001 -2.251116e-001
<VARIANCE> 39
 1.707518e+001 3.302965e+001 2.327560e+001 6.096611e+001 2.954604e+001 5.498243e+001 3.807007e+001 4.597347e+001 3.688422e+001 5.944528e+001 2.527968e+001 4.066853e+001 2.365805e+001 1.208023e+000 2.619140e+000 2.012218e+000 2.997229e+000 1.978937e+000 6.412660e+000 4.190241e+000 5.289989e+000 4.063405e+000 4.296388e+000 2.190999e+000 1.896392e+000 1.807395e+000 2.106653e-001 5.473394e-001 3.690144e-001 4.686636e-001 3.483353e-001 1.061745e+000 6.595346e-001 1.295559e+000 8.597745e-001 9.962519e-001 5.678276e-001 5.440031e-001 2.674323e-001
<GCONST> 1.236712e+002
<STATE> 4
<MEAN> 39
 -5.629430e-001 4.882622e-001 -8.982859e+000 1.933387e+000 1.158961e+000 -6.347942e+000 6.286464e-001 5.669733e+000 -1.404326e+000 -3.912379e+000 2.227038e+000 -8.270863e-001 7.242224e+001 -2.693693e-001 -3.596968e-002 -2.946215e-001 -6.678206e-001 -7.534980e-001 6.939179e-002 8.491781e-001 6.163990e-001 3.338987e-001 5.983993e-001 4.549801e-001 5.141593e-001 -2.610422e-001 -1.169159e-001 7.329071e-003 1.169221e-001 8.745740e-002 5.746109e-002 2.587780e-003 2.265384e-002 2.863384e-002 2.034792e-002 -1.115878e-002 1.929506e-002 5.109147e-002 -7.506946e-002
<VARIANCE> 39
 2.878001e+001 3.201623e+001 3.245504e+001 4.370002e+001 6.347557e+001 6.295093e+001 5.895049e+001 8.116125e+001 5.066351e+001 3.655588e+001 4.904550e+001 4.948487e+001 3.081804e+001 1.996637e+000 2.258085e+000 2.602793e+000 2.531756e+000 2.880393e+000 4.793480e+000 1.663646e+000 3.579624e+000 2.507382e+000 2.622551e+000 3.118886e+000 3.768870e+000 1.951852e+000 1.287525e-001 2.649371e-001 2.317895e-001 3.471324e-001 4.554986e-001 5.695394e-001 3.445581e-001 4.930842e-001 3.177398e-001 3.667858e-001 5.094991e-001 6.880238e-001 1.454615e-001
<GCONST> 1.199449e+002
<TRANSP> 5
 0.000000e+000 1.000000e+000 0.000000e+000 0.000000e+000 0.000000e+000
 0.000000e+000 8.167175e-001 1.832825e-001 0.000000e+000 0.000000e+000
 0.000000e+000 0.000000e+000 8.119633e-001 1.880366e-001 0.000000e+000
 0.000000e+000 0.000000e+000 0.000000e+000 8.823633e-001 1.176367e-001
 0.000000e+000 0.000000e+000 0.000000e+000 0.000000e+000 0.000000e+000
<ENDHMM>
~h "p"
<BEGINHMM>
<NUMSTATES> 5
<STATE> 2
<MEAN> 39
 -1.626366e+001 4.687603e+000 -2.503767e+000 6.557813e-001 8.931447e-001 3.626122e+000 6.019950e+000 5.510431e+000 7.450853e+000 7.144814e+000 6.558257e+000 6.458191e+000 5.904388e+001 -8.322895e-001 4.691373e-002 7.084685e-001 7.985008e-001 7.168233e-001 4.839322e-001 7.376262e-002 2.425672e-002 -1.132015e-001 -3.806936e-001 -1.242170e-001 -8.574198e-002 -5.386568e-001 2.788407e-001 -8.936007e-002 -1.288612e-001 9.450907e-003 9.678783e-002 -4.405520e-002 -4.823339e-002 8.935995e-002 -3.351125e-002 -2.350978e-001 -7.612084e-002 -1.962966e-001 2.243729e-001
<VARIANCE> 39
 1.222022e+001 1.283142e+000 1.195274e+001 1.365397e+001 6.379565e+000 5.219674e+000 3.873781e+000 6.597193e+000 6.962591e+000 1.076497e+001 7.633622e+000 1.369532e+001 4.652827e+000 5.631059e-001 1.658178e-001 3.089703e-001 5.820894e-001 4.204730e-001 6.750661e-001 5.901683e-001 4.059627e-001 5.778973e-001 5.121105e-001 7.778255e-001 7.042943e-001 2.632616e-001 9.082079e-002 3.525522e-002 1.371401e-001 1.337586e-001 1.151469e-001 1.722690e-001 2.576904e-001 9.108571e-002 2.186138e-001 1.805692e-001 9.582182e-002 1.847637e-001 4.521544e-002
<GCONST> 5.906900e+001
<STATE> 3
<MEAN> 39
 -1.879063e+001 4.391744e+000 2.028069e-002 2.799800e+000 3.722509e+000 6.033877e+000 6.569749e+000 5.454612e+000 7.050530e+000 6.304019e+000 6.455223e+000 5.617156e+000 5.745445e+001 -4.267738e-001 -1.327314e-001 4.766876e-001 4.253970e-001 3.089675e-001 2.989082e-001 9.147505e-002 1.426876e-002 -6.077335e-002 -3.531798e-002 -3.768683e-001 -2.070884e-001 -2.399429e-001 1.157241e-001 -3.629399e-003 -9.826337e-002 -8.584075e-002 -1.489392e-001 -1.852744e-001 -5.009004e-002 1.292146e-001 1.149887e-002 -8.192185e-002 -4.889481e-002 -4.344794e-002 6.736779e-002
<VARIANCE> 39
 1.443248e+000 5.863146e-001 3.323961e+000 1.079917e+001 2.403644e+000 1.891752e+000 5.922573e+000 5.542263e+000 5.694433e+000 1.130563e+001 3.683998e+000 5.460451e+000 5.582301e-001 1.454178e-001 1.190780e-001 2.374419e-001 4.274994e-001 4.071316e-001 5.321903e-001 5.492082e-001 7.449363e-001 5.525104e-001 1.264114e+000 3.932762e-001 8.360870e-001 5.445326e-002 1.318239e-002 1.760173e-002 2.520626e-002 1.102184e-001 7.085632e-002 8.031182e-002 1.066018e-001 1.474404e-001 8.252198e-002 2.566386e-001 6.952627e-002 1.216913e-001 3.844726e-003
<GCONST> 3.576671e+001
<STATE> 4
<MEAN> 39
 -1.983130e+001 4.259593e+000 1.124089e+000 4.989161e+000 4.340924e+000 6.165201e+000 6.665980e+000 6.706316e+000 7.171595e+000 6.250830e+000 6.264336e+000 5.177900e+000 5.682085e+001 -1.276063e-002 -3.406497e-003 1.435687e-002 2.106744e-002 2.384772e-002 4.111420e-003 1.411159e-002 2.217724e-002 1.557672e-002 5.860310e-004 -4.805365e-003 -2.849816e-002 -7.803923e-003 3.906340e-003 2.473752e-003 -6.933189e-003 -5.411464e-003 -8.043274e-004 -2.506249e-003 -6.254022e-004 -6.612955e-003 -2.800680e-003 5.952710e-003 9.722620e-003 8.397794e-003 1.975443e-003
<VARIANCE> 39
 7.076837e-001 7.179562e-001 1.549318e+000 2.077291e+000 2.737815e+000 3.614990e+000 4.005880e+000 4.437313e+000 4.535795e+000 5.139869e+000 4.172257e+000 4.103931e+000 5.072046e-001 3.270989e-002 8.136932e-002 1.718785e-001 2.622989e-001 3.191185e-001 3.869398e-001 4.398383e-001 5.839352e-001 4.626034e-001 5.510485e-001 4.311565e-001 4.840823e-001 1.169577e-002 6.907364e-003 1.755124e-002 3.646275e-002 5.591472e-002 7.024067e-002 8.380112e-002 9.954213e-002 1.248758e-001 9.258385e-002 1.138988e-001 9.208322e-002 9.694651e-002 1.809068e-003
<GCONST> 2.246682e+001
<TRANSP> 5
 0.000000e+000 1.000000e+000 0.000000e+000 0.000000e+000 0.000000e+000
 0.000000e+000 6.315696e-001 3.684305e-001 0.000000e+000 0.000000e+000
 0.000000e+000 0.000000e+000 4.770061e-001 5.229939e-001 0.000000e+000
 0.000000e+000 0.000000e+000 0.000000e+000 9.712215e-001 2.877845e-002
 0.000000e+000 0.000000e+000 0.000000e+000 0.000000e+000 0.000000e+000
<ENDHMM>
~h "s"
<BEGINHMM>
<NUMSTATES> 5
<STATE> 2
<MEAN> 39
 -7.503484e-001 -1.340260e+000 -9.013625e+000 1.489331e+000 -8.537577e+000 -1.460387e+001 1.696366e+000 1.113322e+001 1.398549e+000 -3.701455e+000 4.374491e+000 2.668695e+000 7.235298e+001 -2.349661e-001 1.417328e-001 1.700861e-001 9.149532e-002 -5.477963e-002 4.187362e-001 3.172241e-002 -1.282532e-001 -2.198815e-002 1.021122e-001 1.408524e-002 -1.744297e-001 -3.033758e-001 -1.300345e-001 1.007377e-001 8.159803e-002 2.517661e-004 1.474536e-001 1.881875e-001 -7.495730e-002 -6.551430e-002 -8.956311e-003 -3.498887e-002 2.364244e-002 7.028626e-002 -1.294729e-001
<VARIANCE> 39
 6.379393e+001 5.236696e+001 3.893556e+001 1.449272e+001 2.396149e+001 6.520213e+001 1.467615e+001 2.473980e+001 4.746279e+001 5.021389e+001 2.218163e+001 1.604604e+001 6.103096e+001 6.486024e+000 3.339981e+000 2.888005e+000 6.289756e-001 2.871819e+000 7.907906e+000 1.268967e+000 2.661747e+000 2.183965e+000 4.994048e+000 2.707983e+000 2.094581e+000 5.383383e+000 9.492556e-001 4.804559e-001 4.193011e-001 1.434709e-001 4.932200e-001 1.387459e+000 2.934240e-001 4.726297e-001 2.926040e-001 7.799388e-001 6.266120e-001 4.908927e-001 7.038140e-001
<GCONST> 1.219999e+002
<STATE> 3
<MEAN> 39
 -3.476693e+000 2.390146e+000 -7.584694e+000 -9.308012e-001 -5.081331e+000 -9.763451e+000 4.818366e-001 6.625201e+000 5.794546e+000 -2.330282e-001 2.398862e+000 1.733672e+000 6.883095e+001 -7.967010e-001 5.509745e-001 4.223235e-001 -3.546287e-001 5.206583e-001 1.568598e+000 2.210635e-001 -4.972966e-001 2.855796e-001 5.761645e-001 1.245506e-001 2.575967e-001 -7.990652e-001 -3.787571e-002 -1.570027e-001 -2.533027e-002 3.946028e-002 2.030184e-001 1.504895e-001 7.753999e-002 -4.472832e-002 4.768043e-002 5.297733e-002 5.102556e-002 9.570739e-002 6.242418e-002
<VARIANCE> 39
 5.536206e+001 4.254898e+001 4.207446e+001 1.387755e+001 1.579591e+001 4.502888e+001 2.055805e+001 1.900051e+001 4.553310e+001 2.948637e+001 1.921710e+001 1.845249e+001 4.434124e+001 7.878426e+000 2.175451e+000 3.588043e+000 1.326029e+000 2.167562e+000 7.560581e+000 2.747089e+000 2.049900e+000 2.867990e+000 1.753986e+000 1.437844e+000 2.742689e+000 5.870525e+000 1.056444e+000 3.681669e-001 5.596397e-001 2.786779e-001 3.702081e-001 1.405398e+000 5.749819e-001 4.609012e-001 4.009064e-001 2.721938e-001 3.021190e-001 5.805641e-001 6.884781e-001
<GCONST> 1.197821e+002
<STATE> 4
<MEAN> 39
 -5.959534e+000 4.864896e+000 -3.007386e+000 3.727042e+000 1.709907e+000 -3.054934e+000 -1.473136e+000 3.555254e+000 1.566975e+000 -1.684350e+000 1.459641e+000 -1.000391e+000 6.636929e+001 -1.617263e+000 4.652603e-001 1.028259e+000 5.354478e-001 1.086775e+000 1.709027e+000 6.081607e-001 -3.366595e-001 4.639574e-001 7.691972e-001 1.084967e-001 1.980923e-001 -1.294348e+000 -4.452521e-002 -1.832168e-001 -8.951271e-002 4.946418e-002 -1.090887e-001 -1.286112e-001 1.934596e-001 2.043542e-001 6.720211e-003 3.821345e-002 1.029872e-001 6.101955e-002 3.066313e-002
<VARIANCE> 39
 2.850555e+001 3.279499e+001 3.448656e+001 3.044322e+001 4.227164e+001 3.215139e+001 1.683413e+001 3.838697e+001 2.517592e+001 3.251306e+001 1.532457e+001 2.073762e+001 2.402755e+001 1.050667e+000 1.468549e+000 2.099984e+000 1.351982e+000 1.263803e+000 1.994816e+000 2.372083e+000 1.199067e+000 1.346588e+000 1.523936e+000 1.751184e+000 2.591750e+000 4.934032e-001 1.909195e-001 1.923443e-001 3.770583e-001 2.147235e-001 1.602787e-001 2.816102e-001 2.045405e-001 1.202914e-001 2.220692e-001 1.872138e-001 2.454647e-001 4.285281e-001 1.179606e-001
<GCONST> 9.958940e+001
<TRANSP> 5
 0.000000e+000 1.000000e+000 0.000000e+000 0.000000e+000 0.000000e+000
 0.000000e+000 8.719479e-001 1.280521e-001 0.000000e+000 0.000000e+000
 0.000000e+000 0.000000e+000 6.982583e-001 3.017417e-001 0.000000e+000
 0.000000e+000 0.000000e+000 0.000000e+000 8.462502e-001 1.537498e-001
 0.000000e+000 0.000000e+000 0.000000e+000 0.000000e+000 0.000000e+000
<ENDHMM>
~h "t"
<BEGINHMM>
<NUMSTATES> 5
<STATE> 2
<MEAN> 39
 -1.903614e+001 2.236115e+000 3.643577e+000 3.552225e+000 5.325293e+000 5.586551e+000 5.414674e+000 2.992012e+000 5.980099e+000 4.382951e+000 5.223624e+000 3.035054e+000 6.132661e+001 8.200204e-001 -2.514520e-001 1.813300e-002 -1.071199e-001 1.638346e-001 -6.876304e-001 -3.131016e-001 -5.880615e-001 -5.373849e-001 -7.028044e-001 -4.829239e-001 -6.972259e-001 1.188094e+000 3.002019e-001 -6.618729e-002 -2.666509e-001 2.240890e-002 -1.472138e-002 -2.774620e-001 -7.895213e-002 8.356360e-002 -1.021280e-001 -2.011544e-001 -9.974378e-002 -8.354297e-002 1.883153e-001
<VARIANCE> 39
 2.846377e+001 3.178499e+001 2.584798e+001 3.797099e+001 1.688747e+001 1.663231e+001 2.117563e+001 2.272619e+001 2.823241e+001 1.458823e+001 1.767165e+001 1.436779e+001 1.797381e+001 4.560201e+000 2.552911e+000 4.038518e+000 2.491268e+000 2.165896e+000 2.746622e+000 2.651441e+000 2.187396e+000 3.923361e+000 2.218848e+000 2.486859e+000 2.048179e+000 1.867314e+000 6.623157e-001 4.206325e-001 6.710779e-001 3.903815e-001 4.738924e-001 4.385203e-001 4.412251e-001 4.828564e-001 7.352523e-001 3.823200e-001 4.720977e-001 2.768016e-001 2.658027e-001
<GCONST> 1.139915e+002
<STATE> 3
<MEAN> 39
 -1.078736e+001 4.284573e-001 2.614290e-001 2.914418e+000 5.377605e+000 -1.945682e+000 3.476240e+000 -1.636758e-001 1.843522e-001 -1.863922e+000 2.117934e+000 -1.921653e+000 6.982999e+001 3.208308e+000 -4.405041e-001 -1.937797e+000 2.573621e-001 -4.244015e-001 -2.350572e+000 -1.036694e+000 3.314499e-001 -1.336305e+000 -2.248189e+000 -1.047188e+000 -6.353241e-001 1.983299e+000 -1.351506e-001 1.089646e-001 5.785413e-002 -6.709124e-003 -2.418162e-001 9.857012e-002 1.211499e-001 5.644966e-001 3.223640e-001 2.642810e-001 9.472164e-002 2.143451e-001 -3.857452e-001
<VARIANCE> 39
 9.237050e+001 4.076191e+001 6.268593e+001 5.798651e+001 2.872902e+001 3.260069e+001 5.971755e+001 2.511725e+001 4.120188e+001 2.794215e+001 4.476955e+001 2.763946e+001 1.369162e+001 7.496631e+000 2.753470e+000 5.364775e+000 1.560934e+000 3.609682e+000 4.618433e+000 3.047089e+000 3.407967e+000 4.344993e+000 3.666994e+000 3.055232e+000 2.469055e+000 1.990960e+000 1.059409e+000 4.416370e-001 9.508942e-001 3.865730e-001 4.456366e-001 5.542245e-001 7.479325e-001 4.672926e-001 6.306984e-001 4.874689e-001 4.759296e-001 2.671370e-001 3.231530e-001
<GCONST> 1.262533e+002
<STATE> 4
<MEAN> 39
 -4.222078e+000 5.352194e+000 -1.604062e+000 7.210234e+000 5.107932e+000 -3.094016e+000 1.049410e+000 3.240030e+000 -1.442111e+000 -5.771552e+000 -3.407885e+000 -7.182417e+000 6.884893e+001 4.555145e-001 1.059323e-001 -9.201804e-002 -8.262786e-002 -4.797667e-001 -8.030180e-001 -3.156233e-001 6.806809e-001 1.673966e-001 -3.658599e-001 -9.154657e-002 2.402785e-001 1.252305e-001 -5.424330e-001 3.740486e-002 2.936316e-001 -7.523898e-002 -1.824204e-002 3.739327e-001 1.237156e-001 -6.800856e-002 3.233719e-001 5.735350e-001 2.451757e-001 2.500226e-001 -3.606896e-001
<VARIANCE> 39
 3.156293e+001 3.052689e+001 3.737287e+001 2.508389e+001 2.685416e+001 4.848980e+001 4.732395e+001 2.048300e+001 3.415417e+001 3.789814e+001 4.037826e+001 5.267547e+001 2.381789e+001 6.176451e+000 1.900567e+000 3.521203e+000 1.322463e+000 2.213677e+000 3.374873e+000 2.032605e+000 2.759319e+000 2.202211e+000 3.628851e+000 3.353056e+000 3.869993e+000 2.111686e+000 4.654845e-001 4.401182e-001 6.128677e-001 1.869498e-001 2.955700e-001 4.842566e-001 3.225676e-001 3.410389e-001 3.855928e-001 6.155742e-001 5.600404e-001 5.743688e-001 3.072431e-001
<GCONST> 1.189079e+002
<TRANSP> 5
 0.000000e+000 1.000000e+000 0.000000e+000 0.000000e+000 0.000000e+000
 0.000000e+000 8.381562e-001 1.618439e-001 0.000000e+000 0.000000e+000
 0.000000e+000 0.000000e+000 5.105221e-001 4.894779e-001 0.000000e+000
 0.000000e+000 0.000000e+000 0.000000e+000 6.585847e-001 3.414153e-001
 0.000000e+000 0.000000e+000 0.000000e+000 0.000000e+000 0.000000e+000
<ENDHMM>
~h "w"
<BEGINHMM>
<NUMSTATES> 5
<STATE> 2
<MEAN> 39
 -1.435353e+000 5.902275e+000 -8.875871e-002 9.413715e+000 -2.674086e+000 -1.696444e+001 -2.996631e+000 5.653433e+000 -7.191022e+000 -1.103302e+001 -6.242000e-001 -4.562497e+000 7.000889e+001 -4.526119e-001 9.215794e-001 8.883612e-001 -1.196275e-001 -9.023466e-001 -1.582649e-001 -2.262486e-001 3.774844e-001 7.097237e-001 8.286916e-001 -3.762740e-001 -1.495887e-001 -8.049266e-001 -3.819895e-001 -1.123226e-001 5.548976e-002 -6.649768e-002 7.614464e-002 4.051073e-001 1.584411e-001 -2.609599e-001 1.973715e-001 3.415845e-001 2.185236e-001 3.104657e-001 -1.982411e-001
<VARIANCE> 39
 3.302944e+000 1.261713e+001 1.652127e+001 1.076087e+001 3.711776e+001 7.029909e+001 9.186865e+000 5.155374e+001 4.499810e+001 1.181744e+001 7.953692e+000 7.427980e+000 4.709295e+000 5.783502e-001 9.009519e-001 6.294161e-001 4.142764e-001 7.720684e-001 1.779181e+000 1.500933e+000 1.034525e+000 8.304368e-001 1.281101e+000 3.149201e-001 1.139095e+000 2.858419e-001 1.585343e-001 1.539684e-001 8.349749e-002 7.712354e-002 1.543508e-001 3.549716e-001 1.565555e-001 1.869702e-001 2.445554e-001 5.755489e-001 1.487819e-001 1.719401e-001 8.269680e-002
<GCONST> 7.975269e+001
<STATE> 3
<MEAN> 39
 -5.323167e+000 1.159292e+001 3.891657e+000 5.076317e+000 -5.567942e+000 -1.222688e+001 -3.643303e+000 2.404450e+000 9.930730e-003 -3.347087e+000 -2.550587e+000 -4.191541e+000 6.501173e+001 -1.886235e+000 9.357045e-001 1.042202e+000 -6.500430e-001 4.310763e-001 2.043766e+000 2.045189e-002 -1.151166e+000 1.171960e+000 1.835241e+000 1.937893e-001 2.333384e-001 -1.508691e+000 -3.036000e-001 -4.513454e-001 -3.363126e-001 4.627415e-002 6.711052e-001 6.230328e-001 2.686443e-001 8.202134e-002 -9.476615e-002 -8.302705e-002 3.100733e-001 3.290238e-001 -6.009806e-002
<VARIANCE> 39
 8.603027e+000 5.919063e+000 3.799471e+000 4.944989e+000 1.104933e+001 2.960778e+001 5.086374e+000 2.803523e+001 2.971549e+001 2.862383e+001 6.446703e+000 7.673538e+000 3.792359e+000 6.290191e-001 3.858119e-001 4.022412e-001 5.436928e-001 2.254837e+000 5.390853e+000 3.855252e-001 8.330441e-001 1.328022e+000 8.382109e-001 4.855401e-001 8.951170e-001 2.195016e-001 6.712602e-002 1.041261e-001 6.116094e-002 3.779110e-002 6.882697e-002 3.121151e-001 1.007341e-001 3.449658e-001 2.219332e-001 3.119193e-001 1.004809e-001 1.381326e-001 2.740593e-002
<GCONST> 6.867672e+001
<STATE> 4
<MEAN> 39
 -1.545349e+001 7.583846e+000 2.697900e+000 5.446086e+000 2.324193e+000 7.764845e-001 -1.081830e-001 1.932036e+000 3.817187e+000 2.059115e+000 1.859786e+000 5.114014e-001 5.925600e+001 -1.437928e+000 -1.118481e+000 -8.546924e-001 -2.258570e-001 1.015113e+000 1.874702e+000 1.108247e+000 8.830236e-001 1.419805e+000 1.417843e+000 1.171811e+000 9.563779e-001 -7.206590e-001 3.021141e-001 -1.023918e-001 -1.582277e-001 -1.241853e-002 -3.249738e-001 -4.237416e-001 1.651805e-001 2.670890e-001 -1.217922e-001 -1.260668e-001 1.244007e-002 1.554687e-002 2.087210e-001
<VARIANCE> 39
 1.150115e+001 2.281205e+001 1.380578e+001 1.224373e+001 1.888014e+001 1.903537e+001 1.872988e+001 1.461082e+001 3.321415e+001 1.792956e+001 5.605762e+000 1.535215e+001 2.208395e+000 1.034394e+000 1.230852e+000 1.057163e+000 1.123450e+000 1.684494e+000 2.139974e+000 2.249806e+000 2.356228e+000 3.931773e+000 2.223744e+000 8.467130e-001 1.948900e+000 4.921367e-001 7.195055e-002 3.220055e-001 2.967826e-001 2.378464e-001 3.108249e-001 3.129221e-001 4.071890e-001 4.796277e-001 6.919047e-001 2.302354e-001 1.777469e-001 3.365712e-001 7.299677e-002
<GCONST> 9.318387e+001
<TRANSP> 5
 0.000000e+000 1.000000e+000 0.000000e+000 0.000000e+000 0.000000e+000
 0.000000e+000 8.447676e-001 1.552324e-001 0.000000e+000 0.000000e+000
 0.000000e+000 0.000000e+000 6.910082e-001 3.089918e-001 0.000000e+000
 0.000000e+000 0.000000e+000 0.000000e+000 7.974256e-001 2.025744e-001
 0.000000e+000 0.000000e+000 0.000000e+000 0.000000e+000 0.000000e+000
<ENDHMM>
~h "ah"
<BEGINHMM>
<NUMSTATES> 5
<STATE> 2
<MEAN> 39
 -1.685489e+001 5.248266e+000 7.191038e-002 3.385260e+000 2.928020e+000 4.580803e+000 6.226978e+000 6.386110e+000 7.124538e+000 5.145011e+000 5.126074e+000 3.624844e+000 5.866837e+001 -6.954635e-001 -2.894581e-001 1.201687e-001 2.167242e-001 2.188197e-001 2.750193e-001 1.369627e-001 1.374707e-001 2.337777e-001 2.695563e-001 3.416238e-001 3.582834e-001 -4.079394e-001 1.768056e-001 3.283460e-002 -3.435168e-002 -3.887116e-003 -5.306498e-002 -1.585229e-001 -1.046120e-001 -8.977001e-002 -1.118283e-001 -1.219516e-001 -9.364474e-002 -1.010924e-001 1.235792e-001
<VARIANCE> 39
 9.308852e+000 5.429643e+000 8.348953e+000 1.377852e+001 1.264187e+001 1.192021e+001 1.261265e+001 1.204202e+001 1.066215e+001 1.319152e+001 1.378393e+001 1.632450e+001 3.209574e+000 6.949566e-001 5.044665e-001 7.933850e-001 9.383422e-001 9.892813e-001 9.796100e-001 1.362705e+000 9.045664e-001 1.334515e+000 1.030764e+000 9.542838e-001 1.306971e+000 3.151833e-001 1.447495e-001 1.054189e-001 1.769926e-001 1.526377e-001 1.821959e-001 2.613707e-001 2.950475e-001 2.241499e-001 2.802199e-001 2.487155e-001 2.169325e-001 2.330020e-001 7.610051e-002
<GCONST> 7.835331e+001
<STATE> 3
<MEAN> 39
 -1.888042e+001 4.522617e+000 6.665412e-001 4.141125e+000 3.672601e+000 5.562537e+000 6.553443e+000 6.444183e+000 7.137144e+000 5.896566e+000 5.833558e+000 4.720967e+000 5.735423e+001 -2.909182e-001 -9.043815e-002 9.714615e-002 1.828937e-001 2.327352e-001 2.186078e-001 8.402745e-002 -5.379611e-002 -3.581486e-002 1.041740e-001 2.081768e-001 1.817382e-001 -1.766556e-001 7.407934e-002 4.214463e-002 9.311677e-003 -7.416348e-003 6.537549e-004 -5.123377e-002 -2.234482e-002 -4.572385e-002 -3.933606e-002 -5.034810e-002 -8.234826e-002 -1.235285e-001 5.923218e-002
<VARIANCE> 39
 1.800182e+000 8.692512e-001 2.835792e+000 4.908577e+000 5.747572e+000 6.976703e+000 5.035628e+000 5.988859e+000 6.430802e+000 6.477782e+000 6.454166e+000 9.328108e+000 6.146161e-001 1.843551e-001 1.486939e-001 3.561425e-001 5.680488e-001 5.810690e-001 7.668522e-001 8.306081e-001 7.594458e-001 1.010741e+000 8.421027e-001 7.380816e-001 9.596252e-001 8.384266e-002 4.757706e-002 2.984122e-002 8.947821e-002 1.100232e-001 1.041665e-001 1.102733e-001 1.449731e-001 1.527063e-001 1.967921e-001 1.472052e-001 1.347980e-001 2.013866e-001 2.325515e-002
<GCONST> 4.938343e+001
<STATE> 4
<MEAN> 39
 -1.979636e+001 4.222120e+000 1.101736e+000 5.166309e+000 4.635307e+000 6.235975e+000 6.650909e+000 6.414145e+000 6.837239e+000 6.079259e+000 6.072261e+000 4.807093e+000 5.688734e+001 9.377922e-003 -9.860998e-003 -1.476116e-003 -6.816815e-003 6.411018e-003 1.080968e-003 -5.352184e-003 -3.836110e-002 -3.230928e-002 -1.130601e-002 -7.512634e-003 -2.774055e-002 1.788706e-002 3.963576e-002 -7.830976e-003 2.016865e-003 -4.336587e-003 -1.067687e-002 -1.963024e-002 -1.653979e-002 -3.232620e-002 -2.279768e-002 -2.334165e-002 -1.526627e-002 -9.901192e-003 4.257043e-002
<VARIANCE> 39
 7.076837e-001 9.983916e-001 1.704190e+000 2.436929e+000 3.318158e+000 4.198254e+000 4.522217e+000 4.716516e+000 5.312030e+000 5.193441e+000 4.938432e+000 4.450444e+000 5.072046e-001 9.884100e-002 1.366906e-001 2.248133e-001 3.113225e-001 3.741341e-001 5.115935e-001 5.483580e-001 5.521543e-001 6.372951e-001 5.724586e-001 5.412278e-001 4.893249e-001 4.278684e-002 3.540809e-002 3.805855e-002 5.415603e-002 7.152679e-002 7.801592e-002 1.217814e-001 1.198397e-001 1.270101e-001 1.485864e-001 1.235283e-001 1.111158e-001 1.063204e-001 2.334195e-002
<GCONST> 3.567776e+001
<TRANSP> 5
 0.000000e+000 1.000000e+000 0.000000e+000 0.000000e+000 0.000000e+000
 0.000000e+000 7.300210e-001 2.699790e-001 0.000000e+000 0.000000e+000
 0.000000e+000 0.000000e+000 5.909581e-001 4.090419e-001 0.000000e+000
 0.000000e+000 0.000000e+000 0.000000e+000 9.467401e-001 5.325991e-002
 0.000000e+000 0.000000e+000 0.000000e+000 0.000000e+000 0.000000e+000
<ENDHMM>
~h "hh"
<BEGINHMM>
<NUMSTATES> 5
<STATE> 2
<MEAN> 39
 2.538896e+000 -1.488970e+000 -1.303733e+001 -2.218450e+000 -2.874167e+000 -1.023556e+001 3.509831e+000 1.090333e+001 1.625598e-001 -3.056546e+000 1.083726e+000 -1.762019e+000 7.432929e+001 -5.789042e-001 6.914705e-001 6.211394e-001 7.999900e-001 1.042967e+000 6.890252e-001 -9.636456e-001 -3.860953e-001 1.386429e+000 1.016230e+000 -1.587381e+000 -1.414094e+000 -9.477043e-001 -2.601241e-001 1.209328e-001 3.535027e-001 3.713152e-001 2.761855e-001 3.777766e-001 1.281805e-001 -1.002173e-001 -2.611732e-001 -1.385791e-001 3.167762e-002 -2.382834e-001 -1.601232e-001
<VARIANCE> 39
 2.199520e+000 4.746175e+000 1.158547e+001 4.111784e+001 4.328260e+001 1.190380e+001 1.968580e+001 1.649502e+001 1.055408e+001 8.355436e+000 1.635672e+001 2.487160e+001 3.672498e+000 2.868518e-001 3.690867e-001 3.944068e-001 1.121761e+000 4.157560e+000 7.091804e-001 2.040390e+000 9.354444e-001 2.774003e-001 1.195383e+000 6.747106e-001 7.300352e-001 7.656407e-002 3.903340e-002 1.398983e-001 1.823631e-001 1.389371e-001 3.491617e-001 1.852560e-001 3.501380e-001 1.242230e-001 7.114846e-002 3.708983e-001 2.153162e-001 2.128842e-001 4.936623e-002
<GCONST> 7.380536e+001
<STATE> 3
<MEAN> 39
 9.821254e-002 -9.673578e-001 -1.022604e+001 3.504697e+000 1.957599e+000 -8.022709e+000 1.863836e+000 1.160527e+001 2.757138e+000 -2.677208e+000 -2.524384e+000 -7.894974e+000 7.194163e+001 -9.047196e-001 7.947126e-001 1.129037e+000 1.028481e+000 4.927135e-001 1.509385e+000 1.335762e-001 -6.420325e-001 3.789234e-001 3.177369e-001 -3.325393e-001 -1.268945e+000 -9.863137e-001 -1.567161e-001 2.653381e-001 2.955495e-001 -3.651864e-002 -9.351339e-002 3.109489e-001 1.258099e-001 -2.616585e-001 -2.617323e-001 -1.303869e-001 2.563321e-001 1.547414e-001 -1.419328e-001
<VARIANCE> 39
 2.717508e+000 5.920140e+000 8.544135e+000 8.307930e+001 8.317589e+000 9.828506e+000 5.986019e+000 2.239926e+001 4.240675e+000 1.546828e+001 4.966057e+000 3.060194e+001 2.541562e+000 2.293354e-001 1.620759e+000 1.321661e+000 1.006004e+000 3.092001e+000 1.235430e+000 5.327032e-001 1.111492e+000 2.350127e-001 7.472975e-001 1.954699e+000 1.529037e+000 6.778668e-001 8.812416e-002 8.331074e-002 1.856625e-001 2.729465e-001 4.654388e-001 3.418251e-001 1.496037e-001 1.337784e-001 5.738870e-002 1.687990e-001 1.941172e-001 2.166418e-001 7.583497e-002
<GCONST> 7.550944e+001
<STATE> 4
<MEAN> 39
 -4.339975e+000 3.382018e+000 -6.068721e+000 3.824861e+000 2.705012e+000 -3.125958e-001 3.426748e+000 6.915099e+000 2.173141e+000 -1.645323e+000 -2.842341e+000 -7.923703e+000 6.733431e+001 -1.560655e+000 1.464788e+000 1.949704e+000 6.837838e-001 7.261129e-001 1.850537e+000 1.579664e-001 -9.705510e-001 -1.030780e-001 2.299333e-001 -1.543111e-001 -3.329558e-001 -1.498553e+000 -1.360117e-001 -6.087142e-002 5.213072e-002 1.225970e-002 1.114131e-001 -1.047274e-002 8.540659e-002 1.294016e-001 -5.610357e-002 -5.468202e-002 5.435331e-002 2.526120e-001 -2.227803e-002
<VARIANCE> 39
 8.135183e+000 1.557958e+001 1.238439e+001 2.842015e+001 8.748115e+000 2.374986e+001 7.262884e+000 1.563708e+001 7.666773e+000 7.992308e+000 4.789905e+000 9.284274e+000 5.529547e+000 4.045962e-001 1.085231e+000 1.453292e+000 1.427645e+000 1.081544e+000 2.991721e+000 3.619225e-001 9.178360e-001 6.989250e-001 6.937755e-001 9.071672e-001 2.447618e+000 5.710959e-001 1.058901e-001 1.846012e-001 1.553428e-001 1.253018e-001 3.609980e-001 4.965908e-001 9.885588e-002 1.441362e-001 1.462217e-001 2.426173e-001 2.488808e-001 1.230055e-001 8.862177e-002
<GCONST> 7.847208e+001
<TRANSP> 5
 0.000000e+000 1.000000e+000 0.000000e+000 0.000000e+000 0.000000e+000
 0.000000e+000 6.897185e-001 3.102815e-001 0.000000e+000 0.000000e+000
 0.000000e+000 0.000000e+000 5.693270e-001 4.306730e-001 0.000000e+000
 0.000000e+000 0.000000e+000 0.000000e+000 7.481875e-001 2.518125e-001
 0.000000e+000 0.000000e+000 0.000000e+000 0.000000e+000 0.000000e+000
<ENDHMM>
~h "ih"
<BEGINHMM>
<NUMSTATES> 5
<STATE> 2
<MEAN> 39
 -9.980177e+000 5.186624e+000 5.076771e-001 5.110989e+000 2.342428e+000 -3.361866e+000 1.123770e+000 5.189526e+000 4.922477e+000 -1.949824e+000 3.757492e-001 -1.519311e+000 6.519897e+001 2.409935e+000 -7.331560e-001 -1.306485e+000 -1.072674e+000 -2.412666e+000 -3.186424e+000 -7.486892e-001 7.696657e-001 2.796512e-001 -1.089895e+000 -2.084188e-001 -5.336320e-002 2.182547e+000 7.681453e-001 -2.992562e-001 -6.575155e-001 -1.164062e-001 -3.621693e-001 -6.707464e-001 -2.602609e-001 3.182124e-001 2.679136e-001 4.166996e-002 -2.279744e-001 -2.879341e-001 5.189377e-001
<VARIANCE> 39
 7.090349e+001 1.267522e+001 1.266111e+001 1.136563e+001 4.283179e+001 9.827631e+001 3.777140e+001 2.917325e+001 5.372513e+001 6.743106e+001 1.515341e+001 1.805932e+001 5.684100e+001 8.763842e+000 2.314923e+000 6.186859e+000 1.131295e+000 4.050052e+000 1.087132e+001 2.343609e+000 5.496724e+000 2.564125e+000 3.574333e+000 2.062990e+000 2.809415e+000 6.560969e+000 1.297416e+000 3.120427e-001 5.647776e-001 3.104344e-001 8.527182e-001 2.300189e+000 6.794803e-001 8.431840e-001 5.968037e-001 1.107443e+000 4.115864e-001 3.776392e-001 1.225895e+000
<GCONST> 1.291938e+002
<STATE> 3
<MEAN> 39
 2.621073e+000 2.176784e+000 -7.129287e+000 2.252763e+000 -4.064713e+000 -1.645611e+001 -4.085763e+000 1.065897e+001 6.448030e+000 -6.164522e+000 -2.331939e+000 -3.703171e+000 7.434979e+001 1.958365e+000 -1.153648e+000 -2.274659e+000 -7.719970e-001 -1.478667e+000 -1.741684e+000 1.860216e-003 1.369209e+000 1.146685e+000 4.972212e-002 -3.276386e-001 -1.298405e-001 1.258531e+000 -9.235854e-001 1.331332e-001 3.543153e-001 1.858315e-001 7.175821e-001 1.207164e+000 4.925653e-001 -6.301712e-001 -2.983744e-001 2.804643e-001 1.664773e-001 1.775308e-001 -6.535891e-001
<VARIANCE> 39
 8.984714e+000 4.806995e+001 7.646971e+001 2.125008e+001 5.752709e+001 4.190807e+001 2.901014e+001 4.001070e+001 8.912634e+001 4.953001e+001 1.827554e+001 1.166738e+001 1.164101e+001 3.783012e+000 3.250425e+000 6.085680e+000 1.967233e+000 2.250692e+000 3.719736e+000 9.913297e-001 2.967700e+000 3.438246e+000 1.837605e+000 1.492755e+000 7.337372e-001 2.495295e+000 8.826542e-001 4.244456e-001 9.259347e-001 1.334016e-001 3.577272e-001 1.622000e+000 3.950217e-001 3.192945e-001 5.881383e-001 6.036763e-001 3.619981e-001 1.003874e-001 6.880857e-001
<GCONST> 1.168253e+002
<STATE> 4
<MEAN> 39
 2.988160e+000 -3.100794e+000 -1.366867e+001 -5.261272e-001 -9.159825e+000 -1.487450e+001 3.189901e+000 1.217405e+001 4.525233e+000 -3.036731e+000 -2.230778e-001 -1.429939e+000 7.529152e+001 -4.427389e-001 2.985600e-001 1.852951e-001 -3.054254e-001 1.324994e-001 6.509823e-001 3.904604e-001 -7.462340e-001 -4.166442e-001 2.428728e-001 2.132382e-002 6.224163e-001 -3.989278e-001 -3.599314e-001 2.532693e-001 4.080432e-001 1.142772e-001 2.023205e-001 1.759314e-001 -1.354716e-001 -2.376604e-001 -1.476009e-001 -5.762948e-002 8.800423e-002 1.365935e-001 -2.572048e-001
<VARIANCE> 39
 1.227775e+001 3.520889e+001 4.762687e+001 3.156833e+001 4.554920e+001 3.337541e+001 3.346676e+001 4.357513e+001 4.125113e+001 3.345263e+001 1.508815e+001 1.690335e+001 1.353655e+001 6.591370e-001 9.226491e-001 1.673928e+000 5.857520e-001 9.463921e-001 1.928720e+000 8.425955e-001 1.101101e+000 1.907035e+000 8.619609e-001 7.516994e-001 6.429939e-001 6.475536e-001 2.178603e-001 1.987201e-001 3.577208e-001 1.224031e-001 2.064140e-001 3.465200e-001 1.815358e-001 2.273636e-001 3.521561e-001 2.701808e-001 1.937363e-001 1.307367e-001 1.458915e-001
<GCONST> 9.434888e+001
<TRANSP> 5
 0.000000e+000 1.000000e+000 0.000000e+000 0.000000e+000 0.000000e+000
 0.000000e+000 7.123292e-001 2.876709e-001 0.000000e+000 0.000000e+000
 0.000000e+000 0.000000e+000 4.018242e-001 5.981758e-001 0.000000e+000
 0.000000e+000 0.000000e+000 0.000000e+000 7.965809e-001 2.034191e-001
 0.000000e+000 0.000000e+000 0.000000e+000 0.000000e+000 0.000000e+000
<ENDHMM>
~h "iy"
<BEGINHMM>
<NUMSTATES> 5
<STATE> 2
<MEAN> 39
 -4.736846e+000 3.691566e+000 1.765884e+000 1.277762e+001 1.228228e+001 -4.604834e+000 -7.960886e+000 -3.317610e+000 -2.150385e+000 -6.232306e+000 -2.241241e+000 -6.371827e+000 7.009776e+001 -1.097817e-002 -3.482424e-001 -4.888849e-002 -6.303627e-002 -2.021318e-001 -2.963750e-001 5.291645e-001 -3.293205e-001 -1.304495e+000 -3.880342e-001 6.287150e-001 6.738674e-001 2.812226e-001 8.896946e-002 5.275310e-002 -1.803561e-001 -9.573863e-002 -2.778131e-001 -1.185466e-001 1.220768e-001 6.334852e-002 -2.156667e-001 -5.013666e-002 9.575999e-002 8.412448e-002 2.595834e-003
<VARIANCE> 39
 4.976245e+000 7.212631e+001 2.316515e+001 4.958030e+001 3.408953e+001 4.303438e+001 4.206329e+001 2.134533e+001 4.718138e+001 3.728969e+001 4.055631e+001 3.049762e+001 2.836587e+001 2.300377e-001 2.874243e+000 8.985977e-001 3.275354e+000 2.412556e+000 5.321883e+000 3.021154e+000 8.678082e-001 2.127488e+000 2.073856e+000 2.588350e+000 1.053162e+000 1.296166e+000 3.730287e-002 5.722418e-001 1.563611e-001 6.061932e-001 2.979003e-001 1.081606e+000 6.534351e-001 2.010030e-001 5.215946e-001 2.731583e-001 4.300812e-001 2.385236e-001 2.709621e-001
<GCONST> 1.086675e+002
<STATE> 3
<MEAN> 39
 -2.909507e+000 -8.296261e-001 -1.639430e+000 1.258536e+001 9.933965e+000 -9.001821e+000 -5.324775e+000 -3.163768e+000 -8.515924e+000 -9.947895e+000 1.128693e+000 -8.335149e-001 7.347922e+001 4.866602e-001 -8.554323e-002 -8.061749e-001 -6.763361e-001 -1.184632e+000 -5.753919e-001 7.091439e-001 1.748310e-001 -1.060297e+000 -4.454670e-001 1.593192e-001 7.297575e-001 2.677307e-001 8.385411e-002 1.012176e-001 -5.882364e-002 -8.141764e-002 -5.196317e-002 -1.092846e-001 -2.310200e-001 1.512007e-001 4.640965e-001 -1.391109e-002 -2.743222e-002 -2.267754e-002 -2.866381e-002
<VARIANCE> 39
 3.744455e+000 1.792963e+001 1.806027e+001 6.576283e+001 3.723208e+001 3.388493e+001 3.866747e+001 5.154607e+001 3.531227e+001 5.525552e+001 3.262847e+001 1.479237e+001 7.334391e+000 4.126543e-001 2.952133e+000 1.202338e+000 3.962756e+000 1.385633e+000 7.145450e+000 3.321969e+000 2.168337e+000 3.326058e+000 1.642317e+000 3.257889e+000 1.122284e+000 1.406397e+000 7.346997e-002 4.001700e-001 2.110095e-001 6.487699e-001 2.150806e-001 1.715711e+000 6.621445e-001 6.658753e-001 4.441522e-001 3.836491e-001 6.405758e-001 2.533954e-001 2.702473e-001
<GCONST> 1.105832e+002
<STATE> 4
<MEAN> 39
 9.706049e-001 -3.405826e+000 -8.862291e+000 5.673368e+000 2.570007e+000 -1.369823e+001 -4.121179e+000 1.294999e+000 -5.376716e+000 -8.481999e+000 4.619380e+000 6.294170e+000 7.585795e+001 1.549504e-001 -1.153961e-002 -5.756048e-001 -7.838429e-001 -8.845591e-001 6.837967e-002 4.814185e-001 5.186503e-001 4.478096e-001 6.879397e-001 5.964827e-001 4.814471e-001 -1.207173e-001 -1.586190e-001 1.241633e-001 2.476556e-001 1.920578e-001 1.251614e-001 3.098737e-001 -1.065678e-002 -6.946102e-002 2.537390e-002 -7.988192e-003 -1.171037e-001 -2.467865e-001 -1.787689e-001
<VARIANCE> 39
 3.287399e+000 1.669721e+001 2.143564e+001 4.202839e+001 4.279680e+001 2.377344e+001 2.646465e+001 3.715302e+001 2.120547e+001 4.047417e+001 8.498477e+001 2.301717e+001 5.049477e+000 4.955029e-001 9.820088e-001 1.663494e+000 2.568509e+000 2.560242e+000 3.715337e+000 4.000936e+000 3.724340e+000 1.218121e+000 2.823121e+000 4.875617e+000 2.653253e+000 7.718710e-001 3.605403e-002 1.380636e-001 1.685067e-001 4.264677e-001 3.774716e-001 6.263864e-001 7.590842e-001 6.121269e-001 2.987935e-001 5.729138e-001 8.582541e-001 3.743822e-001 6.795391e-002
<GCONST> 1.057433e+002
<TRANSP> 5
 0.000000e+000 1.000000e+000 0.000000e+000 0.000000e+000 0.000000e+000
 0.000000e+000 7.780175e-001 2.219825e-001 0.000000e+000 0.000000e+000
 0.000000e+000 0.000000e+000 6.458632e-001 3.541369e-001 0.000000e+000
 0.000000e+000 0.000000e+000 0.000000e+000 8.868812e-001 1.131187e-001
 0.000000e+000 0.000000e+000 0.000000e+000 0.000000e+000 0.000000e+000
<ENDHMM>
~h "jh"
<BEGINHMM>
<NUMSTATES> 5
<STATE> 2
<MEAN> 39
 -1.185494e-001 6.863343e-001 -4.910224e+000 1.108879e+001 7.756101e+000 -6.924595e+000 -6.361169e+000 -2.115733e+000 -2.859401e+000 -2.765147e+000 -9.196806e-001 -5.126532e+000 7.225869e+001 3.499068e-001 -4.607489e-001 -6.406289e-001 -6.532578e-001 -6.588504e-001 -4.504735e-001 6.137284e-001 5.379412e-001 -7.242406e-001 -1.220787e-001 7.872041e-001 2.552985e-001 4.596320e-001 2.461983e-002 -2.764910e-003 -1.994099e-001 -3.518731e-001 -2.011346e-001 -4.466340e-003 3.971107e-001 2.630790e-001 -1.885815e-001 -1.513589e-001 1.231506e-001 2.175563e-001 5.600400e-002
<VARIANCE> 39
 9.897223e-001 7.029573e+000 5.347765e+000 9.795221e+000 6.040902e+001 8.773119e+000 4.254900e+001 3.309361e+001 2.430261e+001 3.620121e+001 4.574951e+001 8.865715e+000 3.948656e+000 5.216092e-001 6.265111e-001 1.392318e+000 7.653094e-001 3.056542e+000 1.635728e+000 1.429645e+000 2.777177e+000 7.370054e-001 4.853927e-001 4.486398e+000 5.083897e-001 3.612042e-001 4.964312e-002 5.766935e-002 1.572669e-001 1.666333e-001 3.627402e-001 3.269235e-001 1.619661e-001 1.901351e-001 1.638158e-001 1.451213e-001 6.536717e-001 1.893590e-001 6.405573e-002
<GCONST> 8.228180e+001
<STATE> 3
<MEAN> 39
 1.260699e+000 -8.031008e-001 -8.481441e+000 6.128757e+000 3.173787e+000 -8.372052e+000 -1.294998e+000 1.121809e+000 -7.013908e+000 -3.852391e+000 3.899176e+000 -2.842384e+000 7.428725e+001 5.075248e-001 -7.806045e-001 -1.588518e+000 -2.471487e+000 -1.623531e+000 -9.502133e-001 2.481034e+000 2.475429e+000 -1.192075e+000 -2.879000e-001 1.279248e+000 1.398103e+000 1.051752e+000 -1.207988e-001 -1.605257e-003 3.726473e-002 -3.562822e-001 1.788219e-001 1.376090e-002 1.672400e-001 3.452734e-001 3.799219e-001 -1.682020e-001 -4.006792e-001 2.674130e-001 3.575959e-002
<VARIANCE> 39
 2.249608e+000 1.745466e+001 1.380744e+001 1.261933e+001 1.052344e+002 2.225232e+001 4.456274e+001 4.936835e+001 2.155099e+001 2.637606e+001 1.387903e+002 3.081656e+001 1.026799e+001 3.079832e-001 9.252948e-001 6.340534e-001 3.695703e+000 1.787908e+000 2.303531e+000 9.423543e-001 2.841658e+000 1.310618e+000 6.885290e-001 2.873128e+000 1.138784e+000 5.459868e-001 9.166623e-002 1.775755e-001 3.687545e-001 3.883398e-001 6.131830e-001 7.330127e-001 2.286520e-001 9.765664e-001 1.874090e-001 1.005637e-001 1.532223e+000 5.278977e-001 1.984072e-001
<GCONST> 1.013086e+002
<STATE> 4
<MEAN> 39
 2.642119e+000 -3.530936e+000 -1.215654e+001 7.422280e-002 -5.630991e+000 -1.064096e+001 7.030785e+000 9.616678e+000 -9.573573e+000 -6.744956e+000 9.388666e+000 1.950599e+000 7.699374e+001 2.804438e-001 -2.562768e-001 -6.859782e-001 -1.365100e+000 -9.188260e-001 -3.374978e-001 1.472358e+000 1.530165e+000 2.779509e-001 -3.952184e-001 -3.075102e-001 5.720575e-001 2.194492e-001 -8.214556e-002 1.714005e-001 2.375323e-001 2.595393e-001 1.828347e-001 1.363016e-001 -4.271738e-001 -2.983876e-001 4.159685e-001 4.066956e-002 -2.399339e-001 -1.969211e-001 -2.057902e-001
<VARIANCE> 39
 1.792253e+000 1.379797e+001 4.350213e+000 2.649801e+001 4.530546e+001 1.773959e+001 1.546210e+001 3.144563e+001 1.256154e+001 1.678101e+001 3.606066e+001 9.682274e+000 1.736854e+000 1.279555e-001 7.129983e-001 1.116445e+000 2.862177e+000 7.104264e-001 1.405494e+000 1.220712e+000 3.665334e+000 9.338818e-001 9.773297e-001 2.209065e+000 2.814301e+000 7.895859e-001 2.860646e-002 1.037846e-001 6.280328e-002 2.616490e-001 1.152387e-001 2.883693e-001 1.637546e-001 3.445848e-001 3.671184e-001 1.909215e-001 2.907172e-001 1.255694e-001 4.158184e-002
<GCONST> 8.067530e+001
<TRANSP> 5
 0.000000e+000 1.000000e+000 0.000000e+000 0.000000e+000 0.000000e+000
 0.000000e+000 8.317062e-001 1.682938e-001 0.000000e+000 0.000000e+000
 0.000000e+000 0.000000e+000 3.585806e-001 6.414195e-001 0.000000e+000
 0.000000e+000 0.000000e+000 0.000000e+000 7.053896e-001 2.946104e-001
 0.000000e+000 0.000000e+000 0.000000e+000 0.000000e+000 0.000000e+000
<ENDHMM>
~h "ow"
<BEGINHMM>
<NUMSTATES> 5
<STATE> 2
<MEAN> 39
 5.284315e-001 1.898806e+000 -6.140961e+000 4.078008e+000 3.542150e+000 -1.094539e+001 -3.013164e+000 1.310181e+000 -3.200579e+000 -8.848274e+000 2.216411e-001 1.281176e+000 7.500788e+001 1.903237e+000 -1.505090e+000 -2.964763e+000 -2.329945e+000 -2.791217e+000 -4.045292e+000 2.471825e+000 3.443966e+000 -5.939519e-001 -2.502208e+000 2.244458e+000 3.029896e+000 2.036182e+000 -2.158788e-001 4.332877e-001 2.509896e-001 4.311922e-002 -3.493607e-001 3.113155e-002 7.533906e-002 7.729179e-001 7.084471e-001 5.138896e-001 -1.569625e-001 -5.726605e-001 -5.171018e-001
<VARIANCE> 39
 6.508335e+000 1.297794e+001 3.394720e+001 2.553783e+001 6.526308e+001 3.472582e+001 4.861827e+001 4.548063e+001 4.813266e+001 3.070202e+001 4.505541e+001 4.905750e+001 1.053685e+001 5.583801e-001 1.008327e+000 7.782326e-001 3.888309e-001 8.673425e-001 2.518042e+000 7.719784e-001 4.597301e+000 3.505356e+000 3.332163e+000 2.889678e+000 3.925755e+000 7.866327e-001 1.566642e-001 1.675913e-001 3.510247e-001 1.459074e-001 3.298250e-001 7.679742e-001 6.321967e-001 6.673906e-001 7.555369e-001 7.106332e-001 1.091286e+000 1.582105e+000 3.139380e-001
<GCONST> 1.105024e+002
<STATE> 3
<MEAN> 39
 3.582034e+000 1.280462e-001 -1.131792e+001 -2.751778e-001 -3.046228e+000 -1.765576e+001 2.465970e+000 9.896946e+000 -1.357930e+000 -1.292906e+001 4.357688e+000 4.419016e+000 7.788408e+001 9.812649e-001 -8.506040e-002 -1.114646e+000 -1.540215e+000 -2.577079e+000 -2.029384e+000 7.596083e-001 2.840852e+000 1.344531e+000 5.380825e-001 8.185188e-001 -5.843155e-001 5.622700e-001 -4.554737e-001 4.159139e-001 8.531550e-001 5.495211e-001 4.315096e-001 8.383132e-001 -1.026953e+000 -5.212492e-001 2.114417e-001 1.263720e+000 -5.955442e-001 -1.047782e+000 -5.572703e-001
<VARIANCE> 39
 1.818211e+000 1.023343e+001 1.005609e+001 2.181424e+001 3.773036e+001 1.714494e+001 1.492466e+001 1.785569e+001 3.122429e+001 1.501280e+001 2.604040e+001 2.378631e+001 1.446438e+000 3.108079e-001 3.632720e-001 1.236434e+000 2.540435e-001 1.445725e+000 1.370482e+000 3.795270e+000 1.065294e+000 1.707298e+000 1.944922e+000 1.966376e+000 4.062596e+000 2.912168e-001 5.729013e-002 1.023357e-001 1.130384e-001 2.964869e-002 7.759950e-002 6.138252e-001 2.669618e-001 5.829136e-001 3.091004e-001 1.956910e-001 1.476779e-001 6.118790e-001 4.229085e-002
<GCONST> 8.166846e+001
<STATE> 4
<MEAN> 39
 4.044813e+000 1.190688e+000 -7.508502e+000 1.405928e+000 -1.117370e+001 -2.497295e+001 -3.524360e+000 1.782609e+001 1.562736e+000 -5.616431e+000 3.903971e+000 -2.221240e-001 7.582552e+001 -1.370494e-001 3.618270e-001 4.110712e-001 1.478239e-001 -4.624158e-001 -3.629478e-001 -4.497579e-001 1.686131e-001 3.465831e-001 5.084816e-001 -2.914867e-001 -1.972134e-001 -4.323400e-001 -1.247823e-001 1.168582e-001 1.257226e-001 4.329003e-002 1.540859e-001 2.559572e-001 1.735687e-003 -3.047589e-001 -8.065011e-002 -3.428298e-002 -4.278881e-002 3.541227e-002 -1.053275e-001
<VARIANCE> 39
 2.103160e+000 7.905754e+000 1.941099e+001 2.966652e+001 2.255181e+001 2.947229e+001 2.953391e+001 1.596245e+001 2.178565e+001 1.728408e+001 1.698239e+001 8.278399e+000 3.820144e+000 1.562750e-001 5.692682e-001 5.330210e-001 4.977519e-001 8.519136e-001 1.323934e+000 1.446470e+000 1.657092e+000 5.008639e-001 2.061567e+000 6.427592e-001 1.212377e+000 1.576099e-001 1.820185e-002 4.759372e-002 1.020241e-001 9.860697e-002 5.260125e-002 1.180182e-001 2.441980e-001 1.206704e-001 8.926587e-002 2.299128e-001 1.440729e-001 2.060302e-001 1.722706e-002
<GCONST> 6.917795e+001
<TRANSP> 5
 0.000000e+000 1.000000e+000 0.000000e+000 0.000000e+000 0.000000e+000
 0.000000e+000 5.845323e-001 4.154677e-001 0.000000e+000 0.000000e+000
 0.000000e+000 0.000000e+000 3.551083e-001 6.448917e-001 0.000000e+000
 0.000000e+000 0.000000e+000 0.000000e+000 9.256805e-001 7.431948e-002
 0.000000e+000 0.000000e+000 0.000000e+000 0.000000e+000 0.000000e+000
<ENDHMM>
~h "uh"
<BEGINHMM>
<NUMSTATES> 5
<STATE> 2
<MEAN> 39
 -3.481659e+000 -1.828643e+000 -7.136235e+000 1.682594e+000 5.915748e-001 -8.109645e+000 2.961920e+000 2.103696e+000 -2.607741e+000 -3.465187e+000 3.907918e+000 2.635927e+000 7.337894e+001 2.516155e+000 -5.306659e-001 -1.701682e+000 6.443259e-001 -4.422788e-001 -1.399921e+000 -1.894223e-001 -2.207783e-002 -1.075801e+000 -1.478998e+000 -6.966341e-001 -4.274629e-001 1.458639e+000 -3.529947e-001 1.946245e-001 3.275715e-001 -4.665703e-002 7.623174e-002 2.699108e-001 -1.244224e-001 1.120298e-001 3.432409e-001 1.914892e-001 -5.202070e-002 -2.991970e-001 -2.965240e-001
<VARIANCE> 39
 6.109100e+001 2.754119e+001 4.927489e+001 4.541951e+001 6.662067e+001 3.848753e+001 5.577995e+001 6.363471e+001 3.208406e+001 2.798016e+001 2.609355e+001 1.540178e+001 2.445860e+001 5.197025e+000 2.933669e+000 5.302787e+000 2.892699e+000 1.883704e+000 5.488605e+000 2.722016e+000 5.466121e+000 7.527233e+000 7.420033e+000 2.797759e+000 2.827799e+000 3.457415e+000 9.159350e-001 9.196976e-001 5.038365e-001 4.072794e-001 4.264548e-001 9.585410e-001 6.109921e-001 1.032611e+000 5.752076e-001 5.513240e-001 6.060034e-001 3.522645e-001 4.749963e-001
<GCONST> 1.301101e+002
<STATE> 3
<MEAN> 39
 1.022188e+000 -2.628646e+000 -1.007376e+001 2.431068e+000 -1.105940e-001 -1.001079e+001 2.239472e+000 2.390470e+000 -3.200754e+000 -5.611389e+000 2.200917e+000 1.717476e+000 7.547523e+001 1.287123e+000 -4.055186e-002 -6.833256e-001 2.747260e-001 -2.286250e-001 -8.174899e-001 -5.815575e-001 4.544920e-002 -6.797098e-002 -6.297660e-001 -7.116994e-001 -6.482442e-001 6.314588e-001 -6.187343e-001 4.625200e-001 5.617152e-001 -9.222737e-002 1.046956e-001 2.779182e-001 -2.077131e-001 1.218686e-002 3.311943e-001 3.734200e-001 6.536369e-002 -1.521643e-001 -5.207152e-001
<VARIANCE> 39
 2.231538e+001 2.377895e+001 4.272449e+001 4.581764e+001 8.048371e+001 2.829373e+001 5.142410e+001 8.143307e+001 4.362971e+001 2.100592e+001 2.631397e+001 1.972041e+001 1.542619e+001 3.418869e+000 2.987800e+000 3.170851e+000 1.084695e+000 1.539019e+000 4.362245e+000 1.863846e+000 2.166310e+000 4.341491e+000 5.884183e+000 3.809302e+000 3.375603e+000 1.762792e+000 5.112717e-001 5.592425e-001 5.248365e-001 3.151253e-001 4.299943e-001 7.034806e-001 3.246770e-001 1.031669e+000 7.106186e-001 5.215070e-001 4.817311e-001 4.162846e-001 2.886088e-001
<GCONST> 1.214470e+002
<STATE> 4
<MEAN> 39
 2.205907e+000 -1.830768e+000 -1.038340e+001 2.960613e+000 -4.647820e-001 -1.151520e+001 8.399130e-001 2.227952e+000 -4.120978e+000 -6.692450e+000 1.726626e+000 1.044641e+000 7.559782e+001 1.167359e-001 8.915368e-001 4.238094e-001 9.569276e-002 -9.966989e-002 -3.012098e-001 -6.945934e-001 8.546068e-002 5.828692e-002 -3.062166e-001 -5.234248e-001 -6.767905e-001 -3.389414e-001 -5.836727e-001 4.239661e-001 4.646788e-001 -1.286724e-001 2.917499e-002 3.284801e-001 -2.755765e-002 7.913083e-002 1.985792e-001 4.009168e-001 4.878205e-002 -3.750758e-002 -5.412266e-001
<VARIANCE> 39
 9.980701e+000 2.084269e+001 3.586739e+001 4.004349e+001 8.762643e+001 2.453332e+001 5.777395e+001 6.992445e+001 6.255278e+001 3.235343e+001 2.239565e+001 2.066044e+001 1.340737e+001 1.776657e+000 2.477473e+000 2.127248e+000 4.095211e-001 1.667461e+000 3.431277e+000 1.364299e+000 2.076290e+000 2.176213e+000 2.433330e+000 3.323733e+000 2.358742e+000 1.022989e+000 3.688650e-001 3.272961e-001 4.217315e-001 1.838399e-001 3.244820e-001 4.723668e-001 2.572418e-001 5.125015e-001 6.552014e-001 7.751310e-001 2.926757e-001 3.161313e-001 2.779843e-001
<GCONST> 1.115746e+002
<TRANSP> 5
 0.000000e+000 1.000000e+000 0.000000e+000 0.000000e+000 0.000000e+000
 0.000000e+000 2.851114e-001 7.148886e-001 0.000000e+000 0.000000e+000
 0.000000e+000 0.000000e+000 2.729270e-001 7.270730e-001 0.000000e+000
 0.000000e+000 0.000000e+000 0.000000e+000 3.883017e-001 6.116983e-001
 0.000000e+000 0.000000e+000 0.000000e+000 0.000000e+000 0.000000e+000
<ENDHMM>
~h "sil"
<BEGINHMM>
<NUMSTATES> 5
<STATE> 2
<MEAN> 39
 -1.873278e+001 5.160815e+000 1.714815e+000 6.050198e+000 5.128061e+000 6.026440e+000 6.008565e+000 6.483624e+000 6.674283e+000 5.469668e+000 5.769841e+000 4.834987e+000 5.730561e+001 -3.127784e-001 -2.757839e-001 -1.726773e-001 -9.886183e-002 1.025439e-001 1.928415e-001 2.431567e-001 2.688162e-001 1.132566e-001 2.694986e-001 2.637490e-001 1.459924e-001 -1.280629e-001 8.544990e-002 4.027694e-003 -4.259069e-002 -1.766351e-002 -3.076763e-002 -3.388184e-002 -4.009656e-002 -1.378380e-001 -4.435594e-002 -6.328248e-002 -8.203651e-002 -8.083623e-002 6.280859e-002
<VARIANCE> 39
 5.224147e+000 6.887051e+000 5.112463e+000 4.085110e+000 3.397859e+000 4.533013e+000 6.396526e+000 6.034206e+000 8.243472e+000 9.040854e+000 6.717512e+000 7.176127e+000 9.348555e-001 2.696108e-001 2.696810e-001 2.783387e-001 2.921271e-001 4.253289e-001 5.459328e-001 8.649091e-001 9.095327e-001 8.292626e-001 1.055343e+000 7.609938e-001 6.331734e-001 7.494489e-002 1.036521e-002 3.940646e-002 6.024775e-002 6.534883e-002 7.078821e-002 8.599975e-002 1.272043e-001 8.621280e-002 1.244748e-001 1.762655e-001 1.836981e-001 1.241460e-001 6.591601e-003
<GCONST> 4.694388e+001
<STATE> 3
<MEAN> 39
 -1.960295e+001 4.147562e+000 7.847219e-001 5.184403e+000 4.743298e+000 6.041123e+000 6.350064e+000 5.815500e+000 7.130394e+000 6.698400e+000 5.980812e+000 5.074380e+000 5.701678e+001 8.605270e-002 1.415490e-002 5.111425e-002 8.558360e-002 1.809852e-001 -1.382827e-001 6.542911e-002 -3.603106e-001 1.516766e-001 6.529008e-002 -1.674735e-001 -2.180862e-001 1.362998e-001 2.540315e-001 1.481962e-001 1.981681e-001 2.511057e-001 1.236605e-001 -1.875878e-001 -2.214456e-001 -1.694769e-001 -1.061599e-001 -1.825802e-001 -1.429548e-001 -2.497010e-001 1.701816e-001
<VARIANCE> 39
 1.006372e+000 6.798559e-001 1.727747e+000 1.771123e+000 5.232824e+000 2.398250e+000 5.062832e+000 4.153776e+000 2.919572e+000 3.087819e+000 4.031111e+000 1.049930e+001 5.072046e-001 1.076485e-001 1.051022e-001 4.045383e-001 2.372092e-001 4.128572e-001 4.030613e-001 7.940470e-001 7.211742e-001 1.152754e+000 3.427826e-001 3.004375e-001 6.130247e-001 7.901449e-002 1.134072e-001 7.141998e-002 7.511096e-002 1.130512e-001 1.222385e-001 7.164121e-002 2.127639e-001 5.968101e-002 3.134200e-001 1.953354e-001 1.873962e-001 2.723571e-001 4.050393e-002
<GCONST> 4.125875e+001
<STATE> 4
<MEAN> 39
 -1.939347e+001 3.932213e+000 4.759154e-001 5.100852e+000 5.672122e+000 6.833004e+000 6.719541e+000 5.767727e+000 7.526610e+000 6.018374e+000 5.015504e+000 4.387272e+000 5.716457e+001 5.425821e-001 3.896844e-001 6.130736e-001 7.203738e-001 4.371584e-001 -2.916436e-001 -6.885064e-002 -3.850653e-001 -3.579480e-001 -4.535677e-001 -4.403247e-001 -7.670193e-001 3.860948e-001 5.021499e-001 1.624404e-001 1.521225e-001 2.079503e-001 6.615673e-002 -2.704989e-001 -5.536013e-001 -1.465697e-001 -3.214451e-001 -2.501452e-001 -2.923796e-001 -4.126732e-001 3.558955e-001
<VARIANCE> 39
 1.104229e+000 5.558002e-001 1.899935e+000 1.351402e+000 5.913862e+000 2.384733e+000 7.418401e+000 9.922462e+000 5.595383e+000 2.368251e+000 6.349875e+000 6.568754e+000 5.549259e-001 6.885887e-001 7.172255e-001 5.778307e-001 8.836195e-001 6.339582e-001 5.142606e-001 1.033592e+000 1.009100e+000 2.062347e+000 1.088615e+000 1.218883e+000 1.157992e+000 3.191068e-001 2.547029e-001 8.995035e-002 5.235054e-002 7.557724e-002 9.559210e-002 1.747437e-001 2.957272e-001 4.851169e-002 3.550047e-001 1.501869e-001 2.297180e-001 3.683474e-001 1.323974e-001
<GCONST> 5.728983e+001
<TRANSP> 5
 0.000000e+000 1.000000e+000 0.000000e+000 0.000000e+000 0.000000e+000
 0.000000e+000 7.884347e-001 2.115653e-001 0.000000e+000 0.000000e+000
 0.000000e+000 0.000000e+000 3.445807e-001 6.554193e-001 0.000000e+000
 0.000000e+000 0.000000e+000 0.000000e+000 4.505469e-002 9.549453e-001
 0.000000e+000 0.000000e+000 0.000000e+000 0.000000e+000 0.000000e+000
<ENDHMM>
